RESERVED,-0.07979903,0.015667353,-0.015955448,0.030398525,-0.024274446,-0.018928524,0.011821449,0.048265126,-0.026079379,-0.013760049,-0.046393525,0.03170599,-0.017119337,-0.05288991,0.037600674,0.013228405,-0.034725547,0.052658595,0.024348367,-0.06257484,0.04122187,-0.06673801,0.01632328,-0.04098431,0.0013307333,0.010346033,-0.01785668,-0.020599663,0.035362,0.017757788,0.032154217,0.040942434,-0.009294964,0.033776283,0.059824944,-0.0063228384,-0.035781898,0.0023811832,-0.025796749,-0.022436764,0.011188913,0.03671246,-0.010367094,-0.05904782,0.025678422,-0.08594404,0.022339012,0.0068865754,0.0055663697,-0.05194359,-0.011628855,0.047219995,0.028374348,-0.04893267,-0.0020788163,0.044528686,-0.011723898,-0.017106604,-0.02738348,-0.025112532,-0.019256914,0.008882068,-0.051835336,-0.039532147,-0.024052355,-0.016272638,-0.02444762,0.02127925,0.03679456,-0.032306086,-0.06650251,-0.027758291,0.028950773,-0.0059020855,0.030693065,0.060248505,0.022498425,-0.04197985,-0.024629295,0.002090646,0.015890364,0.007979857,-0.06840047,-0.033944417,-0.013852309,0.08240494,-0.0063916575,0.06640911,-0.045991134,0.06299732,0.017714463,0.0011013616,-0.00959241,0.030662589,-0.03729701,-0.011696756
UNK,-0.010624494,-0.012259897,0.053508036,0.051993653,0.08554188,0.02421663,-0.010021567,-0.047648776,-0.076348215,-0.006771896,0.099130586,-0.033833347,0.008478675,-0.054335628,0.014147747,-0.014654029,-0.08718243,0.043169044,0.0070338957,-0.049722407,0.010524858,0.065749764,-0.05757296,-0.010049358,0.017834531,0.04974667,-0.011117162,0.0014793314,0.028044261,-0.011980547,0.09009605,-0.034880638,-0.06127063,-0.0042664744,-0.015693232,0.05415669,-0.037341546,0.016691897,0.059952617,-0.08697052,0.004424479,-0.02840222,-0.01842779,-0.005301323,0.0013734456,0.02345474,0.022941992,-0.016528342,-0.010121191,-0.06888987,0.04232833,-0.055515923,-0.06128472,-0.019525029,-0.0030908212,0.03815664,-0.07699803,0.05867534,0.003068041,0.045462385,-0.07670994,0.034696534,-0.06968489,0.06137916,0.0040352233,0.041061867,0.0021362863,-0.059921026,-0.022273611,0.0046346784,0.015299667,0.009247672,0.07342537,-0.05043409,-0.079284385,-0.07687281,-0.042357087,0.03791182,0.027040865,0.06882628,0.004283536,-0.034462538,-0.0005483888,-0.01266798,0.014326002,0.07068042,-0.032555174,0.00982758,0.012440931,0.022639915,-0.0315716,-0.020778907,-0.038401425,0.053035915,-0.039168287,-0.02151617
fruité,-0.27708644,-0.44536912,-0.2714612,-0.2782892,0.48679554,0.52959913,-0.54442036,-0.32284498,0.50062376,0.3018248,-0.16703452,0.3687892,0.49462494,-0.18152231,-0.34872425,0.36973694,0.6863767,-0.23054452,-0.31355074,0.6367787,-0.3390745,0.43835163,-0.5768167,0.37585938,-0.48533416,-0.38027245,0.20657426,-0.3354965,0.09977395,0.45247322,0.369628,-0.541134,0.4302346,-0.47412413,0.32010582,0.54410267,0.425817,-0.3462209,-0.29879862,0.30236754,-0.3261457,0.256882,0.4454667,-0.37194782,0.43449122,-0.3162646,0.32399052,0.5112556,0.43941474,-0.5195369,-0.16934887,-0.51021564,-0.5545918,-0.51826763,0.34939203,-0.50744414,-0.49285892,0.43043888,0.06822349,-0.33779705,-0.604815,0.437415,0.16242847,0.25058728,-0.09859131,0.19650434,-0.4559378,-0.3587188,0.47999713,0.36703584,0.3660168,0.49475446,0.4025297,0.3632692,0.5439746,-0.2220647,0.17670229,-0.38938147,-0.24783234,0.1712648,-0.4456633,0.49006,0.58329666,0.25689697,-0.2751918,0.53397703,0.44331035,-0.373554,0.21907419,-0.22573073,0.12116998,0.25249022,0.296601,-0.3362836,-0.5444583,0.5093356
vert,-0.0961377,-0.19266897,-0.23986161,-0.01391392,0.15038687,0.28907567,-0.12950437,-0.26324427,0.31699228,0.063997164,-0.20900364,0.10857965,0.17921627,-0.057998456,-0.29149336,0.2575494,0.0881625,0.0078265555,-0.04455687,0.23490973,-0.13466406,0.17976147,-0.17937537,0.27198458,-0.1952438,-0.1136844,0.04547934,-0.06495923,-0.18545403,-0.011617081,0.029191665,-0.125201,0.113903776,-0.025623575,0.15032573,0.29780975,0.09220424,-0.058927048,-0.21549043,-0.030373018,-0.09211552,0.09741561,0.16675995,-0.2164957,0.35470146,-0.107820794,0.16070122,0.046178147,0.04610851,-0.3506473,0.16150734,-0.15367763,-0.43924445,-0.45085078,0.07473202,-0.40572992,-0.1537845,0.24090256,-0.3054156,-0.039744627,-0.23913817,0.38547647,0.029901102,-0.09673536,-0.12535867,-0.2607343,-0.023690715,-0.16077751,0.15377542,-0.07434936,0.0639728,0.2948063,0.23971857,0.09820093,0.21716705,-0.046300095,0.028297037,-0.23644555,-0.23540178,0.31354058,-0.24120772,0.19783974,0.082750835,0.16186571,0.04446244,0.21255317,0.043642372,-0.0032293664,0.07967123,-0.1323067,-0.0012613507,-0.0067795645,0.19405493,-0.09281577,-0.1943789,0.006927911
doux,0.16551542,-0.34247965,0.045174047,-0.4615099,0.3115644,0.49900228,-0.4031973,-0.21140938,0.5250914,0.42608172,-0.37289897,0.3266645,0.41363746,-0.2871703,-0.47874925,0.39530003,0.40184265,-0.45787892,-0.1570537,0.36835587,-0.37500572,0.40391135,-0.44693625,0.3205214,-0.277702,-0.39051503,0.089506194,-0.5024656,0.28946418,0.29302368,0.38167655,-0.34034914,0.42414522,-0.46510768,0.23887971,0.31426787,0.4636668,-0.0154627785,-0.43446034,0.36591476,-0.4530036,0.22340608,0.42092675,-0.35948345,0.37365872,0.11295615,0.18499891,0.44044977,0.57624924,-0.3590989,0.18238255,-0.31092554,-0.3536586,-0.32828763,0.51982784,-0.38555828,-0.1831249,0.30462316,0.39942428,-0.50788784,-0.4208151,0.34233582,0.56994534,0.6301278,0.22727431,0.48349047,-0.35241646,-0.50676143,0.39057517,0.4454835,0.48414642,0.31745106,0.3450914,-0.1367534,0.4094566,-0.07389556,0.40225163,0.27521968,-0.18676473,-0.33936095,-0.34597763,0.50181866,0.2747527,0.39177817,-0.48726106,0.47831768,0.3198964,-0.3014176,0.015224695,-0.496732,0.5833192,-0.13932398,0.2679148,-0.38783863,-0.40414008,0.27953452
floral,-0.16822031,-0.47212672,-0.19824012,-0.19773862,0.14344053,0.5421634,-0.4046265,-0.47988737,0.47004724,0.42380697,-0.31702277,0.2934868,0.4210453,-0.24109161,-0.3111133,0.28909475,0.0042440593,-0.3874508,-0.2176308,0.32980612,-0.52895224,0.34272146,-0.16439608,0.53721213,-0.3543874,-0.360905,-0.1319826,-0.15830809,0.71128696,0.092006035,0.15012267,-0.32854927,0.29391456,-0.31477243,0.12432682,0.36526328,0.46082926,-0.36110297,-0.53274477,0.10968906,-0.33659226,0.011331871,0.35879034,-0.3775754,0.4417284,0.20132592,0.3224945,0.26088005,0.020432778,-0.45191738,0.30164555,-0.37488997,-0.15972391,-0.47184533,0.25986072,-0.41247407,-0.36456546,0.5070386,0.41884422,-0.24313703,-0.5317583,0.51279825,0.8159212,0.41188383,-0.33489025,0.728606,-0.51738673,-0.35484275,0.17976959,0.22746286,0.31445342,0.6192481,0.5907829,0.075049505,0.2599759,-0.66606855,0.39371017,0.1834586,-0.38825873,-0.1342114,-0.32250342,0.23602344,0.28146732,0.61237854,-0.4720701,0.37103194,0.2528497,-0.4506131,0.013107464,-0.42731243,0.45252445,-0.123618364,0.26383,-0.30459857,-0.3054567,0.2451625
boisé,0.14352487,-0.051709738,0.29540324,-0.12467629,0.15721329,0.12924781,-0.12909083,-0.050334595,0.19757965,0.049619216,-0.20102206,-0.058270574,0.07075438,0.073964365,-0.2655732,0.19062176,0.14653581,-0.19214395,0.035302322,0.12577505,-0.18588944,0.14262384,-0.029646393,0.17305979,-0.27550516,-0.30050677,-0.08916132,-0.24537177,0.32245883,0.040406577,0.17223585,-0.23413865,0.16835886,-0.0032617934,0.09162001,0.12116322,0.14699882,-0.2037995,-0.05580471,0.35454386,-0.26532498,0.15474825,0.10074523,-0.18426429,0.16650541,0.12096765,0.17120357,0.18129778,0.09407875,-0.10524702,0.2981344,-0.059015464,-0.20100833,-0.32767817,0.2507568,-0.23850554,-0.013613883,0.22923303,0.17379631,-0.24128026,-0.28740048,0.29806715,0.48819208,0.055216864,-0.1575068,0.036221888,-0.1559375,-0.22648384,0.22732404,0.014304882,0.23949496,-0.01145844,0.29753911,0.075436294,0.034536842,-0.33535644,0.35818854,0.14370668,-0.14898074,-0.39796394,-0.17740555,0.099217504,0.22599247,0.16142799,-0.13786589,0.071991295,0.34121138,-0.024167394,0.28609985,-0.26698527,0.040675156,-0.0058031194,0.12367806,-0.24549638,-0.27382234,0.09700941
herbe,0.048075065,-0.4664553,0.3098172,-0.15520802,0.37099624,0.29691023,-0.20110273,-0.39955533,0.2786858,0.32106072,-0.49443096,0.22635704,0.1764768,-0.047568075,-0.41861057,0.36508322,0.2101904,-0.5326645,-0.38675177,0.4426921,-0.09799179,0.30199423,-0.5822028,0.185944,-0.2696052,-0.46199307,0.2806793,-0.26517558,0.23160069,0.5778771,0.22361031,-0.2584974,0.3364105,-0.19233227,0.29006842,0.118745714,0.27892268,-0.010203533,-0.4981256,0.4786361,-0.5173547,0.32761884,0.3251232,-0.32770005,0.27555138,-0.43410805,0.32745537,0.25655806,0.4225459,-0.42825994,0.39881796,0.039448567,-0.44885072,-0.5342388,0.32104984,-0.35497504,-0.2913014,0.281467,-0.11536379,-0.49323717,-0.19584583,0.22121426,0.39708602,-0.019769043,-0.4764828,-0.33766177,-0.11529009,-0.4386089,0.42500335,0.223708,0.35313433,0.25713047,0.57725835,0.4686852,0.17455488,-0.12134778,0.48887393,-0.5808574,-0.3422825,0.26144856,-0.29276162,0.31814283,0.41065237,0.65711564,-0.43335557,0.09996264,0.3318926,-0.041223146,0.89819664,-0.54734427,0.31014732,0.08691993,0.4387586,-0.47953236,-0.39215642,0.18724973
épicé,0.12601826,-0.17513087,0.4364048,-0.31480995,0.22196914,0.32986814,-0.25768805,-0.20585881,0.2671066,0.25828463,-0.4111808,0.30108142,0.31911367,-0.20461793,-0.2710806,0.29032266,0.33719176,-0.49592638,-0.28007072,0.3288032,-0.2452856,0.38457423,-0.28817818,0.17947914,-0.29253927,-0.40645206,0.17405695,-0.42860815,0.58143556,0.49068338,0.43113637,-0.1436186,0.34118003,-0.42006686,0.13985102,0.28754294,0.3253681,-0.35070452,-0.26326892,0.5393321,-0.41143334,0.0578807,0.37192115,-0.23512626,0.06855605,0.14023484,0.34633625,0.41223952,0.50825673,-0.20262396,0.43016878,-0.1862913,-0.19991347,-0.2674731,0.33109224,-0.13520795,-0.38287005,0.17999575,0.612201,-0.36983162,-0.26829058,0.2597912,0.88465524,0.3065781,-0.009274809,0.34328538,-0.2486222,-0.23443805,0.41810596,0.38746712,0.34895054,0.3041966,0.37019843,-0.042765386,0.13725978,-0.18710707,0.6047029,-0.09699608,-0.36829633,-0.5579692,-0.31246537,0.32228225,0.42136413,0.30739444,-0.38864705,0.35581943,0.31201726,-0.20166346,0.35281777,-0.3707238,0.49980152,0.24941282,0.21730381,-0.22586572,-0.34840438,0.281661
ciredabeille,-0.20805266,-0.1815034,-0.3005279,-0.32440433,0.041700233,0.36387148,-0.20786285,-0.018909581,0.081461474,0.24425729,-0.4045957,0.23339538,0.23511545,-0.07140498,-0.21063997,0.321041,0.18208271,-0.2769089,-0.32223254,0.3787112,-0.34481418,0.35269386,-0.20638934,0.30906135,-0.23572807,-0.23958291,0.17722756,-0.13761896,0.010327458,0.16538528,0.31163543,-0.34855253,0.1369348,-0.29152244,0.1286707,0.114232294,0.27165514,-0.2439073,-0.16274649,0.4011443,-0.13924,0.059782684,0.187303,-0.2766835,0.26881027,0.01500481,0.37740272,0.30558306,0.23698327,-0.2157993,-0.083124086,-0.4428359,-0.21594104,-0.40459323,0.2517957,-0.20673329,-0.24277988,0.36481318,-0.13356806,-0.27470285,-0.23601696,0.30564445,-0.008685946,0.45775244,-0.05515097,0.2409761,-0.14804253,-0.09603713,0.11130177,0.06731297,0.33146134,0.088347316,0.38506773,-0.06957987,0.13029969,0.2548391,-0.12677398,0.28447962,-0.37575197,-0.25212574,-0.24119626,0.22390606,0.3299587,0.31945792,0.062685624,0.277706,0.25173706,-0.17719935,-0.15897793,-0.2557125,0.30670622,-0.12345984,0.1339534,-0.2900501,-0.15033826,0.25061142
gras,0.055044457,-0.49010676,-0.397636,-0.2982822,0.45837176,0.41298145,-0.39785498,-0.28111994,0.28045237,0.34719265,-0.37838596,0.15745082,0.27169985,-0.17851497,-0.41235623,0.40037337,0.17031941,-0.23761818,-0.24822512,0.5061037,-0.22829798,0.5120171,-0.47509527,0.39434505,-0.20807011,-0.53673136,0.40936434,-0.40939182,-0.21425739,0.4320188,0.07286903,-0.2917652,0.20107104,-0.1517588,0.5160684,0.24111833,0.3186922,-0.2525148,-0.18796882,0.27131927,-0.246737,0.42229214,0.23550081,-0.569746,0.48557568,-0.28373393,0.29481912,0.53300285,0.22059003,-0.26356614,0.17834282,-0.28602156,-0.27213466,-0.67532647,0.32624167,-0.67459476,-0.3548373,0.3520922,-0.036291927,-0.3135879,-0.35951042,0.524788,0.03528747,0.40382153,-0.6165109,-0.18121585,-0.34223753,-0.1246594,0.20315067,-0.057541512,0.62888974,0.62750065,0.4856811,0.5303787,0.27700448,0.3805173,0.039589174,0.1479486,-0.35653025,0.3158548,-0.3933849,0.5701427,0.38195097,0.51481473,-0.1120767,0.29547605,0.23081471,-0.15754777,-0.023228556,-0.33685604,0.19605845,-0.033105202,0.3580502,-0.5554219,-0.34741142,0.44079548
frais,0.17761154,-0.06866265,0.029781288,-0.3215771,0.4629437,0.39155713,-0.12155093,-0.54274917,0.082630634,0.31158566,-0.13197511,0.06662695,0.17276049,8.3357096e-05,-0.38366717,0.36181363,0.28621927,-0.24047323,-0.22301206,-0.013082241,-0.24613614,0.33788514,-0.2526507,0.48648986,-0.4986562,-0.37236136,0.4861935,-0.11312153,0.48977607,0.3192074,0.4124481,-0.1266759,0.36121732,-0.2792788,0.31037164,0.38451278,0.008879894,-0.28937998,-0.40570492,0.15925463,-0.06661632,0.3228445,0.4018137,-0.44558147,0.22482409,-0.3737283,0.17961454,0.38083053,0.21787998,-0.45466462,0.24335426,-0.15776202,-0.50463575,-0.5042571,0.17234504,-0.44174916,-0.5128506,0.091282465,0.10430016,-0.09479204,-0.36564937,0.56743264,0.27621907,0.26232636,-0.17057228,-0.14343747,-0.3948541,-0.15457928,0.37127665,0.39071906,0.33434838,0.32453868,0.42807007,0.16686411,0.20082805,-0.43541524,0.3052193,-0.6640552,-0.42467,-0.19596231,-0.33952767,0.30107337,0.30469394,0.17567654,-0.4803369,0.14795554,0.26310986,-0.34550995,0.5334075,-0.1873968,0.19880961,0.022082977,0.34826905,-0.2528853,-0.1577429,0.19651751
agrume,-0.13132215,-0.13227466,-0.06242539,-0.09934123,-0.051132545,0.14475894,-0.16564663,-0.012543585,0.11165291,0.13647535,-0.07115704,0.2080281,0.19645643,-0.034730885,-0.068585455,0.10147792,-0.010121781,-0.20901778,-0.034425065,0.081343584,-0.2067768,0.17752258,-0.11007662,0.20886487,-0.046221647,-0.14543557,-0.062036134,-0.14843401,0.13844442,0.055989146,0.22792096,-0.16395463,0.080109715,-0.16194917,-0.0064181816,0.15429519,0.10747346,-0.15074039,-0.17317034,0.07368545,-0.061133854,-0.032156922,0.11106458,-0.10833992,0.1055744,0.19416152,0.16008674,0.109961845,0.029968888,-0.04521584,-0.0037317332,-0.17293899,-0.13242066,-0.16811904,0.038413394,-0.07479119,-0.072779015,0.1559994,0.2063395,-0.16569021,-0.23982063,0.038027532,0.16166294,0.32023415,0.11129368,0.22531483,-0.127911,-0.10980155,0.124357745,0.13362527,0.11828351,0.051690888,0.092068374,-0.020672988,0.103033416,-0.116567805,0.10954143,0.2727002,-0.19615023,-0.16552663,-0.1502319,0.045804925,0.19880375,0.08164668,-0.07038431,0.21213691,0.16179898,-0.1910258,-0.1126388,-0.092628025,0.19493456,-0.10218881,0.011633551,-0.15962711,-0.15486908,0.11309576
balsamique,-0.012749564,-0.12528563,0.040600322,-0.13454235,0.0473822,0.13292748,-0.11390478,0.07481028,0.07334775,0.11810866,-0.15263183,0.1849502,0.1278444,-0.26456904,-0.061627686,0.04197397,0.23001693,-0.15637621,-0.11171794,0.2786838,-0.04910864,0.15877816,-0.122015744,-0.014341641,0.09838565,-0.014971595,-0.10685302,-0.12910137,0.089653894,0.15644522,0.11279671,-0.06715484,0.087350905,-0.19219536,-0.104181215,0.05243416,0.24262288,-0.11286288,-0.1963917,0.21612474,-0.13315678,-0.06517522,0.10454072,-0.02394687,-0.017311666,0.1514421,0.15573159,0.006039383,0.21286367,0.009116134,0.1326853,-0.17398044,-0.1257379,0.027399532,0.20961753,-0.013073191,-0.06587073,0.12035105,0.16758102,-0.2060102,-0.04518815,-0.0469309,0.16989145,0.1915822,0.21252364,-0.015137229,-0.12053689,-0.14302039,0.20013042,0.15309285,-0.013674222,0.16047871,0.04685744,-0.1739915,0.09172352,0.23195948,0.13291293,0.19338429,-0.085813895,-0.17761713,-0.075365946,0.024892364,0.12502676,0.052356638,-0.11927484,0.19770189,0.023297487,-0.04953595,-0.27738303,-0.17432967,0.27769676,0.019040558,0.04471238,0.07596217,-0.109632716,0.12781367
rose,-0.21585517,-0.10790929,-0.21515529,-0.10711612,0.077114925,0.15924141,-0.04736666,-0.03228752,0.104825005,0.19553712,-0.24386284,0.10503203,0.10677871,-0.15974505,-0.03839185,0.08449978,-0.10475229,-0.08661297,-0.2307683,0.19187325,-0.13875967,0.060440637,-0.10846543,0.15187128,-0.033285692,-0.010354507,0.08716323,-0.053258732,-0.07460675,0.12260899,0.081986725,-0.03612965,0.019003015,-0.13549036,0.0729926,0.11833377,0.11312586,-0.1749336,-0.09138352,0.11406466,-0.24756546,0.16239361,0.12837546,-0.20878121,0.16429533,-0.0049323533,0.18813734,0.16408,0.09949529,-0.0995644,-0.109217465,-0.081514314,-0.040989693,-0.2068223,0.064611115,-0.047594514,-0.17039585,0.16181833,0.14468226,-0.09825435,-0.20885532,0.05633819,0.049796663,0.075542435,-0.29997393,0.17294991,-0.096870214,-0.007096175,0.086756766,0.009134674,0.10730502,0.23268563,0.2051578,0.22276312,0.0591326,0.0011957372,-0.05383042,0.029287646,-0.22921559,0.29826817,-0.12051378,0.11282417,-0.00070252083,0.20267366,-0.12447608,0.035095006,-0.026682613,-0.05219617,-0.002042044,-0.11262539,0.10998717,-0.13014817,0.14684805,-0.18060596,-0.1809268,0.15111111
fruitàcoque,-0.34573835,-0.3050204,-0.34246716,-0.52446866,0.17868854,0.0469005,-0.31436044,-0.051537696,0.10435662,0.25713044,-0.2803674,0.37802052,0.14353062,-0.47418737,-0.28781828,0.20289224,0.3804627,-0.4510005,-0.41999808,0.14844349,-0.19346961,0.27775308,-0.26884785,0.08217671,-0.062331006,-0.26560113,0.36582905,-0.39440355,-0.45850915,0.48035026,0.22339788,-0.25240958,0.29893374,-0.33308342,0.37867182,0.18215731,0.2936942,-0.17627782,-0.022201166,0.32636058,-0.24443364,0.29981935,0.28027594,-0.22741045,-0.06013976,-0.35714614,0.38279235,0.25427663,0.5132269,0.014273901,-0.102655225,-0.32894453,0.089798436,0.11481874,0.35610554,-0.011182405,-0.21698678,0.19610947,0.29362255,-0.46533766,-0.038381457,0.047748566,-0.36616686,0.46980542,-0.018217813,0.10701735,-0.2860884,-0.0823705,0.3692798,0.27873325,0.32267615,0.030832887,0.092364,0.26516607,0.215943,0.7832667,-0.111527056,0.4728993,0.09473866,0.24758345,-0.18449907,0.312729,0.3715549,0.10340272,-0.16133721,0.20680743,0.2759459,-0.26131156,-0.072375685,-0.3293441,0.4847194,-0.2197279,0.19867827,-0.19405828,-0.18656415,0.49525636
terre,-0.16963498,-0.13897431,-0.010579804,-0.0040195026,0.13280754,-0.06589359,-0.010764331,-0.103422955,-0.010564938,0.13190114,-0.005458232,0.12291303,0.007137963,-0.119869396,-0.106568396,0.13898727,0.14235078,-0.12035461,-0.048046976,0.12936537,-0.13004214,-0.0641663,0.014264682,0.09128792,-0.31342658,-0.16904002,0.040258408,-0.07637218,-0.07979429,0.095786564,0.1777944,-0.14994405,0.13600102,-0.08611454,0.064879134,0.048974223,0.19544625,-0.030628834,-0.20347714,0.27157316,-0.1335571,0.114044935,0.21826394,-0.0067804605,-0.028619714,-0.18948092,0.2365647,-0.13281356,0.027392155,-0.19150427,0.17463878,0.06165455,-0.1488484,-0.040659938,0.17847908,0.080292016,-0.06011204,0.057163585,-0.18837738,-0.20423143,0.033064768,-0.039039068,0.19164957,-0.38687545,-0.07625292,-0.22839506,0.019238178,-0.14870141,0.16859438,0.19950342,0.044541325,-0.21207193,0.16588543,0.13221925,0.0766915,-0.11954994,0.14369212,-0.11529906,-0.10591251,0.11276445,-0.025825832,-0.040420946,0.21017072,0.09754145,-0.20664245,-0.030842848,0.21484534,-0.21049008,0.22075504,-0.167287,0.109643534,-0.16653216,0.102792256,-0.06145083,-0.21105938,0.052295998
huile,-0.030474812,-0.3608894,-0.30254003,-0.34852463,0.3296175,0.34656703,-0.17419583,-0.25862193,0.17180723,0.31497875,-0.39373174,0.20018785,0.18146016,-0.18942118,-0.18844801,0.30476668,0.13820359,-0.20116052,-0.42175046,0.5036038,-0.0010666344,0.24472114,-0.45958686,0.14348069,0.026823716,-0.17531751,0.44809264,-0.130394,-0.395342,0.5166065,0.06435056,-0.13937013,0.14299655,-0.23923385,0.34969047,0.094147354,0.15960896,0.010548841,-0.34623146,0.3046622,-0.35084885,0.39169115,0.27657828,-0.37414387,0.37871477,-0.41581136,0.16831955,0.3019174,0.5062149,-0.30724835,-0.05206012,0.024389341,-0.24274896,-0.4711455,0.17639351,-0.41808003,-0.20199543,0.104676634,-0.26858196,-0.20715992,-0.17730539,0.17400151,-0.34135208,0.11519503,-0.41598254,-0.36390066,-0.3219063,-0.17493749,0.25763735,0.022690596,0.421436,0.54957503,0.4370845,0.5676726,0.19313914,0.6254748,-0.09859724,-0.19246441,-0.38079447,0.5595314,-0.2030288,0.2782756,0.29056108,0.41139752,-0.1482438,0.16090354,0.020367444,-0.07313529,0.047676474,-0.23276506,0.21500602,-0.09477395,0.2898235,-0.3552791,-0.23344895,0.16830763
légume,-0.392468,-0.30609715,-0.3603876,-0.46978286,0.42050326,0.22594354,-0.1968041,-0.33365428,0.22491433,0.28951448,-0.10591302,0.2615845,0.31235713,-0.079621166,-0.2733912,0.363164,0.44065028,-0.10360919,-0.36646104,0.09574873,-0.17127532,0.19436456,-0.35372365,0.35284767,-0.33257803,-0.19631132,0.54138,-0.23840103,-0.46090195,0.32048693,0.43107533,-0.2018675,0.4353727,-0.4168242,0.254904,0.29736406,0.060672164,-0.09754038,-0.2640686,0.025285661,-0.27383006,0.34142095,0.36194783,-0.36765793,0.24001287,-0.67302454,0.228084,0.24947914,0.42335916,-0.48091805,-0.117752016,-0.13852395,-0.39401314,-0.10126512,0.13789356,-0.29285488,-0.30268896,0.024266377,-0.51271904,-0.25737405,-0.16633132,0.16980883,-0.45866007,-0.090752944,0.024564177,-0.6092251,-0.18791427,-0.34639916,0.3949682,0.4187653,0.31585348,0.26561353,0.19392459,0.44267875,0.440713,0.32302198,0.06409621,-0.47548068,-0.2863512,0.5141606,-0.16902432,0.24831885,0.3562569,-0.14734496,-0.42755997,0.24549235,0.14263676,-0.3819032,0.15297854,-0.19655521,0.17750749,-0.44659036,0.2881161,-0.20202023,-0.41704208,0.33415547
crème,-0.08676656,-0.25097334,0.03347463,-0.16015601,0.24788561,0.24403237,-0.254497,0.098326005,0.17504418,0.3294143,-0.28426343,0.34022164,0.4072618,-0.47851324,0.05251274,-0.0053982027,0.43322337,-0.2769432,-0.005229853,0.5319613,-0.16513202,0.117915675,-0.08132163,-0.11060326,-0.080876365,-0.098954886,0.18359701,-0.23700503,-0.07325712,0.30482545,0.2912864,-0.107657015,0.1679073,-0.31452227,0.069928065,0.3340584,0.34478915,-0.10465252,-0.15383705,0.5623846,-0.04563746,0.1285531,0.26243365,-0.22600566,-0.035492197,-0.15808856,0.15363978,0.10382594,0.46607757,0.066300415,0.080550954,-0.36758393,-0.1791457,0.053379174,0.389727,0.016337086,-0.1799792,0.36935315,0.45561725,-0.3420859,-0.11443643,-0.07934013,0.24769863,0.38511688,-0.22391798,0.45549253,-0.503457,-0.15815204,0.35798436,0.41770878,0.176478,0.21601345,-0.076452196,0.010554507,0.22021468,-0.099332295,0.07951394,0.091777,-0.14926308,-0.012596527,-0.23960471,0.0645502,0.07273188,0.23025227,-0.11862402,0.34673774,0.14498022,-0.41815466,-0.44024032,-0.1294079,0.06303215,0.26147187,0.2825586,0.024798945,0.055215627,0.16358802
poudré,-0.17014793,-0.015809905,-0.18187414,0.07334134,0.22433797,0.16315094,-0.060334507,-0.18031013,-0.014611211,0.15511106,-0.16376194,0.10134012,0.034555938,-0.23719537,-0.03992722,0.1464994,0.100238144,-0.21250351,-0.2377584,0.13471523,-0.15477681,0.08609174,-0.11770816,0.032292776,-0.36229163,-0.08642843,0.109548256,0.03430286,0.39370158,0.09328964,0.3613429,-0.19858459,0.18254706,-0.36457354,0.29807234,0.10237133,0.19636771,-0.085405685,-0.19121905,0.19970661,-0.13234201,-0.012741751,0.21191484,0.11884655,0.21360898,-0.2751152,-0.0057476107,0.05945372,0.17827155,-0.25498077,0.011353509,-0.30717364,-0.090263315,-0.1455749,0.23428506,-0.017774822,-0.15943919,0.067103945,0.20341644,-0.19339937,-0.1836049,0.10894923,0.3485242,0.21940853,-0.026070535,0.14013,0.047746975,-0.21970388,0.121968865,0.30534795,-0.040612333,-0.03256844,-0.03282138,0.08967848,0.09809331,-0.44703242,0.23383829,-0.20396253,-0.026586734,0.05399503,-0.117736,0.08809821,0.046604723,0.11248181,-0.20689869,0.114149265,0.28172535,-0.16613165,0.37867168,-0.10633983,-0.052496534,-0.24565259,0.10195032,-0.13305691,-0.024793176,0.18300392
baie,-0.07085331,-0.11825392,0.03922926,-0.12986504,-0.0010856427,0.02979001,0.005316533,-0.10893315,0.08693928,0.089648835,-0.13416882,0.0238408,0.008862488,0.080509,-0.11201075,0.17952198,0.110155426,-0.16074881,-0.029742885,-0.022658022,-0.015101951,0.20410256,-0.16017519,0.099280536,-0.13561521,-0.119016364,0.04616335,-0.20778917,0.20760296,0.08074273,0.038224228,-0.02623187,0.12533185,-0.10468165,0.007723294,0.18214792,0.10820536,-0.15033709,-0.13695422,0.072321735,-0.13274011,0.07105,0.16545245,-0.1649569,0.06620738,-0.0019271001,-0.02035534,0.13195793,-0.012284472,-0.031242851,0.16149041,-0.056132775,-0.13500935,-0.19920018,0.16785388,-0.10357396,-0.10287656,0.24476427,0.10588908,-0.047919583,-0.028452918,0.11652103,0.1498315,-0.004887689,-0.15984595,0.13706896,-0.07469793,-0.17429401,0.16516656,0.10622308,0.063918546,0.18578392,0.08017423,0.10254452,0.11905548,-0.090105005,0.010669921,-0.08306913,-0.10751149,-0.012694895,-0.09051308,0.17728329,-0.012657972,0.16180319,-0.17699073,0.066057585,0.14109689,-0.066560805,0.2001423,-0.11277592,-0.028795755,-0.13713887,0.15354353,-0.10043359,-0.08259347,0.18921348
menthé,-0.15731634,0.065898545,-0.18657097,-0.10100953,0.3250478,0.1297291,-0.067975596,-0.38727492,0.06311717,0.30809435,0.17506507,0.27108496,0.1393987,-0.21672544,-0.046695173,0.077302575,0.34893444,-0.02023612,-0.15044075,-0.1260529,-0.16996884,0.15808775,-0.13227843,0.19078648,-0.31572846,-0.15504007,0.4081691,-0.17309162,0.09863495,0.32082808,0.38941795,0.034112245,0.20223837,-0.3572574,0.21860689,0.26649663,0.21494366,-0.2867016,-0.21557394,0.15907377,-0.09365075,0.3868404,0.2041086,0.10379264,-0.017967556,-0.3670146,0.08560835,0.31590453,0.18014371,-0.23116471,-0.11885759,-0.20750517,-0.20540476,-0.11147242,0.13305971,-0.084764265,-0.27587172,-0.1414639,-0.12215028,0.067775436,-0.21149553,0.16362825,0.07386428,-0.10166204,0.087989084,-0.23598093,-0.09226146,-0.2605526,0.2672278,0.39334178,0.12133932,0.16600703,0.21249744,-0.062213607,0.18211046,-0.2965766,0.22954223,-0.5085982,-0.24080431,0.0041283593,-0.23093355,0.029763611,0.10790971,-0.031862613,-0.31518096,0.23821688,0.24749534,-0.24415176,0.1726536,-0.09061023,-0.09446785,-0.2201224,0.27217993,-0.17067945,-0.21660165,0.2024052
pomme,-0.39302775,-0.34036037,-0.2033085,0.05774404,0.037352756,0.14529483,-0.32179654,-0.18763979,0.14674708,0.20027569,-0.09659959,0.44700795,0.27772373,-0.3600115,0.1541039,0.1634818,0.21828014,0.089326076,-0.20058033,0.21585065,0.05577408,0.14579034,-0.33664063,0.19715425,0.0043254998,-0.26806164,-0.29031238,-0.23150627,-0.14462423,0.21778637,0.096022725,0.1191856,0.16835317,-0.1139847,0.19241697,0.14992082,0.21558382,-0.108911745,-0.285976,0.07565905,-0.12469654,0.11507855,0.16238622,0.12073299,0.2774371,-0.35806638,0.33122587,-0.047953214,0.07417991,-0.24847631,-0.2658466,-0.28120816,-0.11584024,-0.17296106,0.10786321,-0.1592634,-0.09393989,0.3081452,-0.20087431,-0.22563036,-0.14429072,0.22175893,-0.4212274,0.14478734,-0.08367471,0.16269322,-0.025794357,-0.18372802,0.05713296,0.021974351,-0.02573143,0.05524318,0.12800318,0.2759291,0.28896257,-0.060249165,-0.22177297,-0.18909554,-0.032983996,0.49420708,-0.18901129,0.27195722,0.135038,0.24202795,-0.117491715,0.29177666,0.2885051,-0.13374187,0.065413736,-0.15668032,0.19534934,-0.071342334,0.34474796,-0.31486115,-0.040552303,0.3126082
moisi,-0.3750496,-0.25829855,-0.3287537,-0.27246884,0.1622049,0.12813915,-0.10292004,-0.33907932,0.07686356,0.16784878,-0.12307094,0.3285154,0.07901712,-0.27899736,-0.20503236,0.2081472,0.3016727,-0.41194212,-0.2950251,0.1484167,-0.22216628,-0.04193552,-0.017680898,0.15132722,-0.32736313,-0.08978419,0.36434627,-0.12220563,-0.37166977,0.3222877,0.34486055,-0.4518923,0.3268927,-0.3614984,0.14380914,0.12794203,0.27280724,-0.15350315,-0.28980482,0.2852566,-0.31890512,0.29861432,0.32400343,-0.13589357,0.06090835,-0.38053215,0.3312288,-0.095365696,0.32738212,-0.25805718,-0.0045906752,-0.042193048,-0.08625108,0.05203025,0.22446674,0.17354281,-0.22359452,0.26602966,-0.28542173,-0.33931923,0.101241775,-0.057855695,-0.24385686,-0.11044668,-0.03536663,-0.3416652,-0.20299873,-0.2212531,0.36775333,0.38981035,0.16678771,-0.14069137,0.28315747,0.36997348,0.21506839,0.30020583,-0.10192789,0.12841493,-0.05291751,0.2927562,-0.0732895,-0.020090133,0.3680362,0.18699926,-0.3605294,-0.030235715,0.2876214,-0.24125622,0.27048942,-0.29586005,0.37945688,-0.41262257,0.042597108,-0.049819697,-0.29338437,0.24584423
ananas,0.0065444224,0.01635152,-0.17945178,0.05520003,0.04166583,-0.040980313,-0.004853107,-0.06681216,0.093154214,0.0046064155,-0.067358404,0.13940188,-0.020921998,-0.06345639,-0.018983576,0.10039319,0.22737052,-0.08872743,-0.15801626,0.14886379,-0.112801015,0.090576366,-0.11018297,-0.026970796,-0.15323119,-0.13647343,-0.056955382,-0.19865905,-0.017943978,0.06522629,0.09279916,-0.17363267,0.16816461,-0.20452428,0.057683315,0.13383983,0.15608451,-0.10806252,-0.056758482,0.13074729,-0.13173482,0.07616379,0.08529131,0.1256966,0.055758804,-0.053088125,-0.15304196,0.09795599,0.08616832,-0.06718875,0.09053205,-0.05222341,-0.14310268,-0.04190838,0.10505787,-0.17724553,0.01808068,0.16028762,0.1375409,-0.092860766,0.06928008,-0.120993495,-0.036300708,0.094203666,0.2713131,0.070041895,-0.044059277,-0.15580139,0.226104,0.17126045,-0.0028836876,0.05788825,-0.12022407,-0.0051333606,0.1466022,-0.08957526,-0.1281965,-0.04785399,0.012607237,-0.114906274,-0.061776984,0.06401074,0.024029126,0.011180345,-0.11673811,0.03409393,0.114126444,-0.12191411,0.034597747,-0.091298476,0.03471087,-0.074240565,-0.031086206,0.014561405,-0.22014104,0.12486813
phénolé,-0.292116,-0.10784997,-0.009896968,-0.07842039,0.0059213936,0.17704691,-0.050216272,0.002355392,0.13031909,0.121320635,-0.3050929,0.22968952,0.34691185,-0.2562849,-0.019190747,0.23681591,0.11417547,-0.042788602,-0.1496758,0.3267111,-0.24400258,0.12166576,-0.08507204,0.04953418,-0.051804446,-0.1061183,-0.067399554,-0.12219161,0.2529612,0.1363908,0.26988563,-0.19372945,0.08068816,-0.1746299,0.086284764,0.020631056,0.3137243,-0.19148073,-0.1596082,0.13858843,-0.19884597,0.06647767,0.03648667,0.12651609,0.19477186,0.027598705,0.2804138,0.11893909,0.12889186,-0.1323914,0.14870751,-0.20055124,-0.2836132,-0.3127405,0.14754663,-0.1764339,-0.12969965,0.15764043,0.10731927,-0.27728647,-0.21314096,0.103773005,0.29906625,0.022919532,0.04933936,0.052504264,0.053379577,-0.20070401,0.19237328,0.057909504,-0.020353312,0.22886373,0.068386704,0.11276141,0.048735414,-0.19804707,0.32917708,-0.10033545,-0.27804926,0.20705673,-0.13560963,0.16599286,0.031958573,0.18533704,-0.019594802,0.07283445,0.17051128,-0.015441772,0.08009418,-0.11586358,-0.20863986,-0.024493862,0.16381267,-0.06606595,-0.16346389,0.112031385
camphre,0.15063821,0.013883643,0.14195614,-0.14030033,0.13372296,0.020966005,0.033212088,-0.16292739,-0.029435452,0.1497379,-0.015382752,0.018728275,-0.010702509,-0.046500195,-0.122384734,0.03923996,0.19432603,-0.058460575,-0.025103562,0.033201367,-0.06446059,0.05454932,-0.09405622,0.063453995,-0.10872863,-0.09610768,0.20063344,-0.08331227,0.12411773,0.2538191,0.18803823,-0.015941042,0.042738557,-0.107221864,0.11056936,0.16269515,0.07161217,-0.1324054,-0.06900558,0.114929214,-0.08963892,0.23802048,0.09862605,-0.00086030597,-0.017345913,-0.19876294,0.00372101,0.110677645,0.1497529,-0.0028080172,0.12456334,-0.033513952,-0.11948171,-0.09134962,0.074603274,-0.021366473,-0.11568385,-0.057710096,0.0408553,0.048658825,-0.018863752,0.049261697,0.121936224,-0.14034055,0.025804881,-0.24373151,-0.07145178,-0.09328416,0.24211098,0.17884691,0.1379072,0.05863277,0.085982725,0.08534914,0.009935986,-0.017006474,0.16077587,-0.24141586,-0.22231081,-0.14829235,-0.119910076,-0.0015907064,0.05214164,0.0029583406,-0.12895444,0.04794766,0.15469109,-0.037259873,0.085637346,0.0337008,-0.0051676817,0.021285208,0.08643132,-0.07721858,-0.046994496,0.1184757
soufré,-0.18607745,-0.03309491,-0.19988525,-0.11363212,0.06194466,-0.0929167,0.051687565,-0.1278744,-0.018707858,0.12186937,0.022516377,0.12979141,0.13236281,-0.15618585,-0.18124671,-0.0040620733,0.054367736,0.062063586,-0.18748584,-0.24396548,-0.14476198,0.04654207,0.15497229,0.11647223,-0.12529825,-0.2108234,0.25893566,-0.06901684,-0.120043784,0.13925572,0.11131099,0.19337669,0.1947641,-0.094365984,0.09397782,-0.044238288,0.16052003,-0.119846866,-0.19692743,0.118620835,-0.1296258,0.17647807,0.07835305,0.06998836,-0.05200963,-0.16644278,0.15304251,0.16569856,-0.033523995,-0.0940461,-0.15904932,-0.07035279,-0.01640496,0.0020571817,0.049016334,-0.0050653843,-0.17351247,-0.0821868,-0.034648415,0.09514924,-0.017528582,0.13186692,-0.113917604,-0.13012756,0.011124034,-0.23505564,0.16296923,-0.20886175,0.13520971,0.14418983,0.09359073,0.035162657,0.12418182,-0.13819082,0.0047897846,0.09557849,0.08647838,-0.107042775,-0.21666461,0.02545748,-0.13310812,-0.07651868,-0.020939387,0.033087686,-0.09744598,0.059499264,0.08486046,-0.09517757,-0.24267517,-0.12986124,-0.059969332,-0.19148871,0.19712615,-0.1965575,-0.018874967,0.08962903
aldéhyde,-0.09903574,-0.084551945,-0.20044757,-0.09385145,-0.06507255,0.13825876,-0.10900605,-0.06357773,0.08240074,0.055430267,-0.16139992,0.10578213,0.113662675,-0.101181835,-0.050858457,0.2005082,-0.093538515,-0.003681316,-0.15485558,0.042705253,-0.08512715,0.10331896,-0.07976791,0.09440334,-0.10533349,-0.06820842,0.036284592,-0.1629442,0.009122673,-0.071633846,0.10029699,-0.024100043,0.07506941,-0.08278546,-0.11224505,0.026573252,0.11442108,-0.18001468,-0.17874728,0.09892087,-0.0335971,0.09627169,0.100675,-0.07985145,0.20492546,0.24719761,0.09300968,0.13999812,0.04346785,-0.0574585,0.1702457,-0.18697208,0.04727367,-0.14084199,0.11209597,-0.089042425,-0.06424122,0.112397134,-0.10438183,-0.1534629,-0.1685858,0.10135313,0.14573397,0.15543029,0.14726299,0.004572775,-0.14540923,0.08663952,-0.0005430728,0.02443188,0.122634575,0.140315,0.05750526,-0.13896018,0.042543724,0.21641146,0.15933433,0.42660975,-0.25104257,-0.22976175,-0.108002804,0.12131184,0.041391246,0.096002564,-0.16319676,0.14332536,0.007095076,-0.20484957,-0.36319777,-0.12565725,0.20899495,-0.31387308,0.03922144,-0.11024584,-0.14925055,0.10923306
métal,-0.52181834,-0.22560725,-0.290127,-0.26618809,0.26156658,0.16041881,-0.20453377,-0.033995062,0.33360928,0.10560228,-0.13620059,0.17218849,0.30631518,-0.019818962,-0.28175324,0.18800852,0.35028514,0.093308724,-0.16338082,-0.08196566,-0.23839557,0.3023672,-0.1625041,0.27609897,-0.17174616,-0.2372646,0.2648218,-0.17273074,-0.49412584,0.15966073,0.19877866,-0.04854769,0.26897004,-0.16995996,0.15589643,0.36582994,0.05504373,-0.15963325,-0.08642608,0.03658186,-0.2500606,0.16064745,0.12812598,-0.17961812,0.22608572,-0.36247057,0.29855838,0.30894995,0.24386191,-0.26069644,-0.111786686,-0.2793047,-0.29448158,0.03964798,0.1781555,-0.24564749,-0.23194231,0.004055746,-0.3970777,-0.1271804,-0.2015363,0.13090451,-0.28263658,-0.2856492,0.12639879,-0.5446169,0.053367373,-0.26680976,0.27617782,0.2036957,0.13254236,0.16256727,0.10197994,0.17013091,0.34824786,0.1457253,0.11284199,-0.36368966,-0.27725947,0.4227695,-0.1953072,0.16579323,0.21190113,-0.20851113,-0.18237945,0.33196732,0.16123554,-0.25990334,-0.13206276,-0.23079878,-0.1307013,-0.39960966,0.27757078,-0.134179,-0.35336515,0.17349626
miel,-0.28331187,-0.0426767,0.028285773,-0.18114913,0.14344953,0.13927412,-0.057785638,-0.035472184,0.019249894,0.119844645,-0.25755075,0.02480106,0.19759393,-0.22653392,-0.07652213,0.3158352,-0.04201753,-0.14568083,-0.3678907,-0.081330046,-0.29468304,0.25387877,-0.13444948,0.13974005,-0.16632704,-0.11389722,0.26261312,-0.04480575,0.40998006,0.08165232,0.46301663,-0.02254019,0.29424542,-0.29840448,0.17649779,0.12689121,0.10929254,-0.39808357,-0.30309522,0.23026061,-0.19624658,0.26097983,0.09117959,-0.036824234,0.12282654,-0.027687456,0.039663944,0.08209369,0.069119886,-0.11888027,0.37591496,-0.34360284,-0.1790802,-0.04943712,0.22006851,0.035938464,-0.18363371,0.10428167,0.13651124,-0.17268777,-0.21865205,0.20095669,0.33175084,0.14665838,-0.16141105,0.1457805,-0.028407604,-0.0050534382,0.043715335,0.3527503,0.075981855,0.15305503,0.038892843,0.20505872,0.09542096,-0.22924788,0.4468127,0.077920675,-0.23317844,-0.1345571,-0.26205963,0.28117353,-0.0984658,0.218918,-0.21285899,0.16563654,0.23871967,-0.14411135,0.32744056,-0.012633406,-0.07896002,-0.43033195,0.13812585,-0.36507243,-0.07129365,0.13966182
melon,-0.13137627,-0.3105821,-0.38881335,-0.14786635,0.21946667,0.18007348,-0.13998505,-0.044056825,0.090527505,0.21645011,-0.20040718,0.07395801,0.08154678,0.050877832,-0.16482174,0.06539772,0.15029445,-0.019627022,-0.31489813,0.24038129,-0.09788156,0.29410696,-0.2882787,0.10974433,-0.022313636,-0.091099754,0.2984914,-0.13111085,-0.41561684,0.16156346,-0.13606793,-0.14776948,-0.011429265,-0.09770689,0.27403602,0.17510661,0.1349189,0.026948636,-0.20280176,0.26443958,-0.07152505,0.2633158,0.08692868,-0.15022144,0.23663904,-0.16887331,0.008441236,0.068192415,0.12792659,-0.19062138,0.035825476,-0.057640903,-0.17818218,-0.15871908,0.24244586,-0.29293114,-0.16728348,0.16416675,-0.08174158,-0.08899455,-0.25321758,0.08538613,-0.21451527,-0.09376842,-0.20674288,-0.23314068,-0.199025,-0.08903513,-0.0006239489,-0.03886201,0.032274254,0.31546694,0.27428162,0.23455472,0.28548056,0.36618054,0.0016527474,0.102094635,-0.0972541,0.38171932,-0.18167399,0.10280348,0.039156664,0.426211,0.0013115518,0.08086932,0.071548514,0.039086897,0.08014513,0.035838414,-0.1448123,0.050049137,0.23249665,-0.124939114,-0.14298464,0.037119206
ambregris,0.002162611,-0.121964544,-0.09911252,-0.042964052,0.11179565,-0.07216631,-0.029348386,-0.09814156,0.08790292,0.114672855,-0.06757298,0.067457095,0.11792806,-0.05664505,-0.05504218,0.021213025,0.14224854,-0.05384401,-0.08304724,0.037566792,-0.07616784,0.049030393,-0.024188507,0.07693969,0.053910837,-0.12507355,0.06002967,-0.046978705,-0.13576217,-0.04210649,0.13712294,-0.07371192,0.070480056,0.065746106,-0.06752353,0.029326873,-0.016150445,0.00012534857,0.002483813,0.025217142,-0.025232967,0.07414496,0.023056332,0.0077374503,0.046809167,0.08541465,0.038952354,0.07186222,0.047394797,-0.019707583,0.11826235,-0.08976844,-0.09606149,-0.031160083,0.039740704,-0.084597275,-0.0052446835,0.021477923,-0.16406998,-0.06967944,-0.047169525,-0.03137984,-0.000104129314,-0.0451451,0.062485434,-0.042222295,-0.07565579,0.024633702,0.049405023,0.00751872,-0.019781899,0.038040243,0.057979256,-0.0338102,0.074326046,0.19607954,0.052865103,0.044701748,-0.09542513,-0.08587347,-0.0011712988,0.024918031,0.032518584,0.02381084,-0.03210208,-0.029996548,0.052158013,-0.066413194,-0.07263145,-0.08894326,0.010705493,-0.012142174,0.048214354,0.021532707,-0.010906078,0.07293038
raisin,-0.3068868,-0.07103787,-0.13732156,-0.027480278,0.114424035,0.011589585,-0.07694195,-0.10813525,0.090716526,0.09930305,0.074096955,0.16428512,0.10817224,-0.22502804,0.08001338,0.06441559,0.07565208,0.008309953,-0.1565693,-0.057118185,-0.09580468,0.077653706,0.0075850636,0.16078508,-0.015473139,-0.01576962,-0.1916351,-0.09326741,0.07829904,0.08091782,0.11987826,-0.0025852546,0.08400972,-0.1487055,0.08289687,0.054077458,0.0961189,-0.107665084,-0.09616629,0.078740895,-0.12632778,-0.07935746,0.13358204,0.0870676,0.04138438,-0.14172381,0.23300907,0.050427068,-0.029514251,-0.098411486,-0.1488623,-0.22371134,-0.056946676,0.056713354,0.09119296,-0.0009735124,-0.12310588,-0.055652127,0.0679894,-0.106974825,-0.06689271,0.057279587,-0.09249476,0.070865065,-0.03405288,0.15136182,0.017976364,-0.0023144707,-0.014024697,0.09967523,0.053133372,0.04438367,0.12931374,0.036956154,0.17256598,-0.1973042,-0.032121416,-0.02060788,0.068280175,0.1445119,-0.04583549,0.04688989,0.051990464,-0.04441369,-0.10976436,0.18162347,0.08041337,-0.18869472,0.059995443,-0.17582183,0.062746905,-0.06901926,0.11696282,-0.059958372,-0.022343066,0.14184326
caramel,-0.023708869,-0.04025699,-0.023698222,-0.14478724,0.01887315,-4.672259e-05,-0.13624173,0.0120874215,0.032245006,0.035422772,-0.11356461,0.16093095,-0.043378353,-0.13092819,-0.20059754,0.01369103,0.1306828,-0.10891844,-0.24772418,-0.045825835,-0.0867583,0.12391354,-0.22365934,-0.0079262,-0.052833445,-0.17139347,0.25943464,-0.18713793,-0.177116,0.12801974,0.052696597,0.052851647,0.03231632,-0.112994775,0.06764498,-0.003813222,0.13499711,0.03970141,-0.06202653,0.014244724,-0.045819227,0.21710423,0.15604033,-0.028768133,-0.08126342,-0.088571444,0.053072065,0.111949176,0.22551903,0.065282576,0.18061878,-0.07627274,0.08076523,0.12619574,0.22511162,0.032238856,-0.09300931,0.06042965,0.049498733,-0.21788895,-0.13895983,-0.07631007,0.028412078,0.21181132,0.049819868,-0.009306574,-0.078724265,-0.034378238,0.06393865,0.23744063,0.21863545,-0.09840793,-0.08291803,-0.16853736,0.099104926,0.33704478,0.19532943,0.30113566,0.12168844,-0.06688151,-0.102547124,0.09696543,0.08112042,0.051232673,-0.16234173,0.15405826,0.07898213,-0.20619726,0.046609905,-0.16677305,0.17946571,-0.2934788,0.11165506,-0.12623587,-0.07471592,0.07689583
oignon,-0.34786856,-0.24804956,-0.23557875,-0.3252148,0.25462425,0.11240424,-0.049552985,-0.052220922,0.3649295,0.27611417,-0.097715184,0.19760631,0.32118005,-0.23959431,-0.18988939,0.06712384,0.25755262,0.02053804,-0.17225572,-0.24202833,-0.24387316,0.28330708,0.08135486,0.3129001,-0.122923024,-0.23441848,0.30090353,-0.14864087,-0.5302069,0.19887276,0.2122663,0.28191382,0.31781843,-0.20483997,0.122690074,0.2198011,0.12829666,-0.25625116,-0.19041976,0.041253455,-0.27458706,0.17348114,0.17481297,-0.27558872,0.13073923,-0.32166195,0.29432505,0.37066603,0.12493229,-0.24231887,-0.050922617,-0.17820838,-0.2816459,-0.01648599,0.22607055,-0.17197025,-0.26007408,-0.09239132,-0.31731826,-0.08276282,-0.14959201,0.20464084,-0.2849965,-0.3505047,-0.002035275,-0.41133934,0.17532349,-0.26199237,0.22367758,0.37013084,0.28387836,0.25512633,0.18614726,0.051517695,0.24181902,0.1969584,0.31135714,-0.2744406,-0.31185094,0.4224261,-0.30849373,0.21196306,0.18671069,-0.03175862,-0.2341922,0.35044914,0.1997787,-0.3278696,-0.50743425,-0.24155152,0.005986344,-0.36427313,0.36176705,-0.21984914,-0.33106172,0.18657012
banane,-0.077917635,-0.102914125,0.07269375,0.1579961,-0.14999458,-0.12690528,0.08440898,-0.14027333,0.08837176,-0.21886325,-0.13539675,0.16234183,0.09339807,-0.07485497,-0.08522625,0.16553503,0.09182614,0.02635915,-0.2060759,0.15434046,-0.018682253,0.07466526,-0.12017914,0.040830377,-0.022413805,-0.13045934,-0.07499242,-0.08201646,0.21353957,0.14657395,-0.024003994,-0.06899302,0.16825123,-0.046811987,0.08627315,0.1387389,0.13907653,-0.22204977,-0.0802868,0.14172132,-0.1324484,0.22048706,0.0874203,0.008155126,0.13643403,-0.118277684,-0.06037544,0.17036918,0.13068943,-0.13290682,0.14199603,-0.015911233,-0.13864686,-0.20477487,0.12171225,-0.16790734,-0.043227095,0.16504082,0.05379937,-0.09547071,0.026158482,-0.11714724,-0.1443734,-0.1859774,-0.19198193,-0.20597363,-0.14541773,-0.03398054,0.14136097,0.117637336,0.07159072,0.17828968,-0.08793135,0.18818264,0.08051009,0.14297272,-0.15554476,0.035004176,-0.25037205,0.12848948,-0.17027941,0.12625527,0.0033688582,0.1509875,-0.12023638,0.104293585,0.08464053,0.063393995,0.19419985,-0.18856034,-0.012220718,-0.10950895,0.04549195,-0.041743223,-0.118790135,0.14713645
poire,-0.5703076,-0.25688022,-0.3907779,0.07316789,0.049244113,0.13525315,-0.32675385,-0.13686648,0.18313307,0.06116572,-0.014696354,0.39019746,0.37424552,-0.36206067,-0.2091996,0.10129683,0.3350503,-0.028546803,-0.18935335,0.17018783,-0.15742815,0.2668019,-0.35300708,0.23582992,-0.10956004,-0.15948367,0.00027156528,-0.27761042,-0.3297732,-0.012589132,-0.011301927,-0.17804548,0.09610082,-0.10287735,0.15859959,0.30503327,0.18061945,-0.37086785,-0.14338526,-0.1149715,0.105627924,0.122332454,0.124473825,-0.18894511,0.18791746,-0.16242787,0.22825703,0.007882271,-0.09733693,-0.19691715,-0.23951276,-0.3467915,-0.22843371,-0.07192052,0.11946048,-0.13427454,-0.13891833,0.32028037,-0.10879938,0.01644031,-0.29126817,0.26819855,-0.26033527,0.053779285,-0.07585611,0.06843943,-0.13956103,-0.039957102,0.05177084,0.08119354,0.033282537,0.18938136,0.06192006,0.18860516,0.3032095,0.19041976,0.056144644,-0.09500287,0.07420397,0.39394566,-0.27502126,0.2729549,0.060553648,0.3083794,0.1012016,0.22318043,0.2407786,-0.1550523,0.23994976,0.08405847,0.08454847,0.27560118,0.32408115,-0.029707566,-0.19141942,0.25586876
café,-0.11628707,-0.072551906,-0.27965736,-0.23015615,0.072687894,0.041719925,-0.024924975,-0.21689369,0.050736506,0.10381205,-0.06439939,0.122945294,0.12692614,-0.12228291,-0.11484626,0.07741086,0.0026858132,-0.12964642,-0.11655804,0.012427199,-0.1180816,0.0592446,-0.16224574,0.09865752,-0.18156853,-0.10642916,0.25787696,-0.03756501,-0.21947832,0.12040707,0.14278412,-0.17183274,0.12792414,-0.08276221,0.16284698,0.05793287,0.082219034,0.0019602813,-0.07819909,0.060866814,-0.08385381,0.15627998,0.066171974,0.053657923,0.16513549,-0.18301415,0.037504986,0.019808441,0.029763266,-0.19226915,-0.24603105,-0.1356731,-0.09119244,0.015814116,0.111933894,-0.082267135,-0.041534614,0.119019,0.15532476,-0.13471472,0.08443542,0.021131232,-0.18918319,0.08254661,-0.019268373,0.07104485,0.053575378,-0.23577312,0.06944602,0.047890775,-0.03444123,-0.046934254,0.1035002,-0.08206514,0.016385058,0.09979201,-0.14217728,0.07108024,0.04383396,0.024310745,-0.19309081,0.14861917,0.06881868,0.0627484,-0.21768375,-0.058586806,0.06827586,-0.0050063785,0.14196378,-0.11415787,0.07837564,-0.22045702,0.11729993,-0.1633714,0.022557257,0.062110223
vanille,0.016483953,-0.11602104,-0.2799551,-0.17137283,0.100626566,0.10784817,-0.054762032,-0.07557878,0.04928593,0.13944738,0.03229011,-0.03301414,0.014196233,-0.042648617,-0.022186492,0.0862598,0.15252922,-0.052534435,-0.024553932,0.16107866,-0.12242037,0.10498528,-0.10757792,0.12128273,-0.082166694,-0.013918314,0.26649603,-0.08567428,-0.13601947,0.15531026,0.12868358,-0.14345689,0.07837262,-0.0954112,0.11116934,0.089974314,0.11904537,0.11172782,-0.0031065494,0.16855307,-0.07017368,0.20620403,0.045556113,0.0037265643,0.090601474,-0.0846978,-0.021941917,0.040860746,0.11671783,-0.086537346,-0.10296923,-0.114462934,-0.1416131,-0.13823435,0.13146323,0.0024684258,-0.0052936524,0.18169644,-0.013286348,-0.05007631,-0.09904681,0.15771554,-0.10292436,0.1220532,0.031984195,0.015083045,-0.053822305,-0.18873216,0.09190464,0.056221306,0.04506184,0.027166253,0.15534201,0.031957023,0.1733148,0.008845104,-0.06766017,-0.14421903,0.12958948,0.014850669,-0.004629072,0.10260372,-0.009921389,0.066113345,0.037493005,0.07122105,0.06736134,-0.0702335,-0.1461941,-0.08098318,-0.0060796626,0.069353595,-0.0068750363,-0.07872042,-0.04888273,0.021546405
éther,-0.20635457,-0.0765543,-0.29929665,-0.029970394,-0.020023536,-0.06089726,0.008394543,-0.08114343,0.0017579682,-0.02336803,-0.1702548,0.14512233,0.13238698,-0.19396438,-0.21291904,0.11753811,0.050221197,0.09475483,-0.12806958,0.24186203,0.011674455,0.1386988,-0.039366614,0.18975273,-0.12833954,-0.24250826,0.21497722,-0.1370297,0.015492026,0.09568866,-0.14109883,-0.12765393,0.12375479,-0.030295778,0.078120396,0.05773079,0.24069399,-0.29095736,-0.14516713,0.29706955,-0.13987166,0.30486214,0.17177534,-0.025158186,0.24741748,0.040927507,-0.0003434997,0.13170289,0.19875422,-0.07786967,0.08961414,-0.1313815,-0.08157344,-0.20487028,0.11227809,-0.23442301,-0.20324153,0.101016015,-0.07206034,-0.033926524,-0.09245774,0.12019472,-0.10727485,0.01392569,-0.040397182,-0.2433709,-0.17468151,0.18763423,0.19209985,0.17151642,0.02223289,0.2663877,0.13296802,-0.08671087,0.13095826,0.03880193,-0.17765766,0.00045073126,-0.20466441,0.12484507,-0.11584395,0.049423754,-0.10618439,0.16175488,-0.072880216,0.0009918902,0.11045462,-0.09872104,0.10760628,-0.13130093,-0.23173395,-0.2878756,0.12745988,0.1143067,-0.010700267,0.10818591
fromage,-0.11609939,-0.17059815,-0.24511546,-0.014859165,0.12076501,-0.028298505,-0.030687664,-0.06719593,0.01907085,0.14702994,-0.110274956,0.18632916,0.049091727,-0.2022082,-0.12161421,0.18752179,0.035765316,-0.20884766,-0.15215857,0.10253016,-0.058336254,0.043438353,-0.07581509,0.124911584,0.016559793,-0.1638272,-0.045083985,-0.16840878,-0.17530738,-0.011685491,0.0030768625,-0.16390505,0.22236285,-0.010184662,0.12367709,0.035066374,0.14960964,-0.105148196,-0.09513219,0.24314952,-0.055497706,0.15269998,0.10398853,-0.123890854,0.043359615,-0.16195285,0.14004685,0.13628326,0.004522778,-0.17996097,-0.09922278,-0.13498987,-0.10050328,-0.10252123,0.22207704,-0.26370504,-0.064837284,0.17186588,0.21027009,-0.059390966,-0.08558531,-0.071210355,-0.016571403,0.068067096,-0.17582752,-0.05053477,0.0054065175,-0.17404972,0.1161183,0.16685072,0.15799455,-0.035525538,0.26065722,0.09945102,0.25137737,0.05603596,-0.11534722,0.18509576,-0.07278848,0.20729747,-0.17721833,0.14346096,0.03946984,0.28853983,-0.03596074,0.04382857,-0.014260758,-0.013623413,0.08397129,-0.24733126,-0.027281856,-0.24847223,0.17190918,-0.1374195,0.010245079,0.18501307
vin,-0.14579071,-0.06895904,0.06487346,0.072345965,0.09523867,0.00491973,-0.0778645,0.0077511854,0.035296086,0.12625039,-0.13563877,0.120808825,0.012441897,-0.009372845,0.011548581,0.0045920387,0.10689701,0.044081282,-0.048767775,0.07104801,0.052283328,0.037177857,-0.12165369,0.012774153,0.03458821,-0.17829151,-0.113489464,-0.007228613,-0.06816347,0.19239663,-0.09503738,0.109111786,0.00032272562,0.02261786,0.13034655,0.05485318,0.068369746,0.13971925,-0.00888611,0.16086924,-0.012713343,0.03483849,0.08068129,0.09282445,0.08149555,-0.09790115,0.12901843,-0.030572508,0.049373895,-0.09991176,0.14308299,-0.13246241,-0.05368946,-0.16413623,0.11101446,-0.12398842,-0.055656306,0.043213826,-0.18077086,-0.18288034,-0.05310604,0.08405404,-0.09629665,-0.10588373,-0.15962711,-0.08518112,-0.008979644,0.00015916675,-0.027572919,-0.031792812,-0.096233085,-0.106111035,0.058842625,0.15253428,0.102734864,-0.06017352,0.0022271387,0.12827101,-0.06046501,0.16584045,-0.08116659,0.08827751,-0.004618477,0.04527558,-0.09845742,0.12707958,0.084843226,-0.034870002,-0.009046882,-0.13776666,-0.058616214,-0.23162025,0.21996106,-0.14510316,0.049851764,0.0962868
tabac,-0.13642591,0.037906032,0.05885966,0.08232505,0.05966208,0.050514713,-1.2019649e-05,-0.07480248,0.091733806,0.06848838,-0.17858241,0.08457784,0.078461684,-0.094892636,-0.034247547,0.15026832,0.093834005,0.036369402,-0.06684892,0.06505478,-0.13664089,0.023071907,-0.0763724,0.025521053,-0.119005784,-0.050220262,-0.03182617,-0.1273853,0.071168214,0.06666641,0.14427474,-0.046705578,0.12894629,-0.05537187,0.04796024,-0.0017202646,0.025553074,-0.084348604,-0.03341434,0.13885222,-0.1549321,0.07464354,0.034044392,0.013774034,0.14267023,0.013708632,0.07754597,0.019999636,0.17083454,-0.106173426,0.14901315,-0.0795062,-0.038903415,-0.14001167,0.076934285,-0.10956697,-0.028041404,0.050174296,0.04974396,-0.09397469,-0.055682093,0.02590926,0.15187424,-0.013254702,-0.055541713,-0.12534508,0.0055469666,-0.1716076,0.02539277,0.15397802,0.011010256,0.032345954,0.036922548,0.024964996,0.009258887,-0.19276114,0.23388956,-0.09320021,-0.045930352,0.09090713,-0.021935534,0.09363003,0.0031759199,0.09661411,-0.04088228,0.0940828,0.16772288,0.06458457,0.21499872,-0.06039781,-0.027156562,-0.08480601,0.044026628,-0.12501138,-0.10564941,0.0009927228
noixdecoco,-0.32653317,-0.17370617,-0.23916602,-0.16809614,0.12456012,0.10026188,-0.1959251,-0.008541869,0.05192034,0.1662564,-0.15919071,0.20651475,0.15103821,-0.21043734,-0.09149338,0.108731166,0.23403789,-0.015303312,-0.24055693,0.200381,-0.26127517,0.24352936,-0.17302641,0.14886951,-0.15013379,-0.17551798,0.18087941,-0.05782841,-0.28583047,0.119545236,0.021840084,-0.15905744,0.10753009,-0.117188975,0.23401749,0.08697907,0.22775033,-0.16412383,0.018862715,0.107909895,0.03079975,0.14714773,0.14411224,-0.16781367,0.03177165,-0.11564563,0.16939476,0.17520773,0.023697928,0.005324144,0.088574216,-0.3783637,0.0075778626,0.007996209,0.2736261,-0.15384136,-0.12699226,0.23314399,-0.111428514,-0.18887697,-0.14330178,0.28009143,-0.0844139,0.15679441,-0.2397763,0.03770129,-0.1984136,0.06774308,0.08712459,0.10054038,0.19777489,0.28572547,0.113267004,0.2079157,0.122193694,0.28378323,0.049755517,0.28878552,-0.044291735,0.3277982,-0.21802634,0.15629508,0.13872364,0.111567765,0.06274535,0.23203343,0.17759138,-0.31393147,-0.20112485,-0.16396287,0.010766346,-0.22650693,0.16753733,-0.057440393,-0.18493104,0.29653087
jasmin,-0.17713644,-0.23883742,-0.20504197,-0.18063647,0.041530397,0.1643181,-0.23594615,-0.19988713,0.08891977,0.30307636,-0.17840129,0.25471297,0.33885753,-0.1786777,-0.031161487,0.17602517,0.012627158,-0.118294865,-0.098320454,-0.09915776,-0.08682859,0.08240682,-0.026558258,0.19773811,-0.06157055,-0.066232435,0.13690594,-0.13063803,0.13453014,-0.017701238,0.09087362,-0.12673602,0.05336942,-0.081700236,0.10635966,0.1187412,0.09360275,-0.09258036,-0.061252106,-0.12770784,-0.032954052,0.22356302,0.10981494,-0.2537735,0.11631146,-0.025844269,0.15157878,-0.0043269927,-0.13194847,-0.14304303,0.047495846,-0.22879979,-0.056841545,-0.15102476,0.053053476,-0.11284487,-0.097350344,0.29133254,0.16989443,-0.0521708,-0.1153892,0.14119156,-0.06408298,0.34937584,-0.3256229,0.27176946,-0.15286449,-0.19160004,0.054893896,0.1299974,0.015121775,0.21635777,0.17213914,0.19091001,0.031019539,-0.08041085,0.13935731,-0.01073356,0.14909738,0.36767483,-0.14319478,0.1872794,0.045947433,0.0956008,0.078640185,0.009996608,0.09269612,-0.27119878,0.036910266,0.040225543,0.09512852,-0.013950363,0.17310545,-0.041963633,-0.19166586,0.24812573
savon,-0.04485064,-0.038953442,-0.046048313,0.026566625,0.11854449,0.15336119,-0.13980441,-0.033839673,0.06304687,0.08690196,-0.26551992,0.070187956,-0.0069402102,-0.06713534,-0.036448937,0.11402719,0.08681919,-0.08281778,0.01703803,0.14855506,-0.120210424,0.09617533,-0.07647155,0.056255907,-0.035784062,-0.20318736,0.036374032,-0.13057247,-0.040547635,0.056666978,-0.08518574,-0.21794902,0.08849694,-0.039546162,0.073542595,0.110391274,0.18324523,-0.0017536506,-0.08870474,0.23832652,-0.11602508,0.08348757,0.059595212,-0.08384128,0.05094749,-0.19483663,0.1773743,0.095879376,0.10353145,-0.0871109,0.13608748,-0.16058527,-0.11736801,-0.14972919,0.17990938,-0.016757432,0.01900499,0.13966408,-0.12048991,-0.10498974,-0.010921987,0.036500577,0.073817536,-0.086712606,-0.22819614,-0.07008354,-0.059576903,-0.01005757,0.08315367,0.02918759,0.1350102,0.01596313,0.07572936,0.12541789,0.03171932,0.05187301,0.0028747953,0.12712951,-0.13111801,0.22531551,-0.10187498,0.02949801,0.11651704,0.25204626,-0.04756413,0.033191435,0.20630543,-0.093471065,0.060093533,-0.14184533,-0.0330648,-0.08624673,0.12946667,-0.17485364,-0.057058144,0.095907986
ail,0.0040164273,-0.023162566,-0.033860553,-0.12403633,0.19587892,-0.0039394507,-0.09651718,-0.0020511597,0.020972509,0.040064275,-0.032140296,0.053046986,0.11989558,-0.092375085,-0.033397075,0.025403764,0.04308921,-0.007978559,-0.13970217,0.11213152,-0.09912872,0.031962886,-0.08079477,0.027779346,-0.110661365,-0.1358464,0.09333663,-0.052954394,-0.07327476,0.044225525,0.05613159,-0.020490907,0.1512363,-0.15131357,0.023020286,0.09528412,0.0921361,-0.08378376,0.0041321013,0.06414134,-0.03729881,0.11800881,0.03152834,-0.110598505,0.053760413,-0.055507105,0.06722594,0.04094678,0.082879454,-0.11506549,0.034749527,-0.06684618,-0.13627344,-0.10752429,0.05884266,-0.0046638027,-0.062271163,0.06754649,0.03446738,-0.09434085,-0.06865516,0.07118641,0.013051566,0.08079758,-0.10407603,-0.044812143,-0.081297345,-0.12234537,0.024881471,-0.0060872436,0.13960235,0.097354144,0.09272632,-0.028250933,0.046246327,0.0002755113,0.03039332,0.009388428,-0.07662316,0.052610163,-0.04857264,-0.015639188,0.100768074,0.092339955,-0.06235401,0.0415977,0.07871352,-0.06700254,0.017042631,-0.00089830905,-0.013725054,-0.07435047,0.03563968,-0.17127687,-0.10146111,0.058904245
lactique,-0.08814934,-0.22670761,-0.21720882,0.012592034,0.3166016,0.17573366,-0.17737636,-0.13408764,0.14974605,0.20938057,-0.081302635,0.14385581,0.3361863,-0.21931523,0.0706092,0.11951764,0.19080056,-0.08709158,0.051220305,0.25820813,-0.057762124,0.020635277,-0.08161171,0.03904285,-0.22024372,-0.11622134,0.22917822,-0.2281892,-0.37614667,0.21690261,0.28366098,-0.03949904,0.21598378,-0.22683257,0.21198742,0.2211143,0.19432014,-0.30233604,-0.0681645,0.17918381,-0.12699318,0.28693223,0.16053747,-0.34761518,0.20169564,-0.26149014,0.099745676,0.23363052,0.22782665,-0.13085493,-0.22671431,-0.19611967,-0.2712527,-0.08527217,0.17901334,-0.17389338,-0.24051023,0.20551077,0.0030976832,-0.13695578,-0.10603869,0.08144561,-0.10533698,-0.021351276,-0.41912434,-0.0071297735,-0.22078863,-0.24185273,0.0945348,0.22006905,0.2186087,0.15088356,0.066330835,0.34467903,0.2634314,-0.16987497,0.014440745,-0.17744485,-0.27826166,0.31515157,-0.2630797,0.21152598,0.1409756,0.18377587,-0.1979821,0.13626957,0.1869424,-0.2506705,-0.3063545,-0.029390544,-0.16439421,-0.13477916,0.25020355,-0.3466211,-0.08647092,0.2147451
beurre,-0.08722528,-0.09959808,-0.073893934,-0.065582216,0.09463473,0.0775797,-0.056491382,-0.039838873,0.11780898,0.030126786,-0.112697974,0.032482542,0.1196122,-0.11180045,-0.022142215,0.02819604,0.051682025,0.011744611,0.022103444,0.10492507,-0.1261334,0.062290616,-0.08833592,0.087518,-0.093364246,-0.030244108,0.025653243,-0.029824056,-0.088921994,0.02093839,-0.028708288,-0.11438154,0.038458634,-0.03153669,0.027404726,0.11727713,0.059558142,-0.09111394,-0.050827663,0.11030623,-0.11514966,0.041792735,0.0056181215,-0.08598785,0.040625516,-0.099120736,0.086777,0.10844576,0.020292832,-0.024835838,-0.079242885,-0.09443909,-0.0005843174,-0.060756054,0.07117514,-0.09693933,-0.00524788,0.1720155,0.03633591,-0.0988689,-0.09896648,0.052787606,-0.001879814,0.07090169,-0.078966126,0.046146818,-0.10167595,0.0042794067,0.12673791,-0.0064905444,0.07139541,0.11732985,0.102945924,0.045271087,0.03973351,-0.018635858,-0.021420103,-0.035401814,-0.061906695,0.028912004,-0.065066814,0.112366036,-0.01793813,0.06951065,0.06597642,0.089511305,0.048788805,-0.1739689,0.0066547226,0.0140633285,-0.060550574,0.021105561,0.0072008204,-0.03563054,-0.08791468,0.13960508
champignon,-0.22342132,-0.15621908,-0.10761346,-0.08803696,0.16254655,0.07172757,-0.08401874,-0.009870905,0.2253371,0.094089374,0.020900164,0.21287146,0.1576932,-0.09609848,-0.15703675,0.13983075,0.25024644,-0.023865994,-0.07043182,0.12777701,-0.14166671,0.17185715,-0.11626449,0.23220837,-0.102277845,-0.12980412,0.12381865,-0.082918406,-0.30494794,-0.009663636,0.03842173,-0.26441973,0.037547912,-0.09567936,0.17152265,0.09906487,0.070389,0.0039301217,-0.045747455,0.06702182,-0.054110963,0.11991275,0.111303985,-0.059789393,0.08346364,-0.09412949,0.036972094,0.088696405,-0.012323383,-0.16712376,0.11667786,-0.14703599,-0.009830765,-0.16673215,0.04131662,-0.17394501,-0.117579944,0.012287743,-0.1846721,-0.0333321,-0.109971434,0.18172172,-0.019238666,0.11332403,0.08426665,-0.15724812,-0.031225484,-0.06776689,0.13625607,0.14976117,0.046561196,0.085278794,0.15263991,0.07440476,0.22626182,-0.09896022,0.08897495,0.039434798,0.013004761,0.22926417,-0.013272665,0.14163403,0.05078543,0.07471492,-0.07242848,0.10852462,0.1660131,-0.16833676,-0.15555811,-0.14200862,-0.024493042,-0.24989963,0.18533874,-0.056099027,-0.09158012,0.1707799
cacao,-0.03900132,-0.0294075,-0.24692136,-0.034102716,0.16201472,0.10321694,-0.18294561,-0.077078074,0.0005380586,0.11482087,-0.0144651495,0.03575536,-0.04333277,-0.15815246,-0.046019476,0.10606776,0.04897859,-0.16336729,-0.001981752,-0.026428808,-0.10300484,0.18781278,0.030276882,0.11669082,-0.13335519,-0.15934204,-0.014264379,-0.18241686,-0.028300498,0.05093768,-0.022946812,-0.13085714,0.20414025,0.023145843,0.1121901,0.037069038,0.17850886,-0.13389146,0.043708377,0.037809443,-0.10530338,0.06270334,0.1579498,-0.10226084,-0.008741692,0.17668898,0.18318237,0.15167901,0.101188496,0.0063325204,-0.0076912865,-0.14111352,0.0032108864,-0.026642479,-0.006567776,-0.034506846,-0.09491664,0.13488936,0.21242276,-0.05647165,-0.016328692,0.12132138,0.1027176,0.28297764,0.1017975,0.2898781,-0.10426761,-0.15523171,0.09096533,0.040680826,0.09512228,0.011617504,0.06042313,-0.16318049,0.057854794,0.031008597,-0.13915786,0.20525208,0.042642497,-0.008613147,-0.15376666,-0.032802384,-0.029139088,0.090036154,-0.11718694,0.061431687,0.059549443,0.06794461,0.14354104,-0.075467736,0.16017294,-0.22494137,0.053636834,-0.0074783936,-0.09707637,0.032008015
animal,-0.13083762,-0.11384776,-0.10891139,-0.039820936,0.020269241,-0.04645722,-0.08282451,-0.059259992,0.04601855,0.034906134,-0.024426062,0.11089218,0.032853507,-0.1174574,-0.1384798,0.059136547,0.0757175,-0.08248079,-0.012645203,0.09241198,-0.103236504,0.07198079,-0.07744354,0.07348393,0.071307585,-0.02390391,0.010907192,0.017502598,-0.004983062,0.11309813,0.023793057,-0.1251128,0.06916948,-0.020141274,0.13343133,-0.02084431,0.09354088,-0.04827683,-0.08816046,0.084441446,-0.07576516,0.017217763,0.09005839,0.030034866,0.07480176,0.05304359,0.029934354,0.07008354,0.12004262,-0.031878483,0.08865176,-0.08449378,-0.121418595,-0.069632635,0.11441673,-0.054969028,0.002210321,0.0342357,-0.14072272,-0.02116695,-0.03585991,0.08196366,0.09660527,-0.014116035,0.10295862,0.040043667,-0.13725135,-0.055667374,0.102514684,0.08785059,0.056454595,0.008983698,0.060550228,0.031289406,0.043458488,0.045592092,0.061260216,0.11074251,-0.0006201342,-0.12181702,-0.07948139,0.08751756,0.059359968,0.04573135,-0.032192387,-0.018002877,0.09768866,-0.03663199,-0.077158675,-0.14762002,0.09547037,-0.13103443,-0.025646452,-0.050923694,-0.09531392,0.09585284
pêche,-0.30995697,-0.15045989,-0.15558273,-0.0528412,0.14776143,0.027826281,-0.20789742,-0.051564854,0.15476176,0.055553026,-0.029141635,0.22375095,0.06924232,-0.11131861,-0.010434452,0.13608617,0.19558598,0.07185462,-0.12574689,0.21060008,-0.154605,0.16659136,-0.16381279,0.27108762,-0.20716666,-0.14676303,0.026845803,-0.05123538,0.11432604,0.12445098,0.07380029,-0.07756768,0.07182839,-0.14663959,0.12659706,0.22713917,0.1899941,-0.14513664,-0.059802342,0.24984926,-0.042090606,0.10023384,0.073350534,-0.081605904,0.09832342,-0.39334863,0.23055732,0.1328774,0.08526181,-0.2092276,-0.15762289,-0.3031788,-0.17602172,-0.09042383,0.09521811,-0.19804788,-0.27066252,0.18670517,0.097998135,-0.21048959,-0.1655351,0.13386144,-0.15631421,0.03326127,-0.23691432,-0.00034031458,-0.20091273,-0.12014728,0.11087334,0.12999406,0.06439671,0.16973396,0.092335835,0.2011341,0.2648463,-0.21385813,-0.15019798,-0.13970748,-0.089690775,0.262374,-0.13708922,0.108509615,0.22937359,0.0747779,-0.14674379,0.21227552,0.28561056,-0.26943868,0.23592593,-0.09663386,-0.16984364,0.086767145,0.2794368,-0.049327,-0.013499603,0.17227282
orange,-0.24716012,-0.1665982,-0.20997082,-0.0074119046,0.009362246,0.17155607,-0.15023258,-0.09516883,0.1333096,0.063753545,-0.2436902,0.12445176,0.09048445,-0.16087377,-0.17143537,0.057319608,0.019571599,-0.052022416,-0.19849868,0.08531872,-0.17083234,0.12660095,-0.040814124,0.15036702,0.019634468,-0.11782965,0.018602869,0.02649542,0.032647103,0.03436964,0.103727356,-0.06499587,0.10912858,-0.032783758,0.00914092,0.10996099,0.08657251,-0.24736017,-0.1224092,-0.061048944,-0.052352652,0.010779409,0.101011604,-0.1833351,0.14735663,0.08315985,0.20033988,0.14581549,-0.012924366,-0.11047314,0.13733637,-0.22294696,0.078361854,-0.12197483,0.026035465,-0.171096,-0.14244223,0.20366171,-0.04512051,-0.09512316,-0.17812175,0.1643408,0.1193347,0.069895744,-0.23115629,0.082031965,-0.12638175,-0.015103948,0.0046443893,0.029440757,0.17374699,0.19210114,0.13659729,0.09764668,0.019727137,0.13856292,0.1389657,0.29749185,-0.21328719,0.06484307,-0.13815187,0.15591346,0.029314857,0.14747573,-0.07495462,0.16132021,0.087233186,-0.16712783,-0.15033376,-0.013439862,0.23376948,-0.18626693,0.14630097,-0.19182217,-0.021360766,0.086646855
brûlé,0.046927936,-0.08216339,-0.09377101,-0.16345994,0.1688428,0.040644635,-0.16018355,-0.13249946,0.109396756,0.026742483,-0.036988586,-0.05319629,0.088598035,-0.058986064,-0.10785107,0.09503433,0.22881538,-0.13638055,-0.07850444,0.026734293,-0.06977436,-0.007044062,-0.07829106,-0.003705278,-0.09819758,-0.05031818,0.050917882,-0.064000174,-0.08589026,0.1329683,0.1278337,-0.17163195,0.07157866,-0.053112514,-0.02339726,0.05925266,0.017810468,-0.0004949244,-0.025874745,0.0292572,-0.03705586,0.15410557,0.16033256,-0.005849527,0.076975495,0.039919846,-0.00019861385,0.13389052,0.17717001,-0.036594745,0.09786029,-0.04169733,-0.14933011,-0.012791365,0.068967745,-0.036775846,-0.012063146,0.1147016,0.09376095,-0.10554503,-0.09235952,0.119353265,0.04123675,0.017923567,0.12489134,-0.008678729,-0.082179464,-0.17482907,0.072871685,0.12015118,0.04694158,-0.023635993,0.09793473,0.0034925472,0.06341034,-0.016034974,0.122657776,0.055250473,-0.050245833,-0.13798836,0.0029383507,0.049825385,0.06878207,0.001464827,-0.14597437,0.088122375,0.024012227,-0.025726046,0.0010150373,-0.0695207,0.103493474,-0.07733907,-0.015480434,0.0065021645,-0.10395403,0.04104594
violette,-0.12785004,-0.11809084,-0.088732705,-0.0044899695,0.09611649,-0.051217012,-0.08136591,-0.101194985,0.043018818,0.067868605,0.020476248,0.100335926,0.008485455,0.030588046,0.022397827,0.10978632,0.16507678,-0.12080415,-0.054166175,0.098789856,-0.14008039,0.12916565,-0.09747717,0.15327041,-0.07772212,-0.08812167,0.012238286,-0.09462458,-0.10152779,0.042658012,0.0031372253,-0.10030073,0.063749716,-0.037149772,0.13900164,0.14557621,0.020072568,-0.081159525,-0.016263181,0.157434,0.0065726973,0.10961121,0.015367202,0.02606646,0.068748794,-0.061123885,0.026151344,0.09131316,-0.024191853,-0.023067845,-0.11200638,-0.111067526,-0.09821276,-0.074961975,0.1443665,-0.087370515,-0.039076563,0.078232184,0.08551451,-0.057241347,-0.10814179,0.16681033,-0.0044166255,-0.038626876,-0.038330358,0.028803743,-0.060812894,-0.047347333,0.15255666,0.0012329686,0.044691242,0.04478311,0.057382606,0.06552525,0.047277294,-0.15047692,0.09213908,-0.025691736,-0.03648553,0.05601834,-0.025557239,0.050421685,0.05981034,0.12667292,-0.03254969,0.12286026,0.17180638,-0.11316171,0.06442296,-0.016710818,-0.0689359,0.15599728,0.14494893,-0.08238035,-0.05603074,0.052326187
musc,-0.01005958,-0.10131039,-0.25258893,0.009477157,0.16064583,0.03787863,-0.018069355,-0.15908433,0.09206937,0.10860225,-0.17195705,0.08879679,0.101417854,-0.088914126,0.0011902959,0.09069905,0.060167592,-0.19453704,-0.20378086,0.010734618,-0.17389174,0.09564198,-0.06851433,0.13312815,-0.18854436,-0.07454718,0.18398929,-0.1206964,0.037558693,0.061604567,0.24163583,-0.066401,0.1917158,-0.13388743,0.1821837,0.043455616,0.09652566,-0.1038316,-0.06105897,0.14627804,-0.12783027,0.112286314,0.026296193,-0.042655006,0.060409077,-0.11745769,0.059066124,0.06352495,0.13592505,-0.08114561,0.24012892,-0.005603753,-0.037711456,-0.088988915,0.104080245,0.015178595,-0.12061737,0.1932435,0.022037715,-0.039946266,-0.099787205,0.023379749,0.246086,0.005586326,0.001811929,0.037562035,0.14804316,-0.14541325,0.16387013,0.045100592,0.0022399873,0.06083293,0.07211207,0.028877562,0.18068966,-0.17656732,0.19493288,-0.2652485,-0.004441894,-0.06642313,-0.10237314,-0.0014448836,0.06618412,0.10178608,-0.21366462,-0.025388505,0.17919192,-0.015730757,0.18012857,-0.066581726,0.05270508,-0.31329465,0.16782783,-0.05840274,-0.08570443,0.16148578
pin,0.023685344,-0.1469559,-0.12536496,-0.027680172,0.18817298,0.10333943,-0.026452558,-0.13144287,0.10065814,0.15214567,-0.15135878,0.048725575,0.004549183,-0.08313201,-0.20012692,0.040099364,0.040097136,-0.12807815,-0.14829591,0.017620815,-0.17029485,0.117201865,-0.12392342,0.22486225,-0.13505298,-0.08478751,0.17235425,-0.060373396,0.06852867,0.061419886,0.14182359,-0.14295669,0.0700741,-0.08408916,0.19537207,0.03399648,0.0009076111,0.019398913,-0.17957337,0.08833578,-0.085757375,0.16985631,0.12249312,-0.16275993,0.13139921,-0.21818483,0.08797905,0.034387965,0.09634085,-0.10953067,0.19360562,0.049866576,-0.13656113,-0.0931899,0.09919905,-0.06360813,-0.070771664,0.12392375,0.07301978,-0.09198004,-0.029234575,0.19341971,0.3009365,0.10172848,-0.18885905,-0.08422879,-0.074379876,-0.01219458,0.18805978,0.12202947,0.10447587,0.024865609,0.16541563,0.123275466,0.08714336,-0.07508399,0.14210027,-0.21920368,-0.14364187,-0.08839973,-0.15528877,0.052606095,0.14907467,0.121877365,-0.25260216,-0.058206156,0.16644406,-0.024344973,0.21196184,-0.11402212,0.12743297,-0.32116663,0.2558552,-0.12667076,-0.13913758,0.058618713
foin,0.06629458,0.035301324,0.050323874,-0.15414481,0.22119269,0.09289696,0.038320664,-0.24872401,-0.097313784,0.19510946,-0.066727705,0.104105316,-0.06497984,-0.063777074,-0.19694696,0.16839892,0.13372949,-0.18014333,-0.23437342,-0.21387862,-0.14914425,0.13007654,-0.096245006,0.17678621,-0.24734274,-0.18944323,0.3649084,-0.04555912,0.37848523,0.26220745,0.2555616,0.003625119,0.24632066,-0.12730202,0.24428152,0.14889835,-0.08915024,-0.06576395,-0.23305652,0.1886723,0.027785636,0.30024463,0.1344278,-0.1658026,-0.102802575,-0.36521807,0.04058537,0.2882645,0.09502718,-0.18577737,0.320996,-0.0910261,-0.16778265,-0.1844288,0.16732019,-0.21157697,-0.26030344,0.07994449,0.14344633,-0.14234594,-0.14508773,0.15023142,0.12614004,0.20763005,-0.25981873,-0.08362392,-0.23243484,-0.092098035,0.23750623,0.34262764,0.17751727,0.0027481616,0.116685085,0.22068933,-0.00896322,-0.19769764,0.30981424,-0.3043682,-0.19233634,-0.06175834,-0.23506597,0.2269617,0.14200898,0.19497982,-0.31330603,0.019181378,0.2513483,-0.20510006,0.38311905,-0.16220108,0.071667016,0.13150728,0.27151203,-0.1983391,-0.0015722439,0.11470633
citron,-0.016888004,-0.06684688,0.019349162,-0.0043620802,-0.018205103,0.06302259,-0.09080124,-0.0753572,0.0055077113,0.05384824,-0.124710545,0.18653296,0.11441676,-0.14330332,-0.0975576,0.1131469,-0.092834994,-0.09248458,-0.15775466,-0.0025913408,-0.15334114,0.13912943,-0.028565202,0.10709555,-0.04491699,-0.059119727,-0.031780258,-0.14416927,0.2044647,-0.035589922,0.045894742,0.016435174,0.11526826,-0.12763196,-0.06347323,0.045101393,0.07716366,-0.17832346,-0.08606696,-0.072072044,-0.12525547,-0.053967584,0.08222332,-0.14070743,0.044369675,0.20096493,0.09279035,0.12994446,-0.018894436,-0.13639891,0.1527068,-0.11988778,0.043934155,-0.03153438,-0.014544476,-0.0972666,-0.094609305,0.079939574,0.11779827,0.0011906289,-0.12627691,0.14773995,0.17508705,0.17725259,-0.055136014,0.1249387,-0.15338504,0.048353724,-0.016567517,0.12339626,0.19347508,0.10549735,0.05344533,-0.0071942154,0.06524341,-0.00071464665,0.24964605,0.24761423,-0.08426899,-0.12836517,-0.16998614,0.1158811,0.086357296,0.087030016,-0.11122614,0.16464049,-0.03829469,-0.22101547,-0.00990669,0.021637514,0.14493082,-0.23140669,0.07501107,-0.06544714,-0.107280396,0.1218767
cerise,-0.095229134,-0.075819656,-0.20116614,-0.13539475,0.030483726,0.093495294,-0.097846255,-0.012698073,0.12978113,0.094089635,-0.056426525,0.014792878,0.09340216,-0.075835705,-0.092665076,0.030359555,0.14287823,-0.027053896,-0.06810175,0.11252667,-0.13547018,0.08707274,-0.109878585,0.1605199,-0.09224871,-0.07772292,0.1242301,-0.08041799,-0.07072295,0.016249355,0.0961635,-0.14977522,0.08216268,-0.17972133,0.09814395,0.04293866,0.15528543,-0.09199835,-0.0515384,0.035501786,-0.06615192,0.0960851,0.08571224,-0.12905625,0.1794088,0.12755877,0.06881696,0.04001639,0.006397035,-0.099362694,0.02429919,-0.1747993,-0.17159557,-0.017023299,0.12215276,-0.02698705,-0.00074822083,0.17294934,0.044680085,-0.08407703,-0.15107383,0.13247743,0.12521309,0.12940942,0.030618846,0.1487003,-0.05567145,-0.12057234,0.06867741,0.054672472,0.06578584,0.0677257,0.052094217,-0.0689093,0.12063761,-0.11471607,0.07253131,0.11839582,-0.009111006,-0.1534262,0.03294535,0.036384266,-0.008822795,0.06872916,-0.06042462,0.117528886,0.033863127,-0.15629084,-0.10583981,-0.03173207,0.03924214,-0.12600148,-0.003430128,-0.053636964,-0.13003111,0.10666022
rhum,-0.0407594,-0.12431647,-0.080270976,-0.04065591,0.044683088,0.054203544,0.047433596,-0.035005145,0.077816874,0.08580474,-0.1336845,0.10837633,0.0015446097,-0.07152672,0.07164948,0.0901441,0.15744112,-0.04630822,-0.07746516,0.24454372,-0.07810013,0.027566724,0.029058874,0.11042176,0.02794247,-0.06497221,0.030285638,-0.08722967,-0.013999324,0.11985935,0.06691135,-0.04504777,0.078484155,-0.11956986,0.12815629,0.16845387,0.16392063,-0.020980675,0.006238755,0.22775427,0.00044644251,0.07722759,0.06368841,-0.011381647,0.10202361,-0.11310279,0.03545506,0.06430739,0.1215588,-0.01627057,0.14035217,-0.17222436,-0.08165144,-0.056038585,0.14654404,-0.15184477,-0.0012281109,0.20259906,0.19890003,-0.14871314,0.017424975,-0.0072650574,-0.06990628,0.05865341,0.038935736,0.051349193,-0.14644569,0.0426151,0.1517947,0.0895641,0.045162126,0.13576803,0.027517835,0.06345868,0.06856102,0.11563304,0.020498421,0.09989166,0.0039879996,0.043756638,-0.10806059,0.059227254,0.056834053,0.07326819,-0.027797932,0.17475182,0.13473608,-0.15027617,-0.123532,-0.024043564,-0.021819709,-0.031565413,-0.020782892,-0.045497105,0.030871334,0.09471743
cannelle,0.054454923,-0.008231394,0.16679661,-0.19177832,0.03732265,0.1025362,-0.15037857,0.11868779,0.08839075,0.033610146,-0.09025329,0.11720911,0.16900828,-0.12751535,-0.015134528,0.061614312,0.2222386,-0.015119586,-0.06911615,0.20062311,-0.07862243,0.1161578,-0.0004954599,-0.020277182,-0.07279581,-0.074979365,0.022063512,-0.086518124,0.051729303,0.10916583,0.025870718,-0.026298376,-0.02649055,-0.08794971,-0.12657082,0.039057095,0.13869792,-0.09482695,-0.013261247,0.2084116,-0.07501617,0.045893878,0.036128156,-0.1050468,-0.0917416,0.06047164,0.111807466,0.021019395,0.14900315,0.004596185,0.19952352,-0.10860525,-0.054835167,-0.04719081,0.119148694,-0.10746521,-0.066288605,0.118441164,0.15011807,-0.13700412,-0.08645484,-0.0010363087,0.14643142,0.1915605,0.16857742,-0.046404358,-0.1148698,-0.07582091,0.14259388,0.102670096,0.023345089,0.20334494,0.007648867,-0.046182573,-0.024941359,0.21497092,0.030395608,0.01262518,-0.045934882,-0.20268774,-0.03740147,-0.009029909,0.115103416,-0.020356126,-0.00038712565,0.1627303,0.055515677,-0.036986846,-0.106338166,-0.07836058,0.10749653,0.11954371,-0.008419468,0.0061305976,-0.01587079,0.076813474
coumarine,-0.040936667,-0.21536595,-0.26341006,-0.16063333,0.23540607,0.19085613,-0.29303482,-0.05910702,0.082339615,0.27004254,-0.10904637,0.27830493,0.20409617,-0.4194308,-0.18118009,0.04464136,0.32383174,-0.20823541,-0.1781754,0.200894,-0.11704959,0.13592696,-0.1115426,0.060758155,0.023412935,-0.03996786,0.06076353,-0.23399206,-0.21775609,0.2100348,0.15662746,-0.1688206,0.19170257,-0.24260858,0.11187157,0.09621368,0.24808577,-0.09016423,-0.18746887,0.23074643,-0.063240364,0.23230554,0.16753682,-0.1755227,0.107390024,-0.07851185,0.1893291,0.09519032,0.3506161,-0.0302721,-0.12680143,-0.3400327,-0.17334037,0.051280852,0.16293807,-0.11096467,-0.106215,0.1960414,0.11503443,-0.29907036,-0.056868464,0.02488623,-0.016341913,0.4276813,0.19406405,0.06465439,-0.26752567,-0.31364936,0.20381743,0.20723638,0.1192649,0.11151333,-0.066693604,-0.162487,0.11610235,0.24142331,0.06413448,0.21916465,-0.005855318,-0.080899,-0.18681088,0.028424673,0.10289329,0.053646162,-0.2238294,0.2696885,0.14334063,-0.2372874,-0.17870462,-0.108512364,0.24955146,-0.09859441,0.17779505,0.00065873936,-0.07324252,0.18764627
laitfrais,-0.34896964,-0.22541738,-0.35145193,-0.09534008,0.3214745,0.107013054,-0.19632769,-0.03726637,0.12204346,0.15783156,-0.016604595,0.2983215,0.16699171,-0.23906255,-0.13668089,0.16031145,0.28425783,-0.11183119,-0.16259544,0.098435186,-0.20425782,0.105770774,-0.16527495,0.23897083,-0.20938364,-0.18787399,0.2885192,-0.27123147,-0.40347362,0.10572121,-0.094881095,-0.2958819,0.06690939,-0.09063787,0.2664377,0.2894317,0.24891362,-0.24058788,-0.05664034,0.21171272,-0.039373696,0.28599817,0.21669555,-0.1477108,0.1795476,-0.2883858,0.24995656,0.09867109,0.008757748,-0.09297627,0.16240612,-0.27271512,-0.13917257,-0.095452376,0.19453928,-0.20037958,-0.15698832,0.2237743,-0.253651,-0.08168982,-0.13326997,0.16883904,-0.20832661,-0.051511195,-0.24515758,-0.1751128,-0.117528275,0.017763108,0.036007844,0.2165629,0.13114646,0.08355523,0.11931785,0.2067814,0.260693,0.24489862,0.008662779,0.22456779,0.063534744,0.23779038,-0.21319404,-0.0020856038,0.10577867,0.167287,0.022734592,0.20080099,0.33505094,-0.31514722,-0.0853769,-0.07085326,-0.08036247,-0.2716654,0.24466404,-0.018325746,-0.19031207,0.21023774
médicinal,-0.0027018636,-0.18901378,-0.07951181,-0.030999787,0.120621234,0.09792517,-0.092332624,-0.20057315,0.036899567,0.1378867,-0.2556011,0.057413124,0.062163167,-0.059176262,-0.21619627,0.09118253,-0.0008356571,-0.20615482,-0.3952297,0.18889286,-0.07030578,0.108499855,-0.20136288,0.11402972,-0.16000222,-0.1331769,0.336849,-0.046899084,0.08912747,0.19280854,0.056176968,-0.10616471,0.096561745,-0.16389091,0.02850784,0.06020726,0.11410152,-0.09518088,-0.1673691,0.1899957,-0.13591559,0.20313953,0.13391522,-0.08842824,0.06020348,-0.10516964,0.14202876,-0.00663131,0.18934272,-0.17121014,0.48370898,-0.115472436,-0.15064651,-0.12871933,0.04914236,-0.06395628,-0.19576798,0.10365884,0.00799159,-0.1586973,-0.08229452,0.059067827,0.31282416,-0.0063897893,-0.10899961,-0.22044797,0.046507873,-0.18512857,0.12912971,0.16333015,0.068124376,0.067843854,0.11761949,0.051565524,-0.022833401,0.026072532,0.2496727,-0.2539664,-0.19478092,-0.0951023,-0.08752883,0.10539971,0.088086955,0.28649038,-0.15986788,0.074747875,0.06522726,-0.052487683,0.27719635,-0.10016741,0.1768967,-0.13999961,0.09755314,-0.12021905,-0.08374563,0.032662917
cèdre,-0.112472124,-0.12226294,-0.106482856,-0.13569115,-0.09829986,-0.021767197,-0.07184304,-0.1661715,0.035370592,0.019222263,-0.095480725,-0.07753654,0.09122049,-0.08358964,-0.16945821,0.1895353,0.114690855,-0.13123259,-0.11337371,0.038843326,-0.15428622,0.08937555,-0.19273928,0.17910495,-0.06148774,-0.1931169,0.14246514,-0.119454555,-0.020075247,-0.0007600114,0.17416312,-0.124553345,0.083784714,-0.09743747,0.062055618,0.08711463,0.16473746,-0.058936693,-0.10272497,0.115877,0.006596332,0.092192605,0.06208435,0.101482004,0.116233274,0.092425264,0.09452944,0.07627198,0.07372497,-0.12699386,0.12541056,-0.08847581,-0.1411477,-0.091399565,0.13057765,-0.09467869,-0.0125663765,0.14062327,-0.06585743,-0.11133842,-0.025327487,0.1565791,0.11316067,0.19919023,0.21033216,0.05019502,-0.12179321,-0.11176404,0.08806143,0.14094189,0.08144931,0.09125425,0.09697966,0.00020312518,0.012987573,0.11236912,0.01126033,0.19662735,-0.139144,-0.19936375,-0.037329666,0.090945065,0.18501614,0.048355006,-0.12384577,0.09851525,0.13976532,-0.09276005,-0.13476619,-0.06540271,0.17674932,-0.24257721,0.08728858,-0.02595786,-0.0043965336,0.20645973
﻿abricot,-0.143,-0.14716184,-0.22394386,-0.058068544,0.05734421,0.08152677,-0.05786125,-0.06847358,0.029039528,0.100085154,-0.12559381,0.09501845,0.1313377,-0.13517386,-0.06905746,0.19288753,0.06937905,-0.1144903,-0.14473283,-0.00548926,-0.09906007,0.09193696,-0.17896676,0.1072298,-0.14372553,-0.06313956,0.04670594,-0.023733377,-0.07879707,0.046567615,0.017024761,-0.15366392,0.069242716,-0.11548002,0.024492692,0.06831823,0.058903962,-0.1115417,-0.094114974,0.050569564,-0.055709172,0.03828881,0.15181597,-0.07946256,0.16788206,-0.034137525,-0.032518875,0.10768095,0.04046762,-0.08351959,-0.028018612,-0.11789169,-0.06858106,-0.14801234,0.024579398,-0.08536796,-0.14325975,0.08470139,-0.16671671,-0.07622409,-0.10951911,0.09291144,-0.13797458,0.086822346,0.17721185,0.17728111,-0.048936643,-0.032478742,-0.10353317,0.0705231,0.018558212,0.03045728,9.725802e-05,-0.11636181,0.16386966,0.13678497,-0.1691312,0.11762348,-0.12175596,-0.09462044,-0.032247685,0.09919016,0.13653581,0.15763159,0.018320238,0.09492924,0.055168442,0.0006624926,-0.12706548,-0.054756023,0.1246718,-0.118101284,0.06673686,-0.14293802,-0.06500609,0.09370574
thé,0.0034120902,0.006027665,-0.022190392,-0.029558314,0.086024,0.07272034,-0.070297614,-0.18211634,-0.014552363,0.16856615,-0.039597075,0.0023640823,-0.011605263,-0.0617632,-0.088997886,0.09961454,-0.026082043,-0.14817801,-0.097970426,0.05645752,0.015901856,0.025195118,-0.017075136,0.034012638,-0.089168146,-0.019777808,0.0038296897,-0.019849252,0.081030145,0.09618743,0.15905946,-0.061065722,0.021906078,-0.10797645,0.084957555,0.027989887,0.13394116,-0.028678251,-0.096064985,0.049215008,-0.05705203,0.06910488,0.051839948,-0.006371986,0.07211963,-0.023373123,0.034121275,0.025769042,0.025663402,-0.17445496,-0.04901212,-0.0838805,-0.00920229,-0.075524606,0.091077365,-0.104669824,-0.095547006,0.06386781,-0.018579317,-0.019189902,0.04041553,0.09048222,0.070766,0.085435964,-0.06794147,-0.050562534,0.029172681,-0.18194422,0.054736152,0.0934905,0.017776519,0.012809793,0.030257143,0.01177733,-0.01583498,-0.08376437,-0.008752558,-0.14115794,-0.08377388,0.08699127,-0.108982205,0.10396224,0.030171342,0.1569428,-0.06601252,0.057200704,-0.0034015402,0.042307142,0.22831129,-0.11579771,0.061116967,-0.020521944,0.0069760606,-0.1479868,-0.063392185,0.045574695
prune,-0.13053942,-0.020139638,-0.06656848,-0.09437537,0.10014187,0.021334449,-0.028073281,-0.19899842,0.11006579,0.20765857,-0.13433439,0.16105694,0.080898136,-0.28867078,-0.039280057,0.1304654,0.17274597,-0.039355297,-0.06441742,0.17467728,-0.18214291,0.05555814,-0.17419565,0.103859365,-0.10393067,-0.07070684,0.071020275,-0.1706436,-0.01900793,0.18633965,0.20627198,-0.05635335,0.100405514,-0.1740205,0.17832689,0.0369045,0.070209816,-0.14376268,-0.041180074,0.28447118,-0.095167086,0.19386135,0.07922862,-0.09252176,-0.038520537,-0.28255144,0.17319836,0.053192414,0.21654584,-0.048797477,-0.18257646,-0.090966776,-0.14320755,-0.07082312,0.106095545,-0.19103262,-0.20351306,0.071928635,0.12309599,-0.14966993,-0.019941404,0.0048032166,-0.1720565,-0.09165593,-0.28637528,0.0040004775,0.02026797,-0.22121498,0.17707542,0.14381868,0.033468723,0.10792909,0.039157912,0.23672435,0.15625298,-0.13833198,0.06269545,-0.23256388,-0.052307922,0.34610945,-0.14525656,0.14448266,0.03312339,0.1258364,-0.09284505,0.16629815,0.08249455,-0.032313798,0.1445856,-0.052388266,-0.061930627,0.17038289,0.15018654,-0.10925023,-0.17863564,0.054450713
ylang,-0.019194497,0.017952094,0.00124887,-0.0286072,0.039772477,0.10725782,-0.061975267,-0.03748825,0.07820497,0.1673411,-0.054279406,0.12830076,0.11193876,0.0041775056,0.13504207,0.08535427,0.12896025,-0.034799393,0.0638533,-0.036997568,0.10818389,0.10051219,-0.030836336,0.051253617,-0.016052062,-0.084258415,0.09588346,-0.015203342,0.0924472,0.09688951,0.026536882,-0.09155688,0.067112446,-0.116922334,0.14697173,-0.08573932,0.052952074,0.0969276,-0.0007864032,0.014941826,0.009402573,0.08523663,0.012357142,-0.110949926,-0.083521724,-0.060759503,-0.04567987,0.02299475,-0.013079122,-0.14073011,0.1429149,-0.008140728,-0.15614246,-0.058020197,-0.0022128057,-0.052956957,-0.04635008,0.1055142,0.0535977,-0.10364935,-0.061413936,-0.016739653,-0.038031537,0.096016765,-0.13072054,0.06825963,-0.07510595,-0.11679104,0.12179768,0.08386396,0.0391617,0.0042692795,0.11015953,0.069446765,-0.06525214,0.016805852,0.07210338,-0.08142361,0.08229534,0.097882584,-0.10660147,0.08785845,0.05070539,0.0725584,0.056283258,-0.05271387,-0.03196174,-0.06106883,0.08403255,0.014187861,0.03918667,0.07677202,0.121958435,-0.063600436,-0.059727874,0.031481523
fumée,-0.08643968,-0.056670144,0.1633086,-0.18437006,0.19453882,0.14132932,-0.16279766,-0.12609957,0.21855648,0.08945711,-0.2680002,-0.059722118,0.09632613,-0.07360488,-0.23431352,0.23231533,0.16103482,-0.14944637,-0.1866464,0.045259975,-0.1500805,0.048548866,0.051696848,0.0871122,-0.08879837,-0.11622521,0.057363607,-0.13993491,-0.06445931,0.030286934,0.1752997,-0.059431266,0.08854321,0.038524818,0.022129783,0.04299126,0.051196776,-0.190371,-0.052608497,0.18716761,-0.15227896,0.2589078,0.05778512,-0.16012567,0.028355515,0.08800261,0.17266852,0.16251753,0.13668858,-0.020248787,0.25963193,-0.08192687,-0.10709143,-0.120647416,0.19351044,-0.2698944,-0.052351087,0.1247906,0.021068938,-0.21107417,-0.13944833,0.10445893,0.046927232,-0.124721,-0.12674765,-0.28418735,-0.04446181,-0.08509992,0.17113,0.052326713,0.1696698,-0.0044099875,0.10247615,0.2035662,0.053010277,0.21673775,0.22245255,0.1819551,-0.3109639,-0.19587499,-0.11937925,0.13153711,0.05463127,0.043739304,-0.15281314,-0.0026944913,0.12503645,-0.025041565,-0.0013103634,-0.12333038,0.15028122,-0.13597424,0.1312957,-0.25477594,-0.047464453,0.15131842
fermentaire,-0.28697008,-0.06755733,-0.31832772,-0.07440078,0.24628517,0.13752274,-0.16898757,-0.11736615,0.18185526,0.063018814,-0.15371595,0.15008667,0.07820453,-0.25945267,-0.076369405,0.17286167,0.22942099,-0.16955128,-0.1612006,0.16539775,-0.21913475,0.2627581,-0.13326347,0.03880538,-0.25340933,-0.119926654,0.2427595,-0.029292138,-0.30443013,0.1946738,0.10065602,-0.17014761,0.019285511,-0.10948414,0.2269808,0.11900066,0.2818697,-0.08121823,0.01913973,0.377446,-0.1250974,0.22697365,0.19047356,-0.20174749,0.14102072,-0.3544832,0.06886138,0.16913426,0.22102365,-0.062368743,-0.26538906,-0.3302192,-0.17108743,-0.083898485,0.30152342,-0.0539786,-0.2609072,0.17893395,-0.14344364,-0.2581746,-0.0803985,0.0737287,-0.03891346,0.2456179,-0.38830274,-0.203553,-0.13700533,-0.07802662,0.20012449,0.13444701,0.15871969,0.11412983,0.1904348,0.35170877,0.2522605,0.0055924878,0.00019235164,-0.015409667,-0.116452396,0.3616141,-0.2203115,0.28802645,0.08283311,0.1952729,0.10066118,0.21350236,0.28939772,-0.21621452,-0.018936992,-0.26838118,-0.19467816,-0.07921636,0.19495758,-0.16005254,-0.01708084,0.18044595
poivre,-0.056821186,-0.077066034,-0.10360254,-0.17830086,0.15921226,0.052765172,-0.09105384,-0.15133698,0.08431539,-0.0055173635,-0.07799496,-0.029975435,-0.006787719,-0.07268254,-0.0495448,0.12113769,0.14310613,-0.14512394,-0.13817123,-0.014273953,-0.11801577,0.040480256,-0.11454139,0.077951714,-0.06559393,-0.065517664,0.08213061,0.035181828,0.05332884,0.15780032,0.11021371,-0.14039811,0.11541147,-0.10116162,0.09983534,0.0014336035,0.057400674,0.04312916,-0.08546587,0.07297519,-0.02695524,0.071459144,0.004101891,-0.08262863,0.009387441,-0.06697065,0.061009068,0.08780347,0.13324806,-0.002583094,0.039348066,0.050249975,-0.054550245,-0.060527306,0.089907974,-0.08309227,-0.09718156,0.13286392,0.05196539,-0.13837063,-0.056464314,0.08556932,0.14015163,0.101969615,-0.08545114,-0.008406229,-0.0022430336,-0.104129314,0.10320568,0.007396538,0.035304245,0.0058396645,0.045039948,0.0697724,0.06182365,-0.039113145,0.11559713,-0.15371972,0.012848785,-0.08370638,-0.006626375,0.0733414,0.085074306,0.06709677,-0.08909246,0.05899688,0.15279928,-0.019103069,0.1360498,-0.05474794,0.13435972,-0.09034073,0.06051518,-0.05190052,-0.1422497,0.098965675
géranium,-0.083623104,-0.10434471,-0.078667015,0.010320385,0.124474175,0.0035001282,-0.041231252,-0.15838218,0.161706,0.069729,-0.15089653,0.12779206,0.12977563,-0.11543993,-0.013445562,0.06777848,0.034364972,-0.102958485,-0.161396,0.002499044,-0.119379304,0.10486284,-0.020994725,0.104013965,-0.09891442,-0.041817922,0.08740717,-0.03317746,-0.07543778,0.07105634,0.09656256,0.037525397,0.1343199,-0.13181837,0.08936826,0.062141076,0.10685302,-0.16626158,-0.15708749,0.054906953,-0.18749353,0.1644691,-0.032546494,-0.066606596,0.02494435,-0.077093154,0.08821903,0.120765805,0.18425542,-0.103646904,0.1900483,-0.01089761,0.015145768,-0.152092,0.09945066,-0.07300977,-0.119974,0.117089555,-0.09791107,-0.022628792,-0.14177431,0.05056432,0.12558551,-0.089704275,-0.03600772,-0.08851619,-0.0006412994,0.057568636,0.041552827,0.0057249535,-0.005246382,0.12244788,0.126641,0.13758215,0.17368698,0.14244767,0.14769489,0.06217604,-0.039454598,-0.08217167,-0.13949841,0.014993573,0.061995383,0.05787158,-0.14971893,-0.033297922,0.10584194,0.025685765,0.024073076,0.0041814265,0.09810339,-0.25173897,0.15318897,0.00031827018,-0.15393582,0.10084514
pain,-0.17110176,-0.07953055,-0.07113244,-0.1304748,0.025545876,0.07033822,0.016530598,-0.18510474,-0.103953615,0.036711633,0.015107321,0.10666932,-0.01718827,-0.141049,-0.051028054,0.09532536,0.088501394,-0.10560034,-0.1478874,-0.13061422,-0.06708368,0.042109143,-0.086275876,-0.054444514,-0.12571912,0.0053005535,0.16467497,-0.057004895,-0.11818464,0.10659598,0.2063886,-0.06925304,0.12976606,-0.09934238,0.10143697,0.08575593,-0.036417328,-0.023739375,-0.13153102,-0.047184527,-0.11475047,0.14104673,0.12809551,-0.090556875,-0.064339675,-0.08602108,0.01981128,-0.045369767,0.02165946,-0.07987991,-0.015937215,-0.03956013,-0.13840508,0.030261181,0.11156902,0.090643644,-0.1273486,0.06572483,-0.25377604,-0.12895149,0.051489383,-0.14873289,-0.28850073,-0.08172499,-0.0275654,-0.2369517,-0.046891995,0.02191766,0.03843309,0.1698023,0.15686011,-0.007535184,0.06842781,0.045616966,0.05596003,0.16973652,-0.044062972,0.1855804,-0.07971881,0.041037355,-0.061251204,0.02219201,0.047280483,-0.014077349,-0.15808639,-0.0018533096,0.00033404306,-0.02401869,0.114196375,-0.053387336,0.097251356,-0.21780731,-0.0053265356,-0.046798486,-0.13307256,0.10819904
ester,-0.2548402,-0.17795098,-0.15143862,0.1357285,-0.09633338,-0.0613605,0.011835314,-0.29583907,0.17249304,-0.094294846,-0.2109625,0.23797578,0.173534,-0.20177776,-0.16754137,0.20098239,0.13053586,-0.12689644,-0.21390757,0.16931768,-0.047434922,0.1490314,-0.21747491,0.16697134,-0.119475335,-0.17122552,-0.17348385,-0.25724864,0.24706769,0.13114786,-0.04544912,-0.14316364,0.34019646,-0.23759854,0.09742011,0.16615506,0.27566022,-0.27148008,-0.15394723,0.070273004,-0.20723775,0.16841483,0.17973277,0.06832024,0.18618718,-0.11595239,-0.04625664,0.25182444,0.0024572164,-0.15243377,-0.019106865,-0.12790969,-0.15574151,-0.11058651,0.13181809,-0.31635445,-0.0984871,0.34812135,0.19423467,-0.12818043,0.007303819,-0.03844309,-0.14236441,-0.053843215,0.0113581065,0.15496108,-0.11200138,-0.13930014,0.24100117,0.2867608,0.034113333,0.25194323,-0.087875545,0.08214328,0.28873903,0.051338688,-0.21582225,0.026660033,-0.158878,0.18404476,-0.266797,0.165133,0.010983584,0.27886546,-0.2345835,0.082123734,0.25044346,-0.1616937,0.35999602,-0.14235811,0.008624172,-0.23954764,0.12588032,-0.07570325,-0.2177462,0.36428636
concombre,-0.2323946,-0.17967035,-0.24492681,-0.034317583,0.26025534,0.18981265,-0.18251768,-0.23963583,-0.096628435,0.17718814,-0.13202415,0.18241635,0.115608886,-0.10967402,-0.054258313,0.13966694,0.035305858,-0.16988015,-0.11070693,0.0017552376,-0.00650632,0.20603743,-0.23456568,0.042856235,-0.011490017,-0.15639691,0.34685707,-0.13078119,-0.19684923,0.08637634,0.04029634,-0.16216698,-0.022645088,-0.022871282,0.23852167,0.14233312,0.10001737,-0.17349564,-0.19324702,0.18091331,-0.22797924,0.2564846,0.06648345,-0.089821905,0.14294274,-0.25268072,0.09708933,0.1439381,0.06277625,-0.10332575,0.01902894,-0.07068332,-0.10187374,-0.15015522,0.077813484,-0.25259805,-0.26119742,0.117844835,-0.29285365,-0.12634894,-0.094083756,-0.0532393,-0.19178702,-0.047290638,-0.22238924,-0.29065892,-0.1665206,-0.07720962,0.14110512,-0.029181397,0.12524427,0.07382558,0.089801006,0.26638603,0.13589934,0.36264288,0.07236557,0.23647097,-0.22033209,0.11398756,-0.17376593,0.07479181,0.13359784,0.281592,-0.21718866,0.13026302,0.021808553,-0.0213362,-0.02741108,-0.10479565,0.09172216,-0.33244187,0.19320565,-0.21752742,-0.16564068,0.11080247
cuir,0.008401325,0.04503203,0.11391387,-0.15492529,0.090680875,0.17362103,-0.10986021,-0.1379115,0.12043254,0.067204386,-0.18515113,0.0025437027,0.048240464,-0.039016485,-0.13846588,0.14068231,0.12039311,-0.1178565,-0.06606674,0.0034619775,-0.1301417,0.08267128,0.076093346,0.11679503,-0.13688809,-0.12809728,0.0897809,-0.14488414,0.0048562186,0.048909817,0.28952503,-0.19006233,0.12950535,-0.00042695086,0.005537864,0.07085131,0.030497538,-0.14892235,0.019242518,0.2606819,-0.18999091,0.24012621,0.02105289,-0.11660368,0.021416072,0.20026463,0.14718655,0.13755462,0.22565424,-0.037290417,0.34420264,-0.07164762,-0.120295174,-0.13498233,0.1470482,-0.105265,-0.07594479,0.1717752,0.09994074,-0.13057837,-0.09706007,0.09121098,0.24343428,0.1844706,0.1392787,-0.175164,-0.009849008,-0.16835606,0.16143465,0.1342811,0.01364015,-0.0788441,0.19980614,0.045149945,0.036065627,-0.06479208,0.23452991,0.23492962,-0.09629921,-0.25863832,0.0018089125,0.074313946,0.10052559,-0.051678345,-0.031552576,-0.019647771,0.24024859,0.013752073,0.15263051,-0.14251326,0.22991684,-0.21015863,0.13276327,-0.13737497,-0.08040022,0.1715459
confiture,0.07106353,-0.15685433,-0.105284914,-0.13679439,0.1422522,0.110749446,-0.037757557,0.05772102,0.15187778,0.19354151,-0.10812204,0.027356353,0.2126055,-0.037406433,-0.065068215,0.081762716,0.13083768,-0.12405366,-0.06031456,0.19840737,-0.1291633,0.13505234,-0.08392759,0.10176827,-0.032466136,-0.10212338,0.056140803,-0.059176464,-0.008859647,0.10021616,0.041403957,-0.08615345,0.0433027,-0.15392177,0.008662561,0.04193391,0.104072504,-0.10484609,-0.068959296,0.12054665,0.05115491,0.018815346,0.0820343,-0.089331776,-0.04387736,0.12397,-0.003067907,0.13308446,0.021665504,-0.0811995,0.067984596,-0.10425915,-0.09884444,-0.12962003,0.06474291,-0.03796956,-0.051446225,0.103627056,0.100040644,-0.078576036,-0.051831473,0.053969037,0.015255991,0.07756919,0.18097161,0.1939559,-0.02165993,-0.13372615,0.13098246,0.026640072,0.013058182,0.11276972,0.09722789,-0.09010933,0.097137414,-0.028156698,0.07835588,0.04873142,-0.04596323,-0.13164426,-0.01902178,0.049437337,0.017941222,0.043184288,-0.1046296,0.16379961,0.15237257,-0.09674592,-0.08918608,-0.060687114,0.05283794,-0.027160192,-0.008555215,-0.040898107,-0.07766327,0.1069569
amande,0.043070734,0.0012745648,-0.06031219,-0.059898052,0.064210124,0.015447985,-0.0054719187,-0.11619171,0.058180995,0.029671472,-0.12869845,0.071785875,0.028069042,-0.022250304,0.0078394655,0.16176954,0.11972554,-0.0077440366,-0.016475845,0.13867377,-0.10048524,0.050164133,0.073310606,0.1355307,-0.077230625,-0.08017457,0.16259226,-0.08890085,-0.0737277,0.14075372,0.10517779,-0.08867121,0.056866527,-0.010059595,0.10856578,-0.0018638782,0.13954614,-0.067821965,-0.045314994,0.10198946,-0.09994686,0.08962253,0.08479875,-0.03620698,0.103340134,0.12415013,0.06291317,0.08709822,0.1249731,-0.04568181,0.17761536,-0.09679249,-0.114551984,-0.11778018,0.095791325,-0.11861314,-0.036200266,0.13058144,-0.10469418,-0.041249756,-0.070921585,0.09473853,0.08364758,0.037310936,0.13774723,-0.065490946,-0.071602985,-0.11828062,0.0741939,0.010555845,-0.05496558,0.08366424,0.048050776,-0.09928571,0.075302266,0.17291774,0.07139096,-0.05572293,-0.0868798,-0.060308248,0.004876191,-0.032466747,-0.1081883,0.11401065,-0.08840059,0.056303583,0.06670102,-0.012046005,-0.017460153,-0.083539076,0.0998442,0.01726456,0.028478667,-0.018138267,0.034812216,0.0526474
alliacé,-0.12509479,0.044315383,0.033178784,-0.1446383,0.073491246,-0.057875536,-0.047835402,-0.18513274,-0.03778787,0.0017497446,-0.024958644,0.10561621,0.056782603,-0.1256772,-0.16922991,0.098781414,0.05802196,-0.071437076,-0.05728597,-0.040737875,-0.0019336231,-0.033709846,-0.11777637,0.010893874,-0.057256248,-0.04359598,0.08852602,-0.073165625,-0.10010271,0.06918843,0.16315514,-0.06629037,0.083896406,-0.02675413,0.12115908,0.04603974,-0.023180436,-0.04653566,-0.023501184,0.0061165243,0.043695945,0.09952335,0.10893135,0.029151984,0.011916239,-0.10855128,-0.015658133,0.030027725,0.11289123,-0.15300225,-0.019665949,-0.064587004,-0.10888146,-0.06812234,-0.02788738,-0.12641428,-0.15009308,0.031156898,-0.021481333,-0.13777223,-0.09266466,0.004060261,-0.10432105,0.09033561,-0.0019331891,-0.009340625,-0.083464846,-0.091689944,0.11671552,0.022820495,0.048230562,-0.0060238126,0.055320714,0.060386382,0.09109196,0.029626604,0.18373413,-0.20518,-0.050577138,0.10878435,-0.09568818,0.064156614,0.049380798,-0.07861913,-0.14291802,0.05840536,0.090905115,-0.08563515,0.11757785,-0.07597275,0.046188682,-0.08951299,0.085677564,-0.06478856,-0.0057797357,0.052705787
cognac,-0.19315115,-0.13607441,-0.3930639,-0.0279309,-0.05198226,-0.1331449,-0.021584116,-0.0625909,0.03417871,0.008613393,-0.25793976,0.16768026,0.06652103,-0.15621063,-0.2142227,0.14619361,0.1435577,0.042937554,-0.15401241,0.29203373,0.005923517,0.049814817,-0.10837997,0.15381375,-0.13816917,-0.22572996,0.20074043,-0.2743588,0.020028412,0.10236411,-0.13822356,-0.17631267,0.26982778,-0.15126343,0.13023534,0.07714514,0.2561862,-0.30357283,-0.1378929,0.34023514,-0.2194635,0.38687807,0.21868977,0.01351616,0.22887209,-0.07751834,-0.08420077,0.14707744,0.22059046,-0.05909021,-0.11866101,-0.07923652,-0.0996804,-0.15151548,0.24071854,-0.16671982,-0.12708077,0.18651175,0.14463225,-0.03266994,0.0068529285,0.08221191,-0.18703651,0.09830697,-0.14625236,-0.23612835,-0.07093416,0.10405496,0.2816855,0.16409989,0.07608919,0.15209585,0.143427,0.029353015,0.24289596,0.04557634,-0.226159,-0.14216286,-0.120943606,0.23577157,-0.13623741,0.18983953,-0.109939024,0.24757174,-0.12523797,0.020151453,0.19597413,0.020001039,0.21060872,-0.21164052,-0.2057004,-0.21486744,0.09526266,0.13777143,-0.06526755,0.21901163
lavande,-0.031747945,-0.24281548,-0.020873806,-0.124757044,0.18634558,0.05077464,-0.11519178,-0.23827922,0.062161896,0.22272678,-0.21025378,0.05686444,0.07065305,-0.030367926,-0.14658122,0.16143215,0.058773056,-0.10784934,-0.020825863,-0.053477474,-0.120829225,0.116250694,-0.06028054,0.15456626,-0.19506586,-0.13447043,-0.0028179956,-0.10334948,0.25671956,0.10648391,0.10571046,-0.0834787,0.13776515,-0.11296807,0.1537184,0.16018717,0.08130638,-0.009684835,-0.16216679,0.08620702,0.010029241,0.12937026,0.018784067,-0.17098473,0.12145801,-0.15883964,0.04471776,0.051566243,-0.06963502,-0.11022004,-0.096443504,-0.089381225,-0.14812708,-0.068395,0.17092767,-0.19207904,-0.13144995,0.24076992,0.20876485,-0.09681667,0.008626562,0.21222496,0.08707224,0.14826663,-0.35453027,0.25364715,-0.08414391,-0.074111566,-0.026088998,0.098535165,0.035923537,0.082018,0.18129191,0.25778335,0.14300062,-0.25767612,0.057749614,-0.16759953,0.021257091,0.19623327,-0.06584987,0.019871967,0.10284248,0.17737564,-0.053622752,-0.018666636,0.24536107,-0.21842648,0.22400075,-0.066839494,-0.025566926,0.058519244,0.28537062,-0.06659174,-0.1085376,0.13638173
framboise,-0.12705316,-0.13811101,-0.3104806,-0.22398187,0.20360166,0.23163353,-0.31449392,-0.16721034,0.18708207,0.15495189,-0.10199854,0.10346632,0.15486762,-0.2207765,-0.1507163,0.102993265,0.26140893,-0.019937282,-0.07141866,0.22977766,-0.32367796,0.15609226,-0.17025417,0.2523996,-0.3564958,-0.1333397,0.20662794,-0.020325914,0.16456158,0.09282714,0.28115392,-0.25210786,0.13427572,-0.18594636,0.28066447,0.27960578,0.25576097,-0.1832258,-0.112313114,0.2342456,-0.13066547,0.14494254,0.19472344,-0.132243,0.2287258,-0.36841583,0.14441475,0.07737314,0.26392502,-0.26310346,-0.20477435,-0.35085502,-0.26691985,-0.23208801,0.13888536,-0.26205757,-0.219043,0.14963701,0.20692688,-0.15136151,-0.29455832,0.2692805,0.05484788,0.25703898,-0.21632935,0.17220765,-0.2858518,-0.11142537,0.17473847,0.28611964,0.15955104,0.19767135,0.14570858,0.15480986,0.32284588,-0.2656719,0.053407967,-0.15835339,-0.07307347,0.2426309,-0.18952325,0.15156552,0.23858997,0.11168507,-0.21080458,0.32157558,0.23752698,-0.2780434,0.06515198,-0.06790953,0.092737466,0.16285324,0.18757027,-0.021506742,-0.07915709,0.14536929
réglisse,-0.21136135,-0.107487604,0.1564433,-0.0020411387,0.157907,0.043915026,-0.064258665,-0.08788245,0.10290661,0.12277864,-0.12427722,-0.014707478,-0.097406924,-0.12406911,-0.16031861,0.12235538,-0.07418866,0.07331973,-0.17533886,-0.08873439,-0.075094275,-0.030763265,-0.00358598,0.17181537,-0.094874114,-0.07567528,0.19705166,-0.07388145,0.06953573,0.068928316,0.16599903,0.19423553,0.21047409,-0.04944243,0.20164889,0.15603562,-0.08994149,0.064853266,-0.14757988,0.13685632,-0.14315681,0.13037226,0.11566968,-0.0883231,0.07062973,0.1280594,0.11451707,0.12866104,-0.07311104,0.027224619,0.11140452,-0.009409066,-0.13075107,-0.020603845,0.03658086,0.0025204085,0.03472442,0.13622446,0.014193889,-0.07815462,0.093875915,-0.027809016,0.09653785,-0.0438488,0.15226339,0.05092572,0.016120994,0.01932823,0.1081011,0.13056776,0.11458872,0.008182366,0.13415901,0.06412746,-0.07616015,0.139125,0.121070646,0.20117076,-0.02927722,0.111059055,-0.103139296,0.002688907,0.16055232,0.034531116,-0.12978202,0.07001574,-0.0977046,0.08210504,-0.016573515,-0.13236879,0.03428294,-0.08651425,0.1213375,0.022391062,-0.10960545,-0.039120324
