RESERVED,0.05020254,-0.058375288,-0.0403703,-0.029502928,-0.031716418,0.027748283,-0.023224235,0.037936155,0.04061102,-0.0018190518,0.0037879124,-0.016356278,0.0028851293,0.003288187,0.010812972,-0.027955592,0.027087584,-0.015438737,0.08940658,0.03631333,-0.044183746,0.025525974,0.050902177,-0.06829915,0.037012808,-0.043093767,0.066900134,-0.033930372,0.092404015,-0.038683545,0.07366591,0.03991951,0.039673172,-0.052401293,0.0042759404,-0.037357368,0.024547435,-0.064943895,-0.064162396,0.0022885427,0.03572906,0.027041458,0.03074783,-0.049022403,-0.007867847,-0.083787665,0.019037034,-0.023726486,0.079154566,-0.025057018,0.024087641,0.010915052,-0.08148076,0.0366809,0.013374865,0.048817027,-0.043231606,-0.05702631,0.07779803,0.042101573,-0.038629726,3.9640814e-05,-0.007496562,0.058078207,-0.04073119,0.028722178,0.04697258,0.010498427,0.03709617,0.043450065,0.07966344,0.047140237,0.01964496,-0.0669661,-0.02934594,0.040726654,0.046677213,0.039165474,-0.029708955,-0.074351415,0.07122997,0.027237188,0.06387582,0.045665145,0.06613119,-0.04173579,0.022299316,0.0010595806,0.03946232,0.04515072,-0.00792316,-0.049542286,0.01996118,-0.04685563,0.045687888,0.0013997667
UNK,0.062255267,0.019594949,0.0057555214,-0.122839175,0.019659383,0.030820996,-0.104395896,0.02402237,0.09756867,-0.09626441,0.11149298,-0.08102924,0.07297943,-0.034697033,-0.08941714,0.021957926,-0.09724879,-0.09214519,-0.12244059,0.12809771,-0.09013501,0.08238719,-0.13607945,-0.05328614,0.0022405945,-0.14683512,0.00061614066,0.06809078,0.04353145,0.0027036779,-0.04972942,0.034000985,-0.07794443,-0.12186614,0.0087721385,0.094776064,0.06309143,0.13210167,0.051380545,-0.028343141,-0.056633957,-0.119605556,0.07554002,-0.030439246,0.09915911,-0.0377097,0.022550333,0.08115843,0.04455467,0.054059833,0.112625964,0.08328047,-0.042160224,0.07249465,0.04576647,-0.1315946,-0.07518791,-0.08294453,-0.09865381,0.15073653,-0.121729285,0.11127284,-0.021284796,-0.056133498,0.116644576,-0.041398305,0.02816343,0.01731338,0.053728417,0.020694822,-0.046408992,0.09842253,-0.024962673,-0.06357639,0.054280587,0.024611542,0.12672095,-0.09022558,-0.10714637,0.03901805,0.029715223,-0.10729853,-0.049955584,-0.03617295,0.06596211,0.051693805,-0.10372272,0.09180111,0.10031988,-0.07268335,-0.085122086,0.038479764,-0.0021185686,0.08022629,0.08815909,0.08500276
fruits,-0.024144888,0.08817861,0.0287921,-0.049538694,0.13412836,0.113867894,-0.0035316553,0.03449688,0.13122739,-0.113917336,0.035542548,-0.13317183,0.040896468,0.037198536,-0.044795513,0.005768748,-0.13510531,-0.10679245,-0.069016136,0.09256237,-0.09061197,0.068820015,-0.099944904,-0.12673469,0.05061337,-0.11249423,-0.043112494,0.08813096,0.15476617,-0.03068481,-0.012849309,0.13645014,-0.03701409,-0.09868732,0.099493615,0.08930582,0.13248664,0.18431658,-0.060884975,0.06533308,0.029393375,-0.09589256,0.12701471,-0.14468929,0.12503214,0.10474289,0.011375375,0.10999193,0.14560843,0.12010153,0.158197,0.15181562,-0.07368112,0.07551627,0.12833063,-0.06814778,-0.04366704,-0.04957056,-0.117891,0.0743341,-0.13025069,0.12166488,-0.011471193,-0.097180195,0.10255943,-0.13655531,-0.024127021,-0.034933567,-0.0027913004,0.11386156,-0.023067238,0.044585895,0.035768703,0.05247295,0.033716626,0.05684514,0.09124003,-0.116371885,-0.06865445,-0.012941577,0.097012974,-0.11955127,0.018511806,-0.013849925,0.022318117,-0.027623994,-0.037201505,0.017276527,0.09206256,-0.060610384,-0.0625705,-0.011155002,-0.0083375275,0.065052465,0.032040264,0.008142576
vegetal,0.11235611,-0.027689762,-0.0652103,-0.046087284,0.011267396,-2.2253022e-05,-0.004508538,0.007576501,0.063295566,0.015786825,-0.02962102,-0.08987455,0.012479944,-0.023366272,-0.0024669915,0.09538643,-0.08756685,-0.031079696,-0.07608098,-0.015775554,-0.07693012,0.049370233,-0.0304096,-0.012650248,0.046571914,-0.11619682,0.10432001,0.03894616,0.0094262995,-0.045780867,-0.0016958062,0.029552514,-0.020509802,-0.05142049,0.0007046871,-0.0234043,0.016519926,0.09746261,-0.04754603,-0.09883763,-0.046290852,0.040665884,0.015410645,0.059281755,0.039392598,-0.004213758,-0.06253482,0.05976091,0.09551853,0.040464707,0.043264315,-0.0073625892,-0.038336203,-0.008339876,-0.02289578,-0.12365468,-0.009238437,-0.054710656,-0.018681638,0.0089849215,-0.11992231,0.040572166,0.106957674,-0.06475982,-0.0004771622,0.00030517625,-0.057577692,1.064525e-05,0.004617531,0.015229443,-0.013559044,0.036351293,-0.028266657,-0.10180994,0.09771894,0.04412195,0.079565294,-0.0751921,0.05360695,0.1040189,0.06107656,-0.08590926,0.014559217,-0.009239376,0.08352996,-0.006678635,-0.059155934,0.0856192,0.0515794,-0.039194405,0.027467476,-0.020198878,-0.013632121,0.037538573,0.015435975,0.07724057
fermentaire,0.0077336645,-0.03336029,0.048683517,-0.027634999,0.09140591,0.06363453,0.044163242,-0.065919615,0.122306645,-0.111414805,0.017227925,-0.09256752,0.06293641,0.03627761,-0.10393013,0.007462006,-0.02215276,-0.050362974,-0.018789586,0.10017797,-0.033951137,0.0043244194,-0.036522277,-0.14178856,0.1164411,-0.079298,-0.08452898,0.0034479164,0.04161918,0.0063479356,0.031033613,0.022574652,-0.039211057,-0.044588514,0.08456244,0.073160715,0.06611194,0.1289029,0.006152315,0.07277575,-0.050651923,-0.08732062,0.14146441,-0.05582595,0.08367411,-0.023791505,0.0463835,0.14212525,0.03665672,0.06951457,0.02211084,0.015696803,-0.007776309,0.049259245,0.013106406,-0.12823138,-0.021350963,0.0070772944,0.020322494,0.087575346,0.03539964,0.042848628,0.07325801,-0.05635953,0.042853337,-0.047129374,-0.038600195,-0.03166467,-0.0451634,0.008943368,0.03693338,0.03405624,-0.015361728,0.018999506,-0.014198367,0.066287614,0.01071421,-0.019190947,0.02170084,-0.0114143435,0.019466178,-0.10678156,-0.002087418,0.06237013,0.019114532,0.033947684,-0.012667958,-0.0080092335,0.009721135,0.023816511,-0.095119566,-0.12221268,-0.033765394,0.06870922,0.012737012,-0.017477
cuir,0.073038444,0.049560055,0.046596795,-0.016238887,0.04413187,0.1261798,-0.015857665,-0.079708256,0.05112936,-0.091437265,-0.058460105,-0.050589096,-0.03373499,0.108995005,-0.09955626,-0.034311626,0.002985647,-0.14349973,-0.08572757,0.079298146,-0.028862352,0.046002883,-0.037347898,-0.08628139,0.012841363,-0.07763472,-0.07487171,0.087437585,0.0738496,-0.060740843,0.119341165,0.0333083,0.012143486,-0.0037796157,0.033818536,0.09402555,0.058826398,0.12855689,-0.0328017,0.064727716,0.036902018,-0.13425104,0.08083524,-0.019788004,0.039915122,0.08301511,-0.006948335,0.10892378,0.103030175,0.030586885,0.025392609,0.06197869,-0.0803386,0.03307562,0.052373603,-0.03720353,-0.0883961,-0.0046489723,-0.07511005,0.07877092,-0.047270562,0.05129785,0.08375595,-0.096768044,0.088208795,-0.07132547,-0.10516477,-0.049424835,0.07445582,0.11264189,-0.015739975,0.048548255,0.0393036,0.030103136,0.011648111,-0.0034735901,0.06204839,-0.06387943,-0.055551678,0.04069246,0.027558807,-0.13175502,0.052534908,0.043015905,0.046429373,-0.031859115,0.040216364,0.011676468,0.12909587,-0.031182477,-0.051575884,-0.0043847878,-0.0709235,0.025743652,0.06507413,0.12508571
thiol,0.063417375,-0.00013298541,0.032877315,-0.0038126353,0.061755493,0.018072676,0.05788193,0.023393158,0.09471212,-0.0028315783,0.016546328,-0.025609585,0.08895892,0.030225495,-0.01321527,-0.039495524,-0.1084107,-0.033736207,-0.06354945,0.0069805905,-0.012950795,-0.014798364,-0.044194072,0.030008307,0.05158123,-0.0901851,-0.04511641,-0.018013522,0.1080735,-0.01331444,-0.02482125,-0.008333171,-0.06643037,0.016569024,-0.027982095,0.010660529,-0.03127602,0.013552887,0.017493298,-0.013547681,0.018685583,0.0031631002,0.0036144848,0.033309128,0.079557724,-0.024497671,-0.11223404,0.0827081,0.06840363,0.05499544,-0.0041499482,0.10421452,0.0054599885,0.09027122,0.05334297,0.016791057,0.013023976,0.042889245,-0.030136237,0.090185806,-0.026856467,0.107704476,-0.030273672,-0.0890805,0.10490944,0.015488066,-0.04935991,-0.042242866,-0.05429828,0.04374524,-0.04009065,-0.012848703,0.040085383,-0.04105168,0.048993364,0.02405572,0.06798684,0.022434818,0.011384329,-0.04190022,0.050720517,-0.06539322,0.07156196,-0.051756434,-0.034031756,-0.090879545,-0.02252322,-0.0039482303,0.06154099,0.0031426144,0.009194616,0.004404273,0.05603973,0.019599764,0.038937017,0.07424986
anise,0.00058056484,0.081149325,0.04448927,-0.02811099,0.009777763,0.031451836,0.021511,-0.06872987,0.048010375,0.0007574409,-0.059844002,-0.08806492,0.010060757,0.022582147,-0.05852345,0.051621,-0.01297246,0.05260794,-0.004013393,0.035260968,0.06467047,0.020166006,-0.008372775,-0.043585524,0.055602722,-0.06240074,-0.05161062,0.013182895,-0.04908218,-0.09221575,0.1059002,0.030339189,0.08362448,-0.004520554,0.044699296,0.03992032,0.038092446,0.043062836,0.06824146,0.09785217,-0.034387093,-0.064131394,-0.009102169,0.0036437903,0.013762698,0.04096529,-0.05404715,-0.0014591496,0.06019913,-0.04330085,0.032834753,0.06650398,-0.084996134,0.033230413,-0.03273948,-0.034294587,-0.11236423,0.013200225,-0.09647079,-0.000473178,-0.012914067,0.091520175,0.08555554,-0.011233402,0.045106553,-0.102167785,-0.100002535,0.061189443,0.003899198,0.019179003,-0.068619825,0.032705653,-0.006195156,-0.05788539,-0.040885158,0.05784954,0.023608936,0.009375703,-0.06697893,-0.006222006,-0.025446542,0.022194304,0.023633154,0.079739735,0.07124497,-0.041177057,-0.061589263,0.08359555,0.08636857,-0.06720099,-0.060036253,-0.034631,-0.046975054,-0.0015434183,0.11268087,0.10066622
vanille,0.04195512,-0.003041545,0.030315984,0.021031318,-0.0078207515,0.09439758,-0.024753066,0.048078984,-0.0070248935,0.049356177,-0.055543687,-0.050438404,0.009374108,-0.017899118,0.039482173,0.03848794,0.04948809,0.033562012,-0.093220316,0.11676957,-0.016101085,0.1049324,-0.009740263,0.030495256,0.070428886,-0.016992718,-0.080417976,0.022865321,0.0516029,0.010671696,-0.03538595,0.043560978,-0.05892714,0.022804303,0.11225435,0.042997044,-0.036822025,-0.06435754,0.042874914,0.036271207,0.012909837,-0.04026972,0.016164578,-0.0076923505,0.079913065,0.11008828,-0.027017007,0.14405328,-0.026387624,0.054358065,-0.012479438,0.06561333,-0.0049412437,0.09047475,0.03966692,-0.06296581,-0.022915017,0.027717877,-0.07770279,-0.03348505,0.005118569,0.020578887,-0.04289196,-0.11073986,0.038952716,0.016748725,0.060719684,-0.044291954,0.01655234,0.046684656,-0.01806876,0.059052058,-0.04923862,0.018904662,0.031434707,0.0482841,-0.007102338,0.0020395666,-0.017376635,-0.042941887,-0.019446526,-0.09934877,0.06771609,-0.016026318,0.053455546,0.014924571,-0.07994108,0.00059302896,0.059314966,-0.06471401,-0.056413993,0.080093354,0.00054529635,0.03670118,-0.010386042,0.09344828
doux,-0.05180383,0.098068535,0.024091437,0.029694047,0.07567834,0.014526927,-0.08113602,-0.016477056,0.009367419,-0.0382668,-0.015240506,-0.110583656,0.06520839,0.02408172,-0.04793384,0.06753788,0.04607632,-0.041394003,-0.0017908011,0.027950156,-0.086139075,0.084281266,0.021855967,-0.035779838,-0.011837171,-0.089041576,0.03441693,-0.02025729,0.0004694052,-0.009101616,0.009075051,0.009069674,-0.066315606,-0.0046047843,0.086572036,0.047865115,0.03286636,0.04229157,0.004248578,0.09847939,-0.05852735,-0.08494352,0.0623288,-0.01068663,0.049617458,-0.009281345,-0.081499115,0.08697807,0.017828973,0.021102669,0.051794183,0.078971766,0.016344436,0.11649138,-0.018645322,-0.071123764,-0.07752529,-0.052769143,-0.035201557,0.10478771,-0.02619975,0.037044954,0.06747555,-0.05370167,0.020532168,-0.08866627,0.008149903,0.038472388,-0.037453886,-0.010337442,0.0039443895,0.11271095,0.02885823,-0.018258989,0.01126631,0.061107304,-0.06668687,-0.03990657,0.04071712,-0.010118999,0.0042451974,-0.055857036,0.04610221,0.0015825606,0.035762295,0.044032797,0.007908724,0.0018665846,0.1289692,-0.018463459,-0.030661255,-0.06742949,-0.041654326,0.06749877,-0.011234766,0.04489194
mineral,0.02572802,0.05653785,0.05407223,-0.07909934,-0.045613512,0.0021695858,-0.014704468,0.020624015,-0.054210037,0.04014674,-0.04543789,-0.07881929,0.006427411,-0.014548456,-0.032745633,-0.06683392,-0.061003115,0.003392063,-0.034656182,0.014631398,0.018933218,-0.056017324,-0.032291014,-0.03863577,0.029147524,-0.10487668,-0.058360673,-0.031309593,0.07842522,-0.014362771,0.006614154,-0.037436917,-0.036843825,-0.03639532,0.026532829,0.049658194,0.07014382,0.023196876,0.006190896,0.04724068,-0.04984985,0.001687373,0.06087255,-0.038948804,0.034403518,0.020795932,0.056994528,0.056980472,0.000119861215,-0.0136327855,0.054213233,0.10029122,-0.0015293974,-0.0026990585,0.013894986,-0.10256812,-0.028745253,-0.007643666,-0.05001045,0.106929004,0.0073709153,0.054634072,-0.0033294335,-0.006645931,0.04681623,-0.08377154,-0.0031827022,-0.014825266,-0.06159874,-0.023236891,-0.017807502,0.029966824,0.06602946,0.02112123,-0.0023607253,0.040128164,0.0019332478,-0.074106336,-0.0046359356,0.026998471,0.026114373,-0.07738012,-0.024351273,0.062248945,0.026435886,0.08042832,0.024956675,-0.044484526,0.06972725,-0.024531152,0.040381692,-0.053594336,-0.01371677,-0.023801506,0.0009413734,-0.0008351393
epice,0.023672648,0.059155136,-0.047968604,-0.06015678,0.0044150446,0.003812465,-0.09083398,-0.08466912,-0.006182,-0.09215951,0.09216435,-0.017114107,0.01074718,-0.00483308,-0.062103696,0.016496789,-0.0671457,-0.13139705,-0.08562288,0.08968775,-0.041986253,0.061296515,-0.09773814,-0.047844775,0.013094254,-0.050606295,0.003119709,0.05419921,-0.020015083,-0.07221027,-0.027024677,-0.026875097,-0.08614724,-0.00797313,-0.019368934,0.038631734,0.021289423,0.07748332,0.07872491,0.02773321,-0.028199272,-0.091159284,0.120679244,-0.022540914,-0.009430546,-0.0285839,-0.06611845,0.054559454,0.11804743,0.04696886,0.051222943,0.059936907,-0.0055648945,0.012963865,0.019697547,-0.008346255,0.0055768127,-0.09854959,-0.08611317,0.12856834,-0.04564195,-0.041626487,-0.05008276,-0.09689583,-0.017597668,-0.0641143,-0.054836363,-0.07294722,0.020132314,0.083826184,0.045077097,0.061426684,0.03361357,0.02988632,0.0970197,0.02197748,0.028200995,0.011769723,-0.09452246,-0.0047929413,-0.016527992,-0.025283318,0.026521027,0.07536824,0.044617258,-0.059454825,0.018430073,0.054961603,0.063419335,-0.03450378,-0.08811638,0.006041594,-0.058398426,0.058555692,0.09168488,0.041727018
beurre,-0.009009359,-0.04528769,0.037302792,-0.05321824,-0.00071806647,-0.025388924,-0.03233598,-0.0038952976,0.008272503,0.017988428,0.036803015,-0.0020037405,-0.038418982,-0.029278573,-0.04409262,-0.011030905,-0.0253524,-0.09324675,-0.033055853,-0.07226962,-0.073638126,-0.041270625,0.019838367,-0.031550597,0.0092691,0.036731318,-0.019264892,0.094345525,0.028073663,0.015334494,-0.031593256,0.024612734,-0.10237737,-0.058370136,-0.0014544856,0.07112037,0.01561491,0.0563815,0.013097947,0.01607547,0.054978266,0.0077316724,0.009503741,-0.09585218,0.036858715,-0.004389096,-0.034551185,0.078250244,0.018157745,0.048018377,0.003372034,-0.0071311453,-0.06179557,0.02251823,-0.032748453,-0.06533868,0.020175219,0.04840289,-0.10480212,0.10566886,-0.040106438,0.03745306,-0.05148115,-0.008773241,0.027844671,-0.031500302,-0.030490264,-0.0048235506,0.09498747,-0.0022070557,0.012476319,0.024307245,0.060972977,0.01926392,-0.024539962,-0.013035607,-0.0060213823,0.011434026,0.029468767,0.051348228,0.041079946,-0.07698542,-0.01645875,0.005846344,0.058150876,-0.033301122,0.051880762,-0.01783745,0.045549653,-0.06856882,-0.093989074,-0.024520716,-0.06435174,0.068513796,-0.032240804,0.07814823
alcool,0.06510132,0.040083267,-0.013268609,-0.06925536,-0.037994325,-0.04026424,0.0065890476,-0.022950485,0.061506946,-0.0042084083,-0.07311137,-7.29952e-05,0.05765508,0.07295105,-0.07980052,-0.014193211,0.011628423,-0.07921178,-0.034680035,0.033238344,-0.06744436,0.033033837,-0.058827624,-0.06120249,-0.025597138,-0.04886624,-0.060105048,-0.02072197,-0.04220519,-0.028123846,0.06285714,0.07467262,-0.06983179,0.021690981,0.0094769895,-0.02339512,0.025420403,0.08782955,0.07231103,-0.027491357,-0.030665029,-0.07470386,-0.036003202,0.09723534,-0.011901094,0.06532202,-0.027882282,-0.06129084,0.018330554,0.019785404,-0.04759465,0.05455298,-0.045379817,-0.050146133,0.027453043,-0.077460274,-0.02548247,0.075043365,-0.071829155,-0.0043120235,-0.069092005,0.011912666,0.067074955,0.067112334,0.103121854,0.008999133,-0.032608207,-0.007318057,-0.0015153652,-0.03206671,0.0049611293,-0.04217296,0.0035907142,0.005022129,0.022155173,-0.016229114,-0.04192756,-0.029767063,-0.08462241,-0.044454888,-0.048484884,-0.055769272,0.0017720433,0.10034922,0.019642763,0.021277066,0.043284386,-0.04235389,0.058651444,-0.048962064,-0.0052889977,-0.015025822,0.019418668,-0.007110662,-0.047494277,0.009546999
inconnu,0.07886581,-0.03231795,0.021125497,0.04003275,2.0633452e-06,0.06393269,0.02143265,-0.08042112,0.021868475,-0.011715524,0.06992789,0.006805539,0.0030341316,0.0013164468,0.021584738,0.0866611,-0.048594583,-0.0648243,-0.08969794,0.04315437,-0.040968876,-0.011725322,0.02716593,-0.11685936,0.04876757,-0.061954837,-0.032526642,0.12132314,0.10574295,0.0053634644,0.0054240525,0.07680301,-0.017669916,-0.029102836,-0.041702077,0.04997024,0.09892509,0.13366687,0.023364814,-0.07932228,-0.083109364,-0.09944026,0.03161285,-0.027779354,0.04241281,-0.027176829,0.031575527,0.07711695,0.03770818,0.0059850886,0.08861027,-0.018730484,-0.056939326,0.030387186,0.06498265,-0.02070618,-0.036856987,-0.052592646,-0.09437133,-0.015785785,-0.13442594,0.0002631991,0.056441132,-0.051815502,0.038316492,-0.089306965,-0.03662905,-0.038906723,-0.045292884,0.03981123,-0.085925244,0.048093565,0.048421837,-0.054127514,-0.031013384,0.09828511,0.038571723,-0.113200344,-0.028743193,-0.022479692,0.054906677,-0.063852556,-0.024992555,0.0043958705,0.07915522,-0.004545929,-0.07174622,-0.035287276,0.01662409,-0.088079214,0.049508452,-0.042694643,-0.044209752,0.046257153,-0.016139708,-0.02149697
à,-0.10035956,0.11164819,-0.014679242,-0.019003607,0.06580584,0.07492145,-0.07559854,-0.010780746,0.086449,0.0057098167,-0.047234677,-0.03974793,0.056671083,0.055035494,0.0034268834,-0.07703914,-0.011854559,-0.02498733,0.06631991,0.007902734,-0.050422654,-0.0051291324,-0.0033291238,-0.11779824,0.034378145,0.00927626,-0.024540883,0.07432972,0.031494185,-0.08975154,0.09044754,0.04754675,0.069108315,-0.040701535,0.03408321,0.028192334,0.02951796,0.08245073,-0.105032176,-0.0015428141,0.020165773,-0.062391587,-0.0057387827,-0.03076589,0.062695995,0.08018168,0.0029395372,0.008533417,0.07395197,0.052101992,0.08287125,-0.016217755,-0.06711684,0.060670037,0.059189554,-0.036597703,-0.013207,-0.014809944,-0.08827176,0.108440205,0.013545407,0.09285514,-0.0005484,0.009899819,-0.032449648,-0.13773127,-0.083226666,-0.001084792,0.013886597,0.07764175,-0.009556542,0.099963166,-0.06401223,0.07241289,0.018813679,0.10200764,0.05907727,0.0062885415,-0.053763952,-0.012812017,0.06454372,0.0058193407,0.054833576,0.0956409,0.013023064,-0.10175649,0.043657705,-0.0009376332,0.0800604,-0.0038797027,-0.036587033,0.039995972,0.0070592207,-0.014366096,0.048940282,0.02233149
secs,-0.025997598,0.022785641,0.094304405,-0.049176443,-0.017751304,0.10293388,-0.08917269,-0.012541018,0.051363327,-0.08654937,-0.0129329,-0.13385588,0.10779936,0.014121549,-0.048990987,-0.04168694,-0.0558973,0.01565589,-0.025234591,0.044852532,0.0054278853,0.040997773,-0.024705049,-0.017800875,0.026466819,-0.0764207,-0.0053136935,0.050008744,0.08759473,0.050501868,-0.004351288,0.10937843,-0.0029274654,-0.04497428,0.06383982,0.15462418,0.1488714,0.022018857,-0.10202489,0.098322496,-0.110628,-0.09207855,0.054400705,-0.06735079,0.08356856,0.081209466,0.04063798,0.095712304,0.11166962,0.058719605,0.10010357,0.11515123,-0.040381096,0.075610116,0.04011084,-0.07458513,-0.05822021,-0.0155688375,-0.056196578,0.031194834,-0.04018099,0.03695538,0.071933076,-0.051125575,0.061559543,-0.055321496,0.0239935,-0.049227342,-0.022099208,0.039345205,-0.016362814,-0.023822274,-0.058515765,0.00483167,-0.03331648,0.047669537,0.07615603,-0.033159155,-0.04401357,-0.07807915,0.028102675,-0.027238695,-0.04494372,-0.063750684,0.06763473,0.03962327,-0.102001354,-0.03165392,0.08462657,-0.038283322,-0.009539414,0.005785413,-0.033726376,0.08372654,-0.005577022,-0.07173837
de,0.04134752,0.041666735,-0.023189992,0.066012986,0.052542806,0.04015319,0.074551925,-0.03443384,0.014939247,0.017636942,0.07729866,0.036183357,0.048703805,0.068533584,-0.07037005,-0.045760587,-0.13030212,-0.0046535246,-0.068122216,-0.073989615,0.017460335,0.14296827,0.07583089,0.029245485,-0.007676635,-0.039782487,-0.04461916,0.053033754,-0.04018979,0.0041346177,-0.13602757,0.075118914,-0.012057763,-0.025065567,-0.007218778,0.012951702,0.023436384,0.008433273,-0.09982188,-0.04128781,0.08778308,-0.018800858,0.13219287,0.049145695,0.049313597,0.018956535,-0.08583911,-0.026370032,0.032925144,0.021087421,0.06019822,-0.07376217,-0.07767372,-0.089630455,-0.011742592,-0.07712845,-0.074090496,-0.022473173,-0.114414856,0.11612815,-0.0506272,-0.016775109,-0.02068048,-0.089837775,-0.024821427,-0.023286752,-0.062956706,0.13264416,0.06049904,0.043717004,0.012985179,-0.023678413,-0.05423934,0.040487867,0.033044167,0.05200585,0.10081707,0.028507408,-0.00900504,-0.11888556,0.10009587,-0.055285305,-0.06848323,0.022221565,-0.05122123,-0.014844239,-0.050492343,-0.039999165,0.062918186,0.045374077,-0.010019634,-0.013772305,-0.115515396,0.061639257,-0.036987387,0.08314858
champignon,-0.017928965,-0.024254963,0.03640117,-0.022201829,0.063155405,-0.035457004,0.07011089,-0.073631816,0.01626423,-0.06046526,-0.027286315,-0.048087053,0.04859525,0.04873724,-0.03360939,0.013251135,0.085284635,-0.011401237,-0.06216164,0.041899607,0.031659193,0.098421186,0.0020834543,-0.09707849,0.03488177,-0.089255586,-0.031142522,0.07708899,-0.07110115,0.022577386,0.030478526,0.019006774,0.008846685,-0.036969215,0.0619094,0.08816481,0.06547864,0.03891206,0.08619709,-0.041744128,0.030776681,-0.052258126,-0.0070980582,-0.0030135289,0.028550152,-0.07243677,0.026931236,-9.7848475e-05,0.057112064,0.05874471,0.06417386,0.04643164,0.030806528,0.08912925,0.05491977,-0.028411241,0.056388624,-0.00088276714,-0.0104925735,-0.01663958,-0.06253801,0.012074403,0.002403154,0.0019979738,0.041152697,-0.12410821,-0.09974305,-0.04346728,-0.11393387,-0.045374386,-0.010372961,0.037389178,0.043514904,0.04867696,0.0105703715,0.0042866543,-0.06572823,0.044005994,-0.0007717572,0.010161452,-0.029689958,-0.021525944,0.112600096,0.08574307,-0.058945753,-0.004904989,-0.06754203,0.037566897,0.058354706,0.01991316,-0.030889232,0.010968011,0.035502926,0.00075887516,0.06504029,-0.038219288
sec,0.0023433394,0.023341943,0.010322676,-0.00391759,-0.0060408115,-0.011982083,0.039798357,0.020729337,0.003387941,-0.04625789,0.0044783615,0.03760568,0.063621946,0.011986017,-0.036647703,0.017604126,-0.024531428,-0.010106156,0.0022910666,-0.07496241,-0.037784196,-0.057516217,0.0072882343,0.020441214,0.016082397,0.07886043,-0.022174183,0.057437643,0.026063759,-0.059445985,-0.0897198,0.024156678,-0.002856031,0.048185315,0.07286553,-0.008067364,-0.07442194,0.046798687,-0.077154346,0.0012339707,-0.037469357,-0.032657664,-0.040660966,-0.06160695,-0.0122550875,0.014362602,0.033471957,-0.038998295,-0.05721297,0.0074833296,-0.051520873,0.050963067,-0.07583667,0.01382931,-0.01825988,0.07336643,-0.046454556,0.077126116,0.0011697845,0.04669033,-0.04757839,-0.00092392415,0.038123064,0.010541797,-0.060968183,-0.06711672,-0.065730706,0.0046650115,0.06857129,-0.025478255,-0.03905612,-0.01319239,0.053747244,-0.07582939,-0.062474955,-0.038976133,-0.006184212,-0.026983729,0.0070525073,0.050931644,-0.06791878,0.005304656,-0.009185694,-0.060331225,0.06422802,0.011806329,-0.019377809,0.048182577,0.016957587,0.0067170076,0.06942804,0.0072246836,0.05198499,-0.08848528,0.006497171,0.09239696
floral,0.027552903,-0.025082387,0.08957628,-0.06819847,-0.018250918,0.03649139,-0.014283253,-0.02143082,0.04111378,-0.04143891,-0.07003529,-0.01843867,0.08124189,-0.008184161,-0.052223347,-0.018348236,-0.06900335,0.010124892,-0.020601317,0.07344959,-0.067970864,-0.00055307127,0.031227298,-0.012060126,-0.07165679,-0.077985734,-0.049591087,0.013713513,-0.035171073,-0.041874725,0.056660354,0.067680135,0.023250852,-0.02516195,0.03164134,0.07766232,0.01359055,0.100630715,0.045622,0.07704452,-0.05661186,-0.022954637,-0.06686661,0.040872723,-0.012180006,-0.01671895,0.0009870417,0.045097243,0.036168233,0.073092975,0.062051427,0.07039629,-0.02591612,0.009772715,0.018963654,-0.1099602,0.06894686,-0.07580005,-0.03281916,0.083915785,0.041023236,0.0034713112,0.045481116,0.028901247,0.07699471,-0.06895482,-0.060372714,0.009273279,-0.04769706,0.011308879,-0.09510285,-0.014494934,0.010065519,-0.027317677,-0.015138261,0.032427434,0.106913544,-0.023576591,-0.0859154,-0.0021819472,-0.008720855,-0.07106818,0.058324598,0.06922825,0.095817275,-0.058272958,-0.04581458,0.042600922,0.05332416,-0.09553845,-0.009022233,-0.052837387,-0.054425776,-0.0569311,-0.0011142795,0.08642951
géranium,-0.023894727,0.062472574,-0.029157167,-0.078631595,0.019322447,0.081047006,0.07227153,-0.08391276,0.042996712,-0.10979509,0.044255763,-0.08621249,-0.026988054,0.03617393,-0.039354183,0.02136484,-0.102123305,-0.009651285,0.048966605,0.08668521,-0.037591323,0.030730482,-0.0797752,-0.03681486,0.061805103,-0.049684636,0.048772477,-0.030771501,0.101400025,-0.0066719977,0.017327257,-0.056766685,-0.1073043,0.020536719,0.06701515,-0.015666269,0.05755657,0.098394245,-0.071609244,-0.020345028,-0.021792645,-0.014690628,0.025741141,-0.04148242,0.0067423694,0.03712063,-0.054186154,0.030657187,0.055992633,0.031503882,0.022727555,0.016937824,-0.008524226,0.049784735,0.005381638,-0.06836505,-0.038262855,-0.054853283,0.010739787,0.06690923,0.039134715,-0.0005041901,-0.056430537,-0.050856605,0.06263003,0.002041448,-0.07539987,-0.021960335,-0.04372763,0.07748972,-0.0060033426,-0.0015283544,0.020962972,0.04262299,-0.0034442889,0.073898695,0.03337118,-0.061559904,-0.054415382,0.04458144,-0.021367868,-0.046361335,-0.06515429,0.07657332,-0.0549043,0.017185412,-0.041512307,0.017142426,0.013142996,-0.013235711,0.007177053,-0.06387435,0.009109318,0.050893802,0.014444623,0.113854125
empyreumatique,0.008032812,0.05663813,-0.028708454,-0.021399137,0.050477453,-0.035345744,-0.057432797,0.005747607,0.011718012,-0.035223607,-0.003756648,-0.049570225,-0.0021399246,0.033171445,0.0072817085,-0.10632144,-0.0843052,-0.034546744,-0.067500785,-0.025653038,-0.044039726,0.02324652,0.01112417,0.010514661,0.02579316,-0.018989852,-0.0283078,0.016786136,0.016592039,-0.09979704,-0.031038435,0.03778815,-0.10347949,0.010653775,0.019646883,0.022195902,-7.871911e-05,0.075062424,-0.0040410478,0.01521384,0.017787121,-0.106605336,0.02053441,-0.031156594,0.039919432,0.0019734278,0.0399801,-0.04034588,0.03576502,-0.0014490131,-0.019273333,-0.029685855,-0.053074837,-0.04738383,0.042203892,0.025913121,-0.020607967,0.049004316,-0.034355655,0.09447465,-0.08326957,0.042764142,0.006643608,-0.048535023,0.100444466,-0.035922192,-0.039648525,-0.07232484,-0.050014906,0.0625525,0.0056987107,0.047268342,0.081921235,-0.030475944,-0.07749859,0.011555595,-0.023028474,-0.02836856,0.06920011,-0.10110274,0.07424119,-0.089979485,0.064906225,-0.037967205,0.045086324,0.035976842,-0.044078685,0.03492985,-0.0050474387,0.028518133,-0.021795329,-0.053178348,0.06561332,0.07472001,-0.052076384,-0.008459498
chimique,-0.037864625,-0.00045872852,0.014936473,0.027857505,0.04976046,0.022655634,-0.004046716,-0.109779835,0.07441116,-0.020391993,-0.021126363,-0.013241621,0.06420377,-0.048477933,-0.09736815,-0.031754784,0.008997818,-0.049222693,0.04969324,0.036751606,0.010844502,-0.021686813,-0.005522185,-0.041210774,-0.047333617,-0.11836656,-0.06349993,0.02303999,-0.008062666,-0.034182385,0.029131815,0.0103360815,-0.052349187,-0.04133276,-0.0056446493,-0.046488326,0.11471717,-0.02818628,-0.028958404,0.05434844,-0.031570695,-0.038089123,0.0014971318,-0.032553926,0.009421416,-0.046376877,0.0103858225,0.0026125321,0.01970756,-0.0154036945,0.08101838,-0.009880692,-0.010831622,0.03862534,0.05089102,-0.0652871,-0.068079844,-0.06519014,-0.0055591073,-0.0037673768,0.029218854,0.056176484,-0.020934619,-0.010312313,0.0024660486,-0.07336569,-0.011683175,0.046830423,0.06292916,0.008179173,-0.06529812,0.03101556,0.048745446,0.06714289,0.04517596,0.013271106,0.050767895,0.00623619,0.020108618,0.057583954,-0.10268106,-0.047469962,0.043864217,0.00076375157,-0.039340697,-0.035161365,-0.06254713,0.029526347,-0.047457933,0.040363118,0.025090847,-0.0049487986,0.09128828,0.049276438,-0.029964833,0.061860524
autre,-0.040958032,-0.0012064613,0.006790924,0.011595329,-0.002200637,-0.050576575,0.02104879,-0.024469597,0.04855173,-0.0394537,0.014027813,-0.09792405,0.04054857,0.06385974,-0.052956343,-0.023728866,-0.033697326,-0.010977914,-0.018679336,-0.07372245,-0.022699337,-0.055146776,-0.01769659,-0.014213748,-0.06333171,-0.029960807,0.024523683,0.010995289,0.015907126,-0.012151342,0.036888734,0.06298831,0.05891526,-0.044001214,-0.002726473,-0.05420952,0.051801726,-0.0052845515,0.04680818,-0.017198883,-0.04792057,0.061282843,0.032872178,-0.03415078,-0.03812843,-0.0723914,-0.019838575,-0.03300266,-0.0114260875,0.006051831,0.06707928,-0.013422855,0.026569128,-0.0122357,-0.00037840236,-0.07370569,0.004015264,-0.08923217,0.017464763,-0.00024987757,-0.03733073,0.014198821,-0.051745787,-0.08952612,-0.01616033,0.053426176,-0.023945594,-0.045808963,-0.025738513,-0.05799532,-0.0048565585,0.020493228,-0.004293788,0.05286271,0.039410323,-0.046638075,0.013897244,0.034732886,0.021595847,0.023385659,4.2408705e-05,-0.039928526,0.06926136,-0.04653397,-0.092410505,-0.007120382,0.018782161,0.06324364,0.025027104,0.08203842,-0.011840548,-0.02072883,0.071619675,-0.0009529665,0.003972104,0.06527752
rose,-0.022878565,0.05950018,0.06791786,0.028855748,0.011574578,0.047979016,-0.02185075,-0.031295367,0.017499402,0.067767374,0.02003478,-0.037858713,0.05252618,-0.07138091,-0.02439734,-0.06289056,-0.013209284,0.029083936,0.014852226,0.08924998,0.019551322,0.03968244,-0.016385956,-0.0035844445,0.008721484,-0.08354119,0.020898484,0.020866437,0.06789441,0.0005625617,-0.08266456,0.012528028,0.022360623,-0.023058763,-0.05670473,0.033093434,0.030112576,0.022108845,-0.01794494,-0.037772167,-0.057161406,-0.042409454,0.046388768,0.04068357,0.021894328,-0.06142885,0.044664074,0.016070146,0.015269865,-0.0005353261,0.005184615,0.025286097,0.046229575,0.044092137,-0.044419132,-0.0014811642,0.0345121,-0.0054468624,0.069437,-0.01925813,-0.051635556,0.046070606,0.07758371,-0.054270312,-0.0068174284,0.023013495,0.055144645,0.02827532,0.0047752075,-0.017846117,-0.030901637,0.017552989,-0.008796398,-0.010305578,-0.026365016,0.046976805,-0.025723854,-0.07009412,0.0037165098,0.058758266,-0.015627805,0.07282253,-0.07991157,0.035408877,0.0089686625,0.035076585,-0.06432146,0.013446689,0.01326281,-0.03755447,-0.012569319,-0.008214679,0.006694611,-0.046305113,0.02380805,-0.04182907
cuits,-0.031397026,0.023015002,0.07142975,0.018916527,0.00393836,0.038415555,-0.010174042,0.061191726,0.05660093,-0.049966786,0.022240032,-0.045944367,0.015202021,0.020106878,-0.102101475,-0.07892521,-0.041155472,-0.034189247,-0.104448915,0.065953754,0.015845018,0.064180985,-0.089944765,-0.13247478,-0.039921597,-0.032625467,-0.06773533,-0.03543811,0.04493777,0.06742803,-0.06422825,0.05118439,0.008969126,0.035127286,0.072201096,-0.013352549,-0.010914898,-0.02291051,-0.03550915,0.069531314,-0.03097321,-0.10476565,0.042354356,-0.045293458,-0.017759485,0.019775867,0.024232155,0.024397718,0.09321323,0.06418942,0.048336305,-0.00019632699,-0.091621265,0.08232503,0.03170233,0.0039680125,-0.03884267,0.051967718,0.020138834,0.099405706,-0.04357563,0.08297135,-0.0061806925,-0.09229819,0.049803104,0.0004050536,-0.009697773,-0.029828088,-0.033375364,0.03458017,-0.05943687,0.0427255,0.02449227,-0.0071075466,-0.0034119226,0.012542321,0.0559433,-0.0013576159,-0.02028412,-0.040577844,0.1242594,-0.015469668,-0.0398521,0.026835307,-0.06557498,0.049464554,-0.017774772,0.018229194,0.004649613,-0.043046907,-0.056214362,-0.10434994,0.034731243,0.020715427,0.041810572,0.042817384
noyau,0.0021548942,-0.03187823,0.007077338,0.095135674,0.104271024,0.051870037,0.083245434,-0.018894836,0.063218795,0.039466187,0.020318864,0.013318937,-0.0040378645,0.07422629,-0.025178757,-0.0023908848,-0.07550142,0.0053765737,-0.07697499,-0.015786849,0.03974417,0.05147086,0.08149657,-0.02885161,0.07018764,-0.022975963,-0.051804297,0.055080257,-0.04845065,-0.021001387,-0.13414286,0.095314905,0.0038922243,-0.08205192,-0.021915121,0.008571677,-0.024065852,0.016902227,-0.1346009,0.0022313558,0.074677765,0.05969847,0.09885858,0.015297487,0.01884352,0.07953799,-0.04315806,0.018724358,-0.026226444,0.024792355,0.114429735,-0.09853533,-0.001608843,-0.05127497,0.05111596,-0.047065604,-0.07262507,0.067612655,-0.10007745,0.03435331,-0.0048730257,-0.07387864,-0.07037151,-0.11130951,-0.012644403,-0.00067650713,-0.032033876,0.12171742,0.07011434,-0.01035126,-0.060447525,0.010344934,0.012829043,0.0082667135,0.0010597641,0.07182516,0.086906224,0.010163909,-0.02680631,-0.05461732,0.03672255,-0.0402003,-0.06983678,-0.018939693,-0.04675632,-0.0044680275,-0.04396001,-7.707998e-05,0.05552225,0.037033916,-0.037470452,0.03071189,-0.072054,0.035600975,-0.03715343,0.03168105
cerise,0.029369643,-0.012533471,-0.08359635,0.0020147236,0.062525734,0.03784184,0.011350464,0.020805283,-0.061781354,0.08927582,0.11812855,0.009057473,0.06813039,-0.023776824,-0.0332699,-0.002984263,-0.09198317,-0.040279094,-0.044667337,-0.068482,0.089582786,0.09814829,0.10611725,0.0070596654,0.077750206,-0.047278732,-0.026526533,0.034278847,-0.09192635,-0.0101287775,-0.09179194,0.10588667,0.07448858,-0.10407929,-0.012563106,0.080362625,-0.06653564,0.099916294,-0.076771565,-0.008939235,-0.041692495,0.055029824,0.027487539,0.05364921,-0.023809597,0.085464574,0.03070222,0.013067315,-0.098714784,0.048264034,0.09307621,0.0098353475,-0.086001724,-0.026546929,0.060435116,0.030020948,-0.10266655,0.0143768415,-0.037894677,0.00940948,-0.08316635,-0.07443392,-0.012535423,0.049770176,0.01028862,-0.05015516,-0.111903116,-0.0352989,0.010580983,0.060051896,-0.030976463,0.020250669,0.02851799,0.0177375,0.050038036,-0.009123988,-0.061458685,-0.013077464,-0.017693024,-0.10805657,0.03295074,-0.09397979,-0.061664794,0.047463626,-0.029479235,-0.07285564,0.008955608,0.013845746,0.020273872,0.04125716,-0.009475358,0.037020795,0.04900312,0.062349427,0.059546426,0.0017335303
agrumes,0.0073557124,0.036291465,0.0068713897,0.014750871,0.027295334,0.032029953,0.011978013,-0.035301875,0.020118374,-0.038540155,0.04529273,0.015724303,-0.033034,0.07877377,-0.024550453,-0.072416365,0.07799132,-0.024000723,-0.02942758,0.03728123,-0.08836602,0.04512971,-0.035160396,-0.062134866,-0.02175452,-0.09495509,0.05063615,-0.009808851,0.07422145,-0.04534851,0.09483849,0.06430209,0.025801716,-0.08143645,0.026631143,0.018483346,0.0404199,0.053000532,0.0029167067,0.09879635,0.0024534282,0.016891511,-0.016806057,0.021635532,0.05988911,-0.060023446,0.009666374,0.009042239,0.0007831957,0.059634455,0.06973246,0.074374646,0.059023112,0.018551651,0.041628167,-0.037542965,-0.046407208,0.036055297,-0.004377153,0.09784782,0.00024538487,-0.038983967,-0.02459906,-0.055417556,0.022782627,-0.018072192,-0.04891421,-0.019472044,-0.022531996,0.039384853,0.08234571,0.101919465,-0.03627376,0.025463464,0.048652682,0.0072612166,-0.041809984,-0.008226853,-0.01942091,0.0053289225,0.06766704,-0.0521799,-0.025865508,0.03142794,0.053206902,-0.01433558,0.08073192,-0.020702878,0.044837493,-0.026223637,-0.1049068,0.03924367,-0.021540835,0.08515601,0.009170063,-0.012403892
lactone,0.0282613,-0.05698183,0.0018425286,-0.012721794,0.015663542,-0.07378131,-0.014525536,0.021431519,0.040277377,-0.054470576,0.007686585,-0.03390568,0.0024093038,0.06942066,-0.016120225,-0.043895252,-0.09236817,-0.018102564,0.031627554,-0.0063054673,-0.09797786,0.04643402,0.0344505,-0.0136822825,0.050881833,-0.035379015,0.103189155,0.030522196,0.098234,0.035081573,-0.036760613,0.041903093,-0.04465755,-0.0022307616,-0.0070006642,0.09275164,-0.044636715,0.050693944,-0.0073355883,-0.09284811,0.03088101,-0.022076841,0.03320794,-0.0032525212,0.007667318,-0.00898857,-0.060111362,0.059768617,0.028954212,0.0047899745,0.08977796,-0.036448937,-0.042649195,-0.067425326,0.004106801,-0.04789725,-0.107441425,0.02894079,-0.027728735,0.0044360664,-0.025571156,0.022433363,0.07748611,-0.02632698,0.10873967,-0.05542846,-0.0081769,-0.028348291,0.012490978,-0.0015283227,-0.05289351,-0.039353028,0.021086268,-0.030140195,0.011927733,-0.0107041625,0.04029151,-0.050150372,-0.0030717328,-0.015561413,0.097569734,-0.0013616271,0.027009768,-0.0137303285,0.031834338,-0.0077634216,-0.049893,0.062099043,-0.03557963,-0.028917907,0.0014187321,-0.09192231,0.070068605,-0.011776075,0.0663241,-0.0119511355
noirs,0.014314037,0.033550587,-0.03341162,0.018745424,0.09256558,0.0051420303,0.06806793,-0.037702546,0.008656388,0.0036611762,0.087455,-0.11524017,-0.036039077,0.012984509,0.053647812,0.07761374,-0.0021663397,-0.052491345,-0.033420507,0.1167832,0.009950303,-0.017436994,-0.014867866,-0.03864574,0.0635576,-0.018880427,-0.047968216,-0.0083022285,0.10527462,-0.029718494,0.026909871,0.112721875,-0.037268534,0.04123622,-0.049617283,0.111938655,0.13227601,0.118434474,0.04781988,-0.034788363,-0.016288944,-0.119248345,0.0532341,-0.107234284,0.09038881,-0.004277,0.05522519,0.05926174,0.07374022,-0.04327444,0.039156094,0.048484027,-0.047328375,0.09261368,0.08282926,-0.13092136,-0.06559196,-0.045744084,-0.045596756,0.036672875,-0.009668291,0.030545738,0.053462215,-0.10526949,0.053895853,-0.04571028,0.021924313,-0.053705946,-0.0015092492,0.036873385,0.05057114,0.02607881,-0.009327304,-0.034820892,0.0005443287,0.070670575,0.075328104,0.006178282,0.01242525,-0.020523883,0.050248235,-0.06831681,0.004116982,-0.011487506,0.0030125715,0.051565018,0.0026011416,0.016808052,-0.00063702837,-0.065807916,0.036097046,0.057354607,-0.019243652,-0.063577674,-0.045029644,0.056279227
levure,-0.0033365367,-0.014653518,0.065861434,0.0032874532,0.04728669,0.10164656,0.027679434,-0.035330128,0.083214,0.047767654,0.03297934,-0.08460102,0.029828655,-0.021937484,-0.017343136,0.015086803,-0.01407611,0.0027989782,-0.08142625,0.023008246,-0.016812203,0.07523348,-0.058278628,-0.056861352,0.07063521,0.022174522,-0.05643453,0.08376807,0.056762453,0.047995437,0.035458233,0.032876626,0.015942654,-0.10213045,0.060794856,0.018690635,0.048694536,0.05850268,-0.017546918,-0.01558321,0.067515865,-0.07378417,0.0109352,0.016714491,0.05667616,-0.015325099,-0.04015082,0.042589124,0.03743419,-0.030838776,0.009700868,-0.034274578,-0.096996054,0.095239505,0.026499655,-0.06741199,-0.036237232,-0.042523317,-0.04509541,0.07305377,-0.026863676,0.06443052,-0.05588003,0.023816654,-0.03503748,-0.085576996,-0.054641485,0.0018425696,-0.03262022,0.015291968,-0.02825717,0.062824555,0.025947249,0.00026870985,0.046049982,0.06083151,0.063428774,0.012693729,-0.030831186,-0.03748002,0.077097945,-0.08171883,-0.062201094,-0.037377767,-0.021318845,-0.02174965,-0.04205937,-0.027666021,0.089897186,0.04019464,-0.0024156068,0.027345844,-0.040031277,0.08603527,0.046251483,-0.045511853
métallique,0.069003135,-0.034499355,-0.023479259,-0.01912612,-0.04413812,0.041347772,-0.08262516,-0.062747695,0.04030512,-0.012219023,0.024008762,0.08851471,0.023043066,0.012043832,-0.0021681315,0.0055956207,0.0028627869,-0.053657725,0.05324752,0.055045813,0.013118216,0.047925957,-0.020632232,-0.0061649308,-0.069598064,-0.085588545,0.029366817,-0.013518922,0.06700415,-0.0076160543,0.01660005,0.03316998,0.003077127,-0.011353994,0.019430952,0.04155933,0.025137,0.039183848,-0.05109665,0.049668927,-0.0022914894,-0.10908022,0.046073057,-0.05875757,-0.0351615,-0.10570069,-0.019295998,0.007890024,0.045927074,0.0026225336,0.11776523,0.025930382,-0.09044036,-0.07228058,-0.002441112,-0.020911934,0.024380079,-0.029353665,-0.010084501,0.013218104,-0.04533671,-0.022409476,0.040999703,-0.1063212,0.040927805,-0.015616167,0.0050421124,-0.03808265,0.07426188,0.0060845464,0.0035176203,-0.018919513,0.065745756,-0.025889741,-0.028217683,0.10435039,0.058300044,-0.020529944,0.056766927,0.061847366,0.074667625,0.021082927,0.00013298169,-0.019450923,0.097159296,-0.016926486,-0.05896727,-0.019580878,0.043800976,-0.018316042,-0.032478232,0.04476346,0.042453505,0.006950902,-0.021756306,0.0067225564
noyaux,0.007408211,0.0505956,0.01794472,-0.022209473,-0.0027061189,0.01957325,0.00012895092,-0.10592826,0.050407417,0.00097023323,-0.04943575,-0.043229688,0.026978504,0.06244619,-0.031242494,0.039551623,0.06971553,-0.08046366,0.033047535,0.046375275,0.07070503,-0.031403262,0.024786554,-0.0025057998,0.073772326,-0.08277172,0.01623098,0.04883204,-0.04429364,0.012272872,-0.004328314,-0.014829813,0.078017384,0.021087246,-0.06668355,0.015589254,-0.000524167,-8.137524e-05,-0.025867011,0.010209203,0.05839291,-0.10183899,0.051320564,-0.04265515,-0.072944246,0.019603685,0.029404862,0.034303665,0.079928696,-0.08436538,0.041237496,0.050389513,-0.018691689,0.040347964,0.04881179,0.05796926,-0.08319771,-0.042944945,-0.05974781,0.025589162,-0.019790083,0.0063487366,0.030066432,0.0032827593,0.0670879,-0.011555439,-0.076462135,0.076381825,0.01168102,0.097643554,-0.07940876,0.0063008238,-0.06353405,0.021037541,0.07711865,0.06352559,0.038509555,0.0776621,0.07335701,-0.015318934,0.037023257,0.05125116,0.04674903,0.025326435,-0.022581005,0.040410034,0.010537503,0.058372777,0.043257374,-0.020578371,0.021857364,-0.0027191332,-0.10592553,-0.035656184,0.0014838092,0.104173884
animal,0.0069865338,-0.06868117,0.061432373,0.026142675,-0.064487234,0.0369346,-0.014943804,-0.02629565,0.03631102,-0.020166967,-0.052618116,-0.09520958,-0.046149798,0.027691144,-0.018533176,0.028042303,-0.011699125,0.03815546,0.068081506,-0.024769671,-0.017976018,-0.01915325,0.010114349,-0.05828403,0.032990634,-0.027963351,0.038592003,-0.0044019446,0.07534642,0.022880446,0.04079672,0.024007233,-0.010181314,0.06542362,0.0014645495,0.0006426666,0.030490488,0.10436171,0.002873104,0.0016452037,0.023419648,-0.009239998,-0.031689353,-0.07982418,0.074371345,0.064081326,0.050129183,0.028509937,0.074760765,0.037769876,-0.03099057,-0.01580206,0.05035092,-0.07011418,0.062136948,-0.029577559,0.09647577,-0.014729344,-0.007816799,0.027064485,-0.008220915,0.08419913,-0.04061525,-0.008160185,0.030048208,-0.017956067,-0.008262926,-0.020387381,0.007407384,0.05298794,-0.022230238,-0.010271501,-0.021799827,0.011152502,-0.010539688,-0.049968205,-0.017637819,-0.0074920757,-0.049779553,-0.075154245,0.011854264,-0.022391967,0.016955968,-0.04448112,0.017603729,0.019294083,-0.0011034259,-0.047032252,0.05068163,-0.024145948,0.004153423,-0.032591958,-0.025541909,-0.006655205,-0.008740876,-0.016903426
malte,-0.005226113,-0.0068081915,-0.02183824,-0.031139046,0.033209193,0.07555235,0.03768202,-0.02229135,0.057757623,-0.026795952,0.033672504,0.025766643,-0.0023724097,0.082423046,-0.021240497,0.058230355,-0.063812934,-0.04915603,-0.014225822,0.0029849429,-0.033654094,-0.007955605,0.072149515,-0.030366277,0.057007167,-0.009290488,0.026693305,0.056740373,-0.025928803,-0.06940822,-0.017156335,0.057019312,-0.013581866,-0.026422627,0.020314502,0.022745073,-0.015349162,0.030389758,-0.0478807,0.077601455,0.11014907,-0.037341606,0.07464212,-0.001083931,0.06919904,-0.02903964,-0.06697404,-0.041765567,0.03322851,0.033928156,0.040315196,-0.08822732,0.034365818,0.035022214,0.06140427,-0.014760472,0.013836728,-0.035003807,-0.043188598,-0.014730971,-0.01111272,0.0023919884,-0.09957111,0.007104041,-0.0740666,-0.042515654,0.01386375,-0.02263214,0.010291123,-0.0012535453,0.05529247,0.0002200231,0.0033023022,0.0029619439,0.04714447,0.029558267,-0.025206186,-0.019392772,-0.060821157,-0.0821064,0.05371501,-0.058966324,-0.0010605827,-0.031483937,-0.013630757,-0.0023393035,0.04461614,-0.00057022925,0.03383658,0.04881147,-0.012975264,0.029653307,-0.101997584,0.05097076,-0.012663972,0.067227006
amande,0.014385083,-0.056524653,-0.0131613575,-0.0059831934,0.029181115,-0.041952338,0.061052743,-0.038332373,0.06733084,-0.020378234,0.0018584896,0.021844152,0.059448004,0.00411111,-0.048023067,-0.04475844,-0.002596125,0.07845174,-0.038420312,-0.0059716664,0.0062588314,0.0071836077,0.017339822,0.015773013,0.0933494,-0.011536918,-0.07300515,-0.046977248,-0.01595361,-0.031059794,0.017057784,0.06418098,0.058084466,0.07072063,0.028454203,-0.011914235,0.020061484,0.01960043,0.0037254374,0.03600057,0.010810471,-0.051603094,0.031413637,-0.065477654,-0.07958107,-0.064656004,-0.00993587,0.10512388,0.009932838,-0.004942363,-0.019273078,-0.02798644,0.0021891631,-0.0012137927,0.011767115,-0.04987468,0.04476467,0.08198662,0.040368535,0.05214611,-0.050504692,-0.07791658,-0.07602607,-0.021433536,0.012435589,0.04000354,-0.010069576,-0.02742483,-0.0029001571,0.000882186,-0.03510431,0.038313124,0.04494459,-0.029413454,-0.035365455,-0.08193067,-0.03016541,0.023326198,-0.0006659739,0.00354667,-0.06025716,-0.027139852,-0.07560989,0.01627601,0.031043287,-0.00049847085,0.026324073,0.057107005,0.05469619,-0.03742799,-0.022730079,-0.05798891,0.016541362,-0.038112268,0.040609278,-0.036131307
amère,0.068146616,-0.030038225,0.017205957,0.045482807,0.023162343,-0.0012704786,-0.021952763,0.017972883,0.0036664568,-0.03859725,0.05020038,0.03245126,-0.0001310464,0.020811114,-0.032296617,0.005561311,-0.0699687,0.006736409,0.015631836,-0.016273918,-0.012162022,0.0071788244,0.024404064,-0.044529837,0.03429632,0.018011248,-0.03089283,0.058182176,0.010532423,-0.014760363,0.08915737,0.065186776,-0.06080772,-0.047408372,0.052880164,0.02402566,0.04123672,0.0041324086,0.031330034,-0.0014497023,-0.04952757,-0.02199845,-0.050057404,-0.0042822175,0.06373328,0.0017520487,0.045150697,0.012675906,-0.001427891,-0.001009712,0.05309443,-0.04228808,-0.009464685,-0.0003920272,0.03437365,-0.06515691,0.08866501,0.0564033,0.058567435,0.017345188,0.02820513,-0.06460494,-0.00892177,0.05337484,-0.004671604,-0.06202722,0.013631009,0.035477612,-0.029000595,0.03650795,0.03519685,-0.035506453,0.06468285,0.0033682957,0.05782375,0.0022304282,0.082415804,-0.0025938437,0.094657615,-0.09170862,-0.0033049732,-0.008236969,0.013046656,0.0035046078,-0.06864539,0.054587767,0.063039154,0.005338859,0.012558298,-0.05872737,0.036851536,-0.00035789795,0.011380741,-0.0061919317,-0.025697935,0.037657768
exotiques,-0.07672791,0.13603804,-0.004610789,-0.031968623,0.03871289,0.03488633,-0.065522715,0.019847628,0.036605943,-0.039789483,0.013825446,-0.08112466,-0.009765543,0.053956058,-0.002716761,-0.015683837,-0.04498688,-0.022676602,-0.035096787,0.06317185,-0.043100514,0.030073453,0.018528266,-0.09680371,0.0090248175,-0.11093272,0.017128449,0.08676773,0.039375767,-0.067520596,-0.00011547585,-0.012480556,0.024321929,-0.042529605,-0.05685887,0.025605228,0.059436474,0.08255283,-0.09356825,-0.037061997,0.04490662,-0.055706512,0.002768343,-0.051251348,0.022499815,0.016625565,0.039407417,-0.0019592717,0.02119127,0.04147276,-0.0061116745,0.046828605,-0.03359797,0.06633785,0.027099354,-0.004757099,-0.028465968,-0.049504697,-0.08963553,0.11148892,-0.05404129,0.022886647,-0.014401974,-0.019306242,0.10419946,-0.111689866,0.006975108,0.037876338,-0.021107757,0.055102646,-0.0007715136,0.05113315,0.002585059,-0.014125767,-0.0554606,0.07606317,-0.041905053,-0.0019902121,-0.018983223,-0.0030834377,0.08421202,-0.045824826,0.0024448335,0.03413619,-0.0020892061,-0.019883115,-0.067572184,-0.068665475,0.0051123127,-0.010813881,-0.026276492,-0.043767273,0.019697484,0.08866959,0.034966525,0.017503055
boise,-0.033663392,0.040550128,0.0026961397,-0.013724722,0.0923654,-0.019160973,-0.019595042,0.027371772,0.119914934,-0.033764347,-0.028752679,-0.08428914,0.051374685,0.054593496,-0.019986313,0.06635214,-0.01911065,-0.04234984,0.005579449,0.0090601,-0.069336474,0.028503355,0.008240752,-0.053002845,0.01944539,-0.05288654,-0.04401565,-0.0115077635,0.00800674,-0.020637086,0.008035153,-0.06580068,-0.013554498,-0.061675932,0.025727116,0.0035054646,0.04497158,0.01859483,0.035046995,0.058781985,0.026145643,0.01940783,-0.0035901405,-0.033165842,0.022852872,0.034371004,-0.022566458,-0.025694458,0.04406418,0.0035926178,-0.014498753,0.091261,-0.021105034,0.019417437,-0.048614614,-0.016163908,-0.045328673,-0.044350926,-0.08218662,-0.0011084061,-0.100412935,0.11777966,-0.019668559,-0.012512796,-0.06754256,-0.041196026,0.045201033,0.018094908,0.008704921,0.029468166,-0.07045993,0.076620206,0.011233784,0.045308746,0.08393693,0.025679858,0.000873141,-0.032666467,-0.044453975,-0.038082365,-0.01321465,-0.040930394,-0.021037294,0.09240213,0.113018945,0.010377381,0.0052290354,-0.043558057,0.08866815,-0.0073284274,-0.07728383,0.025747346,-0.028451875,-0.048300292,-0.00012441725,0.05138496
soufre,-0.0073028803,0.013766853,0.047958534,-0.076783486,0.019302487,-0.0113226585,0.054501414,0.01230141,-0.05223889,0.009693429,0.04126957,-0.0027795937,0.021293586,0.013088159,-0.03558728,-0.033809565,-0.016843576,-0.061803658,0.067187175,-0.0058620796,-0.036965415,0.027054586,-0.049897447,-0.013157483,-0.058206327,0.007941357,-0.0049080066,0.04702647,0.01604294,0.028615782,-0.043975018,0.0829563,0.011131907,-0.076891676,-0.013931545,0.07138762,0.036794797,-0.054357555,0.0057127364,0.033814337,-0.047730356,-0.0016056914,0.030320793,-0.042357102,0.007062344,0.081189014,-0.079656646,-0.04553915,0.03806256,-0.06713755,0.050868902,-0.003307566,0.05361408,0.015985873,-0.06043753,-0.024897134,-0.07122169,0.062954724,-0.014397398,0.05707595,-0.037240405,0.028277885,0.010216221,-0.047958467,0.05580282,0.025929142,-0.011843247,0.06835776,0.04630314,0.001403275,-0.058996234,0.032650042,-0.0055619925,0.016665053,-0.025075605,0.053124357,-0.05965707,-0.031004861,-0.02362791,0.099965155,0.031097881,-0.059475083,0.07670678,0.06415807,0.07104401,-0.07670897,-0.08785263,-0.018645637,0.07408668,-0.018556388,0.011018754,-0.0078745335,0.009728843,0.0905844,0.056822527,0.017622545
amylique,0.009664327,-0.007193144,0.07110425,-0.07986074,0.111561984,0.056989208,0.049805004,0.044506077,0.08981125,-0.027316451,-0.007470535,-0.0691531,0.03705977,-0.038227707,-0.05400961,-0.013198754,-0.039239928,-0.064064704,-0.03594201,0.11922099,-0.009168057,-0.02112526,0.033049554,-0.10714997,0.031995133,0.0290111,0.014053687,-0.00030920282,0.05430972,-0.06819808,0.020299267,0.02383036,-0.080437586,0.016564703,0.07941477,0.10136458,0.022686621,0.035396002,0.05516197,0.014739992,-0.054632463,-0.03881105,0.06598389,-0.106791176,-0.018367618,0.0072746277,0.0136442,-0.01697925,0.044813022,0.027757442,0.007871907,-0.0012079291,-0.060038052,0.07252957,-0.05415343,-0.112838656,0.017423771,-0.01446823,0.08933933,0.08611739,-0.053028293,-0.0061950046,-0.055657458,-0.06973517,0.028930925,-0.012175322,-0.039798696,-0.043197013,0.036628205,0.04386229,0.003799118,0.06279439,-0.03394179,0.05718095,-0.004002732,0.008572223,0.028824741,-0.077971496,-0.06935832,0.0009829784,-0.016101712,0.012965659,0.009912586,0.03949766,0.012231542,0.02170933,-0.023704786,-0.050997347,0.08931983,-0.025967387,0.0373213,-0.02541707,-0.04084446,0.051518153,0.039503254,0.035960272
caramel,0.011348445,0.032494836,-0.04090127,0.0064206906,-0.030419387,0.09908095,-0.0016290564,-0.018594263,-0.0040104855,-0.06723666,0.05998188,0.061644435,-0.039256517,0.046072565,-0.024443956,-0.04593292,0.02303322,-0.022870097,-0.053159676,0.07736367,-0.046042483,-0.04240974,0.0046626627,0.0027900934,-0.06889577,-0.1103241,-0.020656712,0.055858903,0.0058161337,-0.027529418,-0.007910151,-0.05263873,-0.049916502,-0.006902747,-0.010259275,0.030443842,-0.0033920258,0.019027218,0.012964062,0.003545601,0.069033995,0.0017234497,0.038305033,-0.07379727,0.07326483,-0.038261347,0.06446324,0.086063445,0.04361719,0.029267656,0.07431853,0.002078753,-0.01766166,0.016204208,-0.013690243,-0.059802894,-0.045148812,-0.0153253935,0.03968806,0.009470387,-0.03937134,0.018716227,-0.0033602063,-0.07889992,0.03769942,0.008256087,0.019301407,-0.009603757,-0.009266246,0.033568233,0.07861738,0.051457904,-0.009891635,-0.019063488,-0.055888854,0.051319167,0.07035598,0.083259046,-0.0011011828,0.05016857,0.034785572,-0.089592345,0.013521783,0.067087196,0.09358509,-0.031702388,-0.0059588887,-0.031837314,-0.043727655,-0.017698415,0.0009249135,-0.07337152,0.03848403,0.08123043,0.0045389496,-0.015059628
vinaigre,0.009702381,-0.005300898,0.042950947,-0.010287879,-0.027715333,0.06608134,-0.027472366,0.022154318,-0.0066381544,0.0063245185,-0.043955166,0.039671615,-0.015008908,0.05066577,0.102876395,0.051862843,0.08225764,0.104111135,0.008069549,0.050086603,-0.009876107,0.030431746,0.036208753,0.057921536,-0.007289633,0.03020575,0.02172398,0.015364453,-0.021292858,0.08708358,-0.017638536,0.02765346,0.033632215,0.01819098,0.010554172,0.05534243,-0.036411926,-0.031038348,0.05937752,-0.052192237,-0.029379515,-0.016892102,0.035997704,-0.013680341,-0.037422433,0.053176448,-0.063382484,0.0044343527,-0.06465462,-0.010567181,0.041571066,0.068931945,0.0016441569,-0.020623047,0.0690446,-0.05234214,0.012948195,-0.032384224,-0.07084083,0.007433399,-0.049814403,-0.0070541874,-0.0060022175,-0.0153536275,0.02330766,-0.0069092102,-0.018867426,-0.0078508565,0.09963055,0.028782055,0.009390802,0.05080393,-0.084459394,0.057417534,-0.013768415,0.055541597,-0.008790886,0.07740156,-0.06427342,-0.0038507283,-0.038583197,-0.057975408,0.00974739,0.04734069,0.073383436,-0.06170527,0.0252104,0.006530199,0.06811992,-0.0010217801,-0.07338453,0.05844763,-0.017194059,0.029306185,-0.008274008,0.017059263
jaunes,0.0470194,0.011660506,0.027815757,-0.04292435,0.048972026,0.06360742,0.02893022,0.028636862,0.023455717,0.013215961,-0.0625167,-0.019765865,-0.04944464,0.007970283,0.023705306,-0.07104563,-0.041942492,-0.06627344,-0.026016295,-0.00027765427,-0.07393366,0.0049602576,0.023543695,-0.07856557,-0.03962161,-0.019588307,0.044503644,-0.0022825822,0.04267158,-0.056174077,-0.013324415,0.021866877,-0.04418287,-0.09046473,-0.016640488,0.10427803,0.031932697,0.012645606,-0.0032905228,0.06769932,0.08668019,0.011129735,0.039046265,-0.017003192,0.014583554,0.0753008,-0.02077096,0.048314083,0.040095232,0.04191931,-0.041270934,0.03744889,0.028301124,0.071458936,0.07180347,-0.010185853,-0.059079524,0.01556509,-0.0010496955,0.07443315,-0.040329605,0.051697597,-0.023000095,-0.025584947,-0.008435881,-0.08682963,0.07821803,-0.046993054,0.048421785,0.0872163,-0.05057976,0.01135391,-0.060430236,0.07856759,0.091336966,-0.021714224,0.07167386,-0.015051585,-0.0267218,-0.061165813,0.09337544,0.024940386,-0.0031367652,0.033190347,-0.015375663,-0.058701284,-0.035685606,-0.040252175,0.014215166,-0.028787872,-0.041143313,0.016212005,0.043363154,0.06659279,6.4224005e-05,-0.04703231
pharmaceutique,0.021856707,0.063436896,-0.040331915,0.073346324,0.02934071,-0.028946973,-0.027460445,0.02653292,0.07476978,-0.018506847,0.0021473924,-0.051378213,0.08175421,-0.001958359,0.029363222,-0.042206835,-0.07078505,-0.031089168,-0.031547822,0.002442427,-0.026813617,0.0074135773,0.07858372,0.007002596,-0.028139275,-0.027939342,-0.061134502,0.04111522,-0.0022030473,0.028839111,-0.055267036,0.022342306,-0.0035515944,0.058342498,0.020377725,0.017802015,-0.017056704,0.0043972526,0.075615786,0.04918124,-0.022377938,0.022769641,-0.026930628,0.0047958717,0.030606223,0.037565194,0.06141616,0.008218383,0.034352705,-0.05042966,0.08404606,-0.021840628,-0.0024150684,-0.03326315,0.009086695,0.050178587,0.035233434,0.076509,0.06716877,-0.051353768,-0.040978126,-0.03000946,-0.0011646729,0.059954807,0.015258919,-0.023119055,-0.02167725,-0.000520315,-0.08088912,-0.022719057,0.016064143,0.0534687,0.042974778,-0.00855105,-0.09180189,0.04478695,0.0071772058,-0.012180744,0.0055203307,-0.038196232,0.069693826,-0.07035498,0.013837529,0.019132547,0.018736659,0.013105303,-0.048369747,0.070967324,-0.02391112,0.04465492,0.06667303,-0.07028002,0.05985723,0.04489814,0.01835678,0.035076197
lactique,-0.015067712,-0.008470591,-0.0032778122,-0.026989505,0.04959691,0.015085734,-0.04886143,-0.018051399,-0.008644931,-0.024576517,0.0034864284,0.039683945,0.0806285,0.009098753,-0.0313522,0.043343715,-0.07124086,0.013202328,0.0552539,0.047774576,0.0057755187,-0.012710741,0.0010750033,-0.08703295,-0.072667435,-0.0408395,-0.09556272,0.044097688,-0.035614528,-0.011201853,0.019047678,0.09816089,0.048540935,0.0413482,0.074930504,-0.024720449,-0.03980393,0.066960074,-0.04428329,0.01324654,-0.073052265,-0.00955705,0.026553702,0.05372786,0.016014852,0.006355021,-0.048077375,0.08599071,-0.06507466,0.029752044,0.0071044145,-0.006038187,-0.002398897,0.022266584,0.013086197,-0.070404105,-0.013050158,-0.025139041,-0.03489226,-0.004666765,-0.025712911,0.048958883,0.064743385,-0.06259982,0.019510783,-0.005758647,-0.004626219,-0.0035560243,0.062519155,0.05040337,-0.04041137,0.057601415,0.04217699,0.03414064,-0.0073537435,0.02724905,-0.024310142,0.007462455,-0.010771688,-0.03895024,0.04721616,-0.07789381,0.07013776,-0.053591877,-0.042813204,-0.01621376,-0.009524915,0.020770159,0.022366602,-0.018096708,0.034963172,0.023855988,-0.027744452,-0.015315697,-0.04527505,-0.051647738
pépins,-0.0020106584,0.07312751,0.07698572,0.021760851,0.07987772,0.0058323126,0.009460868,-0.04346571,-0.021161353,0.040262535,0.018883666,0.015767794,0.022064516,0.028955147,0.021346278,0.01712774,0.019054923,0.006042499,0.016098082,-0.016938034,-0.013835501,-0.01765469,0.023093725,-0.053492066,0.09531526,-0.073644415,-0.01647371,0.06378041,0.049397156,-0.008258902,-0.020752702,0.094952434,-0.018603317,-0.09820819,0.028081408,0.05048611,-0.047294065,0.03342408,-0.025939945,0.055439603,0.05610373,-0.054445334,0.09975971,0.031700257,-0.048846472,-0.021265708,-0.038251217,0.019777648,0.06772587,0.08954921,-0.04837849,0.03525823,-0.0782513,-0.017148059,0.06363312,-0.048659313,-0.023667416,0.050882578,-0.0915274,0.049366795,-0.047724415,0.047615327,-0.010725275,-0.07328765,0.055861488,-0.0120992735,-0.007568892,5.9328973e-05,0.0250815,-0.059499893,-0.0501493,0.015925506,-0.0072971024,0.03588236,0.06794538,0.0381982,0.045636673,-0.07527386,0.0023703296,0.034015696,0.088228375,-0.046888866,0.024835343,-0.051430464,0.012570587,-0.11451238,0.09520979,0.008048348,0.03528329,-0.056376666,-0.029372245,-0.042505223,-0.08839964,-0.0054260623,-0.019890975,0.07224246
aldehyde,0.096955165,0.008352321,0.01436834,0.017914794,0.030629857,0.052592717,0.005869519,0.0048250407,0.0017078109,0.044907514,-0.011181841,-0.06505257,0.030735724,0.08539303,0.010582111,0.0872958,-0.040864017,0.0059957057,0.0018317904,-0.024836443,0.060471624,-0.06693117,-0.0022819422,-0.019512463,-0.020394016,0.015090309,-0.02503385,0.078908004,-0.003200702,-0.013401754,0.052344862,0.024419399,-0.039489325,-0.025930643,0.041171324,-0.039781302,0.059367675,0.061370283,0.0063682348,-0.0032673664,0.055170223,-0.014086803,0.013171215,0.019777916,0.020401191,-0.02521959,-0.022170655,0.018930495,0.02290982,-0.030537685,-0.033776186,-0.014969353,0.022361381,-0.029423796,0.03313162,-0.02506857,0.04567386,-0.07152242,0.036244646,-0.05804486,-0.017857011,0.0020670276,0.0005543437,0.042354774,0.057093944,-0.0699428,-0.007163018,-0.043768317,0.07264547,0.05500035,0.06367181,-0.054637045,0.09650372,0.003259709,-0.032720674,0.021658553,0.007289281,-0.08514969,-0.037559744,-0.003403455,-0.0025015809,0.0071274415,0.013767548,-0.060747698,-0.02151369,-0.028093629,0.07397465,-0.060173903,0.08727585,-0.022475285,0.053181805,0.049776524,-0.102892354,0.005048692,0.017800136,0.0076606087
moisi,-0.0039366796,-0.05307062,-0.016800791,0.04347042,-0.006802506,0.08028999,-0.029436557,-0.035360675,0.05380218,-0.0056179464,0.019275622,0.020325888,0.02044549,-0.005633916,-0.069406964,0.08123146,-0.07127325,-0.048267577,-0.03897105,0.025354212,-0.03532106,0.04635616,-0.017639045,-0.020751007,-0.05795472,-0.016530745,0.025998209,0.022638204,-0.0012106355,-0.08480535,0.012764165,0.02618955,-0.066233456,0.011207982,-0.085599005,-0.022517515,-0.010211036,0.024873666,0.03685135,-0.045302633,0.027855739,-0.06358113,-0.011844121,-0.029252684,0.04682076,0.045429472,-0.0556977,-0.0034987107,0.051900245,-0.013082668,0.0037660426,0.013575945,-0.015427613,0.06801337,0.05367814,0.013954803,-0.007887917,-0.051826824,0.055258233,0.019910391,0.006647641,0.025709515,-0.019288477,-0.04649671,-0.03215541,0.005441676,-0.04966879,0.03152886,0.019403197,0.101694435,0.03973686,0.03504138,-0.0154271405,-0.008683786,-0.0032532432,0.08703104,0.07907366,-0.06873161,-0.008331984,-0.009099282,-0.0007735789,-0.07970511,-0.0490433,-0.0042524934,-0.036394577,0.020509126,0.07842622,0.02386484,0.00058280304,-0.030135166,-0.05874694,0.06909138,0.019557254,0.045278452,0.013727017,0.07344914
terreux,0.056122817,0.06836951,-0.03463638,-0.07523328,-0.032646157,0.0029600807,-0.09507565,-0.042701155,0.05459037,-0.055259436,0.008838932,-0.0717326,0.021516295,0.07219258,0.01376456,0.010064889,0.04475178,-0.019864716,-0.0118028745,0.0017253896,-0.005535785,0.025954349,-0.09534494,0.0019903476,0.037080374,-0.030178864,0.0063085575,0.002586633,-0.03768415,-0.028744094,-0.044741474,-0.06304589,0.032923613,-0.07139288,0.03697709,0.019641679,-0.022515925,-0.04706784,0.027232073,-0.060181245,-0.0077915043,-0.032018,-0.015180196,-0.010591729,0.014044728,-0.00666938,0.05615853,0.09108588,0.057277486,0.04537982,-0.0057799052,0.08450303,-0.025922231,0.03166626,0.03235963,-0.06852519,0.0096850395,-0.0052749403,-0.0218881,0.030347232,-0.0024370383,0.031804465,-0.07001104,0.071543634,0.045970753,-0.07306941,-0.04069312,-0.07473107,0.059704848,0.029759001,0.020471368,-0.010539869,-0.038367316,-0.070745446,-0.035372086,-0.0064724796,0.0045452975,-0.10299121,0.035073392,0.03572259,0.01300443,0.011416744,0.04334275,0.09356689,-0.016287988,-0.055965543,-0.033810318,-0.014309341,-0.07364124,-0.038718484,-0.054575153,0.02088157,0.05649925,-0.029628877,0.04324662,0.04643132
vert,0.00020500645,0.013408095,-0.013207447,-0.022781959,0.029805157,0.004376583,0.021293154,-0.007304157,-0.0295902,-0.042087656,0.017940821,-0.04147164,-0.020434432,0.030801294,-0.012997104,0.0456507,-0.022061283,-0.01862279,-0.07884209,0.0077225678,0.033027947,0.0036868937,0.017870847,-0.027603384,0.068840936,-0.06599936,0.011153147,-0.037665553,0.032124598,-0.03379934,0.010109957,-0.008806378,-0.0744875,0.022002475,0.03370712,-0.060476303,0.01759265,0.023168556,0.006672121,-0.015612112,-0.0026746502,-0.0069970107,0.00981866,-0.017925065,-0.032367833,-0.051453587,0.023727229,-0.05490228,0.026600793,0.036447205,0.056215234,0.078107245,-0.070607774,0.0254903,0.010168543,-0.029304467,0.030284384,-0.06939705,0.082143515,0.112110645,0.018160943,0.061333884,-0.010744911,-0.048546072,0.06628358,-0.05969794,-0.070944786,0.021940779,0.016912991,0.06304426,-0.005080469,-0.009467503,-0.032859765,0.07006788,0.023076698,0.037169844,-0.05611285,-0.03419637,-0.009767335,0.08751113,0.037254658,-0.024494734,-0.060448773,0.005973786,-0.023438394,0.09299309,0.0108114425,0.06568697,0.011753956,0.0070912037,-0.0655562,-0.011021249,-0.074923724,-0.034598574,-0.057161026,0.012102651
pieds,-0.034558643,-0.041443758,-0.04793806,0.00091235293,0.07630384,0.011384897,-0.014387043,0.042103976,-0.05254619,0.024598021,-0.02024944,-0.057658765,-0.027804531,-0.047971606,-0.03986408,-0.022430345,0.011562131,0.029402364,0.056338858,-0.018952273,-0.030972261,0.042551596,0.031816825,-0.08631034,0.07579148,-0.010178091,0.03124788,0.0021336963,0.031389944,0.005498722,0.0013205484,0.025191689,0.035239067,-0.07832996,0.004520964,0.0023496393,-0.02626402,0.08961338,0.04974571,0.027154867,0.066352524,-0.027648006,-0.052408166,0.027829787,-0.032550994,-0.03266733,-0.0014970042,-0.071495704,0.018022519,0.06416984,0.02593364,0.037647255,0.06292191,0.02393024,0.01509323,-0.045778677,0.028993923,-0.01801031,-0.046977345,0.027281284,0.0738625,-0.06184071,-0.023300223,-0.037901945,0.033220533,0.035768308,-0.011871157,-0.0039687455,-0.019340377,0.02197471,0.009585103,-0.05893248,0.024641301,0.010582298,-0.02667542,-0.003769649,0.01856335,0.018235529,-0.018030563,-0.017068624,0.04022624,0.009720479,0.04604105,0.031575397,0.02289212,0.0394786,-0.04912837,0.023749672,-0.046649422,0.087988645,0.02561955,-0.0042557046,-0.06568619,0.01575217,-0.04263462,-0.09005082
