RESERVED,0.023596946,0.028850194,0.042260073,0.03801781,-0.02895651,-0.03948003,0.002428785,-0.0507228,-0.009411965,0.033073667,-0.02849803,0.027329754,-0.021851446,0.043363847,-0.030504905,-0.03238175,0.011839595,-0.00544196,-0.002786003,0.013145745,0.028622318,-0.07977247,-0.013596786,0.07472118,-0.004520308,-0.022118535,-0.0012913123,0.0072188005,-0.02827463,-0.0031926148,0.064143024,0.053286105,0.056876697,-0.019312393,0.026148727,0.015690733,-0.02962093,0.011542812,0.010373604,-0.07940529,-0.0007225163,0.07773339,-0.021007642,-0.01779114,-0.03641118,-0.013134254,-0.028969135,-0.019870387,-0.017903732,-0.0073625166,-0.05180335,-0.047043942,0.0019956604,-0.045098484,0.035388898,-0.08785772,0.032377407,0.07342245,-0.029600501,-0.050564267,-0.07533145,-0.04855013,-0.025727414,-0.029786255,0.03446061,0.06726395,-0.0046280697,-0.0023511164,-0.006078813,0.014386762,0.016846944,0.040861856,0.06248697,-0.013271904,0.053405285,0.029990174,-0.060416747,-0.06185376,0.04732813,-0.06406051,0.06921969,0.010444455,-0.010849096,0.03214551,0.01960118,-0.004709948,0.097647265,0.021089844,-0.0052460544,0.01904572,-0.0064324103,0.048466668,0.062171318,-0.0017779712,-0.045496836,-0.07554408
fermentaire,-0.04514163,0.036907975,-0.0908262,-0.055879965,-0.060874283,-0.01365952,0.08240515,-0.0029953327,0.086911894,-0.061488483,0.090534694,0.010401515,-0.042816944,-0.061523385,0.13372512,0.049633425,0.07128487,-0.07353066,-0.120758235,0.073460266,-0.07711214,-0.04177731,0.044465374,0.09738154,0.035762213,-0.048426334,0.0723211,-0.13467726,-0.040324874,0.039561212,-0.0124952905,0.1323121,0.024270749,-0.057076845,0.09362213,0.06964975,0.056079738,0.008354594,0.06300681,0.069412455,-0.07509943,-0.040023115,-0.048892852,-0.009692918,-0.006173931,-0.024740046,-0.11567515,0.09223525,0.016250636,-0.0004172884,-0.07361741,0.014870664,-0.15467238,0.017882857,-0.009575296,-0.10171141,0.108072266,0.029936705,0.034192525,0.026615046,0.045943014,0.07385935,-0.07698965,-0.07924758,-0.07792348,0.05487231,-0.004007522,-0.06336637,0.0070647136,0.053749647,-0.09419252,0.117773935,-0.047281798,0.0034205737,-0.12726492,0.09255385,-0.11194139,0.028597023,-0.057927255,-0.03270603,0.03319435,-0.079499595,0.033227332,-0.041772723,-0.066960774,-0.03996746,-0.028597768,0.07517229,0.12620501,-0.013752696,-0.031424906,-0.012947269,-0.030751076,-0.013045507,-0.055114508,0.13901089
cuir,-0.057359442,0.09708345,-0.06725674,0.009977484,-0.111039065,0.036791045,0.041411635,-0.032874092,0.107409775,-0.13385963,0.101292655,0.05499663,-0.020339917,-0.09568651,0.06620431,-0.09860749,0.010420466,-0.12775886,-0.10386321,0.0013529416,0.04078106,-0.03426735,0.029315263,0.024845317,-0.0040983353,-0.01769916,0.094189614,-0.11575444,-0.119385794,-0.027977461,0.03369598,0.1268948,0.0745374,-0.10134131,-0.011913065,0.11796264,0.049901396,0.0023339652,0.050150998,0.045376107,-0.0768186,-0.021165412,0.014036611,-0.049593914,0.026612373,0.0017750524,-0.11099629,0.053288464,-0.01510575,0.01852518,-0.019925008,0.06371047,-0.09003653,0.073057726,0.017253658,-0.08509335,0.07928217,-0.07173674,0.07051246,-0.10113603,-0.0014437698,0.13628858,-0.023001883,-0.09521724,-0.12345618,0.033405174,0.044731054,-0.12457763,-0.03111375,0.13044441,-0.076515675,0.09016359,-0.029248191,-0.03887272,-0.027133364,0.074588746,-0.08436284,-0.0053844764,-0.09526289,-0.06310255,0.045894638,-0.04199569,-0.0005855374,-0.055925064,-0.017791215,0.061673563,0.035088126,0.085712634,0.092669636,0.08737373,-0.010406323,-0.063223526,0.0049426737,0.012634974,-0.07151799,0.055509463
thiolvegetal,-0.016385574,0.11884619,-0.12996936,-0.019997383,-0.045211315,0.0628925,0.072725,0.023079947,0.06002134,-0.07035477,0.09621781,0.06516433,-0.0013163537,-0.1560508,0.025172386,-0.096798375,0.04287735,-0.101962954,-0.07214046,0.020753548,0.030415159,-0.088075355,0.03332923,0.061526313,0.04253259,0.04609149,0.048017967,-0.019898985,-0.09725051,0.018865779,0.009596756,0.06462615,0.0128472615,-0.13473497,0.024732312,0.114598766,0.066603705,-0.03729513,0.02930995,0.05499894,-0.088093944,-0.029163461,-0.028915936,-0.04252211,0.051865436,0.03476534,-0.034702197,0.084125996,0.005313121,0.0068409704,-0.033067156,0.05782489,-0.07042927,0.08387109,0.028818775,-0.15062913,0.11998465,-0.005047621,0.041049547,-0.088292934,-0.012651749,0.05540405,-0.004798987,-0.059479296,0.012977531,0.011872875,-0.00071476586,-0.099195346,-0.004689291,0.08286117,-0.106704906,0.025511859,-0.012778944,0.053005926,-0.10426723,0.058062207,-0.13234288,-0.03395453,-0.11774669,-0.056062926,0.024809744,-0.015876774,0.07349934,-0.10949452,0.024606762,0.077659085,0.049227707,0.018488556,0.0462134,0.055971593,0.007480802,0.034158994,0.030469727,-0.03710997,-0.052191604,0.14134286
anise,-0.001120409,-0.0011146602,-0.08287859,0.02235739,-0.09420416,-0.12671836,0.055301894,-0.047067776,0.094023265,-0.053424362,0.06814352,0.029437514,-0.010893616,-0.020138878,0.038581073,-0.072685584,0.07803466,-0.103646964,-0.14311536,0.0732826,0.0063203126,0.07211407,0.07350807,0.12919226,0.053596213,-0.09808434,0.10795901,-0.013365989,-0.049250916,-0.088925615,0.05862783,0.05124305,0.035572015,-0.031073563,-0.0035973347,0.111116104,-0.030311998,0.042902347,0.07413441,0.08824362,0.05640488,-0.110784695,-0.0060396492,-0.008376133,0.02055234,0.04714246,-0.061774306,-0.05637408,0.07128361,0.062129878,-0.0629774,-0.008382434,-0.15135846,-0.008401251,0.09255573,-0.10946195,0.019471798,-0.07740176,0.07312308,-0.1079098,0.05636754,0.11174713,0.036407392,-0.0065427953,-0.042843245,0.059559338,-0.06533278,-0.054176986,-0.083521664,0.07853547,-0.028800085,0.018280923,0.044917926,-0.008387577,-0.13221022,0.053979956,-0.06701717,-0.010514241,-0.041558262,0.026389824,-0.015154865,0.0724871,0.025944665,-0.039894354,-0.025579209,-0.04648897,-0.10038231,0.15395817,0.011305101,0.10673919,-0.04407213,-0.034562066,0.0015226807,-0.073894665,0.0003327038,0.11512859
vanille,-0.05045685,-0.03217526,-0.106243595,-0.023861567,0.02601238,0.0055054724,0.010982231,0.056969892,0.027004445,-0.044782866,0.13028641,0.042296775,0.0002983641,0.0034457233,0.025321087,0.042082645,0.095157966,-0.025814135,-0.024340061,0.016560141,-0.0643472,-0.012880616,-0.018902631,0.045936305,0.019767959,-0.0464648,0.053166524,-0.09913818,-0.051233836,-0.055525173,-0.08828333,0.08372113,-0.047477134,-0.09931697,0.10817976,0.10656101,0.03207118,0.037947856,0.03738706,-0.0015045293,-0.006948212,-0.028118705,0.018079923,-0.0762807,0.039232083,-0.012983361,-0.08916849,0.044887315,-0.009897623,0.012296498,-0.09223861,-0.051796168,-0.026676908,0.010781964,0.0058580637,-0.023164794,0.033483572,-0.016395196,-0.006007095,-0.014746899,0.059590224,0.042697392,0.04351403,-0.039517134,0.007838639,0.08536973,-0.010224642,-0.0013641538,-0.034961812,0.11930898,0.013887433,0.017928682,-0.024283972,0.093495116,-0.1125786,-0.032255962,-0.073985144,0.03365039,0.020292202,-0.10142633,0.044902176,0.037037183,0.018529035,-0.043075193,0.0499101,-0.09243442,-0.031191347,0.10744546,0.060457483,0.020612143,0.0306996,0.014310736,0.022786368,-0.09723656,-0.09402774,0.017515413
doux,-0.019591685,0.04295986,-0.020661337,0.062364534,-0.03516309,-0.04057407,0.070834324,-0.0022514313,0.04095619,-0.0686627,0.038934957,-0.0002317846,-0.06432063,-0.094951786,0.0805357,0.04439089,0.03596857,-0.044564895,-0.053303443,0.053367674,0.03111332,-0.0042113885,-0.065854736,0.084395394,-0.031233314,-0.0128609715,0.077463135,-0.038345,-0.062008854,0.04861299,-0.019808063,0.02902016,0.03668553,-0.09125217,-0.06868462,0.10748325,0.008259006,0.05920431,0.09432189,-0.0075071338,-0.02161672,-0.0012774616,-0.0053840447,-0.010305351,-0.0009209849,0.049627043,-0.10226174,0.034280397,0.09079629,-0.047413394,0.029159898,-0.0068527237,-0.03169806,0.028980784,-0.00747584,-0.10163572,0.10816721,-0.07874052,-0.0029569212,-0.052526787,0.07321471,0.08837552,-0.07252233,0.006732715,-0.11118771,0.13916937,0.04605788,-0.09881528,-0.015006671,0.017958377,0.015468719,0.107750624,0.069652304,0.011266274,-0.06359154,0.02072347,-0.07186113,-0.0066864267,-0.0075619873,-0.12776855,-0.029195715,-0.047127277,-0.052277893,-0.015910165,-0.010678122,-0.028997596,-0.024983246,0.100938715,0.073768646,0.04623074,-0.041779988,-0.016398827,-0.018188164,0.014728102,-0.0015711179,-0.03199904
mineral,-0.0009394805,0.042568736,-0.098581806,0.025325093,-0.10286959,-0.049161833,0.038775243,-0.010866836,-0.018677937,-0.03333013,0.09523854,0.016636148,-0.03695039,-0.106141314,0.13139156,0.02370344,-0.019934952,-0.105136156,-0.08076615,-0.0007225715,-0.05988764,-0.047500834,0.015488625,0.034024533,-0.032145675,-0.1224596,0.06743752,-0.048717648,-0.033945672,0.017530954,0.04329944,0.054516584,0.004084116,-0.031141356,0.11476873,0.0037081623,-0.043220505,-0.013128884,0.03928229,0.029030178,-0.11905004,0.06479154,-0.010683535,0.0012136474,0.052331895,0.003983981,-0.07774991,0.010975234,-0.025438953,-0.030225206,-0.021651577,0.014615125,-0.14886591,0.08407651,0.0019276543,-0.014528837,0.10346906,-0.040365092,0.031297375,0.0135800475,0.033497307,0.027146988,-0.012684364,-0.023085177,-0.099302836,0.058538523,0.042319972,-0.02597683,-0.018744636,0.07605189,-0.11112727,0.050421894,-0.0042119324,-0.05035357,-0.14723437,0.06789425,-0.011050901,-0.078517824,0.002506786,-0.03511547,0.0063639544,-0.024540335,0.038126945,-0.08107201,-0.07295743,0.010258976,-0.050870486,0.06817419,0.05350555,0.09017937,-0.0211573,0.01652978,0.05503092,0.082498714,-0.1324499,0.11526923
epice,-0.056908518,0.054151163,-0.04009518,-0.08325331,-0.0057743806,0.0142141655,0.01796459,-0.04221761,0.018915731,-0.056604683,0.026195616,-0.027991403,-0.034021255,-0.029880974,0.021433942,-0.058546893,0.037372287,-0.12451571,0.0088496385,0.049010422,-0.044926677,0.003723979,-0.04053578,0.04154735,-0.032776263,-0.048634414,0.06329308,-0.10342403,-0.007202085,0.01768371,-0.0356482,0.047286153,0.07235968,-0.044343337,0.046710346,0.06572581,0.11872806,-0.06616107,0.07203376,0.0003544679,-0.1274759,-0.02129046,-0.06111359,0.04274455,0.07358631,-0.035809826,-0.082615644,0.057484176,0.09357706,0.0006980337,0.042124696,0.09752141,-0.0994942,0.043170884,0.068804935,-0.1081805,0.053911634,-0.0022055302,0.060353797,-0.00423994,0.12409792,0.057222802,-0.074618004,-0.0354078,-0.10423506,-0.040290512,0.038443897,-0.04072941,0.022978274,0.119403824,-0.010629024,0.06620894,-0.0042494014,0.038223613,-0.05596812,0.068411216,-0.050201736,-0.088404074,-0.042933304,-0.01641465,-0.028630342,-0.113639906,-0.046349,-0.038306586,0.041198976,0.0011942266,0.024636805,0.11273855,0.005596699,0.0059916675,0.06342449,0.04190242,0.018323101,0.010173555,0.019810537,0.047828477
beurre,-0.08558923,0.04726424,-0.04820656,-0.028988637,-0.022286631,0.007669369,0.033396184,0.01410388,0.085929856,-0.066705704,0.1221037,0.02305805,-0.08314197,-0.11585063,0.04960335,-0.121269874,-0.0076064803,-0.09698978,-0.04294049,0.061385367,0.083668396,0.07554463,-0.00037177652,0.059558306,-0.05903537,0.010492697,0.018010642,0.017558893,-0.025498236,-0.05640527,0.06921725,0.03700837,0.115328394,-0.05720812,-0.006148912,0.04062477,-0.0066447314,0.021867305,0.021559738,0.0051702554,0.04330479,0.005816426,0.040910967,-0.039409153,0.063473426,0.01889275,-0.0016108472,0.013349153,-0.028610181,-0.023479644,0.08193608,0.022525158,-0.11644418,0.057835247,0.06756886,-0.12854834,0.12368533,-0.08755371,0.09475197,-0.10539557,0.009155057,0.048298012,0.04937673,-0.08164677,-0.08085959,0.04365325,0.04501412,-0.02222154,-0.040953703,0.049368896,-0.01019796,0.030165358,-0.0045906194,-0.08441025,-0.06038587,0.06151241,-0.01640904,0.0074619725,-0.041741714,-0.08723884,-0.047159072,-0.04543752,-0.03868971,-0.0066272914,-0.019812193,-0.013832928,-0.040183023,0.058541827,0.098309875,0.058311634,-0.014141029,-0.06795147,0.04930405,-0.011426812,0.005651914,0.039505724
alcool,-0.07017859,-0.055963308,-0.043825973,0.058884386,-0.08530402,-0.08881785,0.07637488,-0.055631496,0.08461329,-0.011639787,0.06894923,0.07030386,0.025351623,-0.015075349,0.029936101,-0.032997653,0.06447231,-0.05821452,-0.10259236,0.020933637,0.045789827,0.11206204,0.0018909783,0.042856827,-0.03741374,-0.06895611,0.093581185,-0.04941026,-0.020727685,-0.07330115,0.016646232,0.08592555,0.08964591,0.04402983,0.04281943,0.044309534,-0.03548251,0.07145947,0.02291167,0.09590956,0.0627573,-0.099978216,-0.0048054196,0.022631811,-0.059269708,0.06747959,-0.045302972,-0.050032027,-0.006659683,0.044249788,-0.034614198,-0.004718341,-0.119290724,0.08014295,0.04094075,-0.017334003,0.10145378,-0.031066505,0.059333276,-0.057627812,0.059223477,0.031028911,0.008587955,-0.048113376,-0.09368107,0.059269205,0.06469177,0.042436913,-0.08803941,0.09175895,-0.02905668,-0.018256072,0.030173987,-0.040567115,-0.07431603,-0.011875197,0.022977348,-0.034253165,0.02842096,-0.020136649,-0.055270407,0.09058337,-0.030803628,-0.09344949,-0.029800326,0.07060535,-0.018101757,0.11217998,0.10135791,0.13972247,-0.017032687,0.00868574,0.011063559,-0.031594984,-0.015953025,0.12711991
inconnu,-0.04384991,0.0076209456,-0.04972611,-0.074121274,-0.06955351,0.06955692,0.009046745,0.012847679,0.11143212,-0.14611253,0.0612497,-0.0465438,-0.026560953,-0.032583043,0.05197132,-0.0019252896,0.038974214,-0.018461471,-0.014896441,0.0065815756,-0.04048374,0.031257153,0.0042636907,0.048598845,0.010886721,0.038470633,0.15375742,0.032092903,-0.03192363,-0.006293093,-0.100529924,0.013868328,-0.04543767,0.0308621,0.099216774,0.1428088,0.01621083,-0.016006103,-0.020465186,-0.030947117,-0.081605874,0.07437248,-0.015215594,-0.021262813,0.048935566,0.072668076,-0.06046906,0.037106615,0.061771467,0.08759086,-0.040824786,-0.018775413,-0.028013991,0.027530964,0.012421781,-0.024941988,0.016765848,0.0070563704,0.11941636,0.0647083,0.1334352,0.035836775,-0.058120705,-0.073942386,-0.047589555,0.033692192,-0.027029555,-0.0030189482,0.07620513,0.007776698,0.028503792,-0.0009308057,-0.041730233,0.06694957,-0.038205933,-0.0411051,-0.10474877,-0.034468036,-0.13606149,-0.07266377,0.06109622,-0.012616522,-0.042323217,-0.1223446,-0.034666635,-0.045426566,-0.0072112978,0.045490604,0.12168603,5.2716583e-05,0.08423254,0.06756388,0.049677506,-0.01947242,-0.060146917,0.07896325
fruitssecs,-0.08384226,0.040421862,-0.1098814,-0.083405435,-0.1346317,0.046852835,0.012883976,-0.049442295,0.12721223,-0.14040357,0.01488802,0.017217364,-0.09213178,-0.0675285,0.07044827,0.020736264,0.07221223,-0.06275073,0.024347894,0.09505125,0.0054587633,-0.076614566,-0.033091094,0.087045185,-0.03617486,-0.081385545,0.07779397,-0.13396369,-0.045709908,0.020023553,-0.061198525,0.05423481,0.050493285,-0.03854099,0.111142665,0.12289325,0.032279085,-0.009322738,0.06930333,-0.015664354,0.017613959,0.031396616,-0.048517317,-0.062007364,0.041722257,0.08738027,-0.077781275,0.008567277,0.0011911327,0.049366534,-0.044005662,-0.016310753,-0.0061552953,0.06976907,0.012550965,-0.10079904,0.009334176,-0.026978247,0.05845388,0.045338064,0.07628167,0.01971061,-0.020758964,-0.121936664,-0.06658767,0.030929407,-0.0032087476,-0.1452439,0.008392133,0.019595863,-0.028273692,0.045841776,-0.074287966,0.030601332,-0.03601811,-0.048484694,-0.07503968,-0.036739986,-0.1109034,-0.08553772,0.1154367,-0.06729018,-0.08468006,-0.020312289,-0.043041468,-0.004848156,0.04946566,0.085020415,0.12441235,0.043182436,-0.03830634,-0.005404718,0.05837997,-0.008163521,-0.04712812,0.04754723
champignon,0.016586289,0.04143251,0.0070911273,0.029451806,-0.015227111,-0.07491741,0.11175655,-0.0011677779,0.027582819,-0.055272337,0.015130807,0.020995945,-0.004445898,-0.0025494592,0.025052998,0.05106283,0.056358036,-0.038482137,-0.06289186,0.05803723,-0.05727586,0.021156186,0.016531866,0.11687769,0.03674632,-0.05340181,0.10976268,-0.016978668,0.07226932,0.044869155,-0.07203403,0.04462198,-0.02099689,-0.0007074848,0.073488325,0.10397619,0.05895084,0.018719113,0.048775222,0.12407656,-0.01973482,-0.09942074,-0.0017752275,-0.013933968,0.013712304,-0.008448679,-0.0031953258,-0.041191038,0.07557101,0.011550589,-0.0036065802,-0.02877964,-0.0011350284,-0.0023319833,0.044612363,-0.042315997,0.031089108,0.03279205,0.018369,0.043306388,0.014242037,0.07995483,0.053022623,-0.05051344,-0.09896466,0.0060804747,-0.029243836,-0.060250513,-0.0073109968,0.048863664,-0.11790191,0.033159465,0.065455616,0.066837534,-0.1370787,0.020565948,-0.108829156,0.022607008,-0.04681711,-0.008385803,-0.037252724,-0.07074868,-0.017918171,-0.021838102,-0.073971674,-0.035576876,-0.08513297,0.08638933,0.0294277,-0.027428111,-0.019516576,-0.03680428,0.005164504,-0.059470765,-0.08731086,0.13159013
vegetalsec,-0.0030594189,0.0871849,-0.03783152,-0.1183261,-0.060736924,-0.056647573,-0.008732405,0.082050994,0.0038700756,-0.11511427,0.13425015,0.07271516,0.011940444,-0.004038831,0.050118834,-0.06480293,0.09850192,-0.07875503,-0.04083053,-0.04128801,0.00603732,0.07019439,0.027299378,-0.041318443,0.015254505,0.054700963,0.0023387615,0.028186237,-0.047825158,0.043635722,-0.058350112,0.023783233,0.0033409111,0.009324339,-0.034149073,0.057929464,0.0061487826,-0.035075914,0.03211292,-0.071072444,-0.026138652,-0.074701026,0.010077687,-0.024860784,0.0302914,0.076962695,0.02146167,-0.010749733,0.04603232,-0.061180394,0.012885777,0.06619488,-0.085013285,0.01073882,-0.037288137,-0.057565324,0.066918895,0.029585974,0.009951372,0.0112107415,-0.036908943,-0.003763508,0.0001985561,-0.06769758,-0.019230824,0.043524686,-0.016305564,-0.10227628,0.054848015,0.12282787,0.01963681,0.009825502,-0.008954184,0.031157218,-0.046286516,-0.035765722,-0.069039136,-0.07888283,-0.038289323,-0.04029849,0.03250953,0.006173767,-0.0075339936,-0.047378838,0.0274041,-0.00017857179,0.025495715,0.09660502,0.016637666,-0.008584403,-0.0024751434,0.056693245,0.034694374,-0.05104751,-0.06437568,0.03713558
floral,-0.076622866,0.072871625,-0.1027925,-0.047039278,0.009146785,-0.040691473,0.029589657,-0.010308518,0.05183594,-0.040937856,0.07495341,0.09949707,-0.0614616,-0.105782114,-0.011592504,-0.091336206,0.042748474,-0.047935016,-0.03392718,0.051951025,-0.016927518,0.07558717,-0.063414484,0.04304925,0.03937527,-0.10515818,0.11430545,-0.05374488,-0.08051482,-0.037829712,0.032880355,0.030404381,0.0029124059,-0.009056937,0.03405977,0.027339272,0.0066207126,0.019039482,0.042776868,0.033944204,-0.028057884,-0.0012714714,0.007381162,0.05333721,0.05994349,0.047692824,-0.050393496,0.023798572,0.00086026825,-0.012128073,0.03305317,-0.07017575,-0.028615154,0.07207165,0.074332885,-0.052729245,0.08431393,-0.105256885,0.028023228,-0.10191712,0.0038740914,0.11454295,0.064172894,-0.10726591,-0.052410666,0.11745625,-0.059430137,-0.092102796,-0.035778783,0.03418297,-0.033007693,0.014561426,-0.003605852,-0.037551064,-0.015678542,0.012714805,-0.035569977,0.013817096,-0.05046382,0.027170528,-0.0054752845,0.029241245,-0.07813071,-0.040302854,-0.06634605,0.0366138,0.010352041,0.012083646,0.050969444,0.116693445,0.0071664117,-0.03196931,0.0062304884,-0.035370525,-0.008872159,0.06120416
géranium,-0.045659423,0.07497397,-0.010941675,-0.034468316,-0.06349766,-0.005802464,0.097866364,-0.020687146,0.011110161,-0.06896516,0.040029578,0.015909333,0.015520823,-0.07251987,0.055186704,0.0055960286,0.027504154,-0.072450146,-0.062763005,0.10477805,-0.08253677,0.011499567,0.005904272,0.03624056,0.008402238,-0.04828452,0.082613066,-0.05177319,0.031564303,0.00024673739,0.0015534703,0.009397078,0.028161764,0.02225243,0.08905965,0.05497497,0.087442815,0.010589577,0.06222143,0.07881041,-0.056603573,-0.035232075,-0.011956883,-0.016239474,0.008666389,-0.0400972,-0.10508971,0.048106536,0.08581233,0.04753475,-0.07421753,0.006174527,-0.119919285,-0.013281631,0.033313707,-0.07369285,0.008862095,0.06693177,0.043699693,0.067360505,0.11521,0.054632805,0.025863953,-0.03682539,-0.116307855,0.047983997,-0.053295095,0.0061603934,-0.021666825,0.015739327,-0.12274798,0.047837704,0.01105118,0.008959533,-0.06641967,0.10481287,-0.07778017,-0.056769826,-0.08834043,-0.09133515,-0.05790049,-0.068120494,0.08970308,-0.08237667,-0.010256177,-0.084986754,0.064273424,0.07078605,0.047528673,-0.03366217,0.020150652,-0.08263689,-0.028610444,0.013816943,-0.089440055,-0.023371577
empyreumatique,-0.118909076,0.07708192,-0.008345911,0.02478437,-0.03166101,-0.0071779564,0.1279553,0.0017814673,0.047280036,-0.015977398,0.019185832,0.014710215,-0.032095686,-0.05527144,0.020871595,-0.05277005,0.038719743,-0.090674154,-0.052307643,0.060582593,0.0030137803,0.008175023,0.07526015,0.027404541,-0.012164295,0.018447941,0.01973766,-0.05655575,0.02280802,0.016166352,-0.07012111,0.12631962,-0.003232698,-0.036425512,0.042880155,-0.026053675,0.019683838,-0.036125083,-0.008196102,0.039172433,-0.06494062,-0.028729692,0.026288543,-0.058076926,-0.05113145,0.013507817,-0.094044924,-0.036489014,-0.0193762,-0.020951118,-0.09273021,0.006618861,-0.00970473,0.096188314,-0.03349376,-0.034830175,0.098166734,-0.057216942,0.04175829,0.03109432,0.06744086,0.070424885,-0.028710954,-0.0844866,-0.08338081,0.0395922,0.055366382,-0.07091407,-0.010832027,0.06964968,0.016947191,0.046190243,-0.045440197,0.037620153,-0.054764815,0.09280373,-0.01444128,0.0029495405,0.030200033,-0.044634454,0.07048114,-0.043621823,0.08894223,-0.1388328,-0.01801248,-0.013877269,0.01698032,0.112122074,0.10645068,-0.005088985,-0.07375462,0.019301895,-0.014824876,-0.034019332,-0.070769295,3.060978e-05
chimique,-0.058853447,-0.009085773,-0.07961269,-0.017193846,-0.0067270845,-0.079688124,0.023667336,-0.031211328,0.021990253,-0.05976294,0.04697994,0.04743336,0.010836832,-0.020929784,0.003241092,0.023846237,0.0015547025,-0.04365196,-0.05486664,-0.011079606,-0.019644197,0.03852068,0.006492023,0.086554125,-0.060508534,-0.08197728,0.12978162,-0.1000409,-0.018879391,-0.06131629,0.04825554,0.04748871,0.035410758,0.024289437,0.080492795,-0.01713454,-0.010170601,-0.012592563,0.027948515,0.030383322,-0.03098847,0.022542404,0.035580765,-0.0064133517,0.06098987,-0.0041575367,-0.033793684,0.0069057904,0.044278488,-0.008904342,-0.058497507,0.085021645,-0.08743396,0.019973041,-0.0015046336,-0.011935251,0.05770976,0.026626233,0.0758419,0.00925849,0.040880717,0.0626752,-0.011253612,-0.031612344,-0.059533436,-0.0044902517,0.04704238,0.021193128,-0.08444788,-0.012815916,-0.09049517,0.06365078,0.03197375,-0.012700145,-0.06257299,0.08270417,0.027353,-0.07939211,-0.039076954,0.027108729,-0.099486575,0.0027249265,0.062511034,-0.012417929,-0.040687166,0.017650679,0.023455374,0.08045467,0.042417526,0.0040464643,-0.06699569,-0.066845655,0.08620043,0.03796627,-0.059574522,0.0626868
autre,-0.04419616,-0.022415733,-0.050499316,0.07281639,-0.040973097,-0.09618141,0.058016144,0.05898426,0.050423987,-0.04476744,-0.0009076148,0.02272653,-0.05785474,-0.05072251,0.029243607,-0.01937455,-0.0064755157,0.04706699,-0.027175883,0.09511581,0.011515794,0.025287151,-0.049693286,0.0072036562,-0.00445694,0.008153672,0.0036146995,-0.045244057,-0.03390627,0.03349239,-0.081408255,0.07743292,0.09128137,-0.043744393,-0.048396572,0.043687075,-0.07067783,-0.0578741,0.01832541,0.072261915,0.05471969,-0.012941953,0.049685877,0.0651667,0.010516627,0.10875261,-0.0063750613,-0.0018907961,0.031785097,-0.015434664,0.010352391,0.0009266399,-0.03472529,0.01160383,0.019404171,0.01173905,0.0637268,-0.02524283,0.04237932,-0.018166553,0.090590306,0.00072893035,-0.034890946,0.00790553,-0.022909855,0.06728588,0.06098059,-0.037005983,-0.08745411,0.009723734,-0.033118427,0.1389111,0.03819128,0.035180975,-0.07876499,0.02152687,-0.018702803,0.05842091,0.0021310784,-0.056036547,0.00941115,-0.052175466,-0.06454817,0.042745315,-0.061099738,0.04007377,-0.008951984,0.027640548,-0.0019533029,0.1309079,-0.034865446,-0.10660064,-0.008090844,-0.061479267,-0.029700942,7.2766095e-05
rose,-0.07731681,0.016301438,-0.03266983,-0.053809617,-0.058017936,-0.033504162,-0.04821164,-0.0045316443,0.039580762,-0.053159446,0.074868456,-0.036178775,-0.10752856,-0.040308215,-0.006836865,-0.01564027,0.012994054,-0.025302496,0.028375925,0.011068661,-0.020740675,-0.057361025,-0.00955924,0.062253676,-0.0025087558,-0.005283579,0.04658813,0.03100745,-0.07960815,0.008957617,-0.046100438,0.117784336,-0.0027126465,0.066696405,0.11849022,0.051567577,0.010904677,-0.00093616545,-0.025640307,-0.0670806,0.0024808021,0.05261396,0.051889103,-0.0125077,0.1050587,0.0814316,-0.068592824,-0.044818036,0.12048599,0.011280711,-0.028179165,0.014605388,-0.07641831,-0.033294726,0.020564785,-0.03730821,-0.011871911,-0.057591863,0.11691369,-0.05067104,-0.002353537,0.03793803,-0.005050553,-0.05819305,-0.09499361,-0.029482657,0.03729537,-0.117073506,0.060282543,0.034697607,0.010250296,0.07734303,0.016741566,0.025599053,-0.035703167,-0.057325408,-0.089150265,0.0005099913,-0.07984634,-0.022730686,0.07668025,-0.030006956,0.0070336834,-0.09591322,-0.040689964,0.049155604,0.07612339,-0.047061786,0.055228435,0.0147937285,0.040177062,0.0007914668,-0.015651697,-0.06043548,-0.0716241,0.028915234
noyaudecerise,-0.08247462,0.09542905,-0.0818615,-0.04657239,0.009428488,0.06174595,0.0043944865,0.07112157,0.02582773,-0.075693406,-0.02456079,-0.005223099,0.0058862977,-0.08792365,0.08947942,0.03358329,0.0054629277,-0.046734847,-0.071239024,0.0169118,-0.008536905,-0.07467222,0.09022835,0.04635434,0.077758774,-0.03684028,-0.0031113252,-0.055281878,-0.06546479,0.09909344,0.043584984,0.08642143,-0.042433508,-0.0022370447,0.045434967,0.03589216,-0.04862102,0.008756485,0.08938699,-0.014031814,0.002387276,0.02093706,-0.045454267,-0.035869338,-0.025781289,0.025639761,-0.079110876,0.07033436,0.049287528,-0.060584676,0.0059715584,-0.057203315,-0.053933643,-0.0012853853,0.042796265,-0.04308495,0.03734523,-0.06788227,0.025887677,-0.06720675,-0.03675342,0.070315,-0.050247118,-0.021585442,-0.027868256,0.00831951,-0.0170696,-0.0495109,-0.067254215,0.023338946,-0.1080385,0.027757077,-0.06108942,-0.004510477,-0.03652431,0.002663277,-0.06737262,-0.014887301,-0.07376669,-0.061135583,0.058264222,-0.08817519,-0.052654956,-0.09482118,0.02815236,-0.009029955,0.04650695,0.044742923,0.05235158,0.108664416,0.033980303,-0.014812574,-0.094342366,0.03541389,-0.07992292,0.10933431
agrumes,-0.049536437,0.0040921224,-0.07188888,-0.03668411,0.022988237,-0.030586889,0.0363724,-0.002163622,-0.008639261,-0.033964995,-0.0076073622,-0.04630517,-0.045243062,0.009732619,0.014061131,-0.029124944,0.03034455,0.012142992,0.0074929576,0.038287785,-0.054114215,0.021987502,-0.02981082,-0.013540721,0.027808726,-0.033277694,0.003925087,0.013384903,0.03226993,0.0012601055,0.066808894,0.13134485,0.04814843,-0.046682697,-0.013961371,0.05439587,0.03909172,-0.03681408,0.10454401,-0.02088948,-0.03872552,-0.050169777,0.0080544045,0.051502086,0.030230237,-0.09639973,0.010405703,-0.009876186,0.0829768,-0.08122998,-0.019450117,0.022671327,-0.10131138,-0.025262157,0.023915539,-0.027923409,0.08358963,0.055211782,0.07947125,-0.027274542,0.03816455,0.022125283,0.00069598574,-0.062511064,-0.06245731,-0.005397395,0.056755073,0.021529596,-0.0021031927,0.03430917,0.015721938,0.052992698,-0.025129667,0.058412954,0.010139816,0.055796053,0.024429247,-0.031634204,0.010471651,-0.08313657,-0.052207597,-0.05712028,-0.048957348,-0.09265342,-0.010508964,0.019369913,-0.06611247,0.09296563,-0.026654417,-0.016673246,0.011402264,0.057311527,0.051386498,0.0608114,0.01259478,0.05728197
lactone,-0.042712975,-0.004314868,-0.020321762,-0.06845679,0.004454946,-0.035805155,0.0048651174,0.020371286,0.050804432,-0.055060007,0.11783706,0.000905967,-0.025089674,-0.090110734,0.047312535,0.07724777,-0.022546522,-0.045604333,0.05039161,0.046872027,-0.06222956,0.046436176,0.09255277,-0.039755154,0.03714821,0.0073339697,0.019336224,-0.077549204,-0.030332657,-0.029818147,0.0009424817,0.07234515,-0.012760056,-0.032361258,0.01487364,0.10578092,0.04250381,-0.006870592,0.09549594,0.0054786876,-0.12683296,0.040486123,0.035232563,-0.07526921,-0.0039749965,0.012764644,-0.12139617,0.061671957,0.01064245,-0.040975362,-0.028266639,0.032993592,-0.12809011,-0.05774922,0.06962474,-0.0660887,0.017642256,-0.026907666,-0.0244624,0.0018469263,0.022725476,0.022969166,-0.05489918,-0.065115295,0.021087663,-0.019157214,0.056891464,-0.08101639,0.014443178,0.08501235,-0.05173534,0.042692143,-0.07444628,0.056174435,-0.13705784,-0.0042333193,-0.11825048,-0.07563085,-0.014314671,0.038294356,0.10210905,-0.030502021,-0.02937635,-0.01983422,-0.051094465,-0.07273311,-0.041540645,0.021424904,0.05063404,0.052850924,0.031535983,0.07324274,-0.007820528,-0.044866286,0.014224483,0.11544685
fruitsnoirs,-0.047436424,0.027817445,-0.032587554,0.056118123,-0.024214786,0.031272683,-0.0065841777,-0.0067161117,0.025881257,-0.037989877,0.013258273,0.09147881,-0.009757892,0.0180808,0.023427498,-0.011973595,0.027258065,-0.1076074,0.04093888,0.08711441,-0.015498575,0.015635945,0.021128552,0.07423258,0.04144631,0.012418088,0.031277142,-0.081851095,-0.015162256,0.063995495,0.044145465,0.030897956,0.01624962,-0.057709638,-0.03929583,0.07957262,-0.046572663,-0.03364714,-0.0008534519,0.061432805,-0.081937045,-0.074806556,-0.016553808,-0.090389684,0.09242601,0.074509814,-0.04817414,0.0650172,0.02036529,-0.00847194,0.021502744,0.05390205,-0.054236982,0.032383516,0.031173319,-0.035035133,0.065158546,0.0044722296,0.018966258,-0.03963609,0.089907676,0.06831555,-0.014994182,-0.01575716,-0.0609812,0.036107633,0.036423564,-0.0359269,0.03424607,-0.007703614,0.010479407,0.038459513,-0.007529121,0.004514929,-0.047148127,0.054103754,-0.009860814,0.029504867,-0.022264928,0.012958948,0.02550028,-0.0021800792,-0.02687434,-0.086715564,0.03919739,0.074545495,0.07917813,0.105413415,0.11166692,0.020383175,0.042805683,-0.075898856,0.02981458,0.0042915083,-0.029456623,0.023018654
levure,-0.12982875,0.027590856,-0.06892692,-0.07907996,-0.017860595,0.038484838,0.013733217,-0.014170203,0.1177823,-0.08090656,0.0842771,0.049299374,0.005717106,0.00532086,0.024354607,-0.014825907,0.03769305,-0.060701966,-0.00467328,0.026812892,-0.09313859,-0.05962815,0.08462313,0.057125676,0.022405842,-0.017613396,0.038919594,0.0140234055,-0.050727822,0.03830855,-0.019226491,0.098478675,0.07151481,0.046523023,-0.005410211,0.03566914,0.04674715,-0.039140873,0.09482302,-0.01698776,-0.029317081,0.03833297,-0.038337193,-0.03343912,0.015625209,0.04131968,-0.10361293,0.08271955,0.08868176,-0.006501455,0.0666845,-0.0017313748,-0.03831079,0.023410637,0.045540188,-0.088837765,0.030762661,0.031385615,0.05699021,-0.020041492,0.11123246,0.09073023,-0.06787511,-0.031143222,-0.019695813,-0.0036606416,0.030865317,-0.10577576,0.033536136,0.026191765,0.023781447,0.11105455,0.029021315,-0.02815324,-0.071023226,-0.02156163,-0.04266752,0.035889685,-0.06885895,-0.066793025,0.065569974,0.01577355,0.0104946755,0.012943804,-0.048718702,0.05835556,0.018063333,-0.02814151,0.058226548,0.01705018,0.029861862,-0.011260979,-0.05066031,-0.0029085502,-0.033799145,0.016093615
métallique,-0.0087786615,0.005407475,-0.03681026,0.0014003301,-0.053994324,-0.019395402,-0.06981352,-0.05067813,0.07294569,0.008896223,0.12522739,0.050810743,-0.01979557,-0.05309602,0.04789889,-0.0746853,0.015950795,-0.047428347,0.017845822,-0.023446856,0.026001766,-0.031138897,0.10990346,0.079514496,-0.023580357,0.01617843,0.09273577,-0.09628572,0.0012645368,0.017430421,-0.017657332,0.08693096,0.040293366,-0.038178362,-0.024799794,0.030718926,0.025478244,-0.0019296464,-0.0014384948,-0.066825934,-0.023810111,-0.03647125,0.0652458,0.030472623,0.047236435,0.01731769,0.0049567334,-0.02775096,0.08560358,0.007282322,-0.009589555,0.0066948235,-0.04196919,0.04258147,0.04350492,-0.020620812,0.1007595,-0.09580566,0.064117864,-0.048701804,0.0069159325,0.016571179,-0.038140766,-0.053030673,-0.05510584,0.04715718,0.041916944,-0.04911107,0.023266435,0.11710526,-0.06843926,0.008967228,-0.043662664,0.06348656,-0.032288596,0.06795136,-0.034140024,-0.0037339358,-0.03069098,-0.030063825,0.012301188,-0.020891994,-0.040997535,0.037649475,-0.03360446,0.065443434,-0.03847587,0.067416824,0.023204885,-0.004986648,0.02245085,-0.044884227,-0.0033890142,-0.014461568,0.011724679,0.025272727
ànoyaux,0.037347026,0.071360156,-0.037332676,0.07174697,0.022253005,-0.07422604,0.012299126,0.011259234,0.080157444,-0.05114384,-0.008794043,-0.03291993,0.008104547,0.022660978,0.0077364505,-0.06285228,-0.0033968873,-0.08594325,-0.055091675,0.06743646,0.021938795,-0.025445256,-0.050890557,0.03046934,0.08421834,-0.08989237,0.09017523,-0.07541355,0.056569483,0.01053461,0.0042221304,0.05352566,0.065853894,-0.0048352424,0.041009396,0.054103762,0.08982,0.0652626,0.0006469269,0.06882984,-0.036058266,-0.09310034,-0.044294532,-0.014528323,-0.011634148,0.044846404,-0.07938003,-0.041168526,0.0369962,0.03360718,-0.019316059,-0.07414234,-0.011707461,-0.08779131,0.032510042,-0.056970652,-0.02961109,0.013933809,-0.013536458,0.0210568,0.031256963,0.06834097,-0.023138238,-0.052614,-0.01838488,0.009264417,0.019028513,-0.006801484,0.0058588404,0.07529934,0.0086452775,0.0070515834,0.05482898,0.06343173,0.004362947,0.03301104,-0.04527706,-0.06310138,-0.022358093,0.050735164,0.03917632,0.006297987,-0.02010448,0.0039953045,-0.020133615,0.05397619,-0.10620724,0.09788482,-0.0077752527,-0.017189734,0.030600473,0.018900387,-0.024309523,-0.0817078,0.025105692,0.1388479
animal,-0.06256248,-0.00843372,-0.070708275,0.0035782568,0.04303389,-0.046098582,0.0058204457,0.047955003,0.0390361,-0.036476042,-0.0019662213,-0.060033236,-0.0077484557,-0.06632259,0.08385067,0.007526806,-0.023521513,-0.102888584,-0.06267622,0.11253393,0.035845354,-0.0068493914,-0.03908497,-0.022236437,-0.08790647,-0.08237138,0.02374654,-0.09516361,0.015267268,-0.054837562,0.015785543,0.00367425,0.055487067,-0.026313376,-0.012919465,0.0464969,0.018701969,-0.04679148,-0.0021083169,0.088657424,-0.026131418,-0.08723366,-0.09067784,0.04866646,-0.048425354,0.029082945,-0.11809756,-0.054620177,-0.04484966,0.02071078,0.0018453076,0.049850125,-0.08431149,-0.047057442,-0.013750465,-0.0919234,-0.024539998,0.014589522,0.021022726,0.031158263,0.049759526,0.07384354,-0.04297591,-0.05911254,-0.06738848,0.039112207,-0.04508919,0.015957937,-0.096207574,0.05185574,-0.014323838,0.05341307,0.02823365,-0.06213881,-0.022294225,0.023192296,-0.039839998,0.019821556,0.053386845,0.022178149,0.037324708,-0.0077488963,0.028472574,0.020025223,-0.05587702,0.055635855,-0.03528565,0.08484855,0.032466456,0.0008122362,0.03490679,0.044867255,-0.03010525,-0.013262326,0.07230534,0.036325753
malte,-0.008283066,0.039535433,-0.068236135,0.016235175,0.029645432,-0.056279138,0.016618047,0.016769508,0.064525016,-0.11752873,-0.028955217,-0.048022814,-0.04018104,-0.09230281,0.0339769,-0.051231142,-0.011824947,-0.035837386,0.0024295766,0.07209137,-0.03815437,-0.034186903,-0.014922278,-0.02228848,-0.001660022,-0.03328754,0.019815132,-0.0651792,-0.085713625,0.09996483,0.010743801,0.058986016,0.023864543,-0.07366387,-0.046953946,0.0300741,0.04348872,0.0222608,-0.016747557,0.06237389,-0.08828059,-0.0066865627,-0.07498999,-0.015370431,-0.042193048,-0.029099334,-0.058004417,0.0030148157,0.033527695,0.055997506,0.023309398,-0.0071610473,-0.0429797,-0.064897366,0.019670585,-0.12771763,0.036172368,0.069202185,-0.03840068,-0.011176649,-0.01363644,0.010843467,-0.12995312,-0.08252026,-0.004965417,-0.05329468,-0.025345536,0.026876044,-0.09858259,0.096910775,-0.040029615,-0.02323439,-0.033486012,-0.052268773,0.060026616,0.08023495,-0.030825827,0.058232997,-0.03160614,-0.051620793,0.08907766,-0.065162465,-0.029132497,0.029028477,-0.010271538,-0.03980644,0.0035811495,-0.0048668464,-0.0129147805,0.031717494,0.0010155253,-0.0010914619,-0.055957943,-0.03098201,0.02333964,0.042238623
amandeamère,-0.022218768,-0.025845367,-0.018247608,0.07980749,-0.094913475,-0.12440348,-0.03190815,-0.099631816,-0.010422852,-0.030121671,0.07253481,0.055035938,0.00094758347,-0.09079464,0.023570845,0.06771371,0.04500855,-0.11711173,-7.13123e-05,0.04784524,-0.03805372,-0.02086511,0.027786247,0.027460886,0.031046037,-0.018623788,0.08023735,-0.042654153,-0.061895333,0.0420474,0.051905703,0.054066613,0.018243402,-0.03982637,0.022953808,0.05092757,0.037898533,-0.019005438,0.08182648,0.033984724,-0.058141954,-0.0141261155,-0.00018487126,0.025885344,0.07889497,0.098987356,-0.06841958,-0.0017889274,0.04210625,0.108165726,-0.042588837,-0.00543838,-0.093161605,-0.014463039,0.047911298,-0.0728651,-0.035442464,-0.066440895,-0.008740239,-0.04814325,0.03915549,0.042827383,0.017107714,-0.09945345,-0.025217446,0.06029353,0.00964055,-0.0687588,-0.04189564,8.489005e-05,-0.112515636,0.015647702,0.093758896,-0.011317758,-0.07986982,0.055423778,-0.034921423,-0.04500313,0.02891479,0.012739793,0.032356504,-0.0031786622,0.0056002364,-0.038292855,-0.004022237,-0.069199935,-0.07357529,0.09080369,0.062375747,0.0338185,-0.1099263,0.026368955,-0.04771074,-0.092001915,-0.02116759,-0.0104274945
fruitsexotiques,-0.053712495,0.0934168,-0.010214798,0.046436355,-0.12875807,-0.03661271,0.04842992,0.034610778,-0.024880271,-0.0126916375,0.033735864,0.055280313,0.03950667,-0.040306807,0.029063426,-0.0097926315,0.06238132,-0.0010066256,0.044494677,-0.0007016845,0.0335819,0.08922599,0.0054310244,-0.023079313,0.04064169,0.012504512,-0.050260678,0.012823738,-0.06879501,0.0014361497,-0.023967747,-0.013098173,0.034922205,0.07421413,0.026285606,0.06520538,0.0024971478,0.05505818,0.019858573,0.009437848,-0.06778863,0.0217289,0.062448107,-0.006316403,-0.07383752,0.05277321,-0.03382834,0.021166015,0.05492909,0.0010592341,-0.04641927,-0.011786461,-0.10448243,-0.022822097,0.054146446,-0.0415907,-0.02372936,-0.041711017,0.05371096,-0.040213548,0.06679294,0.038740892,-0.03571349,0.027000424,-0.06232864,0.08381807,0.016030665,-0.085372284,-0.09803264,-0.06231987,0.008740775,0.07322702,-0.036782827,0.07642123,-0.05083344,0.059714075,-0.033472776,-0.0042428626,-0.009700732,-0.0019044746,0.0069639236,-0.037104648,-0.02412509,-0.07639125,-0.03453669,0.07856016,-0.014371919,0.09820792,0.010395843,0.04231107,0.026605505,-0.017268691,-0.016428247,-0.027816746,-0.05148937,-0.05744814
boise,-0.023754386,0.013317226,-0.051242195,-0.03211067,-0.03588984,-0.032216925,0.021291256,-0.08330047,0.1240561,-0.107471526,-0.053727265,-0.004614204,-0.021092348,0.00505948,0.034921452,0.051753044,-0.032238506,-0.013297426,0.00939849,0.05495055,0.03772898,0.015761146,0.000701403,0.020432623,0.0028839745,-0.07889666,0.090098426,-0.033026952,0.022899885,0.0674433,-0.07675296,0.044579875,0.054882582,0.017814577,0.0018454641,0.045956742,-0.05277284,0.008294584,0.060262237,0.08623756,-0.0032239351,0.026015228,-0.043255653,0.0017038658,-0.09081858,0.08627293,-0.10868332,0.08541848,-0.0625896,-0.0023574606,-0.0013202578,-0.020934766,-0.06964324,0.019481752,0.07786625,-0.031235298,0.0744993,-0.019231202,-0.0031706672,-0.05223792,0.04530079,0.03958967,0.06643531,-0.059473958,-0.09264928,0.053683154,0.011901034,-0.050813213,-0.05890882,0.02705882,-0.04765594,0.04421825,-0.09745603,-0.027734801,0.027072879,-0.013793014,-0.054769132,-0.08058959,-0.026017632,-0.114329055,-0.017680742,-0.034851752,-0.083020434,-0.09893516,-0.010273071,0.05948592,0.03945966,-0.010956738,0.010423149,0.08950602,0.054941304,0.026003528,0.025412107,0.027355451,-0.07414268,-0.036136556
soufre,-0.024690844,-0.0062875543,-0.07707471,-0.07628849,-0.08393319,-0.025649205,-0.05238547,0.00039427355,-0.066329606,-0.07438105,0.034552425,0.07333173,0.008537585,-0.034085326,-0.0032174625,-0.017609522,-0.010396777,-0.037592825,-0.058326684,0.09433795,0.00494833,-0.04843667,0.013817456,-0.03904396,0.066258155,0.027934741,-0.0133110825,-0.011468766,-0.028404498,0.010620259,-0.03781428,0.04909698,-0.0432342,0.019803042,0.05438806,0.02846793,-0.012072563,0.021270767,0.073461816,-0.05202926,-0.06922643,0.008164021,0.0042871144,-0.04218836,0.062347688,-0.024923354,-0.01818185,0.034104902,0.05363092,-0.018646918,-0.04915766,-0.019217283,-0.104596764,0.004653697,0.019530036,-0.020964336,0.091837294,-0.10447948,0.024082009,-0.049522415,-0.00484775,0.09220758,-0.06171776,0.046652615,-0.003213089,-0.0114275925,-0.040426195,0.023250546,0.08243307,0.03155248,0.015159357,-0.009199649,-0.047097072,0.05101169,-0.0641681,-0.042077273,-0.0446664,-0.015781332,-0.0340081,-0.07802193,0.019170992,-0.023385994,-0.054721072,0.010702877,-0.01868307,0.08322875,0.05177164,-0.00036396738,0.03213796,-0.054373957,0.07091808,0.0033878293,-0.092585,-0.054296546,0.030754065,0.053539243
fruitscuits,-0.07357062,0.06447561,-0.07858685,0.0061906055,-0.028730355,0.011259772,0.05278295,0.010991432,-0.015651798,-0.035561353,0.038253054,-0.044608124,-0.027001837,-0.02824364,0.013784509,-0.0065496806,-0.018133689,-0.061179888,-0.10183555,-0.047213383,-0.030198824,-0.083709896,0.004575962,0.004786513,-0.01717569,-0.06874319,0.06976863,-0.020194683,-0.018494204,-0.090107046,0.0525146,0.044905066,0.070579015,0.00024221861,0.04996427,0.06615173,0.009147976,0.03288406,0.107028246,-0.014527703,-0.024074338,-0.07399042,-0.042051904,-0.029983828,0.081827864,-0.04808241,-0.047705956,-0.035722524,0.049096268,-0.011150327,-0.020172298,0.0709412,-0.04172586,-0.040928967,-0.06350827,-0.016210308,0.040763397,-0.067034855,-0.019309627,0.00813039,0.07754383,0.030041128,-0.049716517,0.020069677,-0.0366956,0.015658636,-0.077015534,-0.07520738,-0.09708731,0.12939256,-0.11665873,0.008483397,-0.01701445,0.052663267,-0.03965595,0.063653365,-0.035067007,-0.021566294,-0.036910623,0.01778779,0.06062054,0.011301173,0.01720298,-0.08925606,-0.06413405,-0.092386365,-0.06359136,0.056958556,0.027002834,0.017603837,-0.012282349,0.02999499,-0.02348447,-0.04545427,0.016473843,0.058286592
amylique,-0.020514866,0.064716436,-0.025410682,-0.0047818217,-0.05179353,-0.059375137,-0.07227874,0.053031027,0.08866376,-0.018203069,-0.013045448,0.04282374,-0.044781793,0.008688344,0.012925383,0.013437437,-0.0076452987,-0.038765788,-0.010519647,0.07170041,-0.014671467,0.010814687,0.017398335,0.06848582,0.030932754,-0.027988466,-0.0008152304,-0.08529087,-0.041047733,-0.04494779,0.014596393,0.06397378,0.018544862,-0.029387543,0.0029912698,-0.02491565,-0.0055234656,0.044051193,0.06640235,-0.012650538,-0.014068561,-0.018028319,0.0220524,0.029314933,0.06701188,-0.011031621,0.027172983,-0.016965369,0.006140426,-0.05025537,-0.0060015544,-0.030805673,-0.04782546,-0.0011800304,0.0319649,-0.037151977,0.09070013,-0.048789367,0.008395076,-0.03329808,-0.031823397,0.04717493,-0.020421484,-0.048466623,-0.062141195,0.0019964688,0.019207153,0.015815267,0.057014257,0.06702994,-0.019594928,-0.0009155441,0.027738705,-0.022161305,0.038406614,-0.021410827,-0.047301266,-0.016565736,-0.05927499,-0.005964876,0.036128785,-0.052212134,-0.02690384,-0.017589932,-0.01401517,0.04784266,0.028641786,0.016005779,-0.020719986,-0.026860708,-0.021630127,-0.06253816,0.061766442,-0.052983858,-0.06424549,-0.051208578
caramel,-0.045544088,0.026604658,-0.04686053,0.00743786,-0.095427826,0.024860155,0.029430825,0.069245234,0.08114138,-0.08859777,0.046435088,-0.037332173,-0.059037544,-0.08354406,0.027991632,0.04488687,0.047564737,-0.018082192,-0.036536317,0.05393849,0.01616881,0.01742466,0.009030152,0.08264279,-0.04050634,-0.043807324,0.092942655,-0.0077326987,-0.03348956,-0.06510032,-0.059428222,-0.032450404,-0.023039807,0.04476057,0.12460911,-0.005948129,0.009155896,-0.01997804,0.09081444,-0.012266535,-0.042594753,0.015081378,0.04620952,0.03273817,0.0309892,0.08642131,-0.04109437,-0.017510742,0.0671845,0.095460996,-0.07123749,-0.0034042895,0.006927708,0.013726759,-0.018626101,0.027129421,0.06886558,0.016142728,0.0009685792,0.007677367,0.08190099,0.025539452,-0.1060515,0.020333966,-0.010667564,0.08439798,-0.020900873,0.03689713,0.0048585683,0.112634555,-0.034600884,0.061991252,-0.0327561,0.03052152,-0.008609457,-0.0057590073,-0.07570931,0.036683958,-0.11584264,-0.07081884,0.026621008,0.003045449,0.0033843871,-0.030144906,0.02565465,0.0422913,0.00045452267,0.06730674,0.01762408,-0.0005081482,-0.008314954,0.031092396,0.002252899,-0.07232882,0.001035314,0.02199645
vinaigre,-0.0038615689,-0.055088,-0.073382795,-0.035631232,0.01714488,0.051337063,0.043371867,0.017276358,0.06356393,-0.032140825,0.03470605,-0.0020976588,-0.026158419,-0.0051458515,0.03806659,0.03332468,0.016809473,-0.053988248,-0.0015488081,-0.036095213,0.04198938,0.0338915,-0.055689454,0.034671918,-0.039631106,-0.004467547,-0.036236964,0.000113572925,-0.0017657094,-0.03786645,0.02359181,0.027276993,0.020135295,0.026015617,0.010951664,-0.0008308813,-0.00867426,0.005854998,0.025445,-0.007963039,-0.029301448,0.008709339,-0.0421681,0.0058839647,0.06502087,0.07689556,-0.029994871,0.0055151414,0.026483633,0.018959662,-0.041581895,-0.022195306,-0.01823698,0.052339416,0.013913197,0.017718773,-0.008501228,-0.08885309,-0.042748697,-0.019594256,0.059750777,-0.03129816,-0.008326856,0.010305971,-0.035717927,0.0961941,-0.037425574,-0.0126228295,-0.075155005,0.0054581007,0.047641754,-0.07961474,-0.006281227,-0.027610414,-0.0070045087,-0.024233917,-0.044757824,0.05170948,-0.014608394,-0.016211828,-0.0322256,-0.031072471,-0.062669024,-0.07815993,0.05364477,-0.0035166438,0.041951023,0.037664033,0.059170444,0.0073336344,-0.08543452,0.043339837,0.059317935,-0.08053889,-0.016825404,0.025238521
fruitsjaunes,-0.023206381,0.021597179,-0.018635664,-0.04120227,-0.027677067,0.010478012,0.021643125,0.007477956,0.0150656095,0.046165735,0.041034766,0.03397226,-0.07753652,-0.0865342,0.034930117,0.055363365,-0.025511239,-0.08873083,-0.05714806,0.106874764,0.030067792,0.014576355,0.019072339,0.060207233,-0.0026492756,-0.06546047,-0.0070030903,-0.052186053,0.03731989,-0.070825756,0.008909179,-0.07666199,0.017138898,-0.038867347,-0.00033293944,0.075065166,0.02330889,0.021643404,0.06850037,-0.032591607,-0.058806248,-0.0034564435,-0.06932748,-0.000575928,0.09429012,0.07718679,-0.053662833,-0.020542584,0.07998215,0.093690366,0.029005647,-0.061995972,-0.016037574,0.09831314,0.04167698,-0.03151962,0.008430566,-0.0460594,0.09178425,-0.005283056,-0.05507622,-0.016287828,-0.05006537,-0.06019241,0.02925374,0.027860146,-0.046539564,0.0312676,-0.05462203,0.070326105,0.01381788,0.06634687,0.026739433,-0.007858105,-0.073477834,-0.009979885,-0.04357641,-0.027100237,-0.016979765,-0.0057661775,0.04415009,-0.06436146,-0.03582677,-0.040510688,0.04099738,0.038898416,-0.054349996,0.0005641449,0.052317776,0.013939135,0.039341133,0.021597646,0.0035066353,0.05010535,0.029402677,-0.04532902
pharmaceutique,-0.06306447,0.06167255,-0.109274685,0.0024789209,-0.020313635,-0.023198776,0.020880004,0.014786928,-0.0068755373,0.00063565746,0.020743052,0.042006295,-0.027832646,0.015607834,0.099148124,-0.0004507508,-0.033845734,-0.056791358,-0.05362063,0.0262702,0.0037940778,0.039874345,0.07815941,0.015813723,-0.019788751,0.05293847,0.09195626,-0.11774027,-0.017392863,0.0025863657,-0.017610785,0.10210076,-0.047406368,-0.010521479,-0.021682642,0.012766404,0.04510797,0.03775767,0.07696466,0.077329084,-0.07647131,0.045776844,0.06558998,-0.029300857,-0.022166658,0.0038692737,-0.06191299,0.041238878,-0.07636581,0.012382727,-0.0123075135,0.0034969803,0.013318206,-0.057002123,-0.010490479,-0.00013179146,0.03803931,-0.07346189,0.0039008483,0.035113487,0.0063056936,0.036893502,-0.028189894,-0.023290796,-0.0012909248,0.030738931,0.05681207,0.007061243,0.038847294,0.015214069,-0.05121283,0.09745458,-0.0242647,0.040896244,-0.03514632,0.04937973,-0.12190792,-0.086504795,0.028135233,-0.043252163,0.03230304,0.014788048,-0.0076792054,-0.061987154,-0.03960801,0.022922836,-0.02965292,0.00432139,0.016856832,0.044854313,-0.011501395,0.06523129,-0.08192391,0.05149894,0.0010178429,0.03117565
lactique,-0.007290563,0.05382387,-0.060769364,-0.034609146,0.009117427,-0.01245304,-0.020584753,0.06453208,0.012390034,-0.045099176,0.025010247,-0.024912462,0.029514506,-0.008268671,-0.043270107,-0.024837479,0.002902761,-0.01934378,-0.05075787,0.01554773,0.034959715,-0.013739913,-0.018229138,0.042520262,-0.014619578,0.02578736,0.04627489,-0.12351656,-0.08535502,-0.09553149,0.02028645,-0.0377398,0.093677625,0.02328125,0.04870488,0.09730923,-0.059607755,0.0353039,0.04327744,-0.058670007,-0.05330538,-0.0019313041,0.026851006,-0.035482693,-0.0027870163,-0.073682174,-0.054671615,0.02806537,-0.016413515,-0.024998961,0.061585173,0.107130036,-0.095585406,0.037770502,0.05207982,-0.026727855,0.022941496,-0.04278487,0.08990182,-0.027338168,0.034178723,0.028276306,0.035488855,-0.05583655,-0.06097263,0.03758692,-0.00094406225,0.044948976,-0.03607923,-0.023272853,-0.03260206,0.08189503,0.054691352,0.01828425,-0.020351153,0.048421893,0.01751728,-0.10443077,-0.03927164,-0.051295064,0.020393148,0.016775226,-0.040831946,-0.11622251,-0.008852974,-0.054099757,-0.08341698,0.018457228,0.061436918,0.050702915,-0.03906119,0.08208748,-0.004363004,-0.087958425,-0.07846603,0.031877633
fruitsàpépins,-0.034538556,-0.0023155988,-0.024848292,0.07081192,-0.078933574,-0.049726132,0.009716252,-0.01312589,0.07341809,-0.06471209,0.022187825,-0.041910212,-0.033192895,-0.03593053,-0.048680127,-0.034788962,-0.04577312,-0.047569282,-0.016975325,-0.051274925,-0.020358972,0.037725203,-0.014091406,0.08380491,-0.020050872,0.079089716,0.08647704,0.046005696,-0.011755649,0.02355543,-0.05328782,0.046741284,0.09934847,-0.056165617,-0.05592017,0.088200495,0.05664263,0.008153208,0.038280286,-0.0677541,-0.021034783,-0.041070085,0.08716005,0.033359066,0.0336486,-0.0224751,-0.039131507,0.033673704,-0.061565332,0.009134243,0.060523473,0.06062681,-0.007743464,-0.012716956,0.116167605,-0.06511343,0.10635646,-0.100988835,0.0141227655,0.043213516,-0.02126988,0.04276815,-0.066832446,-0.059655823,-0.013733696,0.04917806,-0.018709723,-0.05449206,-0.08120677,0.056272946,-0.06606957,0.09398868,-0.06682266,0.0489254,-0.03505296,-0.032059293,0.050753936,0.033331122,0.013256557,-0.06640567,0.015935069,-0.09029628,-0.0252081,-0.10669441,0.012061857,0.03679628,-0.09503931,0.066511616,0.07267575,0.08305223,0.02294185,-0.008101501,0.048125945,-0.06170877,-0.007864212,0.106972374
aldehyde,0.012441537,-0.031063445,-0.051216707,0.05179312,-0.05016659,-0.022867292,-0.0016842633,-0.0061028562,-0.031507354,0.012211356,0.011690649,-0.014379101,-0.0086245,0.0048142467,-0.03636114,0.04677458,0.09153274,0.059407957,-0.021276645,0.07126791,-0.001951728,0.078138575,0.059364814,0.1011431,0.03700351,-0.08678464,0.07498698,-0.051666237,-0.07585411,-0.032040987,0.08806963,0.019196339,0.076951966,0.00472419,0.03434878,0.053834468,0.0041461512,-0.004301414,0.030662665,0.08634767,0.00484496,-0.050879862,0.0091224415,0.03232113,0.08891082,0.010526904,-0.032984536,-0.07566016,0.012825133,0.013523424,-0.030003099,-0.006456148,0.035374034,0.057747167,0.080436654,-0.0285628,0.010251846,-0.050971795,0.0924899,-0.120832235,-0.05711732,0.018585702,0.008293163,-0.06769642,-0.04620622,-0.043138035,-0.08815477,-0.006634753,-0.03221038,0.032523252,-0.008830421,0.0099850185,0.07658334,0.011639852,-0.024423951,-0.0036743097,-0.002240643,0.03360414,-0.020211643,0.08279061,-0.10261133,0.058803387,0.06813457,0.03041118,-0.034040954,-0.04881538,-0.030297134,0.070149556,-0.059812367,0.027636599,-0.04596529,-0.06012957,-0.016866434,-0.009894179,0.0022333558,0.09168716
moisi,0.038314875,-0.050407186,-0.004609417,-0.017249042,0.070018806,-0.045502856,0.04930387,0.103143945,0.01486792,-0.07174403,0.037668027,0.06651881,-0.020172141,-0.066999085,0.034539953,0.05265125,0.03815312,0.05466515,0.013085488,0.07202509,-0.090003975,0.042095598,-0.05923208,-0.005438677,0.036402784,-0.030715767,-0.031616233,0.029223772,0.024480507,0.048971668,0.016839888,0.0619058,0.097577184,0.031202136,0.049183212,0.008682594,0.05903586,-0.044082478,0.069784835,0.014026623,0.0049836915,-0.009755928,-0.033803463,-0.0057694614,-0.07736918,-0.012187862,0.031518385,0.028772313,-0.061330568,0.034391526,-0.036201473,0.025989749,0.00019154698,-0.015650354,-0.0073862504,0.08757704,-0.006839035,-0.051991645,-0.028901678,-0.010946389,0.019848265,0.073809974,0.090599775,0.022089306,-0.09138707,0.038380887,0.031491864,-0.09887023,-0.012757722,0.021815335,-0.050221372,0.042043082,0.027293451,-0.033370495,-0.03766107,-0.032718495,-0.036936603,0.057983562,-0.093324326,0.08068966,-0.00021134876,0.029567415,-0.07498601,-0.009811981,-0.03374832,-0.030924913,0.005202364,-0.05160949,0.010302406,-0.064638935,-0.034940764,0.032563634,0.030773439,-0.05419086,-0.052088454,0.07294478
terreux,0.06152707,-0.04419571,0.06267174,-0.003999288,0.09989924,-0.05235902,0.059983507,0.042428516,-9.871274e-05,-0.10059202,0.024327924,0.088344194,-0.018934276,-0.04199999,0.036093507,-0.014709853,0.022317644,0.07781446,0.048620228,0.08211826,-0.026867928,-0.0025782883,-0.12158305,0.048908122,0.052703414,0.010089873,-0.035171866,0.018573383,-0.01565178,-0.0052320026,0.014450401,0.042381473,0.08545278,0.05131173,0.09739693,0.03236267,0.072806,-0.031632874,0.002826075,0.03650157,-0.002530763,-0.06929405,-0.015140989,0.0061209816,-0.020861939,-0.04598009,0.0020992886,0.03645032,-0.063717574,0.05388186,0.007957336,-0.001327265,0.045584623,0.014024161,0.011084935,0.11708796,0.011791595,-0.09098389,0.052844893,0.054971486,0.014453717,0.029755782,0.09431987,-0.013504263,-0.018272437,0.010672654,0.038126245,-0.04143758,-0.018620234,0.009823488,-0.032442693,0.08726904,0.05042625,0.016863339,-0.05077759,-0.01125234,-0.027063724,0.07772288,-0.077970244,-0.014406282,0.081591405,-0.021022288,-0.05729519,-0.043189287,-0.06335435,0.02397767,0.0052400976,-0.012976304,-0.016193056,-0.023990404,-0.05597922,0.003942687,-0.03763321,-0.060241167,-0.003801044,0.03853388
vegetalvert,-0.04498478,-0.0072562406,0.0045027435,0.013943458,-0.04834051,0.020597761,-0.053663347,-0.021721186,0.0038847746,-0.03238752,0.015974903,0.05360178,-0.03676381,-0.054984797,-0.05443459,0.04633494,0.007764222,-0.06418902,-0.054425646,0.067485705,-0.028709035,0.018329483,0.045652427,0.10257444,0.045791302,0.012242438,-0.05056864,0.04912636,-0.0442197,0.047042757,0.02066562,0.024576774,-0.023375692,0.049017087,0.024475252,0.025241679,0.029459009,0.03296441,0.015543653,-0.035585772,-0.027020298,0.04342544,0.051570766,-0.009518364,-0.01957155,0.060453273,-0.031952783,0.003114258,0.014641603,0.027126348,-0.034571085,-0.054119866,-0.031877484,0.059318826,-0.049820147,-0.055840123,-0.027645541,0.023928523,0.01987398,-0.010540698,-0.0026526777,0.023941003,-0.099688955,-0.026058506,-0.032542784,0.042195972,0.0012961347,-0.003278111,0.016033687,0.054841768,-0.07400555,0.004283244,-0.06759982,0.024277836,-0.01995011,0.06443824,-0.072802804,-0.03731412,-0.034164175,0.030881131,-0.0005185455,-0.004175474,0.07859543,0.014243431,0.05445514,-0.051202305,-0.041912686,0.058817986,0.049045518,0.05908045,0.051863216,0.00034181774,-0.078362495,-0.018321365,-0.08491111,0.04141963
pieds,-0.08218631,-0.011333053,-0.01192211,-0.072764315,-0.060328282,0.026133943,0.07435165,0.06355719,0.060292125,0.019331805,0.025222635,0.026987948,-0.047479756,-0.024125522,0.015724827,-0.029751215,0.05629643,-0.008863218,-0.020531543,-0.048528947,-0.043221258,-0.038384415,0.06980504,-0.0516469,0.03995274,-0.06898898,-0.015139751,-0.08287393,-0.039956857,-0.00701081,-0.025886767,0.05126355,0.005950846,-0.050620038,0.059256047,0.031197371,0.048476007,-0.0033583883,0.020518908,0.012403712,-0.0028890604,0.014247291,-0.09489998,-0.031210324,-0.053088352,0.035636835,-0.028239187,0.05710277,0.040106542,-0.02346339,-0.07796107,0.03406419,-0.10505086,0.03458772,0.00930275,-0.050080936,0.08178282,-0.016511064,0.0398096,0.003976682,0.05295506,0.074556276,-0.012608686,-0.044440962,-0.054019958,0.056480706,0.025169354,-0.046590336,-0.07793087,-0.044577636,-0.07276382,0.003065742,0.0147974305,0.023755934,-0.052685603,0.036265396,-0.007372182,0.052110236,-0.009456657,-0.05432889,0.09031378,-0.02059911,0.0274164,-0.06402396,-0.021102011,0.03842426,-0.00958811,-0.026961375,0.064390905,0.020623283,-0.06319766,0.0387311,-0.036938224,-0.0055513345,-0.09524317,-0.031059425
menthe,-0.03574452,-0.03476947,-0.07465071,0.011064481,-0.01511758,-0.007560104,-0.007957516,-0.05515202,0.065390974,-0.06139268,0.079309136,0.062423915,-0.026509322,-0.016011618,-0.009465447,0.05746388,0.061146352,0.024143822,-0.02942322,0.037158694,0.0032079965,-0.03594858,0.002500981,0.01416049,0.007610211,-0.017920854,0.008492203,-0.012738075,-0.018273376,-0.08375157,0.01972387,0.006918708,-0.02735962,0.06789787,0.12231942,0.06493,-0.0005777851,0.007974451,0.030646613,-0.0055257734,-0.027880982,-0.04534856,-0.03408101,0.036415793,0.011299468,0.010297259,-0.0498811,0.043107677,0.040088136,0.05340121,-0.04227198,0.019102829,-0.052735936,-0.039401203,0.00032190606,-0.09288675,0.03997557,-0.02046597,0.0341867,-0.041473567,-0.020705186,0.027083557,-0.04941026,-0.0754493,-0.08564615,0.023719493,-0.021495271,-0.051992998,-0.04347229,0.031645097,-0.05234299,0.03834455,0.03623829,-0.02467631,0.028529296,0.049316194,0.0030721528,-0.04790472,-0.01626461,-0.088893265,0.06319742,0.036098115,0.088760175,-0.07839058,0.03354404,-0.059674326,-0.023175947,0.038819548,0.0008141799,0.028287467,0.046743773,-0.0035012742,-0.017120225,-0.07228212,0.006521335,0.029234689
violette,0.028783279,-0.043964066,-0.04179583,0.007886374,-0.0021286719,-0.028298056,-0.04502278,0.034474686,-0.012809595,-0.09463334,-0.0017482005,0.026817372,0.054142263,-0.008812696,-0.019699598,0.0214529,-0.039192967,-0.06313635,-0.043996725,0.06507622,-0.011085035,0.10322359,-0.038263477,0.010618793,-0.072727844,-0.007476079,-0.009176221,0.009387985,0.02349025,0.027470732,-0.035089877,-0.0033327248,0.044074994,0.02004214,0.017729286,0.019432465,-0.018924268,-0.012690946,0.11213791,0.03727381,-0.071752235,-0.028399564,-0.039288342,-0.064829946,0.0143397525,-0.043435812,0.0811764,-0.0013739727,-0.03814716,-0.05446156,-0.05362693,-0.014831651,-0.016605675,-0.009472195,0.017882043,0.056492306,0.0985353,-0.069450125,-0.05476395,-0.017246567,0.05113657,0.07588409,0.006026325,-0.024740737,-0.085782416,-0.0065558786,-0.07561104,-0.025022984,-0.032799758,0.0023738872,-0.063705415,0.05463123,0.03824474,-0.05085342,0.06469683,-0.011353452,0.015114237,0.012573179,-0.019532401,0.061535664,0.036990296,-0.0025725607,-0.071067475,-0.036434554,-0.016376976,-0.006189917,0.0037488434,-0.014999276,-0.014755426,-0.017939925,0.05305033,0.009159211,0.013349041,-0.080094025,-0.03495589,0.08095988
fruite,-0.05165258,0.06445992,-0.07597409,0.058756676,0.055538192,-0.070433244,0.088642664,0.062094945,-0.05041995,-0.10969871,-0.00638727,-0.028725404,0.024015116,-0.020478876,0.050210923,-0.014999826,-0.053549156,-0.041485615,-0.03272511,0.010072302,-0.065552674,-0.050196294,-0.02926976,0.014463754,-0.039337564,0.032128036,0.045226593,-0.021803815,-0.04636566,-0.034949645,0.03707362,0.021321759,0.12087429,-0.017372008,-0.018941518,0.05069287,0.055490885,0.047343455,0.06436521,0.010374967,-0.07727739,-0.04779987,-0.015801426,0.0043654777,0.071097836,-0.034369595,-0.07299654,0.004523401,0.019919332,0.06600467,0.0391801,0.07972596,-0.042093243,-0.028834915,0.016895073,-0.0112327095,0.09281464,-0.055760182,0.012569545,0.03753426,0.018360032,0.01577941,-0.106118806,-0.018533414,-0.035931222,0.017327707,0.013721734,-0.059678808,-0.09944321,0.028451273,-0.042841513,0.01635767,-0.04919302,-0.012482181,-0.022206243,-0.058423262,-0.010783855,0.004107191,-0.040353082,-0.01909157,-0.026145304,-0.046747074,0.017035196,-0.074469335,0.041336704,-0.06723747,-0.07349996,-0.0011743382,-0.047343478,-0.054904602,0.042987,-0.0008241106,0.059922848,-0.037361145,0.021159168,0.023626499
pommedeterre,0.003785796,0.013000701,0.0011863876,-0.04502501,-0.044555385,-0.07629029,0.020166006,0.031105744,0.08383627,0.030038344,0.06999859,0.09700504,0.06201557,-0.016697159,0.053562026,-0.02871257,0.045694325,0.011768334,-0.062218033,-0.0588341,0.036889322,-0.030384617,0.008159876,0.036566265,0.019717269,0.0362229,0.04031347,-0.054287568,-0.005857937,0.01622229,-0.0239455,0.023497581,0.032884244,-0.027758304,0.036572404,0.06534372,-0.034186643,-0.00028507784,0.041196954,-0.0070008785,-0.091698326,0.023714552,0.028715622,-0.029083353,0.058582313,-0.024256742,-0.013152529,-0.05308089,-0.018985722,-0.064356,-0.014541614,0.03280567,-0.06709711,0.04701778,-0.0048458427,-0.06769384,0.059972443,-0.056614157,0.011221364,-0.05002215,0.0011938922,0.036983505,0.008452216,-0.03084681,-0.04000835,-0.01744716,0.027058752,0.025333146,0.0716742,-0.047304258,-0.063897,-0.0014091847,-0.03947828,0.05794477,0.04253789,-0.031802904,-0.04225775,-0.071063,-0.052935608,-0.0123580005,-0.06347308,-0.10479008,0.029970549,-0.10101034,0.05443288,0.010734301,0.008478802,-0.028913993,0.016364943,-0.001640195,0.000522621,0.010302978,0.020028315,0.020784885,-0.038316727,0.08283884
fumé,-0.015796559,0.020853166,-0.07151864,-0.07200706,-0.06827399,0.016530462,0.04057395,0.021601856,0.016923979,0.01867699,0.009262168,-0.05226138,-0.10285424,-0.05252215,0.029282717,0.033554487,0.0012834874,0.020939251,-0.028328694,0.026514206,-0.041821808,0.009854164,0.024516447,0.010679722,0.027460406,-0.0038433112,-0.006951899,0.011806577,0.017255101,-0.022313237,-0.038046774,-0.025499994,0.059398793,0.019318108,0.0034296717,0.03465925,-0.021231154,-0.01974244,0.027383849,-0.00028536096,-0.031656638,0.05244163,-0.00517017,-0.007968335,-0.009394452,0.06724401,-0.0668862,0.022311471,-0.03856854,0.08608811,-0.031117827,-0.012281408,-0.027645065,0.037191827,0.08370033,0.05083388,-0.06328826,-0.00393549,0.066594675,-0.0051074848,0.05967006,0.022060836,-0.017896593,-0.084562816,0.026310802,-0.025343355,0.069649324,0.039061867,0.03714943,0.051072095,-0.056585897,-0.03760652,-0.005542489,0.03115516,-0.05321669,-0.031636775,-0.023421092,-0.012936082,0.029591506,-0.032502007,0.0055865385,0.008561233,-0.03682551,-0.04119361,0.0041471045,-0.09695158,0.00075593963,0.062418155,0.001031301,0.020754345,0.035937227,-0.059372567,0.051366717,-0.01326249,-0.06001907,0.09980081
légumescuits,-0.09458798,-0.009600911,-0.028661018,-0.040130995,-0.05485411,-0.0061283614,-0.025990082,-0.07449299,0.09725675,-0.09354832,0.10146731,0.013900222,-0.061877206,0.042067744,0.03489522,-0.0010419637,0.042937525,0.015013557,0.026034929,0.050431274,0.059918858,0.0007971935,-0.04916948,0.067292266,-0.0140136555,-0.06795689,-0.012157013,-0.0797133,-0.1059297,0.008871473,-0.03504494,0.010767162,0.042994943,-0.08336884,0.024597492,0.047667228,0.03823309,0.009604981,-0.053386312,0.01139988,-0.053542264,0.021241225,-0.0982754,-0.005476982,0.077037394,-0.02518134,0.017332222,-0.0039320253,0.023725105,-0.010114594,0.002532281,-0.09124445,0.009808306,0.09727739,0.029813938,-0.020734452,-0.02601921,-0.0737178,0.090068,0.0043282043,0.02614158,0.05505976,0.0038196528,-0.0006470019,-0.04648796,0.017880537,-0.008633111,-0.0077932347,0.038308237,0.079772174,-0.03882896,0.10456248,-0.08324559,0.008717652,-0.07545396,0.05152774,-0.012400195,0.014520073,-0.09678782,0.005338175,0.015188351,-0.010457695,0.024090074,-0.018716918,0.018042585,0.024211701,0.05404993,0.04533988,0.066923276,-0.06096186,0.07718557,0.054979853,0.07601588,0.010631125,-0.019191932,0.05373139
pyrazique,-0.09322785,0.03691174,0.0047727637,-0.12097384,-0.0075672306,0.07405031,0.040183745,-0.026915498,-0.0258719,-0.042557154,0.07823138,0.06104093,-0.0740952,-0.029884197,0.046641495,0.01618689,0.0067458153,-0.020459533,-0.03546151,0.033334512,0.03483768,-0.026515849,0.0010455698,0.034518603,0.09643707,0.06946728,0.0155920945,-0.01653872,-0.004561495,0.0708232,-0.051290594,0.028307172,0.02662574,-0.05261089,0.032266915,0.046571568,0.005457226,-0.0051707886,0.061760355,0.060831837,0.018240228,0.014353512,0.04555903,-0.008388114,0.04586061,0.05998663,-0.053688005,0.018608825,-0.015652992,-0.008296872,-0.0037562475,0.025288101,0.052455347,-0.048356734,0.05357851,-0.021581586,0.016649572,-0.0018071234,-0.021243185,0.03186968,0.094724566,-0.05319444,-0.015524836,-0.06445207,-0.012703277,-0.021310046,0.021214725,-0.04437904,-0.06046941,0.003392674,0.03276129,0.06944106,-0.10532798,0.08460015,-0.039550282,0.05906891,-0.02198174,0.043000102,0.011063221,-0.046646524,0.058216922,-0.059016697,-0.07452215,-0.019398453,-0.035410855,-0.0014567375,0.0005797632,0.05332918,0.01040394,0.055974524,0.016253978,0.038890675,-0.012514371,-0.02153137,0.02694698,-0.055803567
