RESERVED,0.05556404,0.04393214,-0.049906112,-0.032759715,0.06320866,0.019061912,0.006186735,-0.0513554,-0.017240979,0.024042942,0.023496274,-0.010359086,-0.022070505,-0.04616841,-0.0043027997,0.0014480092,0.0038123634,0.03657135,0.085175596,-0.056735884,-0.011521187,0.080735296,-0.02913909,-0.048163317,0.0017663017,-0.052788913,-0.021911347,0.055306956,-0.020655682,0.005112067,0.041648112,0.020703651,0.0037042014,0.046621967,0.044370044,0.009084765,-0.010213837,0.012043919,0.007848095,-0.010273801,0.012556771,-0.019014383,0.019238256,0.009632384,-0.03805084,0.01464206,-0.038563635,0.05069295,-0.036919855,-0.007698726,-0.013324477,-0.020698681,-0.0029399171,0.0132043585,-0.026515208,-0.043988965,0.043285932,-0.009081461,-0.000698233,0.041779097,-0.08686972,-0.032844543,-0.02946205,-0.090933755,-0.03413794,-0.050348878,-0.04490448,0.05075793,-0.020510528,0.05138451,0.079238705,-0.013552383,-0.040922105,0.045294914,0.07286347,0.017807065,-0.04151392,0.06438842,-0.019752719,-0.0128490105,-0.021247433,-0.047194865,-0.017917335,0.0028954148,-0.0038544014,0.00024651177,-0.0060750954,-0.03747339,0.017767653,0.030353691,0.08928007,-0.02727516,0.06568582,-0.029916119,0.077397935,-0.06092278
UNK,-0.0066279545,0.019823207,-0.022916075,0.029941268,0.041746765,-0.06271147,0.00312489,-0.03922945,0.08198312,-0.008591305,-0.050791033,-0.03959141,0.10583158,0.010802453,-0.05729413,0.0123912,0.03165996,0.025147937,0.033499256,0.038304538,-0.05937259,-0.044174273,-0.011182415,-0.085863486,0.07825136,0.049632106,-0.023602823,-0.035048965,0.00448443,0.0063303164,0.035398163,0.034852892,0.024463946,0.06948652,0.030636754,-0.041794445,0.024239145,0.042458553,-0.10104272,0.008292023,0.048554383,-0.012012001,-0.062314656,0.03765735,0.033296563,0.047129694,0.07268926,-0.0033898838,0.09926303,-0.032631762,-4.6724454e-05,0.06792071,-0.058817673,0.0065434724,-0.012418064,-0.048907604,0.012481858,-0.07001689,-0.002134857,0.038449496,0.07005839,0.053285096,0.04501141,-0.0027498435,0.00624647,-0.0318045,-0.08792035,-0.060674544,-0.057209305,0.027778018,-0.035560198,-0.020588553,-0.09895933,0.10219139,-0.047891784,0.0012573674,0.03178385,-0.045728896,0.057705533,-0.07207429,-0.028224468,0.015064241,-0.015892137,-0.016177457,0.07466307,0.019410675,0.048719708,-0.041577592,0.030712113,-0.06015161,0.024928639,0.005889382,0.014994616,0.005580659,-0.048304915,0.012686004
fruits,-0.036450095,0.07062585,0.0048554186,0.011184104,0.060092825,-0.03257556,0.06651361,-0.032351732,0.07915262,0.07780254,0.006854327,-0.064585805,-0.049759768,0.043646317,0.043143407,-0.025077738,0.10598481,0.029907193,0.03903159,-0.05171049,0.00059491023,-0.08340674,-0.032484908,0.03234139,0.111024424,0.042903263,0.061904702,-0.07306732,-0.08403016,-0.011129921,0.088369526,0.019144574,-0.0749929,-0.008317798,-0.013157805,0.090678945,0.03945664,-0.0018097796,-0.0995488,0.054299526,0.026408639,-0.0048209354,-0.080066144,-0.030589782,0.07085645,0.05962381,0.036942728,0.089365244,0.02285247,-0.01742272,0.0020868657,0.09157973,-0.115069866,0.043997474,0.027841732,0.0034969263,-0.030477664,-0.05416393,0.013987899,-0.008081776,0.109408304,0.028697208,-0.045117993,0.04039254,-0.037808955,0.0011914726,-0.06711734,-0.1030729,-0.0838411,-0.08422771,0.0570338,0.02793239,-0.087031156,0.0039551966,0.024283513,0.03351967,0.04838655,-0.071970195,0.09016597,0.018012648,0.043086454,0.019856282,-0.072128996,0.017913572,0.058076717,0.0005426854,0.07825874,-0.061427794,0.036777463,-0.054385453,-0.07836955,0.14585723,0.0565824,-0.11372931,-0.11656026,-0.031525508
vegetal,-0.07773786,-0.011328229,0.021719167,-0.028501771,0.06483523,-0.046900783,-0.02915507,0.070268914,0.018137591,-0.082955316,0.052139945,0.026687618,0.099847004,0.026216388,0.02673239,0.039218448,0.10013267,0.0032403246,-0.0007236432,0.03828832,0.00035302155,-0.031284615,-0.032849412,-0.002556989,0.08152033,-0.08733684,-0.030106677,0.019061089,0.049658787,-0.019246861,0.000879806,-0.09022738,0.022026906,0.04103295,-0.019082295,-0.015372345,-0.014153857,-0.0016494729,-0.08179158,0.0052608885,0.062299147,-0.04019092,-0.019342225,-0.009782147,0.042437397,-0.036352273,-0.0115235895,0.08093675,0.04013946,-0.09500492,-0.0713151,0.01674682,-0.082390375,0.09911804,-0.08090133,0.043256316,0.026351392,0.029146846,-0.01187329,-0.0069965087,-0.07798279,0.05582711,0.10573538,0.0049493946,-0.05167698,0.026826654,0.019345116,0.026358344,-0.073878214,0.0134788025,-0.06513319,-0.035932314,-0.0074961036,0.06325309,0.015122835,-0.04114488,0.058441013,0.0532716,0.023756975,-0.07017671,-0.019325044,-0.061315212,-0.0015665949,0.040394682,0.013309954,-0.08638546,-0.0019056876,0.004957475,0.06842068,-0.044658396,0.08306784,-0.004242236,-0.07509646,-0.007219054,-0.0844036,-0.033852156
fermentaire,-0.042503547,0.0053114407,-0.055675212,-0.05120517,-0.051644687,-0.05303476,-0.063542515,-0.079410076,-0.07425076,-0.00028602034,0.026227806,-0.008602537,-0.019126177,0.053944793,-0.0840119,0.034872096,0.027346686,0.0021127816,0.077228256,0.0036307462,0.021538582,-0.015579566,0.004503045,-0.04404998,-0.03953781,0.018985478,-0.03057127,0.028972667,0.030246798,-0.051667023,6.902963e-06,-0.07068108,-0.0016867742,-0.030654993,0.011668375,-0.025706625,0.060983993,0.08494873,0.082403466,0.041183863,0.024034403,-0.03747628,-0.09565629,0.0091946125,-0.015917655,0.03533926,-0.030418813,0.026376653,-0.009918975,0.033908844,0.0072204936,0.007905465,0.072629124,-0.05860391,0.061283424,-0.060299505,0.015552416,0.06239456,0.017662361,0.040705487,0.03237797,0.0069325957,0.041427113,0.03739054,-0.016462395,-0.053377602,0.032692134,-0.0045045987,-0.04207295,0.076195836,-0.015207268,-0.025674675,0.036753535,0.07108561,-0.054689325,-0.042496346,-0.018946718,0.063600436,-0.03634913,0.02722877,0.0014903694,-0.0042202733,-0.015136559,0.041191436,-0.04543035,0.063667,-0.056587074,0.016094413,0.04842911,0.08854496,0.08789852,-0.0061641484,-0.03456466,0.068272635,-0.021993043,0.016104974
cuir,0.012328276,-0.03980033,-0.04204622,-0.06748794,-0.006534283,-0.02671783,-0.024214694,-0.010432468,-0.058773216,-0.043261286,0.02427981,-0.04689219,0.056917716,0.06147227,-0.03283924,-0.045558337,0.018627916,0.007384468,0.007563742,0.046397913,0.08574081,0.0145116765,0.011634264,0.04710315,-0.09579837,-0.095422715,0.05642688,0.020266825,0.04961503,0.03866533,0.00993543,-0.0022150725,-0.029959382,-0.025573786,-0.07149233,-0.00048658438,-0.018936437,0.018148214,-0.046425756,0.015982725,0.008577567,-0.046850666,-0.043435566,-0.06107275,-0.03676802,0.06832568,0.036932696,0.03251785,-0.017396498,0.08440629,-0.02810174,0.012095378,-0.063511886,-0.026175605,0.014204021,-0.037985783,-0.040762477,0.05212059,0.033229217,-0.056093737,0.05061396,0.080765575,0.0030329488,-0.0072298646,0.011125952,-0.06784248,-0.007931583,-0.07859194,0.009630263,-0.067072235,-0.06762231,0.03586187,-0.07106605,-0.051535986,-0.011988218,-0.0018670261,0.001810845,-0.022037795,-0.014241774,0.06534399,0.023174578,0.032202847,-0.0035244375,-0.03725553,-0.033526756,0.0010800026,-0.026848163,0.048753764,-0.042274214,-0.039084848,0.04450197,0.0109701585,-0.021009231,0.041967347,0.0310581,-0.03206205
thiol,0.057640944,0.08589819,0.04319606,0.008601323,-0.011302711,-0.0051282803,0.05756716,0.027279906,-0.033643335,-0.018858809,-0.003807988,0.017788757,-0.021853875,0.09960055,-0.053011764,-0.052283715,0.08628574,-0.004556529,-0.05497659,-0.017458785,0.007969083,-0.106598854,0.023700068,0.02498776,0.05467867,-0.03028018,-0.03147187,0.030330092,0.059082247,0.07272299,0.07213576,0.015240556,-0.021683117,0.005310434,0.09122485,0.039762195,-0.016871622,-0.055449765,-0.00835859,0.04543171,-0.051912636,-0.015812613,0.012840848,-0.015710568,0.0072795395,0.023683576,-0.027107088,0.0020886075,0.027055986,-0.017541979,0.036406323,0.00072811544,0.022024214,-0.023230227,-0.033719257,0.00981616,-0.050358325,-0.019338306,0.0035197325,-0.01228782,0.041932117,-0.062334366,0.08954608,-0.012520362,-0.012826655,-0.013220739,0.010138154,-0.009726703,-0.017129883,-0.01721675,0.059310373,0.026959818,-0.035029586,-0.008477959,0.058007583,-0.03711471,0.0075154286,-0.0132665485,-0.01711829,0.0042877435,-0.051588297,0.007907845,0.010099962,-0.011458028,0.051075667,-0.004884572,0.028086772,0.023380201,-0.016486693,-0.031598706,0.0011750795,-0.013230892,-0.06574466,-0.00019475073,0.0026191236,0.03812674
anise,0.06354094,-0.0955576,-0.02096423,-0.04311396,-0.010886576,0.046984125,0.006581057,-0.069107436,0.09895913,0.043372687,0.024798848,0.022864569,-0.08009696,-0.025123093,0.05123929,0.0062599555,-0.05008675,-0.046887066,-0.039287794,0.02475907,0.08496535,-0.04856098,0.06736815,0.050421588,-0.058532726,0.04001756,-0.06893589,0.06506372,-0.025362443,-0.059655,0.0028408393,-0.012051746,-0.019439306,-0.03895011,-0.0752852,-0.06404811,-0.07083233,0.07473641,-0.030755341,0.012003696,0.028322376,0.011435639,-0.04771105,-0.022918798,-0.0070346333,-0.08351721,0.004219055,-0.04290941,-0.037588954,0.0030292496,-0.029376054,-0.060190454,-0.060638882,-0.01544385,-0.0016279072,-0.0023604743,-0.033576094,-0.02055937,0.0028976314,-0.047465775,-0.059385523,0.043779314,-0.029994216,0.071984984,-0.016332805,0.02770488,-0.020113181,0.009337354,-0.03631704,0.02206577,-0.041166507,-0.02097553,-0.027706863,-0.048802804,-0.0020156763,0.06140481,-0.082715645,0.013217427,-0.0018315576,-0.025409289,0.048047207,-0.00894719,0.0300151,0.015255369,-0.02274352,0.022474919,0.084409654,-0.019655716,0.015744243,0.02570087,-0.036297012,-0.0877229,-0.01621487,0.045112606,-0.08062728,-0.057154726
vanille,-0.030512715,0.06589739,-0.020169675,0.053581215,-0.0036801696,-0.012667647,0.028870523,-0.04468968,0.04019792,-0.018072616,0.053644873,0.02236601,0.018361047,-0.044326782,0.051438093,0.039730433,0.004605986,-0.003700044,0.019946054,-0.072973184,0.01941962,0.005912248,0.0003531929,0.038758256,-0.0017192848,-0.017225375,0.054187622,-0.008965228,0.045795046,-0.04673398,-0.07084679,0.06573887,0.056531146,-0.007662013,-0.060011126,0.010738336,0.07049083,0.05229598,-0.040405583,-0.031781103,0.02369598,0.079561256,0.0489859,0.011966703,-0.008288419,0.06393899,0.047497667,-0.05505413,0.03194041,-0.06818521,-0.006726671,0.021435047,0.059314013,0.0008389354,0.026607644,-0.06533861,0.018237054,-0.013833903,0.06499379,0.010685924,0.073979445,-0.029497813,0.020102452,-0.02090267,-0.0008385051,-0.0048272163,0.0038729087,-0.045747794,0.027644278,-0.031121686,-0.019488439,0.0309565,0.017690454,0.01625259,0.050231464,-0.06732054,-0.05549401,0.01944014,0.012407018,0.0098376535,0.016642177,0.050430432,0.024256293,-0.04595499,0.0016286857,-0.06980176,0.06926375,-0.0039630793,-0.041073874,0.01150012,0.08045516,-0.08149482,0.03292631,0.07433487,-0.027240992,0.037108134
doux,-0.06906966,-0.012198385,0.010165604,0.018102964,0.06588999,-0.016721038,-0.017214116,0.031705942,0.040432986,-0.06959778,0.0069417804,-0.017896896,0.055335976,0.017600045,-0.0022236072,-0.024580784,0.007869823,-0.008114375,-0.016869014,-0.029144028,-0.028594447,0.044640984,-0.031294506,0.020417206,0.002637323,-0.05803274,0.017640345,-0.0023062192,0.033378307,-0.038587674,0.07902166,0.023704678,-0.0035968008,0.013883103,-0.049119312,-0.049009826,0.0063520987,0.07113575,-0.043412838,-0.025275493,-0.01605879,-0.012278925,-0.034481008,-0.051585916,-0.024004977,0.07111529,-0.026601732,0.06534681,-0.053534094,0.0064766016,-0.032074977,-0.028468873,-0.031292353,0.0047170795,-0.06251222,0.026967764,-0.010381721,0.011127446,-0.003517799,0.00777743,0.0009811725,0.017308082,-0.05044224,-0.014304763,-0.01205946,0.0322596,0.06351246,-0.004213404,-0.085606486,-0.08719918,-0.034576952,0.05263082,0.031935073,-0.023545682,-0.07182108,-0.0697639,0.024395533,0.05172904,0.034952514,0.041685354,0.015164815,-0.024744805,0.07335028,0.0065753404,0.07034558,-0.06653892,-0.010240399,0.011930597,-0.06487912,-0.0060975775,0.0024464726,0.04578398,-0.007821158,-0.0025358703,-0.040531587,-0.034064732
mineral,0.03012053,0.083681405,0.022466656,-0.04323024,-0.044150997,0.09374042,0.036291804,-0.05353284,-0.036511306,0.02578082,0.054307297,-0.060764983,-0.03997951,0.056427114,-0.010453939,0.028371666,0.06635468,0.060384326,0.010501433,-0.04342189,0.03864724,0.00138532,-0.020778645,0.01653117,-0.026015036,0.009548947,-0.039657652,-0.020657204,0.028267052,0.006803535,0.055948168,-0.07251948,0.05160582,0.011991832,0.026006218,0.018890187,0.049811266,0.0006581228,-0.015018199,0.036739435,0.050911464,0.053806268,-0.03712696,0.0038762912,-0.038882174,0.024816383,-0.022038639,-0.089757845,0.010719027,0.046285897,-0.045965318,-0.010311279,-0.042188086,-0.0749112,-0.029375218,-0.01216259,-0.050993167,-0.045782685,0.0018946156,0.05918832,-0.028637312,-0.06717088,0.05304512,-0.0058100447,0.03885578,-0.037989344,0.032875422,0.0050180685,0.0025081541,-0.067422554,-0.041612864,0.02356778,0.018862393,-0.021185528,-0.010286227,-0.088358566,0.009393632,0.04403881,0.008993998,-0.0020688754,-0.04335355,-0.027657006,0.062267333,-0.009256462,-0.030049147,0.00024943426,-0.012544055,-0.080537006,0.008689631,-0.027414251,-0.02824488,0.029626105,0.0010220557,-0.024197027,0.05738964,-0.00089282915
epice,0.037698884,0.094531976,0.042514037,-0.020503366,0.0014664605,0.00077482313,0.007825963,-0.017462622,0.07784589,0.0615259,-0.0042183134,0.042118248,-0.023627434,0.050557397,-0.001300285,0.06314881,-0.0027900934,0.0030811382,-0.015887333,-0.11100547,0.031231835,-0.009536728,0.059844535,0.068989694,0.0036948659,0.034286693,-0.010395424,0.022422964,-0.014000524,-0.034251608,-0.027790032,0.016488668,-0.019956093,-0.024213057,-0.025694657,0.059189327,-0.023443805,0.0347907,-0.109328695,0.053037494,0.011843468,-0.052816488,-0.010336911,0.10469585,0.013210677,0.05831664,-0.004286959,0.0625426,0.0021222476,0.03033318,-0.019000102,0.10462758,-0.013725696,0.06628407,0.02845922,-0.013996985,0.055955812,-0.009689826,-0.05541344,-0.023093343,0.021698479,0.05047452,0.030848142,-0.06258273,0.052327417,-0.07846245,0.043035075,0.056935735,-0.02463584,-0.070684336,0.06733035,-0.001998186,0.018323446,0.0820992,0.021546526,-0.0036128578,0.02669973,0.03407674,0.055546634,-0.09379126,0.015472686,0.10149832,-0.012364671,-0.017615069,0.01947304,0.01578375,-0.017753558,-0.06700375,0.017052298,0.019475896,-0.057930764,0.083045945,0.051226735,-0.013657071,-0.03550749,-0.0024296567
beurre,0.08370322,0.08764862,-0.061311066,0.01021586,0.026753549,0.05752483,0.06553408,-0.11262931,0.08126436,0.096215025,0.032076,-0.09266727,-0.0415546,-0.056302324,-0.027293837,0.025832746,-0.019147344,-0.069689766,0.026181178,-0.031045316,-0.08117408,0.023665976,0.096203655,0.048202764,-0.009215951,0.0020677429,0.016564608,0.014118861,-0.017529175,-0.07978819,-0.0005897684,-0.024646338,-0.030380089,-0.023960035,0.07680176,0.037542973,-0.0028757714,0.11227712,-0.095608994,-0.005429197,-0.019613056,-0.008214949,-0.0972357,-0.016664345,0.083942726,-0.050496988,0.0012019426,0.053479563,0.018350367,-0.072499484,0.014934603,-0.002008658,-0.0968236,-0.053006917,-0.059155483,-0.004684349,-0.018144136,-0.10544055,0.020575821,0.036661744,-0.01747673,0.065585986,-0.08390613,-0.0026905332,0.06003999,-0.07449961,-0.032257427,-0.09142155,-0.09651362,-0.1028195,-0.021395657,0.058997713,0.0057077315,0.04982405,-0.01838204,0.08534524,0.057280395,-0.038314126,-0.0049299784,-0.002100829,0.032809786,0.03643239,-0.05931165,-0.03713208,0.08303855,0.02255625,0.048424125,-0.026124172,0.078095585,-0.057196796,-0.09093301,0.010795115,0.008093869,-0.048539784,-0.04015606,-0.006326029
alcool,0.017814841,-0.0030978322,0.021586668,-0.00022125244,0.046317726,0.031953443,-0.07564567,-0.0033169128,-0.07104273,0.015530061,-0.026520288,0.06333182,-0.013719033,0.04934395,0.021467816,0.051125042,-0.025217924,0.03481133,-0.024712346,-0.013826849,0.048777662,0.023470579,-0.032874893,0.06850307,0.013181154,-0.030327592,-0.04407077,-0.058570504,0.015374821,-0.021648502,-0.025139395,-0.00237263,-0.004662834,0.06386898,0.009271741,0.032554723,-0.002861321,-0.025963083,-0.037604965,-0.02444712,0.004598068,-0.06606351,-0.013374373,-0.018943321,0.016600085,-0.0012751445,-0.008352771,-0.027876081,0.00103545,-0.04202212,0.06960001,-0.02143694,0.0415484,0.04835508,0.056967303,-0.04766073,0.04430157,0.08063042,-0.006670788,-0.028889153,0.025565553,-0.06824577,-0.0069839545,0.046897583,-0.023232436,-0.03407067,0.0121863745,-0.035479367,0.056166343,0.03429066,-0.023909315,-0.024565293,-0.0016286634,0.009644546,-0.051768743,-0.019869685,-0.0076818373,-0.006974578,0.052756134,0.01985686,-0.060389485,0.07479081,-0.014730142,-0.024730809,0.04381578,-0.020658005,0.079628505,-0.0655478,-0.04097058,0.050660025,0.06539483,0.061046302,-0.05864966,0.00091776624,0.065500125,0.014482262
inconnu,0.027555935,0.03034605,-0.023181092,0.0040062666,-0.07275136,-0.020569516,0.04495953,0.020795155,-0.024088934,-0.0033208728,0.0029663444,-0.015503168,-0.031217337,-0.0096376985,0.039980963,0.02573277,0.044774197,-0.027403262,0.0017938614,0.0620751,-0.030386083,-0.019957919,0.05761379,-0.010439886,-0.00079439767,-0.051962327,-0.004456993,-0.04872147,0.034468465,0.0060963742,-0.056976724,-0.0015300531,-0.043899752,-0.03077381,0.028712975,-0.0010835305,-0.0395032,0.07077673,0.043371536,-0.070615664,0.008814052,-0.020533063,-0.0016753171,-0.029195298,0.077575654,-0.017997192,0.059789523,-0.023610007,0.007604424,0.058752783,0.007222891,-0.035214987,-0.08267118,-0.032771863,0.051807724,0.0001825206,-0.027743448,-0.027455628,-0.03284296,0.041188687,-0.0116124265,0.06761688,-0.04328219,0.02294762,-0.014205705,-0.015538976,0.059331104,0.048254207,0.014434326,-0.037425768,0.09509664,0.058768995,0.025560249,0.05693341,0.050861202,0.016503725,-0.024651743,0.015995186,0.018719291,-0.0637543,-0.017679933,-0.030490067,-0.0017630123,-0.007527005,0.07977158,0.007099418,0.06229888,-0.03231579,0.038724758,0.08987535,-0.040010307,-0.05556966,-0.043901373,-0.044997297,0.08332368,-0.0134657025
à,0.023047898,-0.017860636,0.009476939,0.041020874,-0.009687547,-0.07909657,-0.022127979,0.008610377,0.023713527,0.013211416,0.06896488,0.0126121435,-0.017741378,0.059026405,0.042670302,-0.009635463,-0.023921695,-0.0050650984,-0.039284263,-0.026382001,0.005673468,-0.061890297,0.028129999,-0.008083035,0.045024008,0.10932839,0.021508414,-0.040749002,-0.0720287,0.05754283,-0.04651136,-0.030138325,-0.017345484,-0.049113523,-0.03803785,0.009272212,-0.0373285,0.04804001,-0.029938646,0.02998029,0.010216884,-0.016528431,0.030708447,0.017923832,0.08106281,0.026523724,0.0033490993,0.0017445907,-0.056587346,0.060911167,-0.06738873,0.103277236,-0.01610405,-0.00863955,-0.036526017,0.0008670557,-0.09819365,-0.057168614,-0.053051542,0.010999637,0.023465104,0.02441129,-0.014379552,0.004149914,-0.0038161073,0.05923608,-0.020166386,-0.062186245,-0.056619294,-0.07204616,0.058268324,0.03676848,0.024011185,0.0072022043,0.018859258,0.065131456,0.050409608,-0.016172279,0.01572009,0.010066982,0.029386522,0.06253144,-0.091170505,0.01697644,0.023177076,0.05045507,0.100515395,-0.039115794,-0.045954347,0.06293333,-0.011106595,-0.014591984,0.029789472,-0.04898397,0.03703156,-0.041586626
secs,0.020327535,-0.020765366,0.022634532,-0.012033641,-0.0742975,0.0061661564,0.00143224,0.0333531,-0.0002516769,-0.014242161,-0.010702429,-0.029228354,-0.022061255,0.043698408,-0.013105772,-0.012832519,0.036995996,0.0085408315,-0.010753669,0.022135593,0.03683908,0.05068693,0.062257573,-0.015946353,-0.0072110742,0.026353195,-0.040214993,0.02632358,-0.02089014,0.07447296,-0.047201503,-0.021729972,0.06422253,-0.0006756894,-0.015004203,-0.0063574426,0.060990028,-0.033856414,-0.004365232,-0.012635592,0.024482753,-0.0118637085,0.03365529,0.0317257,0.023063112,-0.031738758,-0.010958731,0.000100158155,-0.0070398934,0.047347955,0.026214622,-0.056843344,-0.07964757,-0.04677397,-0.01964438,0.006324958,0.061323047,-0.009889148,0.04506805,0.071352236,-0.008231863,0.017250787,-0.01204188,-0.0065392014,0.0019531623,0.023015108,-0.054892838,-0.051795032,0.032144323,-0.051982224,-0.025573552,-0.028297829,0.03447106,-0.0144550875,-0.019993355,0.031871293,0.057402216,-0.05492141,0.0010766722,-0.020087194,0.03739469,0.059268028,-0.039092876,-0.0021923184,0.007128384,0.022611331,0.022937872,-0.01957011,-0.015432809,-0.028220594,-0.04911492,0.04566845,-0.024458427,0.02932581,-0.0074514616,0.028016128
de,-0.0073535554,0.031285815,-0.05639169,-0.058462385,0.10142638,-0.06679493,0.0855885,0.03138399,-0.0035497714,-0.076430924,0.09104339,0.018955823,0.04348614,0.07140012,-0.04899261,-0.012395758,0.13057396,0.056165207,-0.04269713,-0.03360698,-0.023628399,-0.043391854,-0.069478564,-0.097366884,0.006497642,-0.034414653,-0.009591831,-0.09602478,0.019907692,0.002136752,0.07135172,-0.05849693,0.055877976,0.023095647,0.11167437,0.088396534,0.06515617,-0.036138907,-0.13537148,0.007714648,0.011278381,-0.10823582,-0.058441788,-0.102490336,0.06685801,0.06998992,0.08757217,-0.00064917654,0.082175426,-0.111497015,-0.072198555,0.018217219,-0.0902085,0.08229197,-0.0086556785,-0.019661892,-0.07684453,-0.093867846,-0.014027476,-0.041638903,-0.01683011,0.052367132,0.10834101,-0.061815895,-0.10700418,-0.079642266,0.057059884,0.0044122776,-0.07518667,-0.007776916,-0.03570982,-0.037213057,-0.044824168,0.016069436,0.039284427,-0.0064351726,0.022275863,-0.062172975,0.014225217,-0.009162016,-0.080088854,-0.04603727,-0.09397754,-0.10752587,0.011800172,-0.021051269,0.11392027,0.011488697,0.039114892,-0.07045477,0.00068690395,0.11907998,-0.08249448,-0.05696383,-0.09263259,0.019632766
champignon,0.002288904,0.0025536567,0.032033227,0.05082062,-0.020574212,0.013505401,-0.045520924,0.056932244,-0.055150904,-0.010075808,0.0035710074,0.015681248,0.01917692,-0.03981836,0.051763646,-0.011980664,-0.06036644,0.012668563,-0.03883345,0.0014235489,-0.025117196,0.014655843,-0.086656734,0.027188227,-0.07214858,-0.0059849024,0.006202087,-0.00012202002,0.07202668,-0.08712028,-0.039191652,0.042082027,0.009540211,-0.009602871,0.058415204,-0.05267264,-0.054296065,0.051834807,-0.080480434,-0.059306122,0.045058288,-0.07978907,-0.009627905,-0.04108046,-0.07473525,-0.06924832,0.010560285,-0.033103004,0.011853471,0.00836787,0.035101667,-0.0024912506,0.0036252048,0.054652512,0.05708883,0.009202901,0.008139353,-0.0012444966,-0.0068851486,-0.023471486,0.029832292,-0.023129903,0.013688197,-0.028981922,0.039187595,0.044729292,0.06691726,-0.006365765,0.07679806,0.04053178,1.2565404e-05,-0.0052050203,-0.00799172,-0.057286132,-0.037311457,0.04537127,0.026489679,0.00012325123,-0.0727638,-0.008438703,0.0313617,0.01851878,0.003704656,-0.017238602,0.02814027,-0.0753029,0.07465425,-0.034727626,0.012449708,-0.024923563,-0.05641216,-0.007396616,-0.0842934,-0.015160799,-0.04143598,-0.08520599
sec,-0.035155397,0.0026186556,-0.0049649402,0.032059625,-0.03784486,-0.02047718,-0.005556697,-0.02446865,0.014787064,-0.013658658,-0.015456595,0.021588769,0.042762306,-0.033849508,0.0147349,-0.08080572,-0.070458665,-0.047108255,-0.027447179,-0.0145043805,-0.0048117917,0.01747711,0.0119499415,-0.028780874,-0.09681974,-0.0042177257,0.041573934,0.027119689,0.00025461055,0.06041428,0.014461027,0.04679067,0.05295948,0.01906555,-0.03026921,0.020978214,0.015262147,-0.006731037,-0.08349016,-0.08647492,-0.017880416,0.045124907,0.08417034,0.017789852,0.0040729344,0.03765548,0.014824002,0.022050679,-0.06347545,-0.040103544,-0.032125797,-0.03776404,0.028965328,-0.05364646,-0.03369532,-0.03031219,-0.046059746,-0.041313548,-0.005459221,-0.0363839,-0.056148082,0.06081593,9.730831e-05,0.0043777656,0.0001441054,0.028291214,0.0029240837,0.012428347,-0.05290493,-0.076848015,-0.048051294,0.047288403,0.022106068,0.020892607,0.0013472382,-0.051070135,0.014105646,-0.070912585,-0.025341926,0.025630323,-0.037725445,0.054085765,0.02599085,0.007620397,-0.04397735,-0.0475995,0.05412356,0.026257357,-0.023553519,-0.055625424,0.026742686,-0.03594324,-0.056612052,-0.018623127,-0.01372204,-0.03247039
floral,0.020772599,-0.048404407,-0.07141848,0.04962548,0.023706485,0.005283026,-0.051086463,-0.0034792423,-0.0087587945,-0.026701737,0.046290137,-0.059715584,-0.016055092,0.018084813,0.004801158,0.014843896,0.056256495,0.004830051,0.05507803,0.029722642,-0.041478433,-0.06012658,0.010488499,0.01965585,-0.004975632,-0.00033951923,-0.023547793,-0.016680004,-0.07331216,0.037049614,-0.0037149042,-0.049301993,0.061119176,0.0012925155,-0.0679363,0.010448907,-0.025663042,0.055513524,-0.037746202,-0.039212372,-0.06226647,0.061734512,-0.015343333,-0.027129268,-0.035464168,0.04170802,0.002537772,-0.078883745,0.041133415,0.07173227,0.0015112646,-0.00951419,0.028484497,-0.07224113,-0.0306368,-0.041596916,-0.0060041323,0.050784037,-0.0519609,0.011643838,0.03264469,-0.025361516,0.047592115,0.043528777,0.029590536,-0.051421955,-0.067863025,0.00445864,0.044893943,0.0055831224,-0.020093773,-0.005378505,0.024234746,0.03672755,0.023225894,-0.020179952,0.052147873,0.04564945,-0.040527046,0.016216302,-0.0051495433,0.027649667,0.033541527,0.014540946,0.07255985,-0.0049270764,0.0036118478,-0.010032725,0.03012637,-0.0442556,0.03416462,0.07285656,0.0495085,-0.047985554,0.07321881,0.01902467
géranium,-0.010123277,0.017034544,0.046140295,-0.01318929,0.045374133,0.03964177,-0.0019946732,-0.019862607,-0.016462728,0.013556171,0.023346543,-0.005555082,0.036278274,-0.004945539,-0.057760097,0.022343539,0.045340966,0.03821402,-0.016872756,0.056931727,0.021531414,0.021795224,-0.003016457,-0.0033527128,0.02418027,-0.06669394,0.049161673,0.01456121,-0.0025091432,0.02228288,-0.0653882,0.0013040174,-0.040117502,-0.021263361,-0.037745703,0.005875254,0.053758606,-0.01246326,0.0050937086,0.033181023,-0.076525435,-0.07884666,-0.0013939403,-0.043710053,-0.005899418,-0.012559891,0.009402428,0.07497973,-0.0726377,0.028061017,0.031613268,-0.024655726,0.032060433,0.015807986,0.018620446,-0.041257165,0.008904699,0.01963501,0.01247376,0.03098923,0.020191897,-0.0042421483,-0.0064114295,0.0469074,-0.04983138,-0.028574621,0.027371239,-0.0040514953,-0.0009979829,-0.052053932,0.032310247,-0.04383831,0.056481257,-0.07244919,0.045632437,0.05077809,-0.03946568,0.01696987,0.06076385,0.07910218,-0.014279444,0.015722957,0.018085577,-0.026455857,-0.040076878,0.06868098,0.031215407,-0.06658945,0.0053733476,0.036520664,0.020804968,-0.048555005,0.015652468,-0.054716337,0.033437256,-0.0428619
empyreumatique,0.06758629,-0.08429889,0.02542961,0.009069409,-0.041463234,-0.008687079,-0.05161332,-0.0037908666,-0.0019760393,-0.029988024,0.036076996,0.031511303,0.025937855,-0.0035485849,-0.03762819,-0.0027678944,0.04112723,-0.055836488,0.0055400245,-0.04979136,-0.0042595733,-0.027456023,0.07558902,-0.0017374009,0.046158776,-0.051356364,-0.0011083595,0.06517622,0.047241688,-0.03495716,-0.011017285,0.008815598,0.0118917,0.020940635,0.036463976,0.022116039,0.056021467,-0.0386009,-0.049692474,0.062339664,-0.013932535,0.0822818,0.020829156,0.017717611,-0.06768289,0.017133813,0.005864011,0.035876203,-0.028464064,-0.084294856,0.06834682,-0.011743929,0.0440555,-0.004837416,0.009881534,-0.053366233,0.04823179,0.033935275,-0.021127138,0.0061909314,-0.05648905,-0.04585794,0.025388326,-0.005806241,0.0475729,-0.04775536,0.060932934,0.0029896162,-0.008645751,-0.03136991,-0.0038380176,-0.05083512,-0.05697298,-0.021391464,0.031716026,-0.030085016,-0.060571097,0.037255503,-0.018854177,-0.012038171,-0.028590156,-0.0071839336,-0.022305813,-0.00502399,-0.06764494,-0.00014714152,0.07841514,-0.025040124,-0.06739636,-0.04463116,0.0018088911,-0.020522118,0.03198227,-0.011065219,-0.05970043,-0.018171165
chimique,-0.012351304,0.018317308,0.0091381995,0.041880947,0.0758121,0.05300416,-0.0112058,0.029719103,0.059445426,-0.03843391,-0.064967684,0.0071689077,0.058144458,0.043230303,0.023450151,0.017303348,0.007587459,-0.075189464,-0.029500816,-0.009449806,0.018112253,-0.03829901,0.008922918,-0.007914556,0.0104747005,0.10369875,-0.0489463,-0.0006191321,-0.079087675,-0.025106193,0.022489684,-0.06745745,0.00907813,-0.016918346,-0.008769944,-0.02681068,0.0154754445,0.05610818,-0.05026411,-0.023854716,0.027458306,0.03528492,0.08441717,0.018290572,0.007635648,0.0014113616,0.020989396,0.02059548,0.03287012,-0.046268072,0.03983201,-0.067254305,-0.030494962,0.04916003,-0.023944417,-0.04795097,0.060949232,-0.04534103,0.050593603,-0.032320447,-0.039718512,-0.006296657,-0.0064356234,-0.031015016,0.02751326,-0.0142923165,0.044087816,-0.04324021,-0.03474097,-0.008831387,0.014055513,0.04203018,0.052451134,0.0026400704,-0.03781554,-0.065978706,0.08055436,-0.013595441,-0.05704602,-0.036206044,-0.008051885,-0.030484807,-0.05340446,-0.009018175,-0.008494716,0.021345483,-0.00025277585,-0.036859438,0.043967497,0.020085178,0.046208397,-0.012737989,-0.015267683,-0.010808091,0.04995942,0.05481375
autre,-0.037485596,0.010946313,0.021001475,0.011082571,0.041279003,-0.04931999,-0.02621391,0.049423367,0.00059491396,0.0036102757,0.029433347,-0.05688582,-0.005554892,-0.016099066,0.03765843,0.07037243,-0.034849584,0.008475363,-0.049682092,-0.019046634,0.020190457,0.04805328,-0.07205878,-0.038128555,0.02873185,0.04408312,0.0024370067,-0.022214875,0.055134706,-0.03307569,0.023203395,0.0068557127,0.0345399,0.024827264,-0.00086993165,0.05615695,0.0074313655,-0.085342124,-0.024620708,-0.027290586,0.084384754,0.03309171,-0.014529873,-0.019668326,0.03460795,-0.0019712849,0.033223018,0.047836445,-0.01756402,0.030173948,0.0081445165,0.016296806,-0.05329264,-0.0065898895,-0.0075133033,-0.10583921,0.0042690784,-0.060178995,-0.020166399,0.007279765,-0.0388832,0.052862704,0.002127476,-0.08406918,-0.030301075,-0.017903212,-0.029851021,0.024096917,0.022155084,0.016929649,-0.0340371,0.029540706,-0.07621451,-0.006486295,-0.015495332,-0.028760482,0.023365177,0.037247814,-0.009766657,-0.021477314,0.017180994,-0.07037645,-0.06118126,0.041138187,0.006457015,0.0057471693,0.048224654,0.041471273,-0.01297389,0.002640645,0.012822897,8.356571e-05,0.015357794,-0.026883248,-0.05304967,0.011329246
rose,-0.0778974,0.029883921,0.0104354285,-0.0010700338,-0.008192133,0.010140192,0.07909127,-0.016067948,0.0006637201,0.030653622,0.041599073,-0.05024322,0.04621886,0.040595006,-0.004925862,-0.02841866,0.022372354,0.05026918,-0.00904651,-0.051140096,-0.047870994,0.06612511,0.011503778,-0.02287906,0.009293331,0.025107943,0.018734893,-0.02075491,0.023266736,-0.036443792,-0.00367048,-0.0046539158,-0.0403402,-0.0017185062,0.014784351,-0.009789217,-0.058423843,0.020825159,-0.07641603,-0.011828285,0.02169175,0.024723735,-0.01764362,0.025590573,0.037650377,0.048586614,-0.047665536,0.0034549497,0.053776346,-0.046617474,-0.031444296,0.023265745,0.01903566,-0.056166697,0.030784752,-0.06956408,0.06982414,-0.05364503,-0.011688974,0.020018462,0.037809633,0.07404605,0.06362743,-0.037345696,-0.039433815,-0.0014996491,-0.025591705,-0.015634079,-0.08788425,-0.031228175,-0.018004522,-0.028186869,-0.011650015,0.04395692,-0.027367128,0.010813145,-0.025482997,-0.08855865,0.019664172,-0.014574692,0.080995955,-0.055432275,0.015254568,-0.038301613,-0.0014914367,0.027865827,0.07024327,0.029278992,0.036334217,0.054259863,-0.02066997,-0.020521235,0.04176741,0.07074142,-0.0749383,-0.002482215
cuits,-0.015404128,0.069213465,0.03227233,0.046179123,0.06015803,0.018287772,0.02070718,-0.04750697,0.0007735975,0.022558011,-0.04169028,-0.00882693,-0.04189462,0.018022865,-0.045238096,0.09525171,-0.0026326273,-0.049971487,0.02067642,0.00088930316,-0.021367848,-0.020590592,-0.045805164,0.040811032,0.11234847,0.07141736,-0.05813328,-0.09744371,-0.014668308,-0.062143933,0.057664707,0.011286272,0.008166293,-0.057377312,0.029140491,0.052928787,0.043054078,0.008231204,0.0029802322,0.0057790335,0.0044657737,0.014269613,-0.035203245,0.032046415,0.05759334,-0.002735436,0.10646814,-0.0078239925,-0.0057634152,-0.06473695,-0.027928688,0.031179821,-0.013515621,0.04225416,0.01312178,0.009536886,-0.0047767446,-0.040944673,-0.001411872,0.03403307,0.008540378,0.015101384,-0.00025641173,0.012514312,0.03638552,-0.09015789,-0.06849509,-0.082736924,0.032601308,-0.053217888,0.0068889745,0.06983037,-0.053552493,0.016820757,-0.051668473,0.031918984,0.0582648,-0.007064884,0.040857572,-0.055854265,0.1035847,0.06346939,-0.025346056,-0.0015853812,0.06603953,0.049867824,-0.007985189,0.025896687,0.06816521,-0.036017746,0.03683369,0.024884151,0.08331892,-0.0016022269,-0.041671373,-0.0027997475
noyau,-0.03753973,0.120263256,-0.0072701504,0.020684829,0.0851752,-0.039074477,0.08329323,-0.0031086467,0.043204863,-0.042754777,0.075964086,0.064212605,0.08438963,-0.0028236937,-0.02304564,-0.0010226856,0.063213006,0.09297119,-0.01792784,0.004038617,-0.030085858,-0.06675871,-0.059892207,-0.029249454,0.09165191,-0.015630387,-0.05412271,-0.038283907,0.120111465,-0.039037045,0.057307817,-0.030460134,0.007475422,0.066075206,0.13061422,0.042217415,0.052056998,0.022722844,-0.06581435,0.007557489,0.030742895,-0.123345494,-0.035373695,-0.0760059,0.0730834,0.04250425,0.050934575,0.023730751,0.043590143,-0.071374565,-0.05115425,-0.017241538,-0.07351011,-0.00515718,-0.008751798,-0.022390189,-0.0078425035,-0.057540208,0.00770502,0.03175934,-0.034064822,0.056483813,0.117052525,-0.07358649,-0.08876302,-0.098398164,0.06418584,-0.03059292,-0.038542654,0.009807706,-0.010215305,-0.0027996823,-0.105200924,0.014554091,-0.0023222826,-0.033205938,0.017204178,-0.08749117,0.057045776,0.017736882,-0.05358523,-0.01275421,-0.029177057,-0.06367008,0.11914824,-0.018047368,0.0845861,-0.037773,-0.008201236,-0.13901116,0.013587505,0.102718174,-0.095741704,-0.039394386,-0.1041476,0.05059868
cerise,-0.042888552,0.07143872,-0.019060459,0.0036135186,0.0714405,-0.0020987997,0.076235324,0.047791947,0.0032297228,-0.06471254,0.045455474,-0.010088442,0.06674786,0.07472345,-0.08623535,-0.029547542,0.00309189,0.005759489,-0.052486498,-0.005637627,0.03628023,-0.073578574,-0.05180489,-0.027211275,0.038368456,-0.010586966,0.008215779,-0.029933507,0.11699222,-0.019027758,0.018162306,-0.08208587,-0.014626594,0.059331384,-0.021048773,0.01923937,0.06780401,-0.013363941,-0.06331598,-0.00069103576,-0.002797328,-0.101193264,-0.07213181,-0.007837915,0.057125043,0.05752732,0.010808356,0.00907639,0.0447007,-0.085420325,0.010368757,0.039968655,-0.020049728,0.07045924,0.023378039,0.026322994,-0.04300006,-0.07013589,-0.052305892,0.06472366,-0.029093686,0.029830242,0.042163383,0.01649444,-0.017650492,0.020985516,-0.0087259365,-0.07581123,-0.02173698,-0.023814902,-0.07882558,0.023897152,-0.043296274,0.033867393,0.10139134,-0.067138284,-0.060151152,-0.024500243,-0.0027580261,-0.016983218,-0.042791963,-0.038494926,-0.020023072,-0.07435615,0.09319,-0.04168983,-0.052389376,-0.084186584,0.029773667,-0.059072312,0.015808322,0.05823477,0.014324598,0.0058304295,-0.08414844,-0.005426176
agrumes,-0.03289607,-0.058896244,-0.048367217,0.062142603,-0.023068868,-0.01555867,0.012200082,0.017483968,0.017587606,0.013429757,0.029138833,-0.004436869,-0.0017349403,0.07388081,-0.026604101,0.029313091,-0.035979927,-0.059270777,0.058162883,0.013899691,-0.017916588,0.027249847,0.04408924,0.033276632,0.07770659,0.043876823,0.058929518,-0.056711275,0.009445254,-0.016026795,0.01769937,-0.015111379,-0.005998504,0.06467375,0.03695642,0.040806893,0.04238567,0.07713454,0.003249243,0.055922527,-0.025332136,0.049366873,-0.0068096174,0.05560933,0.05933803,0.0567557,-0.025029698,-0.023397587,-0.0019371882,-0.025953364,0.04487939,-0.0316355,-0.07388821,0.06367464,-0.061207063,0.005224578,-0.0052278023,-0.055816237,0.04338677,0.0026734155,-0.0140899895,-0.037667446,-0.039469633,0.057142764,-0.034262955,0.025038641,-0.051420704,0.010818902,0.060912617,0.025586203,0.058277622,0.02587606,-0.049628854,0.03805162,-0.07780261,-0.00052176416,0.04399192,0.028760523,-0.024658678,0.016247746,-0.066000685,0.026116583,-0.012391215,-0.03384441,-0.0089315325,-0.051135242,-0.018947715,0.045878403,0.08154624,0.005611174,0.0058216527,-0.0032424517,-0.038877793,-0.0412505,-0.021185491,-0.06330652
lactone,-0.017584585,-0.044314314,0.009118594,-0.027549163,0.014528859,-0.026321486,-0.021775816,0.0933432,0.042996004,0.007863354,0.030629318,-0.011282254,-0.06799613,0.015633486,-0.035804607,-0.04461671,0.018883158,-0.04176513,0.059504863,-0.06295921,-0.035427906,0.040805295,0.07041388,0.003143929,-0.07009949,0.014750335,0.037488416,-0.088641435,0.00957351,-0.07680659,-0.034187302,0.0051588863,-0.012639675,0.057292342,-0.010068392,0.027388155,-0.011518832,-0.058011007,-0.047504485,-0.022238709,-0.02829621,-0.048153855,-0.005040236,-0.04307779,-0.07013402,0.043662116,-0.021677624,0.0009832159,-0.0053820238,0.0063368194,0.015529275,0.0024343133,-0.052242983,-0.0006752275,0.039953616,0.03777042,0.0498048,0.08097327,-0.034766886,-0.0015803203,-0.06831541,-0.041533984,-0.052215744,0.060606733,0.01003721,0.017653037,0.04068848,0.035767056,-0.05564151,-0.029809572,-0.04190389,0.021787498,-0.054398455,0.02157929,0.04032837,-0.016132154,0.039162662,0.023185853,0.036091186,-0.015011668,0.010100028,-0.06019627,-0.062113144,-0.055733122,-0.028901137,-0.037457965,0.082226686,-0.03986428,-0.011100993,-0.08454217,0.029678844,-0.059917107,0.03501334,-0.010048937,0.054550424,0.017092278
noirs,-0.002733495,0.020405997,-0.0062708817,-0.02826531,0.005137015,0.058923915,-0.045980528,-0.01872709,0.028953373,-0.056699254,-0.048236825,0.04062814,0.07116588,0.01737399,-0.015302315,0.028759982,-0.0606971,0.00011584908,-0.008920858,0.07218859,-0.013020065,-0.035513353,0.051498927,0.044554215,0.038152836,0.034295414,0.021288183,-0.044451404,-0.04466275,0.02297497,-0.004481651,0.0441779,0.032602537,-0.009997189,0.0027708448,-0.08165685,-0.025213873,0.07453277,0.0022550672,0.010250498,-0.09295894,0.03183788,0.007417977,-0.07383156,0.052438155,0.03373126,0.016152631,-0.0071589947,-0.029366637,-0.0036802776,0.04906017,0.05987651,0.007513318,0.04799409,-0.026396062,0.045174193,-0.03436955,-0.006043706,0.07853692,-0.017173138,-0.011567332,-0.03726944,0.06168752,0.028008126,0.043498136,-0.022697438,-0.013387766,0.013079856,-0.044264577,-0.0023915172,-0.06432637,-0.06153456,-0.009935971,-0.026004493,-0.0049757846,-0.05579728,-0.0039598234,-0.055941902,-0.05804322,-0.0026720725,0.017280756,0.03731918,0.051079605,-0.077782035,-0.06431918,0.0073372945,-0.08766553,0.06997201,-0.049741138,-0.07554642,-0.0082578175,0.0059408415,-0.04832543,-0.008173384,0.005987849,0.07511263
levure,-0.0040248223,0.01089651,0.0031499676,-0.013388395,0.0060907966,-0.0020901076,0.000119220465,-0.01619351,0.05662625,0.022154285,0.057291046,0.022159787,0.012699127,-0.04799211,-0.0005635191,0.030129015,0.04932312,-0.040390752,0.10873449,-0.031517375,-0.017590644,-0.08480252,0.018521257,-0.001874689,0.0394724,0.04426401,0.06007936,0.020664375,0.03455749,0.0064448193,0.018444521,0.07711499,0.01883424,0.012464838,0.0015642941,0.059129424,-0.025279677,-0.006455548,-0.011116211,0.029971994,0.022002785,0.004627902,0.037300795,-0.02668792,0.0029852856,-0.036001876,0.089565426,-0.008622039,0.027954256,-0.03626335,0.01742763,0.03503809,-0.0808873,-0.03563407,-0.058057055,-0.058325153,0.016348641,0.0037688315,-0.05819939,0.024181206,0.013756188,0.05401226,0.0010096654,-0.0032252949,-0.012189539,-0.020049598,0.033085253,-0.066152446,0.02260217,-0.010587521,0.06204826,-0.011195184,-0.06853222,0.10268292,0.0040021203,-0.051430196,0.055263262,-0.10478617,0.07605387,0.01781544,0.045759015,0.09748703,-0.05161761,-0.031305533,-0.024644468,0.018663697,-0.019166877,-0.04383416,0.044533107,-0.06745214,-0.037721615,0.065999664,0.015038126,-0.022078294,0.031973608,-0.023830904
métallique,-0.062232137,-0.07100383,-0.0038831942,-0.030580532,-0.044771075,0.034205034,0.01782125,0.014905086,0.0065358877,0.08002611,0.07629373,-0.031014822,0.009277273,0.0022473224,-0.025496745,-0.049214292,-0.05496957,-0.055221092,0.0040083155,-0.06389959,0.07785911,-0.00030105188,-0.08361229,-0.03990395,-0.016475555,-0.022799674,0.010528244,-0.0032733567,0.035923902,0.009770155,0.03128798,-0.054363612,0.0003354922,-0.033064663,0.02895974,0.042146303,-0.0022480376,0.025552131,-0.010895826,0.03546835,0.071634494,0.024390744,0.009093557,0.08530994,-0.059545696,0.029967394,0.00588038,0.054043,-0.035373032,0.040695608,0.028741132,0.020913087,0.0103112925,-0.009808483,0.07550431,0.050741944,-0.06096324,0.019706976,-0.008017693,-0.08083622,-0.04660008,0.062407076,-0.016231667,0.040562462,0.026353959,-0.0016226862,0.009898219,-0.0080306195,0.048859276,0.032951966,0.06388754,0.025102966,0.019064512,-0.008007767,-0.013688562,0.0070319176,-0.010231458,0.0011392012,0.031226508,0.028057229,0.032227464,-0.018335294,-0.062661804,0.080835715,0.021665063,-0.003956223,0.06484497,-0.015065942,-0.0072515532,0.010538507,-0.061838113,0.037159096,0.046696544,-0.06633429,0.02922912,-0.036244538
noyaux,-0.081742704,0.02530155,-0.08847735,-0.024253512,-0.006504895,0.027986225,-0.00817287,0.0026919711,-0.0011838935,0.03302863,-0.036749076,0.0050799027,-0.053387787,-0.04656116,-0.029591307,0.020459168,0.0022236258,-0.06871767,-0.02147039,-0.009846032,-0.07436137,0.05232224,-0.024920858,0.004927624,-0.055473853,-0.061806902,-0.034288302,-0.016118994,0.022956852,0.024367895,0.07834442,-0.011733446,0.011006139,-0.06481475,-0.009585977,-0.026999893,0.026672218,-0.0325284,-0.019647898,-0.016745754,0.007616829,-0.020061161,0.025337078,0.076551385,0.015079293,-0.016096309,0.04066966,0.04916074,-0.060571015,0.064778775,0.04080849,-0.006851699,0.02267963,0.03878727,0.013029411,0.011141773,-0.05171772,0.043349937,-0.08761454,0.025540806,0.036506906,0.029935166,0.037382707,-0.08773414,-0.06363636,0.02767136,-0.0003257282,-0.056495048,0.032532074,0.037418727,-0.06572827,0.09536449,0.029082242,-0.08783527,-0.0009279512,0.06525773,-0.08285777,-0.028455772,0.06854248,0.045513462,-0.012582447,-0.052470826,0.009956513,0.0490493,-0.045520946,0.03246256,0.0058372635,0.016985338,-0.025089037,0.07288183,0.024661502,0.02683369,0.006678831,-0.036917485,-0.034101605,-0.0524241
animal,-0.008228768,0.014028547,0.022565693,0.03903849,0.035712574,0.034105595,-0.055049703,0.040374793,0.018166622,-0.018456442,0.028107092,0.03585854,0.06377958,-0.07116695,0.050947778,-0.017831627,0.024453394,0.011173222,-0.0014992878,0.015451772,0.004790783,-0.029463377,-0.03814013,0.008550921,-0.030446038,-0.04060637,0.021413267,-0.003014326,0.02124601,0.037117034,-0.028510798,-0.0675103,0.041773986,0.0034001134,0.07105815,0.009523645,-0.014545955,0.040666312,-0.050841473,-0.012589739,-0.061181173,0.05441031,-0.031648953,0.040334888,0.029263318,0.015947433,0.018354554,0.04213548,0.0072892904,-0.025250595,0.004508972,0.05498642,0.022612844,-0.04760438,0.065724954,0.07462835,0.026584672,0.04253336,0.05119279,0.031269852,-0.0027540503,0.03421884,0.006072998,-0.071112126,0.030648636,-0.010133265,0.022364726,0.009585979,0.043954268,-0.03256499,0.04746654,0.025407737,0.050925314,0.01027981,-0.048252776,-0.028255727,0.0015600305,-0.05429968,-0.01039169,0.005897686,-0.008303009,-0.009098595,0.039738506,0.014796607,0.07065724,0.029896095,-0.052010447,0.0035424782,0.05586882,-0.00037114415,0.01046746,0.04381716,-0.05700719,-0.060009047,-0.036484078,-0.0564579
malte,0.017873181,0.10081649,0.011496849,0.062573776,0.016532153,0.07255632,-0.030642409,-0.021041822,-0.06325245,0.03715626,0.045174163,-0.0020892434,0.0047539975,0.030872237,0.04481955,0.018581366,0.011456229,-0.065997645,0.10910258,-0.005370941,0.02028522,-0.07220038,0.028051492,0.054055586,0.0128821395,0.043591477,-0.0023815408,-0.031563543,0.007709441,0.024653787,-0.0006304404,0.03894589,-0.011115901,-0.05022958,-0.011936223,0.034134768,0.024654534,0.07169126,0.056518134,-0.019946665,0.08297305,-0.013190927,-0.024462402,0.0047149137,0.020683613,-0.07768979,0.051450845,0.04040236,-0.0395025,-0.06922445,-0.023754986,-0.042616494,-0.035629034,0.022471854,-0.024388243,0.028848179,0.056332767,-0.06386459,0.028465055,0.0007114671,-0.029960357,-0.054793056,-0.05903943,0.029841624,-0.00601127,-0.036793735,-0.032706115,-0.038733117,-0.02022744,0.03788513,0.011502619,0.05494287,0.041457705,-0.035713173,-0.02147744,-0.027079193,0.02915157,-0.047896657,-0.017376117,-0.00521975,-0.005623933,0.008007208,0.031126443,0.059951343,-0.051853932,-0.009792905,0.0038902275,-0.06633807,0.021628648,-0.06436103,-0.013907518,0.06539495,-0.0023345826,-0.0441893,-0.07456633,0.0072295703
amande,0.036580577,-0.040191293,-0.047809113,0.023202706,-0.0016510859,0.03751667,0.004672002,0.057618253,0.015855696,0.004488472,0.014431812,-0.006413903,0.036981344,0.032590877,-0.06160041,0.026539102,-0.0054848045,0.02101281,-0.045216713,-0.04449129,0.012313638,0.047622126,0.0328262,0.013009038,-0.014326572,0.0049018376,0.071376994,-0.0461687,0.010742392,0.044148527,0.021063212,0.07895235,0.014636282,-0.015546847,-0.011190936,0.026979875,-0.03400005,0.00955442,-0.040256493,-0.060119953,-0.0105704535,-0.025549972,-0.031387113,-0.047102798,-0.02569779,0.029185703,-0.051269446,0.0046914965,-0.05857601,-0.05076047,0.050929524,0.05271087,0.053371087,-0.054667007,-0.05712619,0.05655242,-0.015650462,0.03770641,-0.025043152,-0.05215,-0.017659444,0.03481082,-0.0051063187,-0.027217332,0.063795105,-0.011747077,-0.034565605,-0.09338841,-0.020107437,-0.0410619,0.039660968,-0.001328811,-0.048596993,0.017157592,0.029948093,0.015374016,0.0039179437,0.070837215,-0.05000453,0.027565382,0.046024848,0.069643214,0.05071286,0.0724327,-0.00067728944,0.010278976,0.009280514,-0.022273693,-0.04675175,-0.021539077,0.015580155,0.05359649,-0.022961829,-0.014175665,0.036326014,0.07995405
amère,-0.0186422,-0.013598882,-0.08038695,-0.009235993,0.029213047,0.0703468,-0.009867463,-0.012910103,0.05933819,-0.0015931986,0.038773194,0.026805025,0.0053649284,0.0036334135,-0.024814367,0.016669225,-0.026903775,-0.031882178,0.002839353,-0.019766964,0.012149729,0.0050851796,0.07377475,0.026182726,-0.024133217,-0.018215049,0.034251973,-0.021088138,0.009199683,0.017159365,-0.07522049,0.053485215,-0.015275106,0.006795708,-0.03827983,-0.01894021,-0.0013345368,-0.03220749,-0.020134464,0.07750358,0.026633956,-0.011356115,0.08926289,-0.07369031,0.0261411,-0.07367955,-0.038054608,0.019906774,-0.01887716,0.038636222,-0.024735736,-0.032171965,0.03717515,0.042476766,0.055964902,-0.011288639,-0.04282018,0.054180905,0.048505664,0.0065671355,0.027626947,-0.011940729,0.05528398,-0.08691889,0.08515952,-0.06061728,-0.077923946,-0.02245884,0.009073377,0.031850275,0.019039944,-0.018571269,0.025843713,0.04552952,-0.011639046,0.00647551,-0.01228752,0.0016250946,0.017723383,-0.03670136,-0.009578966,-0.01690091,-0.039130125,-0.07589559,0.011610208,0.019220363,0.045242533,0.05868352,0.054663144,-0.0722713,-0.048771713,0.078512944,0.022484055,-0.027954746,-0.03330362,-0.06092441
exotiques,0.018479861,0.006645499,0.05178684,-0.002441287,0.03351164,0.03415812,-0.07486752,-0.018661082,0.034109604,0.0058660284,-0.0034438856,-0.013810132,0.0033590198,-0.028131332,0.0072512254,-0.022685574,-0.041909635,-0.018298723,0.013390366,-0.051420525,0.027370345,0.00049586594,-0.01706449,-0.060729086,-0.014567651,-0.020201527,0.015654381,-0.0135709625,0.020311054,-0.04016316,0.029033076,0.011995412,-0.042884313,-0.008854497,-0.00229186,0.013705704,0.033754148,-0.06708217,0.066558115,-0.05035757,0.06367725,-0.058995463,-0.0035746768,-0.00045517832,0.0015762243,0.06247001,-0.020658484,-0.013443779,0.009303365,-0.008823525,0.0015604403,-0.009218443,0.024941234,-0.040387105,-0.01946937,0.07674804,-0.011294901,-0.02392131,-0.0045494176,0.025093272,0.030194763,-0.06925951,-0.0353719,0.08400521,0.08135539,0.031969916,0.032002512,-0.03528619,-0.038024414,-0.001054611,0.032038808,-0.01591412,-0.016397275,-0.06709847,0.03671389,-0.01624417,-0.053730965,-0.018089235,0.02193122,-0.04111233,0.032645594,-0.025448203,0.042028576,-0.021650698,-0.021398522,0.06844347,0.043050803,0.04909037,-0.031973027,-0.06344632,0.010358777,0.0055177584,0.04612539,0.0067294464,0.060133174,0.014496587
boise,-0.03380655,0.021444,-0.009663794,0.014748037,-0.021622576,-0.05205847,0.026941683,-0.046131216,0.009988535,0.008967519,0.0013216622,0.044656202,-0.0019318834,0.02721319,0.052683886,-0.074315906,0.032723192,0.07597651,-0.0007602684,0.043027736,0.034923486,-0.07450954,-0.00055605173,0.019302454,-0.058096588,0.06791568,-0.02505197,-0.0039335825,-0.020495951,0.044917677,0.0050641187,0.03433697,-0.06961367,-0.00079482794,-0.052800752,0.0046128295,-0.004302917,0.06706445,-0.0035524145,-0.0067718737,-0.0077275746,-0.011145428,-0.057241403,0.047187105,-0.06817776,0.023162141,0.03974776,0.014620282,-0.008714534,0.040131927,-0.042556442,-0.034514185,-0.058218457,0.006421961,0.039926186,-0.028022394,-0.02916565,0.009626964,0.014074516,-0.008856632,0.023670673,0.032813277,0.0294184,0.00070644356,0.01657016,-0.0035056472,0.049443554,0.019548897,-0.033924118,0.03735906,-0.03387636,-0.001679698,-0.036876343,-0.0017524958,0.039661206,0.02540576,0.019467954,-0.060638167,0.019917298,0.05837301,0.008183446,0.036935505,0.05203147,0.044309903,0.045243382,0.024120275,0.033705633,-0.024065426,0.05151836,-0.0078114867,-0.026235342,-0.068522535,-0.040752947,-0.021874368,-0.004200842,0.040580466
soufre,-0.036553435,0.067803204,0.003012672,-0.0874559,-0.004429862,0.031905428,-0.01665486,0.042973578,0.0395363,-0.03216212,-0.041638635,-0.02249229,0.07448172,0.04727103,0.04563645,0.058342375,-0.008720528,0.013241909,0.0032664202,0.015113544,0.004737733,0.0037377495,-0.035552092,-0.0411269,-0.045789253,0.008249333,-0.06419678,-0.0799128,0.015117109,-0.0130573325,0.035654645,0.041108094,-0.051929533,0.015189042,-0.0019610636,-0.05383518,-0.009392202,-0.04039953,-0.093364,-0.009734139,-0.07438586,-0.037605986,0.007447578,-0.008895734,-0.00923245,0.0274451,0.0066285282,-0.02014514,-0.0027173273,0.038951278,0.01095631,0.04384362,-0.00059884414,0.0895736,-0.029234314,0.009059299,0.011602832,0.076631226,-0.017933358,0.0445995,-0.035303283,0.008633066,0.054728508,-0.067981265,-0.08082041,-0.040611707,0.03156492,-0.01839197,0.013032999,-0.003535904,-0.008940229,-0.0035046078,0.07480706,-0.022111144,-0.014452636,-0.021468984,-0.024408985,0.070863776,-0.04823917,-0.03662642,0.0011284836,-0.015890572,-0.0049701706,-0.0036988147,-0.053180695,0.035169873,0.06983854,-0.009152709,0.058492802,0.036398087,0.08898964,-0.08554288,0.071856655,-0.013382908,-0.02665317,-0.05802425
amylique,-0.060236756,-0.006937839,0.030239824,0.01151875,0.044383492,-0.010033466,-0.0054769516,0.027268264,-0.065942675,-0.039519824,0.045250606,0.065529086,0.08514012,0.04421906,-0.057746902,-0.096657194,-0.00473205,0.09693406,-0.04738301,-0.005070459,-0.028098226,-0.0035115331,0.07495264,-0.04757668,-0.005907405,0.0026051663,0.009320617,-0.000246536,0.03778455,0.08470619,-0.016190793,-0.0049766414,-0.0055937767,-0.009478573,0.06903665,-0.036045276,0.05051122,0.085508466,0.042071626,0.0529698,0.05708252,0.019645944,0.004559014,0.007151723,-0.02770821,-0.064998254,-0.07153094,-0.0122871995,-0.04497677,-0.0011294968,-0.012150144,-0.037556544,-0.027199628,-0.047590017,0.0344579,-0.006011881,0.05679574,0.009160027,-0.010783408,0.026716545,-0.025169242,0.013210498,-0.010610841,-0.01485789,-0.0005677119,0.027930606,0.025351612,-0.04423367,0.08075893,0.052708827,0.021963108,0.03596916,0.035267808,0.0044947118,-0.06894288,-0.06646438,-0.033559002,0.06002225,-0.012304589,0.02514993,0.005231548,-0.047528733,0.016022217,-0.018798959,-0.06620918,0.03922722,-0.048430573,-0.056000486,-0.009861231,-0.021389928,-0.04732895,0.03472397,-0.02662196,-0.059718538,-0.013592172,0.030904584
caramel,0.037895784,0.007389497,-0.004583776,-0.014909744,-0.039956607,-0.0012464635,0.041576117,0.018432297,0.016174257,-0.09049107,-0.07086414,-0.041185666,-0.042985514,0.058055006,0.01635921,0.00024339184,-0.032205895,0.0482924,0.010127161,0.034929063,0.03930449,-0.016847145,-0.013988826,-0.0018876195,-0.039670646,0.00031213835,0.0250033,0.053284317,0.00949556,0.043115374,0.009366669,-0.06430253,0.0157527,0.021288548,0.019332267,-0.053236045,0.020101294,0.0059410445,-0.07210106,-0.051274717,0.030609038,0.039222326,0.008369949,-0.06323855,0.002562357,-0.040859424,-0.081098855,0.0010175481,-0.027274597,-0.009572543,-0.08497772,-0.042249713,0.038848758,-0.027988434,-0.0127760265,-0.06346289,0.02183713,-0.00952195,-0.06823971,-0.0052906238,-0.057858337,0.026331533,-0.093866155,0.024268966,-0.031122837,-0.0049011484,0.032728914,0.013030328,0.044069603,0.03098284,0.024210932,0.0042302124,-0.056048095,-0.05909896,-0.023590207,0.015009265,0.029443495,-0.0027743205,-0.041203905,-0.048725687,-0.046436355,0.00058661774,-0.09812392,-0.05028359,0.075810805,-0.015262783,0.0571099,-0.0031648986,-0.00026106648,0.01900252,0.03247268,-0.05280144,-0.042724464,0.06324473,-0.028940344,0.018055439
vinaigre,-0.09563017,0.021767382,0.03431334,-0.023554798,-0.011323024,0.0037745517,0.008992614,-0.008590116,0.06754552,-0.030000422,-0.033237208,0.0053090937,0.051699165,-0.013747737,0.02332608,0.015756398,-0.0033035018,-0.019776471,-0.009839564,-0.04850009,-0.030903919,-0.021334676,0.047923815,0.039219655,-0.04940441,0.024818094,0.06237704,0.039727367,0.10344091,0.0071471147,-0.06719104,-0.035501357,0.0020452612,0.060017362,0.015188834,0.08668475,0.039287183,0.012355428,-0.015232997,-0.003362311,-0.036488462,-0.041191157,-0.039667055,-0.045929246,-0.0069322046,-0.0031663445,0.054224137,-0.089925304,0.0653819,-0.036082678,-0.055220068,-0.010803764,-0.017895192,0.03199725,-0.023052707,0.03423332,0.041196916,-0.030401055,0.029565714,-0.020933358,-0.035806473,0.10170601,-0.015417783,0.060695928,0.025957422,-0.004578676,-0.0572523,0.038835905,0.08688745,0.05779662,0.07197487,0.011645837,-0.099264696,0.09696574,0.0138566885,-0.06461471,-0.005515037,-0.043615878,0.016620547,-0.0436752,-0.049246468,0.05026154,0.01665029,0.032466818,0.06241194,-0.033400793,0.04547695,0.038476907,0.0055986717,-0.038811583,-0.03802082,-0.027832711,0.060567956,0.041461475,0.0121527575,0.0111742485
jaunes,-0.015400924,0.044633195,-0.005273059,-0.09558427,0.02097968,0.05449383,0.05033458,0.0018155202,0.049334455,0.057538513,-0.029742587,0.003709782,-0.027665438,0.039730966,-0.04448557,0.007896617,0.036916945,0.009741655,0.06057121,-0.03615705,0.00070183165,-0.025452722,-0.025767192,-0.002904106,-0.0788313,0.05234665,-0.020193484,0.09431546,0.044339012,-0.06688835,-0.043904934,0.0063949805,0.02663298,4.7251582e-05,-0.049283125,-0.009389639,0.053258,0.004151702,0.045806278,-0.01893922,-0.07761513,-0.0098971985,-0.05645547,0.013061449,-0.022581581,-0.0026023276,-0.023206316,0.02248926,-0.001273226,-0.0095881,0.0031539537,0.032452133,0.01977738,-0.06994984,0.03605111,-0.06800858,-0.013504194,0.05935759,-0.09257591,-0.08087081,0.025710486,0.015600648,0.0103970915,0.03796176,0.059475496,0.037300296,0.059131376,0.08048872,-0.002264753,-0.075340524,-0.07188721,0.06957797,-0.07392049,-0.0035373308,-0.011891354,0.007572416,0.0098662,0.07558801,0.015176682,0.044849698,0.022672608,0.01568953,0.064030126,0.01085162,0.0049823783,0.021128176,0.034848873,-0.027878616,-0.05600566,-0.037993155,0.026477624,-0.0021686219,0.02007731,-0.021061074,0.041235637,0.05924517
pharmaceutique,0.037789594,-0.009278987,0.054227248,0.037230957,-0.027537739,-0.011368874,-0.058284163,0.03704622,-0.04970961,0.03296642,0.08787869,0.00052998215,-0.056438807,-0.008020263,-0.066177644,0.055387855,0.018220302,0.038455736,0.0077369213,0.0044576153,0.013249505,-0.06594982,0.07552832,-0.017948294,-0.015227828,0.031874813,0.025358304,-0.027384127,-0.040700175,0.021979295,-0.0013291873,-0.04741622,-0.01798261,0.09299083,-0.02650176,-0.0042925924,0.021903131,-0.026930131,0.041569732,-0.014084768,-0.021125432,0.05057957,-0.004065575,-0.01896484,-0.014458377,0.029436883,0.008991193,-0.03657174,-0.0041889288,0.018438447,0.036374222,-0.0069197044,0.0020791069,-0.07713583,0.012691686,-0.014900256,-0.041918863,-0.0023811944,0.016379546,-0.04525759,-0.015891802,0.01941669,0.029525876,-0.021419313,0.010435294,-0.044544447,0.03710485,0.02645849,-0.035623383,0.0051036235,0.019091746,0.026606895,0.01131767,0.020415831,-0.08426984,0.017498378,0.0009738095,-0.016598582,0.008947741,0.039737336,0.037603535,0.0767682,0.030558422,-0.010273814,-0.03493698,-0.017849032,0.064725645,-0.038239695,0.027464738,-0.03818618,-0.028610673,-0.06840932,-0.023246218,-0.029206859,0.038802903,0.016974453
lactique,0.0053788535,-0.020562734,-0.030394724,-0.03651452,0.030177169,0.04442877,-0.07884732,0.048782874,-0.06191937,-0.011216976,0.004242737,-0.007887352,0.09094992,0.091480166,0.043315094,0.01179138,0.0063509326,-0.013716784,0.10076045,-0.02456231,-0.014629355,-0.056351293,-0.025380239,0.0665285,0.05080448,0.008926405,0.08418526,0.016176846,-0.014637802,-0.0367587,-0.06603266,0.028602606,-0.0010715239,-0.028163353,0.031658255,0.051257774,0.02473974,0.0082811285,0.07690376,0.08185749,-0.07351496,0.022183657,0.0043360395,0.02493403,-0.017945876,0.09109777,-0.040722445,-0.014593802,0.012121564,0.026627183,-0.028823148,-0.008529491,-0.030210301,0.057376564,-0.00037346967,-0.04290457,0.013250258,-0.048972063,0.015845507,0.010649407,-0.0084705185,0.06343681,-0.023995947,0.027901273,0.037844375,0.0676309,-0.07292764,-0.055813804,-0.043166913,0.058192052,0.014954731,0.047696352,-0.049891837,0.08166523,0.058876187,-0.022631763,0.02780545,-0.0740199,-0.004772179,-0.0057690106,0.060119987,-0.006862957,0.043153033,-0.035506576,-0.043643795,0.050217696,0.042359784,-0.07567231,0.041806165,0.003512578,-0.020362433,-0.050889354,0.014358057,0.013842231,0.025781045,-0.013066353
pépins,0.013243541,-0.01703804,-0.016478388,-0.03890592,0.062689945,0.021601062,0.049134254,0.014253089,0.028253682,0.08149803,0.034281593,-0.07945675,-0.063081466,0.057121087,0.07270193,-0.02745305,0.011062125,0.056791622,0.0003936384,-0.008017354,0.013717173,-0.06654661,-0.013244818,-0.01856189,0.0050415024,0.071115926,0.029026533,-0.053376988,0.022507597,-0.0066157132,0.019738354,0.0066492073,-0.058189914,-0.0011737719,-0.039485764,-0.018764101,-0.019649446,0.021933105,-0.059816226,0.010104852,0.040646914,-0.0083734915,-0.064554445,-0.083484,0.07513965,0.0026047435,0.011075098,0.10601488,0.009601917,0.026617572,0.06893418,0.088630944,-0.030110262,0.059803106,0.045147866,-0.056561343,-0.05306451,-0.031763025,0.010985284,0.026699029,0.08533997,-0.0015449245,-0.022984171,0.0022776797,-0.008845463,0.002314132,0.03534138,-0.006066655,-0.09249365,-0.08295132,0.074915886,0.04003372,-0.051631063,-0.030304488,0.068414286,0.015333425,0.032430604,-0.032360032,0.12003848,0.058290683,0.027015641,-0.01187941,-0.05605717,0.0068621505,0.07497987,0.020101726,0.018065158,-0.01706805,0.07943854,0.009912581,-0.07356712,0.07687545,-0.009268925,-0.031219741,-0.014201453,-0.002585033
aldehyde,0.07073753,-0.05528889,-0.04992131,-0.049439084,0.07182318,0.06313033,-0.054372277,-0.074753076,0.016585266,0.005260803,-0.032633446,-0.019139636,0.025534928,0.013728056,0.021686893,0.053253625,2.6250258e-05,-0.04626,-0.0475948,0.012868654,0.07290778,-0.04861746,0.00828018,0.017018925,-0.06377534,-0.040652905,-0.026799273,-0.038855683,-0.05334463,0.00028840452,0.021252561,-0.031813648,0.012617171,-0.002057135,0.0048419014,0.0019584931,-0.016086338,-0.025455046,0.006112054,0.033880256,0.0754223,-0.06615982,-0.0647808,0.023328185,0.07035495,0.060288116,0.04569915,0.03700521,-0.06933184,0.07084371,-0.050544012,-0.011534128,-0.0051236637,0.05838611,-0.030591512,-0.00081160106,0.006648008,0.0024691932,-0.023126923,0.07771268,-0.008292589,0.057364903,-0.038493276,0.059882022,0.03538891,-0.010380182,0.008145763,-0.045254566,-0.08867283,0.018616116,-0.017473448,0.038689014,-0.064916186,-0.06078527,-0.053362988,-0.027649548,-0.00832535,-0.034746826,0.0025271997,-0.015307045,0.016106676,-0.027896356,0.08707426,0.03731147,0.058460407,0.026548544,0.046584416,-0.0151605345,0.025626969,-0.0060385205,0.054062527,0.018111322,-0.021403287,0.060567655,0.0182085,-0.0020393748
moisi,-0.045802988,-0.010956772,-0.07919359,-0.043534793,-0.028147543,-0.051453255,0.015621807,-0.0011480357,-0.08027163,0.039856732,-0.048311163,-0.068834566,0.01706822,0.027590513,-0.019372929,0.015923467,0.05851616,-0.053026855,0.034979217,-0.045819473,0.037631534,-0.00249419,-0.02672124,-0.06733848,0.028410029,-0.052985717,-0.03765154,0.068080276,0.08791018,0.024804786,0.035855975,0.07831862,0.06459727,0.042031404,0.017988965,-0.052124523,-0.052246023,0.019309888,0.004882399,-0.0020106286,-0.016486645,0.01138475,-0.04686226,0.03451739,0.00099013,-0.07771376,-0.020710383,-0.027062416,-0.078120984,0.020132795,-0.012056276,0.052682273,-0.024820246,-0.03096199,0.024120223,0.08066791,0.02322153,0.002956653,-0.079463854,0.0021775104,0.005536128,0.031901468,0.01112685,-0.036502134,-0.025523664,0.025317755,-0.01441405,0.00058274344,-0.068772994,0.06359149,-0.036152616,-0.01742104,0.0013139695,0.015583318,0.05532967,0.012609359,-0.080524795,0.03527124,0.046289984,0.02351169,0.085549496,0.012003113,-0.03612846,-0.06278958,0.09075522,-0.03046944,0.037528686,0.018473212,-0.007003285,0.003928922,0.00612586,0.05059757,0.08957411,-0.033036575,0.0059921257,-0.034925472
terreux,0.011234175,-0.023048498,-0.029311063,0.03180112,0.018342175,-0.0173826,-0.07644443,-0.038632657,-0.00058498234,0.017897889,-0.06546334,-0.041518092,-0.011049006,-0.04164848,-0.00079052895,-0.014098726,-0.013756122,-0.0060248524,0.035717133,0.06024545,-0.072251245,0.010489609,0.08579305,-0.05246222,0.03710693,-0.006791778,-0.030793723,-0.0011190884,0.02165259,-0.05227766,-0.0129340645,0.05861266,-0.04620099,-0.03753797,-0.061830357,0.075121224,-0.06977206,-0.013006136,-0.030532133,-0.009706559,0.0029396769,-0.008532729,-0.0058390386,-0.003978763,0.031517126,0.016612653,-0.006859433,-0.000361979,-0.05019156,-0.048785828,-0.06830919,0.008890223,-0.030532813,-0.038213108,-0.015863288,0.0074943304,0.054331493,-0.06298114,0.06633723,0.021941066,-0.058596037,-0.0043120123,0.019357834,-0.0098673925,0.06750735,-0.0034349188,0.025883056,0.040649407,0.021646872,0.021894123,-0.025206074,0.057620503,-0.07186447,-0.013880588,-0.07399801,-8.2504004e-05,0.08284535,-0.0088346,-0.014449857,-0.011575814,0.00818583,-0.032339312,-0.0061789155,0.06580556,-0.042873908,0.067148216,-0.038548946,-0.0054692775,0.024060953,-0.033629466,0.047272503,0.0123859905,-0.03388188,0.008727647,-0.024173953,0.057812013
vert,-0.0020284504,0.038159374,0.04467938,0.06067261,0.057560757,-0.002633866,0.0053345,-0.027012229,0.008782614,0.029497564,-0.072778195,0.03622681,-0.0069334824,-0.010552887,-0.038564026,-0.028474841,-0.071396865,-0.060379647,0.022881817,-0.0069598556,-0.027082086,0.03215058,0.06611063,-0.013186824,0.026415102,0.047369316,-0.03477341,-0.09194924,0.0065280795,-0.047228478,-0.060925152,-0.05284997,-0.03794229,-0.027678384,-0.07859168,0.031666063,-0.020171417,-0.011402883,0.028396036,0.003339529,-0.0074302424,0.025796745,-0.037002005,-0.0083233435,0.037462894,-0.05261576,-0.002352059,-0.02530949,0.046901003,0.026057616,-0.07592596,0.036429867,-0.0782418,-0.00673249,0.057316374,0.046850346,0.037934683,-0.04529178,0.09001854,-0.00057515875,-0.040762044,0.07382786,0.040117823,0.01758573,0.025257565,0.05903972,-0.010173067,0.051495228,-0.0516137,0.029734146,0.0644533,-0.042018376,0.035007086,0.08980707,-0.057621792,0.061812773,-0.01614238,-0.0025757402,-0.045806933,0.011003185,-0.04235467,-0.055823576,-0.06364444,0.046512067,0.06876132,-0.03280236,0.080658175,0.03280239,0.041542754,-0.012945093,0.02185537,0.006167805,0.026865592,-0.0037449151,0.06767911,-0.024922848
pieds,0.007527612,-0.06480842,0.03142119,-0.023263216,0.031782936,0.019097507,-0.020078804,0.083938256,-0.0073662773,-0.004709156,-0.011092862,-0.05971656,0.024678733,0.019924935,0.01351179,-0.031131543,0.04236234,0.08378352,-0.05059422,-0.03712639,-0.0587165,-8.068979e-05,0.02461807,-0.008187473,0.036871817,-0.05898547,-0.013144519,0.00860782,-0.002758123,0.030169342,0.006103836,0.057610326,0.050466716,0.07135869,-0.009598885,-0.081030145,-0.014512952,-0.034861233,0.02746896,-0.026008643,-0.05900701,-0.069769904,0.01632402,0.048434384,0.02759761,0.011003125,0.08919409,-0.010063633,-0.06707028,-0.008367907,-0.026531138,-0.013266895,0.010187004,0.02691118,0.030794438,0.007531563,0.06694999,0.05435376,-0.024568617,0.07821331,0.022683576,0.0028072856,-0.0036849119,0.03216621,-0.0326113,-0.07528831,-0.03250333,-0.047072634,0.01582909,0.018449105,0.03231056,0.0034737028,0.018802367,0.016037513,-0.009949766,0.048301496,0.079400785,-0.011746574,0.0033221953,-0.03218033,-0.004479781,0.013651691,-0.055686623,-0.042203832,-0.00847362,-0.051440135,-0.07770201,-0.006330453,-0.05781299,-0.020578552,0.026572037,-0.0131765865,0.068481855,-0.05599246,0.013680398,-0.021310294
