RESERVED,0.03998254,0.02045766,-0.017642342,0.0048185103,-0.006328311,0.020916343,0.010260943,-0.020123519,0.046235107,0.064485446,0.027819123,-0.067561105,0.03270966,0.046344377,0.01680269,0.06779868,0.02753326,0.08106666,-0.010329094,0.009130526,-0.023370482,0.019356227,-0.009831641,0.037928537,0.068871215,-0.018162476,0.021655954,-0.012851978,0.030614626,-0.024158597,-0.0031848885,-0.06369354,-0.026610147,-0.016975297,-0.023773765,-0.04414165,0.02036339,0.0008472465,-0.08014043,-0.0040353257,0.046733975,0.04398073,-0.0039137565,0.040858112,-0.027773106,0.05164832,-0.051066924,0.026298307,-0.023449898,0.034908473,-0.02416009,-0.015533604,-0.009240413,0.021858003,-0.03151319,0.06430778,0.015645966,0.041833334,-0.048563182,0.048107825,-0.043671165,0.0495205,-0.021248806,0.0013993867,-0.032309093,-0.022233147,-0.012291441,0.016101707,0.058403287,0.042442292,-0.04495349,0.010167394,-0.0049032066,-0.05394808,-0.0012288578,0.0019708164,-0.05641804,0.08789435,-0.029623497,0.016324988,-0.028665457,-0.015992116,0.008017361,-0.0024294145,-0.031515602,-0.039798807,0.0055360086,-0.062034298,-0.025073016,-0.012164284,0.056031734,0.015434127,-0.013350774,0.040075395,0.0118499845,-0.028541103
UNK,0.061484523,-0.08257319,0.03966756,-0.05031009,-0.06253636,-0.07269038,0.117379606,0.066642806,-0.12824553,-0.056665096,-0.07178374,0.11220691,-0.08299667,-0.11082813,0.027553173,0.03931676,0.077101864,-0.05870291,-0.11981711,-0.00833322,-0.006890174,-0.097955994,0.043960076,0.106469825,0.05354433,-0.10217896,0.0004132213,0.14183564,0.009925209,0.10261175,-0.05788435,0.09738782,-0.04458262,-0.097019725,0.016483609,-0.06787184,-0.068322614,-0.009407947,-0.073254235,0.08278778,-0.13351025,0.047232218,0.12572798,-0.0970684,0.07366787,0.04812663,0.02957191,0.14068887,0.089999795,-0.019278504,-0.08049473,-0.03539475,0.06858248,-0.10359302,0.09162686,0.0052720476,-0.04887888,0.0061303647,0.14507797,0.06958962,0.09968595,0.046437915,-0.08921922,-0.025685633,-0.10826023,0.03790919,0.015632667,0.037743658,-0.08230528,-0.096550666,0.05751282,0.0817231,-0.0005617626,-0.051147953,0.08878267,0.016494451,-0.054495554,0.15200178,0.1606559,-0.010958716,0.13440181,0.071932636,0.038280614,-0.07987763,0.121173605,-0.05130804,0.022058213,0.101996794,-0.06023025,-0.011062186,0.13222453,0.09582435,-0.08086019,0.06722948,0.023537233,-0.12176879
fruité,0.39309183,-0.44526738,0.24327503,-0.64893895,-0.2861886,-0.37870392,0.7460872,0.610163,-0.62243783,-0.42370996,-0.6824223,0.59260535,-0.5518656,-0.23313603,0.63800037,0.2621578,0.63607454,-0.6391047,-0.58971226,-0.6839329,-0.59173316,0.121378034,-0.6095828,0.5581438,-0.33786383,0.3831387,0.29969943,0.5385418,-0.51578057,0.27782243,-0.5315646,-0.38232398,-0.4963188,-0.6082113,0.4737924,-0.51117194,-0.4779029,-0.43530315,-0.59823287,0.73172677,-0.19794296,0.66428125,0.7731562,0.0952353,0.047674328,0.5253568,0.36786234,0.393701,0.61181706,-0.33895224,-0.13313183,-0.5536588,0.44253832,-0.48740295,0.62835777,-0.5428825,-0.42190737,0.38576555,0.5221319,0.5333897,0.29703796,0.6754232,-0.6328152,-0.41365397,-0.64174235,0.37150458,0.18651906,0.65576404,-0.48663563,-0.7340814,0.5546672,0.365938,-0.41578937,-0.6319202,0.53230083,0.56112266,-0.7258059,0.33919987,0.28575906,0.48338073,0.64667296,0.7366937,0.5082544,-0.40884247,0.6993157,-0.5048075,0.40498313,0.33522278,-0.54060215,-0.31685093,0.4423523,0.5813385,0.57473826,0.516974,0.66004145,-0.4484841
vert,0.08166938,-0.5496179,0.5707383,-0.45466745,-0.17556499,-0.19345364,0.29557812,0.6651349,-0.550683,-0.28021118,-0.5423042,0.43879512,-0.64148283,-0.37846386,0.4354882,0.4144397,0.5009273,-0.5519341,-0.21641572,-0.6282956,-0.58337665,-0.45584688,-0.52908057,0.5213034,-0.41544297,0.37741333,0.24641578,0.2215119,-0.4004348,0.45629615,-0.20016901,-0.20388931,-0.39974952,-0.360923,0.15487123,-0.53571075,-0.49956375,0.026462346,-0.17367825,0.37161887,-0.047049657,0.45414862,0.5522487,0.3043268,0.16415448,0.7865021,-0.28297642,0.55389947,0.38648385,-0.5323273,-0.082246944,-0.6233971,0.20449743,-0.41935426,0.4440185,-0.24748488,-0.3823217,0.5087276,0.27900147,0.6896683,0.15854967,0.53282595,-0.5167481,-0.1764594,-0.3690623,0.20698792,0.36038473,0.5000693,-0.5176512,-0.7163688,0.5799698,0.2730031,-0.17244606,-0.50616735,0.68613577,0.43866658,-0.29910654,0.10366022,0.2004264,0.23350333,0.51237977,0.64026904,0.5482816,-0.3706334,0.21841717,-0.44642103,0.34765756,0.43194932,-0.25654432,0.03229483,0.33820337,0.28463084,0.16168629,0.6902217,0.5638559,-0.60288227
doux,0.7467445,-0.2625815,0.4110223,-0.57006717,-0.19995624,-0.56758606,0.5978818,0.44753873,-0.59601545,-0.5570382,-0.48194566,0.5689067,-0.48913348,0.10438128,0.51900995,0.26850396,0.5997645,-0.81316805,-0.27765742,-0.33475497,-0.6713822,-0.089497566,-0.6313735,0.39766425,-0.22103672,0.065524876,0.49677926,0.53623134,-0.52120274,0.25663003,-0.42021358,-0.061127473,-0.63930655,-0.73552275,0.4422611,-0.4233029,-0.57142705,-0.52736825,-0.6459461,0.5816693,-0.45057246,0.6325445,0.5352012,-0.22489913,0.07310414,0.52126074,0.3974022,0.6052079,0.41043428,-0.39329612,-0.372921,-0.4446532,0.641234,-0.46806154,0.5502939,-0.5581404,-0.5261183,0.27503505,0.4212106,0.6351668,0.45985395,0.524024,-0.5169394,-0.58510005,-0.68514884,0.55717963,0.19673187,0.6180395,-0.54235435,-0.55520874,0.6293173,0.5460957,-0.671907,-0.43679634,0.5320141,0.48702192,-0.72460127,0.5273796,0.27070466,0.47090936,0.6332747,0.44340676,0.38971114,-0.57083285,0.5091466,-0.42475805,0.47664827,0.48577446,-0.55723774,-0.6394688,0.29812792,0.43084276,0.8098463,0.30645618,0.32872447,-0.47667283
floral,0.5190729,-0.2696918,0.40170115,-0.51727647,-0.15156946,-0.38503572,0.4321487,0.5876004,-0.39643794,-0.84632045,-0.49150014,0.6381582,-0.016569346,0.15299597,0.55540216,-0.1861293,0.049629122,-0.6107834,-0.5174272,-0.16235541,-0.65492177,-0.5475028,-0.25585324,0.19471096,-0.82463765,-0.15076448,0.40005028,0.45847327,-0.57477736,-0.13016215,-0.5225457,-0.059569005,-0.447698,-0.6010845,0.25933376,-0.5299787,-0.4898699,-0.4088257,-0.5383778,0.5914415,-0.6784594,0.7757387,0.4273969,-0.0984159,-0.25819156,0.56716967,-0.1487337,0.7191347,0.41544813,-0.50775415,-0.1699072,-0.46996135,0.6949028,-0.35670227,0.61123586,-0.3630979,-0.37713146,0.3387639,0.4411547,0.72487134,0.6288453,0.50391877,-0.42496413,-0.5670481,-0.36984596,0.2813488,0.5317075,0.26795638,-0.20449448,-0.46307737,0.5231157,0.42251834,-0.66889775,-0.69341713,0.48263508,0.71903634,-0.65935075,0.34536156,0.4767099,0.5965735,0.26462847,0.65719235,0.41065013,-0.4981289,0.4775732,-0.30314222,0.43712622,0.35624453,-0.51013696,-0.75682735,0.5697043,0.44339877,0.06270142,0.4348337,0.5708598,-0.53782
boisé,0.6862668,-0.5850313,0.5490127,-0.36742318,-0.058764063,-0.40427727,0.23665968,0.19919184,-0.41181713,-0.5939616,-0.57716715,0.69947875,0.14914481,0.11978276,0.583963,0.4965256,0.03308975,-0.46740246,-0.017924527,-0.08609133,-0.44494337,-0.92883635,-0.014893467,0.3998105,-0.4962992,-0.7840543,0.29938632,0.44130573,-0.31072634,0.19373989,-0.46113506,0.44082892,-0.21983993,-0.30181783,0.18656239,-0.15982208,-0.5158258,-0.22352824,-0.5080348,0.6307936,-0.49659866,0.43782786,0.5581117,-0.5497503,0.24546267,0.6007498,0.4705556,0.5032396,0.22488633,-0.8774382,-0.4935885,-0.39384836,0.89873356,-0.45722198,0.49290675,-0.41062582,-0.07100503,0.24341895,0.19640942,0.52891296,0.5347008,0.5325212,-0.43179026,-0.47921646,-0.22791632,0.50485986,0.5412782,0.58738375,-0.46754903,-0.66332924,0.10193769,0.30067262,-0.50056654,-0.6746822,0.64294326,0.43877694,-0.55343485,0.31677145,0.6247046,0.4515013,0.4398276,0.4117198,0.4938244,-0.50642407,0.4231518,-0.045884885,0.5602206,0.49074462,-0.4906308,-0.5812789,0.42700386,0.44550705,0.75356996,0.6286122,0.5481253,-0.49457163
herbe,0.2039431,-0.5985353,0.66180193,-0.24255395,-0.2184695,-0.32566035,0.13158871,0.33351696,-0.5141098,-0.54230964,-0.5291316,0.5420557,-0.3110095,-0.23751146,0.3857308,0.4142989,0.1469464,-0.5176154,-0.07092543,-0.41476244,-0.4316796,-0.85649633,-0.4014392,0.43346977,-0.4323271,-0.5368267,0.1692952,0.5032697,-0.3997966,0.2656766,-0.42744666,0.7320988,-0.31103063,-0.29440492,0.3005567,-0.2762729,-0.5068439,-0.09619753,-0.41751948,0.4346303,-0.3199606,0.68064773,0.53366995,-0.36899203,0.3461546,0.8111907,0.38616055,0.47881478,0.2685493,-0.93296015,-0.5821204,-0.45044896,0.66632813,-0.37782234,0.41306832,-0.15547293,-0.00956866,0.26002574,0.19294713,0.71895266,0.48936522,0.4200421,-0.5520958,-0.22074983,-0.23443702,0.5556807,0.38071263,0.35013032,-0.53785384,-0.62380624,0.23748341,0.46139237,-0.26825392,-0.67348194,0.7763264,0.43153462,-0.52736026,0.3441767,0.68137133,0.5304625,0.5501203,0.62679344,0.50731206,-0.3888055,0.384372,-0.13796405,0.46474218,0.33881986,-0.47652227,-0.40538907,0.2949769,0.52774215,0.1960853,0.68389726,0.6172823,-0.47717488
épicé,0.7287271,-0.38844126,0.71527827,-0.32427916,-0.084072545,-0.45991048,0.33951265,0.119459674,-0.61167336,-0.68926895,-0.45788032,0.50549895,-0.18060175,0.25896594,0.44357896,0.38347864,0.17948914,-0.69226825,0.027034651,-0.12604746,-0.3919738,-0.6178889,-0.22810459,0.12891576,-0.5120387,-0.39250973,0.38098046,0.35973868,-0.39085397,0.14031895,-0.4642018,0.2786935,-0.533782,-0.39266294,0.23497733,-0.12048208,-0.5069704,-0.23612094,-0.4220345,0.33165944,-0.64464164,0.5964422,0.55293685,-0.5485769,0.15927115,0.6795912,0.59030604,0.44790477,0.10515289,-0.82884884,-0.6537332,-0.3609097,0.77590156,-0.44154498,0.4024861,-0.265333,0.097681604,-0.040266782,-0.011935025,0.63337266,0.47147542,0.33080912,-0.33362418,-0.38674507,-0.30983508,0.56255335,0.32531053,0.42373013,-0.33335203,-0.71647483,0.36249015,0.5541204,-0.5805128,-0.58210695,0.5740813,0.37433678,-0.59662807,0.4422787,0.71388185,0.39321744,0.64623654,0.47124487,0.5777812,-0.4864226,0.40312934,0.15504546,0.4076693,0.2992879,-0.5193285,-0.64898986,0.049516607,0.41717964,0.6180904,0.3564614,0.30383593,-0.48100775
ciredabeille,0.010108573,-0.36263886,0.49562472,-0.5294994,-0.5412693,-0.28146285,0.41648546,0.64927423,-0.6018956,-0.394584,-0.36024648,0.24751347,-0.61855745,-0.48695424,0.28376782,0.31246084,0.28764945,-0.6210033,-0.60325855,-0.6672358,-0.59344906,0.051443372,-0.6049832,0.4928736,-0.82917786,0.09288846,0.59957105,0.4394268,-0.46615827,0.47908536,-0.43048072,0.16774055,-0.6888913,-0.5154192,0.43277293,-0.66846347,-0.5199906,-0.49806497,-0.3104338,0.42991,-0.1849487,0.49477178,0.4859087,-0.19351703,0.23274224,0.5830318,-0.5986281,0.44601828,0.4434548,-0.62196267,-0.24075699,-0.57207257,-0.102403015,-0.4710265,0.28605717,-0.3896594,-0.63146913,0.42428616,0.43230253,0.48073685,0.3925991,0.35384443,-0.5385301,-0.32477045,-0.56315607,0.26117468,0.58779764,0.10829352,-0.3977176,-0.2854148,0.67473936,0.57854366,-0.416359,-0.44993043,0.41817778,0.63022363,-0.41093633,0.4819972,0.2574692,0.36015898,0.3057083,0.45699573,0.47794175,-0.34785968,0.34452707,-0.36379915,0.61219764,0.4927794,-0.55193746,-0.34382063,0.3919794,0.547102,0.08872914,0.47510684,0.59041,-0.6180042
gras,-0.20870838,-0.39119434,0.46702528,-0.53240114,-0.7172528,-0.22610988,0.5079843,0.5620777,-0.6828687,-0.32050505,-0.39983374,0.06168638,-0.6242207,-0.71011746,0.19123383,0.5784753,0.2817822,-0.46408457,-0.5582423,-0.71987253,-0.42432132,0.27050537,-0.75010777,0.55502486,-0.72339785,0.03840231,0.6020811,0.5012927,-0.4282493,0.5980097,-0.34420836,0.30641964,-0.6124797,-0.5039191,0.41774207,-0.5768953,-0.42341253,-0.6191766,-0.4125756,0.40460017,-0.18081613,0.22425097,0.50749433,-0.37592912,0.36035952,0.32320967,-0.6233429,0.26867986,0.43165296,-0.5770202,-0.42080462,-0.33674204,-0.37143534,-0.48528212,0.24465552,-0.43800467,-0.5522957,0.4883922,0.30179453,0.21077743,0.3546102,0.4915186,-0.50728744,-0.28720367,-0.2920805,0.26552886,0.48728693,0.13052356,-0.40108258,-0.19740206,0.62205416,0.5748434,-0.27182475,-0.46847647,0.33389246,0.48937815,-0.41888207,0.51277184,0.30863813,0.23506135,0.40739816,0.27711242,0.3885901,-0.24051023,0.36210054,-0.28738743,0.6134541,0.5488732,-0.49054313,-0.2715017,0.2804069,0.47926027,0.1923957,0.3988705,0.47569275,-0.5250826
frais,0.30975592,-0.2936615,0.5720406,-0.11322588,-0.29780233,-0.22663897,0.07087931,0.32242495,-0.47422057,-0.29746875,-0.45291457,0.36680517,-0.43138126,-0.2814598,0.4672814,0.36831725,0.4009094,-0.5557474,-0.15106279,-0.59804165,-0.42127123,-0.6983925,-0.3193305,0.4207322,-0.22665578,-0.4648555,0.24150687,0.348497,-0.49856716,0.4785599,-0.34333372,0.55140895,-0.47446063,-0.20658693,0.19987002,-0.25836375,-0.5379647,-0.21325475,-0.25648943,0.2831328,-0.055454113,0.5180025,0.4204057,-0.4013238,0.4735155,0.7316456,0.45478973,0.31505376,0.21102896,-0.92529106,-0.6314938,-0.52052355,0.46033013,-0.18297058,0.25452107,-0.32456583,-0.15490714,0.13852105,0.2404317,0.60345864,0.5480828,0.41339362,-0.3992182,-0.21377142,-0.48178315,0.40312237,0.49559432,0.1377432,-0.4512204,-0.4779571,0.41067088,0.4395876,-0.3744951,-0.58594406,0.59321374,0.4480526,-0.4754449,0.34748387,0.51856756,0.38038903,0.5815493,0.5367974,0.6534327,-0.2959581,0.32983103,-0.17975397,0.3648823,0.39663053,-0.6014294,-0.3276207,0.27859432,0.5881746,0.5382322,0.41403174,0.60867316,-0.3816837
agrume,0.46425778,-0.41705644,0.5352126,-0.30023643,-0.3262434,-0.5266857,0.27446866,0.534894,-0.25706637,-0.5994507,-0.22647241,0.45761842,-0.46646383,-0.4138381,0.14753541,0.15863469,-0.008117653,-0.29568684,-0.60423756,-0.3371157,-0.6910907,-0.46259218,-0.49805135,0.35332885,-0.7190541,-0.39000145,0.45273626,0.47752172,-0.48333067,0.16249703,-0.5064464,0.6367294,-0.23341814,-0.35877383,0.3058265,-0.5124202,-0.4663973,-0.35631368,-0.54719806,0.43307364,-0.51307577,0.67577505,0.14945884,-0.38041934,0.37380788,0.52605534,-0.51225626,0.42805898,0.35911176,-0.43325257,-0.20883827,-0.5439848,0.37474692,-0.5486715,0.39406055,-0.32154548,-0.5993458,0.43733072,0.5060684,0.5497221,0.40503928,0.24073233,-0.40631476,-0.33340344,-0.29299974,0.36481607,0.40574545,0.013812315,-0.5829883,-0.22521453,0.41220987,0.499978,-0.35574147,-0.44524467,0.5413897,0.5305507,-0.31344306,0.4171068,0.37658784,0.44906038,0.049024496,0.35358676,0.3605908,-0.3023789,0.16702129,-0.3559029,0.6099893,0.3470234,-0.5017197,-0.48896545,0.44436058,0.19102679,0.26813865,0.55259734,0.56613255,-0.3781011
balsamique,0.8527788,-0.36416256,0.41320634,-0.35084787,0.069351554,-0.38824332,0.47204113,0.039504506,-0.36047646,-0.7399236,-0.4408409,0.5149539,0.19139832,0.41330957,0.5135493,0.17509872,0.036414474,-0.51506484,-0.04354848,0.10643152,-0.35614437,-0.4967854,0.004469488,0.0923536,-0.45503473,-0.40732664,0.29018658,0.4231423,-0.31949422,-0.028674074,-0.4012471,0.049266875,-0.29307482,-0.3879751,0.2290816,-0.08914366,-0.39556545,-0.32798696,-0.4941749,0.51354855,-0.66364866,0.43947917,0.55929303,-0.45389327,-0.08465482,0.39996022,0.49804476,0.48739198,0.23200144,-0.40258765,-0.34331602,-0.17582,0.7310984,-0.44066525,0.46800733,-0.27999437,0.015614283,0.060929034,0.07150702,0.4274873,0.38565046,0.42410702,-0.3348007,-0.56392336,-0.28069314,0.46116865,0.18514422,0.5338254,-0.2643365,-0.6011456,0.12491774,0.23412569,-0.56584024,-0.51209855,0.40356278,0.42839658,-0.5442304,0.30519915,0.60286385,0.38512394,0.49124393,0.27002645,0.41248152,-0.5009444,0.5134096,0.12516864,0.38905263,0.27773428,-0.47171748,-0.6355424,0.21684915,0.28651178,0.5683942,0.30050176,0.27416763,-0.3894279
rose,0.10582015,-0.22544512,0.20686351,-0.4763595,-0.22830723,-0.40545642,0.37439138,0.49584547,-0.37294924,-0.42387617,-0.28229257,0.42320043,-0.14201647,-0.16099867,0.4043067,-0.28271383,0.24398477,-0.39939564,-0.48202348,-0.1498197,-0.55150497,-0.31325138,-0.28076047,0.058647897,-0.6895466,-0.13074946,0.37290817,0.45414987,-0.44123986,-0.20347306,-0.40429053,-0.0121432245,-0.49008155,-0.49567682,0.41259488,-0.55043966,-0.28659824,-0.49065754,-0.41163838,0.49088448,-0.51078445,0.5953645,0.19554046,-0.070604764,-0.20760633,0.35905385,0.06345508,0.51074827,0.5318822,-0.21914057,-0.066799544,-0.3735688,0.45432165,-0.2685685,0.5377234,-0.12182878,-0.50509274,0.5411086,0.56918377,0.5151189,0.497285,0.27821866,-0.36897153,-0.4247091,-0.41089368,0.12692866,0.52288723,8.2712504e-05,-0.14027366,-0.26302946,0.50742334,0.3106681,-0.35656738,-0.3815385,0.12528113,0.60365725,-0.52600133,0.35785836,0.346174,0.49845624,0.024333691,0.5203996,0.3048922,-0.34503168,0.4509632,-0.42903963,0.13011967,0.31129253,-0.42933166,-0.4875992,0.6591747,0.22338349,-0.25362438,0.25095373,0.41538072,-0.40284777
fruitàcoque,0.1334177,-0.21057925,0.17057313,-0.588185,-0.54113835,-0.27560788,0.56454086,0.56253284,-0.32132578,-0.15724519,-0.514061,0.042382084,-0.5565185,-0.6873556,0.30863777,0.49051422,0.31905922,-0.24200645,-0.23477788,-0.33044693,-0.22699171,-0.51686907,-0.6315571,0.47543573,0.80828977,-0.60332763,0.4132197,0.3354152,-0.17173675,0.5300396,-0.352765,0.5273969,-0.14940171,-0.36435914,0.3914009,-0.4521017,-0.3178817,-0.5399834,-0.52214915,0.41104975,-0.54501283,0.060791112,0.3226812,-0.42203504,0.51703465,-0.22280666,0.6730497,0.43263328,0.5532047,0.47880203,-0.49816927,-0.3776405,0.19476865,-0.42686278,0.31902876,-0.43781364,-0.57568014,0.65597093,0.38413924,0.11057303,0.39081928,0.36500412,-0.49619433,-0.42120996,-0.0011262037,0.49939698,0.06670605,0.5286241,-0.49819177,-0.12742035,0.17861496,0.34225106,-0.25158694,-0.08695712,0.26064062,0.031352684,-0.23912092,0.39757538,0.4112557,0.3844422,0.3110232,0.3183931,0.30661115,-0.23705687,0.2501696,-0.4638105,0.25650924,0.45858195,0.0015718788,-0.15510306,0.61168146,-0.16422053,0.46537602,0.43231872,0.13077101,-0.09394409
terre,-0.17760985,-0.6365188,0.41951293,-0.3538943,-0.4768498,-0.36623633,0.16655283,0.5539454,-0.36732775,-0.22704498,-0.4081537,0.25373608,-0.5193658,-0.71146375,0.34329528,0.44658312,0.34229106,-0.19178787,-0.023642212,-0.48808655,-0.12616926,-0.55328053,-0.5724198,0.3360868,-0.0050503463,-0.44852087,0.053132758,0.15580307,-0.14698495,0.43126073,-0.13387233,0.5216819,0.03289637,-0.099764496,0.3860482,-0.36434036,-0.306045,-0.2937206,-0.39998445,0.26567945,-0.28891337,0.23965643,0.44519103,-0.21044576,0.54209155,0.32895142,0.47521722,0.40398836,0.4433756,-0.23651773,-0.45699006,-0.39866546,0.41476533,-0.20994091,0.29970506,-0.31057674,-0.30330175,0.568863,0.4333232,0.32062683,0.23138878,0.32411343,-0.5333747,-0.14876679,0.002400428,0.50884455,0.05205749,0.49677756,-0.52640486,-0.4912033,0.21570939,0.3385653,0.14508095,-0.2729763,0.45143712,0.19678053,-0.2119963,0.3183916,0.4414916,0.4220059,0.40619394,0.3731171,0.21685493,-0.24349144,0.38062596,-0.46020663,0.18517111,0.36876854,-0.21951182,0.03502676,0.38904005,0.106017604,-0.016955048,0.5976689,0.43148386,-0.4046418
huile,-0.26819104,-0.3958035,0.4569891,-0.4699824,-0.569046,-0.0865354,0.4324593,0.4602397,-0.601195,-0.29917508,-0.4386052,0.25635308,-0.5962148,-0.532333,0.19706196,0.5709089,0.3062948,-0.47733143,-0.39365783,-0.6021955,-0.35356107,0.042274684,-0.62771803,0.5155535,-0.4776245,0.048057653,0.44865012,0.52790207,-0.3647716,0.5300161,-0.27070296,0.39539117,-0.49622107,-0.4060849,0.4128869,-0.41616088,-0.45926416,-0.39781103,-0.3693025,0.40982687,-0.1156114,0.25105527,0.5677257,-0.2319625,0.32712802,0.35984105,-0.3893457,0.30287617,0.37873548,-0.6316416,-0.38297018,-0.33856142,-0.14247276,-0.37367895,0.21766257,-0.30485067,-0.35945976,0.41620147,0.19447164,0.32472253,0.33489206,0.5044534,-0.48016238,-0.21585168,-0.2581007,0.3096476,0.38583642,0.21502975,-0.39342624,-0.2990095,0.3974387,0.4896385,-0.24865314,-0.4951304,0.50587606,0.47261852,-0.38765812,0.28633535,0.38030487,0.22371566,0.57508427,0.40413105,0.4715537,-0.26168922,0.26887923,-0.13778554,0.5445217,0.5462483,-0.46108186,-0.26254123,0.29303584,0.51034343,0.19996917,0.44305062,0.48258036,-0.40703073
légume,-0.13534942,-0.6976461,0.5779264,-0.42019352,-0.6949945,-0.2748896,0.26482275,0.3063679,-0.2688232,-0.3016188,-0.41544327,0.32992348,-0.66565526,-0.8989521,0.19869074,0.65125924,0.47384414,0.015556463,-0.40139216,-0.6272307,0.030412696,-0.4224511,-0.5152049,0.52660763,-0.13303536,-0.370514,0.37093437,0.36271566,-0.33330363,0.5704126,-0.2893761,0.63705575,-0.24662282,-0.14616866,0.5555222,-0.48904204,-0.28668988,-0.251423,-0.25510052,0.27930877,-0.2157792,0.22394797,0.4865702,-0.1621946,0.7173995,0.31512296,0.18798535,0.35448804,0.4947875,0.1948801,-0.12054981,-0.36668438,0.07921998,-0.4268375,0.29481304,-0.27856869,0.002034232,0.6233733,0.45235342,0.28579706,0.15640306,0.38448793,-0.48109365,-0.23503819,-0.1894375,0.47040653,0.10682401,0.39716077,-0.44604164,-0.40328377,-0.07217558,0.5057188,-0.0412448,-0.49283585,0.6193907,0.32403594,-0.151119,0.4694124,0.3815242,0.3689315,0.59708613,0.42289782,0.3715019,-0.39909667,0.4266355,-0.48470604,0.4335605,0.4868719,-0.24283895,-0.025275033,0.51532495,0.34880197,-0.49631384,0.6764828,0.46404868,-0.50750035
crème,0.22168928,-0.3852025,0.079737544,-0.26581028,-0.51382005,-0.5090625,0.53471977,0.4268898,-0.5058912,-0.18246901,-0.15095255,0.13061407,-0.49736795,-0.51583135,0.28733945,0.4100234,0.6367098,-0.36078477,-0.5515382,-0.44752216,-0.45009643,0.5300815,-0.58192456,0.4328613,-0.51868236,-0.3439172,0.62168014,0.21553585,-0.33026347,0.57396114,-0.34963122,0.2566557,-0.52656054,-0.47006887,0.51988643,-0.4384188,-0.34848922,-0.531247,-0.48303807,0.2416737,-0.38324845,0.17899196,0.32647157,-0.6542443,0.59880286,0.22396395,-0.06779078,0.14906183,0.39590847,-0.42128298,-0.4203299,-0.3214586,-0.10222858,-0.37257624,0.4784934,-0.52817243,-0.6784574,0.41038397,0.48816395,0.042500034,0.40665877,0.27586657,-0.2491488,-0.5000037,-0.67106307,0.16753191,0.4442045,0.229437,-0.43237197,-0.120378405,0.61006916,0.49626893,-0.40803128,-0.12054075,0.09078045,0.19117664,-0.28703982,0.5838263,0.08296135,0.10598394,0.42418468,-0.053895455,0.337569,-0.32044035,0.40331817,-0.5952057,0.37364632,0.48685393,-0.48008963,-0.5129975,0.038532786,0.51697016,0.6455141,0.0043592528,0.22447345,-0.35541236
poudré,0.8231455,-0.21902919,0.24890672,-0.34014958,-0.12941417,-0.34121585,0.46560872,0.2637219,-0.26644212,-0.60747504,-0.19482917,0.5204742,-0.068520986,0.22856729,0.4136835,0.06450996,0.353724,-0.53202736,-0.20719962,0.0913416,-0.3708158,-0.29497674,-0.10997526,0.19275585,-0.45542604,-0.2881558,0.46880293,0.24455439,-0.39646056,-0.004336387,-0.40101868,0.015999265,-0.40735418,-0.40055984,0.22343148,-0.25279173,-0.3865802,-0.48798257,-0.46565133,0.4515819,-0.73033625,0.3610806,0.3049112,-0.27490035,0.058762144,0.33540666,0.27074984,0.54036033,0.3687894,-0.15926631,-0.24968295,-0.24826542,0.6586329,-0.3601966,0.51244617,-0.56446975,-0.44955647,0.25183365,0.4224521,0.34799352,0.53978074,0.38781735,-0.20675799,-0.57364273,-0.4012195,0.35448414,0.38418669,0.53410554,-0.22115842,-0.37996778,0.29391122,0.26635796,-0.66109204,-0.32648075,0.32195878,0.48167914,-0.37768763,0.34238487,0.055130877,0.3154795,0.40028024,0.19208533,0.33031318,-0.56676286,0.38805348,-0.28830853,0.30955845,0.40402025,-0.3541932,-0.6969155,0.42458475,0.42562437,0.6233894,0.15477549,0.08215798,-0.29831034
baie,0.4924249,-0.24907552,0.083624385,-0.54774797,-0.10640764,-0.29824013,0.44318286,0.45088905,-0.25996733,-0.35732412,-0.45030814,0.5839971,-0.009752164,0.17269766,0.58912504,0.08934237,0.38015372,-0.36111197,-0.33166867,-0.25118175,-0.41684258,-0.28599444,-0.20269892,0.40104467,-0.23774385,-0.061299596,0.25548026,0.35106108,-0.44671804,-0.011041914,-0.30807546,-0.3547537,-0.31566054,-0.45544744,0.18526989,-0.28441846,-0.32476643,-0.21168056,-0.3856485,0.5316791,-0.31988552,0.42062572,0.44287977,0.09678152,-0.091882646,0.353236,0.358792,0.43623814,0.30562377,-0.0994753,-0.0772409,-0.4499099,0.5486938,-0.3288566,0.49833953,-0.45564005,-0.22389859,0.2683718,0.4313498,0.49307692,0.45551562,0.50565916,-0.35931918,-0.45816594,-0.3539785,0.33709598,0.26408115,0.6462617,-0.22001672,-0.53831816,0.25214744,0.18100905,-0.5369369,-0.539322,0.3681826,0.3487295,-0.50031734,0.2877437,0.087965555,0.36411723,0.3764063,0.5261993,0.2992919,-0.40197355,0.54089564,-0.45696676,0.22874507,0.31434393,-0.25683823,-0.40940627,0.46832228,0.49219424,0.3749891,0.37148064,0.37582904,-0.40511113
menthé,0.29509497,-0.18544257,0.49873102,0.019300528,-0.2983806,-0.27344698,-0.07373091,0.09821208,-0.36936587,-0.1359706,-0.2789567,0.21968456,-0.28050375,-0.36991733,0.47466466,0.43739092,0.35028118,-0.36270967,0.05053345,-0.49331743,-0.2008587,-0.7660531,-0.14706825,0.3775975,-0.08519601,-0.8531938,0.20070574,0.27562174,-0.36547965,0.4838751,-0.27439934,0.85717285,-0.35859394,-0.05656024,0.22025724,-0.102213584,-0.404006,-0.2572787,-0.19355223,0.20785275,-0.08937592,0.30282038,0.29831323,-0.6851392,0.63856816,0.56584436,0.69527376,0.20225906,0.1768763,-0.92450047,-0.7754117,-0.33898228,0.48866713,-0.11264653,0.13802777,-0.28104207,-0.06608996,0.0716556,0.23241994,0.45003575,0.52235126,0.22166197,-0.26364306,-0.19776988,-0.3546918,0.44290718,0.4889916,0.040070016,-0.38849738,-0.2526505,0.23739651,0.40109468,-0.25108832,-0.40946102,0.38436383,0.33815563,-0.3504985,0.41084716,0.5745604,0.3002175,0.43627977,0.3387208,0.5592443,-0.2675197,0.26592633,-0.15013191,0.24245857,0.40619898,-0.57138336,-0.34444147,0.27204305,0.536718,0.5987231,0.30138782,0.4660419,-0.24843945
pomme,0.28525344,-0.12230354,0.14017966,-0.4411847,-0.2368145,-0.25067946,0.43026578,0.43669608,-0.3441953,-0.05981134,-0.43966135,0.4758366,-0.64879715,-0.41139436,0.4006883,0.1408884,0.7073711,-0.39727747,-0.42175066,-0.6206099,-0.50455046,0.07217124,-0.4362089,0.44988704,0.05085983,0.59614074,0.08599366,0.3821386,-0.5682262,0.56361806,-0.3965789,-0.42604363,-0.5011059,-0.38311094,0.29316515,-0.40391546,-0.3450453,-0.23525096,-0.16639045,0.37459087,0.24875894,0.36265606,0.48289797,0.3196008,0.25754914,0.45309323,0.6561998,0.26894432,0.44293463,0.074080154,0.17492482,-0.5206352,0.23298621,-0.32228827,0.30942222,-0.32283217,-0.44342682,0.36336732,0.42276472,0.4635638,-0.05534159,0.3521929,-0.4507088,-0.17724192,-0.73936653,0.37278944,0.1172255,0.54664963,-0.5020355,-0.5725781,0.5020828,0.16143312,-0.40006748,-0.30795217,0.37784702,0.42395476,-0.30075234,0.35391057,-0.0472647,0.28547463,0.42100626,0.5798957,0.35103512,-0.32850268,0.43882316,-0.57758737,0.18662845,0.14751188,-0.38026553,0.0054780655,0.36012343,0.40622222,0.38136134,0.27258492,0.45816198,-0.3725772
moisi,0.06704566,-0.42495808,0.2045891,-0.5612288,-0.45643014,-0.3888312,0.47427747,0.54865426,-0.3294775,-0.2298939,-0.45859185,0.24960393,-0.5139998,-0.66351175,0.34169865,0.39669544,0.38913268,-0.23640631,-0.093937814,-0.3089507,-0.13183206,-0.5006614,-0.5245344,0.34061784,0.4356621,-0.5668969,0.28254685,0.33274984,-0.13513058,0.37779054,-0.26070526,0.46540192,0.0019803308,-0.26725003,0.49627507,-0.40153003,-0.3061406,-0.4516763,-0.5517918,0.4504943,-0.4861445,0.11108108,0.40983534,-0.2923966,0.49351966,-0.09209639,0.754458,0.43969485,0.50648475,0.22085963,-0.3873558,-0.36502755,0.39856887,-0.29830047,0.3041933,-0.38386405,-0.5039467,0.53068244,0.46182963,0.19265981,0.32768813,0.2709451,-0.49122077,-0.31917515,0.01924846,0.5207659,-5.827099e-05,0.5436067,-0.4984865,-0.34256762,0.13483486,0.31345275,-0.0858393,-0.16091761,0.28853127,0.10340355,-0.27778125,0.38829648,0.4383357,0.50144565,0.32640857,0.38445345,0.23809676,-0.32824484,0.3377866,-0.46666527,0.23755446,0.41381022,-0.10969293,-0.13122143,0.49571392,-0.08633127,0.34429938,0.5035705,0.29475188,-0.19428012
ananas,0.35706937,-0.1516729,0.21840808,-0.43390128,-0.20573828,-0.33251938,0.5364142,0.39782643,-0.37964138,-0.22606511,-0.4142611,0.45709592,-0.51818925,0.018636823,0.36070156,0.23930445,0.7108946,-0.5307848,-0.43352497,-0.54488313,-0.39927787,0.23865122,-0.3632934,0.36727074,0.04769919,0.58002704,0.11317539,0.3365178,-0.47406614,0.47172624,-0.27050716,-0.4288457,-0.42257977,-0.3610704,0.3614969,-0.36376274,-0.2822639,-0.3188243,-0.29876044,0.43836147,0.08444929,0.423813,0.42158234,0.22811747,0.10537478,0.32851964,0.50304323,0.3005877,0.41610575,0.11019693,0.04664803,-0.43528897,0.25739738,-0.3097827,0.38990712,-0.48812962,-0.44223383,0.19941524,0.40224054,0.40307638,-0.022426032,0.4070898,-0.36295873,-0.3112777,-0.6042599,0.16257288,0.012086158,0.56223696,-0.37749735,-0.4508559,0.540573,0.2039305,-0.38114053,-0.30281126,0.2939977,0.35838616,-0.42146996,0.17890121,0.002759844,0.2996885,0.4140163,0.4584778,0.33284286,-0.34873015,0.41322196,-0.48327515,0.20578635,0.16535412,-0.29524153,-0.0849514,0.3074609,0.38898247,0.4926345,0.18963736,0.43113282,-0.26407018
phénolé,0.68335867,-0.32900876,0.44842392,-0.35231167,0.006697446,-0.46636057,0.068119854,0.0459583,-0.36094445,-0.37424654,-0.21929199,0.49671444,-0.21909185,0.016232442,0.26446417,0.50735646,0.24301867,-0.4372005,0.08298339,0.05055458,-0.19840388,-0.4073182,-0.14486706,0.14519769,-0.37516564,-0.48238343,0.24869305,0.20648575,-0.27597135,0.30944794,-0.33638108,0.40708822,-0.3101086,-0.38615137,0.20952863,-0.12139697,-0.23648304,-0.40297204,-0.3016543,0.18246987,-0.6022515,0.23365434,0.17453907,-0.5458668,0.31198567,0.4296942,0.6350143,0.27771038,0.21747723,-0.36828607,-0.553651,-0.25817782,0.5018774,-0.41284,0.2771183,-0.4227579,-0.19666073,0.033459574,0.18848592,0.27039036,0.47788206,0.15936293,-0.15226416,-0.4157099,-0.22665012,0.5036033,0.44245166,0.5357536,-0.29184213,-0.3905123,0.18463531,0.31745738,-0.44684538,-0.2488459,0.2040444,0.2535093,-0.2664098,0.42658007,0.25877884,0.36980385,0.34150422,0.20954841,0.32409692,-0.48466423,0.27167737,-0.073993355,0.36019826,0.38811156,-0.23856165,-0.46563283,0.11144688,0.361463,0.6405169,0.22859406,-0.06866109,-0.31247056
camphre,0.33020264,-0.3008204,0.5485695,0.022871371,-0.362332,-0.31774837,-0.07873784,0.07733892,-0.4535519,-0.09236046,-0.34567696,0.21820799,-0.18628559,-0.41671604,0.41761106,0.5744326,0.2996716,-0.23964995,0.04726164,-0.45432705,-0.1050937,-0.81557024,-0.13412246,0.38089865,-0.065315835,-0.9283255,0.22839484,0.20519376,-0.26222435,0.5291037,-0.33919948,0.87574816,-0.27102137,-0.09626978,0.25410128,-0.0022065109,-0.39374635,-0.1088515,-0.122037426,0.17315596,-0.24008355,0.2842913,0.25834477,-0.65864307,0.7734232,0.48234752,0.6961688,0.23774232,0.21622857,-0.81387854,-0.80255383,-0.31391665,0.43684143,-0.13433051,0.17897762,-0.36494464,0.036037873,0.105428755,0.13247776,0.34717327,0.5085827,0.23334567,-0.24290815,-0.22840708,-0.30594724,0.45822728,0.5513066,0.129101,-0.37205648,-0.31043032,0.118336044,0.39458993,-0.28034782,-0.36049652,0.38757825,0.25298154,-0.2839048,0.35726672,0.6442492,0.29102394,0.40107042,0.2692921,0.51482594,-0.28707945,0.26350442,-0.106064096,0.29923642,0.45989937,-0.42523885,-0.2912265,0.24673314,0.46856785,0.50444615,0.34888354,0.38804823,-0.30079332
soufré,0.21083789,-0.49972007,0.41862893,-0.22449195,-0.47079882,-0.36770725,0.041109923,0.0056179017,-0.016517015,-0.24339786,-0.22619957,0.4414485,-0.34915894,-0.32672262,0.266042,0.43378532,0.39835307,0.19254357,-0.5064187,-0.34245828,0.16831666,-0.52575576,-0.15241441,0.39633086,-0.084057584,-0.4960045,0.2729079,0.2537297,-0.40248123,0.5083776,-0.4737605,0.61972916,-0.2922121,0.02158545,0.41711408,-0.27416906,-0.20137416,-0.19605088,0.0029224288,0.1917888,-0.3533872,0.30614027,0.22096959,-0.23425393,0.661968,0.28314722,0.17956188,0.36249167,0.38871884,0.7808093,0.105158456,-0.27139115,0.32618672,-0.4206794,0.28226683,-0.12927617,0.3299746,0.43972227,0.5204553,0.23669253,0.0921141,0.3422789,-0.25701755,-0.28633127,-0.2425444,0.503546,0.07442729,0.36379963,-0.14873876,-0.20047711,-0.33275598,0.43286335,-0.08784165,-0.4714362,0.48293966,0.26987764,0.10033565,0.46932262,0.45354918,0.49023005,0.39666116,0.23081672,0.25535548,-0.46005622,0.40701863,-0.5014585,0.40999576,0.3644768,-0.12537125,-0.067012236,0.50651795,0.4207579,-0.81197727,0.4635204,0.299612,-0.4030723
aldéhyde,0.066830836,-0.28656113,0.48473248,-0.2716003,-0.47983763,-0.45205384,0.25984052,0.55664706,-0.32140052,-0.41806895,-0.1372102,0.27784193,-0.4620787,-0.5702721,0.046408564,0.17964706,-0.0062197,-0.21349272,-0.5753515,-0.42532632,-0.50440186,-0.14475673,-0.5723838,0.3152459,-0.69839597,-0.22680637,0.47645804,0.43189478,-0.45857936,0.27036545,-0.41626656,0.6262921,-0.28609055,-0.34057468,0.31628597,-0.5139048,-0.33747944,-0.4597386,-0.44906965,0.21366313,-0.3286891,0.46350968,0.11709049,-0.3866086,0.415587,0.3417444,-0.55463314,0.34138924,0.36377034,-0.32526413,-0.21403928,-0.4024243,-0.042735748,-0.435072,0.20514739,-0.28555587,-0.55395174,0.43982673,0.44241393,0.30496842,0.31653172,0.17738089,-0.3968401,-0.21941581,-0.22701634,0.2806412,0.48617664,-0.052413814,-0.48844016,-0.0733003,0.4327734,0.47337723,-0.29695594,-0.36894262,0.37079108,0.4686058,-0.22506666,0.3513916,0.25722888,0.32440433,-0.066341184,0.14229658,0.20475662,-0.18973657,0.056499578,-0.35151148,0.4960427,0.266615,-0.4474069,-0.32801002,0.3563753,0.20695804,0.03180055,0.45018163,0.5507738,-0.38652536
métal,-0.09479799,-0.48416644,0.4367775,-0.22028023,-0.47969887,-0.2682869,0.12812334,0.18306857,-0.23076525,-0.27351218,-0.34077364,0.38472453,-0.38643077,-0.49448746,0.28138772,0.37807912,0.4334563,0.0037751421,-0.33603096,-0.52544594,-0.07173441,-0.43909663,-0.3160684,0.4290063,-0.18402581,-0.3565989,0.1634199,0.20945366,-0.29574233,0.44880486,-0.29684928,0.5301763,-0.32312638,-0.09597274,0.42205095,-0.34753528,-0.26543644,-0.27840152,-0.12905674,0.2317763,-0.17371,0.36340612,0.3594559,-0.16831397,0.55383766,0.45903268,0.4201411,0.28373158,0.3626353,0.15722975,-0.09927952,-0.31138486,0.26691222,-0.2802794,0.28541753,-0.17704526,0.061853174,0.46544775,0.4587698,0.31240687,0.10363244,0.39983547,-0.37353295,-0.20609921,-0.21099743,0.4678194,0.11102995,0.36278552,-0.25629178,-0.36422235,-0.11765066,0.38953823,0.049437523,-0.40326113,0.50489914,0.3473968,-0.12140481,0.37835306,0.44052634,0.38093266,0.40460077,0.35207802,0.24041474,-0.31630096,0.43605512,-0.42203307,0.27208602,0.37493926,-0.27957308,-0.0029495358,0.432738,0.40147367,-0.5383905,0.5369778,0.40377605,-0.3909263
miel,0.4741524,-0.13548581,0.052265447,-0.3019259,-0.21324041,-0.29916888,0.43919778,0.32128727,-0.22737867,-0.53601575,-0.31321475,0.5212998,0.059579454,0.22591081,0.44997823,-0.26652667,0.07426344,-0.37686008,-0.41465363,0.06543505,-0.4327907,-0.28836465,-0.19708842,0.06748191,-0.5186347,-0.30648184,0.41285032,0.34677553,-0.38621444,-0.1505801,-0.36061254,0.057550095,-0.35710514,-0.52243984,0.3243485,-0.36386877,-0.3260704,-0.5685439,-0.4478492,0.41017032,-0.6388869,0.5295334,0.29345495,-0.31263632,-0.2610492,0.20966496,0.24255383,0.5453235,0.4430706,-0.04039399,-0.17415431,-0.27552885,0.511593,-0.2472862,0.4308113,-0.32856053,-0.44414675,0.2770397,0.42994112,0.40842956,0.5468737,0.3226846,-0.26449272,-0.50634897,-0.4675334,0.22805583,0.34116456,0.2901828,-0.12792367,-0.21496096,0.39065427,0.26272976,-0.53047585,-0.31662485,0.16873837,0.45377445,-0.5032799,0.26883894,0.26172101,0.41171682,0.16424021,0.32561868,0.1797691,-0.3482254,0.47091472,-0.3618915,0.19383368,0.19294189,-0.44215387,-0.667124,0.43298832,0.19160396,0.15250894,0.19486728,0.28057513,-0.3004479
melon,0.086769365,-0.2934485,0.3399192,-0.3751294,-0.33267093,-0.33578324,0.3766297,0.5252487,-0.29511648,-0.26567727,-0.42628017,0.116611674,-0.52093023,-0.66614527,0.2647748,0.43819594,0.4150961,-0.36046863,-0.38815027,-0.5496079,-0.41851115,-0.06849411,-0.3445059,0.503677,-0.43076932,0.16219798,0.42373765,0.3560882,-0.46567816,0.5659779,-0.21774028,0.08204144,-0.44600394,-0.29447496,0.31995028,-0.54832125,-0.3163302,-0.39396876,0.07060918,0.24355729,0.12209423,0.1511883,0.42279008,-0.16725501,0.24748963,0.45852268,0.09181462,0.385374,0.28974658,-0.25997564,-0.0784014,-0.50838286,-0.22276837,-0.43639368,0.31000337,-0.40503734,-0.47984606,0.46994823,0.44012582,0.3630768,0.016495347,0.34475252,-0.3586578,-0.06398673,-0.4746449,0.12762427,0.34198296,0.2539466,-0.3555985,-0.40602607,0.5714155,0.30206066,-0.24641511,-0.3015865,0.32730907,0.39632118,-0.27873516,0.25949576,-0.038320582,0.2564684,0.23521976,0.44627535,0.40930104,-0.42965996,0.25474846,-0.4955499,0.42539406,0.37013736,-0.3749758,-0.024648845,0.36417866,0.36932692,-0.12477644,0.3812807,0.39888453,-0.42785603
ambregris,0.26764208,-0.4413789,0.5871955,-0.17677158,0.059335288,-0.2549848,0.18427122,-0.24959704,-0.20912974,-0.3344308,-0.3327394,0.3850125,0.14034642,0.19496453,0.33877543,0.6039009,-0.23196383,-0.18728343,-0.10634039,0.12109603,-0.13670252,-0.61970496,0.2656284,0.41866526,-0.4218286,-0.7410389,0.4607465,0.3213637,-0.08035332,0.3662576,-0.44605792,0.536299,-0.12903693,-0.09994513,0.1475593,-0.19332771,-0.35096198,-0.48424667,-0.31436676,0.2831858,-0.32686782,0.13665752,0.28930515,-0.7130565,0.21776304,0.2362088,0.4657699,0.37938768,0.121467695,-0.34079444,-0.13930857,0.031367235,0.5466973,-0.44047248,0.15883008,-0.22725365,-0.1976379,0.3145481,0.28888735,0.02511856,0.30041748,0.3001559,-0.39912674,-0.30109972,0.033737175,0.33906803,0.43560863,0.5100468,-0.3179532,-0.35553816,-0.16453248,-0.0665202,-0.12024355,-0.35521543,0.18507832,0.27918482,-0.3262909,0.1268283,0.38361412,0.22076192,0.14555065,-0.091748804,0.38540798,-0.45785397,0.41183478,-0.1120269,0.2140047,0.46107653,-0.16405256,-0.3273425,0.38931948,0.2688,0.53752625,0.49051404,0.3680976,-0.32121578
raisin,0.34927863,-0.09043614,0.18863504,-0.4155982,-0.04541318,-0.32762498,0.34920132,0.3700668,-0.22511438,-0.23611704,-0.3917081,0.4091945,-0.3306687,-0.12846296,0.3765859,0.035468206,0.25759193,-0.2579971,-0.4652527,-0.38221145,-0.3856761,-0.048186928,-0.32968003,0.26304203,-0.26538894,0.20161629,0.09532274,0.16017137,-0.35446823,0.16934568,-0.36851647,-0.3603131,-0.3563571,-0.31836003,0.2128627,-0.28764763,-0.14657623,-0.33762112,-0.30130488,0.38313472,-0.096752346,0.48823148,0.2548109,0.03235755,-0.094729036,0.31734693,0.34252957,0.2903583,0.27841258,-0.08294278,0.18062776,-0.38417283,0.38237068,-0.24265224,0.42665654,-0.30783448,-0.34552488,0.31418964,0.4591174,0.38187975,0.10889326,0.2700023,-0.31720257,-0.31013498,-0.50998557,0.29162621,0.18676704,0.24266818,-0.23339766,-0.31308872,0.36845934,0.21802853,-0.36690372,-0.3660379,0.34434313,0.38113922,-0.3006354,0.18874261,0.15611234,0.2936363,0.2537957,0.4676191,0.29732916,-0.27122968,0.37613267,-0.41293764,0.23076385,0.19714837,-0.26377195,-0.23098344,0.32953298,0.27667314,0.14695854,0.25901306,0.3217317,-0.26613247
caramel,0.44770682,-0.17723404,0.16535783,-0.40196216,-0.26304638,-0.29793093,0.37538594,0.49903134,-0.30288407,-0.08927033,-0.32025635,0.2253432,-0.41206086,-0.30445933,0.35668957,0.27156335,0.41439328,-0.36503094,-0.31834322,-0.25449073,-0.27762178,-0.19545999,-0.4087546,0.34462005,0.33760852,-0.35342172,0.48583776,0.4208582,-0.3100383,0.4002474,-0.31189424,0.29429647,-0.25712475,-0.39947957,0.40615135,-0.43737438,-0.3441336,-0.44185948,-0.35568297,0.21570933,-0.42499036,0.29102954,0.15403774,-0.2725451,0.290835,0.052894134,0.48041892,0.35973465,0.35069174,0.2553608,-0.30470705,-0.31566933,0.42437953,-0.26236528,0.32650337,-0.41375506,-0.4271102,0.40546793,0.44013983,0.23338068,0.29891318,0.31051636,-0.3677943,-0.38653204,-0.33994478,0.3861215,-0.005911611,0.41702968,-0.390405,-0.10989763,0.27110603,0.29339677,-0.3115204,-0.05276748,0.31706092,0.10409121,-0.26357543,0.3800233,0.23614061,0.39968365,0.27825534,0.25499946,0.15745676,-0.2675265,0.35739195,-0.56913245,0.28329486,0.42241567,-0.23411718,-0.32706627,0.38874316,0.053911492,0.4798246,0.22551563,0.104838595,-0.15280846
oignon,0.37949568,-0.53125,0.51952827,-0.2804749,-0.6378526,-0.32188904,0.05314424,-0.054333933,0.10518409,-0.093830466,-0.10041368,0.46875474,-0.36911124,-0.28542835,0.14858624,0.5382025,0.41541553,0.18591608,-0.53659844,-0.36573616,0.28887877,-0.5194058,0.010948271,0.3659916,0.117331475,-0.44572324,0.48804015,0.41052306,-0.49192703,0.39520097,-0.5131109,0.5820359,-0.3251968,0.21293125,0.4913891,-0.2946197,-0.30844957,-0.056708954,0.041152027,0.04907721,-0.3928188,0.21373416,0.22221646,-0.102366924,0.63349944,0.28747565,-0.03754601,0.42531738,0.45681545,0.97784036,0.27293316,-0.2682695,0.3070951,-0.4356478,0.3433599,-0.22429028,0.38038853,0.38615423,0.5087204,0.23872674,0.10185849,0.28320804,-0.18743655,-0.31245637,-0.07148661,0.35117668,0.08569695,0.41504973,-0.16047971,-0.16013265,-0.258496,0.5115649,-0.26322517,-0.3713646,0.4072783,0.23491424,0.24712555,0.3900826,0.44443125,0.42610234,0.44000247,0.29097486,0.26911855,-0.53196955,0.30880415,-0.48293316,0.45566022,0.37913653,-0.12047892,-0.19821279,0.53416055,0.41644478,-0.82422984,0.45516527,0.11740536,-0.42833042
banane,0.43197322,-0.22092451,0.16494294,-0.3636019,-0.21933788,-0.3565055,0.45405632,0.3432635,-0.30079192,-0.11174962,-0.35273302,0.47859737,-0.5111391,-0.030929402,0.35734397,0.21327591,0.6684857,-0.48113495,-0.41310823,-0.52551186,-0.34703606,0.151954,-0.36835745,0.3268152,0.11481893,0.5261977,0.09641102,0.34074742,-0.43046966,0.47927177,-0.31913146,-0.3433037,-0.42492813,-0.40320444,0.3284156,-0.25290245,-0.32003516,-0.32662714,-0.3003859,0.44251922,-0.006400656,0.29598972,0.43635705,0.16835319,0.12599769,0.3440013,0.5910629,0.28407773,0.42584276,0.15366395,0.011831684,-0.3397038,0.41656494,-0.28840873,0.3598724,-0.39896208,-0.36431944,0.14316833,0.45648572,0.33001685,-0.017107904,0.42398468,-0.36816847,-0.3135039,-0.5303368,0.14814833,0.09149291,0.57901645,-0.36001852,-0.39414525,0.4500262,0.2105679,-0.32672682,-0.3250035,0.31768602,0.31981033,-0.36155093,0.12426576,0.034624167,0.33203954,0.41378748,0.4087984,0.30374435,-0.37841147,0.4172873,-0.5057508,0.20634231,0.10887286,-0.3385957,-0.1275592,0.3392442,0.3955741,0.5020961,0.18348792,0.3308807,-0.24647257
poire,0.19909179,-0.11197515,0.1088951,-0.3671242,-0.20046091,-0.2532794,0.3923821,0.40599465,-0.24013434,-0.024791805,-0.44144866,0.34273404,-0.6353291,-0.5131413,0.3859731,0.22116281,0.5806843,-0.30491638,-0.3682876,-0.56532204,-0.46074766,-0.0205254,-0.3651961,0.45514065,-0.058820076,0.4365072,0.07963421,0.3693511,-0.5363519,0.5643148,-0.35465452,-0.24814282,-0.45391536,-0.30581066,0.23742783,-0.44008785,-0.29126146,-0.20082629,-0.031120019,0.34293932,0.25411797,0.27714354,0.48056543,0.25448343,0.37020773,0.3735549,0.65411973,0.1960277,0.41977617,-0.0034611847,0.14784718,-0.51758665,0.068308964,-0.26140577,0.27855414,-0.26860133,-0.45032,0.3354485,0.37579292,0.45693374,-0.0617653,0.32183075,-0.41998,-0.05995986,-0.628222,0.32207173,0.08482048,0.5126697,-0.42411393,-0.511728,0.47257915,0.061508484,-0.36328375,-0.23715107,0.3213712,0.41067928,-0.21691722,0.3255326,-0.0034479224,0.27343908,0.3940361,0.524432,0.3768787,-0.25651804,0.33536166,-0.5466239,0.18821217,0.13182606,-0.35322112,0.07733228,0.31670982,0.3288734,0.30816618,0.2572475,0.44022632,-0.32316652
café,0.2827176,-0.15818827,0.13215683,-0.46597058,-0.48893863,-0.25846696,0.3593219,0.5127772,-0.14785746,-0.04081674,-0.3450324,-0.007550884,-0.39237332,-0.6038374,0.23172398,0.39328408,0.25261232,-0.12770785,-0.35120127,-0.24851096,-0.17519951,-0.5356805,-0.4442935,0.43000925,0.6725975,-0.66475767,0.4877343,0.2440076,-0.19467452,0.5833204,-0.38089997,0.5551711,-0.18794605,-0.35675612,0.38442785,-0.43667686,-0.30404282,-0.38632184,-0.34389126,0.18131347,-0.57211155,0.02916509,0.115662485,-0.5228127,0.55040896,-0.13062342,0.6071073,0.31898898,0.40501645,0.542422,-0.44795063,-0.3053375,0.23190135,-0.33166268,0.29574686,-0.4702528,-0.4818337,0.5821033,0.4391137,0.11584048,0.405189,0.29737577,-0.323563,-0.4650778,-0.06981811,0.4492956,0.1227372,0.42853656,-0.45626378,0.036975987,0.1362853,0.28232425,-0.30384105,-0.015416498,0.21667981,-0.034611598,-0.10532521,0.4093992,0.33896625,0.30612534,0.2590919,0.16848567,0.28339124,-0.22751828,0.20535223,-0.45455265,0.19713965,0.37734622,0.029721446,-0.22829717,0.5676576,-0.12339197,0.35849229,0.27308887,-0.037936546,-0.048868343
vanille,0.43860248,-0.25074446,0.15138987,-0.24761094,-0.27199864,-0.20528093,0.33287418,0.20570377,-0.24305354,-0.24764821,-0.11868253,0.34323668,-0.1566809,0.1073524,0.1394351,0.029485896,0.34644288,-0.3357531,-0.12341777,-0.07220581,-0.22080784,-0.12925442,-0.25975698,0.26645035,-0.23434769,0.046012044,0.31850448,0.1298827,-0.28684586,0.03136717,-0.24821505,0.10605124,-0.35380802,-0.22563016,0.08715422,-0.13645415,-0.33848757,-0.28960302,-0.28335705,0.27632216,-0.2748698,0.14099249,0.16486384,-0.095299006,0.0008570552,0.31564245,0.06803719,0.28988397,0.26656258,-0.2232241,-0.1298058,-0.19000624,0.3266117,-0.17128941,0.3976546,-0.40084386,-0.3302737,0.33396065,0.3328156,0.1792129,0.31854194,0.27253175,-0.10504753,-0.23744772,-0.31704006,0.2530091,0.2802621,0.30554223,-0.23746535,-0.24261206,0.31658456,0.20978881,-0.3415625,-0.15306886,0.30717438,0.3529247,-0.15464267,0.2511118,-0.15302971,0.08454922,0.30626658,0.1885466,0.20263515,-0.4364829,0.22532906,-0.20522669,0.2191445,0.3432777,-0.23373738,-0.41057894,0.3557598,0.32207575,0.43944073,0.14608033,0.075620316,-0.19000627
éther,0.452054,-0.1722939,0.10245359,-0.32887012,-0.11367814,-0.27490038,0.42253488,0.33330825,-0.35459328,-0.072700486,-0.35483578,0.3598675,-0.41232574,-0.07070384,0.3525238,0.10104196,0.5811029,-0.47889125,-0.35801756,-0.4174279,-0.35367185,0.21995518,-0.31266803,0.32038176,-0.15953873,0.5010227,0.092905626,0.28135097,-0.4224385,0.29032108,-0.30624676,-0.33303273,-0.41446576,-0.37664166,0.2965181,-0.27746332,-0.28261167,-0.30745476,-0.2629587,0.43403244,0.05872558,0.31796658,0.4123757,0.23990296,0.011079077,0.3364336,0.4358145,0.20062171,0.4378565,0.04656769,0.035394676,-0.2759093,0.40066004,-0.2828425,0.32902727,-0.35668916,-0.27649164,0.043785512,0.4471546,0.3492096,0.09186278,0.42446995,-0.35411704,-0.2243202,-0.5072906,0.12149623,0.12860094,0.46002802,-0.36597794,-0.44041812,0.40135884,0.20194043,-0.22948602,-0.32387963,0.26069587,0.32885462,-0.4103034,0.06554824,0.043614805,0.33305618,0.3253696,0.3376975,0.30912113,-0.35046852,0.40133455,-0.45378488,0.16315335,0.057176374,-0.24397844,-0.12588814,0.27544978,0.31200683,0.48649466,0.2494568,0.20724484,-0.28957576
fromage,0.10197371,-0.31501204,-0.010672137,-0.17914364,-0.49001738,-0.40637642,0.43894368,0.32795823,-0.38684183,-0.10442561,-0.17584701,0.09913545,-0.4044122,-0.4970878,0.25635502,0.32839268,0.3619537,-0.19043323,-0.5261109,-0.49729317,-0.35015392,0.3528119,-0.36862084,0.37186727,-0.50725466,-0.3732185,0.4781256,0.18960062,-0.33267194,0.5166917,-0.25801235,0.12504752,-0.27750218,-0.284416,0.3316322,-0.42594263,-0.24666268,-0.42798263,-0.42686337,0.17474604,-0.4060822,0.12332671,0.24300286,-0.54379463,0.4157519,0.1923331,-0.018622741,0.012149717,0.3944505,-0.34594405,-0.32790303,-0.2314305,-0.08125289,-0.3947801,0.35624662,-0.43016323,-0.51509124,0.3816154,0.33392903,-0.03726154,0.3287357,0.19560543,-0.20824441,-0.27283317,-0.3895918,0.04521638,0.39413193,0.2293931,-0.29960448,-0.16463748,0.54876935,0.398033,-0.2564014,-0.22883564,0.030197252,0.17542464,-0.33832026,0.50661755,0.07803215,0.080992416,0.32167682,0.06338996,0.32990408,-0.18374382,0.27905223,-0.48728395,0.37169766,0.29519436,-0.3854469,-0.30109465,0.085315436,0.4316832,0.4818647,0.05898547,0.21816842,-0.28165677
vin,0.12200606,-0.29625297,0.1616272,-0.22890681,-0.21548304,0.024344578,0.2261027,0.3836192,-0.2635889,0.017540183,-0.33623564,0.32219175,-0.33758685,-0.19163167,0.20382203,0.25677067,0.3297453,-0.33229995,-0.33485073,-0.43809628,-0.33485535,0.14756858,-0.3258732,0.34777242,-0.10032668,0.4616621,0.2565235,-0.06256669,-0.23619509,0.29316193,-0.1266095,-0.08118479,-0.1621604,-0.29690486,0.043436974,-0.24569443,-0.26754743,0.016561553,-0.11817293,0.26999998,0.01128671,0.31304514,0.29985747,0.42418975,0.048430912,0.25573146,0.0057864785,0.2288571,0.35333645,0.060084485,0.09638727,-0.3547619,-0.05594809,-0.25889987,0.16640048,-0.24361491,-0.34639353,0.31809545,0.09546699,0.19268194,-0.020173345,0.27887738,-0.13497263,-0.20124954,-0.29495075,0.004066109,0.11494989,0.24110743,-0.23836318,-0.21170343,0.31371805,0.0072683357,-0.23264982,-0.25122654,0.35064477,0.10944971,-0.121692255,0.025479466,-0.26763213,0.03545686,0.19385546,0.30622873,0.32626736,-0.16877493,0.063413635,-0.38845843,0.31840765,0.23117036,-0.074372485,-0.03987065,0.1598287,0.15357623,0.22853836,0.34319198,0.22364049,-0.2620226
tabac,0.30601415,-0.39870352,0.22729617,-0.101050064,-0.10567797,-0.2262026,0.17192829,0.15862973,-0.29235628,-0.3769185,-0.2300385,0.3676778,-0.041626185,-0.05713118,0.3077777,0.21078041,0.023300266,-0.2887366,0.116474956,0.03300137,-0.29741645,-0.39403144,-0.1485553,0.25040728,-0.37980682,-0.41059518,0.15478191,0.33676684,-0.22390744,0.02057419,-0.31878984,0.38403574,-0.22311652,-0.2805471,0.21680424,-0.1985461,-0.2996944,-0.2612254,-0.28004637,0.38361704,-0.25202766,0.28927732,0.2985335,-0.334571,0.16536489,0.316885,0.3771032,0.24174595,0.05734914,-0.36843973,-0.35319266,-0.23854226,0.41919842,-0.21512657,0.26399446,-0.07412177,-0.054638114,0.102504045,0.11357109,0.33525485,0.36198604,0.25036862,-0.24498367,-0.26215068,-0.32022068,0.30730313,0.31192392,0.33653247,-0.33174014,-0.31054467,0.24888322,0.18876526,-0.30372962,-0.36178064,0.27852494,0.15507698,-0.27358618,0.27762973,0.2693845,0.23372783,0.22401421,0.19574027,0.19252013,-0.26493943,0.25692245,-0.24212348,0.37956136,0.12676683,-0.2698203,-0.40025973,0.1554119,0.31979984,0.19611605,0.20208101,0.2631948,-0.28960475
noixdecoco,0.23203272,-0.36411586,0.14279762,-0.339449,-0.4131037,-0.5012239,0.41419643,0.26011735,-0.39430335,-0.16400391,-0.19828591,0.13687189,-0.30464953,-0.40287942,0.21251029,0.2772507,0.52591443,-0.27682093,-0.42309538,-0.33895475,-0.40849042,0.41301137,-0.42667502,0.34360188,-0.40799135,-0.41695786,0.4707075,0.15393527,-0.22095114,0.5523969,-0.24855497,0.36310807,-0.4306637,-0.37818587,0.42338157,-0.34964964,-0.27063403,-0.41730607,-0.4069209,0.24430183,-0.36060992,0.103324644,0.29671216,-0.65594995,0.627526,0.15763783,0.09613604,0.18321344,0.30403847,-0.25636384,-0.3766284,-0.32908732,-0.16461623,-0.30944696,0.3755623,-0.4800374,-0.5307437,0.32448965,0.42033362,0.06552805,0.2895666,0.15319444,-0.29990345,-0.49610984,-0.5038209,0.21558805,0.3102789,0.12602706,-0.33966303,-0.08092869,0.46413273,0.43866318,-0.3527529,-0.070016,0.052611638,0.08199839,-0.14701101,0.49153098,0.18318883,0.10363304,0.2801881,-0.14090486,0.29102245,-0.2844967,0.3718906,-0.46578974,0.32004187,0.34355217,-0.42496046,-0.47980857,0.033114098,0.39134884,0.51685834,0.034226157,0.24036768,-0.30957073
jasmin,0.19791509,-0.19143537,0.27581635,-0.32462254,-0.18516162,-0.3058121,0.28224075,0.33687633,-0.22589701,-0.42452347,-0.3128678,0.37542275,-0.14965287,-0.14128168,0.3369267,-0.041630313,0.1215135,-0.33225113,-0.35063258,-0.23680897,-0.32321048,-0.28912967,-0.23243126,0.24261312,-0.37293398,-0.16506012,0.14687045,0.3795364,-0.27681038,0.08961812,-0.29621768,0.12648852,-0.24177076,-0.4231919,0.33112997,-0.32338256,-0.20874882,-0.35787153,-0.3726179,0.31243622,-0.3265651,0.40579137,0.27329507,-0.14506584,0.05062981,0.24012935,0.10905805,0.35403204,0.29083982,-0.19515052,-0.18502763,-0.2709058,0.46549806,-0.20391019,0.38729468,-0.22381638,-0.25120896,0.26815605,0.32636195,0.32548463,0.28551975,0.23523626,-0.3326336,-0.3018061,-0.21027409,0.26374567,0.25816983,0.16820903,-0.18706077,-0.31357157,0.2676565,0.32883143,-0.31578815,-0.37883773,0.19992074,0.4034478,-0.35825902,0.27409673,0.3344233,0.42085952,0.13983646,0.4364376,0.25406143,-0.37950838,0.35970926,-0.28167576,0.28502905,0.2140968,-0.24846935,-0.44982305,0.4160274,0.32196605,0.045518413,0.29506207,0.35993484,-0.3144006
savon,-0.23180538,-0.2676197,0.335797,-0.42399454,-0.42001554,-0.20910466,0.26644996,0.3978759,-0.44613108,-0.26836526,-0.21936107,-0.0641537,-0.45023668,-0.43813545,0.12251385,0.2964151,0.11633132,-0.3005899,-0.2902748,-0.42610294,-0.36809504,0.10049007,-0.47328642,0.4154901,-0.5007933,-0.09409395,0.292224,0.3791061,-0.2624817,0.37258777,-0.3560408,0.33901632,-0.4004866,-0.28524595,0.28474176,-0.36996338,-0.33028495,-0.49665904,-0.25440788,0.3406092,-0.16922365,0.23495804,0.22810072,-0.28334135,0.20789382,0.3317505,-0.38559783,0.24040443,0.2489428,-0.33746344,-0.20235965,-0.32673508,-0.17732167,-0.35021955,0.14130434,-0.2097998,-0.37615106,0.30839473,0.2908914,0.3365258,0.30725318,0.26369533,-0.37310174,-0.15615487,-0.18786916,0.27851975,0.40001643,0.01675427,-0.26413226,-0.18544608,0.3534716,0.39127257,-0.18811901,-0.40944418,0.21329221,0.37382293,-0.25593954,0.3827806,0.27836823,0.35154623,0.10560063,0.26355255,0.24602556,-0.19404021,0.34612095,-0.2792189,0.34217167,0.39585024,-0.3178442,-0.20672962,0.24427247,0.32060713,-0.052917805,0.31244358,0.3301332,-0.40045768
ail,0.41793352,-0.50146425,0.4375905,-0.3230428,-0.59259665,-0.36032125,0.07067972,0.010461532,0.06441941,-0.06931071,-0.105542056,0.39833063,-0.3152765,-0.30808797,0.19598849,0.5401237,0.38690466,0.15899445,-0.46858484,-0.38933766,0.31183785,-0.57600653,0.05007831,0.3715796,0.05048527,-0.40984294,0.431813,0.48951197,-0.51655495,0.39880592,-0.5243109,0.50219196,-0.28272623,0.2198581,0.42209098,-0.2494652,-0.30232832,-0.031182537,0.04657489,0.07421334,-0.3608296,0.23321274,0.2254521,0.00037904084,0.53539133,0.2913617,0.006739378,0.43332496,0.48521978,0.79947674,0.25057498,-0.27744818,0.37413082,-0.34768295,0.35373294,-0.15777068,0.33117095,0.32584208,0.44434673,0.28794283,0.08361651,0.3086113,-0.17806725,-0.30404103,-0.060434252,0.30363202,0.16974777,0.4177276,-0.141946,-0.16488552,-0.25294173,0.43885088,-0.30018234,-0.32868683,0.35092354,0.22395228,0.2579009,0.38980955,0.48029643,0.42581004,0.40104276,0.38007975,0.2784756,-0.49285245,0.31426108,-0.5200064,0.32627732,0.3407053,-0.09555355,-0.23385435,0.5124296,0.3405651,-0.71593726,0.46269333,0.090375125,-0.37978202
lactique,0.12940602,-0.37182438,0.02497932,-0.15087001,-0.45671445,-0.43307874,0.47290897,0.36878586,-0.4513237,-0.1469989,-0.11826378,0.01682569,-0.3420999,-0.4957444,0.23633765,0.39140433,0.3918746,-0.19223009,-0.55254626,-0.41053635,-0.3536182,0.38029587,-0.36542034,0.38927817,-0.5407759,-0.4757513,0.51023245,0.16774882,-0.3846144,0.519178,-0.33127508,0.26013175,-0.28785455,-0.30548653,0.3807791,-0.36533704,-0.2594369,-0.408593,-0.43194345,0.15801495,-0.45212054,0.046512157,0.19343613,-0.6276641,0.5144958,0.14894003,-0.013139464,0.043817036,0.36948735,-0.41140676,-0.38631636,-0.18835841,-0.11884903,-0.36633122,0.3637432,-0.41795233,-0.5197484,0.37545785,0.30121917,-0.03656554,0.3467849,0.16676128,-0.23784462,-0.37670195,-0.48659685,0.014465829,0.43693435,0.17678851,-0.33139914,-0.099319376,0.5686729,0.41393468,-0.36983514,-0.18393129,0.06880958,0.13249622,-0.32330826,0.5613281,0.14781152,0.0858217,0.29351217,-0.033696234,0.33280945,-0.17282453,0.27197045,-0.47630078,0.41002846,0.33730093,-0.4595038,-0.36486244,0.015643856,0.3706252,0.56478035,0.01698254,0.20117414,-0.29061025
beurre,0.1398337,-0.35579538,0.03940574,-0.1194917,-0.3901645,-0.41466832,0.33139575,0.38506746,-0.4218733,-0.17426169,-0.08827165,0.10471576,-0.305318,-0.49388453,0.25688782,0.43949795,0.38049924,-0.23295853,-0.43967068,-0.30093867,-0.27674305,0.19881009,-0.38046974,0.411717,-0.38013119,-0.6364148,0.50879025,0.26014555,-0.30083448,0.51358306,-0.3033271,0.3550928,-0.281957,-0.2977692,0.48283535,-0.39355367,-0.28152132,-0.40265638,-0.41929448,0.14358963,-0.40535545,0.1903009,0.21262255,-0.69817686,0.5765595,0.2441225,0.090138786,0.10625604,0.29208547,-0.34168774,-0.46198124,-0.25478363,0.0624419,-0.2734597,0.4379339,-0.3895024,-0.4418644,0.4607829,0.40221322,0.040940303,0.42792982,0.26424423,-0.12619449,-0.404016,-0.3900926,0.10240868,0.44254395,0.20769721,-0.40054566,-0.0964001,0.46023196,0.39263418,-0.25684232,-0.14011031,0.11661733,0.11532803,-0.24755397,0.43265945,0.18475763,0.17558582,0.2886124,0.030887648,0.24170281,-0.2591076,0.36364213,-0.4889032,0.33297533,0.41967392,-0.4359695,-0.4585946,0.08082584,0.4074398,0.45876813,0.058663636,0.19372292,-0.3005997
champignon,-0.14714429,-0.4115665,0.29192278,-0.24398312,-0.52464974,-0.25481105,0.12640466,0.3963342,-0.36040625,-0.1333099,-0.24733089,0.07369075,-0.48076004,-0.5381675,0.25578606,0.3751899,0.3590043,-0.09977427,-0.15166095,-0.42390764,-0.12695594,-0.2474432,-0.46626657,0.3179202,-0.13690366,-0.3633353,0.14743277,0.105002545,-0.2305961,0.43446237,-0.09835104,0.47826138,-0.039086133,-0.12388699,0.3491632,-0.30803,-0.23352423,-0.40858743,-0.26694423,0.16829064,-0.18299043,0.18788469,0.32360655,-0.29418334,0.46723515,0.19771926,0.22163278,0.22533965,0.4414249,-0.2235181,-0.41155064,-0.2717671,0.1423399,-0.19602224,0.25171316,-0.37667465,-0.32095072,0.5143156,0.39251655,0.22432628,0.25505605,0.22843385,-0.37929767,-0.16013116,-0.12723596,0.39598966,0.10634125,0.30318585,-0.3439642,-0.26266614,0.25657856,0.32941514,0.06269426,-0.16832846,0.27710485,0.21849918,-0.13905771,0.37700903,0.3183209,0.2584827,0.34360224,0.1749959,0.19077486,-0.16933782,0.35989922,-0.4315588,0.25880438,0.3409418,-0.21989277,-0.07703774,0.31832775,0.20230167,-0.032895982,0.40730155,0.328439,-0.4214181
cacao,0.23122227,-0.032116808,0.19556884,-0.37134206,-0.40447253,-0.27199253,0.41350156,0.48002082,-0.23507948,-0.12960607,-0.3864044,-0.021699518,-0.3777414,-0.40431356,0.22907948,0.40156275,0.22381276,-0.093994305,-0.21420857,-0.28199875,-0.3615359,-0.5192876,-0.46400145,0.31045145,0.6480321,-0.586442,0.44347435,0.27706057,-0.19049695,0.4250487,-0.34802938,0.46787423,-0.20035914,-0.32590124,0.35268342,-0.4006707,-0.3419096,-0.4280852,-0.4072689,0.35147074,-0.51829123,0.06926174,0.24400246,-0.46070933,0.40892136,-0.16512477,0.5249673,0.4697442,0.47379345,0.43969923,-0.47988132,-0.36293867,0.17970745,-0.34538132,0.2846775,-0.37381035,-0.5991724,0.46373972,0.36105943,0.22516909,0.38438797,0.2758217,-0.34502423,-0.33504736,0.005067406,0.46614915,0.18241388,0.38478166,-0.40330145,-0.1534065,0.14429219,0.31995946,-0.3473984,-0.23295647,0.16949013,-0.004184302,-0.17229614,0.40562838,0.3569618,0.27651122,0.34257245,0.19620867,0.18315722,-0.21824843,0.18330327,-0.463237,0.26131997,0.4104892,0.049229298,-0.29016903,0.5058363,-0.079999775,0.36466324,0.30712956,0.013533976,-0.096473865
animal,0.24790542,-0.28610426,0.46134624,-0.21336618,0.014404066,-0.21989113,0.20770036,-0.26900584,-0.0938901,-0.31639618,-0.2626294,0.27306336,-0.07724771,0.15486789,0.2956957,0.3733166,-0.21596768,-0.24571452,-0.1827636,0.12314263,-0.13853559,-0.41071025,0.14532581,0.35336047,-0.37105262,-0.45385915,0.4120045,0.28110534,-0.14579889,0.28634775,-0.38729036,0.33841968,-0.2070959,-0.200856,0.19338673,-0.22298321,-0.1939917,-0.40642568,-0.28669617,0.25164822,-0.27430755,0.16291621,0.28823394,-0.41715083,-0.08583799,0.18768108,0.2831331,0.32476252,0.082935594,-0.1627504,0.05613692,0.0028587691,0.30499268,-0.38265544,0.12869585,-0.16238219,-0.38028687,0.22847019,0.2816713,0.063724205,0.35128692,0.23159693,-0.36931363,-0.1981219,-0.11741871,0.23831388,0.3506912,0.41409808,-0.32777035,-0.31981608,-0.12110472,-0.0946998,-0.07943807,-0.3458414,0.073227435,0.23344207,-0.26764348,0.064835265,0.2624135,0.22729142,0.14632729,-0.010632106,0.37343416,-0.3758756,0.44768995,-0.1853024,0.070090175,0.29605496,-0.19873893,-0.27608186,0.42965034,0.2527892,0.35957003,0.2924239,0.2053209,-0.2970939
pêche,0.14913605,-0.2855346,0.047092278,-0.48509464,-0.115806825,-0.40782642,0.391037,0.34531128,-0.36019617,-0.12412225,-0.27552164,0.25159016,-0.35829425,-0.23862039,0.36865103,0.12891658,0.40102273,-0.43707058,-0.34803122,-0.4053297,-0.3281503,0.17701587,-0.283876,0.41606647,-0.13844717,0.23881759,0.20017786,0.29135877,-0.18815707,0.18024896,-0.42819268,-0.09760822,-0.36553293,-0.40038964,0.42446953,-0.40101817,-0.21623275,-0.39272138,-0.3265937,0.38932478,-0.05302378,0.3443511,0.32177064,0.042687148,0.08976623,0.24877495,0.2036567,0.2729525,0.30549383,-0.20472376,-0.111344576,-0.29222015,0.1488367,-0.13379918,0.35759112,-0.37664872,-0.3369233,0.14583427,0.393027,0.20044473,0.037368387,0.38308424,-0.37713975,-0.18605536,-0.4126488,0.2544963,0.021968562,0.265167,-0.22557707,-0.36122832,0.42780143,0.29464298,-0.15583575,-0.27449396,0.16280317,0.38004917,-0.30847043,0.16530225,0.22654739,0.3179928,0.3099248,0.42490423,0.25650412,-0.27480975,0.44967616,-0.3129037,0.15475659,0.26498252,-0.29247174,-0.29483178,0.20490167,0.39218587,0.27872065,0.28261015,0.2689389,-0.27974334
orange,0.1126858,-0.2883321,0.36162883,-0.27158076,-0.3897627,-0.3604064,0.16055748,0.3840828,-0.20213972,-0.2685364,-0.17729147,0.22866762,-0.3244545,-0.4117341,0.15789676,0.2078145,0.06351303,-0.15166506,-0.47787434,-0.35684493,-0.40005612,-0.12616372,-0.3502354,0.19539136,-0.5462493,-0.30613968,0.45949253,0.25200364,-0.37081015,0.17821471,-0.39095244,0.4037092,-0.14924416,-0.28586188,0.26943892,-0.4177873,-0.19500792,-0.41247353,-0.32150978,0.16390942,-0.34504816,0.37505734,0.18881544,-0.3401754,0.3780781,0.20284903,-0.400981,0.20333713,0.35791218,-0.17064826,-0.24229513,-0.31275436,0.018973682,-0.3148972,0.32905468,-0.28211975,-0.4426796,0.36885226,0.3799261,0.18109088,0.32524902,0.20363258,-0.27307126,-0.17887059,-0.22259316,0.29841417,0.37984055,-0.04646062,-0.311787,-0.027241081,0.33853686,0.38818145,-0.28022587,-0.356892,0.3418947,0.43279532,-0.2617467,0.3088801,0.34323502,0.23337209,-0.047126982,0.09886902,0.17236096,-0.245419,0.06697943,-0.3290134,0.4431734,0.23941734,-0.35070276,-0.25634068,0.35365123,0.14764726,0.13050106,0.3147391,0.4012648,-0.28190657
brûlé,0.30970696,-0.22011086,0.16929817,-0.41517353,-0.36128378,-0.20303693,0.119326524,0.36077365,-0.17778093,-0.018011462,-0.3110302,0.19749188,-0.37050888,-0.44353592,0.23586628,0.3731359,0.25574487,-0.26144347,-0.26621112,-0.22611552,-0.091248736,-0.3934073,-0.38838506,0.28392822,0.3625025,-0.47210625,0.32223374,0.19855037,-0.20314613,0.45604312,-0.29359093,0.50391924,-0.20394981,-0.3578784,0.2449755,-0.32945693,-0.17110732,-0.28467244,-0.1741777,0.08729291,-0.4352724,0.09910843,0.045340974,-0.35502753,0.5104275,0.08738376,0.5341029,0.22408284,0.32969433,0.32126662,-0.45414972,-0.22975235,0.2899686,-0.3256372,0.2165883,-0.35714412,-0.29272753,0.3603992,0.29903418,0.16000205,0.26796162,0.2317059,-0.29812062,-0.40563044,-0.13532527,0.38885185,0.20304623,0.3923461,-0.27998257,-0.06513387,0.20530954,0.27629137,-0.27068967,-0.023560643,0.23328105,0.06258548,-0.14416552,0.27490148,0.20474157,0.25374767,0.3355729,0.1836899,0.29252547,-0.346102,0.24708524,-0.33757406,0.23214516,0.3606304,-0.12115048,-0.18830287,0.38527083,0.05531631,0.32357457,0.30199373,-0.022036443,-0.07024466
violette,0.20124078,-0.39290962,0.22241473,-0.16565146,-0.1853392,-0.04489466,0.15822464,0.3276696,-0.2242637,-0.24011137,-0.28391367,0.2723572,-0.115894765,0.024110552,0.13236946,0.11389021,0.15737545,-0.29594317,-0.17424358,-0.2193099,-0.28106317,-0.24448158,-0.17839915,0.25220492,-0.05799324,0.06975801,0.22994566,-0.049898557,-0.23197374,0.24941066,0.018494658,-0.10369477,-0.16692404,-0.22712025,-0.01943612,-0.252346,-0.2831333,0.06348191,-0.09816466,0.13066539,-0.267527,0.1188781,0.16314584,-0.0016260073,-0.06756288,0.28196007,-0.14472352,0.24485433,0.24104702,-0.20892406,-0.033067845,-0.26964363,0.054454263,-0.2543952,0.26722616,-0.30703515,-0.25507382,0.22389108,0.18572798,0.28886145,0.18560164,0.17308922,-0.14327922,-0.19442748,-0.24479069,0.0728959,0.24936564,0.34516972,-0.13035223,-0.31968838,0.21793151,0.2251748,-0.17151532,-0.1736746,0.23085359,0.04287227,-0.113044396,-0.009334727,-0.11141423,-0.037501384,0.22702745,0.19219343,0.30247834,-0.24608362,0.03144623,-0.16425517,0.2502941,0.16506252,-0.055354252,-0.062414117,0.08849151,0.09639651,0.27812445,0.32939872,0.22043887,-0.25797346
musc,0.3884878,-0.36188385,0.5088564,-0.19676825,0.012942992,-0.20319612,0.15681252,-0.22876619,-0.10435276,-0.35755086,-0.24346286,0.39076614,-0.01972593,0.20206912,0.30388606,0.36497945,-0.17682193,-0.22776794,-0.1918728,0.07677165,-0.11919959,-0.53889275,0.12675852,0.33263004,-0.39215428,-0.5341294,0.41569763,0.33319685,-0.1318914,0.38153523,-0.34991533,0.40512288,-0.15487148,-0.06331161,0.12365076,-0.26481467,-0.29504067,-0.45137614,-0.31469768,0.3136063,-0.3444678,0.14491826,0.19413328,-0.56714463,0.039942563,0.19924712,0.35863322,0.35526007,0.13648696,-0.13470818,-0.015510626,0.00636195,0.3885283,-0.42493266,0.093813136,-0.23626795,-0.3879401,0.2422702,0.3403587,0.06299704,0.34382355,0.29014754,-0.3302371,-0.18660367,-0.041949715,0.2935564,0.33415738,0.38085628,-0.2621635,-0.33426458,-0.12471803,-0.05968097,-0.12225431,-0.3355324,0.11335926,0.25634736,-0.3186476,0.11672872,0.24462421,0.21841455,0.12539072,-0.011052791,0.36384386,-0.46111012,0.41468686,-0.17348897,0.11878568,0.32135433,-0.16395336,-0.28249714,0.35512,0.30943024,0.42658484,0.39294845,0.24972148,-0.24533182
pin,0.36321312,-0.371961,0.38951102,-0.12029907,-0.23114559,-0.2237286,0.043932274,0.0701406,-0.27212423,-0.30231547,-0.29746458,0.30195922,0.10621711,-0.23126976,0.3236658,0.41692913,0.119714625,-0.28358543,0.07604099,-0.12540184,-0.28777784,-0.58172476,0.0071987044,0.26960468,-0.17697622,-0.6345226,0.16753164,0.37349853,-0.17889073,0.30496794,-0.2958153,0.6205603,-0.19904755,-0.100739084,0.12829322,-0.046302393,-0.32756647,-0.16012034,-0.33453107,0.3136956,-0.23857227,0.25068197,0.3626811,-0.60340047,0.44393325,0.40650856,0.445431,0.25432462,0.13139616,-0.52581346,-0.5620441,-0.2344664,0.380129,-0.20344633,0.25362647,-0.24885416,0.08779731,0.10816288,0.057107765,0.25729048,0.375184,0.23269808,-0.2249339,-0.26340827,-0.1962735,0.39663774,0.44402158,0.297482,-0.32737285,-0.28511766,0.009066338,0.28003344,-0.28575847,-0.3631514,0.3904974,0.24801911,-0.2350317,0.36738926,0.4259498,0.28588542,0.35587913,0.28888428,0.31565768,-0.26589462,0.27121353,0.048426576,0.3756572,0.30133146,-0.3667339,-0.31168395,0.24403085,0.27079424,0.4506724,0.37581304,0.2494546,-0.32290584
foin,0.20270076,-0.46341315,0.21519807,-0.07097784,-0.10124349,-0.25210306,0.13514087,0.18511033,-0.36502847,-0.36073583,-0.32897085,0.4130841,-0.11623934,0.015033394,0.33076215,0.24832815,0.07206901,-0.30292633,0.018930033,-0.087038204,-0.28196204,-0.51806283,-0.19167142,0.2657097,-0.36347577,-0.4609983,0.10380942,0.30320048,-0.2341512,0.0612417,-0.3169995,0.35964298,-0.2436723,-0.2507989,0.23769039,-0.18380299,-0.30602255,-0.1485812,-0.31998488,0.32553098,-0.20837641,0.43517435,0.3498597,-0.336714,0.20298925,0.44410983,0.40588307,0.2451899,0.16264036,-0.3745022,-0.35815346,-0.24152899,0.42082453,-0.28587008,0.28371152,-0.025959142,0.035867874,0.14368501,0.14245619,0.41125044,0.2513104,0.29209948,-0.35527152,-0.19119489,-0.29739696,0.3433801,0.29696715,0.3365959,-0.35199422,-0.33271343,0.22002973,0.2072841,-0.257792,-0.38061148,0.3985815,0.19246043,-0.3352766,0.23655486,0.26208216,0.2843808,0.2756429,0.3401301,0.22297296,-0.29764387,0.30680117,-0.27798006,0.26161477,0.08893358,-0.2265425,-0.32987428,0.12867314,0.29821458,0.19975089,0.29502362,0.33612144,-0.27957317
citron,0.48555765,-0.3315048,0.27728763,-0.13650262,-0.33785856,-0.41456544,0.21661311,0.30346292,-0.018798359,-0.4506755,0.009782579,0.31622022,-0.39717346,-0.48077667,-0.104454,0.2634528,-0.0687507,0.009050561,-0.4821108,-0.15817305,-0.45838457,-0.3945043,-0.2771361,0.3135085,-0.38760936,-0.5382805,0.32357094,0.32150963,-0.33732456,0.18111438,-0.29915842,0.61776364,-0.057755157,-0.13893688,0.30110067,-0.28760257,-0.33617386,-0.2653494,-0.42210567,0.34327057,-0.43765038,0.36732087,-0.017646298,-0.37172407,0.550338,0.32155842,-0.32398888,0.26287135,0.12801453,-0.23295337,-0.15063438,-0.38234854,0.25523916,-0.48868793,0.23749906,-0.21337444,-0.50356007,0.42249298,0.36343515,0.359805,0.18699822,0.08985919,-0.18621439,-0.33186883,-0.14488585,0.2564605,0.18588158,-0.08487615,-0.47351238,-0.08962799,0.20532408,0.25932723,-0.14366008,-0.17816839,0.3357104,0.32399958,-0.06618499,0.33975792,0.19143602,0.29639113,-0.025123741,0.1756021,0.25247696,-0.14083955,0.029232547,-0.33844993,0.5028073,0.34099817,-0.41124666,-0.32898474,0.4317779,-0.06911957,0.34221077,0.3600952,0.3353458,-0.24053554
cerise,0.46600795,-0.04423531,0.19317424,-0.38244164,-0.3101987,-0.44000638,0.3528232,0.2505605,-0.26715234,-0.17686298,-0.25759473,0.28344804,-0.37342522,0.011762157,0.35974565,0.20850186,0.47180104,-0.4041586,-0.2505895,-0.23651043,-0.2526046,-0.06555778,-0.34356523,0.2964143,-0.049853764,0.11103204,0.36688185,0.36567307,-0.32875103,0.10689983,-0.1542024,-0.1743055,-0.34978348,-0.45679906,0.40832257,-0.31004572,-0.3042757,-0.28063548,-0.41022348,0.33613208,-0.33457732,0.3541789,0.32540816,0.021143757,0.01596678,0.2764293,0.2674942,0.29333866,0.36088163,0.11408826,-0.07415941,-0.3162977,0.29029796,-0.2612434,0.3312478,-0.39075384,-0.45514634,0.18475989,0.33147773,0.25931922,0.30049533,0.3018623,-0.30519903,-0.400903,-0.38957128,0.32808986,-0.003892649,0.40858155,-0.26149648,-0.25394022,0.4131512,0.2578445,-0.35915262,-0.25323337,0.28168893,0.23938292,-0.39093703,0.32361355,0.11210626,0.31398714,0.35532388,0.30298394,0.15974165,-0.31925657,0.24375737,-0.41500923,0.19845375,0.35703814,-0.23284668,-0.24339527,0.2662127,0.19843896,0.43937528,0.2698293,0.14557828,-0.25938827
rhum,0.3260442,-0.14680684,0.041852217,-0.3499235,-0.10633031,-0.1821476,0.32596743,0.32664016,-0.29919186,-0.12662144,-0.30552033,0.30592185,-0.29195654,-0.084574215,0.3139161,0.13694286,0.4013214,-0.3485905,-0.28163943,-0.3497846,-0.26987547,0.2090844,-0.29798728,0.3691514,-0.12916644,0.30824628,0.15371233,0.2293097,-0.21869412,0.14650074,-0.2201118,-0.25029957,-0.30850992,-0.3193183,0.22105858,-0.24612097,-0.22607328,-0.20694268,-0.22796783,0.37604856,0.06745186,0.3420521,0.3434609,0.17944188,0.024585942,0.33845848,0.29781416,0.12870595,0.33243796,-0.078911096,-0.044500142,-0.24070153,0.3869499,-0.17871776,0.2624237,-0.35163885,-0.19814092,0.06329928,0.33433098,0.31668323,0.104666665,0.24771264,-0.21844083,-0.23143075,-0.35058433,0.162233,0.14801909,0.3499266,-0.31800625,-0.3234079,0.35283202,0.14681557,-0.18252192,-0.2560587,0.23466235,0.20616718,-0.41578603,0.05184286,0.015812296,0.21075772,0.22388636,0.3243292,0.21674624,-0.1962396,0.34506708,-0.34804392,0.119780235,0.055311624,-0.19204366,-0.113083854,0.20311978,0.2876151,0.3985403,0.27474838,0.15745798,-0.25271165
cannelle,0.5211281,-0.20039316,0.52343655,-0.23015143,-0.14371698,-0.29526338,0.25568134,-0.0021312311,-0.3774203,-0.35993826,-0.29326212,0.26902443,-0.17640413,0.2507417,0.31187218,0.32408094,0.29540285,-0.466488,0.02446657,-0.06235048,-0.27497762,-0.38193053,-0.13530901,0.019109894,-0.1552841,-0.29781878,0.3482883,0.29741424,-0.20763105,0.20646603,-0.33033186,0.17620294,-0.4290343,-0.2526701,0.1810424,-0.067830116,-0.36537272,-0.21460643,-0.29533243,0.18080868,-0.51741105,0.40404323,0.33591706,-0.469761,0.25392568,0.37076667,0.52854127,0.27967948,-0.013322552,-0.31533456,-0.48002204,-0.19333789,0.5005651,-0.28373772,0.25038698,-0.17465223,0.15059052,-0.13381127,-0.02375348,0.42100704,0.25789756,0.17864116,-0.19357184,-0.30625397,-0.25537807,0.45124054,0.12718165,0.37311625,-0.16730206,-0.4497922,0.25645941,0.3009103,-0.4413679,-0.316065,0.4021051,0.11020488,-0.2916978,0.28133133,0.4835238,0.16526173,0.44891915,0.24334536,0.36626032,-0.30708462,0.32054794,0.051845532,0.2371327,0.20085451,-0.29948407,-0.45441478,0.001041498,0.15301333,0.486942,0.13586368,0.123154625,-0.22212598
coumarine,0.19495806,-0.35254675,0.090137675,-0.21512404,-0.43879953,-0.41337824,0.29739934,0.30368078,-0.3910681,-0.31073016,-0.27577746,0.21289018,-0.34671205,-0.1957982,0.19720408,0.28428346,0.47025603,-0.27444753,-0.24712187,-0.25336868,-0.30460083,-0.031996764,-0.3368329,0.34461498,-0.33221713,-0.26833254,0.3229207,0.25584453,-0.21066529,0.38756907,-0.25575322,0.2685999,-0.35082224,-0.34229586,0.39179718,-0.28175187,-0.2727083,-0.2594952,-0.43404633,0.30817646,-0.21884905,0.18056037,0.3789652,-0.49793738,0.35957256,0.22863472,0.2973212,0.20853186,0.23338982,-0.14114471,-0.36981302,-0.36146408,0.15674268,-0.29700544,0.30624643,-0.25882983,-0.43655336,0.161624,0.3978686,0.17936635,0.33213976,0.124534786,-0.24516606,-0.44207275,-0.44111955,0.32441363,0.2873021,0.23993887,-0.42130557,-0.11645482,0.41004154,0.40912566,-0.4398421,-0.1715806,0.12256427,0.064040974,-0.15850028,0.4142015,0.08192907,0.11585744,0.31261125,0.025844855,0.30909002,-0.22740097,0.29202864,-0.44073832,0.20630711,0.2608655,-0.19997938,-0.43016285,0.011263484,0.37061757,0.36491436,0.17461649,0.2135196,-0.27117345
laitfrais,0.18201694,-0.36272627,0.11428434,-0.25571352,-0.4504089,-0.44071916,0.42231327,0.29094347,-0.40500128,-0.15463665,-0.11943562,0.025,-0.34401774,-0.44288749,0.23343056,0.2811251,0.4898165,-0.21561773,-0.4264564,-0.35210794,-0.3585485,0.39932105,-0.45361775,0.2959329,-0.49417394,-0.45464844,0.48286733,0.08058856,-0.26073906,0.5808834,-0.2705868,0.42152914,-0.36527497,-0.28202638,0.42558402,-0.2954918,-0.23190461,-0.40608823,-0.37962008,0.14911637,-0.40245205,-0.005522652,0.21883895,-0.62860036,0.57760656,0.10893934,0.042390913,0.1078451,0.25535914,-0.30587697,-0.39969203,-0.21080616,-0.16986781,-0.3405851,0.3413083,-0.43884355,-0.43517774,0.36131927,0.3369063,-0.0053070937,0.28696185,0.17700057,-0.19749978,-0.4564405,-0.43210757,0.07786152,0.40445307,0.07972711,-0.3397261,-0.095328584,0.48252684,0.38135415,-0.29209885,-0.09127752,0.09062922,0.08868396,-0.18222362,0.50445837,0.19092587,0.051469926,0.21368515,-0.17129672,0.24047843,-0.27011967,0.30447686,-0.4810074,0.3783588,0.414938,-0.44699368,-0.4036043,0.012581021,0.2754926,0.51337117,-0.027366653,0.16486928,-0.2923867
médicinal,0.45284227,-0.29072514,0.41075236,-0.18528855,-0.032105774,-0.4431942,-0.057822026,-0.047560908,-0.38342798,-0.23169374,-0.23598346,0.36247155,-0.09091038,-0.14453605,0.24006411,0.504518,0.19254348,-0.26211843,0.082934216,-0.1651177,-0.16918391,-0.46816158,-0.06826448,0.20033675,-0.22973007,-0.4744287,0.19628754,0.17243728,-0.13941249,0.42856228,-0.21077232,0.51476514,-0.23336098,-0.18765216,0.21710747,0.003947869,-0.25184,-0.23296505,-0.25451735,0.14511596,-0.41488677,0.20443982,0.17554563,-0.6084554,0.37632847,0.37758893,0.545992,0.1761916,0.10634668,-0.41138858,-0.5395516,-0.27020568,0.37918875,-0.27961367,0.23485853,-0.2715253,-0.047583144,0.023106016,0.0969188,0.21613692,0.36735207,0.14234412,-0.13953346,-0.32996592,-0.2563242,0.4423772,0.44735765,0.32375795,-0.31074315,-0.30772698,0.06354882,0.3039739,-0.37362123,-0.2572206,0.14778247,0.18534246,-0.20603272,0.3951339,0.3932209,0.24117911,0.27865833,0.14527223,0.30682105,-0.32489455,0.19958034,-0.05506344,0.33850616,0.35404438,-0.17914014,-0.30413234,0.05352952,0.33323616,0.48402712,0.21353534,0.07166109,-0.28473005
cèdre,0.14714742,-0.3878324,0.44485474,-0.1798048,0.05231327,-0.2945687,0.21233244,-0.10553431,-0.24755317,-0.20377976,-0.26433194,0.30758882,0.19153783,0.10846235,0.28622016,0.5405397,-0.097236976,-0.19275254,-0.03003914,0.057635807,-0.20289253,-0.47082222,0.19625784,0.35198686,-0.3231668,-0.61212194,0.36127484,0.26017112,-0.08856377,0.2892111,-0.36603144,0.41950145,-0.11634462,-0.13049409,0.12882051,-0.1499651,-0.34387094,-0.37887484,-0.25359762,0.24712166,-0.21189627,0.1067638,0.3124434,-0.5989757,0.27411923,0.20267536,0.38543028,0.31460887,0.13814458,-0.40037483,-0.2506103,-0.049183667,0.4966181,-0.27148688,0.19625264,-0.18963507,-0.07186845,0.28468034,0.2084962,0.07542025,0.21732643,0.26097608,-0.31253055,-0.32928824,0.036189377,0.26145244,0.40416113,0.4314109,-0.33324575,-0.2741863,-0.07928556,0.034516513,-0.17961642,-0.2984523,0.23387185,0.19592465,-0.21139175,0.15271084,0.35342246,0.2302765,0.15186547,-0.068044126,0.25459793,-0.3348105,0.2897642,-0.07925623,0.27419925,0.40674478,-0.17264044,-0.29495668,0.3241938,0.22829244,0.4368716,0.39691594,0.29326305,-0.2620147
﻿abricot,0.26557308,-0.24279404,0.03723661,-0.41337627,-0.1653836,-0.3279462,0.348409,0.38650888,-0.32539558,-0.098314226,-0.26580945,0.2299028,-0.34495407,-0.21231438,0.33457822,0.122005455,0.42219514,-0.37885016,-0.31842065,-0.40720922,-0.25205243,0.14448301,-0.29846683,0.44141364,-0.045834124,0.35844472,0.20134874,0.2691201,-0.18649952,0.22849067,-0.34560597,-0.1235868,-0.38727784,-0.3505885,0.40490806,-0.3950209,-0.27031764,-0.29288203,-0.25435486,0.38539857,-0.033419978,0.26506358,0.3142448,0.1468315,0.107919514,0.26965237,0.16874248,0.32551003,0.35398564,-0.14412093,-0.08642529,-0.27994657,0.16478598,-0.10928877,0.37103683,-0.40917587,-0.3115981,0.15041652,0.33845535,0.17233905,-0.044054583,0.3582755,-0.33256367,-0.19166622,-0.4525645,0.24823111,-0.06942285,0.2897029,-0.22195566,-0.40050274,0.35686958,0.23988207,-0.1691964,-0.25066602,0.1479712,0.38915682,-0.29600435,0.08502704,0.1581845,0.32000583,0.30926564,0.41794604,0.26527515,-0.31466803,0.39572257,-0.3535581,0.16343942,0.28240246,-0.20859157,-0.26564392,0.272239,0.35618392,0.2616749,0.29735756,0.24188226,-0.23939437
thé,0.12942983,-0.2916364,0.24154907,-0.16917147,0.023235116,-0.20599228,0.21175845,0.27659732,-0.30195278,-0.31481776,-0.2359629,0.28779283,-0.12119274,-0.19099757,0.23308876,0.16881531,0.11733662,-0.2777332,-0.1029322,-0.18295963,-0.2530681,-0.3391329,-0.19080591,0.23031917,-0.29885998,-0.24666503,0.11696163,0.34553504,-0.21197875,0.06873837,-0.32172313,0.3360245,-0.24316566,-0.2619524,0.20988235,-0.2831963,-0.24016038,-0.15779765,-0.2133455,0.33824822,-0.21096668,0.40976351,0.24122983,-0.1953924,0.10832128,0.3052898,0.2614849,0.27391744,0.21823202,-0.35916504,-0.299283,-0.17348272,0.40169704,-0.23592885,0.31225377,-0.04288242,-0.06845485,0.21115634,0.29418725,0.28402066,0.2653078,0.20861334,-0.29515004,-0.21794644,-0.20636241,0.25589696,0.22070469,0.24393673,-0.31616253,-0.2643461,0.20613213,0.24707289,-0.17552811,-0.3004025,0.35102397,0.23309758,-0.35853812,0.2496928,0.271253,0.37099403,0.22163928,0.29173672,0.21626046,-0.3166768,0.24411842,-0.2444836,0.22404647,0.15038553,-0.31427723,-0.23392501,0.28090787,0.26680863,0.049306527,0.3043217,0.29126477,-0.26153696
prune,0.29431596,-0.08976235,0.044032723,-0.38084558,-0.08330364,-0.26451966,0.37803036,0.30815393,-0.26425523,-0.14881712,-0.31906193,0.29256302,-0.20523271,-0.17376566,0.33890402,-0.0654879,0.23592538,-0.35973433,-0.38621616,-0.22068995,-0.30355397,-0.051008776,-0.2790685,0.16713774,-0.23165303,0.07167874,0.064460374,0.24450362,-0.25299305,0.02609357,-0.36026794,-0.1457838,-0.31078437,-0.2541938,0.23143086,-0.32722604,-0.13398457,-0.3366082,-0.29834545,0.36749667,-0.10285269,0.42265224,0.29975283,0.03909567,-0.07279703,0.20889492,0.35072875,0.20934428,0.30213013,-0.10491278,0.04315968,-0.27683663,0.33225864,-0.20487483,0.3237643,-0.2319112,-0.19799447,0.1922057,0.3753803,0.24467778,0.102171585,0.23657918,-0.21202898,-0.19142571,-0.30203658,0.27487844,0.15049821,0.18559761,-0.13546193,-0.29733628,0.26879823,0.21607211,-0.18840376,-0.27994916,0.26140755,0.34244835,-0.33350402,0.12261976,0.19975919,0.3562501,0.25505358,0.38514525,0.18874672,-0.27818865,0.33400035,-0.36073542,0.1775445,0.16922978,-0.18098329,-0.21737653,0.36972824,0.2960836,0.085889,0.20555246,0.24322733,-0.23856625
ylang,-0.5903509,-0.3647129,0.2758185,-0.26914552,-0.5252801,-0.24117097,0.42615026,0.40625834,-0.23146525,-0.21950158,0.034970943,0.2707409,0.54351807,0.63833046,0.25608757,0.12355071,-0.584087,-0.23738562,-0.09930066,-0.487292,-0.20904648,-0.20941687,0.07836464,0.38201365,0.61128247,-0.48485076,0.5440563,-0.28394502,-0.23638031,0.05808356,-0.059836138,-0.5720968,-0.33012903,-0.2019851,-0.23691678,-0.36087227,-0.3896319,-0.42221448,-0.34481016,0.19853345,-0.47009063,0.35829034,0.19195877,0.59508604,0.4477991,0.23070173,0.39828813,0.2044113,-0.5568443,-0.34074533,-0.33993018,-0.19605136,0.2490569,0.4132374,0.20569313,-0.52333105,-0.25438908,-0.51996285,-0.3362571,0.37684786,0.30543745,0.40615666,-0.29830387,-0.29660904,-0.4147789,-0.054874375,0.4030255,0.38949472,-0.20843312,-0.2987365,0.38560593,0.42119765,-0.46672207,-0.28735512,0.40188038,0.37357205,-0.17877543,0.34250736,0.4153744,0.39063764,0.32629472,0.23813348,0.3948293,-0.26433283,0.3036293,-0.3716154,0.30139965,-0.115349695,-0.32803458,-0.3815053,0.21896228,0.39953825,-0.57333684,0.4129554,0.18160433,-0.25869006
fumée,0.49879825,-0.30706707,0.4220198,-0.27697158,-0.05930744,-0.30019096,-0.043515373,0.14515182,-0.27656794,-0.19470647,-0.2714386,0.3835199,-0.19949758,-0.1503258,0.21828684,0.45528728,0.07337567,-0.26087645,-0.09545008,-0.011334732,-0.11029342,-0.45977458,-0.19446434,0.12100704,-0.21508202,-0.47061083,0.15297174,0.13521199,-0.19517668,0.26533931,-0.30654252,0.43416858,-0.18870066,-0.32637563,0.1332349,-0.19752765,-0.16139808,-0.26488215,-0.16504663,0.15136537,-0.47256577,0.19629756,0.14212838,-0.41864374,0.37230825,0.30898854,0.47423792,0.21208927,0.22959934,-0.3922059,-0.48983955,-0.21050963,0.44092485,-0.32593426,0.18193762,-0.29689807,-0.15209779,0.12187429,0.1428968,0.16140166,0.35890266,0.14006713,-0.12638904,-0.24532509,-0.11237607,0.40975344,0.44309017,0.3682955,-0.24686953,-0.2379072,0.17443927,0.24212009,-0.33098027,-0.23681182,0.18199787,0.23826294,-0.20258677,0.26866537,0.30473644,0.25837785,0.33809766,0.23123106,0.29643157,-0.33716863,0.17841628,-0.0934504,0.2808473,0.29141822,-0.24074975,-0.35271022,0.18782413,0.23568499,0.45659602,0.24577776,0.06424196,-0.2014503
fermentaire,0.25699183,-0.22807965,0.024817672,-0.2771513,-0.2557935,-0.29287142,0.30343133,0.35253543,-0.2424659,-0.18288869,-0.26800555,0.2517094,-0.39828688,-0.20850098,0.2362262,0.15005222,0.5026895,-0.2525906,-0.28957748,-0.3737746,-0.19003409,0.1000686,-0.3280237,0.3231797,0.06752233,0.13939285,0.16049007,0.2674268,-0.34080327,0.39538452,-0.22478877,-0.08446388,-0.23941869,-0.3002143,0.30134115,-0.20111687,-0.2711017,-0.2760415,-0.18929264,0.3351897,-0.088422365,0.23822752,0.30181617,0.04174657,0.16956823,0.19309312,0.25088364,0.19414748,0.36423934,0.0068447962,-0.09700629,-0.2132307,0.1310175,-0.30576083,0.28206232,-0.36522156,-0.36499572,0.24013236,0.37832165,0.24676855,0.14532389,0.35713214,-0.31345755,-0.27400765,-0.3704139,0.20858556,0.0065302104,0.3636381,-0.24075502,-0.3049819,0.39623022,0.22890145,-0.20657368,-0.24455214,0.155621,0.22512496,-0.2702821,0.17885241,0.04453521,0.25203335,0.29802576,0.37348276,0.22037408,-0.16952375,0.31947845,-0.3422932,0.21757117,0.11403361,-0.2137605,-0.19069472,0.33202553,0.20095488,0.43818375,0.22943345,0.2537912,-0.18974063
poivre,0.37440464,-0.30123153,0.43524972,-0.20237237,-0.017019141,-0.2699592,0.23966444,0.019688189,-0.29827535,-0.36518466,-0.3042863,0.31048644,-0.03291339,0.19476429,0.20450655,0.28633255,0.0135702565,-0.2831779,0.09108862,0.006529391,-0.15819797,-0.35089043,-0.011849053,0.062624805,-0.2585555,-0.35481733,0.24689934,0.22690707,-0.1766929,0.07442546,-0.279049,0.22376668,-0.22421482,-0.1907247,0.12161997,-0.019173857,-0.30909038,-0.118713,-0.2840137,0.1751005,-0.41830274,0.32920915,0.20692971,-0.3751709,0.10316976,0.28876323,0.4110813,0.22212288,0.04205236,-0.36491263,-0.3805204,-0.1790712,0.3900699,-0.32591987,0.21035555,-0.11708129,0.06409073,0.024764858,-0.021707665,0.27337587,0.20546502,0.12603657,-0.20868182,-0.23008624,-0.12729347,0.3281564,0.094123304,0.3025415,-0.24635753,-0.3521577,0.11587831,0.31710267,-0.22073287,-0.33322898,0.26030454,0.18653777,-0.28139508,0.29269877,0.44350266,0.27790675,0.3259955,0.21097326,0.3107851,-0.27229163,0.16743469,0.09998313,0.27697104,0.1024209,-0.25825152,-0.36946997,0.029639907,0.2512138,0.34416652,0.17750481,0.1533497,-0.24316522
géranium,-0.037824664,-0.23412625,0.13569283,-0.29946655,-0.25363147,-0.31735313,0.18149993,0.35299712,-0.20800926,-0.28294033,-0.1978957,0.35074896,-0.055612557,-0.20403442,0.28864586,-0.22887683,0.0483926,-0.17644802,-0.47264656,-0.03998255,-0.33029038,-0.39246824,-0.21436897,0.028790902,-0.54771143,-0.3076779,0.22854929,0.36091757,-0.26862523,-0.034917988,-0.22783446,0.17964365,-0.340394,-0.33214283,0.31568336,-0.36109233,-0.16152716,-0.40050828,-0.31744748,0.33979878,-0.3812886,0.39821696,0.05063112,-0.14241391,-0.106654145,0.25028783,0.21622396,0.3810531,0.39447916,-0.13845605,0.0054013506,-0.29824167,0.3285964,-0.15333611,0.40975022,-0.08704964,-0.35017157,0.4894878,0.4086277,0.3212112,0.3611291,0.101554185,-0.27006108,-0.33358097,-0.25524777,0.17121482,0.4444041,-0.08532471,-0.06122945,-0.15706286,0.34151176,0.23787408,-0.17288575,-0.25035483,-0.004194398,0.3876592,-0.41106445,0.28792357,0.34424844,0.35807824,-0.052036263,0.3685171,0.2597253,-0.26302797,0.3097195,-0.3132288,-0.021183234,0.17986754,-0.23149547,-0.33734,0.48258254,0.16556334,-0.21280956,0.19840924,0.31563926,-0.3141687
pain,0.27814555,-0.23230135,-0.004105457,-0.34653544,-0.2300534,-0.2279513,0.3640491,0.3868825,-0.1574898,-0.111390375,-0.242915,0.14279273,-0.23886952,-0.32431597,0.18235883,0.22156376,0.25472546,-0.24224673,-0.19412339,-0.13967109,-0.1697223,-0.35433537,-0.23581961,0.27213216,0.421576,-0.5472012,0.3974301,0.34753048,-0.19081059,0.39152944,-0.21247932,0.4285386,-0.12874739,-0.2614165,0.2888214,-0.26312742,-0.2705621,-0.35870162,-0.32592836,0.21730442,-0.4642326,0.11487545,0.13447307,-0.4301274,0.27188134,-0.08953071,0.50626725,0.31647056,0.2302947,0.2353813,-0.31362718,-0.25988322,0.29835662,-0.20248547,0.27662084,-0.39945874,-0.3750456,0.3534661,0.2632092,0.13166474,0.29216695,0.26884636,-0.34408197,-0.302633,-0.13008116,0.36583182,0.026556214,0.21154264,-0.30374283,-0.121165894,0.16859949,0.27331635,-0.24137649,0.013193951,0.17213586,-0.0034471732,-0.1821756,0.25662056,0.2615174,0.3823003,0.16191828,0.20548089,0.19437982,-0.27219307,0.1708621,-0.300142,0.2810068,0.34872383,-0.06808558,-0.32108516,0.37480414,-0.088037886,0.38286215,0.2415418,0.14037445,0.01335144
ester,0.4364078,-0.22081104,0.1457505,-0.35877627,-0.11954999,-0.304604,0.4515226,0.2670108,-0.27693456,-0.12922981,-0.35227785,0.43505234,-0.39852774,-0.057029173,0.3643319,0.20643812,0.56243455,-0.27655083,-0.34817547,-0.4752413,-0.28890198,0.0634735,-0.33515358,0.3173511,0.031124208,0.36524594,0.10110854,0.3343858,-0.41986006,0.36310157,-0.26711142,-0.31457692,-0.27577114,-0.37449878,0.29171664,-0.23558772,-0.30736166,-0.2544139,-0.26047975,0.3361408,-0.06746659,0.3067134,0.35284486,0.08531672,0.18478638,0.29166165,0.63337946,0.3010918,0.3880749,0.13908145,-0.03872803,-0.2892486,0.42707694,-0.26919955,0.2560262,-0.2864588,-0.24730614,0.2115326,0.40304404,0.2869305,-0.011397537,0.3063799,-0.25848344,-0.28618667,-0.5036316,0.15909964,0.10954074,0.5254908,-0.38989517,-0.48414105,0.4249434,0.15458268,-0.25682685,-0.28442055,0.24326544,0.29884684,-0.35128385,0.12427103,0.08434327,0.29133752,0.28980327,0.4183346,0.2923938,-0.40112567,0.38692462,-0.43830454,0.17379764,0.081935294,-0.19107428,-0.17180517,0.24248764,0.37357005,0.43430346,0.23762523,0.33091983,-0.20595607
concombre,0.03799529,-0.31499648,0.3570637,-0.34136993,-0.34962678,-0.2686231,0.27794856,0.41330773,-0.30745685,-0.1933046,-0.3386957,0.05472539,-0.37470332,-0.57170635,0.17918468,0.5356549,0.29929832,-0.26613915,-0.32321224,-0.45738754,-0.2419408,-0.043896906,-0.31099468,0.4124448,-0.489236,-0.014978394,0.4222697,0.28042766,-0.31345788,0.4906676,-0.14211063,0.22126599,-0.34794527,-0.27264595,0.25750506,-0.43666467,-0.3189789,-0.35358638,0.03956294,0.22327763,0.06353169,0.047806103,0.2978696,-0.3427176,0.26722932,0.3738665,-0.042034734,0.33516425,0.2507735,-0.30898637,-0.20377627,-0.40008494,-0.24583939,-0.3929625,0.2025877,-0.34784287,-0.3675146,0.35150686,0.3711735,0.21777228,0.046476573,0.28285453,-0.28054768,-0.061265416,-0.26464272,0.094696194,0.3387466,0.16341329,-0.2683512,-0.23516187,0.46270186,0.2985835,-0.20158389,-0.26247323,0.30549484,0.30307233,-0.25533152,0.2802888,0.023521723,0.18661556,0.14983432,0.30408576,0.3179369,-0.33773553,0.2496924,-0.39185482,0.42858553,0.38648334,-0.24189305,-0.05285184,0.29295096,0.2965521,-0.1115505,0.32154533,0.25954115,-0.41738647
cuir,0.31717628,-0.21067053,0.266888,-0.26004276,0.0014946554,-0.161986,0.13455233,0.032600347,-0.19478053,-0.27638966,-0.2618844,0.29306012,-0.059878547,0.0011136159,0.22121707,0.2627998,-0.014456393,-0.29755908,0.027132213,0.08939412,-0.23612666,-0.3445845,-0.07025085,0.13999912,-0.25014552,-0.36563843,0.23536098,0.1441702,-0.18016319,0.15479392,-0.26533377,0.2551184,-0.1625526,-0.21510404,0.17571168,-0.15072665,-0.2135054,-0.27415356,-0.2580341,0.24723351,-0.21789257,0.20199406,0.28811565,-0.3363948,0.11214,0.19118722,0.33820647,0.24141657,0.06517498,-0.28455833,-0.2362122,-0.1339178,0.32846802,-0.26206714,0.22800422,-0.19203937,-0.137341,0.15365408,0.08073382,0.14929548,0.2570525,0.2553906,-0.12849508,-0.25953567,-0.19812056,0.24101433,0.25344902,0.32780713,-0.24013157,-0.2274993,0.099102445,0.063851975,-0.16041054,-0.29574406,0.24000257,0.23061267,-0.2673141,0.13356203,0.26302192,0.23177594,0.23225471,0.09913083,0.21426567,-0.1957595,0.20263006,-0.06560836,0.22430533,0.20432477,-0.1838305,-0.24818169,0.25460744,0.2209515,0.34003684,0.16517521,0.19024323,-0.23345456
confiture,0.35843775,-0.20285593,0.013194421,-0.4375426,-0.21458557,-0.28393382,0.37639055,0.45433968,-0.17769572,-0.20201895,-0.3593017,0.37501872,-0.21183285,-0.01593434,0.41092402,0.17518586,0.408993,-0.25283316,-0.36672628,-0.33741972,-0.27690384,-0.020164259,-0.30737323,0.39697474,-0.055398658,0.036102187,0.2932517,0.24855217,-0.33789587,0.19464938,-0.20551997,-0.19164297,-0.29475766,-0.364078,0.23110832,-0.29794294,-0.28509608,-0.18415341,-0.27298966,0.2911879,-0.15955696,0.24057215,0.27725732,0.11686153,0.07945635,0.18129839,0.28571504,0.20797639,0.2635054,0.009177577,-0.08233811,-0.3987525,0.32383314,-0.2967376,0.35089773,-0.34275126,-0.2640248,0.27551222,0.4141485,0.33699897,0.3249591,0.3721285,-0.29336888,-0.23906672,-0.40076205,0.24838947,0.16850522,0.46938756,-0.2391535,-0.3521005,0.2218877,0.27345112,-0.41238335,-0.35108232,0.29723072,0.2318367,-0.27333957,0.23396069,-0.031961,0.23833203,0.33999965,0.37458482,0.24031916,-0.22553056,0.41139418,-0.38921517,0.17051622,0.25391692,-0.20288457,-0.27181524,0.30381238,0.42595032,0.36501956,0.31095934,0.24427089,-0.30976653
amande,0.34403893,-0.021427263,0.22910403,-0.3635463,-0.3789604,-0.4030464,0.3659734,0.33779866,-0.28492677,-0.12472075,-0.29063475,0.2092778,-0.41400057,-0.13709418,0.22836828,0.29107374,0.37650836,-0.3275172,-0.27083558,-0.25221887,-0.24260488,-0.15264931,-0.39371002,0.30959892,0.1419678,-0.074927285,0.2920645,0.32108957,-0.21542057,0.16761662,-0.19451001,0.012917712,-0.27795637,-0.38371134,0.36658242,-0.31368375,-0.31544155,-0.2947533,-0.37049246,0.3047263,-0.27469075,0.32213378,0.27968186,-0.07045263,0.11752926,0.1644383,0.34790424,0.33824056,0.42934108,0.1331946,-0.15269183,-0.30571616,0.18648341,-0.27896518,0.25971448,-0.34915185,-0.46465817,0.24333382,0.33645517,0.14232571,0.2829262,0.23101783,-0.272395,-0.3543497,-0.29780388,0.3335214,0.022236638,0.36417636,-0.35714602,-0.16079557,0.30522734,0.27659738,-0.36289966,-0.09760264,0.19169313,0.22986564,-0.2662202,0.33385676,0.18034889,0.3304233,0.24701872,0.30723196,0.11845874,-0.22734064,0.23639548,-0.34761235,0.20667249,0.33575898,-0.16316111,-0.21809158,0.30406848,0.034869682,0.4029827,0.251169,0.06909347,-0.2103512
alliacé,0.36391473,-0.46638268,0.41013724,-0.27756155,-0.5256916,-0.36774647,0.07210736,0.0034036525,0.016508572,-0.094866864,-0.08365238,0.30188495,-0.30647784,-0.27758604,0.19756511,0.46062368,0.33672214,0.15328124,-0.37356412,-0.30897704,0.24670106,-0.4782001,0.022512114,0.30280557,0.120050326,-0.42395726,0.43149227,0.44987243,-0.45557922,0.32973027,-0.45638227,0.42460072,-0.27507114,0.1177015,0.35837638,-0.21074171,-0.2494308,-0.06364784,0.0057851365,0.07467118,-0.39966336,0.22564152,0.2041229,-0.087835,0.4875065,0.26343364,0.06177469,0.40112513,0.41941148,0.69067776,0.2537785,-0.2360183,0.3744573,-0.34035435,0.28416443,-0.24977422,0.2697164,0.29734644,0.36852217,0.2343094,0.11087179,0.25210786,-0.1505994,-0.32162613,-0.13503076,0.26360244,0.104614675,0.40704173,-0.09759292,-0.1572969,-0.17039633,0.37785935,-0.27907497,-0.29646868,0.4023714,0.19713253,0.19111012,0.3911557,0.3985687,0.41846812,0.33670634,0.33709222,0.30496192,-0.39113966,0.26511672,-0.42621475,0.31525773,0.33780307,-0.07259141,-0.25729907,0.4245947,0.2647497,-0.60517067,0.36093515,0.06628835,-0.33581793
cognac,0.1814613,-0.25159776,0.16098501,-0.39094955,-0.27422762,-0.13732825,0.34234652,0.34654474,-0.2329719,-0.074992135,-0.24986506,0.25178617,-0.47357106,-0.21864733,0.23123093,0.22853929,0.51329446,-0.3768127,-0.4377876,-0.43895018,-0.32042632,0.098116726,-0.29464102,0.3792383,-0.18848756,0.22662324,0.24963707,0.20899576,-0.3101073,0.26054242,-0.24545792,-0.2100668,-0.2950176,-0.3172207,0.29776353,-0.38909376,-0.2071482,-0.21554843,-0.16673449,0.35352123,-0.007879494,0.26464957,0.3048188,0.16267821,0.11646224,0.22403303,0.060033597,0.21042806,0.38246745,-0.034840167,-0.026631286,-0.32943535,0.028338093,-0.31073153,0.19842237,-0.23807545,-0.36708742,0.23183692,0.19857344,0.18141006,0.045741055,0.23496103,-0.25216442,-0.2737794,-0.33835417,0.08224313,0.16808888,0.32663086,-0.24732222,-0.25707737,0.42804363,0.076225705,-0.17222531,-0.18991673,0.21705832,0.23007745,-0.17868175,0.13307935,-0.07193282,0.20229816,0.20784348,0.31891745,0.3402989,-0.14208363,0.34990698,-0.33091027,0.27812037,0.21438023,-0.22702011,-0.040354483,0.2888184,0.38082772,0.28280506,0.29913315,0.3729691,-0.2208949
lavande,0.24064663,-0.31929126,0.3505826,-0.1641405,-0.03824905,-0.2160219,0.09662579,0.21689476,-0.12189585,-0.34466374,-0.33598062,0.32515278,-0.09310144,-0.09426974,0.21992695,0.19441968,0.048671026,-0.33400166,-0.12058857,-0.10898233,-0.25191942,-0.5329557,-0.24407879,0.1799942,-0.31242967,-0.48859513,0.13691136,0.31913733,-0.26494366,0.14062458,-0.30804628,0.38810787,-0.18435393,-0.15588291,0.15918301,-0.15151605,-0.25738004,-0.045082565,-0.31698722,0.26037157,-0.25415522,0.41931218,0.2573951,-0.35244334,0.26131514,0.38384157,0.26524383,0.30156595,0.17884555,-0.38283378,-0.328344,-0.19796687,0.4417877,-0.30447808,0.30405462,-0.1126993,0.0034226403,0.15608825,0.18391186,0.35197377,0.43689448,0.1929508,-0.2691417,-0.21849605,-0.06802346,0.2812506,0.33009753,0.18176699,-0.32558066,-0.3152895,0.124641925,0.2370846,-0.21480565,-0.3240769,0.39854884,0.16765745,-0.23340929,0.22920159,0.38591626,0.25859335,0.26592964,0.30144462,0.26949555,-0.26265955,0.21550071,-0.113661245,0.24587014,0.12917477,-0.24845088,-0.27952376,0.20915361,0.36835194,0.21697359,0.2929904,0.2789607,-0.17256778
framboise,0.32633126,-0.17122485,0.116577335,-0.33389503,-0.22551256,-0.22099084,0.36326855,0.39856154,-0.20730925,-0.29614195,-0.29052073,0.38291124,-0.11429989,-0.054377053,0.37318575,0.131141,0.24374816,-0.21182828,-0.32100093,-0.30754745,-0.3099215,-0.11246025,-0.23198168,0.32864937,-0.1488897,-0.1327776,0.27200294,0.32185388,-0.20673308,0.12361354,-0.259611,-0.06540992,-0.20178777,-0.4090646,0.15026823,-0.2340169,-0.23260495,-0.23352921,-0.28104553,0.3521292,-0.27882844,0.2954715,0.21081582,-0.006323484,0.08662682,0.1627692,0.19104381,0.31524003,0.27300268,-0.13567404,-0.1224747,-0.24567074,0.25814998,-0.32213455,0.3344205,-0.38183612,-0.21140236,0.25125444,0.38709873,0.26104885,0.2779873,0.26408508,-0.21473463,-0.27916557,-0.23403978,0.20547292,0.17807159,0.4382652,-0.14142399,-0.34665677,0.24549133,0.2483726,-0.34345102,-0.26521584,0.20885292,0.28112423,-0.29759347,0.25448653,0.1838189,0.18286496,0.25300223,0.31509808,0.13953054,-0.2033843,0.32936,-0.28599763,0.16237101,0.22301364,-0.19489816,-0.2946684,0.33303878,0.31093794,0.39474872,0.18975472,0.29914123,-0.3018818
réglisse,0.25505203,-0.21946672,0.25607097,-0.025067393,-0.23875928,-0.25157043,0.15572494,0.27719358,-0.13868362,-0.15977097,-0.24068063,0.14616676,-0.20549354,-0.055396896,0.30097607,0.2171632,0.36757988,-0.2552199,-0.23452738,-0.21686074,-0.24262309,-0.13518094,-0.24237597,0.21126115,-0.1460839,-0.18963459,0.25312555,0.32320753,-0.20062006,0.012222279,-0.25569308,0.10666253,-0.23780577,-0.25504887,0.20588428,-0.2036471,-0.2086506,-0.17931177,-0.24382386,0.1869381,-0.2604825,0.22689548,0.13210198,-0.3120994,0.17053513,0.31689885,0.22398978,0.15768634,0.24394208,-0.27658117,-0.17287147,-0.15615529,0.2681651,-0.19891226,0.17413168,-0.15700902,-0.01990653,0.078423314,0.14901485,0.2689036,0.25069758,0.08806271,-0.24148011,-0.2606455,-0.25017786,0.3087622,0.018358283,0.21023315,-0.23010445,-0.15542749,0.36075014,0.23022917,-0.2398743,-0.25601235,0.13550738,0.13651839,-0.215904,0.27230608,0.1758003,0.15038387,0.23363483,0.2786893,0.20700021,-0.30099052,0.15136975,-0.20972893,0.17885834,0.15743469,-0.30757692,-0.25637245,0.23120905,0.24742192,0.17250228,0.22438756,0.1222872,-0.094243065
mandarine,0.24079402,-0.21639259,0.24410966,-0.16480994,-0.31589687,-0.2685898,0.16070443,0.2791647,-0.03892032,-0.26610953,-0.19504434,0.29494035,-0.2275781,-0.33403397,0.09145239,0.15585506,-0.0037075048,-0.108065575,-0.3818987,-0.2830767,-0.3122546,-0.27346218,-0.26093367,0.19542116,-0.29344648,-0.34329158,0.33086517,0.12881999,-0.25274503,0.14670824,-0.29497033,0.4374258,-0.120663725,-0.21921033,0.1739881,-0.28737974,-0.26871887,-0.23347263,-0.25436875,0.14855017,-0.28919733,0.23756868,0.11996776,-0.3212337,0.4000422,0.20819631,-0.21771058,0.19824317,0.19614011,-0.2506711,-0.20726264,-0.32292825,0.12639974,-0.30583072,0.25478625,-0.3088231,-0.36728948,0.27962393,0.28728285,0.15364732,0.23827565,0.12573412,-0.3131349,-0.16818297,-0.24869415,0.24138649,0.28531182,0.08238958,-0.30223596,-0.18754387,0.21034613,0.25855577,-0.31374925,-0.3140511,0.3273128,0.26500568,-0.19093508,0.2666682,0.3303209,0.23981297,0.048921682,0.13441709,0.12882856,-0.18036808,0.16714521,-0.18426198,0.32378972,0.19343942,-0.27323726,-0.30650437,0.30305088,0.1900128,0.18420924,0.30356327,0.3170917,-0.24655977
cloudegirofle,0.48739803,-0.30331236,0.37745902,-0.18125887,-0.07907821,-0.35893703,0.21509376,0.037599713,-0.3745264,-0.31832927,-0.29280967,0.33748758,-0.119398355,0.119626366,0.26546833,0.43661225,0.116504245,-0.33407712,0.07061864,-0.06397162,-0.1420636,-0.34799695,-0.123533726,0.1581209,-0.2805438,-0.36004657,0.26256117,0.14374429,-0.25047415,0.21336079,-0.28441256,0.35279346,-0.31947535,-0.20577937,0.21755251,-0.0311857,-0.2357175,-0.103995524,-0.2698079,0.12310188,-0.4240603,0.20941858,0.37355876,-0.42919764,0.3063569,0.36015433,0.5143558,0.13845511,0.044042975,-0.3639819,-0.46018368,-0.1988611,0.45195237,-0.27480328,0.22638041,-0.23964037,0.15415254,-0.031042635,-0.020638831,0.25130278,0.22976393,0.13937496,-0.07673976,-0.2128048,-0.10245055,0.3242892,0.19273092,0.29978612,-0.2457931,-0.46700257,0.16851155,0.3602508,-0.35146654,-0.24839972,0.28902456,0.072958596,-0.27613246,0.2914176,0.5080028,0.19423254,0.43440717,0.31088072,0.33789268,-0.34586245,0.2141685,0.05727426,0.22027367,0.21946901,-0.19658197,-0.4054339,0.07746635,0.1463513,0.5049819,0.22663966,0.15880424,-0.27233034
muguet,0.03096696,-0.12472275,0.161005,-0.22214565,-0.22690988,-0.33760077,0.14234772,0.25597373,-0.23519859,-0.26268348,-0.24879906,0.22032216,-0.23086655,-0.20823273,0.2731085,0.18311308,0.25933558,-0.24382344,-0.24752568,-0.19229306,-0.13184002,-0.40569764,-0.17393242,0.28020316,-0.23970357,-0.29088753,0.14088552,0.22786412,-0.21993977,0.28252706,-0.32071924,0.30131203,-0.08872813,-0.16396156,0.19477011,-0.2633455,-0.20785244,-0.31110635,-0.17633957,0.22527969,-0.34947345,0.15426652,0.0075480044,-0.33326793,-0.07544713,0.1947371,0.3217407,0.23175724,0.23687708,0.021232773,-0.2556622,-0.20821708,0.17556658,-0.23700497,0.10729644,-0.21069318,-0.36925814,0.36646593,0.37866002,0.113360494,0.17040738,0.25847816,-0.09326511,-0.24010392,-0.17597055,0.23431534,0.3360443,-0.04063528,0.015840976,-0.17584124,0.17948624,0.2654295,-0.17712712,-0.29540253,0.2072315,0.3414802,-0.2839572,0.22224376,0.22357601,0.35200042,-0.012936957,0.24496812,0.19420561,-0.23599508,0.28672844,-0.16574857,-0.07572828,0.18622965,-0.29992568,-0.2288279,0.24778816,0.16625957,0.047396578,0.33117062,0.21632001,-0.07780188
