RESERVED,-0.0031197183,-0.058944434,0.034753144,-0.07588868,-0.06636319,-0.032689713,-0.008549798,-0.034897186,0.049068082,0.04980388,0.030630313,-0.037816156,0.041931797,0.028382253,-0.011131845,-0.0756845,-0.04863398,-0.055083238,0.023652688,-0.07962091
UNK,0.13896152,0.09973861,-0.00041763578,-0.008953123,0.10381947,-0.1468964,0.085155874,0.046945184,0.021269666,0.06685087,0.13898164,0.07826866,-0.09086163,0.08114901,0.09535661,0.121571325,0.004637125,-0.090186775,0.03834805,-0.116171554
fruité,0.8595567,0.9625956,-0.81281143,-1.0895619,1.126408,-0.8262602,1.0743843,1.2133808,1.0761913,1.0029445,0.5433928,0.77208567,-0.7656356,1.1958575,0.87008905,1.1515584,1.0602906,-0.906548,0.9181333,-0.9894034
vert,0.8859891,0.96985924,-0.598266,-0.8857728,0.9570408,-0.6256901,0.7655158,0.8430207,0.8348713,0.70097053,0.60077286,0.7598289,-0.784623,0.8992801,0.6111722,1.0199308,0.77082205,-0.58157355,0.6937802,-0.9501753
doux,0.8844941,0.9056253,-0.937464,-0.9742449,1.0111517,-0.9268898,1.109911,1.2041087,1.0862386,1.0870214,0.5083508,0.8632755,-0.73362446,1.1731107,1.0503081,1.105755,1.0081898,-0.85656047,0.95895994,-1.0164493
floral,0.85794294,0.86434627,-0.87505984,-0.9209635,0.97751164,-0.93087786,0.9650475,1.0857599,0.9780625,0.97591877,0.6033967,0.9632546,-0.8459381,1.0652359,1.1282609,0.85429823,0.99537253,-0.7998124,0.946231,-0.875987
boisé,0.9967834,0.9513959,-1.0488777,-0.84553784,0.57945544,-1.0202292,0.919912,0.73202753,0.8770142,0.9818429,0.86597586,1.0722871,-0.9938921,0.68329775,1.0608237,0.75647056,0.90203834,-0.81463003,1.0536753,-0.9578204
herbe,1.0150731,0.94948506,-0.94221216,-0.88399684,0.6531794,-1.0095998,0.9852103,0.73296916,0.8376068,0.8679528,1.0004827,1.0243223,-0.98047346,0.61507666,0.9427457,0.79381317,0.8528055,-0.8500371,0.93139434,-1.0374033
épicé,0.9279624,0.88368285,-1.0026774,-0.79956746,0.5359369,-0.9699106,0.9500241,0.7759217,0.8545327,0.9804772,0.8004694,1.0522056,-0.9138188,0.6766033,1.0410467,0.77594554,0.8611078,-0.79328465,1.0455537,-0.9560829
ciredabeille,0.9038082,0.8594513,-0.9281332,-0.9838848,1.0104234,-0.8640958,0.85928893,0.8694041,0.94981354,0.88205004,0.827674,0.8122773,-0.97987247,1.0538794,0.74515355,0.86321306,0.97180146,-0.65076125,0.9041265,-0.8147172
gras,0.85601485,0.8274294,-0.9202689,-0.9277556,0.9593648,-0.8578184,0.784845,0.80068934,0.9100738,0.8380596,0.84745437,0.7894642,-0.9742003,0.98662615,0.7036848,0.83921885,0.9144056,-0.64594734,0.8307634,-0.7565237
frais,0.81566536,0.8781631,-0.7899532,-0.7695815,0.6885872,-0.93457246,0.87012076,0.8188717,0.80312353,0.81384456,0.8172169,0.90126073,-0.81401503,0.657442,0.87595433,0.73549056,0.84756005,-0.7057388,0.82969123,-0.90560234
agrume,0.8632494,0.76674354,-0.8555258,-0.8223752,0.8529186,-0.7550563,0.78275186,0.7738383,0.85025483,0.8772031,0.76748765,0.89856,-0.9200251,0.78522515,0.85324275,0.71812105,0.8863644,-0.54788613,0.83954906,-0.809224
balsamique,0.8694595,0.7824805,-0.8662139,-0.74801886,0.5581086,-0.8048723,0.80274683,0.68821764,0.7908982,0.8560821,0.6968939,0.8590398,-0.8092042,0.67428505,0.9792856,0.663324,0.76537204,-0.7010646,0.8999754,-0.71581787
rose,0.75502586,0.6888391,-0.6202285,-0.75320935,0.76927215,-0.78781486,0.76479226,0.8795351,0.73343337,0.753011,0.7196716,0.840843,-0.744508,0.83722913,0.8671146,0.6258743,0.7990713,-0.59157014,0.70668125,-0.7241987
fruitàcoque,0.7041706,0.731292,-0.72796524,-0.7416675,0.658789,-0.8512535,0.6088524,0.7096287,0.6387065,0.72113824,0.8403912,0.6630199,-0.80334175,0.51371443,0.6909087,0.7080411,0.71276283,-0.6723217,0.7837255,-0.5729729
terre,0.6725376,0.78735757,-0.6024812,-0.705909,0.66643095,-0.8320863,0.59222496,0.59394634,0.69748735,0.64007914,0.80576634,0.7037651,-0.77500486,0.55693215,0.51659906,0.74234545,0.6980113,-0.7319351,0.6910557,-0.673861
huile,0.83468705,0.74015576,-0.8008605,-0.8802235,0.83505076,-0.7348719,0.75559264,0.69790196,0.8651225,0.73411167,0.76955235,0.7005724,-0.8937018,0.87472814,0.6304698,0.77955693,0.8298547,-0.6231504,0.7045828,-0.7221204
légume,0.85280997,0.7578603,-0.6755363,-0.74634427,0.6931046,-0.8058709,0.676531,0.7026484,0.65085655,0.6441804,0.86875933,0.7373414,-0.80701435,0.6925001,0.40682143,0.7835206,0.6737536,-0.82177764,0.7556584,-0.68615043
crème,0.7766314,0.7843828,-0.866399,-0.7927094,0.80871975,-0.6956508,0.73220134,0.67970407,0.82380927,0.8368607,0.70795465,0.6657571,-0.7690475,0.89433134,0.75204206,0.79330516,0.74878013,-0.62632155,0.73281604,-0.75747323
poudré,0.7241441,0.7794405,-0.67771953,-0.63184303,0.7709015,-0.80883646,0.76731646,0.72735,0.74893636,0.7375648,0.54242027,0.76968724,-0.7293571,0.7848732,0.8826965,0.70537746,0.70132744,-0.6198765,0.78845465,-0.705317
baie,0.6771777,0.79834425,-0.7000265,-0.85751176,0.7882266,-0.7558826,0.8725281,0.84465104,0.82387793,0.77218866,0.4976613,0.72548,-0.7237954,0.90657353,0.74000466,0.7981006,0.73797405,-0.7395154,0.7828424,-0.7656282
menthé,0.66166914,0.7357303,-0.7514086,-0.6835954,0.65573996,-0.77612674,0.74308664,0.66896355,0.68715316,0.7404076,0.76266825,0.7944946,-0.7300341,0.5837289,0.84671414,0.6226433,0.7869989,-0.6338849,0.73410296,-0.8179492
pomme,0.7822398,0.83930165,-0.556249,-0.7903427,0.81412804,-0.6937125,0.7970967,0.8125847,0.7750352,0.7278372,0.647861,0.71425164,-0.6858007,0.89018524,0.6076908,0.81418717,0.80858046,-0.7919246,0.75240207,-0.85553145
moisi,0.62028956,0.73677313,-0.7560053,-0.74881536,0.6202301,-0.78137076,0.5209389,0.6417511,0.6078491,0.74574345,0.7504039,0.6234863,-0.81449413,0.54229033,0.5819526,0.6859176,0.6835636,-0.7577435,0.7718379,-0.5304671
ananas,0.742121,0.71013236,-0.6914172,-0.84715235,0.6981175,-0.7105828,0.8182064,0.8129946,0.81882936,0.69293344,0.5568342,0.6482551,-0.654864,0.8283728,0.621143,0.88795793,0.77779126,-0.7082999,0.7318783,-0.791369
phénolé,0.60309887,0.61312956,-0.6433075,-0.6194439,0.5802237,-0.639629,0.69110525,0.6635885,0.6568581,0.6436452,0.57389224,0.686004,-0.6974407,0.5430274,0.6723274,0.6086873,0.59427714,-0.62829024,0.64584714,-0.5900028
camphre,0.71204585,0.76579005,-0.78927135,-0.7060212,0.6598233,-0.78512764,0.6942071,0.7105068,0.71547437,0.7021916,0.76879007,0.7312131,-0.73054725,0.5614356,0.7643926,0.68531585,0.7364743,-0.71262276,0.7625325,-0.7711339
soufré,0.78091645,0.7570077,-0.78086877,-0.60090995,0.6658865,-0.7786229,0.6812496,0.5461431,0.64519817,0.5930185,0.71754307,0.67586297,-0.7518084,0.69885284,0.47633255,0.6984091,0.698148,-0.7656741,0.69990444,-0.64942086
aldéhyde,0.7172002,0.64359653,-0.6924247,-0.6895108,0.7133125,-0.67069024,0.74113184,0.73463833,0.74980235,0.7086474,0.7420418,0.7091043,-0.78035843,0.6535141,0.69964194,0.618044,0.7221761,-0.45132542,0.7261998,-0.68864
métal,0.6607434,0.6016031,-0.58873403,-0.4975087,0.600191,-0.689235,0.56493556,0.5567091,0.5810777,0.55416536,0.6509483,0.5994272,-0.6757686,0.6364695,0.4148728,0.60436934,0.5876411,-0.6481019,0.5687603,-0.570593
miel,0.5854002,0.6261382,-0.66923606,-0.67601705,0.73593163,-0.718686,0.6727183,0.76838297,0.6617811,0.76133513,0.55513066,0.70667326,-0.5949969,0.6854149,0.7377883,0.6643084,0.7428528,-0.67897207,0.6048672,-0.57909536
melon,0.73559964,0.7721891,-0.50100625,-0.7675272,0.75893617,-0.60063803,0.6382458,0.6718429,0.71027505,0.6907995,0.7447028,0.61084473,-0.7748245,0.734115,0.5426632,0.78978956,0.7358845,-0.6306652,0.6518812,-0.758172
ambregris,0.6678205,0.6928121,-0.5250797,-0.5467614,0.529148,-0.6846483,0.6487284,0.5069873,0.5297874,0.57436,0.51138645,0.6765239,-0.6788619,0.6336901,0.58078635,0.5997414,0.56440467,-0.53056455,0.6177771,-0.7164962
raisin,0.5086388,0.65000415,-0.6052885,-0.6257403,0.63910294,-0.53633106,0.6510557,0.6494653,0.54495096,0.54900116,0.40241805,0.5063275,-0.55547506,0.66955745,0.65980244,0.7180586,0.7098646,-0.6003841,0.59483254,-0.60601413
caramel,0.58853924,0.6915751,-0.63855904,-0.66719484,0.6860876,-0.6615064,0.68359596,0.74612105,0.63597834,0.6111553,0.57301617,0.64871615,-0.5887698,0.60023963,0.617128,0.6598141,0.6034598,-0.53467315,0.61105305,-0.62073505
oignon,0.8591809,0.8626462,-0.82746404,-0.71534425,0.7153605,-0.8559767,0.7726465,0.5433544,0.71640515,0.6761473,0.8343584,0.74100626,-0.8608445,0.8186022,0.51975524,0.78981054,0.6995411,-0.8242163,0.77436054,-0.6780299
banane,0.61578834,0.69561774,-0.65654653,-0.748221,0.66479486,-0.6215607,0.6591728,0.8349331,0.72988987,0.7197437,0.5955086,0.66960263,-0.7094392,0.826926,0.6235191,0.79425895,0.8114393,-0.6777723,0.60945994,-0.707267
poire,0.6969764,0.69930255,-0.46461895,-0.7239939,0.7665596,-0.61448634,0.70917654,0.7390194,0.6280931,0.7550616,0.69957876,0.64780104,-0.63462245,0.7555621,0.6233171,0.75515556,0.7396412,-0.6963519,0.6647378,-0.6351708
café,0.67515945,0.69059074,-0.68515706,-0.69137883,0.7099246,-0.75001115,0.6086949,0.6558238,0.6625453,0.62880915,0.75244856,0.68554544,-0.7553419,0.51458454,0.6928108,0.742152,0.63573194,-0.56770587,0.70758456,-0.56927425
vanille,0.45529455,0.47791743,-0.46877787,-0.41851407,0.50266194,-0.5399485,0.53922135,0.56263864,0.46603298,0.54201925,0.4155982,0.46287376,-0.4636025,0.5309335,0.49795833,0.42032784,0.525218,-0.52082694,0.5321133,-0.47188437
éther,0.55335677,0.6175425,-0.6193723,-0.74889004,0.68788254,-0.5667202,0.6576119,0.677961,0.749645,0.69059515,0.45805568,0.57354987,-0.5370235,0.6934633,0.6136982,0.6714255,0.7457099,-0.6868066,0.59885526,-0.62521255
fromage,0.5924992,0.6849121,-0.71180624,-0.61911005,0.6180546,-0.5356914,0.6075651,0.6007064,0.6484213,0.6880886,0.53197956,0.560904,-0.6947122,0.6993115,0.6332624,0.6146314,0.5626211,-0.6003525,0.7048445,-0.5686946
vin,0.44609177,0.41097882,-0.3760988,-0.44513044,0.49749106,-0.31003895,0.37735704,0.49387628,0.44358757,0.47426257,0.36199686,0.33416983,-0.3904235,0.46587777,0.33681664,0.4992806,0.44051638,-0.46455345,0.376909,-0.4247992
tabac,0.5113694,0.5426328,-0.44752735,-0.534914,0.4155283,-0.59131086,0.6153806,0.47806826,0.43844175,0.4608022,0.4519827,0.47385907,-0.46049893,0.36876056,0.59330076,0.5175334,0.48014325,-0.5247864,0.52803445,-0.48777574
noixdecoco,0.63758135,0.576512,-0.71472913,-0.6823728,0.616447,-0.7197319,0.656193,0.60343677,0.6152446,0.72370726,0.5904174,0.5622968,-0.5972805,0.6482295,0.61736155,0.62812614,0.6718699,-0.4988773,0.5287196,-0.57133687
jasmin,0.4813432,0.5856819,-0.58502793,-0.55681276,0.59644175,-0.60333085,0.56053567,0.62202615,0.61220896,0.5434735,0.5458243,0.5742269,-0.59073186,0.591539,0.62730014,0.5583454,0.50834465,-0.5283108,0.5764402,-0.572315
savon,0.5817848,0.56489563,-0.5132497,-0.6865518,0.6034601,-0.62620115,0.54453844,0.5746697,0.58646566,0.5071434,0.5404605,0.66779125,-0.6056863,0.5826949,0.52516013,0.6288985,0.5969801,-0.428227,0.5511364,-0.6408614
ail,0.74638206,0.87937105,-0.78752387,-0.7232771,0.6896821,-0.76747733,0.73383915,0.54259115,0.67738926,0.61133486,0.79252714,0.6815777,-0.85214293,0.76013196,0.49817616,0.739268,0.60458964,-0.77541554,0.76976174,-0.68460464
lactique,0.63718647,0.6289058,-0.73523426,-0.69506365,0.60489905,-0.58543456,0.68268865,0.5571512,0.700663,0.7450302,0.62723,0.60580355,-0.6160171,0.69938755,0.64637077,0.69164884,0.5496001,-0.6373761,0.62868404,-0.5713104
beurre,0.7127141,0.7297413,-0.65831304,-0.7171563,0.7156005,-0.5946904,0.60090756,0.5120174,0.71080685,0.65413666,0.57040393,0.58807874,-0.639871,0.6637052,0.5907918,0.6600224,0.570956,-0.58633465,0.60373944,-0.6395589
champignon,0.5157288,0.56065536,-0.51018375,-0.5514144,0.54818034,-0.6560178,0.5026485,0.48712778,0.5902457,0.500931,0.5993606,0.47105363,-0.67079866,0.46166986,0.4306391,0.55381906,0.52653307,-0.5088311,0.5882338,-0.5271622
cacao,0.6611794,0.64729434,-0.5924781,-0.6003376,0.7003433,-0.7506711,0.67432535,0.6892198,0.5524631,0.6526301,0.6652324,0.5986514,-0.6857162,0.49140102,0.616141,0.6799208,0.59364206,-0.5536696,0.6839473,-0.58384335
animal,0.42000538,0.55493367,-0.4777461,-0.4197967,0.50149554,-0.47651523,0.51131064,0.49141753,0.37396687,0.43216634,0.3856948,0.4694446,-0.46529227,0.5114938,0.45104724,0.46526396,0.46745378,-0.45723605,0.46211237,-0.5142462
pêche,0.656222,0.629027,-0.56798154,-0.66367847,0.59259677,-0.55245227,0.62785447,0.71661514,0.68691003,0.6938995,0.45376664,0.5164343,-0.5726839,0.6738622,0.5086925,0.5900208,0.62486804,-0.5415442,0.5586376,-0.57031703
orange,0.5784434,0.478207,-0.49817663,-0.60478306,0.5520791,-0.57072425,0.5661124,0.50358206,0.6233171,0.60861254,0.55735356,0.5715455,-0.51975316,0.57201374,0.5666087,0.58447546,0.57845336,-0.39832944,0.5576539,-0.5499269
brûlé,0.46218473,0.55838597,-0.5072437,-0.5375772,0.52639043,-0.4983422,0.44386876,0.5139363,0.5669569,0.5188879,0.5679085,0.5591476,-0.58388394,0.38798466,0.57778096,0.5946068,0.44466674,-0.45554334,0.46982914,-0.47709632
violette,0.40713286,0.41165498,-0.2792853,-0.39404425,0.3845222,-0.28470817,0.29387182,0.40852863,0.3556713,0.3198248,0.2120645,0.31263536,-0.44408628,0.366965,0.37813365,0.3794739,0.32205576,-0.2984202,0.32121548,-0.3929029
musc,0.5577879,0.60340124,-0.4244663,-0.46523863,0.5300144,-0.62106025,0.57274306,0.48041448,0.48517233,0.48358652,0.40109792,0.58826554,-0.49896652,0.5704595,0.55603427,0.51283705,0.5008258,-0.47392154,0.5222356,-0.56966424
pin,0.63595045,0.63695025,-0.65857065,-0.6005005,0.4993771,-0.6012243,0.63300943,0.5382128,0.66007626,0.6285627,0.5798538,0.58156574,-0.64155525,0.4954515,0.6820558,0.63958347,0.5935641,-0.56484425,0.6387469,-0.57203734
foin,0.58621526,0.56222737,-0.53231585,-0.57110023,0.41591167,-0.5643965,0.6285429,0.55437624,0.5201123,0.49249846,0.56226695,0.5660959,-0.60469836,0.4276625,0.5178087,0.5121117,0.54370755,-0.55694634,0.5839335,-0.5747595
citron,0.5758493,0.487548,-0.6516205,-0.6190657,0.6284538,-0.53379947,0.46713817,0.47978044,0.54321444,0.5739852,0.55394864,0.62975824,-0.6493061,0.5217794,0.57737845,0.4790487,0.6778884,-0.42009103,0.6567371,-0.616312
cerise,0.5620955,0.52846664,-0.6198008,-0.7044779,0.6516086,-0.5862299,0.65866137,0.6469939,0.6027988,0.62650573,0.4127669,0.55156136,-0.5261595,0.6631373,0.6274682,0.75354266,0.56112623,-0.5851283,0.5512492,-0.6609272
rhum,0.4536664,0.6022457,-0.5359422,-0.58186305,0.58726984,-0.48971674,0.48695627,0.57283425,0.56581175,0.59077257,0.36991656,0.44712526,-0.36337954,0.56192696,0.41124457,0.55735123,0.49257112,-0.50334674,0.5280313,-0.5471774
cannelle,0.5523093,0.5955713,-0.6532886,-0.59547186,0.41349322,-0.6247651,0.6495706,0.52712566,0.58433604,0.57570326,0.62039363,0.66920614,-0.5554551,0.51025355,0.60357755,0.6370138,0.5909316,-0.49534446,0.662521,-0.6071962
coumarine,0.55549806,0.5202675,-0.5420232,-0.6456717,0.6031859,-0.60207057,0.54371405,0.5534286,0.5745708,0.5936713,0.5768976,0.5449163,-0.5602502,0.4998911,0.57376206,0.5857949,0.5191418,-0.49712482,0.6301211,-0.52503914
laitfrais,0.6151366,0.542923,-0.6339387,-0.61986494,0.62925935,-0.68579626,0.5396527,0.6094266,0.61277825,0.62585247,0.575201,0.5730585,-0.62829876,0.64231175,0.5851966,0.68043196,0.6279881,-0.59431875,0.5020574,-0.5513632
médicinal,0.57743114,0.5378252,-0.58001983,-0.5139242,0.42870224,-0.4887947,0.5812565,0.58676124,0.5295944,0.49597883,0.5038737,0.6112926,-0.5638403,0.48912174,0.5041935,0.51664037,0.5221741,-0.5221845,0.50903,-0.45755076
cèdre,0.56828034,0.6248785,-0.5590261,-0.57702124,0.41625202,-0.60867727,0.59854245,0.4797296,0.52725863,0.56663257,0.48681206,0.58180904,-0.64592314,0.5236461,0.60587823,0.5493581,0.48240662,-0.47822875,0.5350478,-0.5832496
﻿abricot,0.54793197,0.57735825,-0.5427178,-0.61843127,0.48228583,-0.6021185,0.60271454,0.57546806,0.59876704,0.63972825,0.525079,0.46858415,-0.45894405,0.6282584,0.50738883,0.5783834,0.5321183,-0.47989607,0.5902498,-0.48112613
thé,0.5378777,0.5297636,-0.45267886,-0.45989782,0.5062761,-0.4916112,0.50963974,0.45716083,0.40822163,0.39740747,0.47919762,0.5104548,-0.52346116,0.4423167,0.48693413,0.4660877,0.44576246,-0.43933657,0.4220473,-0.53147423
prune,0.49568743,0.5202322,-0.45897186,-0.47080886,0.5280203,-0.41489822,0.52078646,0.5925991,0.5248868,0.50887954,0.42324948,0.48831952,-0.4242099,0.5649693,0.47418335,0.576517,0.47002012,-0.43010947,0.53935975,-0.4939372
ylang,0.61084664,0.3623213,-0.724059,-0.45627445,0.6717398,-0.5674658,0.47147578,0.6726471,0.6043459,0.7112175,0.6570018,0.602905,-0.6295725,0.59578764,0.5903255,0.3360844,0.6083217,-0.6675401,0.53212446,-0.7303347
fumée,0.53389144,0.5219113,-0.5144558,-0.53787404,0.49773538,-0.5134065,0.5842987,0.5244781,0.5662582,0.531545,0.52830565,0.5405408,-0.6544059,0.46304995,0.589095,0.5503564,0.45123369,-0.5571914,0.535746,-0.49871904
fermentaire,0.43525472,0.4909376,-0.48054805,-0.51139396,0.58879054,-0.52021116,0.4931125,0.5721426,0.53799033,0.54079777,0.38144583,0.41417325,-0.4935729,0.59821385,0.54227436,0.6092087,0.60053116,-0.44150335,0.579319,-0.50280386
poivre,0.48555678,0.53409797,-0.5005404,-0.45690298,0.32555968,-0.5245127,0.48422238,0.5114897,0.46683758,0.50663584,0.42158836,0.4521755,-0.49363315,0.45947784,0.53648937,0.4119786,0.4370907,-0.49653372,0.4972758,-0.55535436
géranium,0.5388876,0.52672184,-0.48450983,-0.537318,0.46091744,-0.50175756,0.52303666,0.50358546,0.5558686,0.50191987,0.50289273,0.5652876,-0.44821373,0.59042716,0.59237075,0.52974784,0.47747588,-0.4793272,0.4333483,-0.4644888
pain,0.46791428,0.54378784,-0.53676105,-0.5709019,0.54781795,-0.52192557,0.41859406,0.53489137,0.44920808,0.54219913,0.5006796,0.59019107,-0.46687415,0.36779797,0.4358914,0.54930747,0.51613593,-0.5708095,0.5531069,-0.41324073
ester,0.5216954,0.617995,-0.5354564,-0.68735695,0.52208126,-0.59216547,0.57180536,0.57070684,0.7025467,0.5460478,0.5605829,0.5799637,-0.56205577,0.6383438,0.5717815,0.66331995,0.59157526,-0.54801667,0.5944524,-0.62214386
concombre,0.616647,0.6162745,-0.5273826,-0.685908,0.5615881,-0.52693176,0.53931785,0.6001978,0.64744854,0.6048821,0.5800226,0.49753165,-0.60057133,0.58615774,0.49878395,0.66972804,0.6504218,-0.48450372,0.56571627,-0.51207364
cuir,0.38527787,0.47614285,-0.34387368,-0.32145202,0.39687556,-0.4024592,0.40565315,0.43945682,0.3247964,0.41453296,0.3906551,0.3986882,-0.44886458,0.43545026,0.40377754,0.37633157,0.38641122,-0.4666246,0.35545194,-0.34754798
confiture,0.5561692,0.5622003,-0.5873635,-0.6150566,0.5873536,-0.5652884,0.5877139,0.6031708,0.62379897,0.60347164,0.5102173,0.6155777,-0.5597608,0.62329346,0.53395784,0.5926385,0.4843734,-0.51154137,0.57405674,-0.5311896
amande,0.5388291,0.44021952,-0.53682244,-0.55702555,0.5872531,-0.52207804,0.54411185,0.55973446,0.48161012,0.6221883,0.41982573,0.50067294,-0.45169246,0.57069165,0.51789474,0.5538454,0.5780511,-0.4930544,0.5260991,-0.54151523
alliacé,0.62752676,0.6961273,-0.5924908,-0.54495025,0.5243016,-0.57195187,0.49479976,0.43577677,0.5851559,0.5377228,0.60895026,0.48551035,-0.65802914,0.6458986,0.3799048,0.5688132,0.48253244,-0.58617896,0.64351463,-0.51519275
cognac,0.5130456,0.5071429,-0.40338826,-0.45656562,0.54625833,-0.42124805,0.50937915,0.5241768,0.51190025,0.49075654,0.4304838,0.38090646,-0.5070707,0.6116463,0.52409106,0.6133729,0.57464504,-0.5256017,0.57355857,-0.5324695
lavande,0.49686754,0.57205856,-0.5270331,-0.5844867,0.5171894,-0.5519082,0.51442456,0.4838661,0.5265067,0.46981773,0.59898543,0.51599836,-0.54725355,0.43181705,0.45666426,0.49794552,0.47541666,-0.5104022,0.5299951,-0.4849642
framboise,0.5688934,0.4859119,-0.51574886,-0.5933,0.4883868,-0.46788362,0.5561458,0.5397785,0.6132246,0.4781006,0.3609116,0.5128243,-0.49605608,0.53906167,0.5323455,0.4921757,0.5319474,-0.5632396,0.48829782,-0.5315912
réglisse,0.46116012,0.3833719,-0.3827392,-0.3859548,0.33477277,-0.45964986,0.3995409,0.4545474,0.35226518,0.4715796,0.35550594,0.38829473,-0.35814446,0.40022278,0.49427512,0.3865299,0.35194248,-0.4159471,0.44198322,-0.3866577
mandarine,0.4622344,0.3918479,-0.48773894,-0.47195995,0.42246604,-0.435154,0.44938123,0.45308477,0.4001224,0.44966033,0.44254938,0.4973179,-0.44799966,0.49532235,0.44764042,0.48063678,0.46523228,-0.31110573,0.47557533,-0.44732252
cloudegirofle,0.5265384,0.54549384,-0.51528966,-0.5869117,0.39799923,-0.5752242,0.63388795,0.53669274,0.46136078,0.600593,0.5657791,0.67373717,-0.5772576,0.55008096,0.5585599,0.5250925,0.52516,-0.45453244,0.6108277,-0.6502116
muguet,0.41503808,0.34676987,-0.39494914,-0.37394002,0.4442733,-0.4410558,0.45976076,0.39069033,0.4912681,0.38048077,0.33178055,0.40856576,-0.3925045,0.39039513,0.45163876,0.38852167,0.43401313,-0.48258537,0.37827647,-0.42769057
fleurdoranger,0.44402426,0.42581606,-0.49764606,-0.47381163,0.45584667,-0.521397,0.5262208,0.47913164,0.4272463,0.41682154,0.35803095,0.45874852,-0.42636228,0.4821165,0.5199343,0.40421134,0.44760972,-0.4704183,0.461418,-0.44330764
citronvert,0.47597957,0.4369107,-0.48777747,-0.5792801,0.47844172,-0.4463604,0.41400826,0.39924666,0.50638294,0.5129088,0.51869476,0.5302633,-0.5244975,0.46101308,0.544374,0.4418319,0.5368825,-0.4944409,0.49097782,-0.60356605
sauge,0.37879914,0.41271228,-0.47146106,-0.3821564,0.42506608,-0.45547545,0.4811283,0.39806277,0.41858864,0.37395343,0.44573945,0.44293508,-0.36620873,0.32987157,0.41981155,0.36400926,0.41602263,-0.40911645,0.39513996,-0.42853868
anis,0.49700642,0.429169,-0.42604968,-0.4333334,0.4324774,-0.46676207,0.42055458,0.47928584,0.4326511,0.5179651,0.39705485,0.4917711,-0.4233492,0.46432918,0.54951704,0.3952639,0.39772683,-0.5149442,0.52330965,-0.41327766
chocolat,0.56898147,0.5808526,-0.5200189,-0.4486059,0.52700865,-0.5846667,0.59871495,0.5466647,0.5009273,0.54993606,0.5904922,0.49083683,-0.5707123,0.3794506,0.5033547,0.5669387,0.51388633,-0.47958648,0.5746168,-0.4436364
pommedeterre,0.56947005,0.577127,-0.53205013,-0.6583394,0.5340593,-0.62765366,0.50250226,0.6612475,0.5796788,0.48307115,0.62353504,0.5653286,-0.62013376,0.47113743,0.3918932,0.5819367,0.5937809,-0.6229266,0.59390116,-0.5185187
jacinthe,0.4333368,0.48623723,-0.49473414,-0.45433795,0.44958434,-0.41582602,0.4755545,0.5101222,0.42857277,0.4809608,0.40880823,0.44546014,-0.4961606,0.5062806,0.49848413,0.43719086,0.52300173,-0.4797781,0.47244462,-0.45283508
résineux,0.4188941,0.4685712,-0.39255345,-0.33812106,0.3821053,-0.45391536,0.49377814,0.39812148,0.4793145,0.3762998,0.36497167,0.38724157,-0.46812642,0.3538116,0.46256804,0.43845534,0.36661583,-0.41181475,0.41803703,-0.3383022
chimique,0.40547776,0.39977285,-0.46040368,-0.51039106,0.45893383,-0.52328765,0.41331586,0.5070296,0.42696702,0.4102565,0.30047697,0.41849566,-0.3844087,0.4359484,0.45222497,0.45759937,0.3949744,-0.5061131,0.37253088,-0.44887727
fraise,0.43641788,0.45714492,-0.46356103,-0.53554046,0.49171984,-0.4597306,0.56792307,0.5573712,0.46300924,0.47842816,0.3990356,0.43156642,-0.44319522,0.519301,0.5162238,0.50116944,0.43314785,-0.46488413,0.5344639,-0.4382187
poulet,0.5404816,0.46598852,-0.55222666,-0.53745687,0.5162831,-0.57151866,0.40701544,0.48681343,0.49095902,0.41957444,0.5459844,0.4515105,-0.53733575,0.4488525,0.4715994,0.42753816,0.46143803,-0.4660371,0.4432027,-0.45396078
cuit,0.39368942,0.50963795,-0.3777841,-0.37390542,0.328745,-0.37691745,0.4122817,0.2926313,0.398712,0.38583624,0.45780033,0.34418678,-0.40501675,0.42624092,0.36912805,0.5003451,0.44109654,-0.4181349,0.3080712,-0.43961406
lys,0.4386499,0.37395424,-0.42976236,-0.42416298,0.4173351,-0.45322025,0.4629324,0.44342828,0.51853406,0.40173236,0.32704788,0.45673642,-0.37932664,0.483911,0.42877918,0.38927895,0.4937542,-0.47663873,0.3867219,-0.42847836
zesté,0.24834168,0.26930568,-0.18971035,-0.2940825,0.27498463,-0.20908456,0.31291664,0.26683623,0.30003512,0.24287748,0.22830515,0.2146811,-0.26460218,0.27319622,0.24891077,0.2229889,0.28165713,-0.19692624,0.2689388,-0.26188824
sapin,0.46958917,0.4353572,-0.4492184,-0.4873145,0.41636002,-0.52345383,0.4212535,0.43697542,0.4079386,0.4888733,0.46538973,0.44641793,-0.5165681,0.4689328,0.54157394,0.45401204,0.376817,-0.4208359,0.4431752,-0.46615636
anisé,0.49656653,0.4671157,-0.4515307,-0.41768503,0.45099068,-0.3593889,0.3878644,0.5179812,0.47904143,0.4285367,0.34961775,0.39787006,-0.45607358,0.4653074,0.45270598,0.44312465,0.52061725,-0.39817068,0.4463688,-0.40018725
coriandre,0.49487585,0.45814133,-0.42819405,-0.47605923,0.44334072,-0.48107946,0.48169464,0.46120268,0.4827227,0.49504346,0.4829795,0.43473953,-0.49806535,0.4169997,0.43436283,0.46936607,0.4620601,-0.4563954,0.4463429,-0.43824112
bergamote,0.45060512,0.4302088,-0.4911926,-0.50496864,0.45111355,-0.40058565,0.45275325,0.49803862,0.45100552,0.46219867,0.4698323,0.41735047,-0.4311552,0.48901096,0.39751422,0.44011605,0.43379515,-0.42801636,0.47487795,-0.34226012
bouillon,0.50863254,0.4051998,-0.40476146,-0.35482794,0.39920205,-0.47152287,0.36410677,0.39642376,0.3763355,0.39575276,0.39954,0.41182473,-0.39451972,0.3468219,0.36974102,0.35187277,0.35507363,-0.42233902,0.3668963,-0.4049651
racine,0.38447773,0.39432752,-0.37951815,-0.38038522,0.38342083,-0.42678535,0.42871863,0.36449313,0.39927024,0.3919139,0.38008252,0.4228666,-0.44202447,0.34456882,0.4068601,0.40606526,0.3812587,-0.3989607,0.4373508,-0.43207967
santal,0.36171895,0.33417207,-0.3411352,-0.27007174,0.31146038,-0.44974104,0.36974758,0.37418443,0.36831343,0.36721075,0.29833326,0.35271627,-0.35590628,0.31715012,0.44285494,0.32421398,0.32565585,-0.28243595,0.4069273,-0.37612867
noisette,0.5877724,0.5529169,-0.60085285,-0.67248917,0.4893374,-0.5908134,0.5113443,0.5914819,0.5071749,0.61419606,0.6966188,0.5437321,-0.6186068,0.5355934,0.6812246,0.5137963,0.51663643,-0.56419337,0.55067146,-0.5108408
chou,0.47836173,0.524328,-0.4878763,-0.4571109,0.4680314,-0.45952374,0.4236356,0.49221516,0.5243791,0.41426677,0.4727609,0.4397354,-0.49323368,0.45446944,0.330189,0.45729953,0.47283822,-0.47183377,0.5021576,-0.39439505
mangue,0.3683992,0.36263835,-0.3436278,-0.4351518,0.42114323,-0.38756263,0.43527788,0.38007203,0.43301785,0.3620922,0.31282002,0.3726011,-0.34222943,0.37965435,0.43350083,0.36742628,0.41649783,-0.41616222,0.2892305,-0.35231853
fèvetonka,0.5895188,0.45835623,-0.505443,-0.5676981,0.50084955,-0.4854883,0.4317317,0.4919551,0.5338234,0.49834007,0.5416503,0.49271762,-0.45228475,0.5003064,0.57535726,0.5575098,0.5366581,-0.44002938,0.48895538,-0.41458553
menthol,0.42233625,0.4698551,-0.4363643,-0.5109351,0.45491958,-0.5557498,0.49292824,0.53228205,0.46381876,0.44218397,0.49265498,0.54818296,-0.41830558,0.51668894,0.54558825,0.45576036,0.5341877,-0.45981708,0.50500995,-0.5338129
plastique,0.39504927,0.3325045,-0.326276,-0.34100273,0.30500126,-0.40315711,0.28066808,0.3079499,0.39576417,0.34143972,0.33802965,0.4098211,-0.3515225,0.34709197,0.3192078,0.40088248,0.3061608,-0.3500591,0.39027512,-0.43027782
tomate,0.45221508,0.44713825,-0.40493408,-0.44845074,0.48276934,-0.49643052,0.4556768,0.44395933,0.4315512,0.43138278,0.47919396,0.4628529,-0.44631517,0.40001488,0.39233077,0.41268435,0.40352684,-0.46721768,0.45459926,-0.48627007
ozone,0.40312296,0.26766613,-0.2494027,-0.271314,0.28877878,-0.33561128,0.39652216,0.36725634,0.31008637,0.33349204,0.3626727,0.36507332,-0.27980942,0.32101887,0.3120805,0.2972055,0.3660214,-0.2754182,0.30356973,-0.35537994
grillé,0.3995089,0.37559074,-0.43911177,-0.41077158,0.42273885,-0.47406274,0.40114623,0.45126218,0.38681272,0.4854137,0.53261924,0.4786985,-0.56418276,0.3660181,0.47574997,0.40293872,0.4155311,-0.3767081,0.48029765,-0.37146288
cumin,0.36481616,0.38543057,-0.40959296,-0.3806277,0.21999016,-0.40831083,0.33769774,0.36991817,0.37691668,0.3542369,0.39224005,0.3556572,-0.32287976,0.34505352,0.4206435,0.29135287,0.32599238,-0.37982482,0.34064204,-0.38927573
siropdérable,0.37094644,0.42260665,-0.4187801,-0.4399069,0.5078033,-0.31552833,0.47073895,0.4476175,0.41736394,0.4231851,0.45659482,0.495393,-0.3514744,0.32877487,0.4331864,0.44803298,0.36339572,-0.39804083,0.4418553,-0.4694957
poisson,0.33793378,0.44567975,-0.4424907,-0.37820026,0.36327505,-0.43736273,0.4214096,0.41032442,0.42194033,0.45377392,0.36784363,0.33819908,-0.4789025,0.36587748,0.34565502,0.43631586,0.36319402,-0.42034596,0.43000323,-0.37590197
gardénia,0.37388504,0.27298123,-0.38073426,-0.40146858,0.4228922,-0.3476032,0.32041004,0.40655947,0.42265815,0.30446857,0.3273131,0.3578022,-0.30968517,0.3385142,0.39986914,0.32757467,0.36741558,-0.35549086,0.38075536,-0.33332518
solvant,0.37572646,0.42363048,-0.3627451,-0.33405143,0.3566489,-0.32065767,0.40264076,0.41502467,0.35005426,0.31990746,0.23546544,0.3721161,-0.37492514,0.30497807,0.43751085,0.30054623,0.42464828,-0.3877098,0.4040153,-0.40858597
narcisse,0.4403371,0.3276732,-0.34301543,-0.4204485,0.4017341,-0.36642677,0.3604173,0.37869823,0.38570672,0.40895355,0.45113546,0.35070592,-0.433329,0.44780186,0.40027964,0.34891677,0.32144678,-0.29405445,0.37922302,-0.36887354
galbanum,0.36236382,0.33270246,-0.33338678,-0.35512716,0.348029,-0.43744665,0.3859945,0.40869582,0.40446985,0.3327178,0.414007,0.3826059,-0.38070887,0.32994735,0.2785651,0.44339472,0.36690164,-0.31767616,0.30263913,-0.43409115
eucalyptus,0.3944455,0.40203294,-0.4229285,-0.40818852,0.468498,-0.5120538,0.43285686,0.43047342,0.3676533,0.44329345,0.38475037,0.44978935,-0.3655167,0.3632999,0.44792318,0.46281946,0.45427954,-0.33947423,0.49853384,-0.37986428
mousse,0.30057263,0.2973443,-0.33639598,-0.26375023,0.27442104,-0.31831378,0.24253851,0.3471665,0.30702743,0.2795511,0.31746435,0.318264,-0.32176524,0.23027372,0.32865807,0.26148182,0.3486585,-0.3479755,0.35024655,-0.27413756
alcool,0.37721172,0.35948837,-0.3435663,-0.3931669,0.31198463,-0.3463012,0.34226,0.37033695,0.43862486,0.34613073,0.32090598,0.44891736,-0.3020922,0.39011356,0.3317132,0.3540675,0.4015563,-0.41339108,0.3643456,-0.46591282
patchouli,0.29559076,0.35742724,-0.35603678,-0.2903081,0.35341352,-0.30768582,0.3484027,0.3085909,0.29156142,0.42015904,0.333934,0.36400294,-0.3703131,0.33927405,0.25829065,0.33165732,0.25230062,-0.34921458,0.2667038,-0.3255393
aubépine,0.397176,0.32732406,-0.3900026,-0.33929682,0.34437,-0.42572024,0.3920243,0.32996663,0.38010174,0.3814808,0.3159747,0.39537472,-0.39523247,0.34520656,0.38470006,0.38069296,0.3980225,-0.27949488,0.40658218,-0.3687976
myrtille,0.3260663,0.40058488,-0.31692865,-0.36058307,0.4618559,-0.35522038,0.3820759,0.33855855,0.40824914,0.38129148,0.37359363,0.35154134,-0.35425264,0.32873157,0.42558601,0.47083166,0.3170745,-0.32715702,0.42829257,-0.29290897
fenouil,0.4020368,0.437845,-0.4078636,-0.39330304,0.37316462,-0.40078416,0.33986115,0.46082956,0.4511098,0.44122347,0.4715625,0.36884278,-0.37068582,0.41176036,0.496168,0.35340333,0.38316172,-0.44950402,0.411612,-0.4552036
marin,0.31279266,0.3160397,-0.32353675,-0.31302,0.32694605,-0.25338662,0.26672968,0.3274219,0.28149414,0.20890984,0.3167289,0.35937798,-0.2308738,0.3057036,0.19948891,0.2495403,0.34176862,-0.25009945,0.23998335,-0.29396474
sueur,0.29760566,0.3367441,-0.31289423,-0.35698605,0.44801635,-0.29228792,0.42711818,0.41239458,0.36454743,0.40776807,0.39085352,0.36119556,-0.3472678,0.3875665,0.27883577,0.42116308,0.3613786,-0.36546302,0.4065683,-0.3768259
mentheverte,0.42117572,0.32774866,-0.40252256,-0.34674048,0.37914202,-0.40539625,0.48036093,0.35576776,0.42274982,0.45838434,0.46997315,0.44082826,-0.47899285,0.46528965,0.5006374,0.4135484,0.38651472,-0.3771516,0.46099773,-0.370641
levure,0.36937535,0.39050168,-0.31024918,-0.36724627,0.29348218,-0.312858,0.25241318,0.34626052,0.27433023,0.35225257,0.25836468,0.37874082,-0.3331749,0.27559865,0.2666008,0.3583209,0.2956495,-0.38309938,0.34951323,-0.3306719
naphtaline,0.31358045,0.36577797,-0.32495427,-0.35991758,0.35968515,-0.37732983,0.376823,0.34324798,0.34503686,0.32386774,0.31165677,0.4491592,-0.41869912,0.27945527,0.41343272,0.32811707,0.3646139,-0.2854091,0.3885768,-0.286477
camomille,0.34216762,0.38383007,-0.42248774,-0.29148102,0.31314257,-0.33682206,0.36000252,0.3174467,0.40728256,0.31986025,0.28593865,0.32844394,-0.30672178,0.33963186,0.3618544,0.32367817,0.30123827,-0.33513588,0.3548686,-0.34281915
bourgeondecassis,0.3139951,0.367863,-0.38096142,-0.30023953,0.33324015,-0.31052953,0.4156326,0.43480742,0.3386346,0.3259715,0.27549773,0.28785026,-0.34350732,0.30811763,0.31952184,0.33633527,0.390877,-0.34939772,0.39209864,-0.26601753
raifort,0.362127,0.40512252,-0.4335485,-0.40437567,0.41409716,-0.48352098,0.38716948,0.38775057,0.41601706,0.43353975,0.42407,0.4745956,-0.4277383,0.38036072,0.3102652,0.41829735,0.33833897,-0.40006247,0.36611474,-0.40401506
pommeverte,0.35185263,0.48541516,-0.324185,-0.41297257,0.364336,-0.39858806,0.36430353,0.3420599,0.400254,0.42467374,0.47739005,0.4114828,-0.38904798,0.42513084,0.40236884,0.40177172,0.43617564,-0.41423595,0.30420616,-0.4437816
caoutchouc,0.3551853,0.3698872,-0.4236833,-0.45986885,0.38272732,-0.34125072,0.28330407,0.3325988,0.385906,0.40364873,0.49208063,0.47195905,-0.36799264,0.38912448,0.3556013,0.38816082,0.3368911,-0.37528163,0.3527301,-0.3882982
radis,0.35003752,0.2933194,-0.2959494,-0.36124265,0.41351107,-0.40490633,0.30848378,0.31563312,0.34321254,0.28610063,0.40467948,0.41532245,-0.3926234,0.36809677,0.3184858,0.32467628,0.3878159,-0.35237387,0.416951,-0.36458814
suif,0.37722,0.46701542,-0.4281832,-0.4989555,0.48282987,-0.43577498,0.43479413,0.35196644,0.39496005,0.4704445,0.4597417,0.44206852,-0.46575597,0.42503887,0.3985104,0.43566817,0.50646126,-0.3387184,0.43871507,-0.4200914
viandecuite,0.13454686,0.1803914,-0.23738614,-0.18701933,0.19304706,-0.18591103,0.18040414,0.14596865,0.19519827,0.14654829,0.15553685,0.2105647,-0.16517168,0.14738835,0.22597662,0.21901216,0.18313608,-0.21502125,0.23509775,-0.18842915
capucine,0.32068923,0.37494302,-0.2928161,-0.29690212,0.23540318,-0.39397028,0.3103041,0.38582945,0.3415892,0.3362577,0.3324163,0.37059927,-0.32914183,0.25129682,0.3778783,0.2873773,0.30330914,-0.3621404,0.27414918,-0.33661354
œillet,0.45320058,0.4034052,-0.4203668,-0.33063114,0.31021363,-0.35381824,0.28551516,0.38680172,0.40318725,0.4263339,0.44966918,0.41258132,-0.42974603,0.42792475,0.39907175,0.4234134,0.3363402,-0.29006848,0.3159384,-0.36187622
fruitexotique,0.30699444,0.40759575,-0.36603898,-0.3791065,0.2628775,-0.38518783,0.3273834,0.30644575,0.35449928,0.27870187,0.24212825,0.34141296,-0.244772,0.31809056,0.32639247,0.29125428,0.42812282,-0.34602433,0.33308387,-0.35100144
œuf,0.46161222,0.46034414,-0.4270015,-0.4852643,0.4214301,-0.48748958,0.3933137,0.41098163,0.45130807,0.4660812,0.4135648,0.3989716,-0.43771905,0.4520316,0.4591995,0.5029433,0.479811,-0.44939512,0.48197055,-0.4035065
fruitsec,0.2743007,0.3921109,-0.32745737,-0.3492691,0.41947535,-0.27888197,0.3786475,0.34092766,0.40917295,0.36748892,0.36729032,0.3895762,-0.34136438,0.33756202,0.33922625,0.316639,0.38219166,-0.338095,0.33717594,-0.34827772
basilic,0.29168218,0.37198496,-0.334135,-0.40450382,0.3564883,-0.37048435,0.3811647,0.35337454,0.31032115,0.31692255,0.33477396,0.35666096,-0.36459225,0.33089218,0.34457603,0.34652185,0.28349647,-0.43500125,0.43471688,-0.39126158
poussière,0.29422665,0.2569149,-0.3616345,-0.27073437,0.27601516,-0.23967634,0.29294688,0.29886845,0.2918268,0.27654856,0.36091113,0.375432,-0.28797764,0.24610272,0.33538675,0.2918899,0.2534489,-0.28923008,0.2637605,-0.35081506
citronelle,0.32041782,0.32781285,-0.3400645,-0.3038435,0.3355924,-0.33096397,0.408624,0.31137857,0.32584524,0.39706394,0.33240026,0.32748786,-0.30773103,0.38080025,0.4337476,0.35396796,0.34305388,-0.3457759,0.33867756,-0.2806143
écorcedorange,0.36327273,0.33636385,-0.3505131,-0.36520383,0.36687475,-0.42436588,0.35693145,0.37397134,0.47765207,0.3773362,0.40693372,0.46903008,-0.32742912,0.37634933,0.41287917,0.33248532,0.3410493,-0.32856607,0.39121085,-0.48599005
encens,0.29117405,0.3503669,-0.38023448,-0.2714654,0.29761288,-0.3601332,0.40806842,0.25501403,0.34450468,0.35093248,0.29684937,0.35287526,-0.3786978,0.36786288,0.35176706,0.29147667,0.25326687,-0.26228428,0.42145628,-0.31747055
bonbon,0.29886642,0.35462874,-0.42792603,-0.3785566,0.39715016,-0.36301595,0.43009955,0.3988226,0.41679847,0.36753476,0.24066189,0.30526394,-0.35589206,0.3788303,0.3736202,0.3415649,0.3521576,-0.39151606,0.29234588,-0.40615743
popcorn,0.23659669,0.2890051,-0.2689138,-0.3526265,0.37818038,-0.3845439,0.3318701,0.28497112,0.32950482,0.3320831,0.2906369,0.36227006,-0.35226643,0.24059936,0.3753751,0.33454093,0.3713685,-0.30822116,0.34203306,-0.23137638
cacahuète,0.50785226,0.43682557,-0.4146376,-0.47531104,0.415102,-0.39375058,0.44516152,0.49982858,0.3686414,0.49164125,0.52586794,0.3955241,-0.47057915,0.3902499,0.4735176,0.41152766,0.45910227,-0.40570772,0.54471576,-0.3801513
romarin,0.36277494,0.40173393,-0.3574443,-0.34534344,0.272156,-0.39401597,0.31974828,0.35549623,0.3350282,0.3855046,0.340905,0.40380347,-0.27624926,0.2712469,0.34737837,0.3292945,0.30584288,-0.3530779,0.3073126,-0.39588332
moutarde,0.44298,0.40442002,-0.38634405,-0.39829126,0.44638932,-0.35453248,0.32457,0.33550128,0.40677267,0.3746233,0.33127668,0.3475297,-0.33629346,0.3333515,0.3066281,0.34360617,0.3381845,-0.3875624,0.3141756,-0.27865157
orchidée,0.41989386,0.3239501,-0.39657027,-0.32422572,0.23601222,-0.3098734,0.29193124,0.290379,0.3467147,0.3156161,0.3570717,0.29806572,-0.31285417,0.31466836,0.2740416,0.39078224,0.41208744,-0.38855892,0.3184861,-0.34962612
fruitdelapassion,0.28655308,0.27177972,-0.3286291,-0.41250506,0.3442936,-0.40702343,0.39253694,0.29916662,0.39611334,0.36187282,0.27646828,0.409908,-0.3487527,0.38564456,0.35141155,0.36911595,0.38061368,-0.39795133,0.3423461,-0.35661697
magnolia,0.31587297,0.3193292,-0.29762074,-0.2969063,0.3931965,-0.36429414,0.38333362,0.4300794,0.43457153,0.34807676,0.40565234,0.29982197,-0.37171555,0.412857,0.38510153,0.37745178,0.4100886,-0.32791266,0.33255273,-0.39450485
mimosa,0.22301942,0.25450101,-0.29465967,-0.26406315,0.28123736,-0.26460606,0.29516524,0.25092098,0.26659653,0.3275766,0.23062068,0.28863207,-0.29411292,0.19954443,0.257453,0.2561682,0.19189319,-0.24994265,0.29737604,-0.28451067
graisseanimale,0.37091458,0.30937344,-0.31108648,-0.35743123,0.31479388,-0.33673036,0.24694133,0.3026592,0.283638,0.3541351,0.36423376,0.32969537,-0.3054044,0.32358405,0.3002659,0.35468167,0.300843,-0.28546575,0.27059183,-0.35154885
lilas,0.30140245,0.28861862,-0.28023612,-0.25365615,0.28826696,-0.27554828,0.26044944,0.3270213,0.28864363,0.28826797,0.2771137,0.32623893,-0.32471693,0.35138726,0.3275903,0.33421034,0.34467852,-0.21127492,0.31662387,-0.2715557
graisse,0.39171082,0.30783314,-0.3882677,-0.37130272,0.44722152,-0.35905385,0.40137345,0.41048574,0.4192973,0.3709236,0.4329269,0.41720992,-0.37347594,0.40840846,0.37836093,0.44414943,0.44624066,-0.31366932,0.29369614,-0.30944282
malté,0.27772376,0.2758019,-0.25495124,-0.26548058,0.23470789,-0.2847343,0.28207076,0.30223805,0.26879102,0.36774975,0.2787145,0.20669857,-0.3260876,0.17696749,0.3037339,0.21964684,0.27939856,-0.3460787,0.32514602,-0.27660832
bois,0.30997965,0.3482935,-0.40636826,-0.32891187,0.25223765,-0.4040032,0.3363008,0.32830542,0.27473226,0.3214915,0.40923506,0.34363985,-0.3939414,0.3775751,0.4446274,0.3796975,0.3587547,-0.33556813,0.40476632,-0.39032906
noisettetorréfiée,0.35836294,0.3802172,-0.40721515,-0.37461013,0.37260902,-0.41040996,0.41189504,0.40172547,0.38000643,0.3822503,0.40315896,0.31863457,-0.39209393,0.41467452,0.3203944,0.30031228,0.42812103,-0.39613086,0.3190961,-0.3724203
menthepoivrée,0.35753518,0.5034793,-0.3439249,-0.35377425,0.44275537,-0.35070914,0.3984276,0.42286593,0.39032766,0.43896565,0.3422637,0.3655995,-0.43443286,0.41369328,0.44880688,0.39111322,0.3691474,-0.504329,0.42897883,-0.40013042
poivron,0.29221505,0.20606291,-0.32460198,-0.24889293,0.37659168,-0.3235457,0.34605238,0.35991377,0.34635547,0.27803266,0.3725701,0.34767506,-0.31947985,0.26516986,0.23238996,0.33636764,0.24536607,-0.31106377,0.26916495,-0.23370905
amandeamère,0.3224854,0.30238783,-0.30912113,-0.38191375,0.2806177,-0.33122742,0.30879223,0.34600008,0.32498837,0.3057714,0.24947456,0.3150146,-0.3790456,0.30117372,0.34302446,0.3597635,0.3148442,-0.32303676,0.30138558,-0.26927656
ambrette,0.3395543,0.26945984,-0.26472858,-0.22497377,0.30909503,-0.33970287,0.24092305,0.31119877,0.2319265,0.3018075,0.21626586,0.25087732,-0.25277042,0.2571615,0.26941657,0.22598177,0.30088818,-0.2871447,0.25265032,-0.3279392
maïs,0.38194013,0.3588428,-0.35345608,-0.43486527,0.34648165,-0.39015228,0.3921237,0.38491324,0.32624096,0.35863286,0.38068968,0.39457595,-0.40857565,0.36590344,0.35625434,0.3862835,0.33859926,-0.33231205,0.41751352,-0.41866595
whisky,0.17654648,0.17496587,-0.16649547,-0.20290384,0.20315993,-0.17510171,0.18062395,0.20279473,0.16374397,0.24677391,0.14860007,0.18964188,-0.14050922,0.1468622,0.11420104,0.1975519,0.15311395,-0.24322318,0.14907296,-0.15995505
friture,0.39712182,0.2806903,-0.3290108,-0.39474964,0.31700334,-0.44228917,0.3057109,0.30523282,0.34886625,0.35002953,0.35912,0.3506896,-0.40163893,0.4527637,0.37688428,0.45199382,0.35068387,-0.25418764,0.3693023,-0.344117
gingembre,0.34376973,0.3592443,-0.28827012,-0.24780221,0.2582003,-0.36451945,0.35180187,0.23755291,0.35009027,0.38106072,0.2741881,0.2958076,-0.3218491,0.32087314,0.37476045,0.33466113,0.327759,-0.40111873,0.3862698,-0.3286776
rance,0.2782436,0.21814728,-0.2746362,-0.33350506,0.34213048,-0.3005264,0.24520151,0.27798176,0.25958264,0.33494118,0.3709985,0.27451557,-0.3049564,0.2392402,0.26477674,0.29695404,0.3280114,-0.2633239,0.3043629,-0.2985599
brandy,0.2594976,0.28931117,-0.1375649,-0.22491214,0.27066565,-0.22723985,0.25116485,0.21594468,0.30046958,0.2328818,0.20422299,0.27152538,-0.28499344,0.27686864,0.2486761,0.33583158,0.26289144,-0.22816055,0.35934335,-0.27147132
oignoncuit,0.37512305,0.47791034,-0.45802754,-0.40329596,0.39186272,-0.38674206,0.3909688,0.32394576,0.42476922,0.37124586,0.33133882,0.4316014,-0.3924421,0.4061442,0.34325165,0.39252397,0.33048236,-0.3845273,0.32463944,-0.40119657
cassis,0.26849115,0.3078701,-0.24366668,-0.39161554,0.28075075,-0.31668144,0.3279548,0.32394114,0.30345848,0.30425078,0.23870839,0.2849425,-0.23878543,0.3757764,0.23500648,0.30992937,0.22924006,-0.3414811,0.23973104,-0.2474645
thym,0.18174125,0.15264554,-0.22634107,-0.22859846,0.21508303,-0.28237486,0.2050387,0.2341381,0.28534055,0.17700854,0.18949571,0.27640992,-0.25252253,0.19772787,0.18817641,0.23478627,0.22694215,-0.24443138,0.14270727,-0.15985058
fleurdetroëne,0.29630825,0.28695956,-0.22203526,-0.3168912,0.32831964,-0.25795642,0.31030428,0.21021912,0.32379615,0.3309385,0.25603557,0.21227759,-0.2784665,0.20728937,0.19850007,0.3269227,0.34026212,-0.22806546,0.2893218,-0.3183561
noixdemuscade,0.34964848,0.3540181,-0.37330884,-0.28087372,0.35300916,-0.3830149,0.30097306,0.3658275,0.31355625,0.3378992,0.32228607,0.38753426,-0.32998767,0.26314044,0.3212109,0.3561409,0.35251117,-0.28724715,0.3845616,-0.4048859
carvi,0.23925894,0.28177673,-0.25622603,-0.3511358,0.27233237,-0.25070566,0.24286139,0.30152398,0.32233256,0.33542886,0.2870721,0.29558986,-0.3156767,0.28101853,0.31591415,0.2557191,0.28726318,-0.2798565,0.26760513,-0.2441859
buchu,0.3012417,0.2222897,-0.24981755,-0.29424843,0.2458775,-0.22016183,0.28131443,0.327881,0.2098448,0.2014747,0.22821721,0.2346928,-0.29180145,0.265142,0.28925052,0.20223457,0.27128932,-0.24225211,0.22539803,-0.32959577
rhubarbe,0.23215932,0.185063,-0.2568065,-0.25249696,0.25609076,-0.23216327,0.24564391,0.26450214,0.24259308,0.266019,0.23068774,0.22765866,-0.32212186,0.23875439,0.1987206,0.22819433,0.25530785,-0.21373855,0.20397213,-0.27377552
tubéreuse,0.20424104,0.21064007,-0.20136055,-0.25167835,0.27763727,-0.20615092,0.21760625,0.18118083,0.21327534,0.23218717,0.16174923,0.3092258,-0.26675108,0.1728211,0.2622139,0.15469761,0.29298195,-0.19063717,0.24494672,-0.31539512
gaz,0.22703516,0.25355643,-0.25974107,-0.29323187,0.22867924,-0.289693,0.32100248,0.17029583,0.2655813,0.30044067,0.27723435,0.22756916,-0.283847,0.2621798,0.22404265,0.30565006,0.25821573,-0.28828898,0.2557727,-0.22073817
noix,0.221347,0.24592268,-0.17294471,-0.21687129,0.21982197,-0.2583092,0.2891496,0.3234411,0.30230552,0.18407014,0.25881824,0.19234684,-0.21511391,0.16230898,0.21195242,0.24908558,0.25363827,-0.24252406,0.20382851,-0.29382604
humus,0.24907586,0.2662639,-0.1795227,-0.21389295,0.20872822,-0.24471882,0.2899869,0.21943417,0.1563836,0.19899032,0.3175375,0.3284953,-0.33075055,0.22319594,0.17855653,0.22098875,0.17824183,-0.25141475,0.2340464,-0.19298595
mûre,0.27821213,0.26661402,-0.27175534,-0.2464557,0.3475915,-0.19198695,0.19788708,0.2952545,0.30925086,0.2410415,0.18830225,0.2488283,-0.29144987,0.20858088,0.2928557,0.24782644,0.21968338,-0.21691087,0.21505949,-0.2719444
héliotrope,0.39821488,0.3861158,-0.27761143,-0.38335735,0.30096763,-0.3326667,0.3840211,0.32135475,0.30551803,0.34972572,0.3186261,0.35357606,-0.31521893,0.38797715,0.3059833,0.40752304,0.34874952,-0.37091675,0.36738235,-0.43094188
styrax,0.21112412,0.28850546,-0.22351284,-0.24833679,0.20233652,-0.2385452,0.19499926,0.20968592,0.21392328,0.18572628,0.17059319,0.24029976,-0.28665364,0.25952074,0.26428,0.14311117,0.22992004,-0.25460407,0.21900216,-0.26303944
pastèque,0.36686686,0.34446868,-0.26432082,-0.32386664,0.3565564,-0.36050388,0.36605233,0.3284373,0.31405267,0.3636369,0.39948317,0.32400745,-0.3413704,0.3367263,0.33994874,0.3880138,0.41574797,-0.36934137,0.26470482,-0.37110487
bacon,0.3131196,0.33462954,-0.31510556,-0.33176398,0.30120444,-0.2506548,0.31130016,0.3135494,0.29419094,0.2755939,0.2550616,0.3909999,-0.30929703,0.27871174,0.30493277,0.37615907,0.2668637,-0.2778257,0.32038862,-0.296103
algue,0.22502351,0.24610685,-0.2801177,-0.24378428,0.22400704,-0.31312987,0.24673791,0.26522037,0.21603929,0.19536904,0.22437857,0.29537833,-0.32934666,0.18053102,0.18290813,0.19289967,0.3027409,-0.23321137,0.3026341,-0.2156091
safran,0.17391026,0.14680658,-0.22880979,-0.23263071,0.17601837,-0.16603543,0.1788351,0.13019162,0.09635859,0.17364854,0.17503287,0.20274836,-0.10816234,0.112347186,0.17946622,0.21855426,0.17812191,-0.091522254,0.19627586,-0.1839532
sucrebrûlé,0.19411975,0.15718071,-0.2328,-0.20886879,0.2094664,-0.14182512,0.22649147,0.11243104,0.14787914,0.1822183,0.19867508,0.22535253,-0.1535643,0.16374403,0.19890216,0.16668802,0.09092562,-0.19853549,0.17272523,-0.11472838
bière,0.3193325,0.22952966,-0.29043972,-0.3634309,0.28136227,-0.24511993,0.29025847,0.33206162,0.25360018,0.35902882,0.28567165,0.2450569,-0.30061188,0.31757826,0.3161289,0.25728503,0.3446041,-0.26997966,0.25672945,-0.34470987
fécal,0.24144256,0.34289128,-0.34303802,-0.35594803,0.3555929,-0.26220948,0.3565749,0.31535345,0.26178774,0.29594064,0.25795853,0.32096988,-0.3236106,0.31730637,0.31741005,0.3619595,0.24448965,-0.24142635,0.29858744,-0.3208947
asperge,0.20164368,0.29529715,-0.25735766,-0.21318448,0.21605432,-0.3429163,0.22357246,0.27215883,0.25758123,0.24534433,0.25320935,0.25885376,-0.25063255,0.29734775,0.19649607,0.30948424,0.30028078,-0.29466653,0.23524466,-0.3075511
chrysanthème,0.16724616,0.1916089,-0.25501472,-0.20278895,0.15313365,-0.24247694,0.19321062,0.2543447,0.18387175,0.19834647,0.26485735,0.23051946,-0.21091083,0.12491688,0.22289623,0.19487484,0.22686884,-0.18020147,0.22554275,-0.17415127
graissedepoulet,0.45155674,0.3406481,-0.4008845,-0.47488904,0.34154376,-0.48501697,0.3562273,0.33794597,0.4097123,0.3634812,0.39010864,0.47016346,-0.43331343,0.47706056,0.43731326,0.36916053,0.38758945,-0.31978744,0.46581432,-0.411155
caramelaubeurre,0.36329538,0.2407107,-0.2627962,-0.31773597,0.3885757,-0.330899,0.37641206,0.39145166,0.38265288,0.36443222,0.20339234,0.299656,-0.2987855,0.2709969,0.33292872,0.3266138,0.32719907,-0.32137918,0.3217367,-0.3347718
genévrier,0.32798082,0.2759142,-0.2788757,-0.30283046,0.27609992,-0.29472494,0.32535988,0.23917538,0.32701552,0.27515972,0.29103297,0.2976421,-0.33846653,0.26506078,0.32005286,0.30121648,0.22582364,-0.23988247,0.26572946,-0.30915615
saindoux,0.30070037,0.3287223,-0.40138054,-0.3221131,0.3502051,-0.30816203,0.33472493,0.31626785,0.35994422,0.3379259,0.36383718,0.37402475,-0.3955416,0.38117695,0.35787547,0.24779785,0.32612032,-0.33434203,0.38219857,-0.3225501
myrrhe,0.23828283,0.27184296,-0.26391524,-0.22121412,0.25444347,-0.19112615,0.21368426,0.26090518,0.21805221,0.2517454,0.23286134,0.26709834,-0.28072888,0.16556264,0.23872195,0.23833916,0.27313477,-0.20893943,0.16824694,-0.28454039
kiwi,0.26381654,0.2870182,-0.22161607,-0.27623662,0.2780491,-0.2522391,0.30344188,0.2954992,0.31135303,0.278517,0.32140088,0.25950456,-0.22317499,0.29081294,0.26975822,0.29825848,0.32492632,-0.29692268,0.29808146,-0.2717426
goyave,0.30062324,0.25934923,-0.27251747,-0.29747957,0.2429666,-0.27516758,0.2935008,0.29576212,0.3019985,0.2266966,0.19598764,0.27815837,-0.17075005,0.35023534,0.22193259,0.361036,0.23200616,-0.27519608,0.35113645,-0.28818786
estragon,0.31400576,0.22686136,-0.2774629,-0.23971382,0.2714274,-0.231773,0.2815966,0.38973653,0.3015359,0.25722092,0.28053373,0.2900173,-0.28499714,0.32447493,0.27740115,0.2702421,0.3327209,-0.28844452,0.33517855,-0.2970843
carotte,0.28393143,0.27232593,-0.26616418,-0.21811196,0.26700976,-0.2381736,0.2615751,0.22621286,0.22719699,0.28302497,0.24234706,0.23852998,-0.29883343,0.16284706,0.20160769,0.2460689,0.15589258,-0.24552286,0.15677726,-0.24290133
bananeverte,0.26772237,0.3373037,-0.212087,-0.3036137,0.22873536,-0.23772416,0.2815052,0.25938147,0.32809347,0.28264424,0.27006912,0.2153987,-0.353904,0.23107383,0.18210554,0.26276514,0.20651281,-0.34062636,0.26140353,-0.32938203
céréale,0.25967643,0.15273415,-0.25037575,-0.16290352,0.19508472,-0.2002722,0.21609955,0.1960665,0.26893088,0.19185069,0.22874764,0.20183755,-0.14227772,0.18999232,0.21004733,0.13253284,0.21227846,-0.11156386,0.24968308,-0.26798385
pivoine,0.19439074,0.19884343,-0.26563022,-0.29858467,0.21507491,-0.25946918,0.15779473,0.20817506,0.27882075,0.28670526,0.1942432,0.26776946,-0.26162428,0.21100953,0.2044206,0.19665211,0.2036368,-0.1659069,0.24816334,-0.17453435
bœufcuit,0.3630513,0.27165377,-0.31002235,-0.30326086,0.2590201,-0.3016995,0.21462454,0.26020306,0.24283747,0.21926081,0.22403382,0.27036545,-0.33211163,0.17242843,0.21539381,0.28625348,0.31355858,-0.27160805,0.19996557,-0.25814253
grain,0.33462203,0.2502241,-0.30830097,-0.2651841,0.24085703,-0.3084814,0.295183,0.38427913,0.36406147,0.36976963,0.28556654,0.38469613,-0.2441786,0.24096659,0.3003111,0.3545674,0.30391636,-0.2799157,0.32388663,-0.31512678
livèche,0.37997612,0.27690154,-0.2766869,-0.39916635,0.25138882,-0.23983514,0.314803,0.34274024,0.33382034,0.3317168,0.29615295,0.3368129,-0.28444096,0.3660851,0.21960485,0.35895088,0.27225953,-0.27617595,0.28311235,-0.37032747
poivrenoir,0.24746978,0.19333102,-0.25233176,-0.17303547,0.13832954,-0.23717153,0.23161663,0.22825488,0.2417059,0.27116826,0.2619027,0.2461273,-0.14025727,0.28413007,0.27773663,0.19689476,0.29815155,-0.2792978,0.27500778,-0.24856457
chèvrefeuille,0.26293924,0.2680428,-0.2998451,-0.25143665,0.30105025,-0.36763322,0.22123486,0.36512774,0.26040003,0.29812372,0.25982043,0.29858017,-0.24829206,0.32837102,0.25047508,0.2837395,0.26495847,-0.20150688,0.26375392,-0.21925247
cardamome,0.22940609,0.21735004,-0.23075682,-0.15524456,0.12475933,-0.216611,0.20720474,0.18750384,0.27791047,0.31800264,0.2002891,0.19121093,-0.19341181,0.20296054,0.1908882,0.21555007,0.20298807,-0.1936581,0.2500382,-0.22097501
pommedeterrecuite,0.2509352,0.24014571,-0.25474343,-0.32953322,0.18604203,-0.31956667,0.23205987,0.18451598,0.22895142,0.21903291,0.31461135,0.18881127,-0.26969296,0.18859306,0.27127296,0.20991525,0.2547269,-0.17734936,0.3064617,-0.25873148
fenugrec,0.23848182,0.30263364,-0.27232826,-0.27580756,0.3853806,-0.28702444,0.2745151,0.30134952,0.3090136,0.3094649,0.25613138,0.2739188,-0.24792972,0.29316205,0.2721313,0.25991538,0.24048647,-0.2853797,0.28464472,-0.311261
eaudecologne,0.22339329,0.22980787,-0.30509418,-0.2443636,0.3023153,-0.24645466,0.18742348,0.3204164,0.28526688,0.2277402,0.18341093,0.29641566,-0.17609939,0.27033648,0.23671374,0.26266623,0.24699865,-0.26083878,0.28733224,-0.26798862
artichaut,0.2324705,0.21980418,-0.1954698,-0.20001134,0.2586276,-0.17205524,0.22422267,0.23778531,0.19288182,0.22431529,0.17008446,0.19444028,-0.17528284,0.24698375,0.25757533,0.23720583,0.1966558,-0.23795334,0.2095771,-0.21541448
fleurdacacia,0.26609784,0.2250638,-0.18373765,-0.27858528,0.23454934,-0.22651288,0.26139382,0.24121153,0.19307059,0.27374983,0.21326528,0.32052106,-0.25393856,0.2717142,0.22894742,0.20857602,0.23146017,-0.24567837,0.31455076,-0.24075168
sciure,0.17243984,0.24549206,-0.15982725,-0.2786706,0.20502494,-0.24142036,0.20141536,0.18202624,0.22082904,0.28964666,0.20298396,0.26206198,-0.18745375,0.20451292,0.27904624,0.22547778,0.20009175,-0.14519987,0.2405843,-0.26302844
papaye,0.27689987,0.31196567,-0.21345213,-0.27955556,0.21109885,-0.18772864,0.29025316,0.29402214,0.22373138,0.2672751,0.2001039,0.3125997,-0.2812608,0.23921105,0.31448996,0.22567508,0.3170187,-0.2804055,0.21775088,-0.24877861
wasabi,0.1769483,0.11245161,-0.20123668,-0.1167424,0.19660538,-0.15449831,0.19478118,0.15635425,0.15563509,0.089047,0.19563371,0.20182483,-0.18295363,0.13873875,0.14279024,0.09689089,0.1283135,-0.17183404,0.21220478,-0.1344443
fruitdemer,0.21774039,0.22828397,-0.2379682,-0.21879244,0.24644959,-0.19666491,0.28715414,0.212587,0.24955365,0.30561006,0.27509856,0.17893147,-0.27472347,0.2567963,0.21409112,0.25589702,0.22560927,-0.22882906,0.17986056,-0.23776445
trèfle,0.2474347,0.19681448,-0.19405572,-0.1779181,0.21624374,-0.18192571,0.24861458,0.15787435,0.16710718,0.18070486,0.18449037,0.22986762,-0.17562422,0.19518098,0.22586322,0.22289279,0.23872933,-0.15150273,0.15475103,-0.24427678
feuilledetomate,0.14983666,0.1777056,-0.25871074,-0.20915207,0.22562958,-0.19380875,0.28884834,0.20799914,0.25136566,0.12994999,0.1437475,0.1854335,-0.18935814,0.19203886,0.15709084,0.19326432,0.22150764,-0.2569589,0.17789716,-0.14673403
aneth,0.12991485,0.17047499,-0.21770304,-0.25545913,0.14386526,-0.22184935,0.23012456,0.26887447,0.23471907,0.24739952,0.28309962,0.21314242,-0.3058568,0.2539295,0.19587907,0.15885496,0.20012915,-0.24065004,0.23241404,-0.13791376
porccuit,0.31071204,0.26971734,-0.2921161,-0.30527464,0.26559687,-0.34162796,0.26293206,0.30248505,0.31637913,0.28880578,0.30879545,0.31848967,-0.38406664,0.2861564,0.31498343,0.2742386,0.234941,-0.26157346,0.2648838,-0.20491356
acrylate,0.28331986,0.25321543,-0.20304547,-0.20631024,0.20416486,-0.15861723,0.13497747,0.16237146,0.22532457,0.20730056,0.20505413,0.19993542,-0.15337045,0.20475915,0.17439508,0.2121566,0.16272342,-0.18890247,0.1551422,-0.16740465
castoréum,0.28086227,0.25449204,-0.22063723,-0.23316003,0.19878824,-0.16595873,0.2835798,0.23361373,0.26962718,0.18676704,0.17737463,0.25654984,-0.15651807,0.15028206,0.19710812,0.13639498,0.23554471,-0.22460768,0.23709026,-0.20234522
civette,0.28025833,0.2567006,-0.18784353,-0.23137718,0.16361675,-0.2488412,0.22458276,0.28840816,0.17141065,0.24928033,0.15028322,0.3422591,-0.20074259,0.22333878,0.19565162,0.2531091,0.24352711,-0.20556521,0.2156939,-0.31774014
mélasse,0.16553017,0.175403,-0.20337105,-0.14044799,0.10342623,-0.12395541,0.13120914,0.16525774,0.11811291,0.1861346,0.1466608,0.12219209,-0.2006541,0.13754897,0.14561245,0.18143988,0.18659192,-0.22269008,0.17996757,-0.2226279
absinthe,0.110808514,0.1979271,-0.16990992,-0.15951383,0.1077889,-0.1157148,0.14149772,0.14530583,0.07480593,0.1945637,0.06828606,0.12984005,-0.11810498,0.10221892,0.14258662,0.18033648,0.07763454,-0.13052237,0.20539922,-0.114315785
haricotvert,0.22371522,0.30683923,-0.1815781,-0.2457479,0.21165547,-0.29748958,0.23402172,0.23343441,0.22651336,0.21479177,0.1590825,0.20803626,-0.1646728,0.27919912,0.2726376,0.29655606,0.30510002,-0.18085143,0.20582455,-0.27181217
barbeàpapa,0.31399563,0.2626552,-0.28716436,-0.25980258,0.34302008,-0.3684008,0.2750421,0.23506233,0.3606831,0.23999225,0.31338814,0.3306139,-0.31185126,0.33257937,0.29245737,0.35613853,0.27264503,-0.2334297,0.23930024,-0.31846353
chèvre,0.22255251,0.14829086,-0.22731788,-0.112101465,0.23042607,-0.24811144,0.20089209,0.15121853,0.18025953,0.21758705,0.2732688,0.15844874,-0.18717134,0.1795063,0.15419516,0.19581768,0.21002683,-0.23730493,0.20182003,-0.23681906
bouillondelégumes,0.1355681,0.17822872,-0.18027835,-0.15548663,0.1178382,-0.18249485,0.18031804,0.1976434,0.20304963,0.21133676,0.14595753,0.13048974,-0.16155513,0.19537653,0.17307732,0.18940414,0.18249708,-0.23153499,0.18827432,-0.19591081
ciste,0.10789946,0.10173236,-0.19271699,-0.16389872,0.15131459,-0.13302395,0.22104171,0.15668383,0.11348846,0.19513325,0.16844003,0.20197314,-0.20796245,0.11435494,0.117041245,0.2335906,0.15335886,-0.12716863,0.17060517,-0.17481568
tagete,0.22231135,0.30880243,-0.27221248,-0.26971534,0.25991938,-0.15418893,0.2450225,0.17484364,0.18575302,0.23169541,0.3104362,0.20740756,-0.21816191,0.21201593,0.23494086,0.3289976,0.20626745,-0.17021695,0.2841688,-0.15876417
cerfeuil,0.26627576,0.20838733,-0.21634921,-0.20516473,0.25091144,-0.25358012,0.31657946,0.19826365,0.3108009,0.21206339,0.28744796,0.25816572,-0.21435896,0.33050537,0.2387965,0.24692807,0.25056085,-0.18077521,0.27513516,-0.2426056
essence,0.23062167,0.13906896,-0.21935548,-0.13161188,0.13711163,-0.1718154,0.16647445,0.12642564,0.20379427,0.20479739,0.19193919,0.23064952,-0.15142563,0.11649411,0.12605163,0.17831157,0.16177014,-0.17208719,0.17384073,-0.15314877
poireau,0.3173695,0.24610639,-0.28068024,-0.26444182,0.2952382,-0.20828441,0.24140823,0.20480724,0.19489555,0.20544699,0.26986265,0.25803214,-0.20953214,0.24245892,0.119827166,0.21926352,0.28234404,-0.30955592,0.28245196,-0.2366971
cyclamen,0.10854941,0.13023883,-0.08062061,-0.13669129,0.15158033,-0.10389858,0.16985822,0.20305012,0.18428692,0.16962427,0.12052669,0.2274507,-0.08246154,0.17689174,0.10453518,0.08449807,0.1454961,-0.12968573,0.069781974,-0.0743963
persil,0.2075434,0.29883617,-0.19153953,-0.15456703,0.20460236,-0.23717052,0.18996117,0.20408124,0.2395026,0.18370762,0.20950565,0.27013952,-0.22048551,0.20533568,0.19461483,0.17451018,0.3012368,-0.222707,0.21100351,-0.22756606
acétique,0.10215297,0.14115258,-0.22450393,-0.286923,0.24493343,-0.16975749,0.21203694,0.21622655,0.19648519,0.1958181,0.14111434,0.1860905,-0.18815044,0.15912336,0.19186765,0.15242386,0.10853557,-0.22342508,0.19969869,-0.19732356
saladeverte,0.10584805,0.21625927,-0.12450294,-0.090719126,0.1200279,-0.07966792,0.1374022,0.08112862,0.18790993,0.17305847,0.110715985,0.17664893,-0.1903832,0.18266794,0.095288664,0.062119,0.18335085,-0.13395314,0.1716908,-0.096817315
peinture,0.17928241,0.20103219,-0.26450333,-0.287836,0.17801443,-0.23798686,0.14602742,0.16189364,0.20365334,0.19065692,0.14234206,0.24304034,-0.21102384,0.23527607,0.27120692,0.27677318,0.13143116,-0.1786272,0.14676377,-0.16665691
carvone,0.20317833,0.16432385,-0.18516903,-0.24448754,0.22582729,-0.2681669,0.15823174,0.1745454,0.23485747,0.27160397,0.23083119,0.17041674,-0.23476073,0.2717502,0.2657575,0.2149685,0.26215777,-0.24541453,0.25939238,-0.1602284
truffe,0.039878085,0.04159528,-0.08972095,-0.118528806,0.09349465,-0.11181711,0.19543312,0.18144684,0.1887958,0.10308324,0.0480358,0.080229364,-0.122232266,0.047531415,0.106144555,0.10905501,0.16914037,-0.04777093,0.16343196,-0.15030779
freesia,0.16413635,0.16197401,-0.17930192,-0.24355938,0.24579588,-0.10659349,0.14456888,0.1882988,0.10771647,0.09432666,0.14645219,0.21744694,-0.10655852,0.13736628,0.16344449,0.2218791,0.18115284,-0.21766758,0.16114964,-0.11272971
graintorréfié,0.28944594,0.17415035,-0.3064042,-0.2585173,0.22653082,-0.16474211,0.18283615,0.1914278,0.23908886,0.23658824,0.22556892,0.22837797,-0.2817263,0.27784756,0.24071515,0.20769548,0.28607118,-0.2122808,0.2725998,-0.2134924
costarde,0.13638264,0.17414528,-0.16699094,-0.07946096,0.096027225,-0.1561975,0.10996357,0.12189682,0.1853028,0.15778932,0.15337999,0.19203356,-0.17095858,0.14744371,0.14884742,0.2010074,0.16770016,-0.12632334,0.15844071,-0.15290675
figue,0.19432847,0.1629697,-0.13383102,-0.21175212,0.20010896,-0.18073872,0.16235657,0.2223768,0.1523351,0.20623207,0.1488076,0.15556163,-0.15848956,0.20621112,0.17814262,0.16809617,0.16429606,-0.22620782,0.12670021,-0.22358546
boisbrûlé,0.27496582,0.17505476,-0.2890095,-0.23983663,0.1836852,-0.24076091,0.28018427,0.21089482,0.245698,0.17564592,0.2871043,0.19093579,-0.20807318,0.15039259,0.21078786,0.26464558,0.21780491,-0.23698425,0.19938684,-0.2704459
jambon,0.22305298,0.20347875,-0.17574587,-0.25273058,0.18791717,-0.24251229,0.1884636,0.17474402,0.1488342,0.17487648,0.23877317,0.22519827,-0.18963039,0.18089837,0.25116503,0.21993294,0.21633929,-0.227806,0.175753,-0.1635717
térébenthine,0.24894804,0.1446863,-0.20183665,-0.19612265,0.1586917,-0.18184209,0.19717453,0.24532084,0.19149205,0.17882195,0.14936501,0.22210762,-0.16193786,0.1523752,0.23603562,0.2717917,0.19587608,-0.2738387,0.21892017,-0.17176759
noixdecajou,0.10608258,0.09180216,-0.1573191,-0.18163854,0.17519721,-0.17153305,0.14097145,0.15756251,0.26050466,0.2095224,0.16996342,0.19000638,-0.24419916,0.17028755,0.15766624,0.13349599,0.14514634,-0.15469366,0.102684125,-0.17284925
menthe,0.18552852,0.2254675,-0.2365737,-0.18462974,0.23543778,-0.18379176,0.22660077,0.16078632,0.20997387,0.17242971,0.1658377,0.14480397,-0.18817185,0.1358799,0.12730516,0.1814653,0.20600545,-0.15603016,0.15651616,-0.19836688
agneau,0.19516273,0.29414704,-0.23977664,-0.20003888,0.31478673,-0.2654149,0.2308869,0.29153624,0.16560121,0.23285726,0.23225024,0.24204952,-0.2475439,0.23964985,0.1715746,0.25028974,0.22863477,-0.2707374,0.23478773,-0.20897456
croûtedepain,0.17956983,0.23963067,-0.22675593,-0.15337041,0.20179573,-0.15362322,0.16852894,0.13504969,0.101236805,0.15700683,0.07003872,0.21164107,-0.07850355,0.122742444,0.17749776,0.19569314,0.15515356,-0.17999968,0.13164563,-0.17111629
galanga,0.16276315,0.1977171,-0.1501759,-0.21378201,0.10615149,-0.11184235,0.12050102,0.17480949,0.112514056,0.18471023,0.197516,0.15966545,-0.17965525,0.14361013,0.18906987,0.13450007,0.22744909,-0.16438866,0.20524484,-0.10186917
canneberge,0.13505086,0.12324445,-0.11641975,-0.17331436,0.12823376,-0.12017096,0.22040257,0.19582659,0.1415589,0.1852854,0.12841791,0.08037218,-0.147214,0.13607214,0.06917546,0.08585061,0.17498676,-0.15406063,0.17636308,-0.22194637
réséda,0.15607336,0.20057838,-0.13867378,-0.1546828,0.105651855,-0.11231999,0.0599276,0.21801636,0.04086959,0.09992324,0.09630441,0.061155245,-0.067350805,0.08982058,0.08572532,0.18521553,0.13176923,-0.09118845,0.13981214,-0.16819558
sang,0.07771501,0.15362018,-0.07577025,-0.14003474,0.12964576,-0.123238385,0.13553758,0.056645006,0.16007286,0.13420036,0.17304671,0.050247617,-0.11175212,0.078288004,0.0746921,0.032681286,0.1839574,-0.1277601,0.1511876,-0.112245545
immortelle,0.09089742,0.09850106,-0.12978189,-0.11383517,0.15242411,-0.17318302,0.14364079,0.08724585,0.055825956,0.14006412,0.10232786,0.15732434,-0.15914801,0.11179595,0.15286317,0.20391175,0.15269879,-0.22354648,0.15670016,-0.09757008
forêt,0.20332497,0.17157777,-0.17640468,-0.17136183,0.09119291,-0.1385591,0.16039191,0.21237588,0.17798597,0.14265426,0.15732619,0.2127175,-0.15428962,0.1727848,0.089169815,0.13475421,0.12790057,-0.2181556,0.19072168,-0.15847799
cyprès,0.16162041,0.1507569,-0.2010622,-0.114817046,0.0546183,-0.1373365,0.11767723,0.06634539,0.19334689,0.22705002,0.16154023,0.16605711,-0.21016452,0.07214922,0.18252888,0.19145389,0.15563586,-0.16528688,0.20512614,-0.22298175
boronia,0.19103482,0.16246215,-0.15763023,-0.15847133,0.19821101,-0.08495015,0.25037003,0.12940045,0.14901273,0.1850289,0.13793951,0.12517026,-0.18817993,0.1364736,0.16095297,0.09042594,0.19352776,-0.19964619,0.15128718,-0.1316351
marjolaine,0.13730128,0.18440919,-0.1368218,-0.09428057,0.14534098,-0.18978153,0.14045596,0.09163602,0.11455539,0.14628395,0.07213996,0.20452762,-0.11336269,0.088108204,0.16920888,0.09631702,0.17518042,-0.12861256,0.11597094,-0.19595587
cidre,0.17656898,0.13914223,-0.20623913,-0.12849751,0.09210949,-0.20608,0.16510592,0.21136677,0.19762132,0.13455567,0.09169652,0.2584843,-0.11187588,0.09738729,0.19011827,0.22765262,0.18577833,-0.20360902,0.17486812,-0.23088467
acétone,0.14368245,0.09052575,-0.15224987,-0.08277944,0.12941882,-0.10781235,0.096762836,0.049969565,0.077735744,0.09609791,0.024562754,0.061819784,-0.122459665,0.075398326,0.10857119,0.052983347,0.13337907,-0.11674091,0.1414679,-0.14431065
palourde,0.16083485,0.15841949,-0.21831188,-0.24764948,0.18512368,-0.12836526,0.2443329,0.18681315,0.21899298,0.25755236,0.21854278,0.18860711,-0.1147175,0.13818577,0.11481552,0.18048394,0.21762243,-0.16054423,0.17773356,-0.19584194
chocolatnoir,0.27239183,0.15058847,-0.1748742,-0.24130471,0.23222575,-0.1595318,0.1971616,0.2428318,0.2031569,0.20894192,0.20595634,0.21502744,-0.16459756,0.14376822,0.1978243,0.20121408,0.16066131,-0.23268467,0.139379,-0.17364305
cresson,0.08678819,0.13170782,-0.18347272,-0.13688456,0.19159204,-0.15156898,0.13580145,0.1909462,0.17493577,0.18291539,0.090647444,0.08909474,-0.17994231,0.11557838,0.122137934,0.13118717,0.17809467,-0.118562765,0.10978061,-0.09617304
groseille,0.13752547,0.087127194,-0.078035496,-0.14468226,0.113239676,-0.1697039,0.16061933,0.124367595,0.1071384,0.19094843,0.06700523,0.09890134,-0.17647076,0.10177006,0.13775718,0.061872005,0.1870566,-0.13811609,0.10334279,-0.12974721
verveine,0.08407614,0.13194306,-0.132938,-0.1239406,0.16047114,-0.043916143,0.027703064,0.11548537,0.043003827,0.13701215,0.076695874,0.03130248,-0.11168559,0.089311644,0.122901544,0.0067066737,0.06565008,-0.028328389,0.015695747,-0.073090784
fromagebleu,0.12993425,0.104283914,-0.15801689,-0.11212538,0.15245521,-0.14535165,0.07616457,0.18302485,0.24418914,0.15980837,0.09249148,0.13210657,-0.14986293,0.17218626,0.13793975,0.08055474,0.2071262,-0.1314012,0.23972139,-0.12628832
sèvedepin,0.16182026,0.11113092,-0.19763091,-0.15164858,0.2235391,-0.2379896,0.2147616,0.1870732,0.1497258,0.18451884,0.21558273,0.1449939,-0.20172626,0.13854288,0.18796405,0.22238316,0.11823742,-0.17633913,0.22493273,-0.26168966
petitspois,0.22505306,0.13362463,-0.2508005,-0.18229835,0.20315814,-0.22080621,0.2317706,0.13267498,0.17471823,0.13013057,0.18092756,0.22276825,-0.19631222,0.23473233,0.16143045,0.17840031,0.19344294,-0.1917423,0.17968333,-0.18156222
pommecuite,0.15558851,0.23293883,-0.107412376,-0.13959132,0.18293795,-0.12601562,0.14016294,0.14853218,0.23135647,0.120440476,0.14519627,0.19753423,-0.16872716,0.12248792,0.15751939,0.18205091,0.20126551,-0.1335367,0.20622876,-0.23089573
médical,0.13183764,0.18252337,-0.104095764,-0.15925875,0.14146721,-0.09176707,0.1148414,0.12982838,0.17403595,0.1106501,0.11722373,0.14643319,-0.12975848,0.10572027,0.109336585,0.2001513,0.1779562,-0.1530103,0.15979157,-0.05295539
coquillage,0.18329296,0.15255816,-0.15488654,-0.17712396,0.11759401,-0.16886026,0.09290777,0.11157193,0.13374627,0.17016259,0.11202009,0.124694854,-0.16062842,0.16506901,0.06479566,0.0842145,0.08767887,-0.15390605,0.17061305,-0.15056536
fleurdetilleul,0.11843508,0.18200177,-0.1407744,-0.17502949,0.10748473,-0.07342695,0.05836074,0.10491552,0.15063351,0.12520285,0.16231047,0.06609143,-0.11986551,0.12895668,0.12752393,0.19078398,0.08815786,-0.14254025,0.21622366,-0.0638801
poisdesenteur,0.23400526,0.12651134,-0.17833282,-0.16175422,0.22087483,-0.15443303,0.166997,0.15622899,0.11148912,0.21844703,0.1166532,0.10333117,-0.16190629,0.2192497,0.14510766,0.14477853,0.18280739,-0.22284532,0.17497861,-0.14398664
amandetorréfiée,0.11201055,0.193885,-0.109334245,-0.21598765,0.15862325,-0.23989199,0.12990268,0.19471881,0.14402254,0.11731037,0.10432881,0.11938761,-0.16127318,0.17826924,0.15172671,0.17557606,0.11513647,-0.1513468,0.14738101,-0.17874323
moufette,0.17117879,0.11295558,-0.14853026,-0.23531476,0.23933233,-0.2092287,0.19843005,0.18544117,0.11818556,0.13657996,0.20541334,0.09213364,-0.16497588,0.11165407,0.10884851,0.17698005,0.14078847,-0.18568681,0.1718246,-0.16937242
cubèbe,0.11987075,0.15630797,-0.14674744,-0.15043405,0.16287096,-0.10684535,0.13618597,0.09054765,0.105100386,0.12145024,0.07949449,0.08050868,-0.17789876,0.12056893,0.21864605,0.06359257,0.13373639,-0.10044253,0.11796066,-0.13428225
boisdagar,0.120777704,0.120693155,-0.08754231,-0.1610814,0.15816301,-0.08885987,0.08653961,0.14427233,0.03893097,0.025349358,0.07612103,0.15339541,-0.04889394,0.04810071,0.17638974,0.06728323,0.15457457,-0.060475945,0.09999648,-0.07522754
litchi,0.03575149,0.11790635,-0.063282475,-0.18162343,0.10098987,-0.055215552,0.21418974,0.11405191,0.1141618,0.1474136,0.119261496,0.12372245,-0.124732584,0.030700468,0.12140348,0.07749828,0.11867295,-0.108311474,0.118915536,-0.15171114
choucroute,0.090575434,0.11618571,-0.21824056,-0.1905498,0.16765113,-0.115389444,0.1190326,0.22262399,0.17816281,0.17460525,0.20177303,0.18544784,-0.16924219,0.21769196,0.2028332,0.20924196,0.14396088,-0.18535087,0.09593033,-0.1664048
mouton,0.12980808,0.2299012,-0.12788641,-0.09122704,0.20405646,-0.16843882,0.13897112,0.123669446,0.0905137,0.22346243,0.13567156,0.15254372,-0.21204735,0.19611067,0.13503966,0.113425076,0.15525892,-0.152156,0.12467685,-0.19130892
acajou,0.061209418,0.07659692,-0.12621266,-0.050930407,0.0636462,-0.10584964,0.14434542,0.024389349,0.110095784,0.12721033,0.18542367,0.12691215,-0.049324878,0.047417067,0.17812997,0.086753845,0.09829749,-0.07010299,0.14501147,-0.110027015
benjoin,0.18071043,0.19010603,-0.16596457,-0.13125074,0.15409273,-0.16026297,0.21069041,0.22600073,0.1347091,0.25467324,0.14240026,0.19322035,-0.12143226,0.18737641,0.18054026,0.16690665,0.17075631,-0.19133116,0.19758356,-0.12861428
chamallow,0.16256453,0.1666638,-0.13761175,-0.23181367,0.17915884,-0.18423352,0.12131965,0.14833559,0.10054236,0.18837696,0.12731321,0.18233502,-0.13465524,0.19692725,0.09739509,0.18725386,0.09874193,-0.14459494,0.10922913,-0.11805497
genêt,0.12920155,0.15690807,-0.15975302,-0.1366487,0.07084852,-0.16516227,0.1529203,0.20344955,0.17026043,0.1348962,0.1672309,0.19679129,-0.12722912,0.20682356,0.09045758,0.13213253,0.19172105,-0.14903577,0.13548341,-0.1260495
durian,0.15212727,0.22212823,-0.19559965,-0.10732423,0.23839462,-0.11506155,0.10528073,0.09809375,0.09747952,0.18034177,0.19135603,0.16409671,-0.23121467,0.16059545,0.11769076,0.18720403,0.09178658,-0.18019691,0.09164888,-0.2106536
salsepareille,0.15403272,0.04067397,-0.083036855,-0.03224241,0.047152743,-0.09922275,0.038220108,0.1384435,0.061854463,0.062292352,0.072811484,0.09531044,-0.096539885,0.12001358,0.09267601,0.08343056,0.055256173,-0.085181445,0.068067804,-0.13511139
chips,0.17601112,0.14971048,-0.1563269,-0.16466993,0.17035449,-0.11581236,0.1739473,0.20230283,0.106521904,0.18241024,0.23936787,0.178868,-0.17754628,0.18199219,0.17176178,0.15591848,0.17285533,-0.16689178,0.23344359,-0.13670644
cive,0.21502209,0.18399209,-0.16321085,-0.13551043,0.20596823,-0.16740496,0.14974459,0.19026059,0.16381437,0.1517804,0.14682893,0.14984903,-0.19843239,0.16168505,0.16203082,0.17460784,0.12411569,-0.15104225,0.18886945,-0.1651362
limbourg,0.10947612,0.1185334,-0.17984635,-0.1915805,0.20689586,-0.0967537,0.08379036,0.18098623,0.097175494,0.15593931,0.14225455,0.13084793,-0.13114348,0.12443335,0.07275517,0.13266262,0.16020052,-0.07237075,0.110722944,-0.14483017
orgetorréfiée,0.10624631,0.112338424,-0.14084306,-0.12944464,0.115607455,-0.17764153,0.057474285,0.12534091,0.0710518,0.13561009,0.094217986,0.15300956,-0.123551056,0.10364149,0.058718316,0.120365605,0.09438684,-0.10507718,0.097718455,-0.07517881
angélique,0.12950897,0.12662911,-0.16339974,-0.13513304,0.03602355,-0.16221829,0.13346711,0.15258263,0.10313678,0.12705365,0.17376938,0.11810593,-0.09685485,0.048290946,0.06974209,0.11132845,0.07664429,-0.16638318,0.06492449,-0.10429646
beurredecacahuète,0.15946543,0.17273283,-0.111776024,-0.14982949,0.24001428,-0.12931229,0.20809785,0.15659037,0.1629017,0.14404483,0.15118337,0.17392136,-0.15998748,0.19062628,0.16536583,0.15626791,0.09989215,-0.18267989,0.2278403,-0.15403634
fleur,0.13211824,0.16600406,-0.21018025,-0.17777711,0.13228983,-0.13615775,0.19727862,0.12388924,0.1780885,0.16755536,0.2049329,0.1587829,-0.17545104,0.16699466,0.1618288,0.13816628,0.23757125,-0.17039162,0.14046332,-0.17601791
menthepouliot,0.13176742,0.13262123,-0.10805704,-0.15206295,0.22379968,-0.19683939,0.08916433,0.17764226,0.13562676,0.12970571,0.16737399,0.18951952,-0.14840679,0.23787698,0.13209227,0.13931939,0.13654679,-0.074076556,0.11553827,-0.21591881
curry,0.15101469,0.125979,-0.08240522,-0.17831793,0.11785677,-0.16318913,0.12896015,0.12516546,0.101166256,0.056827035,0.08562482,0.14430766,-0.1486288,0.10178046,0.13099898,0.048376434,0.034499876,-0.095798835,0.1174109,-0.07717861
lavandin,0.10886229,0.05373752,-0.22049075,-0.16181114,0.20673218,-0.15048164,0.14022589,0.08950512,0.072236806,0.12669052,0.039053332,0.12255344,-0.13348,0.16924968,0.19314644,0.09265149,0.14470097,-0.10713158,0.11367594,-0.18756953
ciboulette,0.119617775,0.1728525,-0.1714058,-0.16318384,0.056461513,-0.1525046,0.11271626,0.1709446,0.109003395,0.124963604,0.02084063,0.09647142,-0.091513485,0.1119154,0.10119446,0.0949153,0.11795478,-0.11191988,0.14188448,-0.08401398
papier,0.058938548,0.096252635,-0.12947571,-0.10588065,0.0517302,-0.11533667,0.1438234,0.083038956,0.048410814,0.06515407,0.0057390155,0.07673472,-0.116143905,0.15316723,0.06876664,0.06866208,0.107969336,-0.09096961,0.16199987,-0.0809251
massepain,0.14149718,0.04788323,-0.12152621,-0.1388402,0.072813645,-0.12545058,0.0670522,0.120951414,0.04702626,0.09098541,0.18082082,0.15455432,-0.1667991,0.0553134,0.03275709,0.12135581,0.12810509,-0.11352429,0.13448657,-0.13126707
dindecuite,0.034823325,0.13413435,-0.11235446,-0.1269847,0.11658572,-0.16382354,0.1305221,0.12354877,0.11068608,0.045913372,0.079770245,0.104946524,-0.040331133,0.20811689,0.14479983,0.18668921,0.08318009,-0.1765911,0.18018967,-0.05886072
citrouille,0.13555497,0.122630514,-0.06314996,-0.18368375,0.17174129,-0.068386346,0.14265902,0.11169985,0.10210916,0.03612464,0.1415939,0.06929529,-0.15121019,0.17164764,0.15052535,0.06183558,0.15819597,-0.093052864,0.14715248,-0.18103299
poulailler,0.15798506,0.10054058,-0.044237297,-0.12841715,0.091405116,-0.1271269,0.1512645,0.04411608,0.06054939,0.06190576,0.18014982,0.11055462,-0.11088382,0.10524276,0.05919102,0.1195018,0.052933216,-0.040100947,0.16287717,-0.064128295
beurrerance,0.22277662,0.22073972,-0.18011186,-0.12979515,0.14466688,-0.17718048,0.21396077,0.10740706,0.15202782,0.1765754,0.19311859,0.14549606,-0.18463665,0.18485722,0.14961734,0.10354071,0.1639774,-0.04617989,0.14556019,-0.13044432
orangeamère,0.100958414,0.17245048,-0.12753436,-0.131461,0.19227624,-0.13397358,0.09816563,0.10081291,0.14631799,0.11295812,0.11460066,0.056659196,-0.0955009,0.12305334,0.13313755,0.07265987,0.04510764,-0.08434008,0.16998234,-0.08902286
paindeseigle,0.14281084,0.13137262,-0.107457355,-0.08169274,0.13054682,-0.06802321,0.11963261,0.07411411,0.06525519,0.15414801,0.17086309,0.027869917,-0.11480312,0.058049325,0.11645727,0.15191026,0.056625612,-0.03833198,0.087079674,-0.075499244
yuzu,0.0033651898,0.02063063,0.0068781152,-0.043974366,0.10308832,0.02707448,0.057922825,0.089571744,-0.031808197,0.069022685,0.114749044,-0.018062998,-0.105006166,0.052954033,0.032924205,0.101434305,-0.0001900047,-0.08546835,0.033067964,-0.07718351
pouletrôti,0.08477857,0.084543824,-0.18016353,-0.08791251,0.087828435,-0.15802565,0.12316616,0.15356234,0.14876951,0.14142974,0.097237244,0.14078243,-0.04835105,0.16859415,0.073543295,0.10208143,0.16695862,-0.08089565,0.11703873,-0.124715954
cookie,0.08433126,0.09456063,-0.20027652,-0.049045593,0.09580837,-0.15658513,0.077095866,0.053338412,0.088648334,0.15819624,0.024614155,0.16544822,-0.02999437,0.11406258,0.14630987,0.124053754,0.036671516,-0.091136895,0.093696505,-0.13144287
fromagedechèvre,0.091735646,0.2147692,-0.10610488,-0.21604535,0.15824798,-0.17342067,0.11324503,0.15861763,0.19052865,0.14641505,0.092750445,0.1872064,-0.23896913,0.13230884,0.11422907,0.1407421,0.17393722,-0.10782267,0.18625177,-0.17190444
asefétide,0.10523592,0.090376824,-0.10404222,-0.13899195,0.11293726,-0.06311995,0.10517275,0.043635987,0.14799233,0.06501625,0.17408696,0.15061405,-0.12633584,0.13040093,0.04934395,0.08860652,0.11431063,-0.041380275,0.0983362,-0.07259318
houblon,0.15644714,0.16245894,-0.14461905,-0.06656553,0.14668156,-0.10349957,0.18092191,0.12952429,0.13121036,0.09111119,0.10779494,0.16591011,-0.15374625,0.13553059,0.11439135,0.14566995,0.14220253,-0.10413845,0.046249963,-0.06655931
luzerne,0.18477303,0.19762808,-0.13437885,-0.07279709,0.11658284,-0.099857256,0.1230068,0.057752546,0.18986239,0.14069694,0.15778214,0.09882599,-0.12692916,0.113333076,0.11154731,0.16174589,0.06978471,-0.11807044,0.18474582,-0.15751284
châtaigne,-0.025734019,-0.00059603294,-0.018612962,-0.07568705,0.0181509,-0.1127321,0.035640758,0.109352335,0.046158276,0.07048376,0.03085408,0.055937253,-0.015672285,0.0058263373,0.024002988,0.0889058,0.077741176,-0.022617858,0.025220271,-0.046721548
origan,0.11002676,0.031792343,-0.13933778,-0.1315059,0.115582034,0.000135276,0.14158621,0.10114907,0.044570405,0.14489016,0.074484475,0.08486694,-0.066366,0.1288202,0.1268134,0.088201664,0.1334407,-0.07569873,0.17201617,-0.035065766
palmarosa,0.099811174,0.1385605,-0.10032302,-0.08744897,0.10948125,-0.15386802,0.13052844,0.05288887,0.044578917,0.116098106,0.09622039,0.05542101,-0.031252183,0.005983067,0.0964493,0.07968933,0.11802669,-0.045440674,0.05051081,-0.09279667
hibiscus,0.06261027,0.09735061,-0.08426414,-0.12022212,0.059079602,-0.039865002,0.099128366,0.10450226,0.07140553,0.07757005,0.086524926,0.016444886,-0.14898245,0.15055317,0.0966607,0.09789833,0.05585943,-0.025891125,0.07033778,-0.06531694
noixdemacadamia,0.09315601,0.1374847,-0.18920651,-0.079516664,0.1212519,-0.15052341,0.13531238,0.08189065,0.12371585,0.09821249,0.13757926,0.15758526,-0.031138096,0.14397982,0.13704461,0.14219941,0.08542523,-0.077238835,0.13736098,-0.14518723
coing,0.024053864,0.040338043,-0.08599977,-0.012447272,0.096138515,-0.092312574,0.08889137,0.08311471,0.05071674,0.012132268,0.059223235,0.07570114,0.0063552745,0.056293882,0.13956739,0.084463164,0.068134554,-0.06362874,0.08612113,-0.037936185
parmesan,0.111100316,0.09566448,-0.12393315,-0.038116027,0.11828171,-0.0625513,0.09031654,0.09262978,0.13532896,0.093351535,0.0630109,0.06873721,-0.14230362,0.13668644,0.06474291,0.12823841,0.13793871,-0.154723,0.009821688,-0.10310961
babeurre,0.20290399,0.09709304,-0.120077,-0.13986284,0.021301638,-0.04018319,0.13073985,0.074352674,0.13715804,0.065700956,0.12594995,0.106654994,-0.11801176,0.1082221,0.059788108,0.11935545,0.20157287,-0.11637317,0.10180405,-0.16269928
praline,0.013673147,0.039231353,-0.13160889,0.0023878329,0.017603856,-0.017061446,0.017783824,0.046574898,0.06336169,0.079633854,0.07647461,0.0121753765,-0.05586296,-0.014476761,0.11947359,0.03755918,0.11464509,-0.0635703,0.019102344,-0.09160293
produitpétrolier,0.053491116,0.13741213,-0.040420916,-0.057127815,0.119330436,-0.0008927749,0.038811438,0.06475395,0.021103956,0.038530957,0.06498824,0.08673819,-0.091395274,-0.05003725,0.068289295,0.065017834,0.028889654,-0.09798527,0.0047729984,0.006984096
fleurdesureau,0.08962287,0.038023666,-0.06766517,-0.07482212,0.01200797,-0.031757195,0.015614511,0.07309893,0.14727151,0.17076622,0.09396599,0.101698734,-0.053310957,0.12971881,0.095775686,0.140189,0.08898365,-0.08281747,0.0876843,-0.017799007
saumon,0.042764727,0.073733605,-0.09432958,-0.045670416,0.08433241,-0.067315824,0.025623003,0.068777874,0.0972861,0.11209831,-0.0048303236,0.14097534,0.0036420142,0.06267044,-0.013711937,0.021054944,0.04238578,-0.071882546,0.024904056,-0.00969923
thon,0.06602252,0.010259187,-0.08892155,-0.07235145,0.13855457,-0.13222057,0.055162974,0.07158874,0.09222479,0.084297284,0.11732382,0.060940433,-0.10327028,0.11869438,0.14877948,0.11510843,0.097671255,-0.08105327,0.10472687,-0.0778683
jaunedœuf,0.11951809,0.108215086,-0.08643174,-0.12745184,0.16715053,-0.11657901,0.16195013,0.14969432,0.17064442,0.072280705,0.14968894,0.11386137,-0.106393516,0.117927715,0.10658596,0.10523598,0.13828866,-0.093615636,0.07868488,-0.06649044
carambole,0.010289932,0.08025678,-0.06644868,-0.120755605,0.0642682,-0.09138614,0.05806903,0.060427442,0.101996124,0.053603616,0.09023781,0.025532912,-0.15894195,0.028911373,0.17226395,0.1692422,0.047825143,-0.15606773,0.08585179,-0.09320588
yaourt,0.05298594,-0.0036874898,-0.0015047453,-0.09499199,0.11844984,-0.08804285,-0.030422352,-0.0073882462,0.015209861,0.016539421,0.06428736,0.029134754,-0.12894127,0.043906316,0.070472986,0.100834295,0.07545315,0.00030770712,0.095290035,-0.045010842
câpres,0.15248215,0.10016124,-0.17039466,-0.004396292,0.09974851,-0.112356365,0.11234618,0.14587538,0.073017806,0.041234035,0.12313444,0.100069165,-0.09215761,0.047862973,0.12641038,0.109189875,0.09371185,-0.05399029,0.09649691,-0.07239548
urine,0.06664617,-0.0020632101,0.0028862916,-0.022857226,0.03749864,-0.046688944,0.10668711,0.00040699355,0.016295746,0.06376615,0.069293514,0.014195307,-0.038132146,0.003932818,0.013645571,0.012833053,0.0520159,-0.05477094,0.0942671,0.035492003
datte,0.08097054,0.12197974,-0.013031007,-0.09620252,0.06515679,-0.09240122,0.056607705,0.10457876,0.112360924,0.009075965,0.12835182,0.0788676,-0.09924591,0.075943924,0.021730244,0.03515198,0.09938078,-0.083942875,0.094050094,-0.06403151
chicorée,0.11841388,0.061564468,-0.06447394,-0.07519399,0.10542028,-0.100358024,0.08521907,0.08732951,0.10250259,0.04328728,0.09947346,0.05433633,-0.06715553,0.060123432,0.08997579,0.071920134,0.028723253,-0.1057028,0.028047116,-0.07717685
souci,0.03834553,0.15546308,-0.10891327,-0.13652903,0.08290301,-0.111867115,0.18507038,0.090406984,0.099479705,0.082108825,0.17551537,0.1424593,-0.13023335,0.061395727,0.10024694,0.12264505,0.10768055,-0.16929582,0.11418383,-0.14113052
grenade,0.04364998,0.008676922,-0.04356856,-0.070548,0.05303078,-0.0499107,-0.031178745,0.054157365,0.04917159,0.09141633,0.050930895,0.14727217,-0.01714148,0.055803586,0.06323002,0.08857502,0.08453797,-0.030061927,0.048413057,-0.099545464
sésame,0.13207377,0.023734752,-0.13997698,-0.15169346,0.030387841,-0.046335608,0.10020798,0.17737599,0.11274026,0.16327432,0.120201394,0.05371767,-0.13549547,0.06692083,0.092594795,0.17347041,0.049209107,-0.13771749,0.079726875,-0.06287629
jonquille,0.1180097,0.02373717,0.006829344,-0.12252729,0.017765,-0.05414361,0.059130527,0.06900662,0.048943788,0.07607296,0.057246104,0.08279724,-0.022625083,0.035575222,0.07021988,0.07022848,0.024046456,0.0008915365,0.15205036,-0.13161731
hysope,0.050510854,0.04696734,-0.051337384,-0.051394586,-0.01793295,-0.0058285333,-0.04238483,0.009275354,-0.02199906,0.02377021,-0.05741456,0.009033579,-0.033038132,0.05709114,0.014114987,0.0037561934,0.040378463,0.025644168,0.031375967,-0.12204766
tanaisie,0.021262202,0.10229355,-0.048076134,-0.018730547,0.10640353,-0.0893088,0.011123763,0.10746536,0.016675001,0.030318383,0.033009704,0.025785137,-0.022413367,0.018809374,0.065825105,0.05871952,-0.037666775,-0.029418554,-1.3777055e-05,-0.11182208
pâtisserie,0.060180254,0.114354745,-0.08995524,-0.06572841,0.04804165,-0.12778258,0.017569318,0.0835921,0.066012785,0.100328594,0.0908718,0.040582344,-0.13629234,0.047207683,0.026111852,0.053444155,0.043489743,-0.119714856,-0.037905052,-0.0883141
pistache,0.10247925,0.092160404,-0.09168147,-0.044383038,0.12770249,-0.012385644,0.10442332,0.08392835,0.051476233,0.09247698,-0.014589767,-0.009556134,-0.077837974,0.072486185,0.14169376,0.044862177,0.04310099,-0.016771886,0.10832458,-0.034291208
jacquier,0.07455079,0.049855787,-0.026842695,-0.0055717905,0.13134184,-0.02435544,-0.005356837,0.030955588,0.1304406,0.023802025,0.017320143,0.037422933,-0.035085276,-0.0042914357,0.10412669,0.043912306,0.0753176,-0.00973919,0.10188344,-0.05568668
insecteécrasé,0.06419645,0.11312425,-0.022749973,-0.03673958,0.10104372,-0.01806823,0.034112487,0.07294506,0.0815448,0.0051317373,0.06527344,0.062726825,-0.07088975,0.06724038,0.07459549,0.02136925,0.04602178,-0.023513272,0.11141153,0.0016789469
poivrevert,0.046083406,0.06024915,-0.023719277,-0.007980382,0.0900619,-0.08950581,0.12746781,0.09015815,-0.020663194,0.048053976,0.09899948,0.11258389,-0.062446117,0.038602684,0.10644569,0.047548242,-0.006228868,0.027867071,0.11215631,-0.0075158724
airelle,0.0067009535,0.07693009,-0.074783705,-0.07172259,0.12106699,0.00096075726,0.1135779,0.077613786,0.11540763,0.07968583,0.09133152,0.101204544,-0.10946041,0.1373792,0.0064836186,0.12807877,0.12546316,-0.030104028,0.10847687,-0.060398925
tilleul,0.068902016,0.10057363,-0.122903265,-0.12138909,0.06203067,-0.07816437,0.08212907,0.13683507,0.09249198,0.13727391,0.10879557,0.09446534,-0.14162669,0.041754983,0.03988762,0.0046203304,0.11780769,-0.022919506,0.09136913,0.031079017
lingehumide,0.049389396,-0.032227047,-0.025825793,0.017930893,-0.056977846,-0.025300268,0.10988432,0.044729177,0.04728829,0.0010105446,0.015381362,0.034177907,0.00030013174,-0.01061714,0.066377535,0.054601975,0.040758513,0.034930363,0.042472247,0.01836775
huître,0.061306767,0.05627074,-0.09838354,-0.02244096,0.14342216,-0.11747229,0.07521349,0.036562394,0.08768798,0.11117807,0.033872496,-0.0025220576,-0.04576522,0.05782876,0.04286602,0.072768174,0.06267539,-0.046832714,0.07216702,-0.018974707
foie,0.05154953,0.005172421,-0.15127377,-0.09795781,0.07240341,-0.012617428,0.111544505,-0.014059048,0.08665978,0.03933197,0.08853184,0.050735205,-0.09858157,0.114430025,0.054855917,0.0890329,0.11681032,-0.0776618,0.04089493,-0.031080615
mastic,0.07852268,0.12175819,-0.104760095,-0.017672602,0.074027106,-0.046997163,0.06747231,0.06197291,-0.02164505,0.125099,0.031107906,0.05776197,-0.06416863,0.03229496,0.044082135,0.060721405,0.060516916,-0.04735648,0.11144997,-0.035492465
putride,0.0358573,0.09346734,-0.052403316,-0.074495666,0.034303673,-0.051497363,0.026620172,0.034671437,0.03848839,0.10138214,0.0795056,0.08168997,-0.0776099,0.020733794,-0.016492937,0.13424963,0.05860024,-0.053348377,0.07651314,-0.07284066
noixdepécan,0.09851064,0.058069773,-0.096196264,-0.036299616,0.14741299,-0.035711505,0.08657364,0.030709859,0.11524705,0.105291925,0.07824482,0.07505179,-0.038650833,0.02551248,0.066110626,0.02718666,0.14469694,-0.031019213,0.052996136,-0.11973758
chêne,0.082819186,0.0843799,-0.035556477,-0.052847393,0.082321614,-0.06007574,0.017074373,0.0938936,0.12047134,-0.008475338,0.04922938,0.11151159,-0.033696026,0.028257562,0.15557754,0.028150558,0.07292721,-0.12643433,0.04000191,-0.09237498
épinard,0.050457954,-0.021967556,0.011653457,0.05570899,0.0015248917,-0.00060478225,-0.01031917,0.03390919,-0.045825556,-0.04802239,-0.00898353,0.039106473,0.03437311,-0.06239438,0.05359193,-0.0288139,0.04181732,-0.0803442,-0.06548695,0.04562843
tequila,0.08748819,0.12148261,-0.14104304,-0.023515632,0.16749391,-0.0039774803,0.033826973,0.093207754,0.093150154,0.024101708,0.11905366,0.0790832,-0.14398296,-0.023427192,0.036383934,0.06841443,0.11086484,-0.05198146,0.09775955,-0.08663036
bouillondeviande,0.063475035,0.11423575,-0.044676974,-0.066450596,0.04993481,-0.070966616,0.04023114,0.111162335,0.11299406,0.072228,0.10728668,0.056564428,-0.078912675,0.13004278,0.0382324,0.1256608,0.10532505,-0.15895125,0.059987057,-0.040930193
vinaigre,0.06882827,0.09494825,-0.067708224,-0.046255276,-0.07055584,0.028403314,0.009535304,0.02149666,0.011229932,-0.01425812,0.044831883,0.019044029,0.0011733212,-0.011887859,-0.008226853,0.082234815,-0.020667417,-0.060189843,-0.028974043,-0.041574642
marrube,0.093256354,0.016703991,-0.079193965,-0.057967484,0.10255195,-0.10429046,0.0908511,-0.013627579,0.015929922,0.11519616,0.03286441,0.051048636,-0.070125386,0.0462353,-0.011941372,0.05987567,0.0052930564,-0.04161813,0.08015894,0.022416158
calamus,0.11005212,0.021729544,-0.044175915,-0.047508765,0.07936266,-0.04609932,0.004509626,0.13163574,0.045206673,0.044478893,0.02167653,0.07037878,-0.020314552,0.10791144,0.021248316,-0.030828714,0.017597008,-0.08179562,0.06799175,-0.03853655
fougère,0.035256673,0.002849726,-0.07807446,-0.011446374,0.04422365,0.010788992,0.051215492,0.08247613,-0.015963094,0.07573791,0.08094252,0.0256309,-0.07996993,0.09244181,0.04920661,-0.01959565,0.034659978,0.016565572,0.076609574,-0.0254981
