RESERVED,-0.09388016,-0.05943536,-0.019123685,0.059474237,-0.007047761,0.029970273,-0.003194496,0.074366905,-0.029701725,0.04831321,-0.028729927,-0.034734704,0.007587826,-0.06325314,-0.06513016,0.020233307,-0.0008184314,-0.0844385,0.03974733,0.053406775,-0.06696226,-0.0012539886,-0.026170755,0.069350794,-0.05120542,-0.015509557,-0.011807833,-0.0062695947,-0.009435665,-0.04722483,0.019027833,0.05265045,-0.008757507,-0.0733431,0.012365697,0.003587138,0.038231205,-0.033275496,-0.0034587868,0.043697886,0.03718149,0.010598589,0.06913612,0.048433572,0.040915478,-0.014793482,-0.022324288,0.004866533,-0.050804198,-0.08263813,-0.05802679,-0.08312638,0.058908373,-0.011342704,-0.017341983,0.08796561,-0.047199808,0.01703057,0.05483521,0.03839209
UNK,0.17557994,0.11071076,-0.00052044634,0.069999926,0.06986794,0.061862797,0.05722093,0.092107326,-0.11575073,-0.048288077,0.06707704,0.119453505,0.08682216,-0.10638196,0.100100346,0.091630235,0.14183669,-0.024224536,0.038949765,0.069163814,-0.058845192,0.15258284,0.15525138,-0.13785358,0.08674638,-0.06154626,-0.13643578,0.050616335,-0.004330271,0.0408516,0.058354102,0.047227383,-0.16808532,0.06884614,-0.11918659,-0.16383171,-0.0055916235,0.03874664,-0.05175913,0.056331985,0.116456546,0.077993736,0.028241873,0.07105228,0.017008204,0.050298583,0.052803025,-0.043643527,0.1108824,0.0986855,-0.10663081,-0.059856437,0.04409135,0.08553491,0.0033105835,-0.05245587,0.07824522,-0.15262063,-0.004573848,0.15743157
fruité,0.62881464,0.38875014,-0.6227702,-0.6280155,0.8037722,-0.1590732,0.90980875,0.054264434,-0.73651266,-0.9007275,0.30164817,0.2568159,0.4381316,-0.52937734,0.73008573,0.5591,0.40827894,-0.9063832,0.63698983,0.41249478,-0.20732927,0.35108596,0.32667604,-0.14161551,0.51687485,-0.62656415,-0.5275872,0.6905979,-0.77911735,0.7154839,0.62550473,0.61327255,-0.5970251,0.5877205,-0.5028258,-0.92415583,-0.5929041,0.66581166,-0.42510915,0.6357584,-0.3944506,0.6853033,-1.0766987,0.8207203,0.80354714,0.92448986,0.76092964,-0.5828531,0.865304,0.7151978,-0.97076535,-0.84449154,0.81269616,0.69521093,0.5883663,-0.72739863,0.5470178,-0.490602,-0.81805915,0.55925643
vert,0.31086788,0.3791499,-0.3926633,-0.7243197,0.77093565,-0.17183754,0.63661087,0.46964175,-0.45733145,-0.83293223,0.22131613,0.160214,0.4683551,-0.22497135,0.7658354,0.40919623,0.5462673,-0.36176848,0.44380078,0.5012702,-0.4479925,-0.18745643,0.7021081,-0.79813296,0.27424252,-0.28610817,-0.24036497,0.515729,-0.62363505,0.4778653,0.7449923,0.5238706,-0.8798866,0.7490926,0.0430592,-0.4964831,-0.3417411,0.15021774,0.22263336,-0.19321567,-0.86525357,0.11647782,-0.97121674,0.5501046,0.92241365,0.7630649,0.6515136,-1.037366,0.5755121,0.7166037,-0.5834623,-0.43565753,0.8461262,0.56978333,0.19021258,-0.5148391,0.28032446,-0.4531099,-0.54903907,0.6656646
doux,0.68683004,0.5669296,-0.55936193,-0.84525645,0.81520176,0.13763446,0.74709666,0.07014354,-0.45199627,-0.9458127,0.24383086,0.41768658,0.6023568,-0.48274514,0.7512053,0.83871657,0.63206977,-0.7080407,0.6992954,0.40091842,-0.53987265,0.54049265,0.4092018,-0.1708187,0.78333366,-0.62183106,-0.56220555,0.5283177,-0.74377996,0.53979564,0.42292234,0.7763568,-0.72129166,0.53896856,-0.50178534,-0.44981122,0.23646349,0.44658357,-0.79766494,1.0786572,0.13234627,0.7741972,-0.5700122,0.6744869,0.8195557,0.79283965,0.6993804,-0.40947857,0.53367424,0.8018497,-0.89060384,-0.63482285,0.71692765,0.76754457,0.48327985,-0.8376443,0.6843791,-0.51939774,-0.77478415,0.6969558
floral,0.07508607,0.30093777,-0.7240225,-0.5518709,0.64955574,0.2671556,0.66418004,-0.3348385,-0.5352613,-0.8824233,0.76440674,0.18779552,0.6627305,-0.7760143,0.6790734,0.54426855,0.7824155,-0.75017965,0.81133485,0.88832235,-0.422912,0.48990458,0.14338343,-0.21377525,0.3122514,-0.190658,-0.2415787,0.4039582,-0.8577752,0.42993695,0.7359202,0.86142015,-0.8301305,0.23171905,-0.18334116,-0.6257952,0.9021735,0.46016085,-0.85042906,-0.23407595,-0.13843009,0.72291356,-0.82543194,0.916117,0.58230686,0.88326573,0.55471396,-0.87151957,0.5127748,0.46427047,-0.581535,-0.68225217,0.36509365,0.71494174,0.34208897,-0.7498481,0.13224547,-0.79263484,-0.8820288,0.5483669
boisé,0.25964746,0.44075847,-0.68702805,-0.6919164,0.15024158,-0.21655059,0.5992985,0.32611263,-0.7505126,-0.55582476,0.83783245,0.6001862,0.5315666,-0.862162,0.4160613,0.40614334,0.786267,0.011289088,0.5167587,0.7569056,-0.68752706,0.5876702,0.5810834,-0.53499275,0.45606267,-0.35634035,-0.49983096,0.404831,-0.681463,0.7027764,0.5793553,0.49325103,-0.5191429,0.64678234,-0.61121523,-0.610515,1.6536847,0.39938053,-0.3695796,0.8142806,-0.76870745,0.7618629,-0.60255605,0.7808384,0.44048485,0.6732075,0.47568524,-0.61712503,0.31222218,0.7156465,-0.57688034,-0.28202718,0.062220342,0.5496336,0.6019473,-0.84248745,0.76976424,-0.46679223,-0.54352045,0.2146289
herbe,0.42357928,0.16284706,-0.66779214,-0.3258683,0.57738775,0.39154372,0.5237525,0.67264545,-0.59297156,-0.8044059,0.5606965,0.6029072,0.64061177,-0.624286,0.39996225,0.5223883,0.56428134,0.02461429,0.7664066,0.6260109,-0.7086585,0.57398427,0.5958139,-0.6896763,0.10039244,-0.4198247,-0.63602865,0.5919648,-0.691687,0.09360297,0.47635785,0.68952006,-0.5053922,0.56722444,-0.7686409,-0.4896307,0.9626962,0.61231077,-0.077790394,0.13308261,-1.1491544,0.8480214,-0.5209304,0.66226375,0.66041756,0.7013094,0.31176233,-0.79216516,0.19127753,0.6081433,-0.56223834,-0.53045803,0.2950591,0.54954964,0.43771225,-0.563604,0.5890182,-0.7344515,-0.36619973,0.67922056
épicé,0.41706,0.30754244,-0.5643768,-0.694852,0.5976706,0.060852423,0.75323796,0.6061282,-0.1460395,-0.9705929,0.65509045,0.5723011,0.44901723,-0.55809534,0.37779158,0.49152786,0.67104816,-0.2455594,0.5440161,0.73018706,-0.32082993,0.65540385,0.40688634,-0.48816592,0.531974,-0.52109003,-0.46759948,0.39258775,-0.8053543,-0.0861566,0.3433091,0.6848713,-0.5742706,0.521514,-0.7242002,-0.5903617,1.461828,0.41923958,-0.49717572,0.955836,-0.31862086,0.99685013,-0.42590398,0.39118516,0.46628124,0.83689964,0.3680863,-0.47509766,-0.09825599,0.78232074,-0.6383182,-0.46380275,0.21713167,0.27981406,0.42944467,-0.8609736,0.4889633,-0.29961282,-0.50414276,0.5129292
ciredabeille,0.489755,0.24902904,-0.5783656,-1.0522556,0.80719614,0.70136106,0.5666027,0.5142948,-0.702767,-1.0195782,0.6369726,0.25575414,0.65002084,-0.052017204,0.55166006,0.28256607,0.39279813,-0.635622,0.70686364,0.60582614,-0.42256472,0.22609347,0.304734,-0.56904876,0.503037,-0.5330762,-0.47679174,0.79394114,-0.69333875,0.40575668,0.7297742,0.64088494,-0.62220585,0.2986534,-0.43427986,-0.502862,-0.537734,0.47957307,-0.3733141,-0.49224126,0.2619441,0.68787503,-0.67725366,0.43436682,0.8342116,0.9445617,0.46705085,-0.8947004,0.56822014,0.46504816,-0.38045603,-0.59135675,0.78818625,0.6763967,0.5610925,-0.5135453,0.55070764,-0.49900895,-0.67127645,0.46507052
gras,0.5413053,0.16546956,-0.58395076,-1.1798071,0.5574242,0.9575918,0.37874675,0.8087449,-0.7340004,-0.8216727,0.5000713,0.31272745,0.5937532,0.09426862,0.49894866,0.22168645,0.20559569,-0.42625725,0.7055251,0.38171804,-0.5545602,0.24506165,0.5706139,-0.52260506,0.5042379,-0.43975157,-0.65266836,0.75964856,-0.75245,0.2831119,0.71271753,0.6463953,-0.25327194,0.3246055,-0.60662335,-0.5459764,-0.96795577,0.30999357,-0.13123037,-0.56585896,0.39798862,0.74245507,-0.78230745,0.32167023,0.58221346,0.85482764,0.3427838,-0.6079515,0.28697732,0.7203362,-0.45112908,-0.5204003,0.6981025,0.39710236,0.76618797,-0.4915549,0.49571338,-0.46754605,-0.47007483,0.41270673
frais,0.58954895,0.45784324,-0.4491138,-0.69910634,0.9225346,0.4312802,0.7162456,0.69735956,-0.7380425,-1.0052879,0.54496527,0.6489029,0.70469975,-0.27335668,0.60860455,0.4032576,0.32371274,-0.07111904,0.6072692,0.40946618,-0.57533,0.2627279,0.26701802,-0.6338383,0.27504078,-0.5828944,-0.2732633,0.784639,-0.5530832,0.17288049,0.65686846,0.5565912,-0.15335092,0.7121571,-0.7042327,-0.2626618,0.8086857,0.3702415,-0.15633674,0.28492665,-1.0789781,0.556177,-0.42519793,0.5940834,0.9335358,0.6988561,0.27266353,-0.38521957,0.63201946,0.42821786,-0.40390643,-0.106146924,0.3010462,0.70768946,0.59629077,-0.34010965,0.7271557,-0.398077,-0.23027681,0.3651951
agrume,0.101841815,0.26208642,-0.5667972,-0.816103,0.41912678,0.8987092,0.44730228,0.2883765,-0.7006074,-0.4086247,0.7502217,0.59854406,0.53768706,-0.52082336,0.37881264,0.36325246,0.3602139,-0.39988902,0.6219813,0.67536783,-0.7182908,0.5919071,0.27017608,-0.6780038,0.40097678,-0.4835099,-0.5040762,0.5744177,-0.67200744,0.23349124,0.41030443,0.40008503,-0.68957317,0.34579623,-0.32874668,-0.6352798,0.66862756,0.23717985,-0.51120806,-0.52695626,0.3406215,0.678233,-0.4305981,0.63067186,0.6362693,0.7229955,0.36509866,-0.79409194,0.58281374,0.3038351,-0.16248435,-0.33461064,0.5882251,0.56707835,0.4849919,-0.5596607,0.47023827,-0.7767546,-0.5510484,0.48651916
balsamique,0.19854814,0.33291858,-0.55409896,-0.31114668,0.27496696,-0.30062017,0.5759168,0.013495654,-0.10765512,-0.59767246,0.53408813,0.30917227,0.30358213,-0.81661123,0.37299007,0.5472614,0.7792795,-0.3768187,0.40493396,0.6738299,-0.2272193,0.56608784,0.27898622,-0.16037294,0.37815282,-0.25955606,-0.4048835,0.097954825,-0.61413777,0.3211285,0.26845586,0.58265746,-0.6490855,0.33416998,-0.5069748,-0.5128108,1.2833204,0.57776463,-0.673708,1.0438001,-0.16492848,0.7285763,-0.42137247,0.61189055,0.22071481,0.6124879,0.50920117,-0.3789891,0.027760103,0.61807144,-0.7480171,-0.45360708,0.1397157,0.33794704,0.25288302,-0.7804712,0.36474586,-0.30749667,-0.7188282,0.38134152
rose,0.051330782,0.27352867,-0.48451185,-0.19636118,0.57152295,0.6323104,0.41292015,-0.24963814,-0.567811,-0.4857244,0.7128541,0.020062298,0.5311742,-0.46537343,0.5828173,0.45353234,0.5996429,-0.7053194,0.5674023,0.70832324,-0.066573724,0.48687422,0.055043697,-0.15841493,0.118574694,-0.13400857,-0.2930612,0.28654605,-0.625725,0.42458397,0.54960054,0.55810905,-0.80095416,0.024438351,-0.11177906,-0.47547886,0.27022314,0.5596322,-0.65034145,-0.09904632,0.28585225,0.44266194,-0.4702464,0.63142365,0.7371452,0.72178316,0.47989804,-0.6806414,0.71141696,0.24203293,-0.33350265,-0.61033,0.6115322,0.6373391,0.20848082,-0.29764122,0.0025886148,-0.7206466,-0.6880992,0.66551596
fruitàcoque,0.6884695,0.7778199,-0.56185055,-0.27108565,-0.054620966,0.5809743,0.30210212,0.6226844,-0.6318457,0.610373,0.21659374,0.6625508,0.5421023,-0.48840937,0.28566247,0.55415946,0.57273406,-0.44622096,0.21714965,0.08955988,-0.7886832,0.5931883,0.7337785,-0.56133056,0.7968647,-0.36934033,-0.7068672,0.40037322,-0.5899954,0.3703624,0.6641479,0.2872071,-0.17968002,0.8045989,-0.42813486,-0.6376697,-0.27603424,0.37907973,-0.29850173,0.3753755,0.45958644,0.14935765,-0.34464264,0.36637288,-0.09693637,-0.15996188,0.5367631,0.19698302,0.34534854,0.66829944,-0.52781826,-0.5274606,0.60989195,-0.052222367,0.49459368,-0.24537577,0.44762295,-0.54377437,-0.2586832,0.6217723
terre,0.5895895,0.39767942,-0.5280535,-0.026593378,-0.025987335,0.4038782,0.5875666,0.69432294,-0.60289633,0.10766838,0.21867186,0.55305827,0.45504355,-0.5153649,0.29295808,0.4267194,0.4935186,-0.29780734,0.21298534,0.11381762,-0.47900987,0.57134813,0.8107674,-0.6683751,0.5613941,-0.3489082,-0.7038573,0.21521096,-0.3032653,0.36785617,0.7122934,0.31534702,-0.30815,0.8735945,-0.4729374,-0.4972905,-0.41387168,0.48772067,0.38460523,-0.0035237446,-1.1139903,0.30278665,-0.4845848,0.42285722,0.28922117,0.30434605,0.38310376,-0.42983833,0.23093912,0.74300224,-0.32519913,-0.5139462,0.49685338,0.05302695,0.3455953,-0.271886,0.31193012,-0.4185811,-0.2314117,0.68675524
huile,0.52395946,0.21201807,-0.64890486,-0.81053424,0.6170751,0.58395916,0.4018033,0.7010673,-0.6747061,-0.7233641,0.44936883,0.32411903,0.6125294,-0.082255974,0.39538002,0.25421804,0.32701838,-0.28937775,0.8242563,0.39439425,-0.5411535,0.24064073,0.58064103,-0.5635084,0.37753904,-0.3886126,-0.6230285,0.71166825,-0.74596435,0.19672392,0.5742348,0.6500543,-0.23588368,0.32116297,-0.52291197,-0.4265996,-0.6127626,0.34957254,0.014017865,-0.29959658,-0.00863931,0.7151835,-0.7429508,0.50228316,0.6151291,0.68294936,0.30608365,-0.47946382,0.31571245,0.6521446,-0.5439074,-0.40265578,0.4884906,0.48864385,0.607122,-0.38141796,0.6150431,-0.41246367,-0.3165962,0.3885242
légume,0.7599559,0.5067793,-0.38877824,0.38998652,0.44109413,0.099258736,0.38344646,1.133955,-0.4581523,-0.2092928,0.41314548,0.7054442,0.6309372,-0.597494,0.42208755,0.5518351,0.5509542,-0.3334324,0.59630644,0.3705045,-0.71541196,0.61417544,0.840225,-0.75292814,0.36484855,-0.6313093,-0.70293844,0.63668096,-0.3013772,0.423808,0.6201214,0.45156944,-0.2584149,0.5005161,-0.55855364,-0.5597471,-0.90389264,0.6317494,0.22921519,-0.6975186,-0.48972988,0.33562914,-0.30080336,0.40365505,0.2872101,0.22207358,0.37966704,-0.4619491,0.45068085,0.4489463,-0.3108589,-0.43932414,0.3100924,0.3556465,0.6591021,-0.22037907,0.5977395,-0.5882356,-0.22519751,0.5187712
crème,0.5683389,-0.1493832,-0.39050323,-0.83819765,0.2364252,0.803265,0.4668119,0.6843978,-0.34476998,-0.84746015,0.4950667,0.23496062,0.12956712,0.22476742,0.421776,0.47290644,0.19334553,-0.48887676,0.61985457,0.37949872,-0.47604793,0.43926734,0.56847984,-0.19633694,0.59983194,-0.5862531,-0.6238692,0.44471204,-0.32956856,0.5683719,0.36894506,0.4222225,-0.42470124,0.11409413,-0.63496614,-0.14860705,-0.9384289,0.39208525,-0.6626375,0.680022,1.256547,0.63368773,-0.44814652,-0.039947476,0.50886077,0.61168313,0.4782799,-0.28258744,0.30101556,0.58848226,-0.5308266,-0.34003568,0.50864303,0.6372249,0.6638781,-0.6022754,0.6621376,-0.2974288,-0.5093872,0.40852606
poudré,0.35517412,0.45651993,-0.4908531,-0.39662337,0.35658097,-0.04345015,0.5236882,-0.0589381,-0.106445,-0.3706345,0.6081908,0.10481095,0.2553522,-0.59409416,0.43868023,0.70027125,0.53442454,-0.6562127,0.47262177,0.57173353,-0.3192115,0.698735,0.33921573,-0.089107834,0.6222564,-0.25077718,-0.34470898,0.1295278,-0.5544565,0.7998599,0.33587623,0.4790767,-0.7003499,0.105402656,-0.24795821,-0.3667243,0.84097195,0.20664869,-1.0240005,0.85124826,0.71285605,0.6404433,-0.4448282,0.57622117,0.32837766,0.43391818,0.60954905,-0.44573304,0.23487248,0.4868227,-0.5282936,-0.4272248,0.29489785,0.6854559,0.36879113,-0.6846696,0.43987337,-0.21262473,-0.678681,0.47200835
baie,0.24768847,0.45177898,-0.459813,-0.26974028,0.46361127,-0.55690527,0.585334,-0.57330745,-0.49069357,-0.50176036,0.30664635,0.1358878,0.4085038,-0.6018244,0.72081697,0.57418007,0.5353065,-0.5573715,0.433348,0.42291737,-0.28007227,0.34879848,0.25942826,0.012360513,0.40576386,-0.30661198,-0.22107321,0.3117483,-0.36180097,0.85275745,0.4912092,0.6038486,-0.53290963,0.35453767,-0.049786083,-0.5521692,0.23509361,0.4081358,-0.4777996,0.52047193,-0.116733015,0.39436287,-0.753856,0.6752865,0.5372441,0.55158675,0.5946771,-0.55715585,0.6888051,0.49586996,-0.5733366,-0.5887761,0.2136065,0.64498067,0.38641933,-0.584251,0.26393673,-0.47226268,-0.6060805,0.28284866
menthé,0.55230117,0.5278429,-0.37851775,-0.37023285,0.53678554,0.51126534,0.53982204,0.806283,-0.5149403,-0.6109078,0.59175086,0.7421111,0.5582751,-0.36242127,0.40810788,0.4416265,0.23485957,0.18996282,0.4014595,0.38756174,-0.46464425,0.4272093,0.24932706,-0.5199033,0.17828155,-0.5331652,-0.29871842,0.48234063,-0.34102792,0.046137378,0.3717749,0.35468346,0.0150802955,0.7069173,-0.7944304,-0.16790837,1.3522394,0.4389357,-0.1165868,0.8173094,-1.2184532,0.4583062,-0.068366475,0.4269762,0.6715288,0.3978157,0.18446359,-0.045459762,0.48714036,0.33906636,-0.2458927,0.04461416,0.011660777,0.46529472,0.48337024,-0.115030736,0.61156726,-0.31270915,0.014683995,0.37512884
pomme,0.66352904,0.6789014,-0.27683178,-0.30516946,0.9017614,-0.1523525,0.51422226,0.22253966,-0.34171462,-0.7295432,0.035710588,0.25483054,0.28846323,-0.33261043,0.63464373,0.2825951,0.43319127,-0.6547368,0.17783591,0.1676307,0.16846882,-0.19852303,0.07104763,-0.35991952,0.4182926,-0.50871867,-0.026327915,0.68933207,-0.47390562,0.62652826,0.37651584,0.37026232,-0.6025139,0.6197531,-0.34633845,-0.36754608,-0.93508416,0.5984869,-0.13070849,0.64878064,-0.3890707,0.07896034,-0.72738075,0.5194383,0.82465607,0.5260858,0.63754165,-0.42589945,0.906562,0.34165746,-0.7342983,-0.48601925,0.6096238,0.5444914,0.17348915,-0.43589467,0.3849256,-0.16458607,-0.4734769,0.09750764
moisi,0.66261286,0.64090097,-0.47457343,-0.07570435,-0.06683323,0.43274286,0.49653202,0.5282378,-0.5387169,0.5074431,0.24488735,0.59896076,0.5173462,-0.56409454,0.23383829,0.5716647,0.6240108,-0.49839565,0.19508816,0.043047763,-0.66866755,0.6874957,0.6561371,-0.5657723,0.73222196,-0.33973768,-0.634531,0.27575615,-0.43640313,0.45599046,0.6197252,0.26483712,-0.16778618,0.8391777,-0.4205212,-0.59874016,-0.26854482,0.46922034,-0.24302189,0.3980717,-0.32639384,0.18234414,-0.36583313,0.43713075,0.016547523,-0.0865265,0.5246773,-0.02667059,0.39442,0.687366,-0.43829453,-0.6189656,0.5159912,-0.00985587,0.47269648,-0.2440079,0.47570124,-0.5267112,-0.32650486,0.6079278
ananas,0.65402,0.60151756,-0.18247469,-0.5266584,0.81885815,-0.32039148,0.62079334,0.1368961,-0.3118415,-0.5933666,-0.033042725,0.07614864,0.25563717,-0.2767146,0.61449873,0.38323465,0.29542547,-0.6534585,0.15451927,0.051146504,0.019439545,-0.006146665,0.15962717,-0.14760521,0.42701545,-0.50350356,-0.22467673,0.46130836,-0.39284557,0.6419148,0.30377758,0.2761398,-0.51915854,0.4052954,-0.24754976,-0.4141509,-0.6379475,0.51275253,-0.29511362,0.8097985,-0.013690934,0.22615986,-0.585746,0.45888364,0.74457777,0.4395762,0.56975603,-0.35927117,0.76120687,0.37583002,-0.73744535,-0.5741145,0.6536802,0.41267088,0.32427737,-0.44786453,0.4638402,-0.08422817,-0.49121043,0.30776405
phénolé,0.61362123,0.46211043,-0.41173664,-0.4302684,0.22902125,0.2723747,0.29838574,0.5259663,0.1030179,-0.26320648,0.32142982,0.48060802,0.21580125,-0.5696887,0.3374694,0.34189835,0.39563572,-0.12313685,0.2099912,0.45598936,-0.23569396,0.74191535,0.57428384,-0.50312877,0.41719884,-0.49238354,-0.45035857,0.301259,-0.55078393,0.30184782,0.055275396,0.293369,-0.44427186,0.31196347,-0.53708494,-0.336867,1.0851405,0.4553408,-0.659966,1.0467095,0.41362882,0.6478896,-0.23215568,0.3426359,0.27426222,0.3256501,0.2901344,-0.36761603,0.02312833,0.47195128,-0.46549952,-0.4746804,0.07551661,0.25591537,0.17880216,-0.6214973,0.45260584,-0.19365218,-0.3699904,0.49855983
camphre,0.5597838,0.4836838,-0.34356776,-0.41305298,0.36055514,0.44402045,0.49290788,1.0878778,-0.4900065,-0.51401263,0.52715695,0.7146292,0.56679463,-0.31741625,0.2589423,0.43891254,0.38015825,0.3529598,0.39692852,0.3540243,-0.5808335,0.5414573,0.5162042,-0.7242453,0.12684399,-0.49473912,-0.37348273,0.4259671,-0.2805881,0.04691481,0.4521972,0.312925,0.013075471,0.7857884,-0.75348103,-0.08424708,1.2988611,0.38261196,-0.15045545,0.7745739,-1.0044045,0.3321159,0.016028147,0.35945785,0.45588824,0.15855983,0.04412708,-0.06111989,0.22040273,0.48114133,-0.26651958,0.085074365,-0.10100572,0.36254758,0.51786005,-0.13351882,0.67864513,-0.27630633,0.0014856001,0.34475324
soufré,0.42073148,0.54967177,-0.33839762,0.81281686,0.4492858,-0.11299791,0.26090795,0.7434393,-0.2267174,-0.087461025,0.6144315,0.6831858,0.59261274,-0.85403806,0.3271641,0.5766793,0.4577986,-0.27489004,0.46762532,0.63129056,-0.54102707,0.7663512,0.56333077,-0.55366504,0.22380029,-0.6150319,-0.5319623,0.5034832,0.06765736,0.49198008,0.363128,0.27607197,-0.4534207,0.08860642,-0.49510208,-0.3877905,-0.3966907,0.72956663,0.25549567,-0.60528016,0.2950724,0.29295778,0.24470642,0.511912,0.18467604,0.14519154,0.33933604,-0.4959715,0.3845532,-0.07055597,0.06075681,-0.37119776,0.017807506,0.4509257,0.5016093,0.01054021,0.26730317,-0.4355235,-0.033304058,0.49033472
aldéhyde,0.19745076,0.19196045,-0.45158783,-0.74700403,0.44251442,0.97920525,0.27709353,0.49942273,-0.63618696,-0.3285194,0.6547573,0.40518868,0.4705517,-0.30227375,0.35825273,0.31276444,0.13713175,-0.43820566,0.53866214,0.5655689,-0.5535557,0.5544522,0.24255559,-0.5771739,0.3186525,-0.35578865,-0.43372342,0.48563528,-0.5602167,0.1960516,0.47118405,0.43518,-0.48985407,0.21671884,-0.24900563,-0.5164319,0.039164998,0.22539271,-0.34610382,-0.81282437,0.58857197,0.565944,-0.33309782,0.43716508,0.55199057,0.553116,0.24232921,-0.70844865,0.44934487,0.22712189,-0.0021468177,-0.27639058,0.5480214,0.36678523,0.4887569,-0.32264468,0.27552858,-0.61595047,-0.36540985,0.339858
métal,0.41742927,0.3634025,-0.3687764,0.50638074,0.57037663,0.021454252,0.4479784,0.6903647,-0.34870708,-0.28026003,0.46709254,0.54665345,0.57288235,-0.68931615,0.3494951,0.46489704,0.4462334,-0.34722137,0.43047214,0.55215955,-0.41539857,0.5708843,0.54162586,-0.5238428,0.21712583,-0.53598434,-0.58771706,0.44762275,-0.06681952,0.38208917,0.5258771,0.48458052,-0.42333895,0.3225701,-0.4547576,-0.38452816,-0.4621408,0.60602105,0.37219316,-0.41642517,-0.5875499,0.41907796,-0.06743039,0.48220712,0.39243442,0.44927073,0.2898993,-0.5603473,0.30457246,0.124329984,-0.1240298,-0.40879363,0.2642717,0.41239995,0.41326338,-0.17066112,0.331124,-0.43168774,-0.10130514,0.5603675
miel,0.10024402,0.3212847,-0.4364818,-0.1663652,0.30147573,0.44575772,0.34473017,-0.5041613,-0.38628358,-0.4850464,0.6225463,0.17244096,0.3955018,-0.6016206,0.45751017,0.5948354,0.64640665,-0.6418326,0.4773982,0.6989019,-0.092769854,0.58721864,0.022562467,0.05002433,0.23782316,-0.21860382,-0.29119337,0.072830886,-0.518595,0.47833455,0.28718096,0.50738597,-0.70165366,0.047043685,-0.27291113,-0.51340014,0.59471786,0.43218797,-0.9627874,0.37198937,0.5774162,0.4911521,-0.3629073,0.6634073,0.3936666,0.4841751,0.44906998,-0.33703387,0.39530653,0.28665596,-0.47968626,-0.52616036,0.26713648,0.4738804,0.1612812,-0.48453963,0.113916904,-0.5758387,-0.69675034,0.51800084
melon,0.5127853,0.6442973,-0.19029917,-0.61109734,0.7088051,0.48301247,0.37155437,0.5227701,-0.33089942,-0.7201377,0.3749699,0.35707283,0.5101075,-0.0392293,0.611233,0.20589748,0.37909228,-0.6346425,0.368592,0.3893779,-0.31450626,-0.021340447,0.23870035,-0.6327186,0.46967226,-0.4319687,-0.11105312,0.59628034,-0.23691225,0.36230218,0.4979354,0.43026227,-0.450287,0.5371995,-0.22380161,-0.20889431,-0.91477776,0.47948563,-0.099825054,-0.46193758,-0.27932593,0.1283156,-0.47104642,0.13084301,0.46450114,0.46931475,0.5008946,-0.5845183,0.6293974,0.36719,-0.38068378,-0.4207232,0.67194104,0.3659754,0.2884181,-0.29658478,0.32436156,-0.3029625,-0.5406393,0.41712597
ambregris,-0.08982385,0.5270376,-0.43158805,-0.34168163,-0.2226841,-0.36050823,0.0015383102,0.33835453,-0.39463553,0.30027398,0.69312346,0.7436764,0.31445166,-0.7164846,-0.04263464,0.35413522,0.49496567,0.19787274,-0.08078252,0.5947643,-0.36858505,0.3023702,0.28900227,-0.69907284,0.43054456,-0.27976197,-0.51482064,0.27711782,-0.11031998,0.6972487,0.4131711,0.0849549,-0.31373048,0.5212013,-0.5179944,-0.59012294,1.1825854,0.5689649,-0.3330872,0.62772465,0.02374006,0.3863793,-0.3324828,0.46965635,0.32533285,0.26197848,0.43608028,-0.15621944,0.37899217,0.19680814,-0.11959036,-0.14252926,-0.38701612,0.3148963,0.36857912,-0.24496078,0.6437002,-0.06488813,-0.33859867,-0.19234866
raisin,0.3022874,0.2840649,-0.32377177,-0.23211983,0.43128783,0.08493833,0.35571378,-0.25064588,-0.28821164,-0.4303652,0.18546197,0.21039689,0.19084448,-0.44329378,0.5607319,0.24744329,0.32328275,-0.60723805,0.2828365,0.31155473,-0.1483764,0.16452879,0.1287109,-0.21309316,0.27572688,-0.41938522,-0.19257984,0.29961175,-0.39257565,0.4721036,0.36518314,0.3743859,-0.5230111,0.3602138,-0.16326457,-0.5177195,-0.2773373,0.346682,-0.37297258,0.23399459,-0.002178289,0.19239902,-0.5175161,0.46394658,0.47668523,0.5440307,0.45157686,-0.44045153,0.71283585,0.18394323,-0.5125214,-0.43179822,0.38590074,0.542934,0.14791515,-0.5157609,0.14303854,-0.45687485,-0.5308843,0.26598528
caramel,0.53467846,0.56453484,-0.36923093,-0.2812162,0.36565298,0.36708483,0.27900606,0.3903386,-0.3495205,0.030997813,0.104777746,0.51429677,0.38438755,-0.41242486,0.23171863,0.5898779,0.34078234,-0.55724925,0.4378333,0.17178474,-0.57858276,0.51067924,0.39708495,-0.22735402,0.70802337,-0.40892178,-0.4469359,0.2920193,-0.32410955,0.47202802,0.27936548,0.35166147,-0.34328428,0.37584895,-0.39701894,-0.36101687,-0.2909159,0.46903008,-0.4946808,0.77938986,0.7243464,0.1321073,-0.24872544,0.405679,0.1130884,0.16482861,0.5254752,0.10489343,0.31161612,0.4273867,-0.4016778,-0.48867077,0.60652506,0.38447875,0.35206303,-0.27814865,0.43078554,-0.4016814,-0.33951718,0.51445353
oignon,0.43116158,0.45471355,-0.376352,0.84643143,0.4345041,-0.29226542,0.20125824,0.8543973,-0.17956588,0.029110476,0.6788657,0.65442145,0.5797561,-0.7318829,0.30637577,0.42776793,0.5540558,-0.32568473,0.4722053,0.7220356,-0.7007161,0.8433953,0.6079093,-0.5758884,0.1943477,-0.6125804,-0.5490462,0.32274318,0.047403596,0.46448457,0.2840563,0.40730947,-0.5186633,-0.04985021,-0.38850504,-0.33366108,-0.4353268,0.6240639,-0.0078001395,-0.7144723,0.9135355,0.28636575,0.16579556,0.4234339,0.00048328936,-0.22352602,0.2779969,-0.6383609,0.3174076,-0.07364089,0.029347077,-0.34883314,-0.07548703,0.5412446,0.45128042,0.022657633,0.46010756,-0.53848207,-0.009471223,0.58245564
banane,0.7167214,0.6126492,-0.17496085,-0.38899213,0.76830995,-0.44729698,0.6003988,0.08056418,-0.24632722,-0.5130245,-0.12545633,0.058566347,0.22362846,-0.31863683,0.58346236,0.45691878,0.24556206,-0.7076262,0.14209317,0.09212592,0.07600361,-0.00083473185,0.14848478,-0.12720151,0.4158346,-0.45679897,-0.18564577,0.43284783,-0.3451329,0.5765425,0.18660569,0.21928751,-0.41355816,0.5173195,-0.27871296,-0.3376003,-0.64509493,0.4359339,-0.31304187,0.9176319,-0.038418088,0.20127392,-0.53165734,0.5519887,0.65797675,0.30956784,0.51844645,-0.32280976,0.7561295,0.34214368,-0.7791299,-0.5592601,0.5624155,0.4137159,0.31136885,-0.3798867,0.44189385,-0.110858515,-0.39882457,0.30180708
poire,0.72563183,0.64000463,-0.19441381,-0.46615586,0.75829107,0.01031626,0.46252012,0.4209916,-0.35248458,-0.6124724,0.074231364,0.25234756,0.26544878,-0.18944335,0.58843195,0.22318834,0.4131998,-0.566396,0.113756076,0.0827386,0.1973007,-0.14833492,0.0017790869,-0.45230937,0.47010714,-0.4992494,-0.020442188,0.71167374,-0.35258612,0.54546726,0.4584344,0.29834417,-0.38511688,0.62858385,-0.3469422,-0.30112207,-0.8232974,0.5836171,-0.030197851,0.63122034,-0.3988094,0.015021289,-0.6909429,0.3349551,0.6878722,0.47582066,0.6094364,-0.3321668,0.8333099,0.35962784,-0.62333596,-0.39660347,0.6069591,0.44142395,0.15891173,-0.34835237,0.3187472,-0.06965934,-0.4079526,0.030706618
café,0.544627,0.6598538,-0.41527915,-0.06937355,-0.07933291,0.6248129,0.0635475,0.612926,-0.50453,0.4230988,0.18496957,0.7407552,0.4833866,-0.33485997,0.24698785,0.5742587,0.4100042,-0.4109003,0.19334492,0.1751705,-0.8315406,0.6618947,0.59968317,-0.3954157,0.75027025,-0.31030297,-0.6436454,0.43829736,-0.2952084,0.3698802,0.5251025,0.226273,-0.20779295,0.5178327,-0.4519593,-0.43018425,-0.1434598,0.40288126,-0.48438594,0.34052825,1.0147346,0.06514809,-0.089265674,0.2550264,-0.20163405,-0.19888501,0.48300958,0.31145188,0.2789029,0.32022768,-0.3599766,-0.46232185,0.4541211,-0.04041844,0.40261438,-0.16780564,0.35734507,-0.572935,-0.19564216,0.6252039
vanille,0.32587096,0.3675573,-0.31972826,-0.13577713,0.55728114,0.25372514,0.39158252,-0.0035417378,-0.2086857,-0.37549442,0.2571492,0.10850784,0.11828055,-0.3160619,0.17956778,0.4648728,0.19867267,-0.5145867,0.36704874,0.1831249,-0.20079446,0.45273766,0.25692943,0.16603343,0.44932252,-0.2540164,-0.2286607,0.088664204,-0.26641387,0.6063199,0.11350794,0.3385542,-0.3826356,0.08144716,-0.24060562,-0.054328047,0.13408706,0.10174284,-0.54914707,0.48146805,0.40203527,0.4543513,-0.27633297,0.31231666,0.2670965,0.2662602,0.34797728,-0.36220402,0.018525431,0.23180126,-0.3150258,-0.26863682,0.44987127,0.5609473,0.32578158,-0.36760768,0.35142803,-0.02619705,-0.42391127,0.3627776
éther,0.46995842,0.46738183,-0.18542388,-0.45256808,0.6624563,-0.31019592,0.5251988,-0.10023936,-0.29605716,-0.48303032,-0.14152782,-0.08160779,0.16657285,-0.36465037,0.56326497,0.4076743,0.26986966,-0.6859717,0.115785986,0.13621241,0.085386105,-0.007020768,0.1250394,-0.07147329,0.2890151,-0.3863902,-0.12046324,0.33836573,-0.32956558,0.56513906,0.1758212,0.20355313,-0.40305567,0.5144737,-0.133358,-0.35294813,-0.53132045,0.3226978,-0.3664362,0.792278,-0.109195895,0.2505575,-0.59346884,0.53758615,0.59391874,0.46168447,0.5352206,-0.3142012,0.65706694,0.2829048,-0.7108342,-0.5514527,0.5311743,0.4468276,0.26392585,-0.3493518,0.2730345,-0.066761486,-0.5360016,0.36181313
fromage,0.48484787,-0.16385326,-0.1864337,-0.58756423,0.1266738,0.71295786,0.476686,0.61531746,-0.5820619,-0.58538294,0.498271,0.20880365,-0.03323015,0.2486231,0.45917052,0.31332,-0.17906973,-0.49009556,0.32953736,0.15373535,-0.2202549,0.21241172,0.43527436,-0.05529543,0.41501307,-0.6100048,-0.48171222,0.4112923,-0.21917793,0.5434953,0.42777795,0.31538928,-0.3931526,0.14919412,-0.53669286,-0.33309352,-1.0616685,0.37743622,-0.41866827,0.19947654,0.85863996,0.31642425,-0.5104265,-0.075903445,0.32042235,0.44151217,0.44696277,-0.2621741,0.42736953,0.4131049,-0.41765255,-0.25133306,0.6432546,0.3866748,0.5870459,-0.31385657,0.42059708,-0.28994018,-0.4120384,0.37826318
vin,0.15576181,0.31694844,-0.091406174,-0.31092486,0.44176704,-0.17140898,0.39845574,0.009217195,-0.1790452,-0.4131608,-0.12826145,0.07301333,0.05721151,0.028424773,0.3389758,0.2083297,0.23599692,-0.37088728,0.14737082,0.29066256,-0.32621133,-0.3251527,0.36002862,-0.26248235,0.14319928,-0.24785581,-0.098898254,0.3102743,-0.2864623,0.34557724,0.3146671,0.245692,-0.3616424,0.31260383,0.022331052,-0.37472162,-0.87284327,0.0384502,-0.024672974,0.06395259,-0.19297154,-0.16770343,-0.4574032,0.2522202,0.35251296,0.19482937,0.31210437,-0.34532222,0.36258715,0.31550515,-0.45490757,-0.24962631,0.33655578,0.24601409,0.114076644,-0.37278235,0.3424656,-0.0826915,-0.2770437,0.28354162
tabac,0.26316518,0.21507978,-0.3607659,-0.20878372,0.16222101,0.32066593,0.13265087,0.23978075,-0.22858621,-0.44687784,0.4294728,0.2762736,0.19018403,-0.45385975,0.27502096,0.38402405,0.38173556,0.13156109,0.36600953,0.42871588,-0.31988692,0.40615836,0.35765928,-0.34396678,0.06717785,-0.21098402,-0.3462024,0.34380215,-0.4108281,0.45308504,-0.0002494231,0.39776903,-0.49039477,0.28292775,-0.4037544,-0.20304702,0.6592362,0.30760655,-0.29936543,0.5303141,-0.13995177,0.45031434,-0.2836762,0.32652748,0.16253081,0.3548697,0.29639155,-0.3135897,0.13183323,0.2704255,-0.4297335,-0.35505468,-0.02861265,0.39683607,0.035394296,-0.40121102,0.29371786,-0.4924539,-0.30023998,0.27769786
noixdecoco,0.5158438,-0.15636379,-0.31964433,-0.62446386,0.06678152,0.7178804,0.25121352,0.4627852,-0.2897601,-0.5056363,0.32218248,0.30607784,0.2586622,0.18889005,0.3331406,0.34181988,0.28174913,-0.41534895,0.41458812,0.29789874,-0.61205673,0.44164038,0.49284536,-0.22196028,0.5308984,-0.54267335,-0.5210346,0.48304257,-0.15840945,0.5306419,0.27484658,0.27301398,-0.231441,0.11044732,-0.5311252,-0.08877402,-0.8983549,0.44513118,-0.5158603,0.60956573,1.0035896,0.46428347,-0.2154878,-0.094651565,0.30888912,0.32919618,0.42740604,-0.14284347,0.44502765,0.30364275,-0.41884005,-0.4079401,0.35915864,0.5637696,0.6692181,-0.48448974,0.5398092,-0.3886412,-0.45496175,0.28425372
jasmin,0.21675408,0.24204421,-0.42984688,-0.18805605,0.41784874,0.32168606,0.33458513,0.00673645,-0.45186788,-0.36726236,0.48048812,0.25772238,0.44707572,-0.49702922,0.3421448,0.4065008,0.4021595,-0.48426864,0.4727546,0.4377527,-0.27931535,0.5291649,0.18057457,-0.22573182,0.2179992,-0.29344004,-0.282054,0.3282873,-0.43192983,0.28910202,0.41366446,0.45494366,-0.36406618,0.19403133,-0.26401386,-0.45398468,0.29397708,0.4228152,-0.42997387,-0.00479275,-0.026203759,0.43847203,-0.42626247,0.5292275,0.41274822,0.38348138,0.41550428,-0.5202944,0.2852198,0.17399326,-0.37134314,-0.5127161,0.30746138,0.37868652,0.27961913,-0.31673568,0.12997915,-0.5435259,-0.45146593,0.3577898
savon,0.34011093,0.16416353,-0.46036574,-0.61702776,0.4189831,0.64645195,0.2535003,0.47397846,-0.47161844,-0.3204447,0.5480152,0.1741681,0.52111685,-0.041995548,0.34329107,0.2209113,0.128676,-0.38357842,0.4955709,0.2884795,-0.32539177,0.3146953,0.19659694,-0.42492032,0.29397663,-0.27009964,-0.42118734,0.52527916,-0.4846842,0.20878178,0.5121669,0.36746502,-0.3434921,0.1246239,-0.34635326,-0.43138078,-0.4537132,0.25689974,-0.17649633,-0.526001,0.24857618,0.5341676,-0.35198456,0.3268087,0.44340384,0.5636189,0.20414661,-0.57892156,0.28989777,0.21407568,-0.12887743,-0.51727474,0.44086957,0.23061907,0.31126815,-0.18951756,0.3016814,-0.5476206,-0.3885842,0.3700443
ail,0.44744116,0.4350329,-0.34958637,0.6729633,0.401328,-0.26530612,0.24728388,0.80844605,-0.2505904,0.09996328,0.6009943,0.7335093,0.5347731,-0.7173833,0.32021022,0.4477076,0.5838606,-0.2779662,0.3628512,0.70521194,-0.56043875,0.7006073,0.58055025,-0.6068724,0.20597169,-0.5845702,-0.4281745,0.3536499,-0.0069479756,0.49035406,0.2909595,0.35428157,-0.58548915,-0.057996042,-0.39841422,-0.32032597,-0.3532428,0.63171685,-0.21273656,-0.40852565,0.8187773,0.20748584,0.12833954,0.39057148,0.02380661,-0.21752149,0.2503179,-0.66224694,0.35641456,-0.10312149,0.015302993,-0.37520885,-0.0758999,0.51909685,0.4778862,0.045476034,0.32307768,-0.5398997,-0.05822265,0.5747589
lactique,0.45543027,-0.20977771,-0.18705991,-0.66946507,0.05687993,0.7342275,0.40682435,0.5962514,-0.58854306,-0.6450688,0.51666886,0.24068251,-0.041253183,0.32187197,0.40292805,0.33265564,-0.1338164,-0.44601604,0.40675092,0.24452597,-0.34222394,0.24545501,0.40761375,-0.030905146,0.38674688,-0.6158215,-0.55680084,0.40742928,-0.21817057,0.5134565,0.38612217,0.29800725,-0.37531832,0.03894501,-0.5861418,-0.1912913,-1.0641873,0.3807186,-0.50662637,0.25676233,0.99297017,0.33517325,-0.41525385,-0.12457831,0.35710144,0.45028186,0.42438298,-0.21577369,0.4172527,0.49109024,-0.43325558,-0.20040211,0.5571695,0.47398412,0.6589934,-0.36522558,0.5302845,-0.3720402,-0.39124048,0.40837795
beurre,0.46405,-0.113093,-0.20290232,-0.56890774,0.123776756,0.6084614,0.2949797,0.7248875,-0.40827867,-0.51344764,0.41799083,0.24610585,0.04924336,0.2099043,0.39622772,0.4212316,0.038734403,-0.3812845,0.4746917,0.29216033,-0.37178883,0.3405554,0.521072,-0.19062942,0.47212875,-0.4363145,-0.5350437,0.3293723,-0.20715354,0.58240163,0.31838104,0.31780994,-0.3578407,0.11417699,-0.56060946,-0.13362364,-0.8757744,0.38999146,-0.45285192,0.46309853,1.0297999,0.2648223,-0.3731658,0.042387646,0.3427905,0.44352263,0.4986117,-0.14957446,0.28808552,0.4230739,-0.38020784,-0.1911589,0.47970852,0.496817,0.5514877,-0.33153468,0.43810606,-0.2774272,-0.28695908,0.36021027
champignon,0.5689529,0.264474,-0.4525911,-0.0845774,0.03734869,0.5839336,0.46308368,0.73208576,-0.45933694,-0.075857475,0.21500477,0.42504936,0.31875628,-0.24743855,0.27220684,0.29035258,0.23917764,-0.27147228,0.23272413,0.131082,-0.35134822,0.43287602,0.68198645,-0.5382798,0.48013937,-0.42679185,-0.6089955,0.31279895,-0.12755843,0.38449872,0.60808134,0.2706658,-0.21573327,0.6074396,-0.4771275,-0.3248253,-0.78027564,0.4168921,0.20171991,-0.17296973,-0.48344544,0.27231792,-0.3465153,0.25810027,0.3893671,0.32518172,0.28017163,-0.35077465,0.23639172,0.54290164,-0.20421264,-0.39271954,0.46500075,0.17942931,0.34656796,-0.18072198,0.27886382,-0.3361288,-0.21437566,0.514494
cacao,0.63691664,0.664343,-0.45246333,-0.33215967,0.037066497,0.7009387,0.22183901,0.5302026,-0.40840477,0.43435878,0.22079591,0.6173023,0.53817415,-0.3588845,0.34313172,0.5281048,0.4302594,-0.43053174,0.095871404,0.13506189,-0.68004036,0.6001966,0.4385952,-0.44187236,0.64192605,-0.2686232,-0.58212626,0.32123917,-0.44328982,0.21208474,0.46077216,0.3536982,-0.3585106,0.58929133,-0.35012594,-0.40822,-0.17524023,0.3620627,-0.5400717,0.5588318,0.7739271,0.064168125,-0.14051422,0.19486454,-0.13944161,-0.05458929,0.5630222,0.1520185,0.3582716,0.44276512,-0.42830867,-0.3945613,0.5123863,-0.005136896,0.3767141,-0.07241964,0.39790422,-0.5200174,-0.18488479,0.6043312
animal,-0.17955202,0.46826595,-0.39295644,-0.40323055,-0.06944278,-0.1594176,0.0050948057,0.045746587,-0.27223444,0.19880581,0.35879117,0.50014806,0.3436926,-0.5505044,0.015768783,0.42328796,0.28449658,0.06354511,-0.08121331,0.46763194,-0.29141688,0.16029972,0.2066387,-0.4521019,0.31564614,-0.30601615,-0.39775914,0.27428353,-0.1384746,0.6540183,0.31218028,0.19939642,-0.34951255,0.47835565,-0.4410935,-0.43312782,0.68556064,0.5235999,-0.4273692,0.51286185,0.2753558,0.32583892,-0.38409257,0.42179137,0.32083726,0.38849518,0.4372968,-0.19039159,0.39737827,0.2081456,-0.14790452,-0.24450627,-0.25207612,0.3747502,0.31018063,-0.19377534,0.5131552,0.025900202,-0.4169863,-0.11159923
pêche,0.2979935,0.17119317,-0.31060997,-0.48387098,0.48814774,0.2353743,0.47180098,-0.08547275,-0.46313405,-0.4052394,0.03381872,0.23924966,0.2719233,-0.3120344,0.3355786,0.33494186,0.116212636,-0.5329171,0.33065256,0.14933386,-0.11950869,0.14250243,0.25223598,-0.09130125,0.41013736,-0.40490204,-0.37020847,0.5122279,-0.34010714,0.3899198,0.28570765,0.36055896,-0.35201335,0.27077377,-0.21504271,-0.3988769,-0.46170765,0.43770626,-0.21757355,0.39983898,0.14768586,0.3975316,-0.5714202,0.3428825,0.35433522,0.41782737,0.44068247,-0.33130273,0.46414626,0.35517174,-0.4096231,-0.52756846,0.6225672,0.4200585,0.24050856,-0.45727962,0.1479811,-0.30967873,-0.40888798,0.33482957
orange,0.21474108,0.14152788,-0.3373472,-0.6105602,0.23816715,0.7430116,0.2321406,0.35857514,-0.4692446,-0.17858474,0.5892317,0.38915515,0.37004498,-0.29340172,0.3433333,0.20671399,0.103837416,-0.5005249,0.39721692,0.42603076,-0.48308197,0.46351856,0.23556198,-0.44303015,0.33216238,-0.32567117,-0.4089973,0.3315624,-0.4593702,0.2036728,0.36188984,0.31477004,-0.50246036,0.20024335,-0.15007888,-0.4788032,0.033653546,0.29633427,-0.42863905,-0.5839583,0.7182951,0.3717334,-0.3266016,0.31456736,0.3392324,0.4091475,0.30965513,-0.44268274,0.4515471,0.20462213,0.0069020055,-0.31451195,0.4980576,0.25282824,0.38482875,-0.2614163,0.3212045,-0.46221858,-0.32488602,0.35297847
brûlé,0.4626326,0.50089884,-0.31102204,-0.10980425,0.014963925,0.49558985,-0.042001493,0.61367786,-0.28830016,0.20003986,0.12601414,0.6267542,0.2968732,-0.33419853,0.19304967,0.4560896,0.28939766,-0.34702182,0.2098146,0.1680271,-0.5692198,0.5977397,0.53642184,-0.4429074,0.4670921,-0.4090439,-0.5278219,0.35592425,-0.23716289,0.33935466,0.25297454,0.18065314,-0.12719874,0.3041435,-0.45637637,-0.3510384,0.21542203,0.4352876,-0.3762987,0.5113304,0.8387624,0.15806453,-0.25139228,0.2627931,-0.040491566,-0.08775643,0.3687153,0.078998655,0.15782945,0.3242653,-0.22681293,-0.406482,0.38212302,0.07347949,0.29468757,-0.27211663,0.2937615,-0.41081324,-0.13653481,0.47480288
violette,0.0943353,0.19363268,-0.17032744,-0.121016696,0.1942873,-0.22459199,0.25127885,0.049272705,-0.12868474,-0.41561383,0.1496697,0.083288975,0.10185951,-0.07222992,0.38862038,0.271549,0.26231557,-0.14150555,0.33687544,0.3409182,-0.39097872,-0.053169407,0.4046926,-0.25291613,0.28051785,-0.119934216,0.021228317,0.14895254,-0.22084348,0.3268984,0.19817446,0.31075248,-0.41766793,0.3710511,0.060418196,-0.1485407,0.009000871,0.02342914,-0.020435262,-0.114064544,-0.053827904,0.03888541,-0.45411536,0.30207,0.20947586,0.14627497,0.34539464,-0.46881643,0.22319567,0.31841993,-0.39575323,-0.09282244,0.2093253,0.36932135,0.26237774,-0.38657993,0.2809072,-0.1360036,-0.2512762,0.17167898
musc,-0.050902724,0.45676666,-0.40799826,-0.3608329,-0.1175402,-0.26149333,0.0077323243,-0.0017956533,-0.23978569,0.24378926,0.4634257,0.51262826,0.34082925,-0.5815035,-0.01791537,0.45578063,0.276129,0.08708559,-0.0169148,0.48067948,-0.31410122,0.2053394,0.17802735,-0.56673574,0.35443717,-0.28205588,-0.4692266,0.23124173,-0.17360416,0.6866846,0.3225777,0.08377944,-0.25398675,0.5006301,-0.41861576,-0.5175544,0.84006554,0.41079324,-0.4897099,0.4394934,0.24893275,0.3837479,-0.32027686,0.45656717,0.2547789,0.28862098,0.45053965,-0.14258853,0.3940987,0.24147086,-0.06750608,-0.26071125,-0.3612089,0.34339452,0.35530317,-0.2329747,0.5814127,0.011535682,-0.39237028,-0.071224526
pin,0.19981231,0.45181662,-0.37381405,-0.18381386,0.1375745,0.084858194,0.35959062,0.67647886,-0.43496564,-0.3277378,0.62325454,0.58646077,0.31709564,-0.4438829,0.22229618,0.30377343,0.5099555,0.23788098,0.26138905,0.5097153,-0.5415128,0.46407077,0.34608012,-0.4996504,0.13853058,-0.31482977,-0.25837913,0.29120356,-0.3438795,0.3031228,0.2855756,0.29916435,-0.24937059,0.44446558,-0.59025705,-0.17670901,1.0317047,0.34918702,-0.1667874,0.67282367,-0.7616452,0.34681237,-0.0707068,0.4258031,0.31845933,0.21328235,0.18731028,-0.31642902,0.17226811,0.3514768,-0.29813844,-0.03138341,-0.21321538,0.2843476,0.39227128,-0.3361056,0.53865826,-0.34992442,-0.110796794,0.18743287
foin,0.29598004,0.18881394,-0.3628914,-0.17215072,0.2275896,0.25211337,0.19178167,0.28238222,-0.25779498,-0.50450623,0.3654305,0.33687758,0.23359871,-0.42547095,0.26600885,0.4062504,0.49191487,0.13098377,0.38845584,0.49637985,-0.39731902,0.3478859,0.32716948,-0.5038459,-0.010205692,-0.29556134,-0.38516057,0.39816508,-0.42963004,0.39807558,0.08238977,0.43807197,-0.48031738,0.39319688,-0.50103956,-0.26341864,0.7162446,0.46708,-0.24588701,0.42265326,-0.38434166,0.44893813,-0.3460951,0.35772842,0.28239566,0.3728397,0.29673278,-0.43187255,0.13093981,0.30211025,-0.47033346,-0.44832996,0.039109834,0.40777355,0.06781998,-0.4304508,0.2686351,-0.51125443,-0.2512637,0.35173982
citron,-0.13215056,0.22713104,-0.38059193,-0.5846712,-0.061833598,0.7655639,0.20791811,0.25409785,-0.5674456,0.029618993,0.49365252,0.6019218,0.27738008,-0.38060483,0.12749681,0.13450754,0.20104732,-0.0792931,0.39203495,0.5251911,-0.7186119,0.5315801,0.33855587,-0.59466875,0.2764067,-0.4474249,-0.43191528,0.3493551,-0.2359651,0.26976496,0.24424697,0.025029091,-0.39973527,0.28440642,-0.22808966,-0.36288032,0.6916613,0.0522591,-0.40191162,-0.15299061,0.7697898,0.43604767,-0.2251546,0.44853443,0.3218261,0.35696846,0.16625202,-0.4821617,0.41888976,0.2511546,0.023986556,-0.07239227,0.40883347,0.41036743,0.48861873,-0.41690785,0.53443277,-0.6276404,-0.31764293,0.29274467
cerise,0.40025294,0.3636177,-0.2982129,-0.21147695,0.61350566,0.0400159,0.32353485,0.0321503,-0.22183055,-0.33456093,0.076384954,0.21239096,0.2958839,-0.29586267,0.5326954,0.48605597,0.38819933,-0.55030596,0.43917578,0.23850635,-0.08278273,0.39686394,0.28756723,0.044091888,0.56728077,-0.5367402,-0.3276925,0.2822621,-0.21579601,0.41859165,0.37002885,0.59776616,-0.40914956,0.20999287,-0.19874284,-0.28933918,-0.24196349,0.32394737,-0.5161617,0.47111768,0.47627208,0.36999285,-0.31699967,0.4429192,0.42825624,0.26463145,0.33463,-0.28644007,0.3648971,0.34680063,-0.41351768,-0.50907594,0.49955517,0.52627146,0.25392765,-0.42233557,0.26072368,-0.34926486,-0.4492895,0.39385545
rhum,0.30067903,0.32240543,-0.19799171,-0.3524644,0.435148,-0.23351373,0.36033237,-0.20558977,-0.29839963,-0.39047018,-0.08415969,0.012038022,0.15998986,-0.27000332,0.34662744,0.31886286,0.23302743,-0.49597317,0.18234593,0.20654437,0.054651793,0.06740318,0.110402636,0.014417434,0.21761055,-0.31757492,-0.1359999,0.26932338,-0.2718381,0.43075076,0.14369954,0.29332918,-0.27415806,0.41355327,-0.17103215,-0.34910405,-0.41862565,0.2725192,-0.21802518,0.58032703,-0.11103141,0.2329756,-0.4648674,0.396832,0.36644107,0.42339736,0.4104151,-0.28204292,0.45747343,0.16063663,-0.41381013,-0.41435254,0.42408496,0.36082882,0.2872753,-0.27091017,0.31163663,-0.04239522,-0.4123842,0.35014147
cannelle,0.2960369,0.41357917,-0.2742302,-0.38506648,0.36487073,-0.13174392,0.5219137,0.39658713,0.0444496,-0.4710303,0.23881033,0.530547,0.2501672,-0.32153767,0.25476882,0.45061734,0.463258,-0.18862459,0.1610111,0.3501596,-0.19201887,0.40313655,0.28106302,-0.25250596,0.489259,-0.418347,-0.28177363,0.23018448,-0.4912992,-0.13916323,0.086635746,0.38768855,-0.43051162,0.5042351,-0.5062062,-0.37970683,0.8453289,0.2931231,-0.53784007,0.9777863,0.10586292,0.5187418,-0.13455364,0.19477855,0.2842707,0.42899144,0.3293884,-0.11033522,-0.06702997,0.5478466,-0.4527439,-0.3412531,0.13281469,0.07479081,0.19369872,-0.49739796,0.33199266,-0.14748861,-0.32446462,0.4195304
coumarine,0.39293188,0.13669106,-0.31558877,-0.45674294,0.1761518,0.57850486,0.33945784,0.51173794,-0.1526845,-0.46270254,0.3453563,0.27479303,0.24248528,0.008449871,0.49394268,0.45859712,0.3753099,-0.1669963,0.2693664,0.3708261,-0.5553801,0.38410306,0.5075547,-0.3991848,0.38995743,-0.35959333,-0.39800084,0.3333385,-0.26907092,0.5806252,0.19951315,0.43779373,-0.3658414,0.20695885,-0.43183467,-0.15407589,-0.21405436,0.34470835,-0.3785151,0.61187214,0.7595911,0.31781596,-0.27174678,0.042110324,0.28308165,0.36747485,0.34594518,-0.22687516,0.37269878,0.2649179,-0.39621025,-0.3538748,0.17649649,0.49230975,0.39518565,-0.453484,0.52544326,-0.42551056,-0.37147582,0.2684968
laitfrais,0.5335189,-0.18998535,-0.20499456,-0.63791853,0.0045773154,0.7583803,0.19176185,0.45726925,-0.35692668,-0.537938,0.31087548,0.20724869,0.122839585,0.31802583,0.3151182,0.3197787,0.16838002,-0.48077175,0.43170995,0.30939513,-0.5693301,0.36747092,0.44604886,-0.10359147,0.4637072,-0.5325782,-0.5896268,0.37063465,-0.15176678,0.49435997,0.2643585,0.1867911,-0.2284414,0.037608802,-0.5306906,0.02765208,-1.0046811,0.38095874,-0.54227567,0.48976925,1.0533972,0.4025386,-0.1643182,-0.16338745,0.3024491,0.3837082,0.3928596,-0.06559611,0.40168083,0.38649148,-0.39887592,-0.267786,0.4120937,0.53454196,0.64699507,-0.4619852,0.56386065,-0.3696983,-0.431068,0.3723017
médicinal,0.5550109,0.38017476,-0.3336104,-0.4136139,0.18672684,0.35824558,0.35933077,0.72852886,-0.05416241,-0.30473906,0.32281566,0.5157654,0.30010104,-0.4242483,0.21783155,0.25392032,0.3993945,0.19924958,0.19205451,0.46179172,-0.38308352,0.61550033,0.5211005,-0.5497992,0.227272,-0.3641949,-0.33760256,0.22935477,-0.38306296,0.099554405,0.110560715,0.16393845,-0.19466417,0.44577193,-0.5376488,-0.21807435,0.9681045,0.3246914,-0.34528917,0.7759726,-0.003949374,0.45814675,-0.026070124,0.263947,0.25388068,0.15842223,0.08790362,-0.20138834,0.034874797,0.38203317,-0.27997807,-0.29435182,-0.15071744,0.16635033,0.23509663,-0.3632239,0.47062093,-0.23081362,-0.11401551,0.32783026
cèdre,0.00433683,0.3898377,-0.35408527,-0.25180572,-0.11798004,-0.28670597,0.065800264,0.43829834,-0.45906466,0.12203389,0.6397028,0.62931967,0.22956048,-0.6347048,0.049242947,0.1979833,0.54975116,0.16331175,0.036444835,0.51444733,-0.38466108,0.34615487,0.30850205,-0.46397853,0.3771539,-0.19056658,-0.41856107,0.2653317,-0.13723546,0.6028799,0.3884575,0.11778495,-0.26476118,0.3562519,-0.43004543,-0.46108922,0.9084463,0.43468222,-0.21868306,0.61871904,-0.1597602,0.31124628,-0.24579343,0.36838964,0.2847765,0.20040822,0.2997247,-0.18708451,0.3037898,0.17473225,-0.17496638,-0.06915938,-0.19228372,0.28878334,0.30998135,-0.30332792,0.5402056,-0.16254559,-0.21712095,-0.10713268
﻿abricot,0.32807353,0.23957652,-0.29224685,-0.3917847,0.46097493,0.0067789853,0.53785384,-0.10756983,-0.45679095,-0.37702984,0.03678741,0.26168835,0.26837087,-0.32005158,0.35724074,0.3253023,0.0784888,-0.5831036,0.24705654,0.1355944,-0.1264594,0.11063726,0.28336036,-0.083572656,0.3614102,-0.3811525,-0.26511967,0.5189545,-0.30234003,0.41139543,0.3271963,0.3058443,-0.33309543,0.32301494,-0.10652469,-0.3660168,-0.43107083,0.430262,-0.14706379,0.38897237,0.040225804,0.33601773,-0.48988923,0.35878325,0.3294012,0.33621266,0.4811957,-0.27675268,0.45715165,0.39779973,-0.44980514,-0.4632436,0.604391,0.42483997,0.2046923,-0.39967746,0.16569854,-0.26888406,-0.34600484,0.34125298
thé,0.14070225,0.1140301,-0.34407097,-0.11043,0.30315956,0.25027978,0.14839453,0.21934278,-0.34982318,-0.3042672,0.2556609,0.20986995,0.28968847,-0.44517043,0.2886532,0.27739877,0.3767995,-0.07896355,0.32570666,0.41229418,-0.2769849,0.38010576,0.29916716,-0.23557672,0.032583527,-0.25469548,-0.23895028,0.28828874,-0.34724975,0.27690232,0.28355566,0.33826202,-0.44449705,0.22212124,-0.28869262,-0.3468878,0.39628196,0.41886136,-0.13611257,0.16352287,-0.44764644,0.3674641,-0.32766485,0.31755912,0.33147994,0.416263,0.28452617,-0.47533116,0.30694473,0.26968148,-0.28850853,-0.38429514,0.16202933,0.32039714,0.14211427,-0.33982128,0.22626233,-0.487342,-0.29206952,0.35940564
prune,0.16462848,0.2818002,-0.38396403,-0.1512427,0.43204558,0.178591,0.34923327,-0.19313532,-0.31835026,-0.2976702,0.15702367,0.116175815,0.27389663,-0.50412977,0.33079726,0.26615325,0.24698383,-0.52102566,0.30541673,0.29524416,-0.0072805136,0.3182036,0.100907445,-0.03482789,0.22047125,-0.31615266,-0.15837407,0.36361906,-0.3190384,0.37399122,0.32206887,0.35295597,-0.4731623,0.21740547,-0.16324091,-0.4031008,-0.20109531,0.4101259,-0.37190044,0.20352523,0.053848177,0.25132954,-0.4555812,0.47680354,0.3465548,0.3636635,0.39459327,-0.32081804,0.5220379,0.11502318,-0.39191052,-0.4694919,0.35794705,0.3405789,0.18416125,-0.41016576,0.11374237,-0.38102892,-0.4507809,0.31691217
ylang,0.55060023,0.2253361,-0.36638242,-0.60902005,-0.20219758,0.79571694,0.51020676,0.20633876,-0.50743765,-0.13705747,0.3674432,0.64238024,0.3482771,-0.5057898,0.29157722,0.37825918,0.37562552,-0.51754904,0.62185204,0.47863638,-0.71152157,-0.20217966,0.09987881,-0.41741836,0.5222753,-0.102064,0.25473762,0.589713,-0.2280181,-0.49674955,0.5058421,0.41842997,-0.32571924,0.4322614,-0.1778922,0.802171,-0.6503789,0.4170528,-0.62247145,-0.829065,-0.5354376,0.0780362,-0.4049117,0.45267117,0.032947555,-0.07991998,0.2371138,0.047738936,0.52518654,0.46633816,-0.41489214,-0.37920702,-0.49961936,0.23374522,0.6331862,-0.5095329,0.3623149,-0.65728,0.106457345,-0.3247501
fumée,0.33785713,0.40234828,-0.36868012,-0.32945663,0.07307659,0.15127665,0.09780598,0.5143168,-0.042670086,-0.15790232,0.29718006,0.532867,0.16416761,-0.43691579,0.2636132,0.16954432,0.3063688,-0.0406037,0.093134694,0.33840233,-0.27553838,0.5878477,0.49691695,-0.47905535,0.2870637,-0.42747056,-0.35528618,0.26960382,-0.44644654,0.22756821,0.043051686,0.19662623,-0.27905005,0.2526689,-0.45883727,-0.2295104,0.9881751,0.41124946,-0.3715065,0.82174575,0.45028788,0.41884202,-0.21386006,0.25553444,0.15107948,0.25110257,0.24422227,-0.26434594,0.063524865,0.36098495,-0.28595737,-0.28437388,0.041347053,0.13178818,0.19786564,-0.5196737,0.30836418,-0.20318867,-0.2150476,0.26527983
fermentaire,0.42774585,0.45229346,-0.25481707,-0.40335494,0.3991447,-0.012277611,0.35187152,0.126169,-0.36995724,-0.20658323,0.029359166,0.18830267,0.12204453,-0.25454444,0.3406945,0.22000965,0.16307399,-0.5371341,0.18419215,0.026847692,-0.17152369,0.057894863,0.3345881,-0.12844238,0.47090882,-0.414797,-0.21460018,0.28618723,-0.28593212,0.49240392,0.27795702,0.22757283,-0.23616967,0.39602458,-0.24549575,-0.3463385,-0.55009013,0.22748667,-0.28360844,0.44888848,0.11255567,0.06438497,-0.37588435,0.36045766,0.3076046,0.29707983,0.44037616,-0.24427867,0.52119434,0.39731494,-0.53977954,-0.45233172,0.5231488,0.24886994,0.32529223,-0.34875143,0.3543405,-0.18920971,-0.33849388,0.30962294
poivre,0.24052638,0.17893972,-0.25813252,-0.3801319,0.2474567,-0.10006152,0.36323816,0.39847738,-0.06841387,-0.37030894,0.3377849,0.32535076,0.30658472,-0.45245183,0.053935662,0.30945754,0.47867075,-0.05948222,0.21922562,0.38354808,-0.19883874,0.37642133,0.28325135,-0.3966075,0.33730537,-0.3326347,-0.23825538,0.18117297,-0.40189928,-0.063353665,0.08141192,0.3116299,-0.39251912,0.30468178,-0.3815994,-0.32747746,0.7651391,0.28798294,-0.23415881,0.5643353,-0.094112776,0.48081136,-0.1586385,0.1587389,0.16519782,0.38980395,0.1525219,-0.2065042,-0.13730234,0.40413612,-0.40744537,-0.3230365,0.08804035,0.040770333,0.26174447,-0.45202607,0.31497645,-0.17179133,-0.2387434,0.16763514
géranium,-0.06860081,0.15101634,-0.26465133,0.059872106,0.36075124,0.74925375,0.16960515,-0.23601472,-0.5081165,-0.14425153,0.67165804,0.008864179,0.43052194,-0.51243687,0.3797999,0.33948785,0.5100529,-0.4618765,0.37036443,0.6045662,0.029652908,0.48416376,-0.01809889,-0.17459261,0.021713063,-0.0803285,-0.20032467,0.11195394,-0.4081574,0.33635998,0.49132422,0.4292786,-0.51951337,0.020351235,-0.02553907,-0.38565207,0.23770039,0.4755915,-0.5688603,-0.31862074,0.14722133,0.23993972,-0.29012245,0.47845578,0.493262,0.39648604,0.3639572,-0.40895697,0.5574095,-0.017801668,-0.109569415,-0.3964874,0.34442592,0.3894729,0.13405405,-0.1555482,-0.098611444,-0.55929923,-0.43057972,0.51643944
pain,0.33290142,0.49088618,-0.37660927,-0.25935313,0.0979395,0.562833,0.1766766,0.37417716,-0.37868088,0.22734575,0.28549674,0.49115792,0.341153,-0.34005702,0.09716857,0.3745365,0.37687504,-0.37198633,0.21474043,0.1782893,-0.5386673,0.47527254,0.41156024,-0.2681446,0.49011278,-0.30986702,-0.37407312,0.21603894,-0.2570861,0.31578654,0.3609845,0.22871205,-0.09706665,0.40364715,-0.28899696,-0.36614162,-0.0102323145,0.2653561,-0.54471326,0.54149044,0.42773247,0.022862751,-0.12652569,0.2890848,-0.124255136,-0.107121944,0.3968536,0.0776295,0.20540255,0.41471365,-0.29878992,-0.46058685,0.44906744,0.04229826,0.34619296,-0.1533867,0.36838812,-0.3437342,-0.21978107,0.3640103
ester,0.5988595,0.6072321,-0.15465362,-0.28854018,0.6853621,-0.3524384,0.5535586,0.031405594,-0.18384029,-0.36811304,-0.068103686,0.08500917,0.214688,-0.40004307,0.47669417,0.41953504,0.2970556,-0.56258404,0.026067879,0.05091093,0.010101052,0.012078043,0.09200291,-0.10424032,0.32933295,-0.4736304,-0.21171507,0.3748958,-0.35787714,0.58659476,0.13133639,0.16270287,-0.39734375,0.5437678,-0.22525167,-0.34236437,-0.5584313,0.4117452,-0.30048585,0.86713505,-0.10710014,0.13698491,-0.5340372,0.5311972,0.58333576,0.2555108,0.50896186,-0.32408774,0.5982138,0.26085886,-0.72548795,-0.50430155,0.4514749,0.33535668,0.2975219,-0.32616392,0.37535805,-0.10919218,-0.38152444,0.20793614
concombre,0.47281426,0.5485598,-0.12750344,-0.5649835,0.50713754,0.6714788,0.2617853,0.69269645,-0.34408414,-0.4636746,0.34941202,0.33927917,0.44875276,0.072079465,0.492388,0.15068084,0.25157213,-0.47028068,0.3097767,0.27718836,-0.33978638,-0.03366429,0.29799998,-0.6432359,0.43881378,-0.45392978,-0.20169973,0.47724557,-0.12838975,0.27935693,0.4686059,0.36220312,-0.3046031,0.5018206,-0.24338919,-0.16721067,-0.8976289,0.3951474,-0.050801754,-0.60523283,-0.06692285,0.11939985,-0.38031566,-0.0051293354,0.29984298,0.2979489,0.32856548,-0.43920654,0.43240047,0.32975903,-0.23829684,-0.4127235,0.6280395,0.17747287,0.32549188,-0.18586859,0.2903385,-0.26148722,-0.37359405,0.41713172
cuir,0.050550167,0.20511654,-0.3303072,-0.29345012,0.042792093,-0.07493173,0.1323198,0.17643267,-0.21035653,-0.19519956,0.2654176,0.3627701,0.27603048,-0.39884663,0.2559447,0.19145885,0.38790238,0.013186027,0.26250595,0.23144165,-0.27869284,0.23588854,0.36256546,-0.22493194,0.16394606,-0.14057614,-0.29946387,0.19354904,-0.36393547,0.47098652,0.11120337,0.24213642,-0.4086163,0.34814462,-0.38994783,-0.21888965,0.54589665,0.29038796,-0.21670851,0.46495152,0.0044833273,0.38114238,-0.18763937,0.33580306,0.18324101,0.35681182,0.28809786,-0.21025637,0.11872859,0.2576447,-0.20257133,-0.14058647,-0.0019198582,0.24620247,0.28074276,-0.31839365,0.32949558,-0.17742184,-0.26221025,0.21449609
confiture,0.26126045,0.37916148,-0.35991454,-0.24295676,0.3939429,-0.35875082,0.43627587,-0.2870614,-0.31511945,-0.3344404,0.13295244,0.16513473,0.3599609,-0.41524464,0.5658165,0.44900626,0.29651403,-0.5219542,0.27883515,0.27656946,-0.18204185,0.2170386,0.2170255,0.027771898,0.45472932,-0.37860858,-0.27486885,0.31687886,-0.20085078,0.652721,0.34289187,0.45258147,-0.4334919,0.3244055,-0.037087422,-0.42397392,-0.21414076,0.31694266,-0.37538898,0.4543481,0.15305683,0.2801599,-0.52107644,0.41114992,0.4006245,0.40385172,0.48650825,-0.41631475,0.52348185,0.39000273,-0.4743865,-0.491921,0.23959097,0.47100222,0.29885733,-0.43008453,0.22900702,-0.37793568,-0.4503399,0.26501113
amande,0.43172228,0.44118702,-0.26516026,-0.20216992,0.47768423,0.20188133,0.2697043,0.2109274,-0.28690946,-0.14001901,0.059402894,0.28585055,0.3470239,-0.25645715,0.48543173,0.42565525,0.34074926,-0.5221947,0.34714448,0.101376355,-0.22256292,0.3449543,0.3867178,-0.09679168,0.58916456,-0.52219355,-0.39419496,0.26757795,-0.271056,0.3495531,0.37640065,0.41608992,-0.2949378,0.28971362,-0.26710862,-0.2604647,-0.3767261,0.28615338,-0.48239344,0.43832403,0.4544721,0.30996975,-0.1966749,0.34090006,0.3081597,0.10139553,0.34909305,-0.15701671,0.3860673,0.402399,-0.42559588,-0.44048077,0.53240633,0.40675312,0.22946644,-0.30275923,0.24839383,-0.29201043,-0.38030893,0.44570518
alliacé,0.36528826,0.392519,-0.35945198,0.6456127,0.37383235,-0.3978508,0.24267516,0.64206433,-0.19758965,0.05171064,0.52224827,0.5418575,0.40972072,-0.585737,0.29765612,0.35648113,0.5218623,-0.27779934,0.33873782,0.56171274,-0.48174024,0.57515556,0.5028991,-0.567237,0.19802544,-0.5101316,-0.4106022,0.30738503,0.00927522,0.47740737,0.2660452,0.333001,-0.5409775,-0.09522933,-0.3047607,-0.25045526,-0.28341842,0.58201605,-0.2570524,-0.37361574,0.76751244,0.27030578,0.11142843,0.31110013,0.049113132,-0.21196482,0.23107794,-0.5134893,0.3534613,-0.058437087,-0.06646009,-0.3690315,-0.10621941,0.4994923,0.39867732,-0.02887852,0.34941465,-0.48710018,-0.02549808,0.48464468
cognac,0.40514112,0.41034105,-0.20374507,-0.3817414,0.5302679,-0.024327584,0.44418672,0.14553396,-0.27163693,-0.45829594,0.054424066,-0.0189326,0.26536784,-0.12410419,0.32103306,0.20955327,0.2339932,-0.5033943,0.22947747,0.16958122,-0.15480846,0.009375028,0.20187213,-0.20476902,0.28795847,-0.41424376,-0.23867974,0.3273118,-0.33898646,0.42589656,0.34639782,0.324709,-0.34070933,0.26773635,-0.19080886,-0.34918267,-0.695235,0.25834548,-0.056344565,0.1858706,0.041319683,0.0962476,-0.43572623,0.338018,0.4365601,0.29690447,0.37051862,-0.3644014,0.43263185,0.28382733,-0.5059258,-0.53192997,0.5280429,0.24247271,0.28235075,-0.22699371,0.36088088,-0.15709709,-0.3636096,0.21401499
lavande,0.11852519,0.099331066,-0.46661088,-0.11037232,0.24890864,0.20737658,0.24827418,0.28017038,-0.20127514,-0.28613514,0.36114335,0.3284272,0.38406163,-0.5114686,0.18931109,0.3747362,0.40846717,0.0664688,0.42623,0.35887754,-0.44772068,0.36697212,0.31466162,-0.28040782,0.0124192815,-0.19737034,-0.32436854,0.19954419,-0.38699365,0.16971451,0.15658216,0.3628114,-0.3053742,0.22938633,-0.3784243,-0.30626035,0.77660227,0.39508906,-0.20045348,0.13529804,-0.44431812,0.48059762,-0.26753265,0.44933188,0.24589214,0.32584515,0.11512144,-0.40874994,0.12922898,0.28507972,-0.3165525,-0.29543123,0.10127083,0.3637564,0.26243478,-0.3877771,0.32507667,-0.39113343,-0.20528439,0.4233753
framboise,0.18815976,0.38028586,-0.34941784,-0.266873,0.32682985,-0.2136358,0.41716915,-0.2127092,-0.3245589,-0.33387965,0.27244186,0.19277751,0.25625092,-0.4455732,0.4031276,0.3535346,0.31543797,-0.44656098,0.3012313,0.3234893,-0.29442346,0.3426268,0.30132097,-0.02285453,0.36783522,-0.2608396,-0.23405847,0.31921735,-0.31567997,0.5258088,0.32425576,0.32849532,-0.33410692,0.28200045,-0.0873227,-0.4171915,0.090663865,0.3809352,-0.48570517,0.31148767,0.21349943,0.3509922,-0.41637814,0.400487,0.30834267,0.26116142,0.4570282,-0.3379421,0.35467076,0.3023886,-0.41213036,-0.40245086,0.2363854,0.37874258,0.33377367,-0.4129393,0.23239592,-0.34282935,-0.40536606,0.28490722
réglisse,0.24324773,0.32228714,-0.35177386,-0.15194725,0.4716211,0.2664932,0.18137527,0.3089039,-0.31777018,-0.43593642,0.34075046,0.22537002,0.27178395,-0.19927046,0.2749109,0.16945608,-0.10545318,-0.45498908,0.2217373,0.30627245,-0.18144608,0.3988126,0.40370846,-0.18161151,0.27279502,-0.29893258,-0.27042037,0.29917905,-0.18006667,0.18786159,0.05837048,0.32478505,-0.14162277,0.4162397,-0.29904583,-0.083853856,0.30257994,0.3316044,-0.37107697,0.56037796,0.09200237,0.29893398,-0.27822423,0.049986392,0.29774326,0.32592818,0.24863368,-0.16348669,0.24011838,0.15089318,-0.15286997,-0.32372004,0.28855434,0.11888251,0.25876853,-0.30693132,0.22200768,-0.13496964,-0.4037637,0.27844456
mandarine,0.2118091,0.16270672,-0.33026654,-0.38754228,0.12878117,0.5743998,0.17823374,0.2209202,-0.3451527,-0.14737476,0.46579266,0.50992996,0.26324397,-0.3244919,0.29233634,0.17530584,0.2580938,-0.22548139,0.29117903,0.40493876,-0.5258379,0.40186548,0.31674635,-0.41436186,0.37616336,-0.30219802,-0.33745474,0.23717065,-0.24767259,0.22207344,0.30785087,0.2368432,-0.32040405,0.20257916,-0.25569135,-0.3830989,0.3397181,0.26235658,-0.32800287,-0.39209604,0.5387116,0.3852436,-0.14536302,0.25174,0.1896358,0.31900117,0.23811328,-0.4259513,0.2819636,0.18882905,-0.0941073,-0.18115152,0.31914866,0.25559434,0.37714803,-0.24226058,0.3585519,-0.3697152,-0.28591478,0.23304263
cloudegirofle,0.36302128,0.409011,-0.37107292,-0.3050357,0.25855523,-0.11090745,0.3102088,0.5311465,-0.026799217,-0.3791573,0.39158908,0.53177226,0.12657371,-0.34569436,0.046580113,0.23346204,0.3812567,-0.05771709,0.19398011,0.433015,-0.18180327,0.3671432,0.32589358,-0.42483133,0.39479452,-0.4377158,-0.18543983,0.13972642,-0.35131273,-0.04831945,0.04027595,0.374829,-0.30107778,0.43748873,-0.43520665,-0.37835336,0.87789506,0.2958285,-0.27387142,0.8800185,0.051242776,0.5078611,-0.25207078,0.13300893,0.13591453,0.41423118,0.15216284,-0.15664044,0.0020313412,0.53463733,-0.39756697,-0.23559105,0.13008906,0.023734633,0.29605776,-0.53221405,0.34939778,-0.1486483,-0.19028527,0.11387607
muguet,-0.16895407,0.060921475,-0.27191937,-0.07103243,0.41851795,0.46303168,0.38118196,0.06808481,-0.042260163,-0.30163237,0.29809815,0.356466,0.3537115,-0.36937743,0.17573987,0.32013744,0.29582843,-0.38301295,0.2174286,0.44269633,-0.24829082,0.30066887,0.0908096,-0.53521407,0.31563073,-0.31467825,-0.36653042,0.1843028,-0.3330431,0.2883524,0.37805492,0.4069001,-0.38046992,0.30739415,-0.18179798,-0.32274306,-0.1695726,0.36490515,-0.35352346,-0.032828346,0.27986667,0.12570083,-0.32488698,0.16182286,0.20964752,0.0031733513,0.40644252,-0.018672843,0.42579648,0.13374749,-0.38790107,-0.40409395,-0.020188821,0.1562665,0.109388545,-0.31902033,0.03371864,-0.46168345,-0.38687998,0.33075756
fleurdoranger,0.14254834,0.25460505,-0.3227586,-0.19018552,0.20521249,0.19534609,0.25754625,-0.053339973,-0.11118533,-0.31460422,0.30844188,0.11467811,0.3180551,-0.32081422,0.3582719,0.37188888,0.3572004,-0.45943663,0.21637645,0.3264711,-0.21510251,0.28850138,0.074345805,-0.03732814,0.29903185,-0.2599089,-0.10251295,0.17385355,-0.34665424,0.42386317,0.34744197,0.3493471,-0.3976224,0.14532383,0.019544601,-0.27298415,0.16122374,0.23315382,-0.59611845,0.07255386,0.4412176,0.24191192,-0.31349257,0.38243875,0.20333928,0.30898327,0.3478146,-0.32270405,0.35954356,0.14432818,-0.3044548,-0.35452336,0.2274396,0.4231423,0.15397693,-0.34812692,0.049639195,-0.307158,-0.43344665,0.380855
citronvert,-0.10057005,0.1800934,-0.37870282,-0.49728683,-0.11437306,0.5545337,0.13332385,0.25208998,-0.55883086,0.022571959,0.4143237,0.56796575,0.21031553,-0.43493477,0.12108547,0.050881177,0.24411753,-0.0014940649,0.32678574,0.46613014,-0.63152,0.49428615,0.3349005,-0.59191275,0.21303302,-0.4155882,-0.4271199,0.30419272,-0.19898021,0.23518157,0.20510311,0.026117645,-0.3781317,0.37861353,-0.26995623,-0.3670336,0.7050446,0.14206974,-0.2946641,0.047348212,0.55043316,0.39341486,-0.2543264,0.43422657,0.23567607,0.29691848,0.14777923,-0.43079597,0.35668758,0.31152987,-0.050404638,-0.11539613,0.2810996,0.3341971,0.43199754,-0.44888937,0.5121272,-0.5116201,-0.23701097,0.2613931
sauge,0.06546102,0.075488664,-0.39976394,-0.13658088,0.15169135,0.03263268,0.16466051,0.24606311,-0.28355616,-0.19089031,0.29985923,0.33678168,0.26524326,-0.35133404,0.19133905,0.17324296,0.20338085,0.16554405,0.33335647,0.3454858,-0.29322192,0.31812274,0.27991182,-0.35716397,-0.015930727,-0.15655123,-0.37150624,0.26741424,-0.28973827,0.064981,0.19819552,0.28995866,-0.2978595,0.2218827,-0.3428234,-0.2444914,0.60849124,0.311102,-0.07053619,0.335474,-0.370075,0.32505047,-0.17219347,0.32182577,0.28283697,0.2180779,0.2314622,-0.32558185,0.108463846,0.25026807,-0.21197169,-0.23134772,0.015695097,0.22150499,0.12651414,-0.21990147,0.3841824,-0.315095,-0.1424599,0.24622515
anis,0.24547169,0.34161106,-0.34581456,-0.26883566,0.38290498,0.5481639,0.20314926,0.4335638,-0.30947012,-0.35757446,0.45727712,0.296515,0.34205994,-0.20198976,0.2277714,0.12659012,-0.091211736,-0.5001871,0.20022014,0.3513394,-0.3129162,0.48284197,0.45805407,-0.3231175,0.34112626,-0.25624996,-0.37755966,0.34606066,-0.21963349,0.095917225,0.048345357,0.32674733,-0.094434194,0.37129724,-0.29113388,-0.11419957,0.34218925,0.37264824,-0.45580935,0.5102398,0.1852968,0.30094582,-0.31888503,0.067003995,0.34403044,0.34005865,0.28193805,-0.18000641,0.29679063,0.10918087,-0.13262314,-0.29031274,0.2924237,0.14160627,0.25100586,-0.29468006,0.22834449,-0.21848184,-0.46148196,0.35272592
chocolat,0.5932516,0.613556,-0.4264872,-0.4007984,-0.017235458,0.6075923,0.14747013,0.47841448,-0.38786542,0.40720457,0.16940074,0.54716134,0.46433985,-0.23846537,0.3130461,0.41958648,0.3648181,-0.29659706,0.058147058,0.056926113,-0.589651,0.50723267,0.38035822,-0.43584734,0.48888415,-0.27761143,-0.4852985,0.31835374,-0.41205302,0.13265325,0.4655841,0.34028143,-0.3003139,0.5248965,-0.3263262,-0.32108024,-0.109928355,0.28532618,-0.44650167,0.5578209,0.70010877,-0.0043906393,-0.051286142,0.08818085,-0.17654288,-0.044085074,0.46994036,0.1404824,0.31747139,0.37130356,-0.3943376,-0.3223029,0.43074715,-0.06774119,0.36305338,-0.018086076,0.42345738,-0.40146512,-0.099927396,0.53414357
pommedeterre,0.5485369,0.5851842,-0.32468966,0.15768965,0.06770594,0.48432675,0.29217488,0.61447704,-0.43000644,0.07053264,0.39451072,0.5374991,0.44197562,-0.58995044,0.17686558,0.44661504,0.5161477,-0.2734951,0.2784179,0.17390314,-0.5187674,0.6266093,0.56473255,-0.4182799,0.45388064,-0.28620577,-0.52394396,0.28934306,-0.22470146,0.3735445,0.3752745,0.20767143,-0.15264428,0.43634325,-0.4352787,-0.34510905,-0.48492244,0.41876036,-0.01209797,-0.2458599,-0.40924788,0.15627404,-0.2441577,0.32756048,-0.0015939921,0.05305951,0.2750425,-0.1859214,0.32147795,0.39368737,-0.20216778,-0.26223648,0.22712725,0.2423822,0.5174824,-0.2413643,0.50499237,-0.44771445,-0.15408418,0.28124925
jacinthe,0.132199,0.24500264,-0.33342364,-0.12875718,0.19022067,0.41805574,0.3128264,-0.23680246,-0.25937337,-0.266576,0.5257445,0.10601327,0.2938525,-0.44899738,0.3127234,0.3316996,0.48869073,-0.54012704,0.28122354,0.5097412,-0.10234578,0.45378333,0.14329258,-0.16405426,0.19325888,-0.15223439,-0.23241177,-0.006284466,-0.42793086,0.40646574,0.32105595,0.3281831,-0.36269838,-0.0063509196,-0.2284761,-0.46089548,0.36572897,0.26671445,-0.5379946,0.024027288,0.25062114,0.2427076,-0.38858697,0.45359653,0.22846493,0.40964106,0.31000903,-0.2490299,0.30158612,0.15959337,-0.28421682,-0.4414369,0.089986145,0.23842865,0.14842147,-0.26943293,0.0020668097,-0.38709348,-0.53362083,0.34795958
résineux,0.17795482,0.27005476,-0.32001567,-0.21567313,0.112386264,0.07110864,0.22783092,0.36014363,-0.14052296,-0.18302526,0.406447,0.36517465,0.11515126,-0.40806532,0.15444876,0.10019139,0.3227206,0.079237595,0.17949629,0.40888774,-0.19675729,0.37024248,0.40113735,-0.41203606,0.12315257,-0.18137404,-0.20814097,0.14886233,-0.33193612,0.12700796,0.17198192,0.23256207,-0.27141306,0.30017602,-0.41297367,-0.2126995,0.75556874,0.30187112,-0.28968352,0.61171055,-0.18257312,0.40600145,-0.13352801,0.3256158,0.23604026,0.31949857,0.15840998,-0.24816725,-0.027825758,0.3365847,-0.30070138,-0.20539388,-0.07750189,0.21133739,0.09604565,-0.3173309,0.3146416,-0.2125187,-0.20465116,0.11937532
chimique,0.45727462,0.3547736,-0.32664573,-0.33613268,0.14651823,0.27509394,0.32669288,0.30121723,-0.09032932,-0.09701199,0.025779879,0.23458841,0.28779465,-0.1437309,0.2659588,0.40194064,0.31321505,-0.3517723,0.20699804,0.12294698,-0.26969707,0.43637967,0.33555308,-0.24746549,0.42078468,-0.34972107,-0.31078407,0.20342246,-0.28600097,0.3671279,0.23194602,0.18376316,-0.20496693,0.39517993,-0.30333334,-0.2386612,0.06159813,0.23977327,-0.4172625,0.5825776,0.3489721,0.3142652,-0.10165867,0.22209603,0.14249814,0.13682464,0.20760626,-0.19672567,0.17508066,0.47451854,-0.37000757,-0.42988235,0.32857847,0.16368404,0.23667637,-0.33614996,0.38762283,-0.19752935,-0.32507533,0.35156804
fraise,0.30891937,0.36853608,-0.27594638,-0.19152686,0.33579844,-0.30709788,0.37402365,-0.22527081,-0.30442503,-0.3320488,0.089172125,0.10861206,0.31381342,-0.27240178,0.48141456,0.35731107,0.2030433,-0.3967892,0.2684711,0.20789275,-0.22025095,0.16228166,0.16273531,0.04636335,0.31666902,-0.3213828,-0.11883302,0.3062948,-0.2565081,0.4881848,0.25986984,0.27377564,-0.27731913,0.3334508,-0.023002874,-0.39262322,-0.19213632,0.20612139,-0.24568123,0.36914617,0.22862951,0.21435772,-0.50013506,0.3519743,0.3708743,0.32179356,0.43824294,-0.31310976,0.5154005,0.3541959,-0.40384316,-0.3957024,0.2524247,0.36695898,0.3122186,-0.3225317,0.24624252,-0.24891528,-0.36576802,0.27135402
poulet,0.2513362,0.31242412,-0.29408762,-0.24954967,0.2250745,0.48033553,0.0047371536,0.51132244,-0.25562215,-0.24994269,0.22064136,0.25364292,0.45436686,0.049152102,0.22369193,0.22549784,0.22240138,-0.3115013,0.4024289,0.23666812,-0.5095534,0.28545043,0.34917822,-0.32096547,0.25795984,-0.38040137,-0.37914574,0.46840358,-0.1583311,0.29892442,0.30222413,0.28832656,-0.12478459,-0.03944795,-0.45084435,-0.47516948,-0.43863463,0.2641127,-0.13836026,-0.5760073,0.76271075,0.36842394,-0.2729354,0.31268305,0.23030409,0.19905539,0.18342797,-0.3547648,0.14879537,0.029420935,-0.15643002,-0.27868602,0.1955644,0.163041,0.4677738,-0.20182641,0.27445686,-0.23030259,-0.18861714,0.26927677
cuit,0.35756478,0.30250958,-0.28374922,0.36737466,0.26784754,-0.15895125,0.13576925,0.42153472,-0.1162714,-0.15288109,0.23054206,0.3817673,0.3788975,-0.3950326,0.27690163,0.42518765,0.39518237,-0.28142858,0.32617798,0.3639577,-0.32208323,0.36986366,0.38766608,-0.22135195,0.21431679,-0.3464414,-0.3652001,0.3033813,-0.021380048,0.3894624,0.29602215,0.33451992,-0.27106166,-0.019848183,-0.30380645,-0.32490432,-0.30339098,0.36979085,-0.08124041,-0.21949169,0.41138136,0.16922566,-0.05534862,0.3482858,0.094447106,0.038698763,0.27569813,-0.34925312,0.2414732,0.019387433,-0.15616354,-0.20430121,0.029917322,0.31303716,0.31558138,-0.20681342,0.27022445,-0.24276474,-0.11436362,0.33653015
lys,-0.17864454,0.06292857,-0.2387201,-0.08636637,0.37501538,0.42484742,0.39852107,0.05280602,-0.044568248,-0.29182273,0.338212,0.33839393,0.38453227,-0.36294055,0.14492573,0.33174464,0.3092794,-0.41909012,0.18407938,0.40345377,-0.24807926,0.3287233,0.013356157,-0.48135886,0.3410254,-0.33971378,-0.39209765,0.14562055,-0.31616092,0.33386618,0.35269657,0.40564203,-0.3250827,0.27922827,-0.19831657,-0.32945222,-0.009949137,0.38624835,-0.47006172,0.058064207,0.42870146,0.18255275,-0.24570781,0.13652225,0.15179983,0.0067748576,0.44483697,0.029137172,0.35835683,0.09362307,-0.358895,-0.40909916,-0.070630275,0.17367645,0.10895126,-0.3567192,0.008285133,-0.4163834,-0.4041101,0.32025707
zesté,0.08143072,0.15509827,-0.0825768,-0.27008158,0.031537626,0.20380403,0.20652808,0.18077642,-0.15919967,-0.16216153,0.18844149,0.1433386,0.08474984,-0.07323666,0.20998996,0.05924628,0.036801644,-0.011861514,0.1991864,0.12202908,-0.27293184,0.014045015,0.25615853,-0.24767998,0.20805164,-0.15227261,-0.08275098,0.23489548,-0.2376737,0.07331613,0.12105994,0.16788638,-0.19471456,0.1590584,-0.0646016,-0.113961615,-0.023146838,-0.041409083,-0.003921386,-0.19643883,0.2623266,0.10324943,-0.25673535,0.16335103,0.13516948,0.1381703,0.12255524,-0.25065374,0.20477006,0.2518172,-0.06941579,-0.10046315,0.26437986,0.12766892,0.26592562,-0.20106147,0.15559794,-0.16841576,-0.10435659,0.120529324
sapin,0.20413712,0.37861025,-0.32391113,-0.19614469,-0.099151,-0.07886211,0.25504568,0.22139974,-0.23949331,-0.10215669,0.48821,0.29348558,0.24430497,-0.38438058,0.1700107,0.24424097,0.42934066,0.015669052,0.1736409,0.45772678,-0.37014592,0.39287838,0.356259,-0.30835932,0.2576479,-0.20210893,-0.28260288,0.048672207,-0.3198924,0.44114432,0.2992189,0.32458898,-0.24364735,0.313919,-0.3195027,-0.27051854,0.73069245,0.29604262,-0.34590274,0.43646,-0.20303705,0.2838993,-0.12096965,0.3916059,0.07822059,0.20318705,0.2975765,-0.21786532,0.027628396,0.33133888,-0.33794892,-0.10290211,-0.13034004,0.19440421,0.19297275,-0.32142267,0.35707033,-0.20549373,-0.3429741,0.21637532
anisé,0.28287363,0.30115515,-0.26406425,-0.29321983,0.32661876,0.036714993,0.35498813,0.004758862,0.0034916922,-0.33321476,0.24156937,0.19327533,0.16857597,-0.3734802,0.38601106,0.31663555,0.3455797,-0.3417311,0.24660635,0.3956139,-0.16656661,0.34452826,0.20233834,-0.0355797,0.39404076,-0.21619484,-0.33015865,0.16063547,-0.34431183,0.3094347,0.15000235,0.28925437,-0.37451065,0.054804705,-0.26470935,-0.23259503,0.41364008,0.22183962,-0.49383676,0.52873725,0.37927693,0.34066936,-0.28798985,0.316464,0.28113377,0.41083854,0.3012882,-0.21529572,0.17513329,0.2679255,-0.38575327,-0.29235888,0.23453005,0.32386512,0.19855702,-0.3402109,0.29449332,-0.20475729,-0.35207194,0.33610559
coriandre,0.35233378,0.15545493,-0.25028875,-0.316019,0.30538532,0.68919384,0.16644433,0.63025534,-0.3823459,-0.34776908,0.34854493,0.39773834,0.36136538,-0.10811947,0.24952616,0.22559436,0.16724768,-0.18977365,0.3346394,0.28737396,-0.4419981,0.22813933,0.33022624,-0.48756808,0.1157399,-0.3169859,-0.47416177,0.4446404,-0.38360864,0.034529276,0.36418808,0.4110351,-0.25811026,0.30531508,-0.37289697,-0.27679712,-0.10409127,0.2919396,-0.0035865158,-0.27730623,0.05729553,0.38377655,-0.29045218,0.21640974,0.3386824,0.33814377,0.15561903,-0.41068852,0.21871504,0.21125615,-0.078582995,-0.25835428,0.3227399,0.29874802,0.34429258,-0.16632545,0.26350248,-0.28118792,-0.16963601,0.37295333
bergamote,0.052156936,0.18129674,-0.45832837,-0.11788667,0.11189319,0.32709745,0.1560308,0.120319925,-0.29735255,-0.14387116,0.45663834,0.26348907,0.30580962,-0.52967966,0.25470465,0.38670415,0.38800797,-0.07557316,0.3655324,0.39492235,-0.4125108,0.36370626,0.30355483,-0.31725603,0.035265412,-0.19092749,-0.2981134,0.15675318,-0.31234527,0.24934477,0.19918165,0.24515128,-0.32924205,0.1705811,-0.22292615,-0.27995068,0.5704961,0.32817644,-0.34807044,0.05116848,-0.13681605,0.34307277,-0.28397876,0.38878846,0.18338393,0.2354823,0.14838699,-0.30200514,0.2031081,0.25009552,-0.22782235,-0.25813147,0.20549305,0.34657443,0.2455399,-0.31119016,0.20844054,-0.4356857,-0.27755278,0.34288967
bouillon,0.3500579,0.37473,-0.31168264,0.29203495,0.23045596,0.06478025,0.057487115,0.38884294,-0.19687657,-0.043169923,0.24132346,0.364953,0.402443,-0.22867727,0.22305149,0.28296757,0.26802588,-0.3108989,0.2741704,0.38127097,-0.4563197,0.3298862,0.4938085,-0.33843195,0.22488773,-0.41291258,-0.3488179,0.36552614,-0.024475122,0.33375525,0.23598894,0.28202206,-0.30051646,0.03554599,-0.2970026,-0.3345913,-0.32388407,0.3209229,-0.034318056,-0.33895236,0.47966456,0.20658594,-0.12753224,0.29186147,0.17209964,0.023571132,0.20028663,-0.29035276,0.19859266,0.0394567,-0.15549192,-0.29599577,0.02678707,0.23297706,0.3028824,-0.15976314,0.28335482,-0.28233823,-0.17094517,0.31372613
racine,0.21525781,0.28520387,-0.26604608,-0.038468853,-0.06277015,0.1292136,0.32372338,0.3559233,-0.3267271,0.038911823,0.33263907,0.30162024,0.3700832,-0.32892516,0.17829046,0.26301295,0.37617502,-0.1409575,0.17118128,0.23080046,-0.33212924,0.39133918,0.4095599,-0.29493755,0.30619335,-0.27288267,-0.34711647,0.10687863,-0.2832058,0.39276338,0.22226554,0.12989184,-0.19698265,0.38324463,-0.2861191,-0.22059703,0.3662712,0.22902584,0.010888211,0.26893038,-0.42810833,0.22399583,-0.13486966,0.27801478,0.036827087,0.26841658,0.2098529,-0.22649786,0.19159314,0.37440693,-0.09491232,-0.15942343,0.033547286,0.18099806,0.40524083,-0.30114347,0.28522503,-0.1948364,-0.2022392,0.13813919
santal,0.13217686,0.25042498,-0.28976366,-0.13930339,-0.074483655,-0.19892853,0.2591692,0.2542422,-0.34485993,-0.008808523,0.28047928,0.34199223,0.25509536,-0.37688658,0.18685047,0.15515605,0.31980708,-0.069313586,0.23475134,0.24715665,-0.23917551,0.24714133,0.35050565,-0.2859446,0.17891365,-0.108336695,-0.25344387,0.06505504,-0.32125482,0.29318655,0.23558941,0.08072366,-0.22523636,0.29962406,-0.24933675,-0.19316015,0.5619732,0.20327088,-0.13135675,0.312334,-0.30171505,0.20859686,-0.14353932,0.23443416,0.17055207,0.25021097,0.23990768,-0.16205226,0.20798367,0.21139991,-0.11031412,-0.08237675,-0.019734181,0.19976321,0.29930133,-0.23209786,0.25860405,-0.24467453,-0.22184768,-0.007737838
noisette,0.38702375,0.51114166,-0.40652943,-0.29410928,-0.012956606,0.6680473,0.21600816,0.34118068,-0.44549382,0.27627805,0.30265483,0.43849942,0.26797405,-0.26128915,0.14408386,0.3035879,0.40737575,-0.30917308,0.20841211,0.17914462,-0.67283815,0.35289124,0.547259,-0.3060544,0.4887182,-0.21857178,-0.42450094,0.1945574,-0.420744,0.21834342,0.41645083,0.21489055,-0.18990198,0.51894,-0.2782994,-0.30106226,0.085960895,0.32766408,-0.48881957,0.41841996,0.56895727,0.07419999,-0.17191589,0.101673245,0.04660076,-0.09101189,0.26948416,0.22704625,0.19184011,0.31167048,-0.2878657,-0.2886785,0.4126175,-0.02827496,0.3748565,-0.16272232,0.35434687,-0.3901339,-0.13509123,0.39686108
chou,0.31381023,0.41523254,-0.2889817,0.37116316,0.32792422,-0.06508826,0.12949783,0.5458896,-0.1413591,-0.06028208,0.460962,0.47927162,0.42897666,-0.4952386,0.24467167,0.26511875,0.39384472,-0.23083615,0.32893634,0.44880724,-0.3869986,0.49901852,0.49223217,-0.46196955,0.18446103,-0.35645974,-0.36038935,0.38357586,-0.08290648,0.29877967,0.38520652,0.18294582,-0.32953292,0.12171738,-0.3677886,-0.39877564,-0.39837652,0.41317815,0.20904726,-0.53050876,0.3213455,0.18875504,0.106012985,0.32186466,0.13785286,0.09328942,0.26780215,-0.33491886,0.19737661,0.108059525,-0.051340647,-0.26788726,0.049372327,0.2591965,0.4132685,-0.026816905,0.35089445,-0.4053192,-0.1563347,0.340931
mangue,0.3210089,0.28830865,-0.30442637,-0.25234824,0.15754631,0.294258,0.16382904,-0.18181981,-0.27486244,-0.21363008,0.31425872,0.20742102,0.07391578,-0.3655151,0.3295765,0.21989043,0.24172541,-0.34007144,0.20539221,0.24647807,-0.22569512,0.1776008,0.2406153,-0.23744348,0.30834287,-0.3514134,-0.33138698,0.24149358,-0.22144897,0.31890166,0.33241123,0.24623673,-0.303517,0.22180149,-0.18518752,-0.39803618,-0.29853928,0.30942157,-0.23492952,0.19945087,0.101039246,0.29090357,-0.23149821,0.32552743,0.2477836,0.35781336,0.3611719,-0.1932773,0.43436864,0.16222753,-0.37241232,-0.2243954,0.32253328,0.25095952,0.13584527,-0.36718196,0.1455349,-0.24275875,-0.36595923,0.17897058
fèvetonka,0.3131733,0.13328767,-0.26932412,-0.39614648,0.10066329,0.5273913,0.31624818,0.43776384,-0.15334573,-0.3050293,0.28698114,0.2789859,0.26599565,0.045060914,0.44386047,0.35847366,0.37933552,-0.16496092,0.19528395,0.35402602,-0.52751625,0.32216477,0.5139997,-0.40481257,0.35359386,-0.26442656,-0.3595489,0.29690197,-0.24094076,0.5138536,0.17007348,0.38809353,-0.29103705,0.17259336,-0.36132148,-0.16410677,-0.18857168,0.34196228,-0.32330924,0.43036985,0.72705185,0.25697002,-0.27694905,0.031668082,0.23164731,0.32869712,0.27655435,-0.18366003,0.3587492,0.13360028,-0.3294845,-0.35930508,0.1596376,0.41253048,0.41797093,-0.39132205,0.44409388,-0.42280102,-0.31062645,0.18464716
menthol,0.39781415,0.40397328,-0.21974437,-0.40665892,0.33690628,0.44603413,0.31451035,0.5077283,-0.4525061,-0.3959641,0.41559613,0.45493132,0.34998596,-0.1633797,0.31563485,0.25679952,0.12220923,0.019035796,0.21081804,0.2735046,-0.47262037,0.20145136,0.17610371,-0.2874537,0.18364957,-0.3847339,-0.18753567,0.39028394,-0.24960425,0.15091406,0.3507831,0.27693462,-0.02049626,0.4285693,-0.39260453,-0.21105942,0.6368617,0.29467237,-0.32572132,0.23271446,-0.49748415,0.20658901,-0.06753129,0.2499019,0.46915263,0.21375133,0.036999077,0.040711377,0.36509395,0.21939966,-0.09663992,0.020223511,0.15259191,0.36502787,0.32963008,-0.12341666,0.4760422,-0.24035582,0.016668122,0.29792383
plastique,0.10575767,0.08267065,-0.28626645,0.15442617,0.31279618,0.20600954,0.15255728,0.1642102,-0.26648706,-0.30386567,0.36141276,0.30071485,0.18963873,-0.36195084,0.25750452,0.23334111,0.28570586,-0.2219463,0.34892246,0.42942008,-0.124060646,0.25024801,0.1733416,-0.2301393,0.148855,-0.29286507,-0.22097829,0.19345474,-0.15799531,0.23976329,0.25724095,0.29664573,-0.34151244,0.22836402,-0.3056329,-0.24091977,-0.062323548,0.4028332,-0.04474844,-0.07952734,-0.33185434,0.23982373,-0.18996686,0.32243216,0.27689183,0.21464944,0.2195602,-0.2738446,0.2008898,0.12133542,-0.26929826,-0.2723892,0.12042785,0.21937054,0.0944788,-0.18432954,0.20759194,-0.2913472,-0.17252402,0.28700793
tomate,0.41587555,0.29819837,-0.25279713,0.10347572,0.34276488,0.28590164,0.22214921,0.43736413,-0.1844038,-0.25243622,0.40297887,0.37288475,0.32163444,-0.44602552,0.31696838,0.3368533,0.281332,-0.28203297,0.32700515,0.33858103,-0.29399425,0.4713468,0.41064927,-0.38758183,0.15368629,-0.39995015,-0.43837988,0.28617024,-0.16108538,0.2755437,0.31269568,0.18975475,-0.19794735,0.31898052,-0.27413082,-0.28227922,-0.515849,0.42046067,0.175417,-0.27196556,-0.31548586,0.27812564,-0.1252011,0.17651567,0.18615964,0.2526699,0.26162997,-0.2376697,0.3825868,0.23407525,-0.10528144,-0.27269953,0.13222475,0.24684775,0.213861,-0.058239795,0.18779784,-0.36990145,-0.15159613,0.29525578
ozone,0.11687042,0.14824712,-0.21940081,-0.05033292,0.23021254,0.4905448,0.14573269,0.058464423,-0.24163777,-0.0752467,0.28287715,0.26613498,0.24052672,-0.27715784,0.23685318,0.2289961,0.16030627,-0.36902457,0.28581718,0.2783016,-0.14485495,0.2681096,0.028403565,-0.28495395,0.035342053,-0.21596985,-0.1836387,0.10035288,-0.1696485,0.28931195,0.2143859,0.30962265,-0.24597856,0.19038135,-0.2573912,-0.26605988,-0.09629115,0.25816324,-0.14026561,-0.38691896,0.12859488,0.18404669,-0.22761573,0.24117129,0.18608999,0.14777319,0.27008402,-0.24665463,0.33223587,0.052727595,-0.065555215,-0.277439,0.15401407,0.18417162,0.1771393,-0.13566366,-0.10042313,-0.37458628,-0.2732604,0.2129178
grillé,0.36713114,0.43937254,-0.30389133,-0.06787312,0.087846726,0.39056268,0.111706,0.35009605,-0.331054,0.28226396,0.18493429,0.370866,0.37835175,-0.262305,0.23477592,0.38087553,0.3201159,-0.31946778,0.19904576,0.14728296,-0.49795848,0.4369895,0.4314733,-0.29628515,0.423285,-0.20884159,-0.36124504,0.23288673,-0.32044303,0.23378405,0.4357406,0.17920314,-0.12677738,0.4257117,-0.1684586,-0.343706,0.12832768,0.27637833,-0.2779485,0.22963655,0.4431988,0.13589013,-0.15643099,0.16854417,-0.022836288,-0.08635728,0.3309853,0.1331066,0.17723012,0.27293754,-0.23328245,-0.26370358,0.26185548,-0.038938425,0.28496084,-0.22710773,0.23207137,-0.41226172,-0.12506086,0.39424372
cumin,0.23016742,0.103001125,-0.17584185,-0.19405454,0.17612761,0.13609175,0.2124255,0.3562464,-0.15138203,-0.3189193,0.21882448,0.30628073,0.22846392,-0.3171054,0.13708538,0.26301765,0.24542242,0.03696152,0.2804428,0.29769257,-0.22697702,0.20990875,0.2406052,-0.42937824,0.17270148,-0.24926174,-0.17813125,0.2155326,-0.2909699,0.0035668742,0.10456103,0.32579195,-0.23492572,0.2935124,-0.32185695,-0.3247572,0.54431033,0.25456655,-0.14986913,0.39024815,-0.35703266,0.31705585,-0.17768626,0.10865902,0.19951148,0.19705285,0.20486867,-0.20964953,-0.029287193,0.33752096,-0.26247084,-0.19962086,0.056311596,0.15275146,0.12784716,-0.2949201,0.23357804,-0.23877317,-0.11421201,0.26586318
siropdérable,0.2702722,0.41312778,-0.17786628,-0.30212235,0.3164804,0.5381366,0.23286085,0.31098974,-0.13399419,-0.05606743,0.21150893,0.3382424,0.26123524,-0.26128244,0.08517209,0.2928783,0.19015102,-0.4070707,0.46129882,0.30550995,-0.4444964,0.2552624,0.31843564,-0.03524744,0.4421655,-0.17997208,-0.3418122,0.10535351,-0.20440322,0.46552342,0.20070308,0.32279074,-0.2994359,0.124367744,-0.2706221,-0.22338803,-0.38784307,0.3063076,-0.38599634,0.4496078,0.590403,0.14826709,-0.109572835,0.27672994,0.04977221,0.2256769,0.35832182,-0.0037377346,0.25302064,0.17516774,-0.16815653,-0.32823783,0.4704558,0.44134074,0.3465384,-0.11451598,0.32655412,-0.29299688,-0.30119935,0.24085703
poisson,0.28067303,0.25496995,-0.25235367,0.22886918,0.12596937,0.4112302,0.20633605,0.43797803,-0.3393159,-0.09026759,0.32884645,0.31548637,0.30595058,-0.3226704,0.13750139,0.24491373,0.26719615,-0.26039755,0.3580219,0.2921889,-0.3390122,0.38127673,0.3861066,-0.35363233,0.25522578,-0.2792059,-0.35232908,0.24668726,-0.1678178,0.33733606,0.3971631,0.24988286,-0.16102853,0.20517376,-0.31347895,-0.29845273,-0.5416845,0.28135264,0.04333297,-0.35653764,-0.08490214,0.27114725,-0.14556265,0.27449846,0.1383047,0.10634139,0.16988637,-0.31060115,0.19052157,0.19896361,-0.12956068,-0.25764573,0.102832824,0.21831185,0.32174152,-0.18443167,0.25768772,-0.29001898,-0.19644663,0.29474747
gardénia,0.063854896,0.14527754,-0.2312838,-0.085286655,0.19484276,0.2538564,0.26995647,-0.11486376,-0.18812189,-0.2996692,0.3216598,0.112055674,0.2470561,-0.3124094,0.31688398,0.21527179,0.2795391,-0.47496435,0.2667872,0.3359197,-0.15674421,0.3005988,0.1434586,-0.1600181,0.13784501,-0.13166088,-0.050144777,0.16282688,-0.22267959,0.33546188,0.26315027,0.23938999,-0.38088986,0.1686393,-0.13951717,-0.24564672,0.11103635,0.31875348,-0.369254,-0.122409254,0.11583331,0.17005491,-0.3186734,0.3291111,0.18667626,0.26234886,0.3142181,-0.28841394,0.23933688,0.17935368,-0.27417073,-0.27828735,0.11878477,0.36593035,0.10343968,-0.22768237,0.046845935,-0.31994224,-0.3639549,0.181804
solvant,0.1998468,0.20430624,-0.27931902,-0.3545965,0.31188634,-0.056507453,0.2471667,-0.108103186,-0.22605588,-0.27878463,0.047949865,0.124115184,0.13264956,-0.1854774,0.27732226,0.20187388,0.26156947,-0.29430133,0.2752391,0.11140942,-0.15205565,0.13604105,0.1221472,-0.10746744,0.3528898,-0.16486898,-0.21647912,0.27720484,-0.32742888,0.28386587,0.19421014,0.22056226,-0.2409564,0.27062237,-0.14161673,-0.2748926,-0.25434595,0.24135014,-0.27095026,0.304562,0.1532145,0.13554963,-0.37302,0.31420013,0.25693566,0.1885859,0.18793258,-0.19751514,0.33628643,0.27408603,-0.3585406,-0.2732763,0.25541562,0.23873134,0.23090088,-0.26953495,0.2388067,-0.18830335,-0.30522346,0.23462358
narcisse,0.3084838,0.2889715,-0.31926617,-0.0719723,0.13959602,0.23983032,0.21067607,0.0777791,-0.056529757,-0.2556987,0.35588324,0.2585215,0.18449794,-0.3799718,0.24748176,0.24302866,0.23329923,-0.26925945,0.20545208,0.31622124,-0.059080973,0.31761467,0.273665,-0.286062,0.21202624,-0.22785448,-0.21111587,0.085187055,-0.32622254,0.3040692,0.19345,0.22971198,-0.36690772,0.07073024,-0.25108993,-0.26324594,0.42491448,0.34413785,-0.39958623,0.3096357,0.20794852,0.2781393,-0.24283116,0.31477812,0.29431358,0.25919423,0.2775778,-0.2779839,0.14032671,0.17753139,-0.2962606,-0.2570718,0.16388172,0.21665122,0.042127207,-0.2625518,0.055850223,-0.27895048,-0.4261375,0.32186484
galbanum,0.21466884,0.3507223,-0.18257073,-0.2900769,0.3261036,0.21171649,0.28412175,0.165639,-0.15423992,-0.34839016,0.0075103045,0.20489335,0.2515972,-0.1669785,0.22007701,0.20099273,0.11443861,-0.25138587,0.10584704,-0.033465937,-0.068199605,0.18668862,0.23080552,-0.26572537,0.28654352,-0.27884185,-0.26805627,0.14827925,-0.1544686,0.2812534,0.18039078,0.16203326,-0.33670738,0.28918692,-0.24499081,-0.22402039,-0.32246092,0.37468672,-0.12788258,0.2926194,-0.16208671,0.0849107,-0.30022058,0.18491657,0.35478103,0.2051293,0.34386665,-0.30756438,0.37645233,0.259722,-0.21216223,-0.39098826,0.36863226,0.25251377,0.19298427,-0.16535409,0.20184359,-0.14520584,-0.24663378,0.3011265
eucalyptus,0.36171538,0.3766779,-0.26047957,-0.29544753,0.2481206,0.42233598,0.25414744,0.6466383,-0.36142194,-0.13743453,0.36394837,0.37371987,0.38971677,-0.14815214,0.11917673,0.27935547,0.25274104,0.06568821,0.21432139,0.14230572,-0.40600857,0.32933912,0.39920115,-0.45637473,0.08285386,-0.3455757,-0.2586086,0.31770927,-0.06285648,0.07056446,0.33346993,0.18296334,0.01036945,0.47560698,-0.46328098,-0.07681898,0.5782417,0.2736495,-0.07854654,0.46170568,-0.42415404,0.034195993,0.013944728,0.17660531,0.18044525,0.038102794,0.010904076,0.00091544166,0.18778026,0.30098486,-0.15298988,0.012660235,0.0398987,0.25796288,0.39749068,0.015642893,0.40452892,-0.15675008,-0.08233789,0.13596416
mousse,0.09516681,0.24386638,-0.27179122,-0.13849422,-0.041622937,0.015812121,0.08815143,0.25773984,-0.26286122,-0.14464287,0.31607476,0.20003939,0.28266433,-0.23487043,0.18808183,0.13228948,0.33336562,0.10775761,0.21877575,0.1352849,-0.21242708,0.25684804,0.29974675,-0.24216577,0.16671023,-0.05931281,-0.30473214,0.1384647,-0.23189855,0.24862832,0.11763019,0.089152254,-0.21092814,0.2831783,-0.28659695,-0.12282205,0.44027478,0.18717772,-0.03554563,0.34898123,-0.33916146,0.17737082,-0.17015952,0.23738173,0.117155865,0.24010207,0.14663878,-0.19594923,0.09775454,0.2613933,-0.21281564,-0.1582153,-0.008980401,0.13619539,0.22886024,-0.23461738,0.26637313,-0.15028697,-0.11772062,0.15128651
alcool,0.24743909,0.261741,-0.16809201,-0.227543,0.32231107,-0.015622726,0.3536973,-0.058458026,-0.24715476,-0.2681339,-0.05544012,-0.076308325,0.12782621,-0.24782261,0.28156352,0.21579115,0.19752154,-0.44522452,0.1222803,0.13362505,-0.026597433,-0.027413346,0.21008384,-0.03408186,0.19458187,-0.2936512,-0.12098577,0.265921,-0.20427944,0.41826177,0.14124143,0.165723,-0.24437346,0.2598238,-0.11057952,-0.23018783,-0.3325054,0.19131178,-0.22838667,0.293733,-0.0065235235,0.12332682,-0.37276495,0.30609003,0.29609227,0.31503454,0.3241658,-0.20717101,0.3995077,0.22434852,-0.44192332,-0.30952054,0.35342968,0.3092209,0.25383046,-0.2374741,0.23125312,-0.18478203,-0.40608376,0.2048924
patchouli,0.090238914,0.3363166,-0.23958486,-0.04540194,0.011150546,0.22996955,0.13523537,0.28385672,-0.2569523,-0.07357077,0.2972752,0.22437868,0.19893748,-0.27761188,0.16747227,0.19451906,0.32046664,-0.05400272,0.07633416,0.18277156,-0.3172277,0.25420064,0.3327402,-0.19335209,0.20397879,-0.19707933,-0.20457351,0.11171353,-0.20587578,0.35985398,0.22359371,0.15522946,-0.12627824,0.2758141,-0.22007822,-0.21206881,0.27055284,0.24237974,-0.008100346,0.26271284,-0.2043683,0.10044201,-0.098591335,0.22015078,0.1589433,0.11378982,0.13616693,-0.26715857,0.16370657,0.30288056,-0.21582785,-0.09976513,0.065770105,0.21912163,0.27749395,-0.23346192,0.2740162,-0.22722626,-0.16285267,0.16760486
aubépine,0.266296,0.21666637,-0.19843532,-0.19126987,0.3183328,0.31500298,0.24804547,0.041595947,-0.118459314,-0.24214795,0.20683599,0.12658764,0.18600146,-0.22304063,0.36671633,0.2867716,0.31743896,-0.4000346,0.2809994,0.25932693,-0.26334518,0.2750839,0.28071028,-0.21969837,0.25217333,-0.21102476,-0.2703452,0.09256214,-0.27353695,0.3503618,0.18993452,0.32241207,-0.2900514,0.029866602,-0.18310645,-0.24449211,0.11156094,0.1774903,-0.4174708,0.13901135,0.4285435,0.26873344,-0.17727336,0.2262342,0.2632583,0.28646082,0.20600975,-0.21148138,0.27812305,0.09536994,-0.2063486,-0.27030128,0.3158877,0.38142955,0.108557686,-0.21549489,0.20432147,-0.29059368,-0.33483142,0.273331
myrtille,0.14553156,0.24891707,-0.19686761,-0.16617855,0.28111237,-0.1955753,0.32171795,-0.18189034,-0.25651854,-0.23686785,0.1589387,0.218671,0.11725237,-0.38014096,0.30261087,0.34055895,0.25640786,-0.26638973,0.20685293,0.34163064,-0.23187241,0.25272048,0.17444126,-0.05344449,0.2456429,-0.15010273,-0.24582213,0.25513935,-0.25824615,0.32824582,0.16383088,0.34272963,-0.25456855,0.16091017,-0.082905784,-0.27461216,-0.01432579,0.27406365,-0.33184865,0.32148713,0.027478829,0.2896145,-0.3268814,0.30041528,0.19350877,0.22208041,0.29013607,-0.21474345,0.28809124,0.3105402,-0.3339932,-0.29869044,0.13578047,0.3178603,0.25184602,-0.35344553,0.23676646,-0.18409763,-0.29447165,0.18584542
fenouil,0.21018392,0.33553323,-0.3142228,-0.20069464,0.33887032,0.5642097,0.12705365,0.41350925,-0.3388223,-0.288288,0.4634952,0.27670336,0.31659043,-0.21039331,0.1934306,0.11820739,-0.065486304,-0.5115035,0.17767385,0.30460235,-0.29015252,0.46254194,0.47705948,-0.30678475,0.3223893,-0.23312876,-0.35063484,0.2985862,-0.16383407,0.12673444,0.09105778,0.2713539,-0.06796415,0.3922396,-0.24309875,-0.10071688,0.35048753,0.3357178,-0.4422385,0.46790045,0.09111762,0.20197314,-0.32229924,0.06311246,0.32047617,0.20839319,0.26625502,-0.14538673,0.32800058,0.06097745,-0.108796984,-0.30938762,0.25780368,0.10160957,0.23111713,-0.27525717,0.19406785,-0.22309308,-0.45987183,0.27944487
marin,0.13868062,0.1904943,-0.2945171,-0.06865745,0.2512114,0.40238988,0.10654576,0.20732456,-0.17640075,-0.12006375,0.24743845,0.21196613,0.13771082,-0.32747707,0.2470091,0.16336143,0.1808793,-0.15826114,0.22009003,0.24917483,-0.19929156,0.2982935,0.10915153,-0.34740067,0.0154543035,-0.20076361,-0.18305549,0.12769853,-0.19488421,0.14294127,0.23667455,0.22783837,-0.21135095,0.26537377,-0.2748091,-0.23768717,-0.0022936761,0.20259464,-0.07239452,-0.13430186,0.02432501,0.21706247,-0.18234459,0.21315941,0.24866785,0.12452881,0.19700788,-0.19880298,0.33043185,0.042926647,-0.17768884,-0.2305721,0.029733168,0.14205442,0.118134886,-0.15307152,0.012325026,-0.34417903,-0.24854207,0.2115993
sueur,0.292005,0.0025282465,-0.16256204,-0.21948442,0.23964357,0.26689783,0.36496812,0.2826115,-0.33264786,-0.31982133,0.22670129,0.14985709,0.05338161,-0.0954481,0.28876117,0.15535472,-0.09635373,-0.32570758,0.11207094,0.03126562,-0.007961951,0.17563671,0.16722901,-0.045783445,0.2920059,-0.34186435,-0.25653163,0.24912739,-0.12103661,0.22233428,0.23961867,0.21686183,-0.31763735,0.2256278,-0.29780492,-0.30472398,-0.39295998,0.24550758,-0.17629834,0.26379102,0.03636443,0.19504166,-0.28863442,0.07719761,0.29909578,0.31909508,0.25532234,-0.19315228,0.30874363,0.10891867,-0.25107262,-0.2245191,0.39385194,0.23502567,0.2844968,-0.20033412,0.10541351,-0.1745095,-0.2914419,0.19100824
mentheverte,0.2819641,0.38792402,-0.29682052,-0.17301604,0.21655451,0.5419352,0.27354687,0.4756293,-0.28019157,-0.16524263,0.324371,0.44300833,0.33765018,-0.14289172,0.30314928,0.22532284,0.19142406,0.043098237,0.24696678,0.3040209,-0.32784632,0.2679814,0.28364027,-0.3490932,0.17751285,-0.24007452,-0.16182545,0.24072781,-0.14182061,0.089941725,0.19503719,0.24781686,0.01586852,0.45913792,-0.4203662,-0.18837437,0.5815569,0.23528942,-0.17867649,0.41804397,-0.58343595,0.21617547,-0.10981782,0.3386269,0.30310312,0.12723297,0.11743382,-0.01331082,0.3896186,0.19190226,-0.1654568,-0.06283012,0.058070768,0.29052663,0.35149294,-0.07121809,0.361579,-0.1434009,-0.026682973,0.26449078
levure,0.1448823,0.39473212,-0.24097115,-0.19232059,0.055539135,0.28629613,0.23465383,0.09121971,-0.27663517,0.007612169,0.19027069,0.23637906,0.13793923,-0.2668684,0.11078424,0.23506077,0.285505,-0.3421021,0.092749685,0.10006127,-0.3251753,0.27383018,0.29997182,-0.12326204,0.39573643,-0.18765432,-0.1545386,0.0981227,-0.18503499,0.2650556,0.22650072,0.15776451,-0.037407093,0.37691236,-0.20372754,-0.24351071,-0.113781504,0.059051163,-0.42656687,0.33388454,0.14034052,-0.06841986,-0.1714486,0.35500228,-0.039455436,0.086493604,0.2832523,-0.17435658,0.18475685,0.40866035,-0.30015507,-0.36822307,0.2713223,0.099400185,0.29340488,-0.24770883,0.28406793,-0.27230126,-0.2504695,0.27982232
naphtaline,0.3074295,0.26928082,-0.28489178,-0.26038644,0.16951412,0.22654586,0.2300961,0.15103015,-0.02639067,-0.11554439,0.085940704,0.23443508,0.24976912,-0.20525673,0.24164805,0.29689914,0.27644348,-0.38056272,0.15635379,0.21910033,-0.22597046,0.38847837,0.12556724,-0.056592464,0.34111795,-0.24903327,-0.18842526,0.0989146,-0.2425985,0.37511972,0.11400503,0.16154462,-0.25307184,0.2754138,-0.13210231,-0.21341752,0.2967059,0.2085124,-0.48813584,0.41131628,0.46577007,0.32646805,-0.11465959,0.19656488,0.14578073,0.1383213,0.18224803,-0.18544015,0.23566335,0.20752478,-0.33308214,-0.22776559,0.22961323,0.21577519,0.18495202,-0.26589108,0.3178385,-0.1537795,-0.34681952,0.20462732
camomille,0.23755054,0.00572975,-0.2114779,-0.118482314,0.23190233,0.1555048,0.22661354,0.28129658,-0.27477482,-0.33197507,0.25556314,0.24545279,0.3047526,-0.32742292,0.2386767,0.24999565,0.22625464,-0.08831868,0.27327186,0.20303488,-0.26962504,0.26188314,0.20329572,-0.2812167,0.11510372,-0.19780391,-0.2944836,0.23267367,-0.21776727,0.09344616,0.25023848,0.24072182,-0.18992639,0.26294625,-0.25829053,-0.29410687,0.23098874,0.21513802,-0.11081959,0.047245763,-0.23133516,0.31673932,-0.32757568,0.23218834,0.25067693,0.2733667,0.21274653,-0.37581864,0.022378583,0.23515856,-0.29609177,-0.25211555,0.19060971,0.24145135,0.19117093,-0.27875793,0.21242316,-0.26252696,-0.12694442,0.3240068
bourgeondecassis,0.27587995,0.25079924,-0.25110373,-0.15890679,0.28786677,0.018848404,0.21745357,0.044059686,-0.3010834,-0.2966654,0.08173423,0.14991492,0.23606208,-0.29022926,0.32306093,0.1508114,0.1350959,-0.33528405,0.26079714,0.19859314,-0.1981079,0.11890876,0.1942998,-0.17338586,0.15325384,-0.2706044,-0.20062822,0.31606007,-0.15749912,0.25891018,0.17129835,0.18895936,-0.14431775,0.17197444,-0.1914911,-0.30816197,-0.16714896,0.30547404,-0.05628095,0.1832636,-0.011884287,0.18940371,-0.31428567,0.22789225,0.2688012,0.23320073,0.30971158,-0.25713357,0.29168615,0.18733299,-0.25365752,-0.26651722,0.22697224,0.32971096,0.27919874,-0.24854083,0.18702742,-0.15913364,-0.19346738,0.22492506
raifort,0.27761635,0.31565696,-0.31816083,0.29237843,0.24149615,0.039655954,0.13821056,0.51528895,-0.26520693,-0.14180426,0.35845026,0.43173787,0.3583306,-0.39526588,0.3884743,0.31447363,0.34399724,-0.2142139,0.28927326,0.4000888,-0.35690248,0.48616344,0.31674314,-0.30911666,0.18010227,-0.3540009,-0.31133616,0.27256757,-0.10060892,0.26559025,0.30786586,0.17768544,-0.28467548,-0.00029011443,-0.2898111,-0.19200213,-0.38926682,0.34133595,-0.0913665,-0.2464049,0.50498325,0.22725545,-0.08436103,0.25750914,0.20384951,0.13937804,0.1763614,-0.32680798,0.21886009,-0.030718401,-0.033485744,-0.2588097,0.012671486,0.25222093,0.3442284,-0.23834497,0.26828074,-0.34483147,-0.18665001,0.31520963
pommeverte,0.4240973,0.34330958,-0.13550746,-0.16999385,0.44010997,0.17910805,0.2022874,0.2303764,-0.20268166,-0.36196205,0.20373768,0.18427223,0.18861301,-0.22386125,0.4184067,0.12216757,0.23370604,-0.3933211,0.06941102,0.07207176,0.13877347,0.0153041575,0.024067465,-0.28623453,0.12918545,-0.35408276,-0.10085884,0.39279807,-0.25616655,0.3021479,0.27132845,0.14254916,-0.30035135,0.31790233,-0.16725183,-0.24650589,-0.5129324,0.3838038,0.016275208,0.2096461,-0.28226197,-0.026882477,-0.3546362,0.29198334,0.43247974,0.32090697,0.3965956,-0.3402294,0.4543987,0.096418954,-0.35682094,-0.3457407,0.4469735,0.27200234,0.12139428,-0.15635787,0.091074966,-0.092806585,-0.3356595,0.06931151
caoutchouc,0.31893554,0.36151028,-0.26932928,0.11262973,0.10029096,0.36947173,-0.011680348,0.42676896,-0.21244812,0.0736095,0.14918771,0.47154444,0.32170627,-0.36689103,0.15990001,0.28094497,0.21853375,-0.35263842,0.1612086,0.23180358,-0.3486836,0.41966116,0.36308175,-0.4058807,0.2746485,-0.32604283,-0.40541214,0.31689185,-0.15484224,0.28024292,0.304558,0.21920179,-0.117775716,0.23725075,-0.2537914,-0.34628776,0.14355186,0.37631077,-0.27616566,0.059701625,0.3939407,0.16496834,-0.20451893,0.20295659,0.059528112,-0.12562886,0.2084759,-0.0962497,0.16360141,0.25237983,-0.10781743,-0.31156227,0.21703914,0.18861234,0.23314878,-0.1790472,0.21125704,-0.41737926,-0.040519845,0.3212999
radis,0.2391549,0.33482563,-0.19474018,0.2897874,0.2717906,0.13693917,0.18212424,0.42684558,-0.18890856,-0.10499961,0.3524007,0.2862013,0.2946069,-0.42812818,0.25427932,0.2705669,0.26120433,-0.22258818,0.25573358,0.31211782,-0.35330504,0.33275956,0.4134789,-0.25330466,0.26094887,-0.3242846,-0.30757898,0.28845337,-0.120875485,0.29457968,0.3292477,0.24946207,-0.1902377,0.14222264,-0.2492903,-0.2174474,-0.4702322,0.34630248,0.07727434,-0.33267632,0.03598829,0.17929551,-0.11177586,0.31444317,0.06799409,0.1956883,0.21186972,-0.27697212,0.22131124,0.19283743,-0.112215206,-0.19961783,0.102455854,0.23287451,0.25537202,-0.11901313,0.2914078,-0.2944064,-0.18921576,0.2738106
suif,0.3160372,0.1255804,-0.35247737,-0.52501905,0.39962018,0.5878482,0.18452993,0.39096034,-0.4335662,-0.25081843,0.18925348,0.26735616,0.34428847,0.062235348,0.3005391,0.03850931,0.17474414,-0.1509111,0.24128082,0.26807827,-0.25618926,0.18686146,0.24010983,-0.24744946,0.16142292,-0.24736327,-0.4128796,0.37769556,-0.3561679,0.13121796,0.3291436,0.34728873,-0.1195052,0.26246092,-0.37677816,-0.3378487,-0.40355077,0.18747485,-0.18628567,-0.095193505,0.31822214,0.30058593,-0.39208323,0.14745454,0.30063528,0.3967852,0.101170845,-0.17817014,0.19555727,0.32642117,-0.15270644,-0.27835256,0.38614172,0.11569742,0.39738953,0.015763685,0.26566637,-0.23722604,-0.1226725,0.24901105
