RESERVED,-0.029985663,-0.084429204,-0.05302051,0.027755491,-0.042456508,-0.03611009,-0.07841398,-0.08328317,0.009888127,0.0020256732,-0.0052972212,-0.056778945,0.094350636,0.03324164,0.021830782,-0.07100973,-0.07355886,-0.027535737,0.02815539,-0.032403365,-0.012158215,0.057327628,0.07001517,0.0638203,0.040692013,-0.050507143,-0.0072169565,0.018492114,-0.054899514,0.008499231,-0.0034965724,-0.02416198,-0.041354667,-0.02451855,-0.049882006,0.05547043,0.029827036,0.014700927,0.051284436,-0.026291095
UNK,-0.10500663,-0.075308904,0.029941685,-0.086041376,-0.00057908706,0.06789574,0.10411604,0.11466838,0.03667299,0.020103185,-0.052981477,0.048493963,-0.11238776,0.083238,-0.0520053,-0.038828284,-0.026179556,-0.14546016,-0.09778274,0.1671647,-0.10371551,0.041980155,0.07615612,-0.10899126,0.09996933,0.106615156,0.14592826,0.048910424,0.09904988,0.066793606,0.09097888,-0.14933337,-0.10351671,0.10307458,-0.12998587,-0.09772447,-0.07235524,-0.055167325,-0.006037075,0.03771351
fruité,-0.698633,-0.9013039,0.8267454,-0.733961,-0.08938253,0.6433565,0.6719089,0.9932859,0.7627467,-0.120839,-0.76118994,-0.16760033,0.7484535,0.8043642,-0.76244617,-0.5608567,-0.8395697,-0.8841435,-0.6399402,0.7917124,-0.76055056,0.6579435,0.91333604,-0.83492196,0.740842,1.0381951,0.81470513,0.6673798,0.7572272,0.79683596,0.88191813,-0.75639296,-0.8961603,-0.5678605,-0.8120415,-0.4287622,-0.79000425,-0.56032616,-0.9052665,0.47077256
vert,-0.7417096,-0.73098886,0.6021687,-0.333031,-0.011652373,0.35237196,0.4558357,0.71225154,0.6687743,0.005810836,-0.7530961,-0.6898082,0.29026166,0.61881447,-0.6661804,-0.46354905,-0.86760235,-0.818856,-0.47022325,0.5475366,-0.49070475,0.31898382,0.69542843,-0.629074,0.5201649,0.7454062,0.6436496,0.6279679,0.6318464,0.69866186,0.9444219,-0.8265196,-0.67916787,-0.030176282,-0.5783225,-0.63998675,-0.73838353,-0.5258862,-0.7366568,0.34812975
doux,-0.62152374,-0.6778835,0.886732,-0.77647436,-0.5983865,0.7819914,0.8188834,0.7604302,0.63011974,0.04271506,-0.7693844,0.30314133,0.4788943,0.8399774,-0.8664967,-0.7391658,-0.7440187,-0.6124015,-0.88864124,0.8575602,-0.65680647,0.7909294,0.68352175,-0.8271986,0.89617944,0.7823471,0.7953479,0.7226256,0.71861744,0.7387543,0.84076464,-0.5614872,-0.82996726,-0.545439,-0.8797081,-0.6268971,-0.6653336,-0.6128225,-0.7627373,0.8283458
floral,-0.62962466,-0.76039064,0.69531715,-0.5615343,-0.046521574,0.7081218,0.73869133,0.6308503,0.5569985,0.4467868,-0.53200656,1.1856904,-0.048060015,0.6424171,-0.8146837,-0.7678249,-0.64471614,-0.395359,-0.7268858,0.88262606,-0.7942594,0.84364796,0.8183398,-0.7842388,0.6442499,0.6385857,0.79448855,0.81931484,0.91851985,0.7931488,0.67452466,-0.7934984,-0.5340602,-0.29186076,-0.76712906,-0.50233275,-0.82084334,-0.7780195,-0.8257978,0.62048745
boisé,-0.59796345,-0.75344324,0.65919197,-0.6047176,-1.0529957,0.484896,0.77651083,0.6821785,0.7262285,-0.2934208,-0.61348593,1.2448459,-0.5821811,0.7097511,-0.6991167,-0.7214673,-0.50904363,-0.61984015,-0.7508247,0.7530066,-0.7230226,0.7550818,0.5408115,-0.6955733,0.63268656,0.7332121,0.8717504,0.77781594,0.625175,0.76702845,0.6732297,-0.68103,-0.5549257,0.7949635,-0.6111118,-0.6673658,-0.683895,-0.78420514,-0.5899079,0.75662184
herbe,-0.68518376,-0.7027259,0.7091947,-0.5012883,-0.5797069,0.48117337,0.7278404,0.80478096,0.82215035,-0.30714175,-0.80493104,0.34732485,-0.51858246,0.72312033,-0.59506476,-0.6122571,-0.65662074,-0.7713699,-0.792356,0.58717465,-0.67490953,0.4707882,0.55536735,-0.62103534,0.7084714,0.76323426,0.64086187,0.8921728,0.60516906,0.7415441,0.8651643,-0.7291127,-0.74142355,1.0660498,-0.6299757,-0.75082576,-0.66441303,-0.77498794,-0.62984717,0.66374946
épicé,-0.48851144,-0.4871307,0.777537,-0.6621598,-1.077288,0.6553719,0.64266515,0.67272687,0.5883446,-0.7699047,-0.72267324,0.99719864,-0.13232838,0.7299237,-0.6015397,-0.6555797,-0.60703075,-0.472515,-0.8585925,0.62009525,-0.7019013,0.7127708,0.471312,-0.77155983,0.75809103,0.8702693,0.61169195,0.74156857,0.6400136,0.6581533,0.7979244,-0.5193861,-0.7655911,0.5382947,-0.63757503,-0.6583214,-0.6036471,-0.6085589,-0.604808,0.7095436
ciredabeille,-0.56407386,-0.6552594,0.68523717,-0.6871842,0.7330485,0.88885814,0.70080775,0.7879903,0.71627533,0.913487,-0.8475559,-0.33870703,-0.26401064,0.8297838,-0.5793501,-0.6285987,-0.73998106,-0.6625242,-0.591859,0.7204677,-0.6058103,0.50784814,0.67284065,-0.62860334,0.6566978,0.86400855,0.72111666,0.8281196,0.79631263,0.6919745,0.8087709,-0.5916076,-0.5988431,-0.7014655,-0.79338086,-0.54483986,-0.71910083,-0.63994646,-0.738608,0.6169192
gras,-0.4793452,-0.58839834,0.6469413,-0.6611242,1.0224149,0.8756702,0.6637101,0.7486569,0.69665384,1.0997734,-0.8082656,-0.85670316,-0.5056947,0.82554877,-0.48441938,-0.47626805,-0.6710957,-0.67247367,-0.60482997,0.5415469,-0.4932468,0.22926341,0.5212473,-0.49259108,0.6198008,0.840829,0.5395249,0.88182056,0.6005406,0.6990676,0.7947694,-0.48190072,-0.56687504,-0.6975183,-0.71709895,-0.55283624,-0.61965203,-0.59774745,-0.5461911,0.64653325
frais,-0.7169117,-0.61175513,0.6702589,-0.63012475,-0.7085216,0.5182867,0.562687,0.60945046,0.70137656,0.054102346,-0.83318424,0.11798249,-0.65681213,0.62723947,-0.5616796,-0.63646835,-0.57437104,-0.85133743,-0.5573305,0.34365886,-0.5568366,0.36171293,0.702778,-0.55127776,0.7078099,0.65781605,0.48360342,0.8704331,0.6036099,0.43866467,0.8917762,-0.60057414,-0.7223764,0.6120175,-0.7219624,-0.79517627,-0.6713667,-0.6002172,-0.6225194,0.547145
agrume,-0.5334692,-0.5304696,0.43321735,-0.71973556,0.4464509,0.70756984,0.6915742,0.6378788,0.7641112,0.954623,-0.73372495,0.70899934,-0.92658854,0.5888492,-0.5668353,-0.7162894,-0.45680708,-0.66062975,-0.57992554,0.7161148,-0.5970301,0.6445421,0.48333842,-0.54508686,0.60320103,0.6660155,0.5637645,0.7349498,0.70808566,0.7038406,0.51828635,-0.67071366,-0.6164956,-0.061415024,-0.55741686,-0.73822093,-0.57264537,-0.7312305,-0.6934638,0.5473377
balsamique,-0.39780372,-0.49054766,0.64711523,-0.6057428,-0.9337207,0.47761774,0.5687927,0.5059402,0.4117834,-0.6009085,-0.4379358,1.3510714,0.009517193,0.615114,-0.6650648,-0.64529014,-0.40133673,-0.35742706,-0.6397239,0.7082449,-0.68669575,0.7627904,0.44481146,-0.71375895,0.612036,0.5975832,0.7375301,0.5260714,0.56670177,0.61024165,0.5820752,-0.5214069,-0.48752755,0.17728174,-0.6026051,-0.40917546,-0.6414604,-0.5689714,-0.46076268,0.65229154
rose,-0.51961875,-0.6381306,0.49348646,-0.44279128,0.2650451,0.5635372,0.66059935,0.45186043,0.48613477,0.72153974,-0.3841598,0.4958455,-0.109020546,0.44576567,-0.64813626,-0.60750353,-0.51646596,-0.22912425,-0.6897898,0.7006886,-0.7340438,0.71390754,0.7400269,-0.6668403,0.56978536,0.39654082,0.5955733,0.6878497,0.7841557,0.6042262,0.3935724,-0.6894777,-0.4742264,-0.13050063,-0.6188874,-0.44843084,-0.6360463,-0.60865927,-0.6962135,0.50916874
fruitàcoque,-0.6469343,-0.37952185,0.64256084,-0.5645196,0.85355824,0.26944128,0.7323594,0.3578176,0.6576177,0.2600257,-0.43434402,-0.9827794,-0.43951595,0.53377163,-0.55930674,-0.73713005,-0.47383243,-0.44117767,-0.6045194,0.6417949,-0.5221222,0.20767584,0.6541869,-0.58249474,0.67237055,-0.1903499,0.72649217,0.022434425,0.5931529,0.51944673,0.16348588,-0.46220368,-0.57917786,0.6204737,-0.4899701,-0.6634456,-0.5249605,-0.6845724,-0.48236698,0.8132241
terre,-0.6060542,-0.6120443,0.5744199,-0.28837088,0.5079918,0.06678708,0.5912308,0.55554897,0.6867126,0.05601622,-0.47399995,-0.7925644,-0.14569145,0.46351808,-0.56702495,-0.54436296,-0.5866965,-0.57528585,-0.59487987,0.6162601,-0.41909873,0.26890054,0.60051584,-0.47700006,0.6108297,0.2014012,0.57339877,0.42971036,0.4583669,0.5875542,0.5162464,-0.6055113,-0.561922,1.0408986,-0.6085626,-0.73605466,-0.4084566,-0.6843062,-0.35916007,0.4032348
huile,-0.54068136,-0.6099607,0.5853218,-0.54799944,0.5913616,0.7435856,0.6252801,0.81027764,0.695034,0.77547324,-0.7457861,-0.73467207,-0.45727646,0.77060205,-0.47244594,-0.38391602,-0.67393464,-0.6906183,-0.5423714,0.47134036,-0.4763019,0.20772962,0.5455277,-0.4822032,0.5593718,0.7442939,0.5378878,0.76669335,0.5405501,0.6466623,0.80172575,-0.509615,-0.62453127,-0.24058945,-0.67305946,-0.5746385,-0.61706144,-0.5863416,-0.44585449,0.611614
légume,-0.66837335,-0.6413957,0.591194,-0.4427865,0.8024162,0.41892475,0.5683949,0.61642694,0.6368009,0.087156385,-0.5534486,-1.156704,-0.49211174,0.49474847,-0.49477604,-0.58152425,-0.6753709,-0.7207718,-0.5342626,0.4431322,-0.52016896,0.39155287,0.6237112,-0.4995744,0.6196439,0.27166176,0.43374115,0.36009026,0.5406707,0.6127845,0.5428282,-0.6698348,-0.67068565,0.92922544,-0.66992056,-0.5305417,-0.51199114,-0.76372623,-0.2723242,0.3546871
crème,-0.54894733,-0.6671318,0.53557205,-0.7393416,0.40312633,0.6781235,0.672198,0.5725194,0.5108978,0.84019715,-0.61358166,-0.62800944,-0.1338174,0.62891865,-0.5965298,-0.59154,-0.41551262,-0.5310658,-0.6388439,0.60936284,-0.5974971,0.49994153,0.53019226,-0.62172157,0.63198745,0.5927118,0.5391518,0.55759877,0.47694257,0.67717075,0.502577,-0.47117615,-0.5122678,-0.9221068,-0.6054533,-0.6229681,-0.45683163,-0.3570493,-0.55498403,0.701019
poudré,-0.469185,-0.5266547,0.5622785,-0.5665475,-0.66902995,0.6625773,0.561675,0.49860382,0.32106057,0.16654213,-0.49115044,1.0476787,0.07427847,0.5833646,-0.6987587,-0.57730126,-0.4613636,-0.30799747,-0.5669624,0.69526076,-0.6004987,0.7505243,0.55967313,-0.59178555,0.6046566,0.5210067,0.6080352,0.45108634,0.5565903,0.62091863,0.4619965,-0.4801761,-0.5547143,-0.42054567,-0.63653183,-0.46742082,-0.6617244,-0.5532539,-0.48767537,0.65233207
baie,-0.58220077,-0.619557,0.61831987,-0.49650455,-0.36644006,0.5693038,0.4954995,0.63227713,0.5366026,-0.0644229,-0.43980286,0.41014355,0.41293928,0.62872756,-0.6850741,-0.47162127,-0.5976391,-0.59928244,-0.5091969,0.6589905,-0.5820968,0.603517,0.7562015,-0.7011825,0.47081798,0.5651044,0.59261924,0.43659246,0.54710376,0.58115137,0.57243013,-0.5782259,-0.5427428,-0.4696626,-0.6317944,-0.3354584,-0.58565843,-0.51295495,-0.7038804,0.47157216
menthé,-0.63128364,-0.5051011,0.5520264,-0.5563863,-1.0341837,0.38206816,0.43920782,0.40197057,0.56926936,-0.05896373,-0.61832553,0.40637818,-0.93607056,0.50641817,-0.4625721,-0.56780446,-0.43284518,-0.6989982,-0.54706705,0.22837535,-0.5330321,0.30765462,0.5359734,-0.47374576,0.5255497,0.42251414,0.3562681,0.73532796,0.5118768,0.34008303,0.6911514,-0.51991284,-0.55317414,0.95681334,-0.5393422,-0.7273003,-0.4876794,-0.5430024,-0.45669752,0.5042383
pomme,-0.63130283,-0.6989941,0.50908154,-0.56040746,0.18564415,0.34455872,0.39811873,0.58626646,0.5981035,-0.1768583,-0.54083365,-0.93555564,0.6488365,0.53436065,-0.5730619,-0.51440006,-0.6454083,-0.7348461,-0.45574564,0.499464,-0.5039078,0.5200367,0.6479234,-0.5947335,0.51055276,0.68445885,0.60051525,0.25564355,0.55759656,0.60416377,0.62233603,-0.54113847,-0.63414127,-0.34188122,-0.5405587,-0.5032962,-0.55254,-0.30378124,-0.7633829,0.29764113
moisi,-0.6113324,-0.45693186,0.61617774,-0.4766259,0.63005555,0.21571743,0.6989572,0.46702182,0.6256148,0.12864296,-0.38434893,-0.78615594,-0.32884187,0.5303627,-0.56249225,-0.6408894,-0.46883106,-0.47940773,-0.58330405,0.68460417,-0.45861107,0.2600831,0.6882187,-0.61217695,0.63111997,-0.06681376,0.7295222,0.06510831,0.55034685,0.5002005,0.23479235,-0.45762295,-0.5661006,0.5746861,-0.57008994,-0.68727934,-0.4237077,-0.6954327,-0.38440624,0.7416512
ananas,-0.57144725,-0.64572346,0.6124896,-0.5956727,-0.27132162,0.46678078,0.41591623,0.57554317,0.4511886,-0.11606349,-0.5227698,-0.35715473,0.5410198,0.53226614,-0.6104442,-0.43488926,-0.68644273,-0.64494836,-0.43862373,0.515012,-0.47812638,0.5063473,0.62940305,-0.5563018,0.5276019,0.5983194,0.55406165,0.33069178,0.48386514,0.54929626,0.5635976,-0.54529566,-0.6792358,-0.49399745,-0.5171271,-0.35172582,-0.4746427,-0.23994471,-0.5806044,0.37045717
phénolé,-0.3271263,-0.44095153,0.48280826,-0.52289605,-0.9118703,0.519919,0.5314596,0.39880797,0.33594915,-0.4414606,-0.4440381,0.6801064,-0.39924908,0.47733057,-0.47262287,-0.40803128,-0.42315543,-0.4146091,-0.6015944,0.58443713,-0.49836025,0.59653366,0.36892906,-0.47601366,0.5446422,0.48237514,0.54375577,0.52570367,0.46902627,0.49024707,0.4317582,-0.35975206,-0.5323458,0.4489611,-0.4211439,-0.43773612,-0.42382786,-0.40488783,-0.40611118,0.64574707
camphre,-0.60558283,-0.49180466,0.49509078,-0.5429284,-0.9907224,0.36702925,0.4577067,0.45112923,0.52346146,-0.23999923,-0.5974369,0.4476577,-0.97584915,0.56788313,-0.47349933,-0.5548732,-0.44855034,-0.68173206,-0.5084686,0.30076498,-0.45377952,0.36320668,0.49794942,-0.4322123,0.5479977,0.39929062,0.43564728,0.63230675,0.51443845,0.38431048,0.63085544,-0.4940201,-0.4920864,0.86500144,-0.48139465,-0.64802825,-0.56009936,-0.53365093,-0.4643016,0.53148097
soufré,-0.6515533,-0.60639155,0.5288382,-0.43199843,0.80346346,0.5636406,0.42498702,0.44915324,0.31360278,-0.17191672,-0.39600733,-0.8399441,-0.9061121,0.50337994,-0.4630414,-0.594288,-0.52663445,-0.5647832,-0.45287302,0.32619894,-0.5728644,0.72808504,0.568908,-0.5388068,0.45411527,-0.031186774,0.2759925,-0.012829687,0.44366798,0.35731626,0.29118767,-0.54321504,-0.49841297,1.0407449,-0.5767383,-0.59896433,-0.42493367,-0.6415024,-0.11932023,0.17531314
aldéhyde,-0.39694202,-0.44942173,0.37537974,-0.6192098,0.8877921,0.5835874,0.61098343,0.4318893,0.5487938,1.0429845,-0.60859716,0.12610859,-0.9148493,0.4991985,-0.41252977,-0.59469384,-0.42023686,-0.5726721,-0.45498714,0.615399,-0.4536844,0.3925526,0.41026127,-0.40137565,0.4890377,0.50020456,0.41039032,0.5920082,0.5670495,0.5731236,0.4359414,-0.5567646,-0.4573027,-0.35761312,-0.4944737,-0.6077627,-0.4760934,-0.5685324,-0.5564033,0.44326693
métal,-0.61352646,-0.49177027,0.50462097,-0.26314867,0.6135793,0.28555697,0.49087012,0.474392,0.4840507,0.031074896,-0.4399542,-0.7812262,-0.38141057,0.41852534,-0.4684953,-0.5191239,-0.6092907,-0.52679986,-0.49308157,0.39599532,-0.43180525,0.4963233,0.54568905,-0.451349,0.5737449,0.1860356,0.3361858,0.35906446,0.472152,0.41910893,0.46391308,-0.54845166,-0.5775559,0.9070021,-0.54042464,-0.5512209,-0.44310862,-0.618511,-0.22749609,0.17491472
miel,-0.38614184,-0.532966,0.4912247,-0.49542397,0.07313381,0.61546,0.53982496,0.48018903,0.4195174,0.39256015,-0.3828174,0.85840476,-0.0107206665,0.48877904,-0.5841675,-0.56778884,-0.44586456,-0.25920162,-0.5679691,0.5949309,-0.6058667,0.7208388,0.5455456,-0.5399755,0.5229364,0.28544688,0.50738657,0.5478308,0.66303235,0.5655104,0.42534083,-0.49136773,-0.4315834,-0.40472585,-0.5273256,-0.33776632,-0.57251966,-0.5867393,-0.566229,0.47411603
melon,-0.5717007,-0.5673615,0.46667516,-0.35392705,0.7085589,0.33001816,0.4615093,0.5118017,0.5109282,0.36540878,-0.64399093,-0.90864265,-0.04147668,0.5862638,-0.47494024,-0.53994906,-0.71506476,-0.63812697,-0.37743828,0.4680332,-0.49593073,0.35892668,0.49476334,-0.5592673,0.5289778,0.5386152,0.60619473,0.5016204,0.5469834,0.49578667,0.57009745,-0.65512055,-0.61146915,-0.063274115,-0.47496152,-0.51686543,-0.5762627,-0.4055058,-0.6536955,0.22798815
ambregris,-0.26599926,-0.34791642,0.37135458,-0.34741595,-0.7632281,0.22758995,0.3847894,0.50137985,0.41719854,-0.6463558,-0.34034902,0.8864889,-0.9001353,0.3920312,-0.4124567,-0.4693259,-0.40721622,-0.44462252,-0.44542167,0.56371635,-0.42533648,0.54569423,0.22651698,-0.5047666,0.35611957,0.48969498,0.49239272,0.4663505,0.26518887,0.5391733,0.25841698,-0.27192324,-0.3159573,0.6553905,-0.45600957,-0.4777494,-0.49639493,-0.4284613,-0.20821309,0.4150234
raisin,-0.40739697,-0.4851594,0.47798488,-0.48332256,0.19628304,0.2744377,0.38403133,0.47941637,0.45578018,0.154807,-0.39645755,-0.15450968,0.3876189,0.44053847,-0.4827758,-0.5106499,-0.5359455,-0.4393834,-0.48979902,0.56368065,-0.3462698,0.43352106,0.4690689,-0.522517,0.4584346,0.4324947,0.511178,0.32537264,0.49005485,0.565011,0.43888256,-0.48246998,-0.44875807,-0.30437502,-0.49331856,-0.33615753,-0.43896765,-0.36221492,-0.5556377,0.25918075
caramel,-0.53237045,-0.36299902,0.5331101,-0.49766356,0.31650344,0.3580429,0.6307585,0.46635312,0.47167486,0.22452298,-0.50237566,-0.43426663,-0.017167121,0.54620624,-0.5402919,-0.5845077,-0.5082567,-0.46240208,-0.6039188,0.6149402,-0.48443824,0.50419736,0.5203732,-0.48924106,0.61645406,0.17093045,0.5862707,0.25030833,0.5479156,0.5159003,0.4022317,-0.37451208,-0.62848103,-0.13661386,-0.52691305,-0.4848866,-0.422984,-0.43404782,-0.53922695,0.6302303
oignon,-0.6124817,-0.6535786,0.61658037,-0.54672194,0.92632663,0.71716475,0.35424024,0.41722503,0.37292355,-0.12612128,-0.44021884,-0.79129744,-0.98863024,0.6095431,-0.53050864,-0.57279485,-0.57458055,-0.65077263,-0.5060785,0.32279986,-0.64266956,0.7750099,0.5124671,-0.54982674,0.45192555,-0.31521618,0.23246048,-0.16770111,0.4690407,0.29686594,0.30559394,-0.52698255,-0.4876584,1.0168532,-0.5408598,-0.6122267,-0.41902846,-0.6248355,0.021477208,0.1975782
banane,-0.53515685,-0.6165461,0.47866708,-0.57785445,-0.26306152,0.44167233,0.50113535,0.5984858,0.5297979,-0.12103358,-0.40746322,-0.41868728,0.51862437,0.5459309,-0.60227084,-0.32916605,-0.5720041,-0.58273554,-0.5177113,0.50479907,-0.38508725,0.46939445,0.58406436,-0.55028284,0.54063594,0.6104628,0.5245904,0.36181173,0.53823173,0.4597199,0.5655122,-0.5465072,-0.64966893,-0.4530055,-0.5659211,-0.31448013,-0.49926484,-0.2785871,-0.54660213,0.4104616
poire,-0.5454273,-0.6358094,0.41562626,-0.48965383,0.27530664,0.31161553,0.40961778,0.53339,0.58569664,-0.047220387,-0.45689642,-0.848495,0.47143555,0.5455395,-0.5371355,-0.48963255,-0.60875046,-0.7005509,-0.4288877,0.39024162,-0.48071474,0.48294997,0.58353066,-0.59295905,0.45983598,0.6606349,0.6230971,0.23274542,0.45390627,0.46428996,0.60517323,-0.5488889,-0.5407595,-0.17238349,-0.45825267,-0.4872067,-0.50521904,-0.29115134,-0.7029661,0.27584344
café,-0.6012609,-0.37876746,0.59370303,-0.48534703,0.7751188,0.2669596,0.56021047,0.29343343,0.631881,0.46460468,-0.4492409,-0.87993956,-0.48385316,0.48166895,-0.49973834,-0.6899946,-0.44984627,-0.40082258,-0.56806976,0.5674134,-0.5625859,0.19524822,0.62392163,-0.51609653,0.53633386,-0.06903218,0.67837477,0.059701204,0.57051945,0.47831416,0.1547643,-0.46189862,-0.55854785,0.45359343,-0.40092236,-0.6081972,-0.5217558,-0.48990783,-0.52598524,0.68697035
vanille,-0.28659314,-0.28997448,0.40527344,-0.34887564,-0.19087695,0.49205747,0.33662114,0.33884618,0.23297718,0.23305318,-0.4222711,0.43430936,0.11882013,0.49479055,-0.54505795,-0.37670606,-0.31879705,-0.29561803,-0.32925895,0.4179381,-0.28497866,0.3758067,0.29939616,-0.37857464,0.4466465,0.36374044,0.30985034,0.30521208,0.30654857,0.4435889,0.34095132,-0.38746452,-0.37588948,-0.23551327,-0.47419292,-0.4160086,-0.48541903,-0.33942488,-0.38664818,0.36770895
éther,-0.4703719,-0.556689,0.51414704,-0.45629865,-0.18674622,0.40899462,0.45025018,0.5324155,0.4432548,-0.10280562,-0.41275197,-0.31584048,0.52636945,0.41831592,-0.46059853,-0.388425,-0.5346057,-0.47143364,-0.38922498,0.44990575,-0.42827493,0.44679183,0.4205922,-0.5021471,0.38037598,0.6353625,0.56689435,0.36343664,0.45202053,0.40458384,0.4791382,-0.483592,-0.53509116,-0.38599724,-0.521361,-0.29882455,-0.46575424,-0.29238093,-0.6205828,0.2887981
fromage,-0.50143373,-0.55274844,0.46777833,-0.6207183,0.6479211,0.4397369,0.46566004,0.4434115,0.51093894,0.68787503,-0.43760872,-0.60354507,-0.39039844,0.43137908,-0.36318782,-0.45756495,-0.33029637,-0.46754766,-0.532094,0.46284306,-0.50132537,0.36427078,0.3366964,-0.43280298,0.40108734,0.46311384,0.44321403,0.5359454,0.4092284,0.5363263,0.40895337,-0.42733034,-0.3778538,-0.71987146,-0.39163858,-0.44627854,-0.3999852,-0.34410608,-0.50163954,0.45476222
vin,-0.4314081,-0.43054897,0.29053077,-0.32396343,0.34539282,0.20629832,0.18172854,0.46157244,0.34327492,-0.0025559478,-0.34796244,-0.6702572,0.53157187,0.37733114,-0.42403352,-0.2113947,-0.48118025,-0.45121545,-0.15382653,0.22449124,-0.23757213,0.13839822,0.4139023,-0.41285926,0.24893378,0.25112963,0.42402756,0.021895783,0.31092092,0.333705,0.4449372,-0.34127706,-0.3575123,-0.24774837,-0.16389954,-0.28085172,-0.41197467,-0.17498347,-0.38172847,0.28131568
tabac,-0.29961222,-0.35758215,0.3820579,-0.38243836,-0.52412534,0.30297053,0.38642377,0.39898685,0.38652366,0.025109977,-0.4234411,0.3785476,-0.33474353,0.39797443,-0.3998908,-0.4735356,-0.38413286,-0.27417207,-0.39560997,0.43095005,-0.3988368,0.4923433,0.28895083,-0.3682521,0.41255912,0.39038903,0.32310858,0.4149245,0.34672153,0.36030263,0.3814246,-0.41639623,-0.3376756,0.43363425,-0.23839985,-0.35182726,-0.2699225,-0.43564713,-0.35607222,0.3883264
noixdecoco,-0.3999977,-0.55983996,0.40533212,-0.6320797,0.46201074,0.6061269,0.49578685,0.4575712,0.471763,0.7126385,-0.45118016,-0.71702427,-0.32511598,0.5012945,-0.45402294,-0.5253324,-0.3186698,-0.48499617,-0.43668878,0.5446781,-0.54667914,0.44769138,0.4797035,-0.44293016,0.5197158,0.4476234,0.39400417,0.4782378,0.33456147,0.4681754,0.37790757,-0.41422296,-0.40131497,-0.696427,-0.53843,-0.59418446,-0.37435457,-0.30229455,-0.41516832,0.65635747
jasmin,-0.41441265,-0.42779246,0.48240218,-0.37122256,0.04371439,0.40092564,0.42135197,0.4955778,0.37607807,0.28007632,-0.3550796,0.32023925,-0.17618036,0.42621374,-0.49249667,-0.5469312,-0.39266908,-0.36551225,-0.46972564,0.5788072,-0.46237242,0.5018972,0.5294596,-0.504182,0.42767617,0.4286286,0.41457558,0.5481064,0.46591902,0.45296323,0.45385218,-0.5295054,-0.36784226,-0.03162743,-0.48549208,-0.33243093,-0.4761812,-0.47713786,-0.45007056,0.49077594
savon,-0.4318412,-0.43171757,0.444575,-0.3953021,0.6820971,0.48854238,0.47158676,0.42031717,0.46120054,0.6877525,-0.49220386,-0.49998862,-0.38188154,0.48228508,-0.36256364,-0.44824594,-0.4067265,-0.5260677,-0.5173117,0.40648156,-0.45176083,0.3553643,0.35334063,-0.3307966,0.39690435,0.40647018,0.40329316,0.53995526,0.43783554,0.45849684,0.4649112,-0.41926342,-0.37417045,-0.16673191,-0.49263805,-0.41801488,-0.4666288,-0.43964154,-0.4141189,0.46550345
ail,-0.58423555,-0.67341125,0.6205758,-0.57330585,0.739095,0.6597166,0.38929284,0.45499223,0.45766792,-0.009678334,-0.5000999,-0.6765522,-0.7571404,0.61431324,-0.54977095,-0.5056828,-0.5884732,-0.62989175,-0.52866113,0.34067398,-0.5821282,0.725996,0.53473395,-0.53009456,0.4775607,-0.3181077,0.2491654,-0.12565517,0.52737945,0.34279063,0.31832108,-0.603704,-0.49184322,0.9157925,-0.4738888,-0.607202,-0.46575168,-0.58206105,-0.017769143,0.2456925
lactique,-0.47071663,-0.5354615,0.38422745,-0.58769095,0.6810052,0.5315064,0.55440265,0.45690003,0.49133268,0.75835717,-0.46874797,-0.6231079,-0.4636956,0.49028635,-0.40455765,-0.5564816,-0.33703154,-0.4375164,-0.44170475,0.52454245,-0.45839727,0.4143358,0.43024266,-0.5155698,0.39397687,0.49404886,0.3794983,0.5765537,0.4233731,0.56599283,0.39801687,-0.40048775,-0.37401977,-0.751529,-0.3733123,-0.4473925,-0.3641054,-0.3709665,-0.4450361,0.568779
beurre,-0.5244037,-0.41841108,0.41250905,-0.5785871,0.59492,0.49704814,0.5846605,0.440283,0.38906223,0.6126181,-0.4814585,-0.60324126,-0.43066502,0.5104488,-0.4980902,-0.5517682,-0.27286607,-0.47625387,-0.5266416,0.51074666,-0.46424726,0.3146278,0.37628242,-0.4847958,0.43058836,0.43053004,0.47709244,0.46656996,0.39944303,0.57998574,0.39299044,-0.40778023,-0.40886852,-0.5742869,-0.45693123,-0.516011,-0.3884228,-0.30062485,-0.44523442,0.5457469
champignon,-0.46946603,-0.45194048,0.46578753,-0.3676293,0.6477746,0.12147587,0.43480784,0.5138903,0.47256795,0.32048583,-0.41374075,-0.7406864,-0.16217336,0.4584049,-0.4057718,-0.47230887,-0.44601274,-0.4120983,-0.44636345,0.44801348,-0.42544776,0.15671082,0.42624766,-0.35184294,0.43929115,0.23961738,0.46879828,0.3121749,0.3661868,0.429392,0.45214272,-0.48613122,-0.45999306,0.40201816,-0.4682134,-0.5286995,-0.30719316,-0.509769,-0.24776562,0.32800907
cacao,-0.61094564,-0.39723834,0.5654836,-0.5104364,0.7971419,0.37624907,0.5874551,0.38547933,0.5798647,0.33009747,-0.42841208,-0.78454757,-0.47995675,0.5139451,-0.5863307,-0.54724,-0.4194978,-0.464021,-0.58185977,0.5705504,-0.4725624,0.27684608,0.5866077,-0.5120028,0.48992753,-0.05152355,0.5387007,0.1460973,0.6114967,0.47753137,0.29543114,-0.510236,-0.550654,0.44122952,-0.47915828,-0.5564203,-0.48510468,-0.5646954,-0.49429667,0.651799
animal,-0.15877518,-0.26964974,0.38789135,-0.31704968,-0.54482424,0.2784588,0.27265298,0.4910261,0.39420336,-0.38678735,-0.33315763,0.5785783,-0.50115305,0.26954287,-0.31637806,-0.36500585,-0.33448768,-0.42438078,-0.39632717,0.46240917,-0.32006907,0.43370116,0.3191979,-0.37869292,0.340415,0.39563203,0.3316477,0.41717878,0.16597445,0.41396183,0.19689149,-0.1750854,-0.25473258,0.42456725,-0.378909,-0.34255385,-0.45112324,-0.33324212,-0.25404385,0.41661185
pêche,-0.36225867,-0.41173935,0.5309551,-0.47966015,0.08643946,0.38495237,0.4182554,0.56190324,0.3324393,0.12111066,-0.40349612,-0.3631149,0.28803265,0.40007117,-0.48344463,-0.44863915,-0.49659425,-0.5164731,-0.46856248,0.47721276,-0.5106165,0.3866741,0.49359798,-0.4400074,0.47581637,0.4529968,0.42807403,0.39079148,0.43943626,0.5393023,0.37789384,-0.45920587,-0.43647555,-0.31186256,-0.5453342,-0.30817008,-0.40880945,-0.4341632,-0.5858468,0.2708899
orange,-0.29932365,-0.36131018,0.36759144,-0.41326216,0.6964086,0.48758712,0.42244947,0.35944575,0.45569983,0.7094492,-0.47683138,0.098172344,-0.53796506,0.43715894,-0.45561892,-0.54036826,-0.3596239,-0.4096527,-0.39580506,0.5076617,-0.34884912,0.3835621,0.44611222,-0.37960568,0.4462493,0.35384452,0.37108058,0.41293436,0.5088656,0.50565517,0.3348362,-0.4170667,-0.36855313,-0.3516087,-0.3868081,-0.4041804,-0.39720684,-0.38150942,-0.4372779,0.31593937
brûlé,-0.5465627,-0.35841912,0.45079648,-0.38083267,0.24029356,0.27903962,0.5242985,0.28574663,0.44561023,0.12781796,-0.3888688,-0.5516125,-0.42663044,0.36048305,-0.4662662,-0.54096925,-0.37614775,-0.37018073,-0.49543265,0.45003155,-0.46708804,0.29971248,0.43327147,-0.37266386,0.43465394,0.10645647,0.48388648,0.24489108,0.44259724,0.53599745,0.28504223,-0.36566997,-0.40072858,0.5437398,-0.31312332,-0.41148755,-0.42264953,-0.40169147,-0.42500317,0.6143644
violette,-0.35817245,-0.34674403,0.25432652,-0.26906285,0.010037899,0.08686256,0.23734874,0.30989665,0.23785175,-0.19898395,-0.39918414,-0.11032298,0.048965663,0.3419478,-0.3611035,-0.21148682,-0.35791337,-0.33560282,-0.16559371,0.26894015,-0.24176206,0.13156858,0.3437233,-0.3036035,0.25144494,0.2968341,0.31172368,0.03917275,0.28955132,0.31974897,0.40607318,-0.36750707,-0.31457043,-0.14419204,-0.26655146,-0.3106178,-0.35519657,-0.212929,-0.24039449,0.25809008
musc,-0.1920809,-0.29070657,0.35440305,-0.30518687,-0.5566889,0.22739916,0.32911146,0.48769772,0.4044677,-0.55520755,-0.3595366,0.67235184,-0.5998033,0.36713058,-0.37931764,-0.38482994,-0.35424477,-0.36981934,-0.36483997,0.5287011,-0.36346313,0.5124942,0.30085552,-0.4043948,0.34579897,0.4254857,0.37339932,0.4122089,0.2087671,0.454176,0.24884668,-0.22014652,-0.294124,0.36708674,-0.4794718,-0.40873626,-0.48845422,-0.39883012,-0.22426811,0.4092516
pin,-0.50482637,-0.5127268,0.4775992,-0.43486655,-0.72739065,0.28603476,0.4223304,0.3524909,0.4961331,-0.34154907,-0.4124601,0.51158124,-0.7346024,0.4287012,-0.3848788,-0.39881992,-0.27835667,-0.48723885,-0.42587158,0.35436314,-0.4307822,0.38742566,0.28384238,-0.42948514,0.45502293,0.4658905,0.44537133,0.4996953,0.46722907,0.42218417,0.3965788,-0.43607932,-0.3658061,0.72976243,-0.3974892,-0.4860942,-0.44124907,-0.39880717,-0.30753705,0.5136515
foin,-0.4189489,-0.43338585,0.3653884,-0.4000672,-0.54170966,0.34817863,0.48125374,0.44734365,0.42978352,-0.13382965,-0.39828858,0.331123,-0.39950097,0.4253143,-0.4294104,-0.4295501,-0.43512565,-0.39516485,-0.52453417,0.36644614,-0.5064359,0.45579484,0.3918043,-0.37026042,0.488387,0.4607246,0.40647593,0.43207192,0.43351483,0.41634345,0.3989917,-0.41664878,-0.36573964,0.51649326,-0.34818697,-0.3796355,-0.35238427,-0.43704408,-0.41134945,0.456271
citron,-0.40645862,-0.31140727,0.23097101,-0.5203885,0.26501155,0.46634728,0.44661713,0.46982622,0.5675865,0.6326122,-0.5361249,0.69387025,-0.76615435,0.34937823,-0.399264,-0.444892,-0.31569105,-0.5143633,-0.41798234,0.45766154,-0.34045565,0.4261164,0.30937386,-0.37827778,0.4529843,0.41314927,0.37700623,0.43032014,0.40280312,0.4291656,0.31178588,-0.44047815,-0.4874882,-0.34794098,-0.4129911,-0.54963684,-0.3039115,-0.49965423,-0.32194194,0.36984485
cerise,-0.36887228,-0.47053435,0.55082405,-0.5126035,-0.15883774,0.49792206,0.4468963,0.49372515,0.3484187,0.1809882,-0.40954882,0.03349197,0.21365853,0.44880837,-0.5218639,-0.46263352,-0.5779456,-0.460222,-0.5094588,0.47624436,-0.35193717,0.43467253,0.444843,-0.45996886,0.4547255,0.4061563,0.4757955,0.32393104,0.4109873,0.42469797,0.5170355,-0.38401634,-0.4562934,-0.52475107,-0.4539069,-0.3136257,-0.423245,-0.35834017,-0.52041847,0.3920545
rhum,-0.37316883,-0.42109054,0.38393486,-0.44007194,-0.08606321,0.31066906,0.35362595,0.46603817,0.30148473,-0.039814413,-0.43089515,-0.22635522,0.38854858,0.3630819,-0.3256934,-0.3209474,-0.45404303,-0.38112986,-0.28026772,0.40562108,-0.3626537,0.33699274,0.34567463,-0.3748785,0.37950483,0.5082892,0.43008342,0.21852984,0.37433463,0.34704953,0.40354645,-0.3903765,-0.4804775,-0.18323728,-0.3829993,-0.27332413,-0.3547905,-0.19576372,-0.48018503,0.1845515
cannelle,-0.33306426,-0.2902458,0.5295305,-0.41291618,-0.6868115,0.44293755,0.33867007,0.46283305,0.45501074,-0.7211287,-0.47974664,0.6980274,-0.26343584,0.45367023,-0.40614152,-0.47374487,-0.39702493,-0.28906596,-0.52564317,0.3290133,-0.41333026,0.48316216,0.33312762,-0.5613793,0.53199565,0.56620276,0.3364555,0.38322738,0.42071545,0.37349913,0.5011151,-0.28916898,-0.54102564,0.3872736,-0.39666206,-0.45476562,-0.37608302,-0.34885603,-0.4190686,0.42542583
coumarine,-0.38632107,-0.45216978,0.40044215,-0.5529647,-0.0983714,0.39855278,0.5015073,0.4637668,0.46035594,0.4964464,-0.40007448,-0.27261317,-0.35685262,0.5349666,-0.52848256,-0.47600806,-0.46146882,-0.3490107,-0.4857046,0.50431573,-0.45333052,0.33163103,0.42799383,-0.4496624,0.5175706,0.39388147,0.33236933,0.36499637,0.36573488,0.52026373,0.4581921,-0.45275348,-0.31647122,-0.41526288,-0.38106722,-0.48382324,-0.39191002,-0.24697971,-0.45666665,0.44482052
laitfrais,-0.4286033,-0.47061527,0.3643381,-0.5176171,0.57672524,0.55995834,0.4255393,0.41819984,0.4167799,0.7349957,-0.42875427,-0.72158813,-0.4146287,0.446118,-0.48819914,-0.51130813,-0.30660987,-0.45238137,-0.37099603,0.41719797,-0.4472345,0.42479387,0.44739604,-0.433342,0.44092122,0.43695349,0.3994097,0.53044957,0.2940268,0.49118555,0.43405598,-0.3698765,-0.3762353,-0.6457969,-0.44157472,-0.49597842,-0.28437287,-0.32283008,-0.3350386,0.59394705
médicinal,-0.30504844,-0.42274547,0.35410953,-0.3844693,-0.74589217,0.41417706,0.4525078,0.31881952,0.31797045,-0.44390625,-0.38945407,0.56136936,-0.58358747,0.42242047,-0.30681407,-0.32315835,-0.39003527,-0.3432141,-0.42435974,0.40611985,-0.38798937,0.4104997,0.32604036,-0.4097134,0.45649993,0.3951856,0.44692117,0.38614455,0.40985405,0.3477231,0.37552115,-0.30430585,-0.31418586,0.5683354,-0.3294946,-0.45652816,-0.36532742,-0.3446539,-0.32809085,0.5072442
cèdre,-0.316271,-0.35772157,0.37469536,-0.30439857,-0.61057013,0.26377362,0.41958815,0.36990255,0.3617401,-0.49653092,-0.29675797,0.72272867,-0.7648555,0.32146418,-0.33210385,-0.43041533,-0.33287734,-0.38680515,-0.34751314,0.46477032,-0.41753381,0.5145328,0.1596067,-0.42084292,0.33689803,0.40888306,0.48154813,0.43798792,0.31089652,0.510242,0.273949,-0.27014688,-0.31849068,0.6168451,-0.3495708,-0.46387205,-0.4287219,-0.35941416,-0.24348569,0.40265644
﻿abricot,-0.3904968,-0.44213128,0.43974265,-0.41692805,0.033245523,0.40581328,0.3868926,0.44811517,0.34121862,0.026128866,-0.43757886,-0.29916924,0.19083194,0.41548035,-0.41968852,-0.39775366,-0.40750864,-0.5442152,-0.44609332,0.44795218,-0.477179,0.40964583,0.4765787,-0.47101796,0.4351133,0.4353271,0.4600288,0.3309834,0.46186596,0.4869218,0.3846534,-0.4438603,-0.41484177,-0.23634645,-0.4011827,-0.2822541,-0.35739082,-0.40825045,-0.5466825,0.28184864
thé,-0.38622165,-0.34184766,0.36518705,-0.29626802,-0.15055914,0.30971116,0.3908704,0.4021433,0.39309773,0.08844984,-0.35496467,0.07866411,-0.17222737,0.31806237,-0.33712873,-0.33817798,-0.4584608,-0.32880223,-0.37350482,0.35282692,-0.37343776,0.37921625,0.34876305,-0.38564646,0.40007544,0.36116478,0.29514492,0.49457258,0.36398345,0.44535527,0.34914333,-0.41713077,-0.31206754,0.41056007,-0.36905855,-0.3639785,-0.41094437,-0.4116252,-0.36212638,0.37575865
prune,-0.33616716,-0.4219016,0.41452646,-0.4141345,0.2222378,0.31633738,0.3587963,0.47373933,0.32723874,0.17282696,-0.35265565,-0.15178934,0.20605758,0.36289757,-0.35833377,-0.45239678,-0.4194259,-0.34128308,-0.41200525,0.43278897,-0.36302927,0.45627296,0.40833712,-0.4156924,0.36552942,0.35653585,0.43936318,0.4132915,0.38560873,0.34834367,0.40039778,-0.42457488,-0.39069602,-0.1170271,-0.36177552,-0.32095426,-0.41093326,-0.4172147,-0.41426724,0.27970055
ylang,-0.6146492,-0.55751437,0.2815007,-0.5916985,-0.666261,-0.0751732,0.57334495,0.36468363,0.37704146,-0.7455455,-0.3236467,0.69571143,0.7107481,0.5219264,-0.38052255,-0.67290235,-0.43494844,-0.5287318,-0.47334155,0.33429664,-0.5588336,0.4844808,0.55247474,-0.18364787,0.34279475,-0.3296461,0.42904198,0.3992595,0.56995744,0.25623408,0.48054808,-0.4338242,-0.27079198,-0.44190925,-0.44572344,-0.56697094,-0.42928398,-0.5609944,-0.3781004,0.44480824
fumée,-0.38184267,-0.40591902,0.34750667,-0.4044574,-0.66133034,0.3911346,0.4399228,0.35220218,0.34671006,-0.5069403,-0.41634232,0.5050585,-0.4995328,0.3696627,-0.42450118,-0.37541404,-0.4013193,-0.31480992,-0.41850448,0.40419436,-0.41830894,0.4168826,0.33000845,-0.37184584,0.43021485,0.3807997,0.4381015,0.455041,0.40501443,0.48806337,0.31088957,-0.37708443,-0.364774,0.5989369,-0.25873926,-0.3697407,-0.3294483,-0.3341272,-0.36369848,0.52231705
fermentaire,-0.33867383,-0.41919297,0.45015213,-0.38400605,0.14339754,0.4188907,0.3540435,0.38809347,0.38585696,-0.0053489655,-0.37877727,-0.35686147,0.23906212,0.49252185,-0.4307629,-0.3118384,-0.43908608,-0.40759063,-0.3541926,0.43187004,-0.3838201,0.39699978,0.44100833,-0.4082442,0.4433483,0.43703428,0.489792,0.21987641,0.42188615,0.3987798,0.46328315,-0.44416794,-0.4310615,-0.26503637,-0.34544763,-0.27318656,-0.38002622,-0.33894306,-0.43071482,0.38094723
poivre,-0.314578,-0.25801036,0.338527,-0.36193627,-0.5904169,0.3295955,0.41612938,0.37921363,0.27753028,-0.41201344,-0.4163335,0.47265995,-0.30205244,0.3829495,-0.36689836,-0.31034064,-0.32166508,-0.2635067,-0.4784284,0.2766231,-0.3198796,0.47306943,0.28323886,-0.39687878,0.3053065,0.46893066,0.34084696,0.3736006,0.35988164,0.39921588,0.380616,-0.33874086,-0.4336931,0.32941037,-0.35752895,-0.37096983,-0.29361248,-0.30949685,-0.26118857,0.45095572
géranium,-0.39206028,-0.5066955,0.3395577,-0.2670371,0.47874767,0.39412597,0.5089712,0.3667795,0.41134733,0.55302906,-0.33980092,0.17964512,-0.33033222,0.3521902,-0.39983395,-0.43644312,-0.30909437,-0.17541774,-0.52728844,0.51901937,-0.53624165,0.41191489,0.46752334,-0.46303266,0.41428605,0.19067511,0.43945128,0.49551582,0.4482066,0.33298764,0.2982379,-0.49515557,-0.31714243,0.13052137,-0.34772554,-0.43113136,-0.45202732,-0.37330955,-0.46041977,0.31997478
pain,-0.44317144,-0.26230115,0.4559862,-0.29241005,0.42201602,0.28043488,0.47913373,0.28431347,0.42976776,0.3424691,-0.3659558,-0.6044562,-0.25664008,0.34883785,-0.47494417,-0.42539823,-0.31856763,-0.3791216,-0.4157185,0.4307841,-0.37610424,0.3457532,0.44969085,-0.46087533,0.4544031,0.06549904,0.4485196,0.16084817,0.43926543,0.44013864,0.20404056,-0.36350545,-0.38701165,0.24772355,-0.3829124,-0.39406675,-0.31679302,-0.41079646,-0.399903,0.41403216
ester,-0.50811255,-0.43722343,0.5352992,-0.563679,-0.22606358,0.35090613,0.45095995,0.46668756,0.45725304,-0.002533108,-0.41398513,-0.463654,0.35568568,0.5339165,-0.5306063,-0.35690433,-0.44903743,-0.5795952,-0.42729163,0.46130374,-0.38106954,0.45147052,0.46507466,-0.40021676,0.48661104,0.55162466,0.46591872,0.30135503,0.41461557,0.45352533,0.45652175,-0.48870528,-0.48662436,-0.33049566,-0.4513964,-0.29682112,-0.4230481,-0.24953751,-0.49667677,0.31422925
concombre,-0.42879066,-0.36434567,0.4363786,-0.3495239,0.790251,0.39003617,0.44217873,0.47003382,0.38699925,0.6289723,-0.5262958,-0.6348665,-0.3233118,0.48443788,-0.35625166,-0.4771904,-0.5532398,-0.42429164,-0.33894503,0.33866167,-0.43915537,0.28893903,0.36932158,-0.4401031,0.49052942,0.46765447,0.48621497,0.43794614,0.46180272,0.45968518,0.4333637,-0.4469025,-0.4525325,0.033533134,-0.34334266,-0.4622426,-0.39212173,-0.41828874,-0.46121895,0.2614485
cuir,-0.24275771,-0.28486234,0.3472286,-0.26170713,-0.44053313,0.33221018,0.29874644,0.23037502,0.33565515,-0.14031282,-0.39617544,0.4391344,-0.34337217,0.35904557,-0.33948457,-0.3621853,-0.22470608,-0.24516526,-0.40415013,0.3250737,-0.31708294,0.39714018,0.3557182,-0.34600547,0.28108013,0.31166664,0.36245978,0.33674604,0.23912892,0.29328072,0.3410881,-0.29536483,-0.2772863,0.3523275,-0.28037935,-0.24382111,-0.2623518,-0.2817004,-0.32990462,0.29458022
confiture,-0.48807284,-0.5393892,0.5081154,-0.37479478,-0.27625644,0.47381634,0.35429677,0.42389506,0.42802846,0.03041917,-0.4485561,0.12256348,0.25935873,0.5027783,-0.44980934,-0.28166866,-0.4026551,-0.5583157,-0.3486548,0.39653224,-0.48083776,0.47103947,0.533094,-0.4597206,0.32998985,0.40798062,0.5021979,0.3524345,0.34068084,0.34712505,0.3937218,-0.40277869,-0.49143255,-0.45585012,-0.5105761,-0.30301586,-0.471722,-0.36953166,-0.5157498,0.36594367
amande,-0.40144095,-0.4002686,0.46780086,-0.37783158,0.12013522,0.41753274,0.4108634,0.39538592,0.3890924,0.21145523,-0.3308862,-0.20230432,0.10888527,0.4226092,-0.42215967,-0.50614315,-0.43260193,-0.40193564,-0.41407812,0.4606058,-0.3581938,0.33559558,0.4038602,-0.4601223,0.4504539,0.29302981,0.508942,0.25872165,0.41288966,0.4850762,0.35766938,-0.37764007,-0.5230925,-0.2276195,-0.4636413,-0.35186398,-0.43594044,-0.4926665,-0.510762,0.4276592
alliacé,-0.41655847,-0.5278527,0.5171154,-0.4830755,0.5984761,0.5486502,0.3601929,0.42254108,0.39980376,0.087957494,-0.42352203,-0.54088014,-0.6306327,0.48721713,-0.4952922,-0.43442878,-0.4314734,-0.5387833,-0.46649528,0.28353,-0.5292449,0.6080506,0.4573197,-0.41012648,0.38370535,-0.26034343,0.2593766,-0.10841909,0.4609986,0.2898054,0.3169591,-0.489976,-0.37278575,0.6711035,-0.37686408,-0.5323986,-0.43793523,-0.46740082,-0.13185054,0.24705607
cognac,-0.41387567,-0.38514698,0.3498987,-0.41032535,0.21837759,0.38073766,0.35330158,0.45408148,0.32876074,0.12405928,-0.41605088,-0.5004144,0.24437562,0.45476082,-0.43915933,-0.26475233,-0.47527894,-0.43071666,-0.28826922,0.3387581,-0.3297969,0.38358343,0.4298182,-0.3882947,0.37442428,0.42166665,0.4463526,0.2960076,0.42788172,0.30397063,0.38878587,-0.41247308,-0.41633615,-0.34497106,-0.3435197,-0.33744115,-0.40973237,-0.2970162,-0.40386954,0.32295924
lavande,-0.42219925,-0.32388437,0.28401554,-0.31245226,-0.3450315,0.4000296,0.41130006,0.35363826,0.44435075,-0.1435938,-0.351261,0.41405478,-0.47701254,0.36707687,-0.38625234,-0.46803367,-0.36717284,-0.37520793,-0.51974136,0.3742135,-0.41443843,0.33947903,0.2861472,-0.39013922,0.43477845,0.3887866,0.47525805,0.4628189,0.3895652,0.4708315,0.42110902,-0.39414364,-0.34976375,0.57570827,-0.38596576,-0.4231223,-0.34337008,-0.47835654,-0.31906348,0.45809942
framboise,-0.37513596,-0.37053138,0.46074086,-0.43740892,-0.26667964,0.39860407,0.36837408,0.49739635,0.3663816,0.08758096,-0.35101187,0.2997216,0.10206416,0.4377775,-0.4693849,-0.36833835,-0.36480534,-0.44187373,-0.3433408,0.36464614,-0.3999213,0.39556962,0.48542005,-0.47008502,0.39113575,0.44822437,0.42143458,0.3468755,0.4001348,0.43444628,0.3909253,-0.33827308,-0.473661,-0.28663602,-0.40942752,-0.25447434,-0.47077322,-0.4388566,-0.41903102,0.31569964
réglisse,-0.38226622,-0.37858212,0.44263506,-0.21894796,-0.4144363,0.36542362,0.39251167,0.24291557,0.24604103,0.18275687,-0.3141276,0.20628259,-0.05504017,0.3531868,-0.37793887,-0.35203734,-0.3124848,-0.2451885,-0.2770893,0.31893936,-0.2562096,0.35504526,0.27332217,-0.34656176,0.3333777,0.26558894,0.4548757,0.29272082,0.41261616,0.3012388,0.26740986,-0.17339915,-0.39235476,0.18900353,-0.35898268,-0.3572441,-0.27264312,-0.31027126,-0.34054947,0.33702803
mandarine,-0.36596602,-0.4047293,0.33969086,-0.2966715,0.415105,0.3633307,0.36779553,0.41730475,0.41256255,0.5002649,-0.36307395,0.29719192,-0.5298265,0.38647085,-0.3741199,-0.3745919,-0.30369464,-0.33843127,-0.29587522,0.36210528,-0.29983336,0.31800652,0.287906,-0.30346072,0.29584104,0.3286461,0.33413655,0.2919332,0.37537056,0.42807978,0.36041996,-0.3812849,-0.36324215,-0.12989494,-0.30518362,-0.40403533,-0.35263985,-0.30389628,-0.35035533,0.28079814
cloudegirofle,-0.3452883,-0.29505292,0.40999866,-0.4053175,-0.74073416,0.44374895,0.4179433,0.42369616,0.34203506,-0.67278874,-0.4128701,0.62299764,-0.38938677,0.389792,-0.30278563,-0.4693741,-0.39614403,-0.26414174,-0.5249326,0.3171786,-0.34456438,0.4290652,0.28121945,-0.486035,0.415515,0.44600296,0.3727829,0.34270236,0.32279143,0.45902637,0.40505198,-0.3346746,-0.470608,0.43555492,-0.32992947,-0.39188907,-0.32341552,-0.35399073,-0.3879009,0.37903368
muguet,-0.2991612,-0.29987448,0.37190592,-0.313675,0.5667908,0.27499872,0.22622544,0.29198575,0.18219398,0.17915541,-0.27961445,0.09499548,-0.33926946,0.37923488,-0.3415776,-0.24245125,-0.322389,-0.41552955,-0.3242932,0.2927629,-0.35482728,0.28889322,0.32803982,-0.39456016,0.33396918,0.15580592,0.37159824,0.42404166,0.40814638,0.45092884,0.34472966,-0.26111507,-0.33121997,0.29451525,-0.27286997,-0.35278523,-0.42088306,-0.3502447,-0.31418985,0.2903218
fleurdoranger,-0.2939875,-0.32112736,0.36209327,-0.34119993,0.03638971,0.37096107,0.3748738,0.3342068,0.2908544,0.22440144,-0.35361767,0.36399928,-0.086356014,0.37958026,-0.36105472,-0.33354455,-0.31072915,-0.21588995,-0.35321373,0.40122283,-0.27435207,0.3790232,0.41016513,-0.38078517,0.31775558,0.24081215,0.37499338,0.33428657,0.40330625,0.35355604,0.35073733,-0.4002032,-0.31743008,-0.2738727,-0.37206042,-0.3709222,-0.4465912,-0.31515902,-0.34071612,0.3137873
citronvert,-0.36637285,-0.31189054,0.20291227,-0.4499667,-0.111677445,0.3788553,0.3740176,0.42781436,0.52109754,0.3537134,-0.44336355,0.5866734,-0.60886896,0.32521537,-0.4166969,-0.3645826,-0.30074322,-0.50535667,-0.40704784,0.40125382,-0.2766903,0.37320822,0.33464402,-0.2775944,0.34712893,0.4493209,0.3650084,0.41366947,0.34408984,0.37173486,0.26971853,-0.36517686,-0.46473914,-0.17166388,-0.3177298,-0.5178854,-0.27900016,-0.4848264,-0.24923474,0.38446873
sauge,-0.31405386,-0.35042852,0.3130387,-0.20815784,-0.42562178,0.26777565,0.29084322,0.22650066,0.43484992,-0.123552874,-0.34165764,0.29857206,-0.39020014,0.3557122,-0.23241018,-0.30782387,-0.19569878,-0.24940056,-0.36997354,0.2972569,-0.35976458,0.3196289,0.1854568,-0.3623502,0.32789278,0.31048852,0.36920476,0.33216482,0.29699427,0.40899727,0.36480024,-0.3698625,-0.2735541,0.41002804,-0.2718782,-0.34615988,-0.3512761,-0.27167356,-0.34045562,0.39474115
anis,-0.3796608,-0.3550287,0.4052792,-0.24942285,-0.41178858,0.42080164,0.47305387,0.29043886,0.29183087,0.30261794,-0.32750708,0.26999652,-0.20454879,0.36825395,-0.39976555,-0.4646274,-0.38187337,-0.30673856,-0.28711337,0.33504447,-0.31177408,0.36968338,0.32611394,-0.438389,0.38583794,0.26550505,0.4349572,0.3004063,0.4456468,0.3290738,0.33377022,-0.20258012,-0.40642142,0.33396995,-0.37839514,-0.39164698,-0.31458527,-0.30718076,-0.4454257,0.3997466
chocolat,-0.45451128,-0.36279467,0.51986146,-0.4307979,0.6391191,0.31451374,0.5026449,0.31955498,0.43206802,0.33014715,-0.3737651,-0.6864035,-0.40911013,0.45412034,-0.4662918,-0.5086636,-0.32801908,-0.33947808,-0.5043446,0.4783909,-0.3694833,0.24282657,0.47731027,-0.38802284,0.3969186,-0.068898104,0.41479686,0.12488319,0.4729157,0.34545398,0.23815338,-0.39253923,-0.43681297,0.34296066,-0.31515044,-0.4499248,-0.43036312,-0.47636765,-0.39430922,0.5975157
pommedeterre,-0.4910085,-0.411986,0.40635252,-0.3342976,0.52392495,0.2411795,0.48073778,0.36314118,0.5246972,0.3658913,-0.40809426,-0.6778463,-0.36806127,0.2724064,-0.40758252,-0.44130796,-0.46167713,-0.3856948,-0.3729155,0.40880197,-0.41679525,0.2730013,0.52023715,-0.36713356,0.50386214,0.15050392,0.39963388,0.20368373,0.36382842,0.42290324,0.30454993,-0.4494246,-0.4983198,0.6798794,-0.46957868,-0.34792802,-0.2946886,-0.57383144,-0.17915459,0.4660247
jacinthe,-0.3541041,-0.36587644,0.26947,-0.33098269,0.087144524,0.43974027,0.44275945,0.24964029,0.25732875,0.33457437,-0.3170164,0.32102123,-0.17587608,0.3657771,-0.43691686,-0.47933176,-0.30393782,-0.23714331,-0.32173643,0.4224491,-0.375116,0.41966015,0.42416602,-0.3985451,0.3173576,0.27637887,0.3845595,0.46897435,0.4803238,0.47605866,0.3813097,-0.3777982,-0.3166932,-0.019668173,-0.4020024,-0.36920923,-0.33968228,-0.4273345,-0.3779402,0.30701795
résineux,-0.3075953,-0.33748537,0.32455677,-0.2238399,-0.4962272,0.20520987,0.39708784,0.20841372,0.37260008,-0.24292108,-0.25988,0.38201174,-0.33834487,0.32983613,-0.30587873,-0.26786694,-0.22290029,-0.2655515,-0.40933824,0.39173448,-0.36386713,0.32461014,0.25163117,-0.2533604,0.24010834,0.37218773,0.39857227,0.4116193,0.28414977,0.37025368,0.3225725,-0.23475553,-0.26748347,0.46309558,-0.2036564,-0.3684489,-0.36483827,-0.26190954,-0.33902022,0.44176167
chimique,-0.35910493,-0.26191348,0.4241891,-0.32074335,-0.292141,0.28234738,0.40626335,0.3475843,0.2982086,0.0628834,-0.3385263,0.020140968,0.026936486,0.3161868,-0.34739602,-0.35569733,-0.3977908,-0.30951917,-0.3743646,0.38076943,-0.3783606,0.29793596,0.27830315,-0.40264452,0.40674418,0.24924049,0.42043853,0.28229547,0.3234758,0.29718536,0.31328213,-0.24352711,-0.40306717,-0.05913964,-0.29584193,-0.36552548,-0.31754443,-0.4213089,-0.28679234,0.3686938
fraise,-0.41062754,-0.31988835,0.43355936,-0.3363256,-0.27058724,0.34348315,0.40449193,0.43524164,0.37948066,-0.11795722,-0.32303166,0.06809384,0.20313649,0.45782378,-0.40108275,-0.23164985,-0.38948137,-0.43060482,-0.31273144,0.3907398,-0.35190758,0.40443215,0.34295422,-0.3870418,0.3185979,0.3602507,0.35580444,0.25841254,0.32220718,0.27578855,0.3381381,-0.35669237,-0.3696443,-0.33735308,-0.36613357,-0.30150864,-0.3925306,-0.28703964,-0.48226225,0.2541945
poulet,-0.30000287,-0.367127,0.36135787,-0.407964,0.6369215,0.431179,0.36697447,0.34383732,0.23712471,0.37573192,-0.3478651,-0.52304906,-0.53220147,0.37033877,-0.32017076,-0.34450245,-0.27541137,-0.31044737,-0.30587018,0.33523375,-0.34590474,0.27279735,0.32833874,-0.30140132,0.27615505,0.2539068,0.21284004,0.37675962,0.2771891,0.26881707,0.23059827,-0.31707755,-0.3857717,-0.09316169,-0.45031515,-0.41168615,-0.32992885,-0.39668953,-0.2836507,0.4070351
cuit,-0.4082256,-0.3182571,0.33979893,-0.27530068,0.3680708,0.36808634,0.30775136,0.22274062,0.24165508,-0.055157974,-0.25974393,-0.44207996,-0.30529892,0.35349998,-0.34296435,-0.35980076,-0.3890951,-0.42103666,-0.36126596,0.25635934,-0.32867223,0.3499621,0.25634307,-0.40363547,0.26504236,-0.052602686,0.18575644,0.14584967,0.25929657,0.24639826,0.260994,-0.3908499,-0.29944354,0.42662868,-0.37148583,-0.27995536,-0.3631148,-0.3220443,-0.1947237,0.26362884
lys,-0.37668943,-0.3049522,0.39777893,-0.30056018,0.4784464,0.30514824,0.27637047,0.3360775,0.12725635,0.12677589,-0.25593036,0.31480598,-0.4150523,0.38149053,-0.35800904,-0.24447888,-0.30711842,-0.38837373,-0.3906235,0.38071775,-0.3728341,0.3637936,0.3461923,-0.39843625,0.34617668,0.16739517,0.376,0.45958984,0.38719693,0.39376888,0.31560713,-0.24576348,-0.27681613,0.19003448,-0.25718096,-0.28093386,-0.393214,-0.35765105,-0.3507144,0.29455793
zesté,-0.13213588,-0.17599496,0.10783516,-0.1441776,0.20756769,0.13130862,0.21571931,0.20362696,0.20005238,0.20541646,-0.2582373,-0.08845879,-0.22050975,0.23135631,-0.19279237,-0.11313379,-0.12942587,-0.1941428,-0.121553734,0.16783017,-0.15040077,0.18054135,0.17303528,-0.14072172,0.18537547,0.17006965,0.14994487,0.16976987,0.26879966,0.19750726,0.19522746,-0.21192001,-0.20736703,-0.22613657,-0.20131737,-0.2647441,-0.1372872,-0.11918059,-0.14198074,0.11047136
sapin,-0.29570383,-0.44453365,0.37771145,-0.36741257,-0.4120003,0.21438655,0.29458427,0.3026967,0.29440877,-0.20901215,-0.28007245,0.48457456,-0.50718164,0.38912052,-0.34598535,-0.36918795,-0.17398323,-0.27287596,-0.31846663,0.3521778,-0.40408427,0.37449735,0.24489054,-0.3491002,0.3347475,0.35370025,0.34586447,0.32843962,0.3026986,0.38422698,0.35978442,-0.35743207,-0.23729666,0.40424085,-0.32506925,-0.36893874,-0.33447927,-0.37635195,-0.31828552,0.4261663
anisé,-0.33256388,-0.37479955,0.3120837,-0.3877862,-0.36700952,0.41730577,0.34811276,0.3246491,0.27060828,0.017532794,-0.2969278,0.4003778,0.019516187,0.4296008,-0.32567477,-0.4039266,-0.3224336,-0.23054431,-0.38374096,0.38757122,-0.28794354,0.35460725,0.33378512,-0.38085857,0.40382597,0.2785297,0.40123445,0.22216323,0.3572397,0.32286042,0.2567634,-0.3086462,-0.32316744,-0.105239935,-0.40904856,-0.2807144,-0.34642947,-0.3924046,-0.32560027,0.42557123
coriandre,-0.31704485,-0.31182015,0.37893796,-0.33139265,0.42306942,0.29288328,0.39766988,0.40917996,0.4308307,0.42686898,-0.4597729,-0.3502164,-0.5260562,0.37137586,-0.27424645,-0.36055374,-0.31284395,-0.4750892,-0.4251989,0.3334055,-0.36895987,0.26220828,0.32306907,-0.27721897,0.39957458,0.42140678,0.2530067,0.44187677,0.3390318,0.36990678,0.4230491,-0.32220754,-0.34517378,0.1668989,-0.39190406,-0.33521676,-0.42050686,-0.35697788,-0.3368503,0.3553375
bergamote,-0.30951023,-0.3459251,0.22829673,-0.2871543,-0.11268596,0.4177391,0.31266785,0.25504804,0.32010257,0.16520703,-0.36135206,0.5789223,-0.50505024,0.28545713,-0.3741405,-0.39234278,-0.29513684,-0.3095503,-0.42470124,0.3107857,-0.4286161,0.3713007,0.3649689,-0.27346155,0.35769522,0.27590588,0.4498592,0.3574595,0.35935265,0.4305324,0.3315759,-0.36918548,-0.3817465,0.23727998,-0.3698726,-0.3503148,-0.35291702,-0.35894644,-0.40140098,0.2710144
bouillon,-0.3429297,-0.33836395,0.2918267,-0.28756243,0.48654824,0.2697281,0.30422425,0.28031746,0.2933945,0.0031725615,-0.29080528,-0.48518318,-0.41015184,0.37500662,-0.31742048,-0.3711887,-0.31821787,-0.3246721,-0.22251007,0.3108089,-0.30600846,0.28284717,0.35918915,-0.33990616,0.29266417,-0.047759265,0.14520317,0.20854926,0.33186054,0.20817077,0.23462646,-0.36753026,-0.3937227,0.39017797,-0.39046273,-0.292525,-0.36129075,-0.2822968,-0.19426475,0.2951685
racine,-0.29639435,-0.31119674,0.3884641,-0.30386138,-0.10243037,0.25065196,0.35141492,0.3401803,0.40044034,0.05987735,-0.26160562,0.08743098,-0.39857224,0.29462737,-0.3229168,-0.3102182,-0.18961409,-0.30521637,-0.3894072,0.32556748,-0.2808221,0.33758593,0.30873594,-0.3255883,0.33968893,0.21191208,0.30268803,0.3129726,0.27219796,0.26181132,0.2784884,-0.3154074,-0.31261373,0.46744102,-0.3315271,-0.40443546,-0.25713396,-0.32856333,-0.1546723,0.32351696
santal,-0.33002627,-0.2678377,0.23366252,-0.29646593,-0.40464923,0.2232638,0.26607174,0.24291623,0.25887722,-0.14018014,-0.20412245,0.47451895,-0.36630297,0.24569356,-0.34479806,-0.23748505,-0.22299546,-0.25545132,-0.26873854,0.34158635,-0.25896823,0.21270147,0.15227744,-0.3167814,0.26693368,0.23923466,0.29543695,0.2443095,0.2672151,0.28722703,0.25329018,-0.27562726,-0.23430166,0.3747524,-0.23402002,-0.23275602,-0.2726011,-0.2347995,-0.23498797,0.32935432
noisette,-0.49323726,-0.38956618,0.4591096,-0.40741965,0.6206279,0.29487532,0.4443274,0.29339537,0.3919504,0.28358114,-0.38925976,-0.5640595,-0.33455083,0.40278858,-0.387469,-0.52849364,-0.35094523,-0.3192098,-0.45436132,0.518331,-0.41908437,0.13153084,0.3711583,-0.4338969,0.4806944,0.08671619,0.47505105,0.10033131,0.45650655,0.3336652,0.22682266,-0.38837844,-0.47081417,0.13824402,-0.39861405,-0.42952412,-0.43853074,-0.48212484,-0.37822503,0.6242632
chou,-0.35648683,-0.39885885,0.37688816,-0.39285684,0.51556045,0.34087837,0.3690613,0.3642764,0.29552755,0.059496406,-0.2928236,-0.4619245,-0.38864902,0.3730089,-0.35645515,-0.4327768,-0.360691,-0.42958504,-0.3666063,0.32468498,-0.30319244,0.36566383,0.37645853,-0.36536598,0.37234083,0.0032237116,0.21914728,0.044688657,0.36271787,0.34765705,0.27347696,-0.3893886,-0.38848114,0.60705054,-0.38700357,-0.3543104,-0.36914435,-0.49059033,-0.13133053,0.19097495
mangue,-0.31449908,-0.31696078,0.30495358,-0.31731245,0.16646111,0.27027568,0.32432592,0.34759793,0.25975585,0.18934499,-0.3188073,-0.30987352,0.044481058,0.26790816,-0.26229045,-0.35891247,-0.31654546,-0.37569594,-0.36423898,0.26938266,-0.26950425,0.27466017,0.2986915,-0.41573828,0.35301608,0.34159464,0.3257249,0.18091583,0.3296138,0.34077954,0.25154945,-0.2455855,-0.3351035,0.00023225578,-0.37007028,-0.28004226,-0.30931807,-0.2895108,-0.30201626,0.24783318
fèvetonka,-0.39465338,-0.42416382,0.30267543,-0.48523828,-0.054788213,0.36126795,0.43504643,0.41342938,0.42960516,0.4460311,-0.33899128,-0.29277378,-0.40732628,0.38259435,-0.426031,-0.38486767,-0.3922995,-0.32732922,-0.44698668,0.40416235,-0.37790546,0.35935837,0.46677718,-0.3974855,0.42797807,0.40730596,0.3363967,0.31175172,0.3324551,0.40440077,0.38435453,-0.40352854,-0.30675924,-0.3826133,-0.42470232,-0.4166714,-0.3386219,-0.21386895,-0.40567172,0.43560445
menthol,-0.4207899,-0.36532632,0.40402737,-0.36939576,-0.4972504,0.3626462,0.34698963,0.3469695,0.38321665,0.27729276,-0.43631065,0.32012933,-0.5988952,0.28144228,-0.26394525,-0.44539124,-0.2523168,-0.3933664,-0.3209659,0.18615416,-0.40810573,0.263665,0.43197203,-0.35026944,0.37747967,0.32613522,0.25175774,0.4098782,0.4186393,0.20074177,0.4738107,-0.3377084,-0.27788413,0.34455135,-0.34528658,-0.47766888,-0.44213098,-0.3534051,-0.29581216,0.37565154
plastique,-0.29765332,-0.2904566,0.29059464,-0.19325314,0.24426278,0.20259243,0.30516064,0.26875344,0.32745233,0.15788752,-0.35137582,-0.16358173,-0.1539356,0.3075757,-0.30248487,-0.25963748,-0.26193708,-0.21155877,-0.28714436,0.31328785,-0.27222368,0.22198808,0.29828143,-0.25598684,0.33320212,0.20326245,0.3518402,0.34764495,0.2750165,0.2314413,0.3060775,-0.3042317,-0.25776726,0.31601495,-0.24974516,-0.25082654,-0.30537593,-0.28472215,-0.24757887,0.18637285
tomate,-0.459788,-0.39578184,0.3705608,-0.2269865,0.47434306,0.30537236,0.37849957,0.3139059,0.33544263,0.28962225,-0.2569524,-0.39222032,-0.28648216,0.29845682,-0.37470803,-0.36920172,-0.38955787,-0.36126328,-0.31957853,0.3458072,-0.30750644,0.39537516,0.32827222,-0.3440069,0.36873746,0.18229596,0.25127488,0.21878007,0.2979868,0.38958836,0.31443608,-0.44847327,-0.4061048,0.4680202,-0.3904397,-0.33002374,-0.32914168,-0.4676498,-0.28076658,0.122721374
ozone,-0.3205943,-0.3572554,0.2797876,-0.14002585,0.43172377,0.21993026,0.2396123,0.19880012,0.2519495,0.35422763,-0.26156908,0.056856856,-0.33196127,0.27548292,-0.31550416,-0.34521523,-0.31033325,-0.29145828,-0.26228905,0.27503633,-0.21100947,0.25946644,0.21160701,-0.23447064,0.32032278,0.22130215,0.28033888,0.25072423,0.22563103,0.24570072,0.17483905,-0.3213839,-0.17491093,-0.10556531,-0.19154897,-0.29173332,-0.26117945,-0.24428868,-0.26844358,0.24844992
grillé,-0.36419138,-0.29010653,0.44404393,-0.3542894,0.4552693,0.15860203,0.33638626,0.25780207,0.40571183,0.10203971,-0.34077358,-0.50869405,-0.3689539,0.34929794,-0.34669465,-0.42757976,-0.25404203,-0.30046758,-0.35691196,0.32209125,-0.3775609,0.16245864,0.38728255,-0.29771745,0.3954578,0.061050583,0.43250787,0.18281221,0.41072315,0.3439703,0.14521405,-0.2700575,-0.2810571,0.3186896,-0.28183162,-0.40024984,-0.40696976,-0.42180306,-0.2587293,0.36830258
cumin,-0.22592023,-0.19508395,0.38880068,-0.21868247,-0.40692753,0.24451706,0.2507146,0.21484812,0.29795295,-0.23961166,-0.36698374,0.23382963,-0.27324027,0.3369962,-0.23497657,-0.31493634,-0.20948625,-0.25950855,-0.36765957,0.22641684,-0.29833308,0.3533756,0.24032122,-0.36495888,0.2307863,0.30092523,0.2375347,0.2921655,0.2984169,0.21339783,0.2445308,-0.27415273,-0.24886918,0.5058212,-0.2708799,-0.3554325,-0.24469592,-0.29712644,-0.3149136,0.24208966
siropdérable,-0.36007017,-0.25354108,0.36325067,-0.28880185,0.28072372,0.18865713,0.4709341,0.2887184,0.3161824,0.321159,-0.3915608,-0.47059786,-0.08775694,0.3383661,-0.38411963,-0.4116438,-0.29892772,-0.3016966,-0.39323407,0.38719037,-0.43654037,0.41443306,0.31571174,-0.36086312,0.4092327,0.30360913,0.36674845,0.27523607,0.34647077,0.3335756,0.2524547,-0.25873536,-0.3729804,-0.14291033,-0.3508432,-0.3121661,-0.22543737,-0.3014588,-0.4237161,0.3835831
poisson,-0.28780845,-0.3275402,0.34399873,-0.29490104,0.43064082,0.3053608,0.24584469,0.34768733,0.25552726,0.30976766,-0.24219948,-0.39379627,-0.32327262,0.31914207,-0.33526853,-0.3212079,-0.29563722,-0.3924473,-0.25440317,0.31856,-0.28282928,0.3558861,0.36604387,-0.22971955,0.27259934,0.10975632,0.24771163,0.23581614,0.3110264,0.30562812,0.30720457,-0.34073,-0.3185689,0.3538771,-0.40494972,-0.3502676,-0.24435002,-0.38657284,-0.107998036,0.19915506
gardénia,-0.28229895,-0.32258067,0.3141268,-0.3060233,0.040880352,0.22377208,0.26160458,0.31024057,0.3297258,0.22604156,-0.33379132,0.15885192,-0.14621353,0.33690673,-0.31236508,-0.28197953,-0.20737436,-0.24586964,-0.25621316,0.35775948,-0.2896579,0.34602526,0.3384572,-0.2955314,0.2944811,0.21173793,0.33924758,0.2987992,0.3207585,0.29634488,0.3310324,-0.32661113,-0.21387467,-0.06969816,-0.31777638,-0.30806255,-0.23940395,-0.31850868,-0.3610217,0.2170344
solvant,-0.23663944,-0.33016187,0.26522076,-0.18163884,0.090057015,0.30955535,0.2591733,0.34561765,0.27350068,0.050197557,-0.2048211,-0.21031545,0.20266238,0.35230505,-0.36352754,-0.24674496,-0.32072854,-0.27792293,-0.26349017,0.28488302,-0.23631103,0.21590576,0.36509123,-0.24613915,0.30887246,0.3318739,0.26166922,0.2412253,0.2781245,0.2739186,0.27590454,-0.22622585,-0.26711947,-0.22636285,-0.28565866,-0.27244836,-0.28313017,-0.24278748,-0.36124903,0.2688583
narcisse,-0.30464175,-0.36588317,0.26979288,-0.29275897,-0.042490494,0.27672786,0.36497968,0.21041062,0.21931854,0.114661224,-0.29671055,0.23214945,-0.23595977,0.29369223,-0.3470981,-0.31642532,-0.20794326,-0.3089381,-0.35901076,0.32485327,-0.3026976,0.42010623,0.31753826,-0.2835486,0.20028187,0.30210993,0.27420837,0.38305166,0.27486756,0.31926578,0.32872608,-0.38111097,-0.28485513,0.32672757,-0.291795,-0.28894758,-0.34100634,-0.3729112,-0.27798486,0.3282225
galbanum,-0.36817127,-0.3443983,0.35633743,-0.20218298,0.14125533,0.34212595,0.264597,0.28847882,0.29287952,0.25740638,-0.32888198,-0.23146324,0.16676362,0.30614805,-0.2663368,-0.27208897,-0.3334248,-0.24087471,-0.30653974,0.33516636,-0.30621177,0.3019375,0.2964791,-0.33470201,0.27316487,0.25032035,0.325968,0.2830013,0.2929344,0.33079073,0.3049653,-0.26152045,-0.31479108,0.15033978,-0.31725317,-0.29177245,-0.22248018,-0.21970607,-0.2819435,0.26792133
eucalyptus,-0.38502023,-0.29868752,0.3455261,-0.3136676,-0.4797178,0.23374194,0.25894096,0.30171263,0.29206222,-0.059843518,-0.3803708,0.33550608,-0.490582,0.39737642,-0.27349585,-0.30124003,-0.30315414,-0.45146888,-0.2898794,0.19347689,-0.20784718,0.23796004,0.24496424,-0.2982894,0.35471052,0.22332156,0.34964156,0.3190236,0.32217008,0.30210826,0.34647948,-0.3530805,-0.3142486,0.3365053,-0.27946925,-0.43019453,-0.3397467,-0.26963335,-0.28716302,0.25416446
mousse,-0.24377885,-0.23912498,0.30110726,-0.20178127,-0.16569205,0.17959332,0.27736288,0.19349387,0.1983672,-0.11332321,-0.24930754,0.23692831,-0.3948572,0.29943588,-0.20851403,-0.21246228,-0.17986898,-0.27140847,-0.26213607,0.20463276,-0.21364382,0.22796695,0.23648892,-0.19502825,0.23117068,0.29226625,0.18254074,0.26758116,0.19879255,0.27074623,0.2521606,-0.24482265,-0.19516188,0.33276093,-0.16456527,-0.3466155,-0.15374136,-0.29376215,-0.20535088,0.28421825
alcool,-0.3283853,-0.38585448,0.3045793,-0.3524531,0.06919446,0.33643743,0.22827587,0.30198902,0.24170348,0.051631656,-0.29180798,-0.22184598,0.1284452,0.352493,-0.3161068,-0.26401868,-0.34468377,-0.25448197,-0.23426399,0.26132777,-0.24472374,0.35716832,0.24016744,-0.27611303,0.24802959,0.34241432,0.38616657,0.23415332,0.3239125,0.3034624,0.3395424,-0.36799878,-0.31401008,-0.16941209,-0.36455357,-0.29898578,-0.34357005,-0.246815,-0.2986605,0.24695705
patchouli,-0.24188769,-0.23126334,0.2631102,-0.29667097,-0.09516423,0.20967011,0.29284963,0.30523166,0.28267723,-0.0033077002,-0.20650837,0.14616418,-0.34271914,0.28551263,-0.31702688,-0.24928844,-0.24305944,-0.2547785,-0.24462396,0.29024017,-0.28953648,0.24936643,0.2698143,-0.21608716,0.31099612,0.18463907,0.35551828,0.2106225,0.19020033,0.1939003,0.20132744,-0.20971575,-0.2762128,0.26096743,-0.20721292,-0.3096264,-0.2309743,-0.29957792,-0.20804575,0.27706486
aubépine,-0.2479996,-0.25655952,0.24234194,-0.29315642,-0.11330097,0.30534756,0.26995662,0.2280824,0.24136758,0.2670617,-0.21714398,0.23706251,-0.12907581,0.27028763,-0.24456759,-0.2968096,-0.3328107,-0.19364217,-0.31164074,0.29773802,-0.22293009,0.2609848,0.31918263,-0.35385057,0.3067523,0.32067174,0.33616543,0.26340544,0.21695551,0.33980757,0.23914447,-0.28919375,-0.35665867,-0.16056761,-0.27974838,-0.2219839,-0.3339208,-0.28485584,-0.34117812,0.24425083
myrtille,-0.2502467,-0.3022723,0.29281723,-0.27516046,-0.13548551,0.29630464,0.22404557,0.35102177,0.21834618,0.059566356,-0.2964164,0.15161537,0.198689,0.3072268,-0.27898356,-0.23324418,-0.33382496,-0.3778392,-0.2532338,0.22378549,-0.3240096,0.3634415,0.32889053,-0.3428039,0.30327103,0.357366,0.38000178,0.23524874,0.27694833,0.24548921,0.29766518,-0.24325222,-0.33920068,-0.08289364,-0.3251711,-0.2473337,-0.23616138,-0.27744746,-0.35101187,0.29360002
fenouil,-0.40480644,-0.3238386,0.35472515,-0.18318662,-0.37002814,0.36112916,0.37232906,0.29294127,0.29348633,0.3688057,-0.2904656,0.22196984,-0.20658389,0.29152575,-0.3877815,-0.32959136,-0.3406424,-0.25686866,-0.2737533,0.29636556,-0.27840364,0.34583724,0.2624816,-0.4072155,0.31955302,0.20773095,0.42947155,0.3456195,0.38939998,0.32911873,0.29921106,-0.14626238,-0.33475304,0.37888384,-0.32353872,-0.3650316,-0.279749,-0.3267994,-0.3596213,0.37325954
marin,-0.28351563,-0.31099167,0.23490384,-0.17512995,0.29174858,0.1622726,0.2776096,0.19906488,0.27191395,0.29427522,-0.24814582,0.00090669096,-0.1943267,0.26130694,-0.23548007,-0.22023344,-0.23909408,-0.2349093,-0.26257613,0.1770795,-0.2468526,0.20157772,0.19142136,-0.26691535,0.24199283,0.17965914,0.18993846,0.26990247,0.15488294,0.24469101,0.28963917,-0.28678375,-0.2281486,0.081606805,-0.26591977,-0.30544752,-0.15011482,-0.2440595,-0.1828978,0.2804588
sueur,-0.26345292,-0.37428403,0.30747372,-0.2709957,0.17879,0.20324032,0.22114828,0.21102515,0.21768527,0.18095407,-0.31709707,-0.297576,0.10929798,0.24055317,-0.23240837,-0.22766744,-0.28814673,-0.31608212,-0.3999357,0.28741944,-0.21167244,0.26158226,0.2771506,-0.24622965,0.35001713,0.34379482,0.25452614,0.2650107,0.27893794,0.30037656,0.32732075,-0.23525245,-0.31723726,-0.03491754,-0.3223968,-0.2799435,-0.18869871,-0.29555628,-0.2633111,0.17722036
mentheverte,-0.29371375,-0.3376496,0.32088304,-0.32904586,-0.46284777,0.24343337,0.2891329,0.25237662,0.36558497,0.031972602,-0.3496676,0.2597766,-0.3889974,0.38524514,-0.2636664,-0.31713712,-0.3630896,-0.3968016,-0.32074034,0.24535185,-0.27851748,0.1821883,0.2783396,-0.29505652,0.2609509,0.2487872,0.29898214,0.41209954,0.3413391,0.2194699,0.3589629,-0.30676883,-0.3563044,0.2969156,-0.40489888,-0.31981057,-0.2682948,-0.28676763,-0.32012516,0.4055063
levure,-0.2732987,-0.23388353,0.29915652,-0.19817415,0.26345298,0.29015088,0.30788445,0.17521563,0.3288952,0.21647115,-0.2038012,-0.20227921,-0.17945977,0.26160026,-0.31021467,-0.25725824,-0.28667474,-0.33818978,-0.34091204,0.22923675,-0.33267072,0.26183546,0.27092183,-0.28255862,0.30158496,0.12037194,0.33088538,0.09522112,0.25458482,0.2991795,0.18527068,-0.33110613,-0.36178052,0.09375164,-0.25489756,-0.27878183,-0.26414147,-0.32597113,-0.27486,0.360748
naphtaline,-0.22607386,-0.24196127,0.32739818,-0.2030601,-0.33861762,0.1987989,0.32437977,0.2948566,0.250215,0.06716031,-0.21762156,0.24000183,-0.041588992,0.26374704,-0.2522604,-0.2806872,-0.2993211,-0.23584625,-0.38410944,0.31524688,-0.26278034,0.32438943,0.27328062,-0.34437484,0.30585772,0.27610692,0.33266273,0.26686305,0.22568843,0.282202,0.2178953,-0.2960837,-0.3072142,-0.07206302,-0.24991128,-0.26531798,-0.23232588,-0.33704662,-0.24130987,0.32096702
camomille,-0.21546902,-0.33600217,0.33806577,-0.2597501,-0.21024334,0.29952747,0.33488685,0.26075423,0.31512424,-0.03532722,-0.345905,0.12160363,-0.23492506,0.31926626,-0.2721687,-0.26900256,-0.24757019,-0.27799413,-0.2813633,0.23897645,-0.2529177,0.21359767,0.26980498,-0.2437149,0.2812714,0.26934877,0.2593289,0.25237173,0.17135206,0.24375004,0.30572206,-0.3190382,-0.31957042,0.2267015,-0.32873675,-0.28582639,-0.23352227,-0.29661214,-0.30075014,0.2560711
bourgeondecassis,-0.22433697,-0.27362192,0.29314446,-0.20540363,0.037180416,0.23736797,0.18757471,0.26484555,0.26310912,0.05949802,-0.26071993,-0.17656152,0.024247482,0.22821146,-0.35972792,-0.18712655,-0.2685242,-0.37402943,-0.267207,0.27835068,-0.28748217,0.21280146,0.34997484,-0.31272995,0.26497558,0.31485054,0.21148258,0.31318402,0.29196674,0.19121349,0.24639508,-0.29327148,-0.28009474,-0.04007767,-0.23966713,-0.3144195,-0.2579366,-0.18315157,-0.28221393,0.1632784
raifort,-0.3411136,-0.36767322,0.3132889,-0.31112713,0.48574948,0.32635286,0.3036846,0.36916012,0.29146448,0.14656883,-0.30744123,-0.4244346,-0.4439597,0.3282458,-0.30339962,-0.29642588,-0.3377285,-0.2957042,-0.3747064,0.26150975,-0.3695091,0.37944865,0.28196907,-0.3009769,0.3931979,-0.005420778,0.25948024,0.13327637,0.28902796,0.25721166,0.29464486,-0.3030504,-0.33043063,0.4679628,-0.42480165,-0.31139565,-0.32015496,-0.311802,-0.2100028,0.17115393
pommeverte,-0.40816307,-0.40995836,0.22839268,-0.2666514,0.24264775,0.1736779,0.30522692,0.29798353,0.32644105,0.15441811,-0.28065962,-0.5110706,0.14913715,0.27236757,-0.27029976,-0.29434162,-0.42336908,-0.33117336,-0.24334216,0.2599303,-0.26905844,0.30185682,0.3028295,-0.38412797,0.28673118,0.32487112,0.31340486,0.31854218,0.2737108,0.34874177,0.34438014,-0.4225238,-0.34937292,0.06461778,-0.36105847,-0.24990726,-0.35879114,-0.33218196,-0.41893196,0.2199359
caoutchouc,-0.40600592,-0.24388085,0.34548813,-0.32783514,0.39282525,0.27578783,0.36498016,0.18140969,0.3525383,0.16549753,-0.29582933,-0.3644994,-0.37154567,0.24878466,-0.31411237,-0.36107233,-0.36314714,-0.31848824,-0.32772204,0.37476587,-0.3371887,0.23488294,0.28523213,-0.27428484,0.23265621,0.10683969,0.32548702,0.19043788,0.311216,0.33753288,0.23293881,-0.23590453,-0.35103476,0.43103147,-0.2993617,-0.29038346,-0.26505783,-0.26367366,-0.23671618,0.30151847
radis,-0.37903357,-0.28542316,0.21657063,-0.2517156,0.3969246,0.30966294,0.24685083,0.19886479,0.27854964,0.19684091,-0.29883766,-0.41370758,-0.24690719,0.2563216,-0.3530469,-0.31504294,-0.29673082,-0.26185396,-0.25100592,0.24193248,-0.38688087,0.32433763,0.29237616,-0.26946428,0.20986906,0.08354689,0.16540387,0.1641515,0.36214983,0.33245322,0.24617861,-0.3314762,-0.28385085,0.41048932,-0.40410852,-0.37756443,-0.2567298,-0.2720991,-0.14528711,0.2731086
suif,-0.2549285,-0.25430664,0.3236978,-0.39595288,0.47649485,0.39593118,0.32041574,0.3372995,0.34323263,0.47194237,-0.28308553,-0.3794552,-0.22088014,0.40864563,-0.28072774,-0.24818578,-0.28434503,-0.2729327,-0.36285353,0.3936332,-0.2569484,0.19002394,0.19886552,-0.23030216,0.29455745,0.2806406,0.23649368,0.4452582,0.27086812,0.3773201,0.32561922,-0.24493521,-0.3002027,-0.09176742,-0.37257367,-0.38264376,-0.38106254,-0.21856864,-0.23255488,0.30918783
viandecuite,-0.14260072,-0.13827239,0.15299354,-0.15585282,0.2013222,0.1352057,0.17876568,0.23801681,0.14249519,-0.02334109,-0.113202065,-0.14503236,-0.15758535,0.17280515,-0.24217021,-0.20432097,-0.19644897,-0.23452601,-0.23025087,0.1558697,-0.14819506,0.20566507,0.12529638,-0.12227963,0.19226499,0.0683923,0.12107113,0.049460597,0.19953273,0.18813488,0.14542806,-0.14493386,-0.2187728,0.20260736,-0.16721086,-0.17236526,-0.19997999,-0.13930246,-0.12968123,0.17876409
capucine,-0.35820642,-0.3480801,0.29835737,-0.20796059,0.08836322,0.16938862,0.29362974,0.24710803,0.24312323,0.18249837,-0.29388824,-0.001995068,-0.25094867,0.20533864,-0.23082003,-0.3347838,-0.27560586,-0.20038393,-0.32740995,0.31112388,-0.30782515,0.2695517,0.3011684,-0.34348005,0.2735358,0.26483864,0.32549876,0.28506505,0.26216915,0.27311575,0.2840991,-0.24138221,-0.27615768,0.20352642,-0.23348707,-0.21370116,-0.27281547,-0.22734451,-0.33240196,0.30780485
œillet,-0.32843465,-0.29068482,0.30305356,-0.27745867,-0.31118026,0.3393002,0.24562898,0.27671808,0.27637598,-0.29707295,-0.33180147,0.34133536,-0.29145628,0.3138733,-0.3372189,-0.37952006,-0.28770226,-0.2480202,-0.34040302,0.26065028,-0.29349944,0.22835994,0.28914505,-0.2705511,0.27772212,0.3604021,0.29905182,0.30410963,0.3014627,0.25796542,0.3320558,-0.24627486,-0.25629455,0.18916997,-0.29722267,-0.3005616,-0.2888018,-0.26475745,-0.35141608,0.24178165
fruitexotique,-0.19094795,-0.3288858,0.23999342,-0.28826487,0.1722394,0.23494363,0.2606664,0.25520638,0.24510229,0.062402472,-0.3583272,-0.2569728,0.019305319,0.28915522,-0.25087035,-0.25599003,-0.23280069,-0.32457268,-0.24420342,0.22791424,-0.3377257,0.23554263,0.30596125,-0.27962267,0.28345764,0.21441138,0.26142746,0.18718539,0.19606003,0.27972725,0.27177948,-0.20335662,-0.34635925,0.024250701,-0.26940337,-0.22569057,-0.27662855,-0.29379278,-0.27676374,0.1971888
œuf,-0.32725984,-0.35500157,0.2926337,-0.3353607,0.46298125,0.33855832,0.37528136,0.29104543,0.24477147,-0.2660688,-0.35733396,-0.49094918,-0.51396704,0.38156474,-0.25403744,-0.3956216,-0.35418257,-0.34655485,-0.31555024,0.21600209,-0.40179992,0.45377192,0.31153348,-0.35004216,0.33539015,0.13261166,0.2666843,0.14733809,0.2262028,0.25689173,0.21946175,-0.33987987,-0.34573963,0.5627209,-0.32713258,-0.39009723,-0.33123112,-0.31084687,-0.26262262,0.22736722
fruitsec,-0.21057495,-0.3038945,0.27850276,-0.27694535,-0.013338029,0.34848905,0.36763948,0.23195124,0.30179852,0.23862116,-0.30733216,0.23926906,-0.08941923,0.3203414,-0.23722959,-0.19598523,-0.27540928,-0.23875421,-0.26543665,0.27038378,-0.2829181,0.39995193,0.26681587,-0.25953007,0.29647958,0.19250682,0.2611525,0.28742626,0.31477046,0.31471652,0.267932,-0.29559088,-0.25378796,-0.21079701,-0.24757265,-0.25289932,-0.35784572,-0.23369509,-0.2371359,0.2674514
basilic,-0.26848042,-0.20770054,0.2515302,-0.25614518,-0.31628197,0.30647862,0.2709546,0.28638223,0.28509238,0.15929407,-0.33558142,0.19828501,-0.23362082,0.33500925,-0.29102352,-0.3437358,-0.2605898,-0.22670192,-0.20492879,0.21859872,-0.2610706,0.22568133,0.22748491,-0.29036742,0.22248945,0.24144763,0.27858835,0.25146133,0.29090232,0.20743144,0.2492694,-0.26038033,-0.2562989,0.359454,-0.27294514,-0.21563768,-0.26995867,-0.275448,-0.31691313,0.2813247
poussière,-0.22927207,-0.3145736,0.25859794,-0.21165112,0.07573686,0.19039847,0.26447073,0.19288944,0.31427282,0.1576882,-0.24706323,0.020628516,-0.23759618,0.15998921,-0.16591337,-0.25785273,-0.22434947,-0.19812372,-0.23828454,0.26953962,-0.2808227,0.22083315,0.23925048,-0.27346587,0.21013503,0.18032277,0.21879335,0.2996407,0.2159381,0.25291577,0.3052627,-0.34106165,-0.24820507,0.3360213,-0.29145724,-0.27109218,-0.23324382,-0.34474128,-0.23690578,0.18129498
citronelle,-0.31895995,-0.25731128,0.20257235,-0.26956406,0.097142175,0.3058584,0.2928549,0.31233525,0.2207653,0.3396024,-0.28493267,0.3531009,-0.36393678,0.34240904,-0.25612426,-0.33725134,-0.22944883,-0.30388242,-0.24812204,0.2243191,-0.27581653,0.311314,0.2710393,-0.30660683,0.27430558,0.17407346,0.23634559,0.24788916,0.2401419,0.24860305,0.2141418,-0.24922061,-0.17755851,-0.14508861,-0.25449026,-0.36967838,-0.2246332,-0.2738513,-0.30221248,0.29133293
écorcedorange,-0.21118698,-0.32183617,0.35708246,-0.29517058,0.49919397,0.4114806,0.28459975,0.20217225,0.296299,0.3789007,-0.30213472,0.13887686,-0.38672626,0.35996073,-0.36206836,-0.37302023,-0.20115328,-0.3673879,-0.24692443,0.34180242,-0.31612015,0.23605758,0.31838495,-0.23857683,0.31278676,0.21000299,0.2758847,0.32895547,0.33982077,0.28385594,0.24761423,-0.3032654,-0.31556332,-0.34158707,-0.32146314,-0.2749902,-0.353119,-0.26952612,-0.34521893,0.17585406
encens,-0.20080753,-0.2200549,0.23250294,-0.17711437,-0.48003882,0.23909731,0.28820986,0.2741241,0.2927097,-0.34200895,-0.2564269,0.40682626,-0.30013707,0.2993055,-0.2774375,-0.22929361,-0.2707653,-0.24458009,-0.26561767,0.2540329,-0.29176262,0.2585661,0.15658666,-0.260688,0.19528008,0.2834102,0.32773963,0.22822294,0.18700516,0.2203773,0.23582724,-0.25777638,-0.15642998,0.33326888,-0.24031214,-0.23418716,-0.29472208,-0.18291321,-0.18275225,0.22320588
bonbon,-0.25726306,-0.3141577,0.23663783,-0.30488434,-0.21071193,0.2927724,0.3381903,0.33607292,0.23745388,0.07641529,-0.25571615,0.059630327,0.16067597,0.35248956,-0.3300649,-0.3646031,-0.34014007,-0.20325142,-0.31432077,0.2709066,-0.27717263,0.299236,0.30626702,-0.26436192,0.38775912,0.3011895,0.2953775,0.29068372,0.29668748,0.25323108,0.23062925,-0.20651796,-0.30923843,-0.20290692,-0.39108503,-0.26915514,-0.31113377,-0.21068412,-0.23792696,0.22503947
popcorn,-0.21148655,-0.16900027,0.32127944,-0.2547196,0.24895586,0.21973772,0.30538604,0.17176737,0.25282103,0.15512307,-0.22385693,-0.35305166,-0.09210518,0.25876683,-0.2875422,-0.32152438,-0.15599367,-0.26359493,-0.26556605,0.20648175,-0.19437428,0.13879246,0.20594507,-0.32902008,0.278704,0.068818904,0.31964412,0.08552224,0.3245669,0.22394833,0.23578374,-0.29848635,-0.26191312,0.056559417,-0.21994826,-0.3544742,-0.26206362,-0.27634105,-0.29601887,0.24009916
cacahuète,-0.42023045,-0.28008726,0.46390465,-0.3252034,0.46008402,0.24060588,0.44474542,0.26126444,0.40822226,0.18320985,-0.26088408,-0.531998,-0.33259273,0.30548748,-0.31810242,-0.41322577,-0.37008172,-0.29022968,-0.4065876,0.38272265,-0.38120487,0.25311738,0.36973232,-0.28470653,0.42204717,0.07219455,0.36546552,0.12590899,0.33781695,0.31067494,0.16035888,-0.33699867,-0.30127066,0.35635,-0.40589985,-0.36379248,-0.28126764,-0.42261308,-0.383243,0.4461948
romarin,-0.33954364,-0.2747698,0.2820255,-0.21544287,-0.30393684,0.16647351,0.25640118,0.32268822,0.34770578,-0.06404675,-0.2712074,0.14812574,-0.31856862,0.32759482,-0.24081248,-0.20984226,-0.23677868,-0.28540987,-0.2634102,0.25018972,-0.31078708,0.30622658,0.17329639,-0.27262688,0.20926861,0.2840579,0.21222758,0.3453592,0.33105734,0.30857986,0.19831496,-0.23162836,-0.2539376,0.25204766,-0.35026783,-0.28989506,-0.23582754,-0.23832491,-0.22939098,0.28192586
moutarde,-0.284312,-0.3482285,0.2525522,-0.3236643,0.4314562,0.32364693,0.2968517,0.356133,0.30405003,0.16369896,-0.3003532,-0.32726502,-0.38002154,0.29237327,-0.2657706,-0.26820177,-0.2986284,-0.24413073,-0.32974273,0.26388946,-0.37318206,0.27234304,0.28779072,-0.25966305,0.32808083,-0.10452613,0.25069964,0.040918168,0.27092853,0.25839564,0.25842035,-0.29469174,-0.34777912,0.4312861,-0.30791274,-0.24600711,-0.27781016,-0.32281423,-0.18752658,0.16266826
orchidée,-0.2093736,-0.2643258,0.17961401,-0.1866447,0.106882185,0.24731742,0.2911741,0.32392225,0.22913279,0.008847527,-0.27647835,0.06047657,-0.1949161,0.224966,-0.27480853,-0.23710766,-0.24301043,-0.158536,-0.36188394,0.31780934,-0.3124808,0.26705307,0.23719925,-0.32385558,0.3007571,0.2791835,0.31280914,0.25013077,0.2966755,0.30658695,0.28405708,-0.2829023,-0.19830659,0.3455335,-0.27257305,-0.27043873,-0.3110967,-0.33915436,-0.16902754,0.29305738
fruitdelapassion,-0.25313383,-0.25610533,0.29321426,-0.25022838,0.22765824,0.32288587,0.37576354,0.28082085,0.34503287,0.1711444,-0.29428318,-0.29319656,-0.15439391,0.27337635,-0.22011194,-0.29017735,-0.26415998,-0.40966243,-0.3990404,0.23839933,-0.27055484,0.29732874,0.3030182,-0.34521726,0.30565703,0.2883628,0.33648965,0.18990065,0.26538703,0.26181647,0.25265977,-0.33017105,-0.25749636,-0.050323356,-0.29723853,-0.24617118,-0.3153684,-0.2799503,-0.33827817,0.20135203
magnolia,-0.2737421,-0.29554245,0.28242415,-0.2659145,0.09747979,0.346981,0.333824,0.32873517,0.16258733,0.28961596,-0.25498703,0.22553702,-0.20248519,0.2556085,-0.34547997,-0.29004806,-0.2611774,-0.2492986,-0.27992207,0.25563824,-0.34341413,0.3118549,0.32361066,-0.31515115,0.32734215,0.22097695,0.2935092,0.2833485,0.31718066,0.31389436,0.26191497,-0.36585534,-0.31873322,-0.056616787,-0.27025163,-0.20897597,-0.3029844,-0.3548715,-0.29851472,0.30188888
mimosa,-0.18789646,-0.14781842,0.29668617,-0.25587112,-0.16910781,0.22889347,0.16739164,0.22161391,0.2289997,0.16078365,-0.14834058,0.30703914,-0.12251387,0.25486103,-0.25281227,-0.22925702,-0.18847498,-0.15122849,-0.20741598,0.28027302,-0.17913318,0.22126576,0.2162511,-0.24402344,0.16976893,0.21187611,0.21327277,0.16374022,0.1685819,0.20520476,0.20851833,-0.19241412,-0.27148277,-0.070827946,-0.23540717,-0.20927009,-0.21844001,-0.16924156,-0.21036813,0.26985177
graisseanimale,-0.2668232,-0.17696959,0.23791891,-0.25350177,0.41582996,0.31818908,0.24666846,0.30689043,0.23692706,0.41748506,-0.2740387,-0.34938228,-0.23670408,0.2438831,-0.18735057,-0.25585213,-0.28476685,-0.16998465,-0.28003222,0.26440057,-0.20223236,0.11923847,0.18194997,-0.25392747,0.24254234,0.27775222,0.25853908,0.27882046,0.34970894,0.25140506,0.36382133,-0.22953176,-0.26295322,-0.18590304,-0.23145053,-0.22675386,-0.28632215,-0.25230247,-0.2891197,0.28102025
lilas,-0.26213908,-0.25418857,0.22452182,-0.2866798,0.118872546,0.19091514,0.25593734,0.196521,0.18835771,0.26899734,-0.27172142,0.2686435,-0.15159695,0.14811243,-0.25088453,-0.27013382,-0.23286389,-0.25671583,-0.25539732,0.2920699,-0.21603918,0.3136613,0.3012574,-0.27825373,0.21181352,0.19757383,0.3168872,0.3235124,0.35919562,0.21104786,0.19372503,-0.2033472,-0.14243218,0.03605102,-0.25633198,-0.23671824,-0.22830853,-0.23857898,-0.26133382,0.2574776
graisse,-0.26362255,-0.27926388,0.2624237,-0.31791204,0.4701839,0.3452319,0.27141184,0.29383862,0.23795849,0.46173373,-0.4084862,-0.47005504,-0.33687615,0.28856194,-0.25731385,-0.2043424,-0.26756334,-0.26709813,-0.217909,0.3370976,-0.2623525,0.14714147,0.26656562,-0.22900671,0.20957296,0.2933902,0.31431645,0.4031946,0.31691682,0.32423085,0.35850635,-0.22972995,-0.24264374,-0.2898764,-0.28100896,-0.30739903,-0.3285882,-0.28590673,-0.22594042,0.326867
malté,-0.2249281,-0.23480397,0.29282027,-0.22584769,0.34091133,0.21424718,0.16443133,0.16585468,0.23635069,0.11078042,-0.20057712,-0.2794802,-0.20879415,0.26768556,-0.31176624,-0.2234532,-0.13181809,-0.29352337,-0.24258369,0.2306922,-0.21740541,0.15669277,0.28020602,-0.23027128,0.23878853,0.19059113,0.22849217,0.06702584,0.26177657,0.26613837,0.1831378,-0.18036745,-0.20411104,0.052827097,-0.2297604,-0.1624785,-0.2894001,-0.2771113,-0.1673511,0.22319052
bois,-0.25456583,-0.3823224,0.18042803,-0.24907649,-0.33074462,0.24315868,0.3445285,0.2568847,0.3144952,-0.17271687,-0.26660421,0.42738408,-0.37232143,0.19018301,-0.2901424,-0.2843157,-0.26050243,-0.20300362,-0.26085788,0.22538659,-0.26499104,0.2967097,0.28030938,-0.27717614,0.26408252,0.2830875,0.26633993,0.29479837,0.20186739,0.2771554,0.31133464,-0.2395891,-0.15014197,0.37381077,-0.21704009,-0.27165776,-0.31528646,-0.29056907,-0.26869276,0.28105313
noisettetorréfiée,-0.35270908,-0.24473289,0.3324321,-0.3223806,0.3657573,0.31614694,0.38850808,0.25377312,0.327105,0.24757789,-0.30677307,-0.3109927,-0.067602664,0.26105875,-0.24474435,-0.33531567,-0.2756244,-0.3321585,-0.29204965,0.32415652,-0.3451084,0.18524022,0.25791046,-0.30586118,0.29766816,0.03525965,0.37232313,0.13509911,0.31352943,0.34175318,0.2086443,-0.31169015,-0.30498415,0.244119,-0.22795504,-0.39238435,-0.26564407,-0.34463266,-0.2573423,0.29829705
menthepoivrée,-0.41973448,-0.2699357,0.3781136,-0.39975256,-0.3826697,0.32810086,0.25010377,0.26797885,0.36841214,0.16813302,-0.26066786,0.29608747,-0.4010924,0.29024705,-0.2409426,-0.37144607,-0.33069265,-0.3606425,-0.3375547,0.24847832,-0.32289732,0.27723122,0.28586125,-0.34297472,0.3078509,0.26995218,0.36130634,0.4236278,0.2975402,0.19373292,0.3872789,-0.2852051,-0.24177119,0.2985152,-0.39100382,-0.42792958,-0.39331985,-0.32709062,-0.29870903,0.32043803
poivron,-0.34001368,-0.25184643,0.24288465,-0.16423368,0.21941671,0.28972286,0.20545681,0.22628242,0.31569326,0.14604327,-0.23613036,-0.28737572,0.16736066,0.20941693,-0.14148857,-0.21338049,-0.26287556,-0.30392173,-0.21471782,0.23577455,-0.20948419,0.2115198,0.22261712,-0.25516057,0.19220218,0.16642287,0.20377797,0.24689741,0.29008156,0.23879528,0.2439344,-0.21294361,-0.20281138,0.31695235,-0.21075244,-0.16714844,-0.23847416,-0.25049993,-0.25141796,0.1608976
amandeamère,-0.2544562,-0.31271464,0.26221925,-0.3312582,-0.12717265,0.3125496,0.26928467,0.36708355,0.21582767,0.20755818,-0.3012399,0.09586336,-0.07441108,0.2202865,-0.30290055,-0.2510278,-0.32186484,-0.32123378,-0.32701033,0.28095895,-0.2436373,0.20969209,0.30917025,-0.32582963,0.27564505,0.22803164,0.24617872,0.26910442,0.30912006,0.26243806,0.30033898,-0.26314944,-0.30127624,-0.36807987,-0.2546047,-0.26212615,-0.2290943,-0.15251568,-0.35211807,0.15645094
ambrette,-0.19253936,-0.24380702,0.2179156,-0.21628782,-0.24011832,0.12967195,0.22184992,0.33415776,0.28218967,-0.27780482,-0.17050889,0.3034057,-0.35706872,0.15560953,-0.22556433,-0.22911774,-0.29811192,-0.2643249,-0.19751492,0.2047215,-0.23129216,0.27714294,0.20863485,-0.23927791,0.18267107,0.20105113,0.22516076,0.24332008,0.17768908,0.23176856,0.18880895,-0.15696457,-0.15605015,0.21589994,-0.2398245,-0.22483245,-0.18057287,-0.28269988,-0.18592007,0.23415034
maïs,-0.40757212,-0.2640352,0.2435579,-0.31343246,0.47369567,0.25530547,0.3573466,0.29150692,0.34866843,0.20012102,-0.32481343,-0.35059327,-0.26606393,0.25688428,-0.3374387,-0.4115892,-0.2136518,-0.29451123,-0.3815816,0.24818793,-0.26691994,0.1429143,0.3382293,-0.35953754,0.3199317,0.0816559,0.26988965,0.08616363,0.3774125,0.3045671,0.18676123,-0.27509016,-0.29469457,0.26778087,-0.34967762,-0.28262314,-0.23996294,-0.35256052,-0.2948326,0.33053875
whisky,-0.12678652,-0.13168074,0.10601846,-0.17949052,0.17451815,0.0983758,0.13350375,0.09665093,0.23399392,-0.013962816,-0.1813869,-0.22417614,0.09765642,0.15648946,-0.16534042,-0.17442033,-0.22451384,-0.075900406,-0.16851953,0.19279931,-0.14003067,0.09648438,0.16923738,-0.20440552,0.143528,0.15684842,0.11389384,0.039091922,0.20026259,0.18225862,0.15954354,-0.15860187,-0.12364243,-0.041686315,-0.11280515,-0.061900977,-0.14032856,-0.11026053,-0.16577646,0.22063491
friture,-0.19653784,-0.34501925,0.29211718,-0.31538194,0.41289026,0.30760574,0.23846638,0.30062425,0.25407296,0.34272012,-0.2451413,-0.41349295,-0.2491889,0.3461649,-0.22901648,-0.252523,-0.261133,-0.2030156,-0.28142872,0.2803132,-0.2864253,0.12958112,0.2818449,-0.21459784,0.25112745,0.32206464,0.26611447,0.31002635,0.1913821,0.32658687,0.35781178,-0.24613658,-0.2708941,-0.027479716,-0.313425,-0.22222343,-0.28806013,-0.25537077,-0.29004398,0.21659136
gingembre,-0.18976353,-0.19205865,0.21293871,-0.2620868,-0.30568016,0.18114957,0.18256485,0.18935972,0.26886964,-0.40570033,-0.20190108,0.43318594,-0.2422587,0.28710335,-0.1920998,-0.24504235,-0.26776034,-0.14534181,-0.20428547,0.1652256,-0.22753939,0.35389268,0.26577726,-0.24711335,0.25323927,0.3439843,0.22625086,0.17306551,0.23003985,0.23526482,0.33732796,-0.24652997,-0.27991992,0.20708413,-0.16933405,-0.26379007,-0.2818864,-0.31084955,-0.23382977,0.22758436
rance,-0.27041933,-0.20227283,0.24195129,-0.21111077,0.28572387,0.31770328,0.26777396,0.25929755,0.23041414,0.34667683,-0.28159228,-0.2598805,-0.1792207,0.2548683,-0.2178877,-0.10811369,-0.2448048,-0.17939377,-0.22380969,0.20881018,-0.20186299,0.13157512,0.17966345,-0.21185228,0.21915413,0.22990984,0.18184018,0.30536783,0.21845224,0.26303917,0.20349216,-0.2600137,-0.24258485,-0.093466304,-0.17878947,-0.2771938,-0.24944279,-0.17092752,-0.15901956,0.21156508
brandy,-0.12913293,-0.19303986,0.15244547,-0.20960107,0.08609271,0.20766911,0.14399162,0.27923363,0.20016441,0.067477,-0.21421978,-0.064206645,0.08862112,0.2294733,-0.16190185,-0.19127753,-0.24700564,-0.2898629,-0.15814565,0.23518287,-0.21524209,0.2254768,0.19605303,-0.18410833,0.23781061,0.25549898,0.20928815,0.10919033,0.29253,0.1976009,0.18548706,-0.23676571,-0.1962167,-0.090864494,-0.19445267,-0.22237673,-0.22036344,-0.13426515,-0.2115804,0.20811187
oignoncuit,-0.28534037,-0.3337081,0.27052295,-0.4331476,0.33187574,0.4104048,0.36979082,0.24015467,0.1980418,-0.25951055,-0.28675836,-0.28708094,-0.4267323,0.35831094,-0.3575043,-0.3875357,-0.26298162,-0.3458962,-0.2904684,0.26758215,-0.31730628,0.3887449,0.32237786,-0.34619495,0.22384575,0.11304125,0.34827882,0.04886177,0.31295833,0.26983464,0.17029142,-0.22370443,-0.25652134,0.42105424,-0.3186152,-0.37388062,-0.26928094,-0.30441564,-0.26247263,0.28583983
cassis,-0.2733099,-0.3324992,0.22517526,-0.25120077,0.17812142,0.17692347,0.16092476,0.29040655,0.21241039,0.034438953,-0.21219903,-0.124121465,-0.00434798,0.26781857,-0.24812067,-0.20152143,-0.27489212,-0.21442637,-0.16851634,0.22360043,-0.17394578,0.18872344,0.22988188,-0.16957015,0.19367813,0.27888405,0.30807394,0.17331477,0.17866747,0.25092217,0.25279891,-0.25541285,-0.23845533,-0.07568006,-0.19487841,-0.21297711,-0.20340908,-0.28819615,-0.21782888,0.17093222
thym,-0.17707042,-0.11113475,0.20317185,-0.18495128,-0.19286543,0.16323355,0.25487733,0.14761671,0.140048,0.06115172,-0.18560822,0.07212943,-0.25748456,0.19905968,-0.19710407,-0.14803621,-0.21921787,-0.14521019,-0.2058292,0.15943633,-0.15654783,0.05800136,0.17725518,-0.19091062,0.15915018,0.13058485,0.19045421,0.16124971,0.19751596,0.1881361,0.14222747,-0.2230278,-0.15040651,0.21304686,-0.1837443,-0.19158852,-0.16855352,-0.14313774,-0.17485955,0.1881924
fleurdetroëne,-0.25622714,-0.15794306,0.27313152,-0.11477276,0.16784954,0.093456134,0.25223455,0.2294529,0.29622436,0.13208799,-0.22255574,-0.30988085,0.115190975,0.21133499,-0.30965102,-0.21244918,-0.25524488,-0.20463555,-0.2033805,0.17200254,-0.21268062,0.19468665,0.2627263,-0.32511294,0.1471177,0.2480402,0.18072593,0.24013242,0.25716853,0.2110646,0.3208329,-0.30667704,-0.2584378,0.2077024,-0.22879073,-0.29683602,-0.18283203,-0.15393579,-0.16749541,0.18542391
noixdemuscade,-0.26222086,-0.23309651,0.2818389,-0.228023,-0.3798682,0.224623,0.22720121,0.22370708,0.23969376,-0.37858957,-0.30904773,0.37565976,-0.26833883,0.22735114,-0.27884355,-0.24827784,-0.23995858,-0.15637757,-0.267818,0.2666119,-0.26028603,0.33629367,0.2765937,-0.23504046,0.34635925,0.36075073,0.21959436,0.278701,0.28863156,0.23266822,0.19132593,-0.23207125,-0.25807557,0.29477862,-0.24224114,-0.22544658,-0.1625759,-0.2083641,-0.16598721,0.32470948
carvi,-0.20824945,-0.24049947,0.22670937,-0.1963182,-0.26772135,0.24394836,0.19282514,0.25405645,0.22474721,-0.20679595,-0.17665641,0.35891598,-0.29974747,0.1462447,-0.2623444,-0.18109627,-0.2662017,-0.22629544,-0.17727157,0.21285254,-0.17164645,0.16950303,0.23816316,-0.2574137,0.22713977,0.23657756,0.21110602,0.21555105,0.2613189,0.26093566,0.21958756,-0.20686194,-0.27721408,0.20906112,-0.2496145,-0.18793917,-0.12930585,-0.28351328,-0.26167095,0.2471008
buchu,-0.27209336,-0.26927277,0.2182119,-0.23056176,0.003905611,0.18633479,0.1333714,0.17936231,0.24322194,0.031482793,-0.29858503,-0.052545607,-0.19153887,0.2528723,-0.22278982,-0.17197943,-0.19137183,-0.20456517,-0.18532725,0.19294234,-0.18241397,0.1793158,0.2218853,-0.18612209,0.16389844,0.18267642,0.1905407,0.18874243,0.23818982,0.19971307,0.24407284,-0.31188184,-0.2235704,0.025082394,-0.20965078,-0.25622696,-0.2024521,-0.25801313,-0.23599887,0.20894605
rhubarbe,-0.20698446,-0.18020019,0.19271228,-0.16931513,0.26854518,0.13400674,0.17601433,0.27310058,0.23469439,0.046957657,-0.22110939,-0.12815875,0.055094868,0.19527932,-0.22477858,-0.21456409,-0.13969532,-0.20785522,-0.2522569,0.2255387,-0.24037895,0.24482949,0.19460303,-0.16773045,0.27547616,0.17645541,0.15257989,0.21383762,0.18398355,0.16352077,0.22806412,-0.16485967,-0.2443987,0.14030713,-0.24022388,-0.21647298,-0.24072096,-0.2458144,-0.1836189,0.10462901
tubéreuse,-0.20203127,-0.2646568,0.17080441,-0.2280998,-0.20273033,0.1489482,0.14876345,0.1579862,0.21437107,-0.016210586,-0.17915952,0.22632101,0.06312351,0.20119044,-0.22858834,-0.17383066,-0.19046663,-0.16063023,-0.2668602,0.17010656,-0.24099442,0.14550361,0.2588119,-0.15891932,0.22444339,0.082443565,0.18974149,0.2352609,0.18827066,0.259876,0.1762209,-0.14725131,-0.14779668,-0.03778564,-0.24830258,-0.17781022,-0.23118126,-0.19378562,-0.19554028,0.23611656
gaz,-0.17630489,-0.2239376,0.28692776,-0.21328309,0.2746574,0.19164759,0.089876994,0.1889435,0.15533665,0.069001526,-0.25275388,-0.22702077,-0.32450336,0.30995816,-0.2753743,-0.22160289,-0.22982752,-0.27295208,-0.23803943,0.111319736,-0.17098701,0.2793029,0.15442741,-0.13543522,0.22194907,-0.11085238,0.040949184,0.012719253,0.24984902,0.16315708,0.15924475,-0.2592154,-0.198569,0.26632154,-0.27448922,-0.24595597,-0.20226544,-0.22731656,-0.1031123,0.11504897
noix,-0.14316538,-0.18209806,0.21314967,-0.24589452,0.22724016,0.2006582,0.19586638,0.15823755,0.26324525,0.042147145,-0.20701522,-0.25927767,-0.07198498,0.2802398,-0.1296265,-0.25526673,-0.1960364,-0.18688475,-0.1545541,0.25476328,-0.12531734,0.15901993,0.2793344,-0.27476192,0.21969412,0.074667044,0.29744336,0.15028858,0.27670324,0.16817634,0.13612288,-0.23958254,-0.2122289,-0.026195426,-0.2609707,-0.22481322,-0.23764302,-0.16669092,-0.20550656,0.2017627
humus,-0.27865133,-0.20663439,0.20059726,-0.17954738,0.11181518,0.103263006,0.19338106,0.22662571,0.22554058,0.12894282,-0.22223917,-0.23071194,-0.074652255,0.28427464,-0.14733705,-0.16185786,-0.2212179,-0.20685086,-0.21214816,0.20493066,-0.17013954,0.1316638,0.1490123,-0.17673552,0.23137411,0.1150299,0.19870204,0.10555319,0.13454841,0.16762027,0.17200056,-0.1957773,-0.21824285,0.33104482,-0.13412158,-0.21993415,-0.14659023,-0.206872,-0.19249034,0.17343175
mûre,-0.18075067,-0.22693461,0.2725798,-0.19435999,-0.048640735,0.14732374,0.16172725,0.27222255,0.23271537,0.07836408,-0.14986558,0.022734396,0.117698245,0.18632108,-0.17764074,-0.17286307,-0.2447952,-0.20130688,-0.22767693,0.17513476,-0.23205227,0.24363077,0.19762981,-0.15957841,0.16609403,0.23398778,0.28474754,0.21050921,0.2769483,0.25077114,0.16546471,-0.25286084,-0.15342578,-0.15621392,-0.22341786,-0.22708738,-0.22600082,-0.107102096,-0.2328186,0.1571711
héliotrope,-0.24264209,-0.22603726,0.24830094,-0.34260023,-0.29884058,0.26548964,0.28801996,0.21512246,0.2567895,0.22726011,-0.26391062,0.251899,-0.05798962,0.27619767,-0.32470536,-0.2300738,-0.25559384,-0.3017881,-0.2717526,0.26727724,-0.2621415,0.2484027,0.28577164,-0.3388545,0.25363824,0.2735168,0.35102403,0.27461335,0.28002626,0.26379168,0.3371213,-0.3075521,-0.28112173,-0.209687,-0.31086951,-0.18556756,-0.33456266,-0.17986488,-0.22733244,0.30716854
styrax,-0.11020639,-0.15539767,0.105225556,-0.25306147,-0.3150339,0.13141532,0.1728952,0.22551021,0.17460373,-0.2172373,-0.23697129,0.30262333,-0.22934501,0.21754433,-0.28926402,-0.13560763,-0.13087946,-0.21209124,-0.23114951,0.26287597,-0.17958283,0.18264388,0.1298397,-0.18558921,0.14521493,0.1162653,0.25941443,0.2427983,0.18333796,0.20771264,0.12181844,-0.20143166,-0.14660145,0.13395065,-0.23541915,-0.13820839,-0.1728713,-0.22512205,-0.14523882,0.21833098
pastèque,-0.3911906,-0.24375983,0.26175517,-0.25344697,0.42003483,0.16083562,0.24442163,0.1749515,0.32425272,0.24016646,-0.345263,-0.33359575,-0.23824684,0.37212545,-0.26002026,-0.30180395,-0.32999316,-0.30863607,-0.19209568,0.3033213,-0.26624846,0.16688493,0.31006217,-0.30044466,0.31276083,0.21340871,0.27958715,0.3273573,0.2768468,0.21038666,0.24443749,-0.2819621,-0.3247978,0.3002393,-0.27686328,-0.36783093,-0.31646174,-0.19731784,-0.32545924,0.17398933
bacon,-0.27240437,-0.22792926,0.20612633,-0.29087412,-0.2906784,0.24588785,0.29846117,0.28843346,0.18351236,-0.19588701,-0.32203913,0.22256026,-0.1999283,0.30375898,-0.27675363,-0.25590017,-0.33331192,-0.19920394,-0.2787456,0.2962541,-0.25177407,0.21567139,0.17670298,-0.27625388,0.2739489,0.33872342,0.2944015,0.26025373,0.2150137,0.282442,0.17553252,-0.28187287,-0.18255165,0.23357065,-0.19966063,-0.25128555,-0.1650382,-0.3043731,-0.21968703,0.25494552
algue,-0.26866257,-0.21482834,0.23686323,-0.16133973,-0.06380765,0.18140766,0.19300641,0.219385,0.23934223,0.002210253,-0.24096012,-0.0112945065,-0.27587032,0.19555575,-0.20885572,-0.23442137,-0.22049727,-0.17765456,-0.21565904,0.25172865,-0.23573875,0.11931452,0.12766613,-0.2840724,0.10198103,0.20319006,0.1883556,0.18483776,0.2467347,0.24939868,0.15496312,-0.14237905,-0.1903572,0.28960842,-0.28287417,-0.25167727,-0.14270677,-0.2716522,-0.1974029,0.20126936
safran,-0.11453711,-0.2342921,0.1558022,-0.13508792,-0.17288741,0.12551153,0.1380144,0.19632028,0.09579724,-0.07331774,-0.13518584,0.049720626,-0.1658221,0.17892185,-0.1555323,-0.12763458,-0.20371035,-0.06716098,-0.08574486,0.08702263,-0.10314585,0.058819637,0.042377695,-0.1557072,0.16505317,0.08720639,0.19421634,0.12412591,0.084554225,0.12897353,0.11540456,-0.14947915,-0.20778641,0.19628,-0.15842362,-0.059168026,-0.16441286,-0.16880004,-0.13763058,0.19634724
sucrebrûlé,-0.104381934,-0.18277377,0.070709586,-0.09985655,0.09471814,0.16867927,0.19922598,0.19330922,0.16531397,0.12571853,-0.21349551,-0.23047063,-0.09812441,0.18060046,-0.09578949,-0.15957287,-0.1723057,-0.12434613,-0.23890027,0.17488411,-0.14052445,0.1408764,0.15244906,-0.122455485,0.12882376,0.04526487,0.23865916,0.18563029,0.15318677,0.22499451,0.105073266,-0.08413343,-0.24228488,-0.12470665,-0.14240701,-0.14064299,-0.06872467,-0.122690745,-0.23507592,0.2497851
bière,-0.2484528,-0.24103376,0.2396014,-0.20077729,-0.18542603,0.15617028,0.24906555,0.2560501,0.21188742,-0.05807809,-0.17119652,0.18902093,-0.11144412,0.1941027,-0.24229398,-0.31139714,-0.25991285,-0.20837575,-0.18253592,0.22585398,-0.2652409,0.22274196,0.17880651,-0.30753416,0.18898496,0.16964753,0.30314708,0.18272999,0.29582596,0.2339792,0.23488128,-0.20078525,-0.20315135,0.048384607,-0.25156733,-0.23904648,-0.23133272,-0.283157,-0.18715739,0.27893448
fécal,-0.21008329,-0.29894185,0.20491885,-0.31650847,-0.3855875,0.2633631,0.3122488,0.30643648,0.26147416,-0.10082118,-0.28840226,0.2838285,-0.3321423,0.30401877,-0.24365065,-0.27209172,-0.23261386,-0.28420332,-0.2835121,0.29886067,-0.31341577,0.23439659,0.23320308,-0.20126075,0.31593487,0.2820033,0.28807357,0.3020891,0.24196357,0.28708282,0.2558542,-0.2041296,-0.24864528,0.32908767,-0.2911633,-0.24550329,-0.31365538,-0.33473995,-0.20004201,0.26440924
asperge,-0.18504833,-0.2647365,0.2474817,-0.2540838,-0.04119485,0.17494258,0.123043,0.22651997,0.20775415,-0.019636918,-0.18942854,-0.19218314,-0.13353917,0.16343354,-0.257967,-0.24023664,-0.2116653,-0.3153059,-0.25487083,0.19064024,-0.2524092,0.16230637,0.13183503,-0.14318417,0.2913139,0.18339759,0.1814614,0.1521875,0.23793754,0.22025505,0.23230979,-0.2738847,-0.25842035,0.2617842,-0.14977823,-0.20326352,-0.2288831,-0.14358427,-0.18309687,0.2665657
chrysanthème,-0.17592408,-0.24739715,0.14094612,-0.19578186,0.11488058,0.17709143,0.1966943,0.14622998,0.13595162,0.23764408,-0.27760148,-0.0007303045,-0.15732965,0.13635546,-0.106048845,-0.25132364,-0.20709059,-0.15477954,-0.19369318,0.15737984,-0.2695096,0.15570988,0.22114176,-0.16339937,0.14951654,0.18200235,0.2520827,0.17838016,0.20917828,0.1574898,0.12775195,-0.13511218,-0.13686971,0.13206097,-0.17959565,-0.2615337,-0.12983659,-0.1661999,-0.26611608,0.160159
graissedepoulet,-0.2754334,-0.26671833,0.31686175,-0.24209535,0.3488735,0.32988328,0.38843584,0.3196097,0.20986103,0.38391244,-0.34572294,-0.35894907,-0.2654958,0.33090764,-0.2944835,-0.29647005,-0.3280788,-0.23612683,-0.2975821,0.3013332,-0.3087328,0.2448859,0.26290977,-0.30414218,0.3198012,0.34225905,0.24267529,0.3434137,0.29286423,0.4012964,0.30252343,-0.28367773,-0.29986802,-0.14726064,-0.2938571,-0.26336306,-0.30448103,-0.3040646,-0.3281889,0.29784337
caramelaubeurre,-0.26707965,-0.2562704,0.19895887,-0.34565926,0.09626335,0.15189208,0.30868855,0.2855928,0.24477589,0.17705056,-0.24412575,-0.16096039,-0.034524646,0.2652164,-0.2977059,-0.25257194,-0.30991048,-0.29726833,-0.2891719,0.21860242,-0.25909638,0.3163559,0.1969905,-0.2282159,0.18871176,0.22462232,0.27548695,0.22803277,0.22277084,0.26931292,0.22420703,-0.24535167,-0.31529108,-0.14678858,-0.29537356,-0.23428404,-0.29316974,-0.25705945,-0.20942682,0.26188135
genévrier,-0.17124157,-0.26588035,0.13482793,-0.2258487,-0.28127742,0.15862384,0.2378284,0.18447801,0.25672114,-0.23435925,-0.23778586,0.3545538,-0.32316658,0.2421517,-0.22546569,-0.25750533,-0.20165482,-0.25149542,-0.19664398,0.2331194,-0.25033128,0.28994393,0.10530954,-0.19290942,0.20611589,0.21846369,0.24295363,0.21294333,0.19981763,0.1626766,0.27208,-0.20355672,-0.11707261,0.22040752,-0.25680578,-0.2582475,-0.20985879,-0.23668732,-0.1968915,0.29072183
saindoux,-0.2839359,-0.28094852,0.24957806,-0.3316999,0.32748938,0.33827442,0.3417104,0.32918182,0.26786625,0.37618712,-0.3227501,-0.25865582,-0.2863027,0.27285364,-0.23078012,-0.1954849,-0.30389935,-0.30658916,-0.27189553,0.32152283,-0.25036067,0.20217502,0.2182452,-0.20339507,0.35998583,0.2772167,0.2299014,0.28730637,0.27971596,0.2963898,0.2573871,-0.28305689,-0.352719,-0.16532664,-0.32503,-0.2775901,-0.2559186,-0.21496381,-0.25552532,0.20448914
myrrhe,-0.1364333,-0.1968163,0.15647145,-0.19717285,-0.10406553,0.13134943,0.13794613,0.21345218,0.18174656,-0.050736703,-0.2006155,0.14118132,-0.26820397,0.16644606,-0.22004485,-0.17418763,-0.18358473,-0.17198098,-0.3051155,0.28176934,-0.27146035,0.19024293,0.098558165,-0.14837414,0.23532248,0.1462764,0.13456547,0.20325467,0.18538485,0.21793845,0.20606312,-0.18013263,-0.2513199,0.1472769,-0.17501388,-0.22598343,-0.16429162,-0.19369988,-0.2124793,0.29374692
kiwi,-0.19610788,-0.25668103,0.12916331,-0.136144,0.27894884,0.17195094,0.16517231,0.22328079,0.26748142,0.20372885,-0.1520811,-0.3534966,0.04986482,0.21864757,-0.26795962,-0.32777005,-0.20783746,-0.32504576,-0.19074279,0.32158542,-0.26439944,0.1461071,0.21230382,-0.30509222,0.30062163,0.16653267,0.23076658,0.20600966,0.19212866,0.23880908,0.29132828,-0.28335768,-0.2680866,0.16713068,-0.18828765,-0.17977235,-0.27980423,-0.17908552,-0.18239596,0.20716152
goyave,-0.15825467,-0.18534459,0.26012647,-0.28642845,0.13775973,0.21294379,0.15641694,0.18317994,0.22715154,0.062840566,-0.2793383,-0.22308163,0.058599338,0.23667622,-0.21182945,-0.20084563,-0.24433295,-0.3193982,-0.16742492,0.17896247,-0.19576095,0.2427189,0.20461884,-0.2757665,0.16077556,0.23626055,0.18106267,0.15599728,0.22649539,0.23720863,0.14845169,-0.2206333,-0.30292547,-0.02622535,-0.20707032,-0.21825758,-0.22201017,-0.18614666,-0.21399632,0.11066846
estragon,-0.2917736,-0.24719718,0.30906743,-0.30484885,-0.25353837,0.2886228,0.27493584,0.18872558,0.30266964,0.1989248,-0.20533139,0.16659969,-0.19309163,0.21132565,-0.2828407,-0.30140868,-0.22121724,-0.19176675,-0.25362983,0.25983268,-0.182475,0.27630237,0.17184593,-0.24805486,0.19517738,0.146573,0.25964004,0.24864887,0.28823417,0.20214653,0.23072284,-0.21351494,-0.22933376,0.23520452,-0.26227906,-0.21137641,-0.19056728,-0.23802777,-0.27830577,0.2728243
carotte,-0.16465136,-0.24737266,0.19132799,-0.17674756,-0.23276114,0.19736642,0.20240143,0.2262513,0.17776257,-0.07423774,-0.2144534,0.26588887,-0.25124523,0.21688466,-0.1812737,-0.18966955,-0.13968661,-0.15699929,-0.21075049,0.20603955,-0.15776682,0.22929543,0.1357644,-0.25885817,0.2013588,0.13175827,0.16263148,0.16773345,0.1497804,0.23143429,0.2152529,-0.18516564,-0.16129576,0.27831987,-0.108226895,-0.13478616,-0.1016843,-0.21754973,-0.16160077,0.1453897
bananeverte,-0.23760393,-0.31584308,0.23185158,-0.22771344,-0.036316868,0.20066819,0.25162253,0.18540226,0.24295749,0.025032826,-0.25161916,-0.2491095,0.14955981,0.21898499,-0.21761611,-0.18190128,-0.20897107,-0.27726766,-0.20328486,0.22036046,-0.19520214,0.23620486,0.30321276,-0.2570718,0.20889613,0.24626699,0.19446921,0.17213103,0.15116853,0.22501718,0.15255338,-0.28951627,-0.2899543,-0.00035943836,-0.3079552,-0.12087662,-0.1989522,-0.15994522,-0.28025603,0.16921858
céréale,-0.24534257,-0.16412814,0.2116859,-0.17414552,0.19361126,0.14003572,0.17131466,0.11574022,0.19833574,0.05966607,-0.1321325,-0.2322697,-0.092291124,0.16222593,-0.20622267,-0.21340191,-0.15198314,-0.18448034,-0.15910874,0.19324188,-0.20242944,0.04081721,0.1773452,-0.20113778,0.17566508,0.10029678,0.17563897,0.030306684,0.21806802,0.13460638,0.13335042,-0.17244807,-0.20940074,0.097662315,-0.14245684,-0.15618095,-0.22349848,-0.1695232,-0.17333966,0.19133464
