RESERVED,-0.04676678,0.008030605,0.040661313,0.026990138,0.038415726,-0.031377472,-0.055822887,-0.00019307062,0.067705706,-0.06715474,0.069284156,-0.081487134,-0.040686324,0.028077077,0.008919394,-0.018856607,0.048516378,-0.006121896,-0.005178461,-0.008231619
UNK,-0.04847981,-0.08346449,-0.018700719,-0.053429566,0.013317194,0.042459343,-0.018907081,-0.033744916,-0.036006797,-0.036493994,0.059688166,-0.0066068526,-0.04258282,-0.04758469,0.033301733,0.034975003,-0.021113288,0.047056437,-0.033293836,0.052850414
fruité,-0.00039089844,0.009315051,0.045004964,-0.05478277,-0.0038797744,-0.018845383,0.042301834,0.029972654,0.008701682,0.0006124191,0.04842162,0.0976089,0.012165211,0.032934234,-0.02648604,0.0648739,0.03510821,-0.0072819088,0.021639716,-0.055285573
vert,0.0490375,0.010299627,0.006654283,0.07122805,0.06359197,0.027547576,-0.045703005,0.05259856,0.057017393,0.04516705,-0.04715414,-0.0007876791,-0.08451949,-0.056354094,-0.0091913715,-0.008394932,0.021927562,-0.03547783,0.009177469,-0.015487481
doux,-0.011225916,-0.027016282,-0.025991058,0.034307297,-0.016702034,-0.04597173,0.0547634,0.054405224,-0.036255457,0.025113072,0.017109456,0.011515044,0.04715077,0.061353073,0.019461837,-0.00015674531,-0.0125701055,0.07007078,-0.045218218,-0.0801864
floral,0.017859682,-0.010764658,0.045262635,-0.012400188,-0.052845016,-0.008854784,0.022414504,0.07221929,0.049258217,0.05991339,0.015788235,-0.002355419,-0.015843809,0.00400728,0.047360413,-0.09192678,-0.08317579,-0.04414606,-0.033231713,-0.019248199
boisé,0.024105942,0.06275611,-0.049517177,-0.059635125,0.0042300597,0.0068904534,0.05420586,0.035783425,0.025847588,-0.02386773,0.03648248,0.06713073,-0.06493902,0.0053927936,0.056003306,0.034414694,0.025938641,-0.0012693666,-0.00036101043,-0.028065968
herbe,-0.00039846078,0.0052560195,0.030235924,0.012735572,0.07249409,-0.082158245,-0.044496313,-0.057137635,0.035626944,-0.016551994,-0.054769956,0.026999798,0.0057407357,0.022202872,-0.03638673,-0.01811565,-0.020973828,0.020945776,0.026548315,0.0046226494
épicé,0.024883293,-0.013113424,0.024379766,0.030819084,-0.034285188,-0.016482964,-0.053831555,-0.034420874,-0.04498259,-0.031678192,0.041580364,0.020852055,0.067934886,-0.026022077,-0.026707396,-0.056815684,0.023012731,0.023072634,-0.03195628,-0.03851544
ciredabeille,0.0041298904,-0.0034635086,-0.05497675,-0.03518919,0.00030963123,0.08203632,-0.0068387594,-0.031174172,-0.031973507,0.03352733,-0.07091351,-0.043919303,-0.04259828,0.00069277175,-0.011836216,0.057234794,0.04829872,-0.05584197,-0.046730302,-0.07634547
gras,-0.028551882,-0.032823745,-0.0088038035,-0.038474705,-0.0044575147,0.0085039865,0.025695581,-0.034242183,0.01594355,0.016544204,-0.02201564,-0.009253591,0.016670609,-0.0024024094,0.03841936,-0.043180883,-0.077484585,0.07003846,0.044363387,-0.048105545
frais,0.042093277,0.035629164,-0.029819608,-0.074245036,-0.011114571,0.049904183,0.011984263,-0.0005053021,-0.007212043,-0.005411517,0.00051484257,0.021316586,0.017756175,-0.07293135,-0.012874056,0.008666743,-0.028054966,-0.04191539,0.0072703473,0.0051559135
agrume,0.018187743,-0.05392723,0.025325503,-0.022376763,-0.029588174,0.003527496,0.025978472,0.0582142,0.011124946,-0.03287555,0.01813866,0.019209418,0.038978044,-0.061084628,0.0135120265,0.0011750013,0.013799928,-0.009402439,0.03267028,0.017449867
balsamique,0.0029286407,0.0034874566,0.0642129,-0.0060776696,0.046702173,-0.092104845,0.029092122,0.023359254,0.01197727,-0.08046261,0.001055412,0.055513445,0.0481264,0.04942675,-0.0229651,0.023711098,0.040631823,0.009050775,0.04357806,-0.033520926
rose,-0.017475724,-0.025463223,0.009352826,0.0007000193,0.021690965,0.017105449,-0.057732724,-0.051074926,-0.03047302,0.027403496,-0.03766158,-0.0027540065,-0.0002379734,0.02773451,0.067402616,-0.0024464354,-0.008604573,0.029857446,-0.012166176,0.03545647
fruitàcoque,-0.03958079,0.08092265,0.060708664,0.017160248,-0.0109946,0.020645134,0.06316686,0.031604465,0.022933964,0.031135004,-0.025250547,-0.0071931835,0.064861596,0.0034550317,-0.019145656,0.026510932,-0.049837627,0.047376297,0.059342336,-0.0048951767
terre,-0.0033261068,-0.0418314,0.019914307,-0.08120105,-0.0092252735,-0.028865613,0.01897273,-0.05538584,0.001671493,0.0019301996,-0.049389407,-0.02840705,0.010853615,0.042166248,-0.03282107,-0.015661847,0.02421793,0.040596317,0.025192957,-0.032251608
huile,0.013671019,0.082010604,-0.0014828108,0.04403424,0.036768682,0.044134133,-0.08542284,0.01430225,-0.03538081,-0.044292342,-0.022639394,0.014314447,-0.08674664,0.09360896,0.021909617,0.021094259,0.009374228,-0.020654144,-0.059111495,0.066010736
légume,-0.06867801,0.031819567,-0.009472251,-0.07156083,-0.009060536,0.07525855,-0.014067447,-0.055398498,-0.03953817,0.06700183,-0.079027355,0.055098288,0.066800304,-0.05029539,-0.06002883,0.041047726,0.05974833,0.0733831,-0.0010724813,-0.0018270705
crème,-0.004967969,0.032845873,-0.051103435,-0.039651666,0.034676358,0.055879492,-0.0072340155,0.019972477,-0.09040533,-0.054207522,0.007329124,0.07299784,0.027718505,-0.011770066,-0.05850576,0.0037975777,-0.022957245,-0.057379905,-0.066875815,0.073945865
poudré,0.02792114,0.031104174,0.009247113,0.023525905,0.0106200315,-0.049400378,0.013895467,0.088267826,-0.040179767,0.01604943,-0.062144376,-0.02847345,0.07096515,-0.044972457,0.0040396117,0.02479975,-0.049338005,0.06282824,-0.028625658,-0.044798505
baie,-0.007311929,0.0054423325,-0.0009295009,0.01450336,-0.0011424329,-0.029609848,-0.032328427,-0.029995017,0.04107093,-0.008968247,-0.010458039,-0.08473465,0.03612703,-0.049496222,0.017190207,-0.09449808,-0.013005815,0.020983195,-0.031620182,0.059290864
menthé,-0.035701573,-0.043415856,0.048095647,0.036378995,0.08355669,0.011421718,0.045621276,-0.032814324,-0.03299719,0.013682498,0.011575554,-0.006179061,0.0048820376,-0.036744345,-0.022434033,-0.08333723,0.007903863,-0.040810622,-0.032583546,-0.057597842
pomme,-0.030405365,-0.0294116,-0.048115693,-0.059700407,0.068312325,0.034357324,-0.010418091,0.033728044,0.0004708022,0.025921784,0.0008378662,0.012072768,0.0150934085,-0.0318588,-0.064272344,-0.047840063,0.0679174,-0.04303057,0.048444927,0.035350025
moisi,-0.015963808,-0.0037453398,-0.052909516,0.0187747,-0.02244885,-0.0030040368,-0.07172659,-0.055872444,0.03673116,-0.08501162,0.040340558,0.029472448,-0.04517292,0.0132309105,0.09429644,0.0030656457,0.05795511,0.07306247,-0.0037351586,0.028862588
ananas,0.014310755,-0.06883003,0.023417974,0.025218036,0.018623684,0.031379983,0.042048838,-0.041236974,0.011730161,-0.032575775,-0.01721296,0.0070040487,0.027597323,-0.01048951,0.053414263,0.049598306,0.0449146,-0.043854438,0.013130024,0.036448818
phénolé,0.041775715,-0.023839138,-0.0038372166,-0.08001967,0.038500693,0.055628654,-0.051527012,-0.00044520758,0.012664702,-0.0040464737,0.02984747,-0.004733324,-0.0039921757,0.042239096,-0.086727515,0.024084441,0.035428714,0.06474269,0.018009236,0.011408459
camphre,0.06845639,-0.01193912,0.078669846,-0.044566024,0.012581585,-0.049502492,0.029801928,0.07752852,0.011152878,-0.043824527,-0.015930021,-0.034865305,0.09727756,0.060886085,-0.005943753,-0.02836676,-0.024455607,-0.076121606,-0.021643102,-0.033900104
soufré,-0.052120257,-0.059906986,0.062947035,-0.028116226,0.022352373,0.028211083,0.026541874,0.036802612,0.08379256,0.0810179,0.021800514,-0.046067275,0.034913614,-0.033430338,0.058409818,0.022834146,-0.044123672,-0.07315524,0.076858446,-0.009854432
aldéhyde,0.042023312,0.0003953185,-0.052949954,0.07489263,0.05873929,0.04645316,-0.047495637,-0.08812405,-0.015753146,-0.041626107,-0.0021494739,-0.05632396,0.02096422,-0.05156536,-0.010189522,-0.030053606,0.020624205,0.017308429,0.0017878339,-0.018824458
métal,-0.02890836,-0.013220046,0.017528426,-0.051152635,-0.04649632,-0.031960513,0.044271562,0.02773745,0.01529514,0.04459998,-0.036631238,-0.02895715,-0.0066008903,-0.08010404,0.004595265,-0.022793517,0.030284166,0.04615139,-0.05044018,0.054393973
miel,-0.0004833229,-0.045949627,-0.09591904,-0.011703465,-0.065796256,-0.0140838735,0.06069641,-0.06102468,-0.03191695,0.027793039,0.011736706,0.027321933,0.016433928,0.03950193,0.01836513,-0.008635867,-0.054942537,0.0068335384,0.0050792135,-0.065962374
melon,-0.0064780824,-0.0123009235,0.01245469,-0.012950543,-0.058613256,0.01565633,-0.054361895,0.0063138977,-0.034631345,0.000884518,-0.019822463,-0.044598915,-0.027245592,0.023404457,-0.029564822,-0.067818455,0.02673744,0.0292372,0.008091556,0.019911215
ambregris,-0.07312025,-0.08310237,-0.009879254,0.06181761,0.04314312,0.025550168,-0.029980717,-0.008420313,-0.05874876,-0.027742438,-0.051297568,-0.025830496,-0.01613978,-0.035519365,-0.04936849,-0.00531633,0.02959098,0.0318172,0.028638639,-0.028560266
raisin,-0.012013994,-0.05595292,0.02153143,0.042392183,0.06359294,-0.0024616695,0.041087724,0.056925856,-0.017423686,-0.0015315488,0.009276129,0.049956344,0.017081942,0.0727495,-0.032840405,-0.015095452,-0.046676487,0.031642802,-0.023932375,-0.025060173
caramel,-0.044358015,-0.00080088153,-0.037407767,-0.006867245,-0.054723285,0.035440493,0.052471306,-0.074285865,-0.003411077,0.05213044,0.03266043,-0.032666948,0.03262457,0.011638343,0.0619779,-0.0404302,0.03125703,0.042036425,-0.018375505,-0.0021951161
oignon,0.030038737,0.0774659,-0.043798473,0.052148353,-0.05093005,-0.021820746,0.004184965,-0.01512499,-0.013352359,0.017686415,-0.032605812,0.013626859,0.024613932,-0.022611342,-0.03188791,-0.07999902,-0.008907415,0.025378183,0.044417836,0.011341203
banane,-0.010906303,-0.04032699,0.047607254,-0.033831976,-0.019100703,0.02202418,-0.016291391,0.00019037724,0.07916391,0.0032328367,-0.01271623,-0.047670696,-0.017948497,0.081799544,-0.03537818,-0.0026007742,0.019680392,-0.07276124,-0.0452493,-0.021368537
poire,-0.084167935,0.058556713,0.06626817,0.015101755,0.013892939,0.012057852,-0.017421164,-0.058384623,0.008027008,-0.042391192,-0.008471871,-0.030531205,-0.03737805,-0.041797176,0.055691525,-0.043880608,0.024749532,-0.08232687,0.020988442,-0.022020426
café,0.025158416,0.026291337,-0.046868384,-0.08777024,-0.050360143,-0.015048908,0.01978177,-0.07034395,-0.0029201023,-0.06467376,-0.010931214,-0.024102353,0.016928483,-0.010967005,-0.03322164,-0.014311254,-0.05512668,-0.006074453,-0.011426363,0.025766943
vanille,-0.029623851,0.009580685,-0.02218208,0.022646308,0.01133671,0.0661893,-0.031259503,-0.06255058,0.016333437,0.013914131,0.018278398,0.06390325,0.018247865,-0.043676853,-0.043322064,0.08021388,0.07207073,-0.056631934,0.025824666,-0.03082968
éther,0.01156541,-0.069996335,-0.07193625,0.03670051,0.07692566,0.04265097,-0.019519066,0.007015433,-0.02304332,-0.007571887,0.0008963831,0.03376545,-0.030281045,0.064388655,0.049065866,0.0032339059,0.018385485,0.07142861,-0.031507887,-0.008264219
fromage,0.008724928,0.070259355,-0.022467785,-0.031419553,0.026481673,9.430386e-05,0.029132664,-0.051741436,-0.008773137,-0.02945777,0.0029214043,0.055027142,0.0021933466,-0.07694276,0.05582869,0.024269965,0.00028352812,-0.052930035,-0.03972577,0.00027568266
vin,0.013128329,0.0068732724,-0.0037306882,-0.012733363,0.026989806,-0.016450964,0.02316302,-0.035600673,0.04152793,-0.008086756,0.04540374,0.046452213,-0.028489877,0.037985757,-0.06713313,-0.026900768,-0.035402536,0.031633496,-0.055094026,-0.04640373
tabac,0.07004571,0.035239592,0.044675335,0.0010057297,-0.06307349,-0.017309032,-0.009764694,0.052776568,0.01650324,0.036235154,-0.018639386,0.019216523,0.027270075,0.058552667,0.041534174,0.0031619333,0.037846893,0.02563162,0.029724587,0.047873434
noixdecoco,-0.0060695074,-0.013903821,0.016404882,-0.019841898,-0.0032441132,-0.00880599,-0.0040048677,0.00166367,0.090774186,-0.09127161,-0.020632185,-0.008782409,0.015071973,-0.01868007,-0.023151314,-0.084874764,0.03629839,0.006235931,-0.017689276,0.08153
jasmin,0.05834973,0.046837077,0.074399516,-0.040598415,0.029777564,0.0824071,0.043315962,0.022484161,-0.01668854,0.060037747,-0.06722216,0.041035842,0.0467585,0.039145265,0.039844133,0.028746903,0.019395314,-0.043988135,0.0636124,0.008083783
savon,0.018387415,-0.012235992,-0.028189372,-0.0057510883,-0.0019416548,-0.012853894,-0.007429421,-0.04710176,0.029999793,0.008286003,-0.018433463,0.0019459613,0.009927809,-0.054464854,0.038379446,0.014594998,0.023518048,0.010482697,-0.037126053,0.033408493
ail,0.014273871,0.047017064,0.036926363,0.039699804,-0.041204743,0.023594674,-0.09019166,-0.002569059,0.0059009083,0.01708322,-0.028823458,0.046878375,-0.078201964,-0.020044457,-0.0076404065,-0.04720272,-0.06089311,0.02239715,-0.07470761,-0.013930608
lactique,-0.024264919,0.020902786,0.0032825246,-0.0068326965,-0.015194964,0.07878169,-0.021341845,0.025242332,-0.03126916,0.03455005,0.044591986,-0.029135622,0.051275015,-0.010640467,-0.046016693,0.052861236,-0.057718277,0.008088518,-0.028539214,0.019591514
beurre,0.05542104,-0.015206229,0.029779509,0.092930034,0.07507241,0.036570538,-0.051001642,0.0019394793,-0.017702341,0.01380644,-0.053723026,0.023661021,0.016495928,0.0010369532,0.016367268,0.059433214,-0.09397654,-0.061310004,-0.029122844,-0.022182181
champignon,0.052343253,-0.021637276,-0.013015639,0.0056652166,0.0036711544,0.023825858,-0.05243297,-0.014195893,0.08673572,-0.018254746,-0.07843621,-0.04753586,-0.032703564,0.03211443,0.022745289,0.063629605,-0.06652913,0.02737324,0.066661045,0.010977434
cacao,-0.023164257,0.035390165,-0.036592923,-0.063542746,0.0015421249,0.0073833354,-0.024634335,-0.018989313,0.0029619113,-0.024345908,0.04913077,0.07273575,0.08101062,-0.0019799136,0.054852545,-0.014292851,-0.037583865,-0.007887937,0.033236194,0.024391534
animal,-0.042245746,0.026928736,-0.0036881082,-0.020541955,0.07106907,-0.013593793,-0.051468704,-0.013600696,0.0037391335,-0.015266191,-0.018652417,0.017421547,0.062089838,0.014377754,0.016552921,0.032667115,0.0017607808,0.046431035,-0.009496953,0.055684865
pêche,0.07297656,0.03844604,0.014021408,0.02340139,-0.066889785,-0.06313423,-0.06361606,-0.069013,0.06829344,0.050153892,0.034057263,0.03151882,0.058615364,-0.08126268,-0.010124266,-0.0044469554,-0.014004134,0.011070862,0.088312946,0.031892773
orange,-0.05280024,0.002335159,-0.01719793,-0.033821974,0.06470058,-0.037444044,-0.05134021,-0.051061142,-0.040799253,0.06671745,0.039204918,0.035169855,-0.034844432,-0.020088434,0.0054776073,0.06320657,-0.061417677,0.037055686,0.04528603,0.050538056
brûlé,0.05151189,-0.024031054,-0.07808225,-0.0037857872,0.011601806,-0.031169128,0.02789725,0.028630506,0.028266385,-0.06696433,-0.028267525,-0.0071002245,-0.052622832,0.05139081,0.034731172,-0.013066325,0.07576111,-0.05349387,0.014478087,0.054202087
violette,-0.03464062,0.056771837,-0.020613575,0.060385205,0.060330335,0.044657916,-0.030436374,-0.00015061162,0.01191524,-0.04292742,0.01676431,0.008830581,-0.0392871,0.011526547,0.0325605,0.012277175,-0.020389486,0.02171142,-0.014943328,0.049830258
musc,-0.00024973042,0.017653596,0.02530358,0.00072381273,0.027125206,-0.03323903,-0.013667848,0.05598628,-0.033109356,0.02397753,-0.0366207,0.046648674,0.0545355,0.05617484,0.024094716,-0.06378261,-0.034172222,0.027576212,0.00676148,0.008611832
pin,0.03879616,-0.003729634,-0.0547392,-0.015787914,-0.044629145,0.019078426,-0.03443595,0.021134317,0.059353977,0.041385792,0.030629478,0.020851705,0.00412219,0.020743165,0.028647237,0.022817146,-0.006459307,-0.030998327,-0.0053905025,-0.08061876
foin,0.08340511,-0.004013624,0.040389158,-0.04507036,-0.005015552,-0.038232554,-0.015949868,-0.0034509562,-0.07179393,-0.032325506,-0.026084911,0.021971975,0.06597075,0.005670473,-0.0039619915,-0.0150197875,0.03170761,0.002628576,0.007828593,-0.02389364
citron,-0.03538893,0.04974597,0.018353082,-0.040477157,-0.009185087,-0.0019787326,-0.009761155,-0.0043149237,-0.018771112,-0.0028476361,0.047696836,-0.057376698,0.02245536,-0.035362378,-0.020052243,0.007660046,0.041471243,0.027610075,0.009142492,-0.029719401
cerise,-0.007553505,0.038555715,0.009734942,-0.0612432,0.071358755,-0.020019602,-0.016303148,0.012645615,0.020161439,-0.013034556,0.016202662,-0.019249942,-0.029907204,-0.06424032,0.024730016,0.048079874,-0.024952173,-0.033949792,0.04619524,-0.005064264
rhum,-0.031592082,-0.00933503,-0.02634193,-0.04936453,0.031799987,0.031912986,0.00084234774,-0.0030210987,-0.006084513,-0.04629723,0.08041782,0.038688373,0.007277932,0.052669562,0.0054528974,-0.012614358,0.0041235574,0.035847392,-0.040919423,0.03348643
cannelle,0.053583853,0.046119425,0.03430669,-0.0079826005,-0.0058404803,0.020974923,0.03016584,-0.039132394,-0.01086005,0.06472026,0.012404062,0.0070676208,-0.039351247,-0.065863565,0.0775639,0.0024379361,0.024725676,-0.032795332,0.009539735,-0.013666749
coumarine,-0.052892312,0.007466972,0.01809213,-0.06978969,0.016110472,0.043294523,-0.011904635,0.016564362,0.06869033,0.03623008,-0.009882402,0.030195974,-0.035650276,-0.01644256,-0.023723964,-0.016428519,0.053681567,-0.06709592,0.0028034914,0.039829995
laitfrais,0.051490188,-0.09254141,0.07464098,0.0753718,0.015270639,0.008014467,0.046446495,0.08137089,-0.022094227,-0.006488081,-0.050538875,-0.027699446,0.0012097247,-0.08349174,0.079895735,-0.039363135,-0.045643523,0.005409207,-0.04683937,0.05498123
médicinal,-0.0036736503,-0.0035813078,-0.0048768893,-0.07042042,-0.030790044,-0.021182798,0.025616659,-0.037442353,0.0063792225,0.021835176,0.06410096,-0.036311343,0.0068827495,-0.030576658,-0.052630417,-0.03588649,0.022267174,0.019570459,0.03569527,-0.04166045
cèdre,-0.027659215,0.037799384,0.04732255,0.062165074,0.0317433,0.04842087,-0.013861883,-0.035996772,0.049186386,0.080479614,-0.0016113408,-0.016628254,0.018970596,-0.05520791,-0.0292642,0.00846467,-0.06931995,-0.046556342,0.009851038,0.055545107
﻿abricot,0.06288154,0.0090235025,0.057259582,0.009739343,0.029731803,0.047248676,-0.04419464,0.030175708,-0.01386838,-0.026961982,0.038977735,0.03737669,0.020872388,0.026240941,0.021077456,0.015853312,-0.019120194,0.07302323,0.04386949,-0.015073109
thé,-0.07633062,-0.061603855,0.016823042,-0.0026208982,0.047664247,-0.010576796,-0.0030759797,-0.014259968,0.0504724,0.03349212,0.004596196,0.0645619,-0.054847516,-0.047576703,-0.03161644,-0.01143444,0.025307748,0.0059375446,-0.0054482557,0.014549147
prune,0.04081171,0.009973053,-0.03781475,-0.017175209,0.009255674,0.042114757,0.06948552,-0.032560527,-0.056711294,0.023218077,-0.015037142,0.008056868,0.024034653,0.060159795,-0.039627768,-0.016384672,0.062565744,0.039150596,-0.033996485,-0.0014437214
ylang,-0.05045079,-0.049106445,0.032714006,0.011939332,0.032391727,-0.02050753,-0.046005346,0.012301672,0.017467845,0.030479584,0.050468884,-0.049802423,-0.011611499,-0.026626635,-0.0043812394,-0.011631068,0.06855767,-0.0017681271,-0.046085868,-0.04710393
fumée,-0.015886996,0.061401024,0.017214324,-0.06021837,0.0037162565,-0.018244028,0.024358392,-0.013068341,0.08423462,0.0029607043,0.025433946,0.070920244,-0.042177785,0.06135215,0.07070059,-0.016953543,0.020606577,0.020440888,-0.045973063,-0.047678445
fermentaire,-0.03880328,-0.0660796,0.06264398,-0.027071893,0.006087713,0.019375924,0.019885242,-0.014408326,-0.005173754,-0.06694326,0.020936213,-0.0068190414,-0.020036198,-0.028113175,0.056568637,0.012354236,-0.005791161,-0.0134095065,-0.014646638,-0.07435652
poivre,0.04599141,-0.00434787,-0.049842667,0.05988407,0.022874951,0.08229387,-0.01599665,-0.052787736,0.042077623,0.02746214,0.0022122487,-0.08647227,0.030379932,0.07890703,-0.016344931,0.019812133,-0.02915963,0.007790219,-0.082948476,0.06753236
géranium,-0.04112778,0.0064916275,0.040013935,0.006826576,0.008200839,-0.03259229,-0.013392661,0.01489993,0.006712448,-0.08699765,0.03912339,0.046963405,-0.015200626,-0.055766523,0.049359187,0.0713099,0.008426774,0.019758616,0.07318198,-0.042134188
pain,-0.06677375,-0.0038175117,-0.015910674,0.021821722,0.028203918,-0.00969119,0.0043770075,-0.011814691,-0.07099593,0.034384213,-0.08018062,0.04151795,0.02804713,0.02602338,-0.00929923,0.0022169724,-0.03761717,-0.013867676,0.0035721548,0.06318097
ester,0.04912532,-0.024176203,-0.091121405,0.0066561587,-0.017624509,-0.06810723,0.042365994,-0.04229722,-0.016808724,0.0124211535,-0.058702577,0.01450615,-0.0046736933,0.048087157,0.027894154,0.022674955,0.035269547,-0.05023869,0.08536013,-0.031458788
concombre,-0.06490169,-0.055571035,0.040690135,-0.037971616,-0.047872428,0.0045659505,0.035309687,-0.035264112,-0.06443146,-0.055411886,0.052831456,0.051840685,0.03937501,0.018412676,0.03843094,0.0033620354,0.0120564215,-0.02024189,0.0024792552,-0.03155507
cuir,0.0037856922,-0.0018316619,0.04659658,0.06740959,-0.0019458048,-0.023854459,-0.024371516,0.0024836548,-0.034232415,-0.011509851,0.06013213,0.04751972,-0.051638402,0.041063868,0.020163964,-0.04196354,-0.0075961016,0.042748548,0.030952409,-0.01738765
confiture,0.0768919,-0.07740159,-0.02750044,0.029273748,0.043288432,-0.008324804,-0.030324422,-0.0858296,-0.00031690672,-0.056525327,-0.04462626,-0.0021843389,0.006824456,0.014907468,-0.08871737,-0.013472596,-0.06248541,-0.012798443,-0.054501012,0.027270962
amande,-0.051808357,-0.04376929,-0.014018476,-0.004852716,-0.032112014,-0.006286813,0.0015269741,0.039634064,-0.012434434,-0.040976785,0.017056875,-0.025535762,0.0072830655,0.020837843,0.036680035,-0.04705973,-0.032099344,0.045970313,-0.007945463,-0.05587908
alliacé,0.038918667,-0.062497344,-0.0027762651,0.060610235,-0.020599592,-0.071296886,-0.034700226,-0.006272152,-0.036824215,-0.039239015,-0.003669897,0.059105724,-0.047802415,0.0005031638,0.046644345,-0.051114764,0.011280714,-0.03223429,0.015129246,0.011903755
cognac,0.035685502,0.06211829,0.051321886,-0.079555154,-0.02588365,0.031103447,0.043338038,0.017373847,-0.020884234,0.00428723,0.0069127344,0.02245954,0.0075891986,0.004165996,-0.06604332,-0.043001473,-0.029618576,0.03287569,0.09140778,-0.059606485
lavande,0.045923695,0.055438187,0.03933672,-0.014865138,0.03495043,-0.057893395,-0.0026947893,-0.090230346,0.030290626,-0.020559773,0.0185701,-0.0042327065,-0.048556887,-0.03305923,0.003980968,-0.024507403,-0.026813582,0.028685737,-0.06687833,0.019170402
framboise,0.070032276,0.011166595,-0.056786776,0.028863117,-0.04252365,0.012180939,0.0061805956,0.01983669,0.02498858,-0.033282444,0.009756591,0.033419464,0.03520304,-0.0035629235,-0.05471146,0.037853967,-0.0079020765,0.025768224,0.09487382,0.055372804
réglisse,0.055378847,-0.0027838554,-0.0400704,0.010198262,0.039575756,0.035603344,0.017718721,-0.02441182,-0.0013196468,0.0009201765,-0.0062853694,-0.015108466,-0.043648623,0.066486165,-0.04440236,0.076904945,0.010827437,0.028481375,-0.008721039,-0.026833031
mandarine,0.014388297,0.0030406006,-0.042371966,0.019250441,-0.073995255,-0.007166721,-0.030783914,-0.0036982521,0.013499819,-0.00641525,0.0047554635,-0.08421323,0.008057307,-0.054684103,0.018309336,0.035211816,-0.035343587,0.0031702407,0.0011165515,-0.026849877
cloudegirofle,0.044092335,0.044410326,-0.03596082,-0.016014554,-0.033167113,-0.037376486,-0.0132030845,0.020353984,-0.034054913,-0.02974925,0.013834581,0.037415624,0.010587588,-0.010775588,0.0018683933,-0.017023671,-0.026273083,0.02320129,-0.017512247,-0.08886359
muguet,0.01263281,-0.0245031,-0.051006854,0.009469092,0.010606457,-0.03364764,-0.046269726,-0.022575451,-0.045094457,-0.013878144,-0.0426487,-0.032965,0.017221715,-0.017684042,-0.08104384,0.008208921,0.041439865,0.025292054,-0.016026255,-0.0009529367
fleurdoranger,-0.0006898269,0.088503905,0.033882294,-0.04536891,0.0028165206,0.04420831,-0.04000454,0.001499638,0.0021626838,-0.007914957,-0.013621483,-0.05260544,-0.017571755,-0.007796537,0.03193922,0.029035326,0.012669031,0.08468427,0.010402642,0.0020300746
citronvert,0.08584728,0.040750217,0.04499016,-0.004023336,-0.01251876,-0.07130116,-0.061607007,-0.04298637,0.06178022,0.07297573,0.07425159,0.0067421533,0.015635895,0.09439447,-0.08466468,-0.048450865,-0.008355081,-0.06491153,0.06811478,0.0062844045
sauge,0.029016785,-0.014345564,0.020282794,0.028390683,-0.021160174,0.017250208,0.018410323,0.06997749,-0.020944452,0.027265023,0.06068828,-0.035252742,-0.03676109,0.0069943555,0.07915162,0.02844534,0.040435705,-0.011076713,-0.040829957,-0.0014875159
anis,0.028656922,0.050299056,-0.04115193,0.02854554,0.054203734,-0.034059025,0.040059317,-0.055735767,-0.06468184,-0.02023729,-0.031753577,-0.05520711,-0.031919077,0.009489618,-0.03533486,-0.032077648,0.073605224,0.053104915,-0.0141203515,0.0076445006
chocolat,-0.031754218,-0.008643545,0.06729342,0.011203766,0.061524153,0.083262034,-0.020702101,-0.08548778,0.013934635,-0.02282605,-0.033847988,0.010657396,0.022649001,0.0135921575,-0.04662912,-0.060517572,-0.0115448795,0.013814334,0.02320318,0.0051621795
pommedeterre,-0.0042162426,-0.030727912,0.0021922588,0.057434656,-0.029903349,-0.031198524,0.025265161,0.062442712,0.04083537,-0.08479141,-0.07690723,-0.016235113,0.053424776,-0.07592173,-0.012352001,0.038609963,0.032613125,-0.028387666,0.07332635,0.045175742
jacinthe,0.0024785772,-0.0016981363,0.028436325,0.007477198,0.038530193,-0.03128287,-0.010353565,0.016534928,0.008389261,-0.034278058,0.06816244,-0.02702943,-0.07289244,-0.024279596,0.014547352,0.044648312,0.07505491,-0.069991544,-0.03283278,0.04984843
résineux,-0.027527165,0.028359126,-0.037440635,-0.07767367,0.029998537,0.03902134,-0.03125228,0.046034336,0.009941079,-0.006148394,0.025322292,0.06508881,0.009823369,-0.009208428,0.051137958,-0.0035871267,0.010843817,0.04819851,-0.027967965,-0.08616529
chimique,-0.03988643,-0.03026038,-0.021959923,0.045437574,0.014460646,0.015863694,-0.08960638,0.038063776,-0.014925279,0.049436048,0.029594693,-0.036122933,-0.08263103,0.085021414,-0.07012966,-0.01918305,-0.008977365,0.04017526,-0.01467799,-0.09588832
fraise,-0.011848405,-0.053610515,-0.086631395,0.023092713,0.04782875,0.03399495,0.00058929995,0.0350337,-0.02330793,0.015040744,-0.011629142,-0.024456896,-0.019485943,0.07353398,0.0049628355,-0.06452221,-0.029852476,0.005158268,-0.07153833,-0.0026832782
poulet,0.017680231,0.029748,-0.002139043,0.04931487,-0.027019277,-0.013510682,-0.014849853,0.0046900883,-0.044884395,0.012082126,-0.027811587,0.023914587,-0.025348067,0.08640222,-0.03283206,0.019616438,-0.03519789,-0.0073542967,0.012242779,0.016542803
cuit,0.010797124,0.009678435,0.05062666,-0.022414338,0.042920005,0.03371955,0.01460937,0.014655899,-0.0064938646,0.027460719,0.034481242,0.04388557,-0.045672383,0.0022701174,0.07050505,-0.015561178,-0.018348195,-0.071746685,-0.021457555,-0.075641505
lys,0.0881466,-0.0053671356,-0.0226954,-0.06032337,0.052150913,-0.03524789,0.079294,0.018588103,-0.04037471,0.044869937,-0.03321912,-0.017317161,-0.011684503,-0.0033265557,0.0072230957,-0.059060205,0.0018760655,-0.013023172,0.07243077,0.06299573
zesté,0.0035867095,-0.017246176,0.024129804,0.0058058873,-0.010273814,0.008509517,-0.014458954,-0.08315751,0.04609393,0.005379429,0.019604493,0.07008564,0.014802683,-0.02426137,0.033509552,-0.007416142,0.0850866,0.042021327,0.0153293945,-0.028344095
sapin,0.039341997,-0.033775583,-0.09251824,-0.04998161,0.044262663,-0.0344135,-0.0842423,0.03815322,0.020511556,0.01356183,-0.014325429,0.0075943135,-0.043510377,0.04901185,-0.025623547,0.04023347,-0.023389554,-0.014412094,-0.028482378,-0.054027736
anisé,0.06378094,-0.010135386,-0.0024340749,-0.05003333,0.0026696473,-0.010651041,-0.09166226,-0.029321456,0.08496983,-0.050994694,-0.06817922,-0.03395175,-0.064536154,-0.045944095,0.037323523,-0.03297391,0.0036637913,0.0062298775,0.052890614,-0.038823858
coriandre,-0.037463464,-0.03412553,0.0034266822,0.06423701,-0.048211157,0.06973095,0.0065932404,-0.030951515,0.017299376,-0.001433719,-0.012776934,-0.018723357,-0.0057100765,0.01900855,0.011210229,-0.04298214,0.0067698024,-0.04085027,0.04422771,0.011865605
bergamote,-0.031912327,0.035379257,0.05071052,0.052211583,0.0062942617,0.09103996,0.025245247,0.028922569,0.0035377368,-0.07185018,-0.05224085,0.024666354,0.011646844,-0.048319034,-0.012267824,0.08084674,-0.0030219108,-0.004880596,0.052195325,0.016837042
bouillon,-0.029557932,0.02299131,-0.050360847,-0.010336956,-0.072458446,0.046257112,0.0020285975,-0.024059448,-0.052025545,-0.002178792,0.009627357,0.059502266,0.023270236,0.06515237,-0.004648328,-0.032960642,0.06570818,-0.04544965,0.049455408,-0.02000058
racine,-0.00045210123,-0.041030824,0.06775166,-0.013825808,0.018662192,-0.055550005,-0.0049623586,-0.0040911324,-0.056974195,-0.046889365,-0.039469887,-0.023372814,0.025388733,-0.0002173502,0.013386406,0.006494619,0.074150965,0.011345983,0.024560377,0.027492635
santal,-0.012030564,0.03914788,-0.017046211,-0.0020121932,0.03922973,-0.0072410814,0.029072247,0.0037587509,0.007180989,0.029181242,-0.061675094,-0.06538532,-0.014683487,-0.07081458,0.03620725,0.0789326,-0.029654063,0.05488313,-0.011427868,0.010737777
noisette,0.057222057,-0.06900902,0.0026626103,0.061743498,-0.063229956,0.067173734,0.078012265,-0.07425289,0.004444517,0.039830744,0.03871029,0.02126931,0.0013577193,0.074135825,-0.00018732622,-0.017651506,-0.06719921,0.011894081,-0.05328299,-0.0071013086
chou,-0.019874562,-0.05183786,0.03509566,-0.003444817,-0.037146233,0.059393615,-0.01246302,-0.07256468,0.06919997,0.020790916,-0.05323094,0.04093111,0.0070744045,0.07186226,0.033414997,0.003522072,0.054728273,0.0008798167,-0.005967103,0.028930437
mangue,-0.05333574,0.071949854,-0.080108926,0.05551234,-0.084915295,0.008606851,0.08483062,-0.068731524,0.016556941,-0.023951538,0.014108827,1.2377277e-05,0.06349375,0.04629686,-0.04022052,-0.03415583,0.039521173,-0.06939955,-0.0063541047,0.00087061897
fèvetonka,-0.0012590401,0.025338404,0.03197408,0.009625401,0.026358237,-0.055703152,-0.036633156,0.0030276328,0.0040185675,-0.0067596566,-0.031387195,0.00046626106,-0.031026956,-0.046249557,-0.05765029,-0.043285165,-0.014956735,-0.039586093,0.038651224,0.00083789974
menthol,0.021477044,0.0012358539,0.07542581,-0.016017947,-0.011384796,-0.039919745,-2.1398067e-05,-0.02774316,0.0480714,0.056808203,0.013748523,-0.011330865,0.0047407895,0.017019294,0.013019908,-0.04745393,-0.06485275,-0.07224747,-0.0114490595,-0.04077796
plastique,-0.0033718944,0.03825599,0.032688748,0.031463407,-0.090742394,0.059391387,-0.06079229,-0.049212527,-0.0135962125,-0.014777746,-0.015895894,-0.0026011206,-0.019294847,0.021049915,-0.017723251,0.028066989,0.03814396,0.00794225,-0.006970573,-0.0010359995
tomate,-0.021499954,0.047232248,-0.02758745,-0.056550704,0.030359294,-0.030739713,0.068407044,-0.011535455,0.017778527,0.026398063,0.021746293,0.058208123,-0.020148579,0.08441107,-0.0019515902,0.01700313,-0.022310007,0.04356749,-0.08311482,0.017614007
ozone,0.014984906,-0.031063173,-0.041260887,-0.026475582,-0.05085088,-0.023025975,0.0032084715,0.044035185,-0.04009762,-0.0677431,0.014655177,-0.053065132,0.033395316,0.007790923,0.027420808,-0.0073042996,0.011055566,0.057576273,0.0179765,-0.04380814
grillé,0.043278646,0.051439837,-0.08087036,-0.014190316,-0.04467,-0.03854847,-0.0009614378,-0.0024899933,0.006209288,-0.0005409084,-0.065996364,-0.044181086,0.04429984,-0.00094041973,-0.04347639,0.034043193,-0.08525358,0.030617084,0.057693772,0.0049376525
cumin,0.011781275,0.013464075,-0.0105383415,0.084559165,-0.01356877,-0.07056244,0.08172827,-0.008486673,0.014647704,-0.026618779,-0.011598492,0.010932241,0.012871776,0.012071822,0.034088265,-0.0029945262,0.046546414,0.06723124,0.026430938,0.003912937
siropdérable,0.040775348,0.025150182,-0.013594117,-0.07524101,0.058126606,0.03226342,0.007492341,0.047130477,0.02264252,0.05843509,0.049601056,0.041469254,0.04084195,-0.037969366,0.0004964117,-0.036564622,-0.02361796,-0.07876335,0.039537475,0.016591514
poisson,0.038731955,-0.005067885,0.0012130514,-0.0028546844,-0.0150873065,0.0060295667,0.04062182,0.029836372,-0.05469439,-0.06660056,-0.047016013,0.035121348,-0.019965194,0.015223902,0.016646001,0.010958843,-0.016207993,0.04669588,0.04078087,-0.047333587
gardénia,0.05004632,0.05125121,-0.05141643,-0.06696792,-0.067552924,-0.037455976,0.008959925,-0.0102455355,0.038337544,-0.023754265,0.047756586,0.090626255,0.01486446,-0.08462934,0.08115477,-0.034262408,0.011606947,0.026141744,-0.07399058,0.010279182
solvant,0.000768248,-0.03883828,0.044936363,0.037202705,0.03582177,0.006428007,-0.02683327,0.057358697,-0.04286152,0.006174054,0.045933306,0.03466535,-0.071821764,-0.02654184,0.025682043,-0.0095923655,-0.031248081,0.058526516,0.07125294,-0.041054524
narcisse,0.076793864,-0.018665865,0.017755333,0.05389829,0.013303626,-0.05017202,0.039527167,-0.013184726,-0.033869997,-0.019414438,0.074823976,-0.027468909,0.0101796,-0.07063991,0.031069268,-0.0382488,-0.02200749,-0.0008591898,0.07186919,-0.04124396
galbanum,-0.026577318,-0.05543313,-0.06629647,-0.013012625,-0.08185579,0.06404149,-0.033350695,-0.03219149,-0.041672934,-0.04600053,-0.06721588,-0.011246495,0.017078198,0.009618584,0.03657275,-0.020882048,-0.029529167,-0.08308269,-0.038788415,0.027639069
eucalyptus,-0.002297625,-0.05917968,0.006076861,-0.008857451,-0.03981173,-0.062908076,-0.035544228,0.010007154,-0.062085237,-0.021889972,-0.047909904,0.0029004589,0.0014035627,0.019562613,-0.051092423,0.072843544,0.039775014,0.057133272,-0.03675004,-0.007508792
mousse,-0.054317906,0.0340323,0.061554864,-0.030831216,-0.00446322,0.02945372,-0.024599886,-0.024805175,0.034260675,-0.030083848,-0.040433038,-0.032105945,0.0808201,0.05317916,-0.018674228,-0.010867547,-0.00488542,0.046110272,-0.029130887,-0.004477501
alcool,0.009197343,0.06280829,-0.016907524,-0.06093488,0.0017450042,-0.022780374,-0.010322452,-0.010604501,0.08857286,-0.022534465,-0.01386733,0.012287181,0.009223726,-0.07660149,0.04469682,0.040706553,0.08343948,0.04076809,-0.039455965,-0.0342026
patchouli,-0.054475974,0.0036029182,0.0417253,-0.038179062,-0.05973133,0.0546915,-0.030838443,-0.04730853,0.026774574,-0.022885265,-0.0014296882,-0.027633762,-0.04418414,0.007972028,0.084136605,0.030765414,0.0040403344,0.022880225,5.19678e-06,-0.024164345
aubépine,0.025330912,0.005925689,-0.0016530417,3.8780272e-05,-0.0034678802,0.009145394,-0.046618678,0.009410299,-0.0051864237,0.07540277,0.046200052,0.0419134,0.06642165,0.03820877,-0.034585986,-0.03710983,0.005575575,0.008120265,-0.04522935,-0.056786537
myrtille,-0.043199122,0.005030453,0.064113885,0.013609789,-0.06513073,-0.0075532086,-0.0045669917,-0.00791892,-0.043298557,-0.046026967,0.048581008,-0.049682725,-0.014291216,0.045419216,0.08096653,-0.07507776,-0.06146399,0.038588393,-0.010687806,-0.05391717
fenouil,-0.003985336,-0.043272115,0.0056144744,0.031078842,-0.029503442,0.025037302,-0.0610417,0.031852376,0.048216984,-0.012231704,-0.04099504,0.07479608,0.006098887,0.056728326,0.054702844,-0.054225516,-0.012578905,-0.002718985,0.06572847,0.028622512
marin,-0.066067,-0.016858757,0.066084825,0.035362244,0.014852811,-0.04641732,0.07431238,-0.038298596,-0.06088947,0.046615638,-0.023511529,-0.015996326,0.043085724,0.004021002,-0.035280775,-0.037699237,0.089671485,0.044796254,0.0346791,-0.044315923
sueur,0.029826988,-0.0032765847,0.08337951,0.010785487,0.02771398,0.008063424,-0.056176733,-0.0044366308,-0.015919589,-0.040359378,-0.04667294,0.08439061,-0.0011938214,-0.053135477,0.048938453,0.016862035,0.03369109,-0.06251399,-0.019507442,-0.035400197
mentheverte,0.031413935,0.006227115,-0.095926404,0.033663727,-0.0059252866,-0.08105184,-0.017555857,0.030084502,0.0049288645,0.083330974,-0.035178818,0.029289674,0.03530739,-0.07471196,0.023021135,-0.0036798436,-0.011397075,-0.041384365,0.04847239,0.011000335
levure,0.0326344,-0.07612832,0.008785654,-0.020805918,-0.051200237,0.044943724,0.064996,-0.022616815,0.033819165,0.01861484,0.04251919,0.014183596,0.034553215,-0.08306322,-0.010298051,0.0062975287,-0.0070345253,-0.0057036504,0.007836994,0.039698295
naphtaline,-0.002792213,-0.014824495,-0.052869238,-0.048714746,-0.085100055,0.016153492,-0.0830338,0.03077101,0.049294412,0.011334609,0.02472401,0.065658584,0.08307611,-0.009436261,0.017893462,-0.049284052,0.05948343,-0.03232328,-0.034625795,0.08138736
camomille,-0.013443889,-0.019900784,0.0038569085,0.018348455,-0.00453455,0.030178927,0.014576793,0.022885188,0.07563387,-0.066640615,0.006993614,0.062024392,0.02106446,0.013587378,0.0016105454,-0.06980667,0.021068953,-0.017831981,0.0195104,-0.022559192
bourgeondecassis,-0.004261315,0.0224874,0.0035937913,-0.0057351664,0.006270729,0.043734677,0.043732774,-0.082900085,0.060351953,0.058736905,0.038686816,0.028671935,-0.03717152,0.022164658,0.016959682,-0.08871299,-0.026410367,0.011278,-0.06549732,-0.038221788
raifort,0.027889717,0.010034047,0.00918391,-0.05037363,-0.08222814,-0.011278737,-0.028224574,0.040890526,0.04187471,-0.038077913,-0.0693313,-0.0031222664,0.013667537,-0.0810059,-0.013464168,0.0138299,-0.01574377,0.06297924,-0.04081472,0.026157593
pommeverte,0.040363546,0.014352549,-0.0045511965,-0.04302919,0.02244823,-0.011928748,-0.08112965,-0.069823995,0.06646902,-0.035060607,0.061933815,-0.07533236,-0.0011840239,0.007904086,-0.025006127,0.041975558,0.06683405,0.07529133,0.009828303,-0.07191487
caoutchouc,-0.046280373,0.009232607,0.011778902,0.028318059,0.06044116,-0.045315325,0.0057242177,0.032904137,-0.017708458,-0.017042186,0.06748851,-0.011812607,0.025901508,0.061232246,0.022014938,0.022912323,-0.03715402,0.06587765,-0.014087224,-0.024061121
radis,0.014601221,-0.027752804,-0.011126567,-0.06046207,0.008890903,-0.07465649,0.039818518,0.04914571,0.03677596,-0.042036094,-0.072963886,0.006839577,-0.012052873,0.028666284,-0.023637917,0.038248207,-0.033954334,0.006549321,0.024925593,-0.035335757
suif,0.016961148,-0.07242646,-0.048336044,0.041574597,0.0015024655,0.073628046,-0.06515143,0.05226086,-0.017006159,0.051323403,0.032907836,-0.0251457,0.02725972,0.036846504,-0.037071396,0.021311272,0.04974892,0.017269086,-0.058774687,0.048455313
viandecuite,-0.046164405,-0.016351651,-0.027595684,-0.092532754,0.0039556064,0.021691248,-0.03140825,0.08316237,0.004943218,-0.037038684,-0.068015635,-0.006830927,0.052003928,-0.001132179,0.008969478,-0.015106697,-0.024209805,-0.08225085,-0.036686197,-0.0775777
capucine,-0.0340835,-0.017964412,-0.04146876,0.0050332695,-0.024864722,-0.05041151,0.015888166,0.022417668,-0.0315822,0.0029664077,-0.0388219,0.09142325,-0.005185865,0.07702339,-0.029031172,0.038185444,-0.05041015,0.03573793,0.096469045,-0.06546851
œillet,-0.05734848,0.039214805,0.084699,0.04810699,0.017697208,-0.063423365,-0.04009054,-0.03421817,-0.041947853,0.03708855,-0.037498128,0.07640872,0.07789807,-0.007369075,0.0140308775,-0.055321373,-0.0012922306,-0.07653779,0.04768441,0.06994289
fruitexotique,0.0076319594,0.011328664,0.04961411,0.049251318,0.031053007,-0.0707729,-0.0797112,0.027099404,0.026509762,-0.026376255,-0.0046679266,-0.029201448,0.033423483,-0.07504691,0.031964768,-0.0012373663,-0.08422072,-0.047073223,0.048599113,0.008313058
œuf,0.01664573,-0.010130392,-0.07171235,-0.090255834,0.07372627,-0.05977181,-0.0030878782,-0.021883737,0.059443012,0.0712436,-0.011973895,-0.010927081,-0.009567782,-0.0091158375,-0.026647996,-0.0024034865,0.04724377,0.039905168,-0.019846678,0.012058258
fruitsec,-0.06629286,-0.06484693,0.008514199,0.017958716,-0.039082553,-0.036349308,-0.06332415,-0.0031602606,-0.050172187,-0.022974182,-0.032549392,-0.033159304,0.08643415,-0.022184147,0.036150407,-0.052386414,-0.039158907,0.053391222,0.07665869,-0.019804632
basilic,-0.03295567,0.018242477,0.0004315637,0.03877823,0.005823264,-0.011387419,-0.030423451,0.06955155,0.0036778357,0.013831519,0.016764298,0.05340656,-0.019368937,0.03663062,0.056361236,-0.022353612,-0.039123405,-0.056054056,0.03447124,-0.001045974
poussière,0.0055571645,-0.032365408,-0.057729162,-0.052930117,-0.010201456,-0.046221267,-0.06616537,-0.033962097,0.0095643215,0.03237358,0.0029443484,0.008955967,-0.07243182,0.015154436,-0.030727684,0.039317135,-0.005195152,0.0026913881,0.0088655315,0.036863398
citronelle,0.08204581,-0.06188344,-0.04378178,0.017366935,-0.037682295,-0.042681634,-0.006137982,-0.029205287,-0.031934753,0.013236288,-0.03442899,-0.014425278,-0.047921766,-0.0053067766,-0.007437311,0.0670268,-0.0028002486,-0.010566093,-0.027899873,-0.026257385
écorcedorange,0.05438947,0.031447127,0.03139292,-0.051581908,-0.012737799,0.014557362,-0.08038913,0.052058928,-0.017960906,0.024084989,-0.0036260039,-0.04299005,-0.034668412,-0.012627091,-0.03433007,-0.020653889,0.014246572,0.052717403,0.051636256,-0.0063845627
encens,0.0040934198,0.0402459,0.034683596,0.012058375,0.0013975352,0.0058941357,0.022479832,0.039955817,-0.041285563,0.0058253445,0.012951367,-0.0010692701,0.03198161,0.03751044,-0.03242996,0.077205025,-0.01480316,-0.018987443,-0.033862337,0.013035968
bonbon,0.030194893,0.008982275,0.007291116,-0.008453142,0.08915869,0.027378157,0.008133177,0.045144,-0.034681033,0.00863779,0.08199914,-0.020071339,0.008340541,-0.021599732,-0.025951708,0.032700744,0.022543278,-0.03653928,0.0019533038,0.05987227
popcorn,-0.012278676,0.013168659,-0.000716161,0.031510737,-3.6790967e-05,0.01746532,0.037066627,-0.047825526,0.033841066,-0.09483908,-0.060003806,0.054399714,-0.02158029,-0.022699416,0.0060463585,0.059553444,0.011613868,-0.0038095228,0.026604105,-0.0675381
cacahuète,0.062303632,0.03567562,0.082509615,0.0049238466,0.027598098,-0.08661584,0.016342405,0.0047191493,-0.011762535,-0.046797514,0.052151453,0.073973015,0.016551916,0.013441194,-0.059910074,0.057511397,0.015525833,-0.051757265,-0.07063555,0.046884887
romarin,0.05100289,0.04570576,-0.035334196,-0.0012219772,-0.014915751,-0.04282154,-0.073693894,-0.0051503778,0.013690829,0.04334992,0.060049962,-0.018094791,0.08771684,-0.023268174,-0.05802864,0.06061058,0.055708647,0.03153806,0.002975881,0.05198469
moutarde,0.03170483,0.04290254,0.0027580597,-0.048710845,0.07406399,-0.08779496,-0.04696038,0.02340559,0.060084037,0.038444247,-0.065712705,-0.033155285,0.036447275,0.04275807,0.09914158,0.03863951,0.010344408,-0.02121818,-0.0073358417,0.026459455
orchidée,-0.06026586,0.050820876,0.083704785,-0.019741204,0.020426694,-0.0692747,0.010699905,0.027583707,0.0063157883,-0.031736493,-0.083452925,0.031206384,-0.025347065,-0.022325099,0.018504485,-0.031053804,-0.004568137,0.010478143,0.026860584,-0.053929806
fruitdelapassion,0.039493214,-0.04407494,0.045409344,-0.08868487,0.054832295,0.029872343,0.005418647,0.05194804,0.079862215,-0.0016294345,0.024618581,0.042210985,-0.06081666,0.027523769,-0.039046705,0.08740557,0.044310544,-0.032868113,0.0327147,0.06999442
magnolia,-0.01654185,0.029590748,-0.043395042,-0.09059726,-0.07246262,0.0045541767,0.07523751,0.08100961,0.0018020868,-0.04124544,-0.025700234,0.008878592,0.006636381,-0.07812098,-0.022333574,-0.045528315,0.06006044,-0.05139526,0.08807248,-0.062487163
mimosa,-0.017137207,0.008739572,-0.018614674,-0.021345545,-0.0042526983,0.028355133,0.0484153,0.07531143,-0.022029601,0.014001012,0.0019184239,-0.048420776,-0.046273552,0.002812907,-0.021420665,-0.055431858,-0.05339533,0.08954896,0.08307572,0.063450314
graisseanimale,-0.012966931,-0.060674608,0.08329598,0.04965348,0.007431403,-0.03779005,-0.0038300008,0.0120314825,-0.053857803,0.0039181206,0.018196307,0.09365237,0.03263235,-0.085229516,-0.036721386,0.02043889,-0.0042205825,-0.04027028,0.055319928,0.012880206
lilas,-0.041643035,-0.036468495,0.012588669,0.025813522,-0.012382245,-0.042055395,0.0009357836,0.012310622,-0.05767424,-0.05193466,0.034274984,0.041370414,-0.07035069,-0.030232873,0.05257293,-0.021340474,-0.010987878,-0.025604699,-0.031022586,-0.031577397
graisse,0.007934988,-0.0049446095,0.06456766,-0.059234694,-0.0076148063,-0.00092653185,-0.0018125996,0.06670388,0.009361304,-0.0033257622,0.030385483,0.04666091,0.037463307,0.045618985,0.051393963,0.046642385,0.050986305,-0.045634832,0.0032762978,-0.044667438
malté,-0.043736923,-0.07316999,-0.007803224,-0.026322246,-0.05378884,-0.06746522,-0.064951815,-0.037113465,0.043978892,-0.072201096,-0.0065618157,0.0025001392,-0.08057509,0.009238984,0.002856478,-0.02516625,0.045418564,-0.039282583,0.03526164,-0.08002733
bois,-0.018627085,0.056778446,0.06390522,-0.008218074,-0.007094417,-0.027420271,0.0019027106,-0.044838764,-0.0072481018,-0.04926058,-0.013079122,0.018674236,0.009711463,-0.028467622,-0.01734111,0.018479671,-0.015381075,0.07806806,0.010277741,0.02350315
noisettetorréfiée,-0.04081662,-0.017425552,0.0800365,-0.051770188,0.064721264,0.016439568,0.01792046,-0.043656502,-0.0025202036,0.056161374,0.031533517,0.014455356,0.0052850023,0.018503908,-0.021342026,0.056654997,0.013561714,-0.034545362,0.025949832,0.054465994
menthepoivrée,-0.04693122,-0.01778841,0.025923468,0.0060845353,0.016514458,-0.0017527249,0.015951313,-0.033344723,0.02004882,0.04092091,0.03128897,-0.018040478,0.051736474,-0.04069463,-0.02014662,-0.05293088,-0.012816526,-0.034270797,0.010248471,-0.04322784
poivron,0.005012717,0.023899425,0.014211129,0.05761136,0.026696838,-0.053437006,0.059322454,0.00698252,0.0060402974,0.0121001825,-0.051771294,0.059998892,-0.013512369,-0.052883066,0.03918354,-0.057076335,0.055716544,-0.0006987471,0.028132584,0.015232265
amandeamère,0.030539334,0.039898194,0.06078385,0.03988935,-0.05192373,-0.033476446,-0.025991272,-0.04537338,-0.0075987224,0.012728324,-0.028438114,-0.024902022,0.030093383,-0.013330463,0.048601903,-0.004794456,0.0020799637,0.023960114,-0.03477963,0.015985653
ambrette,0.021111775,-0.08120176,0.03775532,0.0014964119,0.05066649,0.032023784,0.007312309,0.013881886,-0.0042011384,0.018093418,-0.011575878,-0.06324874,0.009979416,-0.019976903,-0.037721932,-0.0326007,-0.036050834,0.06678415,0.002019655,0.00019720569
maïs,0.008911014,0.026646953,0.027439822,-0.017635383,0.00831599,0.07904835,0.04100805,0.025671467,-0.0032182,-0.033019267,-0.018404547,0.074990705,0.061881237,0.020341907,0.050271034,-0.006780509,-0.020615306,-0.06500307,-0.012391139,-0.010896705
whisky,-0.0028433464,0.023183582,0.04284825,-0.008170545,0.032903686,-0.0010319836,-0.040195893,-0.013858378,0.009776805,-0.03293822,-0.06617544,0.052588686,0.011267772,-0.03849831,0.029531907,0.025024567,-0.0076212976,-0.02164681,0.051596623,-0.031849645
friture,0.00894377,-0.044081677,-0.002340138,0.026568096,0.0011886023,0.00043629482,-0.025588226,0.019043796,0.08704,-0.019026255,0.0078587625,-0.04807186,0.041374885,0.018794572,0.06105958,-0.00012820959,0.020766009,-0.036634825,-0.026243651,-0.026369419
gingembre,-0.061160136,-0.0773191,-0.06738916,0.0034686588,0.053500272,-0.0169736,-0.020745516,0.050551046,-0.073427975,-0.054977167,-0.026049737,-0.010343317,0.00030091777,0.028160773,-0.016550543,0.043519974,0.02620136,0.012203336,0.05650457,-0.07068223
rance,-0.07720863,0.041232184,-0.06560659,-0.04612725,-0.035623502,0.04022578,0.025253128,0.031755593,-0.035208274,0.010022018,0.047939394,0.044039086,-0.010077819,0.02170223,-0.011846054,-0.07794036,0.044550613,-0.052567698,0.011311699,-0.036782872
brandy,0.047444645,-0.025536299,0.02018831,-0.004872393,0.0073249806,0.045901433,0.06370795,0.020914052,0.029108752,-0.0010389686,-0.040486585,-0.025328178,-0.008937217,-0.037867334,0.014106039,0.025037875,0.039052453,-0.06778666,-0.03535258,-0.08202851
oignoncuit,0.014065575,-0.030752491,-0.029270671,-0.0069082864,0.014092032,0.008868752,0.012472775,0.05739039,0.0006299149,0.017914966,0.08753653,-0.094915956,0.009209197,-0.013795519,0.00142169,-0.022486247,0.012373162,-0.054293323,0.000529971,0.010767471
cassis,-0.051979054,0.03691376,0.010556243,-0.034586813,-0.020830322,0.018315796,-0.06562908,-0.01975068,0.06877556,0.013680495,0.057632018,0.021225683,-0.03945686,0.028523866,-0.020784844,-0.04446074,0.008177042,-0.019001171,0.034899257,-0.011373175
thym,-0.088056184,-0.036996733,-0.035574548,-0.010795318,-0.0011511073,-0.031300068,-0.054813195,0.015378058,-0.025807131,0.006770646,0.033312213,0.0082487725,-0.008551061,0.024888504,0.04908372,0.081494376,0.0102339275,0.0535961,-0.04588709,0.00567491
fleurdetroëne,-0.021832336,0.027114782,-0.0046068914,-0.006599605,-0.009153321,0.041070677,0.06880153,0.009035755,0.079552695,-0.0694497,-0.027685547,0.036677044,0.039490376,-0.021942899,-0.023467436,-0.06336715,0.028290544,0.08085911,0.02351544,0.0010492317
noixdemuscade,0.0037527308,0.042292967,-0.0076493025,-0.007789351,0.013267396,-0.0073367245,0.08494947,-0.0074790567,0.027847204,-0.063816704,0.06648078,0.018918559,-0.010186516,-0.052975193,-0.037562415,0.016015923,-0.0040992126,-0.064457655,0.04150232,0.08763266
carvi,-0.055334974,0.03593632,0.04389187,-0.018514622,-0.017784812,-0.040243197,0.0007468797,0.027433064,-0.08950833,-0.01369971,0.006319616,0.031647608,-0.03262465,-0.014666162,0.013789119,-0.036274638,0.0036543757,-0.005777832,0.036012575,0.011278532
buchu,0.028324898,-0.06570476,-0.026165782,-0.015058301,-0.07131473,-0.066825286,0.02958037,0.0031072255,-0.03181765,-0.017600395,-0.028030206,-0.013214575,0.036294334,-0.0020560138,-0.01413263,-0.09206201,-0.04151888,-0.03834343,0.061571687,-0.015925992
rhubarbe,-0.011187222,0.07849115,0.011956077,-0.019626021,-0.008652829,-0.010222768,0.0060844757,0.0040186085,-0.050947405,-0.04451195,-0.08093241,0.046081536,0.07211259,0.04456339,0.012155652,-0.024661388,-0.015372388,-0.06432825,-0.08484373,0.006002106
tubéreuse,0.045579482,0.049646936,-0.07676907,-0.017428577,0.022919308,0.023728155,0.041985087,0.013300732,-0.041285384,-0.0012543947,0.012991548,0.068723984,-0.0714909,0.054296672,-0.00497514,0.025998209,0.08354547,0.07760741,0.0178012,0.078928284
gaz,0.046214268,0.007978246,0.02303395,0.015322948,0.020443534,0.052606657,0.04434079,0.03307166,-0.057099782,0.0034716483,-0.010884903,-0.0867066,-0.07115541,-0.05783415,-0.0246454,-0.03649956,0.035801817,-0.015758596,0.0006924793,0.03052101
noix,-0.05566241,0.027653601,0.014509762,0.03728629,-0.0038845632,0.04075086,0.08549408,0.05949849,-0.02856679,-0.005417289,0.0030172877,0.034043804,-0.043461308,-0.041802756,0.009778347,0.005372593,0.011931337,0.01525579,-0.043935455,0.03412102
humus,0.014623795,0.042743184,0.053373516,-0.049663857,-0.018263351,-0.02972379,0.059278682,-0.016555965,-0.022151843,0.022091076,-0.053646386,0.00075956807,0.0137861,0.0139468685,-0.07877938,0.068627596,-0.012549996,0.03941634,-0.06450814,0.07900722
mûre,-0.03685631,-0.03270104,-0.021856822,-0.02900455,0.06226155,-0.0068044886,0.0217361,-0.07599047,-0.009458505,0.016632002,-0.06361588,-0.020470165,-0.012630561,0.0039351583,0.08764211,0.009600583,0.047480095,0.022953823,0.024294104,0.022200905
héliotrope,0.075886495,-0.07012889,0.026604867,-0.042043436,-0.023669124,0.00043733418,-0.010443568,-0.04061631,-0.053455405,-0.019157339,0.014378287,-0.03600733,0.051540688,0.026770953,0.03411206,0.07166435,-0.014585175,0.0018098392,0.017290238,-0.021151531
styrax,0.023025056,0.0003730636,-0.0244998,0.019728713,-0.05528203,-0.059522383,-0.0029691942,-0.07368765,-0.061212193,-0.048565473,0.07641752,0.0009897687,-0.037974432,0.026100956,0.05344329,0.00039770827,0.004056718,-0.062718,-0.045322847,-0.022246707
pastèque,-0.04631802,-0.06009339,0.04755723,-0.07106146,0.059140943,0.06880394,-0.06702944,-0.010639872,0.04907044,-0.014890399,0.051420763,-0.051919878,-0.037932348,0.01528387,-0.015495839,0.039156664,-0.0025818497,-0.011253467,-0.032279946,0.044878043
bacon,0.09667166,0.028088298,0.027315745,-0.060153272,-0.029121697,0.03848642,0.0604975,-0.015171945,-0.049812615,-0.021079086,0.033310395,-0.0051568747,0.012008272,0.06384047,-0.009226106,0.03861346,-0.010762382,-0.014148805,-0.009957492,-0.0006938726
algue,-0.0314618,-0.030940816,0.04502407,-0.0033824705,0.026310027,-0.031167772,-0.0075915195,0.07065204,0.054869927,0.008389059,-0.0386958,0.013696685,-0.039923355,0.08366313,-0.008910112,-0.06689076,-0.013908144,0.027378906,0.04047083,-0.034025215
safran,0.029502131,0.07973034,-0.00040301308,-0.04165864,-0.07333857,0.0025592074,-0.0013788063,0.008178236,-0.07129741,0.021079838,0.030242682,0.032557677,0.03627409,0.0060939323,0.011182461,-0.0247772,-0.04066832,-0.05927868,-0.04078543,0.0065881833
sucrebrûlé,-0.0100517385,0.011275366,0.050991625,-6.9582835e-05,-0.011649754,-0.01021111,-0.03734853,0.066762954,-0.037048005,0.0008961316,-0.01352861,-0.0058061965,-0.021376979,0.0042641386,0.05617456,0.039575838,-0.027965702,-0.014502764,0.036916077,-0.047010206
bière,-0.02126614,-0.0055143386,0.0029486902,-0.03211596,-0.05274248,0.06978047,0.017544208,-0.009679213,0.009527922,-0.051621534,-0.011741603,-0.011370573,-0.0029256903,-0.08383496,0.0152228605,0.0331094,0.0037403218,-0.028785635,0.09024463,-0.07708737
fécal,0.059459224,-0.022567822,0.07627813,-0.025970876,-0.027565338,0.05057976,-0.042751983,0.08558495,-0.014518917,0.026327495,0.013233408,0.05114889,0.021375768,-0.06891492,-0.01252307,0.0811227,0.025826134,0.0839808,-0.03837198,-0.04734361
asperge,-0.056866992,0.008705189,0.055962335,0.043455232,0.05887056,-0.041758087,-0.018071437,0.027551405,-0.021735165,0.014020387,-0.072580114,0.009916095,-0.06467774,0.009789303,-0.03288903,-0.002129782,-0.02061982,0.03556087,-0.038007546,0.062757924
chrysanthème,-0.03262297,-0.009448696,0.020304142,0.04677624,-0.019525941,0.07249919,0.072222106,0.01243389,-0.0144249685,0.09108479,0.034523133,-0.019316185,0.014101505,-0.0030967593,0.0636197,-0.06176088,0.0453197,-0.01049364,-0.026311599,-0.022263288
graissedepoulet,0.012554586,-0.05655291,-0.011294998,0.006696027,-0.03747624,-0.007598996,-0.069145285,0.010186423,0.014258027,0.019097045,0.032341015,0.0061164536,0.020639408,-0.009800311,0.048348423,0.03226484,-0.0101115815,0.021676993,0.004760612,-0.01635585
caramelaubeurre,0.0368289,-0.069840424,-0.038877644,-0.036862805,0.0784622,0.033784006,-0.012684643,0.048237987,0.03158623,0.011122679,0.0037245378,-0.037023343,0.0073903836,-0.03612533,0.07023062,0.03806776,-0.010915425,-0.053874075,0.012525693,0.053944804
genévrier,0.015612565,-0.010966096,-0.023912728,-0.03925144,-0.024420213,0.025216352,0.005116388,0.01796954,0.029829137,0.009245943,-0.0067994855,-0.005343925,0.04375588,-0.016710058,-0.030766655,-0.009489872,0.032615837,-0.007524682,0.017066788,-0.017479468
saindoux,-0.054877065,-0.013216879,-0.022629272,-0.07445649,0.008954909,0.0048112534,-0.0498099,0.03793237,0.03554521,0.026803758,-0.014265072,-0.0045496486,0.0063048713,0.008283151,0.025806513,0.03446383,-0.007850051,0.014861343,-0.015890792,0.010549817
myrrhe,-0.0641796,-0.0035926774,-0.039749958,-0.009053946,-0.0481069,0.05116593,-0.060885932,-0.022325456,0.061217643,-0.020381667,0.052260283,-0.020550476,0.07607622,0.060410902,0.033160184,0.021110605,-0.02347498,-0.006943822,-0.045966327,-0.018572044
kiwi,0.07166795,-0.027331304,-0.07523151,0.029712632,0.031875633,0.07914283,0.056469634,0.009902667,-0.02699697,0.006010687,-0.011210367,-0.029834153,-0.0008945428,-0.03643562,0.048040967,-0.069428205,-0.05705954,0.07805903,0.051497962,-0.061506018
goyave,-0.04453763,0.024838496,0.0535589,0.050041907,0.033846166,-0.025302298,0.02136866,0.009986222,-0.031376015,-0.043264136,0.015867902,0.029289644,0.008743461,-0.018244956,-0.069473825,-0.028886665,-0.0031841248,0.009678677,-0.017601468,-0.054928437
estragon,0.036390174,0.021142265,-0.03451278,0.043717757,-0.057172883,0.04738579,0.06483194,0.059925534,-0.0031424873,-0.032101166,0.027892407,0.028940037,0.008078311,-0.009359017,0.078092374,0.074994236,-2.656877e-05,0.06183163,0.007320728,-0.0712678
carotte,0.01716137,0.04229319,0.009521451,-0.05015935,0.029564649,0.03233938,-0.057096064,-0.048177026,-0.034203127,0.05379425,0.058258705,0.0027871989,-0.026256308,0.020527136,-0.048528217,-0.045573987,-0.06424203,-0.07844736,-0.045833014,0.07543267
bananeverte,0.046525195,-0.04169722,0.05033914,-0.0020172969,0.013069883,-0.034516003,-0.019302644,-0.0658216,0.04875634,0.0061369687,-0.013502717,-0.010544565,-0.056948364,0.06915654,-0.05426642,0.047165077,-0.06316414,-0.012816917,-0.021622278,0.009322587
céréale,-0.032555666,-0.008461388,0.0252373,0.021594323,0.051160555,0.03075857,0.017545607,0.052005284,0.01901358,0.06998286,-0.003135167,0.033752,-0.0021815412,-0.07422963,-0.05116272,0.0051011797,0.06023208,-0.04404833,0.01028385,0.06284503
pivoine,0.010374535,-0.08488929,0.07745189,0.036677875,0.047458235,0.009166852,0.028943714,-0.02815912,0.0029016957,0.004740134,-0.06640251,0.03271272,0.07910794,-0.07948133,-0.007615028,-0.043398798,0.0239053,-0.013475139,0.016917977,0.01071744
bœufcuit,0.05601827,-0.04633347,-0.07952683,0.026854254,0.042463407,-0.027940478,-0.056041956,0.0090062395,0.024536658,-0.015257705,-0.052328397,-0.057735335,0.008994151,0.0034158453,-0.028652735,0.030579519,-0.0024024844,0.032853242,-0.031526282,0.026598763
grain,-0.008022405,0.022752117,0.001239026,-0.0077249557,0.012559615,-0.07798576,0.032601405,-0.033738863,-0.018009415,-0.022228122,-0.062316254,0.0048557036,0.02483124,0.062709995,0.0008456707,0.06202983,-0.06442443,0.04961878,0.03949733,-0.063212246
livèche,-0.06271313,-0.0388366,0.044969797,0.0067379475,0.010521188,-0.0066969395,-0.003189955,0.0008183606,-0.017829709,-0.0036515854,-0.060216617,0.015820935,0.080214076,0.07255625,-0.06394515,-0.08145547,-0.070615545,-0.076083995,0.032768883,-0.03493899
poivrenoir,0.07132631,-0.057742205,0.016246282,0.008843616,0.047465697,-0.017612316,0.015989844,-0.03348799,-0.013261925,-0.0588634,-0.049922705,-0.07295902,0.042906884,0.027296528,0.017216302,-0.039254498,0.02386279,0.0103909485,0.01513277,-0.034731116
chèvrefeuille,0.009151589,0.03244933,0.031374328,0.061460204,-0.058977485,-0.05708243,0.026276495,0.02512959,-0.024460781,-0.071839765,-0.052561678,0.07710495,0.013313152,-0.032571472,0.04630454,-0.014195908,0.0057385117,0.09277477,0.015010752,-0.042586863
cardamome,0.06429479,-0.022586346,-0.04014529,-0.052348375,0.04297887,-0.029724717,-0.03716719,-0.07538145,0.0003022179,0.035002552,-0.030896507,-0.017223727,-0.030285146,-0.054822266,-0.038230635,0.0323453,-0.014286246,-0.011669993,0.02575228,0.08675795
pommedeterrecuite,0.004627213,-0.07972515,-0.019606624,0.048353784,-0.035297386,0.042964034,0.08965566,0.042258553,-0.020317232,-0.046726763,-0.06779906,-0.0077609755,0.008564593,-0.08955721,-0.061930895,-0.014855407,0.015455065,0.051954947,-0.055268124,0.042352065
fenugrec,0.061779924,0.05210098,0.0076986216,0.0527719,-0.08079271,-0.026795294,0.019824443,-0.0044172034,-0.03452679,0.0005736947,0.017149676,-0.060502447,0.017395806,-0.041562047,-0.047021665,-0.044823322,-0.032477405,-0.007074142,-0.019532342,-0.053920854
eaudecologne,0.021801624,-0.058424722,-0.018216476,0.0050420538,0.05971757,-0.027683344,-0.041472733,0.082530044,-0.0089717135,-0.05124849,0.02596915,0.07647774,0.05043105,0.014106359,0.05447962,0.027593885,-0.030225527,-0.022911977,0.008256994,-0.04634714
artichaut,0.01889361,0.04137174,0.0076827854,0.0063290037,0.028452266,0.024672922,-0.0572039,0.070260555,0.03346508,-0.042643894,-0.004423164,-0.049260046,0.0082385875,0.02575386,0.03412517,-0.0053528994,0.061377518,0.033735946,-0.05296587,-0.011066448
fleurdacacia,-0.05186888,-0.035278346,0.007865958,-0.00015540048,-0.03347002,-0.00932971,-0.07409274,-0.004064128,0.02647091,-0.009523187,0.018429387,0.03267615,0.004100537,0.01990249,-0.0064501166,-0.022984527,0.024632312,-0.02665452,-0.06655844,-0.06734347
sciure,0.013003461,-0.0029652137,0.06982745,0.01762667,-0.03786589,-0.010230705,-0.026166342,0.015788963,-0.0078116283,0.027298879,-0.029557787,-0.018807758,-0.0018684585,0.034110866,-0.069443725,-0.029675936,0.0044792295,-0.007376287,-0.0031905025,-0.029973997
papaye,-0.05613269,-0.05740559,-0.011092566,0.044313516,-0.022297144,-0.07661426,-0.089879096,-0.025433637,0.030950416,0.010450089,0.021827709,0.05484172,-0.043199793,-0.065476,-0.022697914,-0.0111349225,0.087084286,-0.04240285,0.0039351713,0.013094213
wasabi,0.0048931837,0.01756021,0.0048310887,-0.01567498,0.012661468,0.0273919,0.050009824,0.01992166,-0.054810107,-0.045540538,-0.020842694,0.055649668,-0.05230335,0.008297335,0.01563292,0.042063393,0.05285878,0.033980474,0.029816784,0.0036048442
fruitdemer,-0.044919826,0.011300072,-0.007515203,-0.0015830975,-0.011202693,-0.022423409,-0.009320315,0.062478185,-0.082457565,-0.04624969,-0.01090014,0.087137416,-0.020753097,-0.02364807,0.011316422,-0.060329024,-0.027413381,-0.018138943,-0.0055968054,-0.020504314
trèfle,0.05340437,-0.028007831,-0.08096894,0.019310176,-0.034878362,-0.026951097,-0.030862536,-0.056798153,0.04826473,0.019327093,-0.03583764,0.009707162,0.03439842,-0.05207219,0.039763134,-0.013915218,0.035295058,0.006367471,-0.017316079,-0.026392173
feuilledetomate,0.012684517,0.022176076,-0.032686017,-0.021438908,-0.0019346103,-0.09507111,-0.0026854947,-0.033376537,0.012540866,0.026016045,-0.041171517,-0.014031589,-0.030138172,0.03220122,-0.07601616,-0.050461244,-0.00058950484,0.05136816,-0.03228601,0.044868838
aneth,-0.07084338,-0.022221532,0.0656642,-0.003120182,0.049915425,0.014395796,-0.010695484,0.032017898,0.023542464,-0.009877916,0.05090325,-0.013226233,-0.0036361925,0.034040157,-0.00046350807,0.015563503,0.015899632,0.062093668,-0.054958187,-0.0011474136
porccuit,-0.030540824,-0.032466173,0.0007346161,-0.049058568,-0.0043245796,0.03464811,0.0052538402,-3.3009797e-05,-0.01725366,0.0015759692,-0.02720014,0.012859454,-0.003404595,0.02035493,-0.01597197,-0.012248088,0.03342176,-0.0033791773,-0.032165255,-0.03118441
acrylate,0.011143327,0.015620068,0.048724856,-0.014984215,0.06679211,-0.0020417795,-0.026643075,-0.06591757,0.05892338,-0.040714633,0.005972946,-0.01244328,0.06930558,-0.0009766705,0.020546226,-0.037352454,0.06737836,-0.04627775,0.01835809,-0.018199787
castoréum,-0.0031083561,-0.050044455,-0.034401275,0.023495782,0.036162063,0.05891426,0.008200895,0.043021873,0.02417107,-0.00708301,-0.03948625,0.00806861,0.016397003,-0.051063094,0.025223067,-0.009126354,-0.0300988,0.0211046,0.01875506,-0.056911256
civette,-0.013012348,-0.04132259,0.0124877095,0.044216797,-0.010446452,-0.010211185,-0.031546738,0.042359896,-0.011394428,-0.021449782,0.0072813146,0.06895339,0.035739444,-0.0022426583,0.0018485561,-0.022047304,0.03021786,0.010310102,-0.020444036,-0.004263118
mélasse,-0.042809606,-0.03338559,-0.03702645,-0.0075283423,0.015533088,-0.06551157,0.04247508,-0.010767225,-0.00998597,0.02041988,0.06972942,0.02584247,-0.019125052,-0.074383825,-0.04343476,-0.015644478,-0.031253517,0.056041084,-0.0011413693,-0.072929785
absinthe,0.05644478,0.06831955,-0.011740388,-0.04385308,-0.076788105,0.037307505,-0.05748131,-0.003458701,-0.06336277,0.021625929,0.0022761263,-0.041232873,0.03918598,-0.014288975,-0.0032483898,-0.015834894,-0.06770685,0.0004060194,0.03142662,0.06707248
haricotvert,0.0089190975,-0.043369256,-0.051711917,0.051116124,0.03592848,0.046976715,0.015287222,-0.014129531,0.053361572,0.031507682,-0.06595695,-0.051289156,0.018486671,-0.00019471347,-0.014611363,-0.07125048,0.024100814,0.068532474,-0.03863913,-0.040745344
barbeàpapa,0.031016055,0.037908778,0.065449275,-0.021616448,0.01971347,0.044451166,-0.06224862,-0.032022975,-0.032910228,0.04950727,-0.0074609406,-0.006798614,-0.022723222,-0.0211133,-0.007111039,-0.035154603,0.024594422,0.012456242,-0.02100904,0.017742828
chèvre,-0.05235584,-0.027597979,-0.045743883,-0.021207117,-0.0055270772,0.008925118,-0.011328522,-0.047756422,-0.024482466,0.022522356,-0.02698661,0.054193474,0.016923213,-0.02453289,0.06366529,0.0071198847,-0.0058263987,-0.029690087,0.01484449,0.0696495
bouillondelégumes,0.042201553,0.068425566,0.009069491,-0.05302682,-0.0036750585,0.028857008,0.03446138,0.031681027,-0.028114572,-0.030809773,0.042316746,0.017240718,-0.034706652,0.024503335,0.029737763,0.05154804,-0.000779042,-0.022883005,0.00062641874,-0.083064094
ciste,-0.07486019,0.035348486,0.024979763,-0.013778487,-0.03874134,-0.008942449,0.03686426,-0.0063174143,-0.035704326,0.040655043,-0.006373968,-0.037281,-0.08353002,-0.03645787,-0.013772294,-0.0077686645,-0.04494097,0.047042854,-0.023873735,-0.02794448
tagete,-0.029475033,0.027246881,-0.009708842,0.012698159,0.07309145,-0.009651866,-0.03509079,0.015449222,-0.024527265,-0.041194644,0.029691972,0.03031212,0.0042230375,-0.018658958,-0.06241748,0.020290434,-0.013343394,-0.03786074,-0.034047473,-0.05396598
cerfeuil,-0.038484514,0.019550458,0.0015115999,-0.0004122276,-0.054909036,0.010443602,0.004993476,-0.032809544,0.048698686,0.0766682,0.07949048,-0.030056084,0.015920673,0.014483716,-0.035775673,0.02566509,-0.029622257,0.051374033,0.0020860322,0.07484036
essence,0.0061475374,-0.027170122,0.010618748,-0.031204466,-0.0039938428,-0.058107033,0.009416798,0.029609717,0.06252554,0.006146863,0.0012261085,0.08557441,0.034093168,-0.061361518,-0.023204768,0.0013267025,0.038124543,-0.030088123,-0.017277706,0.027441017
poireau,-0.06278929,0.083205655,-0.08984238,0.07209507,0.057809584,0.029360577,-0.00834363,-0.007954003,0.00041733682,0.028274946,0.084688865,0.006146703,-0.015717078,-0.005396176,-0.02146318,-0.04805626,0.08742165,0.069670394,0.0309188,-0.06826279
cyclamen,0.06132271,0.013092615,0.0014094971,-0.039981235,-0.00052217394,-0.056593336,-0.00015337206,0.074593894,-0.012819076,-0.039539613,0.053248905,0.032992043,0.054181352,0.008270297,-0.012949422,0.020991873,0.06372901,-0.01356256,0.058436126,-0.011709705
persil,-0.027321689,0.013986124,0.0041028596,-0.004069278,0.0012290925,0.011033617,-0.035922945,0.034530867,0.08952736,-0.05831674,-0.07774985,0.019881915,-0.0010902174,0.021065984,0.01495875,0.032885782,0.06421082,-0.032359645,-0.028588332,0.038850892
acétique,-0.069210686,0.038850527,0.088891886,0.025138978,0.052646995,0.08530185,0.022086967,0.04538886,0.06528348,0.021066392,-0.03009925,-0.015483391,-0.021117225,0.07409117,-0.03729001,-0.033967927,4.01251e-05,0.04727401,0.01173478,0.07022661
saladeverte,-0.015044834,-0.019375656,0.07014056,-0.036503997,-0.09035728,-0.04209526,0.0066094864,-0.02168429,-0.07562886,-0.040696725,-0.022409521,-0.045691848,-0.03909056,0.017714944,-0.055267714,0.002725171,0.04483868,-0.0006548278,0.029884975,0.075093925
peinture,0.044351906,-0.0013850052,0.04160454,0.049006786,-0.008709969,0.034265004,0.03173523,0.043390296,-0.017334197,-0.014602721,-0.024714256,-0.010294247,0.030906204,-0.005971158,-0.018881537,0.05402541,0.08151787,0.003569208,0.0034874454,-0.03609954
carvone,0.02090526,-0.03507341,-0.012136044,-0.031966865,0.0704054,-0.0012816191,-0.07315391,0.044660665,0.031835355,0.099150755,0.030233502,0.037091088,0.059185658,-0.06315074,0.019366708,-0.003350947,0.0010254607,-0.06546839,-0.083126575,-0.059614226
truffe,-0.060999945,-0.007280102,-0.029188182,0.05599009,-0.033415653,-0.0033483058,-0.06300322,-0.021512292,0.035236645,0.022862602,-0.0458516,0.010345105,-0.008207843,0.04062761,0.09805331,0.0021199547,0.026162397,0.01346763,0.04761982,0.0056903996
freesia,0.0012661479,0.002633322,-0.054492913,-0.01624081,0.00028848276,-0.0077299997,-0.009918153,0.06710438,-0.058339357,0.04049224,-0.071773626,0.060370922,0.0075037703,-0.057319403,-0.010065127,0.012485031,-0.09109626,-0.019032873,-0.004264176,-0.09874332
graintorréfié,0.072592944,-0.031553246,0.04518205,0.078810155,0.0052145235,0.008348834,0.039252613,0.01627767,-0.07523018,0.0689702,-0.046629548,0.04785774,-0.019501291,0.011590436,0.025601368,-0.07232996,0.057070524,0.041852444,0.0015346892,-0.019050453
costarde,0.032018106,0.0479056,-0.051928107,0.059047654,-0.06086377,-0.029219186,-0.042960335,0.08386967,0.033874657,-0.07050994,0.052119248,-0.02617036,0.05675763,0.050988186,-0.02621962,0.0033437293,0.047510933,0.06389903,0.0014230013,-0.055016745
figue,-0.014173936,-0.0015968475,0.0065800063,0.02140558,0.044557728,0.03325571,-0.037843347,0.030669842,0.0065596215,0.06885761,-0.08093901,0.036240105,-0.03364782,0.021231499,-0.0785288,0.034394335,0.010094367,0.021642935,0.05470624,0.08505627
boisbrûlé,-0.0045466796,-0.0016225819,-0.024480417,-0.02581853,-0.05478071,-0.05774088,-0.035452235,0.020556763,-0.0423808,-0.02533435,0.04913782,-0.08092314,-0.03441304,0.042824488,-0.0801983,0.051588856,0.039405823,0.00872232,0.07839759,0.049751103
jambon,-0.046657883,-0.077333674,-0.07484821,-0.057649363,0.029856678,0.002764497,0.0061093494,-0.08288075,0.028781071,-0.025095329,0.0046311393,0.08856616,-0.030657437,-0.008652899,0.06865503,0.017336465,0.0059511643,0.03795589,0.081374206,-0.0028487593
térébenthine,-0.00355725,-0.0011287332,0.050649405,0.039695185,-0.042836286,-0.027316285,-0.081255555,0.029382836,-0.016077861,0.0172881,-0.001149226,0.04554116,0.039688416,-0.07496373,0.025946286,-0.0559813,0.03050623,0.027896982,-0.027349377,0.0025422946
noixdecajou,0.0046458635,-0.022955287,0.035442393,-0.028644335,-0.011115778,-0.085760996,0.078624114,0.010295134,0.024192523,-0.050562,-0.037200615,0.027969632,-0.039471604,0.023096893,0.013800871,-0.055566564,0.012995135,-0.0026135668,0.07522967,0.048693888
menthe,-0.022372045,-0.04736345,-0.026685547,-0.017977953,-0.019949758,0.01219492,-0.007921591,-0.0067893155,-0.07034788,-0.07723592,-0.06000172,0.047269583,-0.048262194,0.012313966,-0.031121098,-0.034446478,-0.06871341,0.04481013,0.039837033,-0.021241412
agneau,0.03141352,0.060337547,0.02589126,0.05497223,-0.084323004,-0.0060450546,0.017490221,-0.02228824,-0.03732964,0.016501691,0.022481931,0.0023569092,0.01638206,0.061574563,0.039082736,0.051060542,-0.04814162,-0.0113193635,-0.057097007,0.017884985
croûtedepain,0.028366745,0.06718561,0.029586684,-0.053515993,-0.051480617,-0.044522405,-0.003206145,-0.03636104,-0.052482545,-0.0063163266,-0.029358342,0.030160103,-0.069138035,0.044641282,0.049321346,0.039535116,0.0037585963,0.024456028,-0.032638907,-0.0035840422
galanga,-0.058422256,0.012307871,-5.0328672e-05,-0.058357082,0.030460708,-0.054323327,0.010507712,0.010216128,-0.04679648,-0.038749896,0.06212765,-0.025211833,0.032892216,0.041055262,-0.011827536,0.037259422,0.053514816,-0.025676288,-0.050548278,0.047185667
canneberge,-0.015258633,0.076483585,-0.04862516,0.019200956,-0.016542995,-0.011685373,-0.0019409806,0.019009374,0.07958009,0.027279172,0.021585785,-0.05173081,0.011510339,0.03956417,-0.038127936,-0.022122357,-0.07153135,-0.06134264,0.067843094,0.058567785
réséda,-0.02169564,0.0021185614,-0.049412277,-0.057054877,-0.011099383,0.0031092986,-0.043802083,0.029752623,0.034944788,0.064111285,-0.041465953,-0.020837594,-0.04062301,0.046912584,0.029993143,0.0019520894,-0.010108553,0.050491385,0.036345728,0.018738974
sang,-0.0034773424,0.060621955,0.013207484,-0.008671794,0.017568162,-0.027430583,-0.012638235,0.017839525,0.0040397085,0.084584765,-0.019929983,0.009862259,-8.750707e-05,0.029602207,0.07680378,-0.042290937,-0.015654292,0.02984668,-0.05758778,0.05701313
immortelle,0.03141668,-0.0067438856,0.05100497,0.052311886,-0.06976626,0.0044862293,-0.0106758475,-0.0013140216,-0.056330778,-0.0023015626,-0.07123332,0.016107917,0.0048332326,0.015796065,-0.04554119,0.029452067,0.020335976,-0.03247304,-0.054246224,-0.022525357
forêt,-0.027269363,0.0076286234,0.028709464,0.0027364716,0.008121546,-0.020485293,-0.01108769,-0.038129605,-0.08555414,0.011488356,0.013835337,0.035260644,0.038292374,0.021348432,0.0092295855,0.02851111,-0.07842374,-0.05819787,0.058082677,0.023528198
cyprès,0.044248246,-0.019708987,0.03787067,0.0060709603,0.04190878,-0.025577044,0.03329625,0.030762076,-0.03855805,-0.07581444,0.081012204,-0.047781013,-0.035036184,-0.022572674,-0.054166306,-0.045080125,-0.07480924,0.041615795,0.01098818,0.031680707
boronia,0.023024693,-0.07225684,0.022792328,0.01901982,0.025171768,0.013554288,-0.03742491,-0.06594145,-0.0008896701,0.012990488,0.05991351,-0.011342548,-0.026370943,-0.00040042028,-0.0016172417,-0.031909786,0.007290695,0.022695612,-0.049225844,-0.062360108
marjolaine,-0.016974378,0.051489823,-0.036509477,0.05688501,0.012121666,-0.055544283,-0.036653757,0.05579079,-0.0074339043,0.03501754,0.014795061,0.032290153,-0.03365897,0.0068303794,-0.04518366,-0.052606095,-0.03255966,0.00034570694,0.003286019,0.02871523
cidre,0.059810102,-0.047530018,-4.3105334e-05,-0.02012793,-0.053017437,-0.07537155,-0.02750387,-0.01905198,0.022303287,-0.026192144,-0.04093068,-0.003897475,0.03036423,0.012031462,-0.070078045,-0.0072240457,-0.06268388,0.08050338,0.040935002,0.045011654
acétone,0.011853946,-0.020452749,0.0390245,-0.0033710226,0.0400261,0.030621529,0.010765795,0.04064733,-0.018120052,-0.021437142,0.083495475,-0.0027286187,-0.047401868,-0.03999934,0.018480321,-0.024285484,0.0033159256,0.015762307,0.0066656694,-0.021875631
palourde,-0.011367906,-0.06997035,0.03639032,0.012465537,-0.020045422,-0.004425086,0.069170564,0.026363585,-0.024959277,-0.008671597,0.016628306,-0.0033417195,-0.018291317,-0.05936996,-0.003040038,0.03398238,-0.0006840117,-0.020976104,-0.017307281,-0.0002465099
chocolatnoir,0.020661257,0.01274842,0.020597052,-0.05125568,0.033634223,-0.011901237,0.019138996,0.0056314133,0.011577211,0.034691736,-0.012523338,-0.015557732,-0.022201134,-0.026283763,0.018935546,0.010411704,-0.017624974,-0.027888563,-0.01270695,-0.05309621
cresson,0.016546682,0.016401958,-0.06374752,-0.03099817,0.06513476,0.037346065,0.0011042133,-0.0025812387,-0.042620853,0.013045158,-0.025508475,0.079796255,0.069522515,-0.014228366,-0.03889946,-0.058448303,-0.02807666,-0.03705348,-0.007206762,0.015637625
groseille,0.077917255,0.03328347,0.0025271662,-0.017021988,-0.04593649,-0.05164683,-0.012057938,-0.035625495,-0.039561596,0.00064944103,-0.049530614,0.032558236,-0.072005615,0.021227192,0.011672642,0.034998644,0.0056796186,-0.013667092,-0.011320867,0.006262377
verveine,-0.012471333,-0.04522921,0.012533141,-0.0053157434,0.0152019,-0.036148623,0.019209743,0.044823848,0.029433452,-0.014692746,-0.043373205,-0.029664302,0.042895287,-0.00038615614,-0.02028701,-0.039588045,0.06528811,0.032734726,-0.024018608,0.030921664
fromagebleu,0.072377786,0.02285919,-0.0013119951,-0.004822314,0.022026088,0.029539812,0.01236131,0.06986928,0.025376987,-0.0137883425,0.061090875,-0.0036944859,-0.025569808,0.0013509393,0.01580175,0.08097092,-0.022739269,-0.018730022,-0.03177605,0.0031338297
sèvedepin,-0.04194156,0.06485899,0.017730273,-0.078166686,0.00018321536,-0.0021416098,0.022069,0.027477443,0.03683772,0.0011991523,0.07223121,-0.042284917,-0.0172876,-0.08878434,0.00018918887,-0.0071898457,0.06245617,0.013490757,-0.037221458,5.10104e-05
petitspois,0.04567931,-0.03996297,0.0024630912,-0.028463945,-0.044298664,9.990856e-05,0.024129905,-0.03234563,-0.021635521,0.040918328,0.057848103,0.03749652,0.011429371,-0.0682749,0.006936714,0.0018952899,-0.019932542,0.040395726,0.050562955,-0.052074447
pommecuite,0.0035432838,0.033315565,-0.062979355,-0.005069101,-0.031607486,0.021574484,0.096998915,0.03966454,0.0010324605,0.0069113504,-0.033849668,0.06780747,0.031205464,-0.06616637,-0.07893056,-0.039052058,-0.001461314,-0.04252086,0.010940768,-0.079665095
médical,0.0019814745,-0.053684816,-0.02247915,-0.0330284,-0.082080066,0.022194194,-0.03396318,0.046542227,0.026913263,-0.0073906966,0.0057837516,0.002249254,0.009892926,-0.014983129,-0.004734639,-0.033025898,0.024832694,-0.02103486,0.051258232,-0.015995849
coquillage,0.038345017,0.019462612,-0.0420931,-0.026087642,-0.0038401,-0.014158893,-0.04328363,-0.016851056,-0.009300616,0.0050422046,-0.054770127,0.0365831,-0.049529064,0.03730705,0.009368142,-0.00032198615,0.018237244,-0.045313932,-0.062133268,-0.07240112
fleurdetilleul,-0.04445318,-0.024149071,0.081822395,0.015069542,0.053774044,-0.039466023,0.035992518,-0.016865958,0.01648712,-0.047196437,0.0019759443,-0.028944789,-0.0404088,0.007688869,-0.024034798,0.009600379,-0.0065095983,-0.045575943,0.0092156865,0.05281111
poisdesenteur,0.044190645,0.02881584,-0.08210249,0.06556465,-0.054996096,-0.0033018142,0.07636924,-0.067143366,-0.04283395,-0.01378262,-0.08828074,0.08485802,-0.029317353,0.038222015,0.017273962,0.017959513,0.0026425011,-0.026825607,-0.02527076,-0.016984425
amandetorréfiée,0.035113644,0.0520697,0.052841406,-0.04763671,-0.011402503,0.031945456,0.005537905,-0.018160615,0.0026307441,0.06445855,-0.040593527,-0.012854196,-0.04497409,-0.02413317,0.01079556,0.023037039,0.018832203,-0.031264126,-0.043765128,-0.037748456
moufette,-0.05829817,0.09220186,-0.004278742,-0.009630036,-0.025285482,-0.036353566,-0.03433746,0.070080645,0.0037523862,0.020412527,-0.025501847,-0.05303836,-0.0131543055,-0.033543304,-0.031612087,0.009312,-0.069275856,0.027345274,0.0042518377,0.013100091
cubèbe,0.06238871,-0.013515435,-0.010574732,-0.053060032,0.051950432,-0.014149511,0.0031146612,0.0035636462,0.052532203,0.022158626,0.0063911676,0.029394485,-0.096917555,0.0686531,-0.020091414,0.022414183,-0.004723845,-0.03627243,0.064545766,0.024788475
boisdagar,-0.04454281,0.0131240375,-0.01045345,0.014337122,-0.07696056,0.035330415,-0.017069884,-0.030793618,-0.004505083,-0.08736064,0.045658432,0.09079492,-0.0028666146,-0.046089962,0.015167937,0.019513134,-0.08437316,0.0023856163,0.050249208,-0.019835357
litchi,-0.0009589065,0.011533022,-0.01329739,-0.058070496,-0.019144526,0.022997025,0.069033295,-0.02011391,-0.008640852,-0.043987636,0.041521776,-0.0032086372,-0.03836651,0.042315863,0.017458204,0.06212271,-0.06141834,0.043362394,-0.032006897,-0.023399364
choucroute,0.05782918,-0.019020092,0.0028444529,-0.012215171,0.056150056,0.006507084,0.009558734,0.02531914,-0.02184007,-0.0029081106,0.032767974,0.06832804,-0.030401256,0.021369804,0.0049488433,-0.0054800026,-0.0022500195,0.0022295453,-0.002537135,-0.053336233
mouton,0.014051845,-0.020700704,-0.0035086237,0.03383322,-0.035228543,-0.028294135,0.016371416,-0.02149674,0.07986141,-0.037995793,0.03134451,0.019798767,-0.004702637,-0.0029654894,-0.022192836,0.07832674,-0.043323983,0.046454042,-0.008604847,-0.054052666
acajou,0.019951895,-0.045923367,-0.030434977,-0.04560106,0.036430668,0.0013391227,0.07307941,-0.03304962,-0.007857084,-0.0058180206,0.010212347,0.021211911,0.07348702,-0.020993065,-0.060870335,0.060063384,0.01231922,0.034555588,0.029129233,0.019949816
benjoin,0.024147663,0.055811085,0.079977915,-0.039333224,-0.0109320525,-0.0015655346,0.014540598,-0.08615665,-0.009935882,-0.017669728,-0.03226936,0.043128934,0.024807524,-0.044679962,0.0016093738,0.027717281,-0.095546365,-0.0073670372,-0.03977971,-0.011940204
chamallow,0.008301642,-0.008550812,0.032399464,0.0167748,0.072250955,0.060294785,0.06341558,-0.044589378,0.022241354,-0.07177576,-0.06469468,-0.048281744,-0.05534544,0.007990565,-0.019021155,-0.052734744,-0.005577814,-0.04676206,0.018868994,-0.018540457
genêt,0.008514635,-0.019280447,0.0015371107,0.009542931,-0.04073559,-0.0712109,-0.05164375,0.036931608,0.0834096,-0.018952694,-0.055549003,0.047186986,0.06312825,-0.08563061,-0.06821457,-0.061638728,0.0032429919,0.059331153,0.0070361122,-0.06280543
durian,-0.018167496,0.040276945,0.0019748472,-0.024286686,0.04829122,-0.02747909,0.07424806,-0.020957423,-0.007917091,-0.04120883,-0.046759915,0.023999717,0.06909211,0.0574076,0.022271872,3.145635e-05,0.007614432,-0.0275015,-0.0663225,0.04552192
salsepareille,0.04448091,-0.076123014,0.017570522,-0.028224373,0.090133004,0.0042953026,0.06365191,0.054059736,0.0051953346,-0.037497867,0.053779006,-0.014690828,-0.050547756,0.026588537,0.030249868,-0.028697062,-0.02051289,-0.09439345,0.030580785,-0.024587914
chips,-0.012611136,0.0180807,0.009412635,0.07955326,0.023955869,0.0028386265,-0.0039229505,-0.006405702,0.06265079,0.012390327,-0.012036886,0.0077073947,0.085300416,-0.045372013,0.047528505,0.0006667115,0.030082706,0.012517307,0.06824247,-0.04218491
cive,-0.052200105,-0.066410385,-0.034551084,0.013007548,-0.0330256,0.026467185,0.027522486,-0.03742858,-0.013053406,0.031548597,-0.027253091,-0.036893643,-0.02394507,0.04275792,-0.02295952,-0.04353056,0.00088695437,-0.029675614,-0.049375318,0.03387199
limbourg,-0.045387246,-0.02117331,-0.045651663,-0.003009893,0.050427303,0.008618038,0.029350806,-0.057152044,-0.017609596,-0.032351874,0.06072159,0.013673246,0.03341526,-0.09603719,0.0018001683,-0.040341888,0.048257876,-0.0094143115,0.06423817,-0.06741164
orgetorréfiée,-0.013291551,0.019345785,-0.049268175,-0.07199273,0.026953219,0.07284173,0.009640098,0.0075681917,0.03636248,0.029967144,-0.057573736,0.069601595,-0.08076291,-0.024541186,-0.028674178,0.00032063946,-0.04279375,0.009719133,0.075818285,-0.0073999893
angélique,-0.0465011,0.0049653277,-0.053916477,-0.017260905,-0.0379228,0.0024029985,0.024213364,0.0038422942,0.07160435,0.009205762,0.030744158,0.0110033415,0.034008052,-0.012921989,-0.03819348,-0.094084576,-0.063821234,-0.008916449,0.008186173,-0.09335582
beurredecacahuète,0.038651623,0.017671194,-0.006594632,-0.035282683,0.06807977,-0.030346096,0.05825992,-0.030608784,-0.05920402,-0.03059844,0.000111136585,-0.026144873,0.0020721704,0.012679864,0.04941658,-0.008197913,-0.070383705,-0.000549078,0.0065202005,-0.073002115
fleur,0.035996657,-0.064852946,0.024218451,-0.0946082,-0.022200957,-0.029271342,-0.017406005,-0.017475866,0.069722034,0.02232277,-0.041232314,0.07580749,0.030593276,-0.07841715,0.011400979,0.02212793,0.014800562,-0.05647093,0.047998365,-0.017460767
menthepouliot,0.048248187,-0.021774974,-0.059586786,-0.03621669,-0.02114699,-0.0028326474,-0.07502868,0.04355804,-0.068240024,-0.0015109405,0.07051285,0.0070171133,-0.007372152,0.0130098015,-0.043480754,-0.051280893,0.0068257228,0.032910857,0.015859816,-0.04449301
curry,-0.005425073,-0.050677944,-0.058353305,-0.051016293,0.035760738,0.034474,0.019001734,-0.013710283,-0.029680956,0.0026696362,0.008761466,0.06583659,0.044739023,-0.004671395,0.04222623,0.008306405,0.07275082,0.019015372,-0.06611983,0.068074286
lavandin,-0.0037352834,-0.08557771,-0.0359177,0.0012331605,0.05841203,0.003428463,0.023054812,0.012422074,-0.00067962334,0.01809971,-0.00013841316,-0.08066836,-0.019579742,-0.050240196,0.048016325,-0.018522378,0.036965225,-0.06513487,0.018705629,-0.07085196
ciboulette,-0.061310194,0.015538946,0.04157267,-0.041822493,-0.048671067,-0.025287878,-0.011475753,-0.026911985,-0.07086924,-0.046428204,-0.07210373,0.0002469793,-0.01279917,0.02237399,-0.08765501,-0.006646052,-0.036132194,0.057635017,0.006724678,-0.027081933
papier,0.03394585,-0.022217548,0.014234506,0.0050682537,0.030561868,-0.009529186,0.019805964,-0.0056299083,-0.010440767,-0.019662023,0.011374019,-0.022008419,0.028450025,-0.057800725,-0.021493472,-0.07393394,0.043023493,0.050060358,-0.06356144,0.062209263
massepain,0.047414377,0.05287432,-0.0055180583,-0.0031000935,0.07589465,-0.057167746,-0.012441874,0.01340897,0.058409795,0.02220342,-0.0062929876,-0.025100116,0.00390872,0.05067213,-0.0032900237,-0.06615618,0.043775033,-0.0908465,0.009099223,0.017523672
dindecuite,-0.022126138,0.056898892,0.014053147,0.0704807,0.010480728,0.008587634,-0.04252292,0.004510453,-0.09590584,-0.028271236,0.011275837,0.032113135,0.07753099,0.08597801,-0.0059044845,0.006436931,-0.026628315,-0.019852553,-0.04367028,-0.033478584
citrouille,-0.065082036,0.036475312,-0.06206145,0.052318823,-0.019374236,-0.004790619,0.030299209,-0.0014372449,0.086869776,-0.05144675,0.011055805,0.028851584,0.048072744,0.01360463,0.008643232,0.057107724,-0.08493515,0.056408435,0.0057107806,-0.0042807683
poulailler,0.032789923,-0.036727596,-0.026739834,0.07936594,0.013951264,-0.082995415,0.05218389,-0.023834277,-0.022007152,0.013282562,0.056828596,0.03539356,-0.008284852,0.013733314,-0.021426652,-0.06128143,-0.0022614375,-0.008160921,0.013080047,-0.0054473653
beurrerance,0.04550489,0.03398862,-0.008230865,-0.020837747,0.055098023,0.026857499,-0.0024291165,-0.0011608489,-0.05620315,0.05458459,0.021851502,0.07811033,0.00979873,-0.000987485,-0.016874012,0.0032199994,-0.03764347,-0.023518045,0.060979463,0.034831036
orangeamère,-0.012666788,0.054111525,-0.03001254,-0.01214651,0.066906996,-0.013785314,-0.0012024734,-0.03632759,0.032435283,-0.04348135,-0.018220343,-0.0074628945,0.017729416,0.039741084,0.0035885312,-0.0014828183,-0.03710762,0.06719933,0.007873699,0.048382163
paindeseigle,-0.057191826,0.030543867,0.036465157,-0.019879986,-0.04617553,-0.017226432,0.010583483,-0.0010349154,-0.0053121336,-0.00963098,0.020645928,-0.0093040075,0.009344656,-0.019429838,0.02870911,0.06363081,0.048791252,0.01315194,0.020394683,0.04834588
yuzu,-0.021086479,0.0012469068,-0.03683629,-0.049596667,0.060507454,0.057114005,-0.0049850214,0.02600117,0.01849462,-0.04471439,0.063549384,-0.01778022,-0.039708853,-0.021786261,-0.018000616,0.0054106154,-0.034506213,-0.022138119,-0.02758585,-0.009365834
pouletrôti,-0.008809792,-0.016155146,-0.068214215,-0.08734906,0.0163996,-0.029264,0.022786628,-0.008195784,0.007137753,-0.075185016,-0.06425051,0.015643872,0.06890328,0.0017555114,-0.039014068,0.060849812,0.007490333,-0.0061305743,0.04556161,0.014059793
cookie,-0.0262205,0.024723236,-0.0446151,-0.019483313,-0.029513799,0.032095127,0.020305764,0.069169715,-0.027651321,-0.00490091,-0.04558909,0.0088850595,0.07528173,-0.010581005,0.060906425,-0.026568994,0.00024746545,-0.034233343,-0.06598524,0.03222603
fromagedechèvre,0.041235067,0.02000685,-0.07768926,0.022813227,-0.034638014,0.020839367,0.014260244,-0.010103734,-0.05671461,-0.025487661,0.037691876,-0.023818385,-0.006191682,0.070246115,-0.06122706,-0.026430652,0.045735538,0.020478645,0.021173857,-0.047474995
asefétide,-0.03612257,0.022133436,0.04551673,0.015718374,0.049274914,0.05929687,0.0070072077,-0.042937923,-0.07837528,0.095083475,0.046512596,-0.00022822991,0.001989223,0.020093488,0.07359874,0.04719733,0.08146432,0.006255612,-0.06589936,-0.027738295
houblon,-0.010864142,-0.03736594,0.07358192,0.061518602,-0.029438261,0.068342686,0.047615558,-0.028204191,0.012016429,0.010342479,0.024880588,0.02705171,-0.06111058,0.06939699,0.008337222,-0.0047018155,0.011398755,0.055951882,0.0691034,-0.07046467
luzerne,-0.043030392,0.0462642,0.013671424,0.0072493777,-0.029199008,0.029262517,0.015569925,-0.0454034,-0.019736253,-0.021587001,0.04806663,-0.027690697,-0.031347837,0.062759995,0.09614501,0.0037136097,0.013119232,0.06690031,0.030110434,-0.089749634
châtaigne,-0.06446942,0.019875742,-0.03204199,-0.08024044,0.039610136,0.029544946,0.067866,0.031544805,0.005217351,0.033675265,0.012182172,0.019743286,-0.030286133,0.025187925,0.050439432,0.051802482,0.020707168,0.04308609,-0.004795015,-0.065111734
origan,0.049935903,-0.09928118,0.03013315,0.03042375,-0.021667074,-0.039976273,0.05376607,0.011326227,-0.05416234,-0.03274803,-0.009974385,-0.00463916,0.03160366,0.015194319,0.038592137,-0.058143653,0.038789924,-0.07109575,-0.051847376,-0.052068803
palmarosa,-0.0075812787,0.043420993,0.0033118129,-0.04768567,0.004412353,-0.04942558,0.010296844,-0.037423003,0.060143635,-0.061822712,0.05002518,0.021570731,-0.01511348,0.021653749,-0.03318105,-0.019241642,-0.0002182275,-0.07704699,-0.03776535,0.060680896
hibiscus,-0.0347877,0.030572854,0.048573814,-0.031049192,-0.008027993,0.072153725,0.062460266,-0.03490206,-0.06377939,-0.020893302,-0.04927639,-0.012656461,0.025022564,0.0070377924,0.033258054,0.055334903,0.010040639,0.03093921,-0.034373652,-0.019364595
noixdemacadamia,-0.044990577,0.0043377876,-0.009908378,0.023479197,-0.0019025691,-0.039147463,-0.033875786,0.019732619,-0.012521863,-0.042385783,-0.08508581,-0.020152021,0.0845923,0.04572865,0.0017250553,0.0042619705,-0.005466923,0.04280992,-0.046201065,0.059825685
coing,-0.008924987,0.03447941,-0.0859122,-0.046077684,-0.022862397,0.053600274,0.06852988,-0.054450132,0.017199324,0.011302851,0.0064949133,0.07899983,-0.03096378,0.021351133,0.03664576,0.023749534,0.053848587,-0.018440254,0.011094034,-0.005122125
parmesan,-0.009169135,0.052721485,0.019492723,-0.027537098,0.050889842,-0.009137165,-0.0011074021,0.020014249,-0.02097772,0.02909385,-0.020692518,0.074320436,0.046945564,0.026054349,-0.0063552745,0.067687675,0.05715914,-0.0016423129,-0.012395918,0.009916544
babeurre,0.004563261,0.07403024,-0.0036908016,0.0069436803,0.002323864,0.0028204545,0.04599329,0.028301787,0.072937526,0.025905598,0.038702764,0.023858525,0.060745765,0.07664971,0.06986578,0.03144201,0.055199802,-0.0013759732,0.039630577,-0.02372472
praline,-0.0045756586,-0.037632946,-0.0012780316,-0.002850756,-0.06259548,-0.023884047,0.061027743,-0.026121486,-0.0051099304,-0.032173704,0.022428617,-0.010678653,0.00019412115,-0.011205293,0.07454061,-0.01416764,-0.049348798,-0.029239,0.034046147,-0.056287277
produitpétrolier,-0.00689793,-0.04518381,-0.028890036,-0.069106676,0.055208735,-0.0065611973,-0.021897245,0.0025289785,0.032072533,-0.040268507,0.017129041,0.030877259,0.03462912,0.054801546,0.038103744,-0.0909877,0.09563723,0.0082062,0.05664967,-0.06036047
fleurdesureau,0.00363395,-0.0021524318,0.06439368,-0.017187942,-0.046193793,-0.028145269,-0.030658104,-0.054349363,-0.037222754,-0.0062556863,0.075338855,0.0029204823,0.038943376,-0.04817536,0.017106919,-0.02600082,-0.02926245,0.044416223,0.03856096,-0.047236085
saumon,-0.030871548,0.015975293,0.0860333,0.013366401,0.049600728,0.025230195,-0.08288689,-0.030142203,0.025703344,-0.015198674,-0.04982257,0.02278892,-0.0066141505,-0.006308399,0.04244088,0.037312236,-0.0055988748,0.019841053,0.008631837,0.005279759
thon,-0.0713341,0.034904826,-0.04258099,0.036188975,-0.03990202,-0.056852832,-0.03290534,-0.02514821,0.0014144666,-0.026357424,-0.011143185,0.019086149,-0.04122331,-0.029922452,-0.061224006,0.006777417,-0.0873395,-0.022932354,-0.023225617,0.06708773
jaunedœuf,-0.0153755285,0.028375473,-0.049574785,0.0077466145,-0.029332317,-0.012616739,-0.010064758,-0.032909453,-0.066366106,0.029353429,0.020437729,-0.013898212,0.037663814,0.07311844,0.025329638,-0.021271419,-0.017598137,-0.0013485886,0.05457846,0.06462596
carambole,0.025630295,-0.013928447,-0.050873496,0.07014343,-0.009826373,-0.022999346,-0.0008486062,0.020819485,-0.05295346,0.050464563,-0.032192588,-0.0025267731,-0.013491705,0.06906613,0.049370326,-0.008109547,-0.0109946225,-0.070668116,0.008726563,0.009698965
yaourt,0.008672621,0.02383561,0.020254292,0.06850493,0.047643673,0.07020527,-0.07978423,-0.022529533,0.016284447,0.06313058,0.047376763,-0.0022210255,0.015087511,0.010756936,-0.012391828,0.05646216,-0.0122770555,-0.007216513,-0.026143562,0.012903515
câpres,-0.027902927,-0.039593436,0.046887077,-0.012634013,-0.054810885,-0.032883443,0.038718604,-0.058169603,-0.05615958,0.03842085,-0.027085638,0.0034558736,0.007318368,-0.061593547,0.08394865,-0.06801387,0.025608111,-0.06354066,0.002194047,0.07871676
urine,-0.006986413,0.07651546,-0.0005616322,0.07108199,-0.031569544,0.029434621,-0.008820105,-0.055213798,-0.03422878,0.025685035,-0.060320783,-0.015570726,-0.001211999,0.09379883,0.019390572,0.059879437,-0.056949366,-0.053473905,0.028264415,-0.017801179
datte,-0.0023584105,0.027919544,0.062295973,0.050969362,0.07413146,0.006989572,0.041415133,0.027066767,-0.0029436238,0.0506291,-0.0742998,0.0061155893,0.0036814325,-0.0066256616,-0.022134457,0.050112188,0.029140672,-0.014973272,-0.0036944263,0.07791797
chicorée,-0.061635647,-0.08252224,0.0055384394,0.012470972,-0.08933249,0.030343667,-0.036277555,-0.011620544,-0.02427306,-0.028260935,-0.003449142,0.03870895,0.05591333,0.035927236,-0.06671348,-0.06090826,-0.061027586,-0.039824214,0.022765482,0.0390387
souci,-0.009845495,-0.05964303,0.045691166,-0.032318402,-0.037674904,-0.056662858,0.047698725,-0.026204575,-0.0076148286,0.0014202483,0.02728571,0.07341527,-0.0046846867,-0.062240146,0.06586738,-0.01791986,0.007794488,0.068910144,-0.024979258,0.009304713
grenade,-0.012624729,0.037847422,-0.034896135,0.0024406426,-0.010416094,-0.042903293,0.005613379,0.04834249,-0.047017574,0.030091517,0.017378274,-0.011155251,0.085831635,-0.031199709,0.034671344,-0.025739191,-0.015063643,0.0015758127,-0.011736874,-0.017233633
sésame,-0.036092605,0.066641405,0.015155565,0.02262957,-0.08158475,0.009530496,0.046499588,0.0050059967,-0.015322719,-0.07242634,0.008210277,0.005545322,-0.024514664,0.011667393,-0.0041169673,-0.0030014403,-0.048007667,0.059134252,-0.021324098,0.086277075
jonquille,-0.012829924,-0.038555004,0.05220957,0.04941549,0.03249181,-0.007919479,0.0034449436,-2.9917806e-05,0.03697901,0.03967627,0.013209572,-0.017269406,-0.009112965,0.009869598,-0.0025508255,-0.03358089,-0.078522176,-0.023001315,0.022698391,-0.004445359
hysope,-0.054705035,0.019357976,0.005457457,0.044541933,0.067732945,-0.021641996,-0.02087842,0.008600693,0.0469308,-0.002059985,-0.058806468,-0.023949826,-0.0071821716,-0.015060075,0.01390481,-0.0034411922,0.04423214,-0.08334688,-0.08618626,-0.06757233
tanaisie,0.011203788,-0.049484923,0.08460458,-0.05024637,-0.05055547,0.044330433,0.07667675,0.008176945,-0.09624624,-0.0094595775,0.008044254,-0.018507395,0.030048888,-0.009580173,-0.052248,-0.055516936,-0.055969678,0.012589816,-0.0422887,-0.04620372
pâtisserie,0.057839986,0.01026386,-0.0066910256,0.08114392,-0.011274695,-0.05596303,0.0018258467,0.062331475,0.0035790838,0.08529503,0.01805655,0.024638679,-0.02392137,0.02114303,0.010695007,0.004819162,0.021882907,0.043258227,0.00082194805,0.010224033
pistache,-0.002373159,0.0041188486,0.035215903,-0.036667313,0.01578616,0.0043626092,-0.029192831,0.08223746,-0.015525222,-0.014095318,-0.03454733,-0.015838195,-0.032946777,0.021766316,-0.032437336,0.045545794,-0.027627826,-0.068400756,-0.029112184,0.020939257
jacquier,0.08181425,0.05598408,0.0042985566,-0.047255885,-0.031532,-0.055123698,-0.029567098,-0.047721766,-0.001121793,-0.029777942,-0.012230884,-0.014501773,0.02126031,-0.02257644,-0.015502425,0.08148074,0.018833485,0.05267667,0.047983136,0.05571774
insecteécrasé,-0.025974598,0.032368474,0.002165988,0.02085346,0.083984874,-0.0522106,0.007856537,0.045070734,-0.014276387,0.044199716,0.03316534,0.07482559,0.014887741,-0.018135771,-0.03695605,-0.008260343,-0.03053489,-0.029690385,0.02347162,0.02543281
poivrevert,-0.008435532,0.025167335,0.05677948,0.05239141,0.01681501,-0.0009752363,0.048805103,0.049949553,-0.024012543,-0.041250587,-0.036932908,0.09089953,-0.0032701716,0.072656356,0.030819897,0.010995343,-0.060794592,-0.06673944,0.06774328,-0.0035677105
airelle,-0.060459625,-0.018231701,0.018851425,0.0795446,0.01653862,-0.017116617,-0.022960953,-0.023937933,-0.052974604,-0.09237192,0.04574509,0.01630998,-0.073031746,-0.041561976,0.0051697157,-0.04355328,-0.037637163,0.05178401,-0.01977054,-0.011275638
tilleul,-0.026986705,-0.05332805,-0.025019474,-0.05436915,0.018410062,0.0022498108,0.03986421,-0.006257843,-0.047734797,-0.018082593,-0.017507933,0.0035866387,0.033130083,-0.05199361,-0.006472323,-0.0127673,-0.0005438123,0.026232269,0.010263499,0.012147594
lingehumide,0.013743151,-0.0058827996,0.0019138679,-0.0434893,0.0007358566,0.0063787587,0.05207146,0.032655947,0.06139183,-0.013940778,-0.059117306,-0.038770568,0.015168402,0.01961894,-0.0028327368,-0.07013648,-0.031465862,0.051484857,-0.025874484,0.06791376
huître,0.003895022,-0.03128237,-0.044780433,-0.004123803,0.09323708,0.013078216,-0.0019707922,0.04584779,0.004085336,0.008400384,0.031159867,-0.07384042,0.014263473,0.042214874,-0.0372141,-0.0062180944,-0.008237638,0.06605852,-0.0023852587,0.07963153
foie,0.052966155,0.0038223788,0.010333709,0.059252955,0.060950845,0.031899,-0.023813378,0.068998516,0.022939458,0.036549047,0.026587062,0.013078142,-0.076921,0.083776705,0.031395074,-0.03073617,-0.023355769,-0.045885827,-0.088237345,0.036838263
mastic,-0.051910233,-0.034184348,-0.030611696,-0.006022835,0.0062810797,0.0036370493,0.0014582984,0.012863971,-0.00374851,-0.077900335,0.053611707,0.028903984,0.051683404,-0.047679998,0.06380141,0.050859973,0.0442278,-0.00773263,-0.0867959,0.00040324032
putride,-0.027182972,0.0443911,0.006599536,0.034264684,-0.018002272,-0.09372351,-0.08769961,0.022122096,0.001393374,-0.046420563,-0.008175099,0.030264523,0.05110629,-0.030070495,0.033268463,0.018965717,0.031445492,0.06292495,0.020573746,-0.03980986
noixdepécan,0.037777916,0.08285157,0.0011395104,-0.014130451,0.025389861,-0.03213974,-0.0068556927,0.057141975,0.023003649,-0.059538223,-0.0020418297,0.036440305,0.083037294,0.0053132065,-0.031234838,-0.031306125,0.038261842,-0.068531334,0.019998528,-0.038770728
chêne,-0.06361359,-0.03990389,-0.08908234,-0.013217878,0.06294526,-0.08469782,-0.0108585805,0.035112157,0.032090757,0.05122737,0.041587632,-0.03700708,0.07647393,0.015425777,-0.054491114,-0.001650773,0.020819824,0.021059679,-0.024160113,-0.029305696
épinard,-0.023310127,0.053854715,-0.07230554,0.029905692,0.013861928,0.026935454,-0.018885722,0.057729058,-0.049448516,-0.019874644,-0.05044826,0.056449436,0.08027369,0.0033897273,0.07799769,0.07181798,0.034940347,-0.0028383322,-0.023076642,0.033094846
tequila,0.04678663,-0.028741147,-0.035512403,-0.045006193,0.09037233,0.068232626,4.532188e-05,-0.027369786,-0.012226637,-0.045911957,0.05627408,0.015924454,0.026681326,0.00026715174,-0.053255156,0.019059207,-0.06470543,-0.007842239,0.02962419,-0.05872824
bouillondeviande,-0.03977009,0.015568022,0.024197808,0.073342815,0.017702881,-0.0138306115,-0.074142955,0.035209015,-0.03309486,0.039005153,-0.018721592,-0.06808471,0.02263179,-0.0024535581,0.026006438,0.017575549,-0.0547673,0.012749849,0.023541864,0.024298426
vinaigre,-0.035438582,0.033041142,0.038234245,0.014520686,-0.016735554,-0.0036922805,-0.051683772,0.006769825,-0.017281722,-0.04953166,-0.018577084,-0.06013266,0.0038508177,-0.05456111,0.017597046,0.06771523,0.024589982,0.080900945,0.073915765,0.0836276
marrube,0.005107343,0.038868275,0.019730259,0.025417617,0.009371635,-0.041892827,-0.0098858215,-0.014974792,-0.066938,0.049768735,-0.0014661215,-0.042497266,0.05753862,-0.03558795,-0.04759741,-0.029165566,-0.04626267,0.026701674,0.014536869,0.016598191
calamus,-0.021881795,0.019825816,0.030860744,-0.031508755,-0.036519803,0.018356968,0.003671743,0.06303687,-0.007604763,-0.08074187,0.03888781,0.0604018,0.07205202,0.04929815,-0.022454321,0.0054901727,0.069050565,-0.030660713,0.025236141,0.017171383
fougère,-0.010997202,-0.03610338,0.010899544,-0.06889119,-0.07625797,0.032644168,0.09137434,-0.020842625,0.058269218,0.033527244,0.08227812,-0.009150695,0.0031824857,-0.017232977,0.0107487235,-0.012239274,0.05245287,-0.04865228,-0.036779836,0.024225224
