RESERVED,0.045874104,0.019762348,-0.032143746,0.06390189,0.025939837,0.04134164,0.018194664,0.00429341,-0.019087028,0.0006590523,-0.052247994,0.04794617,0.019092537,-0.06851164,-0.076232925,-0.01085303,-0.048672155,0.039431956,-0.021877564,0.030001618
UNK,-0.117023855,-0.087928526,-0.11423886,0.062896885,-0.07200186,-0.018396761,0.057823986,-0.04019071,0.025296196,-0.018676432,0.049421757,-0.087777585,0.124455154,-0.017872382,-0.09682487,0.057290576,0.049728155,0.12879154,-0.16408318,0.10822666
fruité,-0.74631715,-0.0632717,-1.0486319,1.1066649,-0.98121464,1.0010614,0.8641097,-1.0201826,1.0588461,-1.0166185,0.94835234,-1.1491857,0.8840726,-1.1514641,-0.7824667,0.9723723,0.9554437,1.0765893,-0.9524641,1.2021528
vert,-0.62998474,-0.24768488,-1.0093831,0.8121294,-0.79707056,0.7746389,0.6482784,-0.9622203,0.7909794,-0.8919376,0.48061478,-0.84891856,0.6380446,-0.8817551,-0.8080245,0.8749498,0.73858565,0.7687698,-0.84334147,0.95020264
doux,-0.8279257,-0.11419088,-0.94508094,1.0965548,-1.0368738,0.9509758,0.90848863,-0.9462892,1.1692121,-0.9770627,1.1088696,-1.0626167,0.9535626,-1.093816,-0.707981,0.9341574,0.95842457,1.0922716,-0.96988213,1.0454154
floral,-0.9536259,-0.13456449,-0.90106905,1.0918822,-0.9928471,0.89647496,0.89137775,-1.0268011,1.037564,-0.76048696,1.0734861,-0.9604348,0.89991844,-1.064003,-0.764686,0.9210752,0.8544903,0.9348161,-0.98449755,1.0038314
boisé,-1.1123059,0.3166088,-0.93168527,0.85863864,-0.9385723,0.984689,1.1163718,-0.83131045,0.7840501,-0.89949584,1.0434333,-0.85516524,1.0434496,-0.7946299,-1.0871453,1.005198,0.97406185,0.925844,-0.9239929,0.70689994
herbe,-1.0404406,-0.12376337,-0.9699109,0.7517221,-0.9308425,0.93503845,1.079593,-0.8839112,0.7628225,-0.9884293,0.9085113,-0.90018725,1.0417975,-0.8603241,-1.131947,0.97272587,0.9961283,0.9123758,-0.9582418,0.7152836
épicé,-0.95748043,0.37581283,-0.89418757,0.8281902,-0.94793,0.951481,1.0613706,-0.7577944,0.8331063,-0.92351496,1.0727903,-0.8100766,1.043366,-0.733376,-1.0376394,0.90674216,0.9617255,0.95782506,-0.89340365,0.6195718
ciredabeille,-0.79803634,-0.7860149,-0.89484334,0.97774553,-0.94845647,0.97592974,0.77633405,-1.0282778,1.0122678,-0.87784123,0.81198037,-0.75651824,0.7562852,-0.8434681,-0.99143517,0.9671588,0.8978443,0.8535745,-0.9008528,1.0334489
gras,-0.790236,-0.93248606,-0.8004587,0.9220946,-0.9049642,0.9341483,0.7957884,-0.98711354,0.9127296,-0.87792766,0.8369127,-0.69469225,0.6760285,-0.70352376,-0.9926177,0.9297502,0.92121327,0.84761083,-0.8098222,0.8700358
frais,-0.94858044,-0.11032959,-0.9120699,0.77869934,-0.8622595,0.76773113,0.91810524,-0.7935039,0.8142618,-0.86570776,0.7807709,-0.9179795,0.922801,-0.8326349,-1.0174141,0.9412184,0.8366437,0.79794896,-0.86663055,0.6762583
agrume,-0.8677155,-0.723665,-0.8933915,0.76845205,-0.8682486,0.8261357,0.86007106,-0.7735503,0.75821364,-0.7342497,0.78615725,-0.7512541,0.79244447,-0.8352678,-0.9390118,0.8921291,0.85965115,0.74337244,-0.7992091,0.8680122
balsamique,-0.8999318,0.37561083,-0.78813565,0.7856956,-0.88532186,0.82495403,0.84297615,-0.7015825,0.72211087,-0.72593105,0.93514526,-0.73123515,0.8825488,-0.68462825,-0.84682035,0.87175035,0.81081384,0.85584414,-0.81800807,0.6699632
rose,-0.8151407,-0.47547582,-0.80187994,0.8105459,-0.77178645,0.68462294,0.7531425,-0.8925376,0.797724,-0.58453083,0.8356345,-0.7992586,0.67839587,-0.83480453,-0.70829237,0.7881603,0.7221627,0.67653,-0.8088304,0.84976304
fruitàcoque,-0.7728954,-0.97800344,-0.62096655,0.6772784,-0.77491856,0.793941,0.7514136,-0.70588446,0.7807095,-0.81604636,0.6460567,-0.75897086,0.6597942,-0.45577645,-0.70096624,0.615854,0.74126184,0.772753,-0.648354,0.6304983
terre,-0.70133066,-0.9043213,-0.807003,0.634481,-0.6806843,0.7644212,0.7109277,-0.7362054,0.6380647,-0.7353027,0.57853234,-0.7586146,0.6941538,-0.55002123,-0.752262,0.58571315,0.7332277,0.6232383,-0.72088236,0.7116746
huile,-0.73012435,-0.8124815,-0.71071947,0.8043646,-0.8160239,0.84232044,0.6977648,-0.8729664,0.7903888,-0.84214437,0.73999304,-0.669873,0.5845213,-0.63001674,-0.85453856,0.812503,0.8384429,0.7993796,-0.71692884,0.74586755
légume,-0.6849394,-1.0295765,-0.7651739,0.747802,-0.7878969,0.7971579,0.67864144,-0.67694294,0.7691146,-0.8266454,0.47956863,-0.72189116,0.63183725,-0.6648021,-0.7057961,0.70544946,0.7455337,0.7066712,-0.7893034,0.77110434
crème,-0.8153005,-0.6638393,-0.73205286,0.7182543,-0.8056427,0.74653506,0.7802911,-0.7979905,0.8432404,-0.7728331,0.7256548,-0.6917158,0.7356317,-0.7616074,-0.67093885,0.82179344,0.85852873,0.78967243,-0.725991,0.74884117
poudré,-0.8522036,-0.029759035,-0.6690198,0.8167895,-0.83137786,0.7120904,0.7400339,-0.7076583,0.7248483,-0.63940763,0.8203374,-0.7231258,0.7753643,-0.7315994,-0.62836885,0.76525253,0.717455,0.83286864,-0.7655003,0.79610497
baie,-0.6349838,-0.06724545,-0.7199857,0.8877439,-0.80348444,0.7870878,0.75025463,-0.7384603,0.84708637,-0.7818408,0.75433683,-0.841858,0.73082364,-0.8005463,-0.6306434,0.743212,0.7779583,0.82058376,-0.7103959,0.89519584
menthé,-0.7897829,-0.17692515,-0.6984533,0.7604734,-0.7326944,0.71904385,0.7575724,-0.683967,0.719172,-0.7224965,0.6454668,-0.82964194,0.8398829,-0.70243615,-0.8849422,0.78801703,0.7257817,0.7550997,-0.8014239,0.55000377
pomme,-0.5943934,-0.33346328,-0.87780714,0.81053746,-0.7393781,0.84170234,0.7014005,-0.82325226,0.88569343,-0.7603847,0.57921076,-0.84862876,0.651777,-0.8147292,-0.6743374,0.76979256,0.73753464,0.7864747,-0.7923453,0.88615966
moisi,-0.7277682,-0.90043044,-0.63305694,0.67206234,-0.69714653,0.7994257,0.7001231,-0.66154027,0.7087568,-0.75001955,0.63593227,-0.7340621,0.6935569,-0.4729239,-0.72673595,0.5570751,0.67794734,0.6846937,-0.6466404,0.64110845
ananas,-0.58387494,-0.07325998,-0.7892195,0.777171,-0.7308831,0.663557,0.6645564,-0.7156509,0.7391633,-0.7435413,0.7481443,-0.8720503,0.7079703,-0.83201385,-0.65528095,0.7353169,0.7714926,0.7917768,-0.6376466,0.7194388
phénolé,-0.7721925,-0.07080872,-0.63308334,0.6922407,-0.61582005,0.6824535,0.7112073,-0.60064673,0.6417739,-0.62747604,0.7210797,-0.5492184,0.627947,-0.5818959,-0.6714038,0.63252294,0.591918,0.694521,-0.7153421,0.57941407
camphre,-0.83733046,-0.12893516,-0.7059839,0.73800004,-0.7010249,0.70264846,0.77914524,-0.72202706,0.7251404,-0.7978823,0.6251055,-0.7949978,0.8513033,-0.7585292,-0.80867237,0.79602027,0.6540928,0.65968645,-0.78313065,0.5732168
soufré,-0.6091104,-0.9475799,-0.7742022,0.735184,-0.7938777,0.770841,0.67368793,-0.59531933,0.78053397,-0.79320323,0.37442768,-0.63782895,0.5676275,-0.69613665,-0.52718055,0.7186586,0.69004476,0.6151133,-0.73294854,0.7344227
aldéhyde,-0.6927867,-0.931044,-0.73702085,0.59585327,-0.7906873,0.7401242,0.70317024,-0.6760083,0.6492674,-0.6101546,0.701321,-0.6239147,0.7081454,-0.6814362,-0.8430315,0.67554396,0.7773951,0.66758245,-0.60900825,0.73737186
métal,-0.57327235,-0.8343123,-0.7285638,0.58274764,-0.6464818,0.5721562,0.59843796,-0.6323477,0.62818503,-0.637817,0.44947338,-0.56011254,0.53718996,-0.6203438,-0.6103341,0.5885197,0.65050024,0.5988245,-0.5561114,0.60509413
miel,-0.7126919,-0.21706808,-0.71142256,0.81602067,-0.6835386,0.69798124,0.61674476,-0.70863366,0.69364715,-0.6490426,0.7298943,-0.72709954,0.681542,-0.6991415,-0.66534925,0.582062,0.7010131,0.6838919,-0.732078,0.6271789
melon,-0.60065424,-0.6365489,-0.7750957,0.73179615,-0.6554233,0.69917274,0.6318649,-0.738738,0.64062476,-0.7422997,0.49840158,-0.6699673,0.6049191,-0.7259214,-0.78241515,0.72934204,0.60985637,0.687214,-0.7306215,0.81156576
ambregris,-0.6237337,0.58092535,-0.5534347,0.63563395,-0.6154599,0.62477577,0.6262255,-0.5348517,0.51622355,-0.55679137,0.6053883,-0.6766534,0.68936217,-0.64916,-0.6058988,0.7058594,0.6332833,0.59133655,-0.5354805,0.51534665
raisin,-0.53732884,-0.21234675,-0.61910594,0.6481539,-0.5814428,0.63328075,0.5142971,-0.6938443,0.56470346,-0.6062439,0.526177,-0.5791075,0.5396386,-0.678149,-0.5998025,0.63732404,0.5639874,0.5765023,-0.65596974,0.74933136
caramel,-0.57686573,-0.4206211,-0.614446,0.6607588,-0.6194167,0.63856924,0.64481944,-0.6954005,0.76996803,-0.7648381,0.71680415,-0.67611194,0.69040567,-0.6146747,-0.5647876,0.624434,0.620975,0.6667607,-0.6561749,0.62449026
oignon,-0.6358079,-0.98456705,-0.84078634,0.75269175,-0.86987233,0.8571769,0.74652475,-0.68414515,0.9033072,-0.8572136,0.40014738,-0.7356951,0.6175922,-0.7324835,-0.55155766,0.80051285,0.80356586,0.6766196,-0.7941601,0.82408667
banane,-0.64458376,-0.101337895,-0.7500887,0.73764807,-0.7057233,0.70300347,0.6474239,-0.6931132,0.7362746,-0.83544743,0.618549,-0.738643,0.6317148,-0.72768474,-0.5935787,0.71302676,0.6458809,0.78512424,-0.6984854,0.736652
poire,-0.5862511,-0.36527553,-0.78760767,0.72023547,-0.645602,0.77885425,0.6423287,-0.712181,0.7454408,-0.6698927,0.57067925,-0.77783036,0.6841694,-0.7318451,-0.6655785,0.6896763,0.67925596,0.69879544,-0.6099173,0.81104475
café,-0.71963876,-0.9211543,-0.6629516,0.651729,-0.75780123,0.7346098,0.7410128,-0.7375407,0.65101624,-0.7954309,0.6432482,-0.78629225,0.63775676,-0.47074318,-0.688754,0.6489124,0.61156285,0.74173546,-0.58251804,0.61807936
vanille,-0.61981153,-0.29662713,-0.41988248,0.50963,-0.5181359,0.5800879,0.4250279,-0.5434581,0.52460724,-0.4317693,0.42923674,-0.46565455,0.48422384,-0.43821758,-0.42299944,0.56041944,0.4972121,0.5604371,-0.4327746,0.61225706
éther,-0.5616045,-0.06565699,-0.65876997,0.64264226,-0.6319629,0.6584209,0.6199509,-0.7415323,0.65095174,-0.6866588,0.64400005,-0.75894105,0.6442827,-0.72570527,-0.60380864,0.68353176,0.6159587,0.6230174,-0.613043,0.67896044
fromage,-0.6898894,-0.43705603,-0.59167457,0.605103,-0.63201666,0.571845,0.6312618,-0.619841,0.645334,-0.5558622,0.70485187,-0.6207633,0.5853654,-0.58238107,-0.6281251,0.57597554,0.6530352,0.6674792,-0.6504861,0.62470627
vin,-0.28871888,-0.18533549,-0.51204836,0.4943049,-0.5212522,0.47180614,0.3544745,-0.48940432,0.5054834,-0.46027339,0.30375248,-0.48059833,0.32763195,-0.3761026,-0.39630488,0.46794295,0.35943317,0.36267325,-0.3957001,0.46017843
tabac,-0.54000914,-0.25577462,-0.5044465,0.49514818,-0.50166476,0.6211387,0.51287,-0.51139164,0.47114158,-0.5095567,0.47278368,-0.53985304,0.570469,-0.44172728,-0.49882603,0.5809108,0.5691377,0.50836766,-0.4943869,0.4938682
noixdecoco,-0.63785744,-0.58016485,-0.63709617,0.56915045,-0.633263,0.5757611,0.6946653,-0.5694047,0.68497777,-0.58853364,0.62270224,-0.6381076,0.5516812,-0.6992774,-0.58147526,0.65256864,0.71474636,0.5791334,-0.68085086,0.6107483
jasmin,-0.5694157,-0.26749808,-0.50657237,0.6458704,-0.56688917,0.6056663,0.52104294,-0.6627288,0.638774,-0.4867239,0.5053588,-0.62604505,0.5761483,-0.642765,-0.55150974,0.58032674,0.48938912,0.5980496,-0.6374457,0.6053221
savon,-0.5745938,-0.6766609,-0.623792,0.50688857,-0.54345316,0.6096991,0.52976084,-0.61268866,0.5813316,-0.5721113,0.5983055,-0.54409885,0.49542737,-0.56654906,-0.6881932,0.51343185,0.58148134,0.6254058,-0.6512253,0.6277698
ail,-0.65842974,-0.8827465,-0.79298633,0.6602771,-0.7727624,0.7311675,0.7238271,-0.66769195,0.8362541,-0.8244326,0.41904306,-0.76330316,0.59635806,-0.6913585,-0.5162692,0.7993878,0.7169751,0.6825764,-0.7807263,0.8249055
lactique,-0.6939031,-0.5948036,-0.6652907,0.6083635,-0.6838155,0.6742821,0.71790314,-0.673671,0.68239343,-0.66317904,0.718377,-0.5814551,0.61282814,-0.64760745,-0.6180569,0.67879677,0.69155157,0.6148348,-0.6619991,0.5969695
beurre,-0.66281176,-0.5404825,-0.64381737,0.565576,-0.5733183,0.60358375,0.6288433,-0.66898954,0.63688225,-0.65060437,0.5750066,-0.53698206,0.64345086,-0.6834812,-0.5845258,0.74799854,0.7168176,0.672899,-0.65416014,0.68672293
champignon,-0.54493535,-0.64666665,-0.56825626,0.5537858,-0.6118245,0.506294,0.52687377,-0.63783735,0.44255936,-0.52742875,0.54994744,-0.5818528,0.49030322,-0.42236084,-0.5278585,0.5347695,0.5313678,0.5156379,-0.59888494,0.5728898
cacao,-0.71771514,-0.83443403,-0.62055385,0.6093191,-0.73300576,0.6164858,0.6487956,-0.6956732,0.59134877,-0.7082375,0.60271925,-0.6867049,0.666271,-0.52250224,-0.7318674,0.58268976,0.64861685,0.69623315,-0.62969494,0.59415793
animal,-0.4805619,0.49718842,-0.40606,0.47625172,-0.48834825,0.45919043,0.44616038,-0.4863281,0.4892476,-0.41589588,0.39691752,-0.5643837,0.44180635,-0.47386268,-0.4984807,0.5256128,0.4683236,0.5285448,-0.4102357,0.45643848
pêche,-0.45054138,-0.13855162,-0.622536,0.65140647,-0.55956566,0.5955006,0.5249904,-0.61898655,0.5273254,-0.5898215,0.58090734,-0.6123067,0.6545149,-0.6799562,-0.5952306,0.516268,0.5964178,0.5870863,-0.6712005,0.6656234
orange,-0.51156056,-0.6771259,-0.59938145,0.49192744,-0.55210555,0.56456584,0.53272593,-0.5449208,0.4861549,-0.4734679,0.57748985,-0.514578,0.5617769,-0.5517621,-0.5431505,0.5870105,0.6085365,0.52851593,-0.58494127,0.5685358
brûlé,-0.50894,-0.60629225,-0.5249313,0.49634317,-0.5788867,0.4549984,0.6188762,-0.53886473,0.5477299,-0.5706943,0.53298587,-0.55619097,0.46946007,-0.43966413,-0.49319753,0.53657204,0.42876348,0.6099895,-0.43436942,0.5024464
violette,-0.25659972,0.020320296,-0.48624682,0.37573406,-0.38068572,0.40066585,0.26209098,-0.43149036,0.39687765,-0.39351708,0.23171435,-0.363824,0.21374777,-0.4522246,-0.2866201,0.38579062,0.28877497,0.34194463,-0.36906457,0.3988861
musc,-0.5751317,0.41673663,-0.44962186,0.5400417,-0.5932759,0.5045268,0.5355693,-0.54902637,0.46963516,-0.4575162,0.4906085,-0.6628023,0.48523396,-0.54049295,-0.56899774,0.64291334,0.49112034,0.5532608,-0.50486344,0.55822885
pin,-0.65711594,-0.08195076,-0.5748545,0.61914265,-0.58889985,0.687785,0.6254635,-0.58191156,0.59747434,-0.5774273,0.62641686,-0.67928076,0.60749435,-0.54304254,-0.628363,0.65016395,0.6252712,0.5405044,-0.61056495,0.5077447
foin,-0.6130505,-0.19296439,-0.5519217,0.4785695,-0.6240227,0.49517345,0.5839613,-0.4927709,0.5248424,-0.5702767,0.5686741,-0.5336813,0.5610404,-0.56179655,-0.53697973,0.58823746,0.6154499,0.48141527,-0.523201,0.48812965
citron,-0.58827287,-0.6939801,-0.58349067,0.5107002,-0.6249565,0.5300971,0.6755452,-0.48615444,0.5231998,-0.54036826,0.54470885,-0.5347116,0.5803255,-0.5205787,-0.6805893,0.5988476,0.56298774,0.49449193,-0.5822542,0.58673996
cerise,-0.6050435,-0.18297628,-0.5636828,0.5724077,-0.6732547,0.62150466,0.5085143,-0.54661584,0.6519537,-0.5930023,0.6600368,-0.68793905,0.6378498,-0.67422116,-0.56357944,0.64109397,0.6270294,0.6029933,-0.5686226,0.5920218
rhum,-0.47306633,-0.014731646,-0.55056554,0.47719485,-0.55456656,0.53577566,0.4988741,-0.49231654,0.52114576,-0.5096949,0.55561674,-0.5433138,0.49839586,-0.50204647,-0.4478503,0.5882545,0.47552356,0.5752018,-0.43443042,0.5545256
cannelle,-0.5987748,0.32521358,-0.6011821,0.6311683,-0.62081707,0.6147341,0.62513447,-0.46867824,0.59284526,-0.6779368,0.5981653,-0.5382134,0.695443,-0.5323024,-0.6670486,0.56509507,0.6025923,0.6529856,-0.59635293,0.39386228
coumarine,-0.56781876,-0.40533203,-0.60064584,0.5490885,-0.5699092,0.5994699,0.6264938,-0.52021825,0.5738053,-0.59969985,0.52085495,-0.59740365,0.5710057,-0.5391614,-0.51618165,0.55859685,0.6771709,0.56459105,-0.525336,0.5347129
laitfrais,-0.6052935,-0.62497234,-0.62595344,0.57201666,-0.5747255,0.6203933,0.6728731,-0.53731966,0.66402805,-0.6203358,0.6663441,-0.57660127,0.5453657,-0.6598179,-0.60670805,0.66939706,0.5910503,0.5697939,-0.65576243,0.5200617
médicinal,-0.6066721,-0.056989126,-0.552146,0.51838505,-0.4947264,0.51166046,0.6350993,-0.5019622,0.5868261,-0.52845395,0.59956646,-0.54439276,0.5790793,-0.5140964,-0.61819315,0.5934167,0.57050526,0.51679534,-0.6318351,0.4517203
cèdre,-0.5664828,0.42077315,-0.542728,0.5452318,-0.628357,0.58165383,0.6026361,-0.47798494,0.48500323,-0.56384706,0.6045009,-0.65699124,0.6416086,-0.5651505,-0.5400644,0.56323373,0.6333145,0.5335766,-0.5187262,0.5087692
﻿abricot,-0.47842044,-0.14597781,-0.6130816,0.56029713,-0.5893508,0.5782275,0.5229438,-0.49518782,0.5302081,-0.5738858,0.5561595,-0.5824784,0.5739277,-0.537469,-0.5491937,0.52124107,0.59060585,0.6234287,-0.6051591,0.59779847
thé,-0.4745131,-0.30742645,-0.5206406,0.42552173,-0.4184841,0.48259577,0.46995947,-0.5582708,0.47689754,-0.45982003,0.45444337,-0.51460993,0.43895435,-0.48607993,-0.5435685,0.437297,0.53303015,0.49385616,-0.49451712,0.5409126
prune,-0.40997595,-0.2091712,-0.57125556,0.597388,-0.44776672,0.5180179,0.39770105,-0.53181225,0.552084,-0.4830848,0.52610797,-0.54835236,0.4518184,-0.53806007,-0.40205956,0.5524478,0.4364267,0.56433964,-0.553115,0.45535606
ylang,-0.6752671,-0.67468905,-0.6215055,0.6827434,-0.28921002,0.6411114,0.711257,-0.61960423,0.6055177,-0.7516053,0.38169745,-0.35121515,0.6699045,-0.47496575,-0.67104006,0.72033226,0.57216203,0.60029125,-0.63493806,0.5575165
fumée,-0.5883579,-0.12308338,-0.505504,0.5853478,-0.5488063,0.51870525,0.57925093,-0.50966907,0.5284117,-0.4893888,0.5360563,-0.47751483,0.56866825,-0.5034235,-0.6483186,0.52313673,0.5663451,0.5282798,-0.54245883,0.5074449
fermentaire,-0.432918,-0.13907745,-0.52880687,0.50678086,-0.48204994,0.5731938,0.45898682,-0.56614065,0.5055965,-0.5847222,0.52792317,-0.5438374,0.4702693,-0.55100226,-0.46689427,0.5687014,0.5177479,0.57075083,-0.4967438,0.6156671
poivre,-0.49926618,0.15988353,-0.47078806,0.5476201,-0.46456277,0.5365249,0.5002754,-0.44552034,0.47121745,-0.5822453,0.52564025,-0.5287137,0.52602166,-0.42186877,-0.5297571,0.53113973,0.5619868,0.48720643,-0.44200137,0.4857741
géranium,-0.47381318,-0.52640307,-0.59459764,0.47796068,-0.5156128,0.5067408,0.54223543,-0.54579234,0.5085476,-0.39832914,0.5176418,-0.47817364,0.42563742,-0.48901987,-0.5401727,0.59205246,0.53466713,0.4083796,-0.57860875,0.6131034
pain,-0.49456316,-0.57337,-0.4804524,0.5499456,-0.534952,0.4582947,0.54364026,-0.45962295,0.5101819,-0.4541781,0.5440165,-0.46001697,0.5566054,-0.45983452,-0.4872266,0.44855377,0.5697005,0.432911,-0.47660854,0.5074038
ester,-0.55307573,-0.13221723,-0.6764552,0.5946817,-0.5714181,0.635512,0.58973503,-0.6520572,0.65839237,-0.6514863,0.6084267,-0.5840923,0.55548817,-0.67348623,-0.50467896,0.6188717,0.52995,0.6806652,-0.5914596,0.67632735
concombre,-0.5801513,-0.5965631,-0.65043306,0.5694102,-0.5497344,0.5832269,0.54525125,-0.63064116,0.6384587,-0.55939853,0.44998944,-0.51857007,0.5695256,-0.47470224,-0.660967,0.6423526,0.57004005,0.50378454,-0.6327418,0.60817266
cuir,-0.40456182,0.05417358,-0.3877384,0.44951785,-0.39241394,0.40901238,0.4972536,-0.45308346,0.3728211,-0.39721036,0.41521686,-0.4385121,0.38832995,-0.41776448,-0.3601969,0.40657115,0.42362967,0.42600304,-0.42890966,0.341878
confiture,-0.5408442,-0.15578742,-0.5882003,0.67329335,-0.54331696,0.5062489,0.53010225,-0.51390374,0.6213174,-0.6338196,0.5212401,-0.6472055,0.50503063,-0.67479026,-0.522147,0.49712443,0.5327443,0.6652731,-0.60072684,0.542529
amande,-0.6282651,-0.31357723,-0.47666138,0.47118384,-0.5891423,0.53775793,0.5095258,-0.46496814,0.5939267,-0.6252909,0.51593,-0.60496193,0.52983505,-0.5411564,-0.47500205,0.45354804,0.59118754,0.52991205,-0.5114631,0.48310333
alliacé,-0.53523916,-0.7050277,-0.58560014,0.48107672,-0.6025467,0.54823977,0.5569971,-0.54449534,0.5732438,-0.6115415,0.3761459,-0.67673445,0.518697,-0.53277934,-0.41646928,0.5702728,0.582741,0.5215148,-0.6632214,0.65055346
cognac,-0.46180588,-0.21296754,-0.480367,0.51555514,-0.5596148,0.53068036,0.40045792,-0.49555147,0.56999975,-0.52614176,0.4558956,-0.52523935,0.49225515,-0.5590036,-0.4465181,0.55912185,0.48638058,0.4655152,-0.4553398,0.50507087
lavande,-0.49565092,-0.17704183,-0.5316039,0.47118583,-0.5444139,0.47174174,0.5291517,-0.4937479,0.48461556,-0.58121514,0.5257933,-0.48566297,0.5280056,-0.5429585,-0.54950255,0.5059376,0.50061727,0.46481013,-0.61927104,0.49215257
framboise,-0.48808682,-0.16378638,-0.558192,0.63823557,-0.4894152,0.616475,0.56942105,-0.4905181,0.53859293,-0.5562358,0.48910612,-0.5317714,0.56652963,-0.60804355,-0.5637406,0.46566236,0.5237764,0.57785404,-0.48761967,0.5637071
réglisse,-0.44504765,-0.2807646,-0.35565418,0.35765207,-0.41315827,0.5017833,0.41526753,-0.3585744,0.3908283,-0.43234575,0.42070925,-0.418304,0.44759628,-0.3550892,-0.45644176,0.44628298,0.42363515,0.5045129,-0.32311636,0.3812802
mandarine,-0.47238445,-0.5533345,-0.4281627,0.44914007,-0.42373204,0.5018186,0.37675598,-0.40575033,0.46881717,-0.44287074,0.41520834,-0.39314672,0.52477103,-0.44025958,-0.39220798,0.5090033,0.4778661,0.46182775,-0.42937252,0.48119316
cloudegirofle,-0.552465,0.15312749,-0.604215,0.6037669,-0.60827357,0.5963423,0.5705774,-0.46040332,0.5465965,-0.66209275,0.56503946,-0.5148115,0.59963894,-0.44670486,-0.6152823,0.5447489,0.6501914,0.5656,-0.47459474,0.43748236
muguet,-0.37570292,-0.42462265,-0.407562,0.49631715,-0.40190732,0.418894,0.37030214,-0.44941357,0.43339646,-0.3991111,0.41149884,-0.46424097,0.37814516,-0.46824628,-0.42278886,0.40002277,0.2929548,0.45176286,-0.387752,0.35407677
fleurdoranger,-0.50127214,-0.21623582,-0.44624722,0.41498494,-0.4386561,0.42071897,0.4129467,-0.528032,0.48577082,-0.39951736,0.50430584,-0.43375075,0.49811953,-0.4442852,-0.48075998,0.5141624,0.48658365,0.41010806,-0.42411095,0.4274612
citronvert,-0.58965427,-0.41500345,-0.45888907,0.4713695,-0.5378983,0.49959975,0.565191,-0.42364347,0.46009168,-0.5516666,0.49678004,-0.44094932,0.51382816,-0.4916809,-0.6055626,0.48797405,0.5193,0.47224852,-0.45474052,0.606554
sauge,-0.3942618,-0.029624432,-0.45546728,0.34514767,-0.40744728,0.3885432,0.4497826,-0.40694648,0.35567057,-0.45210183,0.48817667,-0.39088887,0.45028144,-0.44297343,-0.44546235,0.4889729,0.38800895,0.41172603,-0.39213696,0.41532493
anis,-0.4380471,-0.32487833,-0.38883755,0.46553528,-0.4438582,0.49478793,0.4338389,-0.4464121,0.46289223,-0.41055715,0.41713762,-0.5060111,0.49933267,-0.4148724,-0.45593527,0.46866482,0.47868788,0.53799975,-0.41530344,0.42567217
chocolat,-0.5482776,-0.6246196,-0.5507916,0.5658757,-0.5109323,0.5053324,0.5550141,-0.5723552,0.46393996,-0.52153575,0.5398273,-0.58185375,0.5189698,-0.4379752,-0.58007884,0.50553864,0.57932854,0.5761881,-0.53801185,0.5817723
pommedeterre,-0.47440392,-0.6665762,-0.55195516,0.59355253,-0.6037265,0.6138808,0.5439018,-0.552083,0.56886053,-0.58639854,0.5012722,-0.56532484,0.513496,-0.53177387,-0.569142,0.59159756,0.5013094,0.57173556,-0.49857455,0.57077545
jacinthe,-0.47827208,-0.33203164,-0.4100517,0.48286718,-0.41853064,0.529207,0.4730541,-0.57987964,0.43547586,-0.41512716,0.5395174,-0.51426446,0.4614808,-0.5885059,-0.45374256,0.39298153,0.43040478,0.5182798,-0.53454924,0.4979266
résineux,-0.54627514,-0.074768245,-0.41587973,0.41092825,-0.4035859,0.49000943,0.46111348,-0.4763075,0.3993044,-0.36947447,0.45519906,-0.34373018,0.40184462,-0.3817045,-0.41266334,0.46365032,0.43314534,0.36192864,-0.45987675,0.3599485
chimique,-0.43115276,-0.25984308,-0.4610839,0.48727947,-0.44288886,0.43707496,0.49834794,-0.42534906,0.4806577,-0.4429717,0.44525427,-0.42265454,0.41962785,-0.4367806,-0.4624042,0.4079765,0.386635,0.5098722,-0.47101814,0.4223993
fraise,-0.4781443,-0.030395925,-0.5322238,0.50700724,-0.46962997,0.408911,0.39940304,-0.41861433,0.4260279,-0.45794702,0.436126,-0.60907143,0.4442169,-0.59167755,-0.5037341,0.4776131,0.42614448,0.49989784,-0.5017177,0.5427257
poulet,-0.4667678,-0.49493796,-0.42169017,0.48990473,-0.51131684,0.53974926,0.4806798,-0.52295744,0.50282377,-0.503096,0.38922626,-0.38372812,0.41967458,-0.4280838,-0.52561146,0.5177223,0.48957956,0.3699748,-0.48913735,0.41311508
cuit,-0.35186034,-0.3992898,-0.39547673,0.45418173,-0.4207173,0.4421348,0.45747864,-0.35385787,0.38356507,-0.4204384,0.28712803,-0.43219516,0.33533484,-0.37269098,-0.36920136,0.4413812,0.3981899,0.41168115,-0.44077677,0.4427986
lys,-0.37759608,-0.29902333,-0.41037327,0.4651507,-0.42367148,0.4279864,0.36698198,-0.48759818,0.43813893,-0.4096967,0.4147008,-0.44173694,0.4211452,-0.47867984,-0.3842208,0.44790038,0.2904045,0.52067864,-0.43859988,0.35715586
zesté,-0.237052,-0.15885197,-0.22734277,0.25726694,-0.3550231,0.24939561,0.2297335,-0.26875165,0.28914982,-0.2197319,0.19657539,-0.23462398,0.22437085,-0.27232906,-0.27457273,0.23247579,0.21910885,0.2810417,-0.2713175,0.2497866
sapin,-0.50137275,-0.040407352,-0.40631628,0.52235526,-0.49855244,0.46672985,0.5120851,-0.39599326,0.4525043,-0.47842613,0.49936908,-0.42004913,0.4397978,-0.45129257,-0.46239823,0.4771015,0.50994396,0.44225988,-0.39662126,0.47989854
anisé,-0.5045571,-0.09186846,-0.47431356,0.42085227,-0.46806872,0.43963313,0.42316964,-0.3714729,0.43651664,-0.4837512,0.4598421,-0.4741401,0.4699729,-0.42892593,-0.43080777,0.425516,0.46161106,0.3949986,-0.50736684,0.40103072
coriandre,-0.4799716,-0.53077734,-0.44755965,0.39228192,-0.47415084,0.44187862,0.4784382,-0.4768777,0.5161639,-0.48914844,0.45315892,-0.46578532,0.44051814,-0.40737563,-0.41932583,0.4991982,0.5723643,0.4729051,-0.5145135,0.49331534
bergamote,-0.45382845,-0.2630374,-0.39589974,0.447514,-0.5014664,0.5087731,0.423786,-0.48827493,0.4472218,-0.46214598,0.4814831,-0.38184124,0.4865962,-0.46143317,-0.4996022,0.44291964,0.46577075,0.4206143,-0.5262071,0.4564681
bouillon,-0.39830792,-0.4637356,-0.34568554,0.39120033,-0.37801224,0.45535335,0.39887673,-0.42343286,0.45464993,-0.37898105,0.25800854,-0.40874928,0.33040857,-0.37520343,-0.43309516,0.40819657,0.42792243,0.36793232,-0.3661369,0.49237937
racine,-0.4132893,-0.26797932,-0.41950664,0.34217566,-0.35859942,0.4722197,0.35240805,-0.32438302,0.45798355,-0.47800308,0.3895767,-0.42257026,0.47049448,-0.3833065,-0.41095984,0.40255618,0.41303658,0.407286,-0.37503287,0.35235432
santal,-0.42011255,0.08150917,-0.33805817,0.3520496,-0.38463753,0.29356316,0.37025094,-0.28661335,0.25448576,-0.35995167,0.38447654,-0.32590052,0.3991329,-0.37465864,-0.43408662,0.32826203,0.32636487,0.37307674,-0.35821897,0.3355633
noisette,-0.6168821,-0.64394915,-0.46642762,0.5258726,-0.5915576,0.67929524,0.5972513,-0.56034243,0.6045208,-0.6265794,0.5555713,-0.55676585,0.5202611,-0.4340335,-0.5369276,0.55683315,0.56492096,0.6425122,-0.5278887,0.5147128
chou,-0.44886196,-0.5095199,-0.43665534,0.514449,-0.50784284,0.5216488,0.48323667,-0.4306227,0.48448712,-0.52768636,0.41560745,-0.4831062,0.42725086,-0.36181277,-0.4376449,0.45597425,0.47119558,0.46493024,-0.47923046,0.553666
mangue,-0.38502073,-0.22141367,-0.42581028,0.39780515,-0.33017594,0.4095059,0.36384416,-0.3771905,0.3463101,-0.39954177,0.33511388,-0.4409139,0.39941245,-0.4503299,-0.33308184,0.366441,0.36421302,0.38137144,-0.37817246,0.4627835
fèvetonka,-0.44874302,-0.362049,-0.49630994,0.5505786,-0.5757854,0.5193666,0.4406822,-0.3998438,0.5261843,-0.6001241,0.478877,-0.522524,0.44761884,-0.5602926,-0.4641464,0.50603926,0.58944285,0.50101584,-0.49326605,0.47207546
menthol,-0.5333827,-0.26678896,-0.5123146,0.44963542,-0.5568517,0.48604894,0.42695272,-0.5226251,0.4815703,-0.45979327,0.51822263,-0.56128204,0.55334634,-0.49519604,-0.5458217,0.4519076,0.46482587,0.53574437,-0.4893167,0.44775435
plastique,-0.3677402,-0.38314953,-0.3962256,0.30324674,-0.30551946,0.40146467,0.35193384,-0.3740592,0.38383475,-0.4256696,0.31030202,-0.35357645,0.34510982,-0.3649159,-0.34151024,0.3596875,0.29069385,0.34138978,-0.3575621,0.4075194
tomate,-0.48412043,-0.5036062,-0.46955496,0.5484266,-0.44804525,0.44859493,0.4747011,-0.4076889,0.40268335,-0.4968057,0.41433063,-0.4544754,0.42963588,-0.39436704,-0.44829282,0.4568251,0.45939732,0.48244298,-0.45984238,0.42970383
ozone,-0.3375214,-0.47638834,-0.34349263,0.24074987,-0.31059372,0.31618202,0.32789654,-0.28989303,0.29957741,-0.3248621,0.2992174,-0.3678486,0.2964794,-0.3457626,-0.25873655,0.40782124,0.26597008,0.3563129,-0.397069,0.35015333
grillé,-0.4546333,-0.5750953,-0.38870126,0.45408225,-0.41289067,0.4589545,0.44214526,-0.40920466,0.4875672,-0.48203897,0.3945187,-0.53993696,0.37240186,-0.29101,-0.39691153,0.42189232,0.53488916,0.4762634,-0.4890284,0.46443626
cumin,-0.42102626,-0.061492752,-0.32712686,0.3341065,-0.39309728,0.41370136,0.4212418,-0.37153274,0.3536763,-0.4360599,0.40577275,-0.34198233,0.3643188,-0.33023313,-0.5000505,0.3538515,0.30499595,0.36916083,-0.31772947,0.3971957
siropdérable,-0.3692054,-0.4668755,-0.39703757,0.37178028,-0.46837723,0.43003058,0.4437961,-0.4764142,0.4863416,-0.40990323,0.41566068,-0.43725917,0.37259936,-0.46341056,-0.38577038,0.36175695,0.4658761,0.4286027,-0.4070738,0.47999138
poisson,-0.34679145,-0.47488105,-0.5003309,0.3983689,-0.42411497,0.3720237,0.38728082,-0.4299493,0.42769402,-0.37799507,0.34347138,-0.45639235,0.3804288,-0.3558266,-0.33423316,0.30843472,0.41816887,0.36963367,-0.3751812,0.47603554
gardénia,-0.35111085,-0.29682207,-0.4048447,0.38996056,-0.37555853,0.31207657,0.39806455,-0.3629372,0.43084562,-0.35108685,0.4302413,-0.36246017,0.26787075,-0.31825778,-0.33425605,0.41116327,0.33154058,0.38692784,-0.37070078,0.30281812
solvant,-0.32582045,-0.15831721,-0.34113988,0.38770595,-0.30029047,0.38759017,0.3538686,-0.38947862,0.39362457,-0.43371427,0.4229126,-0.30030888,0.36992753,-0.36288255,-0.36938238,0.31009838,0.40738338,0.4039817,-0.3568343,0.41134012
narcisse,-0.45755762,-0.4259376,-0.45994037,0.3833437,-0.44174916,0.3485792,0.36211273,-0.4125872,0.44728315,-0.43119946,0.33258635,-0.34369838,0.33212698,-0.3666591,-0.36956084,0.37602204,0.3366356,0.47507197,-0.4429743,0.36711526
galbanum,-0.34711602,-0.22322685,-0.3816874,0.37983397,-0.4611147,0.36841476,0.3521918,-0.3634233,0.38778907,-0.35799143,0.43887648,-0.36140868,0.30184108,-0.43529427,-0.35259667,0.32895184,0.29308462,0.33866504,-0.3290912,0.36530352
eucalyptus,-0.45390213,-0.09314695,-0.37349156,0.37995094,-0.44881827,0.45485324,0.48834652,-0.47576553,0.43075705,-0.49897987,0.3618235,-0.38831574,0.4488774,-0.52522814,-0.4209772,0.5009193,0.3471107,0.4322558,-0.34309584,0.41922855
mousse,-0.3703124,-0.10578062,-0.2821164,0.27525455,-0.30149427,0.34584486,0.32929265,-0.38793787,0.32853204,-0.30617493,0.37693107,-0.37579712,0.30338597,-0.31465632,-0.27819717,0.37885457,0.29188573,0.2666331,-0.37273294,0.31207007
alcool,-0.36153746,-0.15497726,-0.36427188,0.4055639,-0.36675888,0.38990107,0.37673008,-0.39535367,0.3708617,-0.43076968,0.4401894,-0.40837425,0.33166695,-0.39050466,-0.3767982,0.35563272,0.3736769,0.3681608,-0.39852473,0.33405888
patchouli,-0.3132558,-0.012700617,-0.33291286,0.36630452,-0.37079,0.26856485,0.3949651,-0.3353626,0.32109848,-0.2849804,0.32417333,-0.26856622,0.40851024,-0.36368695,-0.25970158,0.29503196,0.29582363,0.3254455,-0.38190368,0.31191516
aubépine,-0.34508598,-0.21685219,-0.42664957,0.37606877,-0.36392915,0.4092012,0.41224998,-0.29364628,0.3346269,-0.29536316,0.41616988,-0.3227198,0.2631293,-0.40706736,-0.35509294,0.30940002,0.3847706,0.35197675,-0.37813777,0.373645
myrtille,-0.28093493,-0.13996437,-0.32152247,0.43167388,-0.40340126,0.37578484,0.36110854,-0.46665713,0.33669484,-0.41063765,0.37905508,-0.38443744,0.40875024,-0.3308906,-0.37211585,0.3599773,0.3377033,0.44532984,-0.42880577,0.36178166
fenouil,-0.40740165,-0.42509365,-0.3819595,0.45099354,-0.38159913,0.42571175,0.41209507,-0.37367135,0.47049063,-0.4315105,0.36137366,-0.4780296,0.51147115,-0.34101647,-0.45156577,0.4317706,0.40937388,0.45993978,-0.3125056,0.37196666
marin,-0.31704944,-0.3849972,-0.26761293,0.26094064,-0.29432464,0.2632457,0.31059784,-0.27311158,0.32042795,-0.31530854,0.1904376,-0.3297943,0.25156647,-0.35059264,-0.32251132,0.35841346,0.24628185,0.28722098,-0.34143916,0.3100931
sueur,-0.3301283,-0.18152806,-0.3543042,0.37086675,-0.4423212,0.34024206,0.38124326,-0.3781898,0.39464432,-0.3833825,0.3413539,-0.41063607,0.28479594,-0.35169256,-0.38282347,0.38598442,0.4108981,0.37723547,-0.33943856,0.48152226
mentheverte,-0.41841835,-0.2065284,-0.45915198,0.4855742,-0.4070059,0.35411984,0.4588796,-0.3854085,0.4201461,-0.36050037,0.39557388,-0.39907777,0.46770394,-0.37806562,-0.4304614,0.43692684,0.4553584,0.42002973,-0.42907977,0.46119273
levure,-0.2885682,-0.30318722,-0.3485588,0.2945528,-0.35695368,0.36250576,0.35894856,-0.26908654,0.2809829,-0.33177185,0.42078817,-0.35617527,0.3779257,-0.38558716,-0.37648955,0.22535218,0.33079267,0.34494847,-0.33447385,0.36315146
naphtaline,-0.43281662,-0.1589447,-0.393216,0.30738264,-0.3473103,0.39085245,0.3587885,-0.34330648,0.38172543,-0.31073934,0.42085183,-0.27385223,0.34655547,-0.36206067,-0.3964945,0.36850306,0.24626541,0.3582793,-0.4057292,0.44565135
camomille,-0.3621357,-0.025911063,-0.36955297,0.38545394,-0.30285043,0.34222096,0.33529434,-0.41715539,0.2691924,-0.29712254,0.29775774,-0.29988742,0.28688586,-0.3969341,-0.3971222,0.39266104,0.3605764,0.32398078,-0.32421052,0.32977793
bourgeondecassis,-0.2708236,-0.07653406,-0.364708,0.3480368,-0.35625684,0.3432112,0.31481546,-0.33809754,0.33848488,-0.29838338,0.39180863,-0.42250812,0.29774252,-0.33451152,-0.39748657,0.28806362,0.29740223,0.37681103,-0.3179459,0.36214796
raifort,-0.38205075,-0.5209886,-0.34084934,0.41342515,-0.441625,0.4626057,0.3430189,-0.43356544,0.45671576,-0.44944078,0.34310964,-0.3688652,0.32668906,-0.39229578,-0.3588184,0.42913455,0.41485447,0.34987697,-0.4342688,0.42997995
pommeverte,-0.317511,-0.28482354,-0.44060132,0.3858794,-0.4570344,0.36781043,0.44472638,-0.45238,0.3685929,-0.43210816,0.43688524,-0.36873704,0.38232547,-0.42038,-0.42213225,0.43587717,0.36206433,0.41665012,-0.4631173,0.44086468
caoutchouc,-0.4452988,-0.36911756,-0.38988894,0.45966622,-0.39156342,0.38780057,0.4169277,-0.39889082,0.40194175,-0.3457402,0.3819815,-0.45126027,0.27840912,-0.32981825,-0.38536406,0.3581307,0.3561959,0.34835702,-0.3519576,0.45933512
radis,-0.37592936,-0.35709947,-0.3483895,0.40273306,-0.3753122,0.38730064,0.33149356,-0.3139571,0.42549556,-0.42951703,0.24948674,-0.29807448,0.3839863,-0.3510269,-0.4104215,0.31923974,0.3300004,0.38345945,-0.34440434,0.38706616
suif,-0.3962063,-0.4027707,-0.48701108,0.4405337,-0.4607899,0.52780426,0.39498657,-0.47543943,0.4272895,-0.40452605,0.4316489,-0.4703582,0.40191898,-0.3364436,-0.40832442,0.34601533,0.47977215,0.36682507,-0.3497148,0.3475928
viandecuite,-0.24693649,-0.18500265,-0.18349336,0.14144859,-0.19213307,0.18472993,0.27552158,-0.15859681,0.19952828,-0.18490744,0.1452803,-0.27889138,0.22330482,-0.24230492,-0.17015228,0.112264,0.27425522,0.12594356,-0.18610162,0.1354238
capucine,-0.3603884,-0.2879576,-0.30180675,0.34992844,-0.31265277,0.34519893,0.36801714,-0.3498495,0.35432118,-0.353417,0.36072183,-0.40240526,0.35004485,-0.4200615,-0.35485035,0.35678157,0.35222855,0.2746637,-0.3332548,0.31585604
œillet,-0.43658182,0.015822649,-0.3787948,0.38992643,-0.43996286,0.411299,0.37360388,-0.36184698,0.3647861,-0.38390076,0.42740476,-0.37055185,0.37348482,-0.39383882,-0.40190482,0.37854302,0.39296758,0.35310733,-0.3597315,0.34799576
fruitexotique,-0.24969758,-0.15624255,-0.3060377,0.33736658,-0.32866904,0.4006515,0.3337728,-0.30161747,0.31006694,-0.32976788,0.31722653,-0.26085356,0.3222648,-0.34416282,-0.3786878,0.30798733,0.34303778,0.31686896,-0.38590586,0.40525377
œuf,-0.39606902,-0.49865526,-0.5601601,0.5037826,-0.45204502,0.47880143,0.41216058,-0.39779526,0.4500181,-0.49442893,0.252958,-0.36939067,0.32177636,-0.42308706,-0.44986153,0.50677246,0.46854347,0.4599655,-0.47837374,0.44414154
fruitsec,-0.33481556,-0.15669222,-0.42246237,0.32351542,-0.37786442,0.40779388,0.35977727,-0.3079916,0.4450224,-0.3098536,0.32038826,-0.34258458,0.34062564,-0.37516737,-0.3334575,0.32398218,0.2898847,0.41215676,-0.38979673,0.28661695
basilic,-0.41096005,-0.21967071,-0.33742487,0.36093837,-0.33477437,0.36908138,0.4067533,-0.2913329,0.41370177,-0.34215888,0.31637815,-0.35307002,0.4303124,-0.34428445,-0.26325983,0.34779906,0.32432887,0.37610275,-0.30461746,0.36009312
poussière,-0.304118,-0.2047889,-0.3160268,0.25129715,-0.3085311,0.2541129,0.27210727,-0.258426,0.33954328,-0.31576473,0.3051599,-0.33591768,0.35691786,-0.3124414,-0.37882757,0.25168943,0.28480875,0.34422112,-0.29378337,0.29366198
citronelle,-0.36916125,-0.327545,-0.30435002,0.2936313,-0.3885203,0.3138206,0.39459792,-0.4003051,0.31241,-0.22836658,0.4001038,-0.3986156,0.34933907,-0.3668008,-0.30166993,0.38642603,0.33966583,0.27413517,-0.32607988,0.2919304
écorcedorange,-0.41607594,-0.45197332,-0.482943,0.39993608,-0.39600587,0.39825052,0.38760352,-0.45892984,0.43241453,-0.31387323,0.31442857,-0.32082045,0.38438126,-0.45820558,-0.33215255,0.383588,0.37595534,0.30428872,-0.40312347,0.36717212
encens,-0.37543923,0.287502,-0.34744763,0.28909236,-0.3490887,0.3666783,0.31036675,-0.38075805,0.32341352,-0.24723217,0.36584687,-0.35982102,0.31496185,-0.39054433,-0.29710823,0.3773272,0.41638422,0.37962306,-0.36100042,0.2825662
bonbon,-0.36099368,-0.10697506,-0.3731088,0.3997242,-0.36915904,0.35490754,0.35296625,-0.31153566,0.4193638,-0.3100434,0.4022513,-0.3148083,0.36598486,-0.35152274,-0.37631342,0.35593325,0.36478457,0.34212488,-0.33491296,0.36424208
popcorn,-0.39516115,-0.28311065,-0.27804223,0.3216852,-0.3344249,0.37999964,0.3115391,-0.29662707,0.2695991,-0.3120403,0.33906713,-0.37271038,0.38250676,-0.25440606,-0.281649,0.31437182,0.30921417,0.31120276,-0.2868342,0.32577503
cacahuète,-0.4533872,-0.5154855,-0.4452803,0.46868667,-0.46639538,0.4071036,0.5004451,-0.4198998,0.45949852,-0.476142,0.44575477,-0.49377695,0.4531634,-0.29584813,-0.44995373,0.4445226,0.4628649,0.45094964,-0.43597814,0.39775056
romarin,-0.31755242,-0.09008233,-0.41321272,0.33849573,-0.26294607,0.3456909,0.3726795,-0.28871167,0.2945578,-0.32675624,0.28741676,-0.39479393,0.38502216,-0.34411952,-0.334746,0.3763658,0.39794084,0.31604707,-0.2986251,0.31358013
moutarde,-0.34682587,-0.4326502,-0.3051161,0.313585,-0.3278453,0.39555776,0.39793697,-0.41041327,0.34176454,-0.4029804,0.35637647,-0.41796446,0.34614095,-0.35889775,-0.35641938,0.41943038,0.39234823,0.33772886,-0.4174589,0.32626337
orchidée,-0.33583516,-0.2029018,-0.32673892,0.3273402,-0.35600078,0.3885158,0.3449508,-0.28453386,0.33416128,-0.3702142,0.36690426,-0.4257646,0.2896297,-0.3788026,-0.31866163,0.3336259,0.2917984,0.28962424,-0.4388721,0.35749182
fruitdelapassion,-0.32182223,-0.08013512,-0.390979,0.32336685,-0.34156495,0.4560635,0.32208323,-0.38383403,0.3103696,-0.40619636,0.34555334,-0.39549923,0.4202525,-0.3873245,-0.28595555,0.3345056,0.3026761,0.40562624,-0.44023007,0.4459976
magnolia,-0.3011102,-0.30346966,-0.31286973,0.44615597,-0.36898193,0.38590056,0.39127064,-0.40751818,0.36109477,-0.3071838,0.34626237,-0.38638124,0.44130212,-0.3364637,-0.41606224,0.35613906,0.3847868,0.34025687,-0.32396823,0.40952826
mimosa,-0.2790197,-0.08839486,-0.19595453,0.23016335,-0.22360945,0.25546545,0.249607,-0.23280439,0.341442,-0.26670006,0.3102197,-0.28504467,0.2502072,-0.2856835,-0.29083133,0.19655938,0.312036,0.31267142,-0.28857815,0.27888235
graisseanimale,-0.34532565,-0.40514857,-0.3227556,0.37377912,-0.3264367,0.28817773,0.30603382,-0.31866568,0.31530374,-0.30456024,0.26584297,-0.28752097,0.25809687,-0.31639516,-0.3168055,0.30310598,0.28684473,0.34833503,-0.3062039,0.33174303
lilas,-0.38613743,-0.25276846,-0.26129535,0.2855029,-0.30748078,0.25189736,0.30489963,-0.35086572,0.31878856,-0.2377087,0.30791214,-0.2352072,0.25936508,-0.37302607,-0.2898978,0.30342692,0.3353474,0.30357283,-0.3515464,0.2999962
graisse,-0.36004388,-0.42346165,-0.39157182,0.39438742,-0.39711922,0.4482754,0.45263243,-0.3528874,0.3602986,-0.34527516,0.38133937,-0.32665664,0.39190125,-0.41026914,-0.40966976,0.4085372,0.35320684,0.39105004,-0.3470078,0.37609905
malté,-0.25043762,-0.32314998,-0.18785566,0.31400526,-0.34791985,0.2600652,0.35861456,-0.25209665,0.26493388,-0.2570215,0.25831506,-0.22055592,0.26351666,-0.29835036,-0.19878498,0.25817934,0.22805436,0.25309572,-0.25331357,0.2660272
bois,-0.34448582,0.07457824,-0.3601401,0.2754586,-0.4003171,0.30788374,0.40050822,-0.4095262,0.3141779,-0.34943044,0.33210963,-0.32489932,0.38003498,-0.35141844,-0.34241134,0.4326251,0.4052719,0.37106788,-0.3335613,0.3549183
noisettetorréfiée,-0.37543684,-0.43005484,-0.35618123,0.33740723,-0.38972518,0.44358283,0.36185855,-0.41742766,0.37972417,-0.39219373,0.32104993,-0.37692305,0.3507133,-0.33541566,-0.33732617,0.32782567,0.38472074,0.38332763,-0.40126437,0.32199645
menthepoivrée,-0.40192938,-0.2925344,-0.40974385,0.43662858,-0.46247572,0.41986862,0.5139477,-0.40724546,0.4452458,-0.41572464,0.40535286,-0.5217748,0.40265423,-0.34470588,-0.4469784,0.39781302,0.41756952,0.36896718,-0.37817535,0.43664733
poivron,-0.2737853,-0.33823246,-0.36711243,0.24524581,-0.27681506,0.18990962,0.23008177,-0.31721628,0.24592184,-0.34989342,0.30249894,-0.3374843,0.29260167,-0.33340186,-0.28605935,0.2768533,0.26731524,0.31542608,-0.24687779,0.32854
amandeamère,-0.36406827,-0.13141254,-0.38896358,0.320175,-0.32461917,0.32445365,0.27711922,-0.29613551,0.33494344,-0.25228068,0.35251927,-0.3497151,0.33744717,-0.29013628,-0.34258938,0.31537968,0.35080844,0.4008655,-0.35817415,0.22900051
ambrette,-0.25374693,0.2250818,-0.20833524,0.25662303,-0.27738672,0.36809105,0.29379022,-0.29520828,0.25616097,-0.23197192,0.27130955,-0.34666556,0.31389862,-0.28821293,-0.27956182,0.37838018,0.32377124,0.23230937,-0.3077914,0.2611028
maïs,-0.434486,-0.41907346,-0.36427164,0.35841963,-0.38963723,0.42886913,0.38010597,-0.35312438,0.4184472,-0.40064108,0.35244077,-0.32795691,0.4298929,-0.3441956,-0.3332611,0.38190895,0.4141506,0.4093591,-0.3211532,0.3532267
whisky,-0.1528134,-0.09967664,-0.23904786,0.13181362,-0.1507196,0.22938418,0.2273911,-0.24100457,0.14514378,-0.25149095,0.24138057,-0.18813793,0.18211229,-0.14530826,-0.24613377,0.19032621,0.174636,0.1364417,-0.2374269,0.15750399
friture,-0.30852124,-0.35397395,-0.3595651,0.35927886,-0.4153722,0.3904752,0.30555663,-0.37079155,0.34461975,-0.3975018,0.3618387,-0.30258632,0.3172257,-0.40191048,-0.3380121,0.3366657,0.32990283,0.380915,-0.43483162,0.31192788
gingembre,-0.29657567,0.20360541,-0.42353818,0.3253569,-0.39025295,0.28821734,0.33944783,-0.30937356,0.29835308,-0.31806263,0.33368862,-0.3117144,0.3671256,-0.27261105,-0.34050155,0.35894182,0.3502077,0.3527671,-0.35052222,0.22471523
rance,-0.26344857,-0.2653188,-0.28822517,0.24917665,-0.2979107,0.28559402,0.36167467,-0.30444646,0.25138536,-0.33359703,0.22186495,-0.3815235,0.2572569,-0.25038114,-0.2516926,0.32644203,0.34016544,0.25690818,-0.20075014,0.3526569
brandy,-0.29356852,-0.08903744,-0.1995225,0.26023364,-0.25829497,0.28989235,0.25308955,-0.27096766,0.30823797,-0.3336305,0.21696717,-0.23851803,0.1975764,-0.24208209,-0.27172822,0.2863199,0.21407637,0.24693292,-0.24917513,0.20772469
oignoncuit,-0.34818637,-0.4767813,-0.41396236,0.4079964,-0.43423408,0.4858932,0.46162167,-0.40995342,0.46355155,-0.36407697,0.26447892,-0.35697234,0.3046558,-0.325342,-0.30250666,0.33645618,0.41480964,0.39937168,-0.39047104,0.3900667
cassis,-0.33924687,-0.011232749,-0.3488651,0.27901077,-0.19384336,0.3276958,0.30827492,-0.2696888,0.22162154,-0.30058527,0.30439645,-0.24716821,0.28748274,-0.35302675,-0.26559645,0.29431003,0.27829713,0.26330304,-0.2865397,0.31781477
thym,-0.24302937,-0.12617296,-0.2716732,0.19822574,-0.22628868,0.21611586,0.23442599,-0.23863973,0.2871526,-0.25526524,0.15903893,-0.21613422,0.1376021,-0.22982903,-0.23347709,0.27335212,0.15269953,0.17531428,-0.17904837,0.26843226
fleurdetroëne,-0.24521506,-0.2662376,-0.34377357,0.21369916,-0.24676901,0.24624342,0.26228195,-0.25039294,0.31173408,-0.32287714,0.20340504,-0.36508772,0.21744892,-0.27758145,-0.26482716,0.22105236,0.30652758,0.22382897,-0.34823626,0.30790994
noixdemuscade,-0.37291873,0.124429405,-0.3707217,0.33862865,-0.2863169,0.40410468,0.4489873,-0.35891068,0.35136795,-0.44249237,0.3146169,-0.38006327,0.37373862,-0.40028247,-0.41109854,0.360897,0.27901947,0.34092894,-0.3676531,0.2919944
carvi,-0.24176353,0.05587526,-0.30374587,0.3987384,-0.29948312,0.31022465,0.318822,-0.28955066,0.25834185,-0.33496016,0.3700972,-0.27490824,0.32933995,-0.32423595,-0.30823368,0.2437324,0.23094752,0.34788793,-0.24910878,0.31767476
buchu,-0.24514967,-0.08468096,-0.2885909,0.26029813,-0.2865424,0.24783984,0.21481746,-0.2713402,0.30537838,-0.23625992,0.20191771,-0.29398566,0.3093552,-0.21624312,-0.2313242,0.23750499,0.28981966,0.21749869,-0.2959683,0.26464972
rhubarbe,-0.21965757,-0.20101604,-0.29028174,0.31773433,-0.20914903,0.18909916,0.28464654,-0.24085844,0.3416168,-0.20551816,0.14425415,-0.22667941,0.16122594,-0.281499,-0.22233424,0.21527125,0.23361892,0.24209683,-0.27470165,0.20672846
tubéreuse,-0.19596733,-0.22987454,-0.20622396,0.2518814,-0.22860242,0.21199757,0.2505627,-0.20343938,0.30356944,-0.13142437,0.26150367,-0.21595418,0.26413786,-0.24007976,-0.25845894,0.19090514,0.31766257,0.27634537,-0.32686412,0.21138215
gaz,-0.18050522,-0.24160674,-0.31623596,0.26790142,-0.27434835,0.26233372,0.18076375,-0.20195529,0.34435892,-0.25123,0.22094563,-0.34144917,0.20959055,-0.28925645,-0.24552579,0.28806636,0.26944038,0.3229971,-0.27323163,0.20915306
noix,-0.27159822,-0.21690692,-0.2775047,0.2530687,-0.30016,0.20851326,0.24120659,-0.26825687,0.26453245,-0.26930773,0.16246444,-0.28155476,0.14734146,-0.2926538,-0.19316754,0.2932353,0.23364669,0.23294872,-0.25861531,0.19536936
humus,-0.22688127,-0.22528476,-0.28275633,0.2811764,-0.25621083,0.22952032,0.20333612,-0.2551496,0.21669799,-0.2969231,0.20456289,-0.17666566,0.2300975,-0.26252428,-0.24779087,0.14659286,0.22152524,0.20864832,-0.24424139,0.2374588
mûre,-0.2957322,-0.037926473,-0.17748645,0.21260035,-0.24635896,0.3220148,0.29656193,-0.18207234,0.3078571,-0.25953907,0.22372746,-0.2592355,0.3219397,-0.27707878,-0.2501123,0.21060807,0.18967345,0.2641522,-0.26227266,0.18156812
héliotrope,-0.30528128,-0.13183284,-0.34544557,0.3161484,-0.34302375,0.31127924,0.25605673,-0.3483711,0.4244541,-0.37849122,0.36906028,-0.38040864,0.2855525,-0.37354928,-0.3869899,0.3730693,0.3805895,0.42785293,-0.37973872,0.3805648
styrax,-0.29537925,0.072590336,-0.18913852,0.26315534,-0.20003387,0.23957166,0.21391094,-0.23777007,0.23068577,-0.23754027,0.1894311,-0.25112963,0.20874238,-0.21007207,-0.23678666,0.28881517,0.17220262,0.2486256,-0.20617548,0.22435565
pastèque,-0.41655916,-0.39173883,-0.31997636,0.4048525,-0.3087313,0.37971288,0.3624662,-0.36281472,0.38230646,-0.34614944,0.30278397,-0.32369035,0.35048383,-0.35062194,-0.39426756,0.3516608,0.30306125,0.32492226,-0.34978417,0.36450392
bacon,-0.30389136,-0.12702732,-0.3024876,0.37000227,-0.29591736,0.2663189,0.32963896,-0.2416786,0.28310314,-0.24079129,0.33630747,-0.30722204,0.37141836,-0.23947823,-0.32413167,0.24017894,0.3732589,0.3325191,-0.27070916,0.3199981
algue,-0.22346751,-0.18853463,-0.2658803,0.23622708,-0.20674554,0.15363875,0.26298976,-0.25824,0.26205367,-0.27072734,0.2287817,-0.2920045,0.24742971,-0.23438203,-0.25753176,0.24701262,0.29061162,0.27037102,-0.2699964,0.22221214
safran,-0.14678816,-0.09867366,-0.2586281,0.24570888,-0.1551586,0.15084824,0.10662022,-0.1463837,0.18002635,-0.1356787,0.26123965,-0.1815612,0.12801212,-0.22245112,-0.20288837,0.12776914,0.112748615,0.22347325,-0.18104088,0.17090368
sucrebrûlé,-0.18408087,-0.21395312,-0.23647642,0.23592879,-0.1344294,0.2020326,0.1800052,-0.16936116,0.17769004,-0.22270703,0.22474173,-0.2037494,0.12607731,-0.25208578,-0.13417885,0.12198743,0.15168004,0.16165212,-0.21909508,0.13203155
bière,-0.3128835,-0.12257608,-0.3809682,0.28766257,-0.27316517,0.31135905,0.30839658,-0.31087953,0.23009588,-0.28124082,0.3416962,-0.280946,0.27304333,-0.31694806,-0.240159,0.33797604,0.30809253,0.32680774,-0.27712703,0.28090262
fécal,-0.38127822,0.18220748,-0.3551929,0.28053635,-0.30637413,0.31937122,0.34988868,-0.32644328,0.2861976,-0.3114329,0.23963767,-0.26704523,0.34704334,-0.2917981,-0.3441842,0.37392974,0.2644531,0.3253491,-0.36633927,0.33631092
asperge,-0.19418795,-0.11381227,-0.19072959,0.19044569,-0.29740384,0.31322467,0.22290096,-0.28790808,0.30370945,-0.33634266,0.27699006,-0.2114217,0.2294775,-0.24216755,-0.31195432,0.30299982,0.28332752,0.21195437,-0.33022362,0.2686963
chrysanthème,-0.20572284,-0.16968068,-0.19332638,0.26792306,-0.23059681,0.15713257,0.13455181,-0.26185784,0.26262054,-0.23091157,0.20809054,-0.1823299,0.2405946,-0.25628054,-0.21807198,0.22535634,0.2598123,0.21912697,-0.19215319,0.21356478
graissedepoulet,-0.417499,-0.28595448,-0.42578173,0.39867237,-0.43841296,0.3631333,0.374453,-0.4460717,0.41623133,-0.38249654,0.29207432,-0.3536846,0.38886982,-0.34701973,-0.42351305,0.33867028,0.41445675,0.36150742,-0.4197575,0.4735828
caramelaubeurre,-0.37114117,-0.23168945,-0.282876,0.23809843,-0.350836,0.28737205,0.34064144,-0.32238126,0.3584655,-0.3277614,0.3976611,-0.34312382,0.28293365,-0.2997532,-0.23883535,0.361526,0.3600798,0.25705832,-0.3638431,0.25528106
genévrier,-0.3425979,-0.032874677,-0.3386334,0.34206188,-0.30658358,0.33346972,0.27914083,-0.23259184,0.30790663,-0.31258333,0.36091828,-0.25426295,0.27178186,-0.33290687,-0.23398116,0.35497123,0.26518857,0.35775188,-0.23729476,0.2655978
saindoux,-0.30503136,-0.41191036,-0.28432038,0.27129775,-0.3826476,0.36486602,0.29115123,-0.3880146,0.38511717,-0.34042728,0.31988764,-0.31308663,0.29596806,-0.28979105,-0.3828931,0.35854527,0.27176988,0.34532267,-0.37172186,0.31361383
myrrhe,-0.3195324,0.0014681257,-0.18304828,0.20859441,-0.21455309,0.29611152,0.21184498,-0.32188195,0.24608678,-0.2124746,0.2946087,-0.22609866,0.20511399,-0.2345734,-0.21248503,0.23374161,0.18454629,0.2557705,-0.18610346,0.29839045
kiwi,-0.26444805,-0.28080505,-0.28931317,0.32251343,-0.2996577,0.3507813,0.24395597,-0.30345124,0.35481614,-0.26565522,0.25351077,-0.25948212,0.2286853,-0.29487026,-0.2827867,0.2716683,0.23820357,0.29590377,-0.27533054,0.31294316
goyave,-0.21758103,-0.03571935,-0.2365619,0.2735546,-0.2716152,0.2728511,0.27002916,-0.23692575,0.2882803,-0.31119955,0.2200839,-0.36274624,0.23924476,-0.23929095,-0.3204775,0.27109468,0.25839788,0.31800517,-0.31489813,0.31565827
estragon,-0.3190423,-0.2514336,-0.23465899,0.23749733,-0.36867934,0.28720495,0.3256992,-0.34971726,0.29579598,-0.3512383,0.29832113,-0.27514356,0.26359224,-0.25638062,-0.32942018,0.30698538,0.38309485,0.28545755,-0.27730978,0.2726301
carotte,-0.2140482,0.04666321,-0.25630337,0.21072358,-0.29401565,0.22703257,0.26263556,-0.20359199,0.2643556,-0.31818378,0.215181,-0.1612514,0.23663843,-0.24700233,-0.30127013,0.2667207,0.22796686,0.26601362,-0.29901466,0.18591267
bananeverte,-0.31461626,-0.13237022,-0.22054723,0.27486557,-0.31486923,0.35731196,0.30017644,-0.29317433,0.2842348,-0.2592974,0.26185283,-0.23777947,0.23534012,-0.2669025,-0.3236121,0.301771,0.328166,0.2568232,-0.2584039,0.19911194
céréale,-0.19370511,-0.18367894,-0.25670674,0.19837093,-0.21318763,0.18687376,0.19493023,-0.18759699,0.25358212,-0.25088996,0.2976251,-0.18523054,0.17880788,-0.22338486,-0.2524597,0.18729731,0.22184509,0.154764,-0.22020337,0.22762287
pivoine,-0.1518569,-0.17287707,-0.21123174,0.2204988,-0.23666449,0.19585386,0.25669947,-0.20368521,0.24886882,-0.24677151,0.2624004,-0.23236495,0.20427053,-0.2654996,-0.2148336,0.13329509,0.22083688,0.20107839,-0.25467595,0.2540352
bœufcuit,-0.25807348,-0.25891846,-0.17074272,0.22436363,-0.24895391,0.3180618,0.22753248,-0.23350246,0.24876022,-0.25666657,0.26327097,-0.17007582,0.25861552,-0.2534834,-0.27082402,0.26801324,0.29583964,0.2691341,-0.29774898,0.19576184
grain,-0.2799282,-0.19162202,-0.3070442,0.33419842,-0.24808212,0.31456643,0.38483816,-0.2891705,0.3443838,-0.37476397,0.30159786,-0.33514845,0.29788917,-0.30455557,-0.28816313,0.27740693,0.28667146,0.23803642,-0.37914038,0.29727453
livèche,-0.31754607,-0.15955004,-0.2828573,0.24291997,-0.3346699,0.3874259,0.30920038,-0.3114641,0.31373832,-0.26724178,0.28272492,-0.23863664,0.32230186,-0.31767583,-0.26646867,0.27022597,0.36237276,0.27927792,-0.28649384,0.34067252
poivrenoir,-0.18074086,-0.020217136,-0.27557868,0.22230008,-0.30850726,0.28532904,0.28797412,-0.24774985,0.1783931,-0.27760407,0.21316126,-0.25952673,0.23391058,-0.19739716,-0.19964331,0.21825951,0.19214024,0.2507102,-0.22650106,0.23288414
chèvrefeuille,-0.29657376,-0.19618604,-0.24156195,0.22791508,-0.27809632,0.29647064,0.26659772,-0.27155417,0.2653794,-0.31058773,0.27070528,-0.36281183,0.2479861,-0.32643622,-0.18345462,0.23754123,0.30418682,0.2824017,-0.30371365,0.33912152
cardamome,-0.2367881,0.039364047,-0.21010658,0.2013534,-0.17153195,0.19481383,0.25298315,-0.22792882,0.144773,-0.23892722,0.21135662,-0.31453997,0.22039247,-0.23120385,-0.27438462,0.18866643,0.21858566,0.19209792,-0.27195397,0.16072701
pommedeterrecuite,-0.29998642,-0.17681894,-0.1811284,0.2645855,-0.21127568,0.25361308,0.23437443,-0.1859935,0.26682717,-0.33006412,0.27530104,-0.22554857,0.2296696,-0.20368065,-0.27680972,0.24147172,0.25083494,0.3052739,-0.28482145,0.27608043
fenugrec,-0.25131422,-0.21309298,-0.36598593,0.24552026,-0.27580756,0.27252018,0.28113502,-0.30668443,0.24042533,-0.29982248,0.3640362,-0.22987255,0.32649115,-0.2826245,-0.33265802,0.294865,0.29177576,0.27213222,-0.25325269,0.27715275
eaudecologne,-0.30053872,-0.13207304,-0.23177867,0.23278183,-0.35090414,0.25204343,0.3046044,-0.24547794,0.25354087,-0.24766174,0.2467489,-0.2785141,0.19841427,-0.27771133,-0.22967094,0.23596169,0.26968384,0.24336559,-0.2573835,0.22533996
artichaut,-0.14579162,-0.01271949,-0.169699,0.2153809,-0.27710342,0.28660047,0.18211955,-0.28667372,0.20401514,-0.29786852,0.19022468,-0.18804276,0.14475074,-0.2129566,-0.17831284,0.24568409,0.19025278,0.18611458,-0.22743252,0.27067333
fleurdacacia,-0.29086664,-0.077998236,-0.2173377,0.22145906,-0.23848307,0.2512017,0.28745756,-0.22652915,0.2547928,-0.29617625,0.30326045,-0.23955292,0.29600275,-0.22209875,-0.20621386,0.25852013,0.3073341,0.259102,-0.26169193,0.25159028
sciure,-0.23481925,-0.01828083,-0.27241522,0.25397065,-0.22434798,0.18106198,0.20443603,-0.20718011,0.21110049,-0.19753426,0.2236901,-0.22812884,0.23765035,-0.20965183,-0.25777406,0.21978459,0.2831537,0.20361581,-0.23977809,0.20061599
papaye,-0.2620752,-0.15481707,-0.32285434,0.25377348,-0.17617676,0.29866046,0.26942053,-0.24325636,0.20640904,-0.30701327,0.22180875,-0.25015777,0.2767184,-0.28801727,-0.26150447,0.22920138,0.3346856,0.3253423,-0.26287362,0.266957
wasabi,-0.1487514,-0.19406381,-0.16218379,0.15930805,-0.12096621,0.15790899,0.16901076,-0.20426574,0.21124655,-0.14878738,0.21889313,-0.12487939,0.12853543,-0.17777094,-0.09344244,0.19298674,0.14974523,0.14047348,-0.20035324,0.14306715
fruitdemer,-0.26850337,-0.265981,-0.23106888,0.22530323,-0.23481312,0.22326419,0.31745818,-0.22810985,0.21637176,-0.2170197,0.23539293,-0.23456925,0.20916338,-0.26859796,-0.20876649,0.2606697,0.24072558,0.2748699,-0.22458571,0.21560216
trèfle,-0.19533959,-0.16461253,-0.1452263,0.16235977,-0.21438164,0.23279533,0.20986748,-0.23912632,0.22543104,-0.18641743,0.16110879,-0.17495468,0.20295914,-0.18805316,-0.20810767,0.26983023,0.12513837,0.13364294,-0.16201276,0.21595216
feuilledetomate,-0.19451587,-0.17240539,-0.20070297,0.17803478,-0.20359606,0.24843842,0.087983616,-0.17719556,0.17732525,-0.20566523,0.1808151,-0.22927336,0.1849906,-0.23671049,-0.25199625,0.20384064,0.21889314,0.16265944,-0.23781013,0.11207324
aneth,-0.25884807,-0.06614971,-0.26114428,0.22423679,-0.25349164,0.25983,0.20339498,-0.23325376,0.1575878,-0.29245272,0.19578442,-0.23150873,0.27888706,-0.1950949,-0.2783919,0.16642016,0.221656,0.23662262,-0.13559604,0.21731648
porccuit,-0.36326993,-0.25100723,-0.27091062,0.24079058,-0.31359762,0.30922008,0.34030294,-0.27681804,0.29104024,-0.2913391,0.24174005,-0.2399055,0.3064586,-0.31207466,-0.34135193,0.28957966,0.28062934,0.25390598,-0.22068739,0.19575658
acrylate,-0.15199587,-0.060443323,-0.1993759,0.23938131,-0.12341331,0.2410584,0.23744892,-0.2071135,0.28512996,-0.17254195,0.21566637,-0.23548128,0.18553358,-0.26764166,-0.18826395,0.19888306,0.24081916,0.11168756,-0.19121939,0.15482876
castoréum,-0.21862733,-0.069908515,-0.20459859,0.22238019,-0.2672011,0.18861818,0.2411993,-0.24458644,0.2263745,-0.1799387,0.17771427,-0.25356564,0.22417599,-0.19120316,-0.2849934,0.20391473,0.14371562,0.24550742,-0.16670743,0.18975656
civette,-0.26559907,0.27801594,-0.24400792,0.25895733,-0.20504826,0.23712532,0.21040134,-0.1992158,0.23766735,-0.26200098,0.2842332,-0.25894424,0.28588653,-0.26016867,-0.29363048,0.27571213,0.1716721,0.23583704,-0.20954311,0.24095735
mélasse,-0.14138502,-0.19527626,-0.13444401,0.17262095,-0.21456683,0.10520452,0.19426534,-0.18878913,0.20759958,-0.08411959,0.17227946,-0.18938158,0.20019794,-0.15020847,-0.17402974,0.12715374,0.09003745,0.14369224,-0.14590286,0.12911107
absinthe,-0.1178447,-0.071888976,-0.13765919,0.07452244,-0.0979586,0.18102938,0.05753192,-0.14406861,0.135593,-0.13045079,0.16746168,-0.1624308,0.107401714,-0.16292989,-0.12497957,0.07173666,0.13035321,0.20799372,-0.11900054,0.07607277
haricotvert,-0.24288498,-0.17159897,-0.31150413,0.17725813,-0.19426838,0.2611965,0.22890991,-0.24410993,0.25854024,-0.25024602,0.19956002,-0.20002759,0.27611288,-0.22387539,-0.22352496,0.26959682,0.29073358,0.22038683,-0.2857628,0.20885243
barbeàpapa,-0.33832967,-0.19794543,-0.21855226,0.36895853,-0.303816,0.270171,0.28285325,-0.3202495,0.3339198,-0.30277145,0.31497467,-0.2942471,0.2290554,-0.3076377,-0.20998544,0.26363742,0.2791409,0.22107917,-0.32791835,0.333179
chèvre,-0.18277712,-0.24003796,-0.15711787,0.19034304,-0.24779741,0.261436,0.2700888,-0.25373888,0.21526968,-0.26522267,0.19092198,-0.16810073,0.238827,-0.16439292,-0.20649382,0.27244192,0.19303729,0.27287018,-0.19706282,0.1465086
bouillondelégumes,-0.25521186,-0.13085333,-0.17286503,0.15194611,-0.16422671,0.21813555,0.2812503,-0.16570148,0.215167,-0.1589946,0.09021963,-0.16267946,0.14383832,-0.15999904,-0.20251276,0.20061667,0.27827317,0.14527938,-0.09966178,0.17952
ciste,-0.13787922,0.049812336,-0.15818083,0.17843881,-0.20109229,0.17465477,0.20607165,-0.16040911,0.1560297,-0.1418513,0.1490016,-0.24965179,0.113562025,-0.17883213,-0.20561779,0.14129837,0.14749014,0.15824169,-0.17840831,0.1348619
tagete,-0.2371448,-0.20510069,-0.25025773,0.17441139,-0.19437733,0.30125043,0.19798681,-0.2779181,0.24939775,-0.30058578,0.17467986,-0.20583624,0.2754082,-0.19011149,-0.20886193,0.26945835,0.25565237,0.30698118,-0.26138398,0.26788858
cerfeuil,-0.26968992,-0.09631491,-0.2453976,0.21595505,-0.26099774,0.32211888,0.2853713,-0.21198359,0.2598195,-0.2119109,0.16226791,-0.27841032,0.16483974,-0.30366558,-0.2912994,0.16654444,0.32272017,0.21358995,-0.23070896,0.31864786
essence,-0.26918325,-0.13158031,-0.20993727,0.098075256,-0.13673556,0.115410924,0.16273084,-0.25676018,0.21285842,-0.15229088,0.24230182,-0.24045342,0.1711976,-0.14541793,-0.10566897,0.18491718,0.19175795,0.24659532,-0.09487264,0.18154308
poireau,-0.22607508,-0.26171362,-0.21774124,0.24746773,-0.28976154,0.26049298,0.2254677,-0.21021463,0.17740059,-0.19350424,0.13337831,-0.25356284,0.25462914,-0.25092345,-0.12748435,0.20059475,0.25866616,0.24349576,-0.30486268,0.20491308
cyclamen,-0.14372543,-0.052638225,-0.13965756,0.1795871,-0.07459165,0.16678822,0.13419172,-0.16415292,0.20159104,-0.12989789,0.09370516,-0.100466266,0.04940682,-0.11950821,-0.10399475,0.09313107,0.19997963,0.17570758,-0.09934709,0.13554347
persil,-0.19868514,-0.15895891,-0.23954692,0.17246917,-0.17498818,0.23088928,0.23850961,-0.18237388,0.25538754,-0.26980227,0.22891936,-0.27723968,0.15061401,-0.21243754,-0.18009609,0.3023079,0.16693696,0.21754159,-0.21222371,0.19904676
acétique,-0.19526017,-0.025656259,-0.20547518,0.24263,-0.15524566,0.14759743,0.17874172,-0.17207752,0.28899914,-0.15579413,0.16812739,-0.2703247,0.24928841,-0.19096428,-0.11935805,0.26109144,0.18131246,0.18784654,-0.19588703,0.21617398
saladeverte,-0.13166529,-0.14532755,-0.20796627,0.112032786,-0.16518275,0.15770695,0.09942661,-0.13374013,0.1710857,-0.17097175,0.1682271,-0.08911494,0.097173885,-0.16663492,-0.17672555,0.18996176,0.18278246,0.17639573,-0.14157711,0.15593277
peinture,-0.23418796,-0.18461376,-0.20431775,0.20796762,-0.2239621,0.17807238,0.24697275,-0.2537124,0.13307065,-0.24676916,0.1841788,-0.15160409,0.17752337,-0.1741927,-0.21653393,0.22741842,0.24950995,0.14626992,-0.20184845,0.20940715
carvone,-0.19790222,-0.051199477,-0.1406958,0.22308493,-0.19812469,0.22962053,0.22005391,-0.22559041,0.21764216,-0.22021091,0.19834389,-0.20747492,0.21276093,-0.24308766,-0.1331273,0.17343621,0.20283008,0.27760226,-0.23194629,0.2737987
truffe,-0.08372851,-0.12844223,-0.055252437,0.090575844,-0.1581446,0.1276064,0.080806695,-0.17301449,0.09015672,-0.14880018,0.024101317,-0.11856913,0.18101801,-0.114773385,-0.041736532,0.09344537,0.11649011,0.04833991,-0.050991338,0.13299546
freesia,-0.118713155,-0.08094892,-0.10621093,0.18325776,-0.21959323,0.23711088,0.19677353,-0.12333013,0.23164652,-0.13814272,0.18796353,-0.18321867,0.11189817,-0.0962366,-0.105501965,0.1399123,0.19343409,0.19921783,-0.24751279,0.12625948
graintorréfié,-0.22655724,-0.30150926,-0.15919358,0.2777253,-0.27000642,0.18029623,0.23444188,-0.19392686,0.22839792,-0.20578548,0.17691785,-0.18256381,0.17362574,-0.1631977,-0.23128083,0.29325855,0.22817391,0.26038364,-0.2873689,0.21766701
costarde,-0.17675126,-0.1731772,-0.103177674,0.10728492,-0.17987747,0.15589607,0.092308715,-0.1016243,0.21050115,-0.18380912,0.13627094,-0.1115503,0.16582608,-0.11389889,-0.20208398,0.20424254,0.10026788,0.21059409,-0.20219074,0.14416988
figue,-0.15318033,-0.0059919506,-0.15856479,0.19426903,-0.21992633,0.11275784,0.2396194,-0.15482655,0.25190434,-0.22860844,0.20416534,-0.11195039,0.15640143,-0.1891412,-0.20165661,0.1073354,0.14233762,0.12895,-0.21789584,0.19496837
boisbrûlé,-0.24623656,0.046627015,-0.180602,0.2384941,-0.1980873,0.24193293,0.2611363,-0.2465988,0.24313611,-0.3212162,0.2647059,-0.28530872,0.2276473,-0.17316931,-0.25854507,0.17199737,0.2705043,0.19179046,-0.2353839,0.146727
jambon,-0.24532932,-0.09408106,-0.2706823,0.26749077,-0.21876559,0.22290991,0.2668227,-0.1731911,0.22686026,-0.13857917,0.20424548,-0.20489836,0.22480527,-0.22938532,-0.22383632,0.21610126,0.2214164,0.19697788,-0.21128514,0.1804191
térébenthine,-0.26172054,-0.037613958,-0.18853942,0.28872484,-0.2693655,0.25937867,0.23671731,-0.23963763,0.20335424,-0.22230116,0.20849481,-0.19351295,0.19611683,-0.18286842,-0.15163472,0.2305626,0.23925695,0.13560018,-0.1789948,0.16743141
noixdecajou,-0.17582011,-0.075580016,-0.14579281,0.16003075,-0.16598469,0.18360609,0.2029083,-0.21644787,0.1509977,-0.118339755,0.17791076,-0.106263265,0.16019942,-0.17376637,-0.17933156,0.19024648,0.18655694,0.09553763,-0.13983499,0.20089509
menthe,-0.21549089,-0.07246845,-0.20302321,0.18557076,-0.26826966,0.18519627,0.19574504,-0.19762805,0.23525447,-0.23903343,0.15005188,-0.1571108,0.21547385,-0.13640575,-0.18541253,0.15910053,0.19613336,0.16205487,-0.23543492,0.15475416
agneau,-0.25145394,-0.29133072,-0.21420996,0.25582078,-0.25262243,0.22863472,0.19557732,-0.2010085,0.18618898,-0.22980092,0.2584619,-0.21186833,0.31296015,-0.2694763,-0.195909,0.25225785,0.2643837,0.21312326,-0.289208,0.17018735
croûtedepain,-0.123573184,-0.24381459,-0.16464262,0.21450233,-0.10302538,0.07468854,0.23121798,-0.17076707,0.10943306,-0.107163236,0.09688197,-0.16697313,0.16118366,-0.15667295,-0.17275164,0.15886661,0.17241733,0.16687563,-0.14467594,0.14202455
galanga,-0.21421921,0.01932742,-0.1515078,0.18517779,-0.23895559,0.13677943,0.11620782,-0.23042233,0.14476539,-0.218346,0.21523592,-0.19451249,0.112523735,-0.18605806,-0.13523227,0.17152843,0.23452319,0.20233345,-0.14579137,0.11806041
canneberge,-0.1882019,0.08163419,-0.15999703,0.13780223,-0.13326553,0.21213514,0.1594165,-0.13148509,0.18819195,-0.17337292,0.14019775,-0.14923796,0.15902898,-0.20098622,-0.0718438,0.14809445,0.12695718,0.22170062,-0.117795095,0.20636752
réséda,-0.16965802,-0.16325322,-0.15432128,0.044307142,-0.089573056,0.04397503,0.19225004,-0.070675015,0.1642575,-0.084371336,0.1714189,-0.12298093,0.06242432,-0.1332937,-0.2044074,0.10527096,0.14047575,0.10431506,-0.13296819,0.18519878
sang,-0.13715163,-0.18934451,-0.12212045,0.15712613,-0.13103771,0.06878734,0.16993678,-0.11778845,0.16892903,-0.09904823,0.0593168,-0.15494311,0.17387544,-0.16194603,-0.14678012,0.033482302,0.173994,0.12007587,-0.07695528,0.10356787
immortelle,-0.09717238,-0.16008481,-0.11218398,0.16984656,-0.14474577,0.0759117,0.12860346,-0.16805676,0.047641087,-0.14281316,0.20257019,-0.1949341,0.13706513,-0.079203755,-0.15730059,0.17403772,0.20163669,0.2046352,-0.13171461,0.05528559
forêt,-0.18127263,-0.16091749,-0.12755235,0.064910665,-0.14831728,0.2177445,0.11867007,-0.23881635,0.10738939,-0.17502359,0.17407149,-0.13968125,0.19563156,-0.20905674,-0.17585856,0.16340122,0.21042663,0.13420846,-0.104994155,0.16586724
cyprès,-0.13035372,-0.04782218,-0.14614275,0.13964537,-0.17474231,0.095547386,0.17665489,-0.12538859,0.18427055,-0.22000489,0.19621465,-0.13838698,0.17949721,-0.1834464,-0.27009785,0.15912095,0.13285619,0.22014774,-0.17657436,0.14642826
boronia,-0.19889826,-0.03481724,-0.14927658,0.15395834,-0.20821029,0.1854197,0.09996971,-0.16022366,0.16215435,-0.20144625,0.14445484,-0.2008802,0.16307077,-0.19580644,-0.118633,0.22503988,0.13404188,0.17116189,-0.18179627,0.25878027
marjolaine,-0.16386352,0.012252382,-0.19370532,0.1191908,-0.1743896,0.055722877,0.14727867,-0.14878705,0.18506458,-0.14930497,0.13410252,-0.114504315,0.19240716,-0.1112245,-0.15261899,0.050548438,0.17143157,0.21884003,-0.1386321,0.13426566
cidre,-0.22055927,-0.11777647,-0.22739379,0.20487747,-0.20317423,0.19754285,0.1536023,-0.11405868,0.14270394,-0.16694608,0.18320112,-0.20040463,0.16482526,-0.115668446,-0.16890505,0.20484349,0.20005873,0.14817336,-0.24524084,0.23641431
acétone,-0.17413959,-0.05227428,-0.08728997,0.16559538,-0.08321507,0.053940356,0.12308371,-0.093152806,0.07220066,-0.12340577,0.12602425,-0.1281408,0.10911366,-0.06503479,-0.05386293,0.15845188,0.16318402,0.06105379,-0.07537284,0.100043684
palourde,-0.19715473,-0.16390327,-0.152282,0.24313587,-0.20955603,0.25095046,0.10175099,-0.1321066,0.2738437,-0.21261846,0.13755392,-0.20837948,0.14425649,-0.14583474,-0.14953414,0.16105425,0.18277392,0.17214978,-0.20339677,0.28259516
chocolatnoir,-0.21631658,-0.22799462,-0.18199971,0.18821937,-0.16884302,0.20352368,0.19590417,-0.20939906,0.15500976,-0.1749892,0.22822207,-0.20277369,0.255211,-0.20366794,-0.21939033,0.2435088,0.22955567,0.21684383,-0.25596583,0.18972743
cresson,-0.16777253,-0.093553446,-0.14309241,0.13909952,-0.059530765,0.15055619,0.20663506,-0.1383096,0.15129244,-0.10011775,0.062552996,-0.111416906,0.060670443,-0.18906242,-0.17489782,0.22380757,0.19414985,0.19459707,-0.14328724,0.07327668
groseille,-0.07412268,0.007732503,-0.14420371,0.2146612,-0.07121189,0.0998217,0.14784753,-0.032312237,0.106842965,-0.041826107,0.094637536,-0.19840491,0.08621395,-0.14868501,-0.1459166,0.21514702,0.12801357,0.05786836,-0.14412902,0.17629509
verveine,-0.07976344,-0.109484255,-0.03996791,0.10762748,-0.070576474,0.06745133,0.074146315,-0.024088059,0.13572857,-0.031012978,0.012086222,-0.046980534,0.021926617,-0.10060501,-0.018187508,0.11306694,0.04065351,0.0755643,-0.07115549,0.031984556
fromagebleu,-0.19046886,-0.14410537,-0.22952545,0.09283066,-0.16000389,0.17167103,0.1421588,-0.15092559,0.09485144,-0.06953992,0.24103513,-0.2393609,0.0997138,-0.1668449,-0.17647648,0.12740561,0.116572164,0.11824107,-0.06046098,0.16377717
sèvedepin,-0.24935403,-0.032648437,-0.123558894,0.17380005,-0.22542214,0.19254893,0.18571432,-0.13077046,0.25644374,-0.22508526,0.20744301,-0.21515542,0.2142523,-0.13592133,-0.11314885,0.16707343,0.1345932,0.19528858,-0.1458575,0.19446349
petitspois,-0.15860578,-0.24833019,-0.23015583,0.22600135,-0.18627955,0.1617351,0.1784547,-0.18475732,0.19087514,-0.10279824,0.1159655,-0.1733642,0.12346363,-0.17675468,-0.13154691,0.22022063,0.14012079,0.2560964,-0.15463513,0.14381006
pommecuite,-0.16735713,-0.18760431,-0.17158577,0.18414086,-0.13804722,0.18661162,0.14401762,-0.14317428,0.14823076,-0.08625765,0.23533598,-0.17515635,0.18216893,-0.15462302,-0.14990202,0.11763109,0.19383794,0.18268678,-0.16998821,0.2223469
médical,-0.1527151,-0.045128036,-0.11502221,0.16020478,-0.16424844,0.12777363,0.084030524,-0.16040337,0.09336508,-0.13220568,0.15193945,-0.086026326,0.15477166,-0.16512984,-0.14697172,0.17845806,0.11825241,0.09884399,-0.16547439,0.09389506
coquillage,-0.13113542,-0.18818653,-0.0910546,0.15235792,-0.08358526,0.08957638,0.07197295,-0.15294655,0.09455282,-0.19741748,0.10011698,-0.20847234,0.16845024,-0.09855679,-0.15454017,0.1358333,0.09022962,0.11900656,-0.18618952,0.12052278
fleurdetilleul,-0.06577048,-0.11516072,-0.14011222,0.15480123,-0.11357667,0.13567498,0.16321725,-0.13890386,0.12719476,-0.119403675,0.15009068,-0.13338783,0.049074486,-0.15975994,-0.16022444,0.11144094,0.12084814,0.16039006,-0.16938545,0.042174466
poisdesenteur,-0.15510839,-0.094602734,-0.12796113,0.18040942,-0.12021373,0.17156771,0.1441128,-0.16160305,0.18524444,-0.18588935,0.07544668,-0.1325377,0.16349441,-0.20289034,-0.14139956,0.18287978,0.100773335,0.1587425,-0.1903644,0.16215971
amandetorréfiée,-0.08019604,-0.18807112,-0.096112594,0.08141433,-0.13833216,0.13274851,0.107910946,-0.12858218,0.14105752,-0.15106082,0.06863182,-0.15676221,0.12826271,-0.106511846,-0.101316765,0.18361807,0.10267028,0.2052815,-0.15449485,0.07799521
moufette,-0.14445022,-0.22511688,-0.12422992,0.13761568,-0.11947721,0.14068247,0.14747937,-0.13854186,0.15643355,-0.18215635,0.16269714,-0.15839094,0.18032366,-0.17826712,-0.06852382,0.08572767,0.20316482,0.1408799,-0.19622898,0.15329488
cubèbe,-0.13483731,0.047810655,-0.14492953,0.11240834,-0.21900699,0.11447431,0.20742881,-0.19091883,0.07261248,-0.18020666,0.109991655,-0.15510803,0.07655004,-0.14992502,-0.16137858,0.16941324,0.20318627,0.22057861,-0.079443604,0.20008317
boisdagar,-0.14290826,0.043143652,-0.04526183,0.12808545,-0.09740252,0.06216588,0.036257092,-0.07033345,0.14351177,-0.055044003,0.13018711,-0.095731534,0.09454037,-0.0503419,-0.09866634,0.094959036,0.1621022,0.15258305,-0.17532665,0.092123985
litchi,-0.1301573,-0.14928451,-0.101624325,0.08795371,-0.15775654,0.116220534,0.05208931,-0.112196326,0.10112625,-0.10940312,0.07004826,-0.114657246,0.10585715,-0.10791375,-0.12246746,0.13589385,0.15138628,0.1258967,-0.062499486,0.04827411
choucroute,-0.20337884,-0.16279693,-0.15962127,0.18438876,-0.23391111,0.17038146,0.22221482,-0.18535134,0.16400898,-0.18088949,0.13226318,-0.18126824,0.15140903,-0.13413858,-0.20300919,0.11109218,0.14219832,0.15018922,-0.19452342,0.20790267
mouton,-0.12320261,-0.10482651,-0.10620478,0.15887022,-0.1697378,0.1595622,0.14037763,-0.13644858,0.17938122,-0.11092817,0.16213877,-0.21028408,0.18025672,-0.12771912,-0.17477444,0.2117132,0.18981725,0.12049954,-0.15017775,0.19511643
acajou,-0.070004985,-0.01629999,-0.10000573,0.08133091,-0.1383957,0.139409,0.08570723,-0.10756062,0.15796073,-0.10502309,0.21057865,-0.09975329,0.040665224,-0.06519529,-0.09599535,0.048395127,0.21266522,0.1392839,-0.116400674,0.07416802
benjoin,-0.20419845,-0.0572263,-0.14482409,0.21236452,-0.13829751,0.1826627,0.17740014,-0.15334226,0.16237248,-0.111219,0.1825141,-0.1779806,0.24014649,-0.1942526,-0.21471936,0.13841388,0.16808131,0.27044192,-0.22795627,0.15438293
chamallow,-0.18360001,-0.106299974,-0.10106273,0.09509681,-0.1575666,0.16239339,0.13696419,-0.14104468,0.23580433,-0.13723919,0.16182907,-0.16203558,0.16822278,-0.16559784,-0.17772643,0.20242473,0.17551239,0.13245353,-0.19238295,0.13637537
genêt,-0.18414405,-0.09928775,-0.15755668,0.17913532,-0.14579125,0.21369928,0.05278606,-0.16541302,0.114215195,-0.10376605,0.20165235,-0.12475713,0.15239532,-0.11514178,-0.16793098,0.19744399,0.13803849,0.20364165,-0.20703581,0.10759185
durian,-0.14501975,0.043060657,-0.14454186,0.16485417,-0.091155216,0.16284102,0.09795345,-0.17930779,0.20365673,-0.217489,0.21843985,-0.15433511,0.18132272,-0.1686564,-0.2162143,0.21052983,0.13730222,0.19721496,-0.17027546,0.18608484
salsepareille,-0.11693034,-0.064079605,-0.03502375,0.035319537,-0.08419181,0.08016565,0.10581976,-0.063385315,0.04571627,-0.1665706,0.082746245,-0.048868053,0.15743473,-0.08332258,-0.03197569,0.1399139,0.08623551,0.035953008,-0.071070716,0.082960695
chips,-0.22314042,-0.15789877,-0.1720558,0.19084872,-0.16437119,0.21096286,0.20476988,-0.22600509,0.21114635,-0.14384155,0.15325606,-0.12329474,0.113853425,-0.116092585,-0.18702082,0.09790146,0.19929154,0.20730293,-0.21814042,0.12912756
cive,-0.18483081,-0.17930563,-0.13629329,0.16325518,-0.13955702,0.19962935,0.20066649,-0.10403597,0.20147431,-0.14864992,0.17123452,-0.20127767,0.1396895,-0.20578076,-0.19888815,0.12692231,0.19813073,0.14323935,-0.20557846,0.22547671
limbourg,-0.19362807,-0.18321297,-0.12076022,0.09815471,-0.13073006,0.15394738,0.106215745,-0.16198824,0.13928923,-0.14181882,0.15347898,-0.16320564,0.14114122,-0.17610338,-0.14495587,0.22059673,0.15007597,0.097865,-0.12887773,0.16940026
orgetorréfiée,-0.14853917,-0.19405508,-0.17723183,0.17252353,-0.07582937,0.13744731,0.09341417,-0.09926855,0.10737953,-0.15957193,0.15225244,-0.12386486,0.12978224,-0.16684829,-0.04623717,0.11361597,0.16496964,0.104466066,-0.07937829,0.107523955
angélique,-0.06594806,-0.06943296,-0.10725544,0.06223908,-0.13534288,0.18934813,0.18081108,-0.053649195,0.12485627,-0.16893128,0.18456572,-0.16833575,0.07839372,-0.14063314,-0.16691491,0.16627428,0.110610336,0.12929258,-0.04532651,0.10221055
beurredecacahuète,-0.1095249,-0.2125701,-0.16345958,0.21920967,-0.22006159,0.1512,0.1501324,-0.17391044,0.21340893,-0.19959658,0.13976997,-0.11531626,0.18393391,-0.099932626,-0.08418569,0.24496163,0.17095754,0.20358233,-0.15547891,0.091254175
fleur,-0.19289604,-0.10813323,-0.21751907,0.25793484,-0.23232642,0.20950335,0.2674983,-0.16174959,0.18842287,-0.19783062,0.10608676,-0.16436076,0.23460776,-0.19583361,-0.17306164,0.22515762,0.17073289,0.17826203,-0.19029203,0.11254823
menthepouliot,-0.21438105,-0.0380423,-0.20615286,0.16141707,-0.13665731,0.17102727,0.11869604,-0.041930452,0.18994607,-0.16415766,0.2195378,-0.20143497,0.19002838,-0.20315309,-0.16768983,0.121038176,0.13795917,0.19338565,-0.16753632,0.13213667
curry,-0.12909396,-0.054880947,-0.1272546,0.060154982,-0.13715295,0.052158404,0.09068246,-0.10036563,0.11727782,-0.14660525,0.013359483,-0.10763589,0.13686728,-0.14468947,-0.17701155,0.07394981,0.061962824,0.12690492,-0.12975359,0.06984573
lavandin,-0.064673655,-0.02386737,-0.118239254,0.15968055,-0.07546949,0.19986525,0.16052774,-0.195855,0.12679721,-0.20268163,0.11339183,-0.12640253,0.1102491,-0.06917997,-0.07149775,0.11822635,0.18223003,0.1798077,-0.20117271,0.08936992
ciboulette,-0.123430006,-0.058686864,-0.069354154,0.09883781,-0.18044062,0.099471614,0.14928648,-0.09548418,0.098869994,-0.12545797,0.16994193,-0.10594639,0.11656232,-0.13841957,-0.02484431,0.06379666,0.03974018,0.11903878,-0.06666191,0.1781318
papier,-0.15224664,0.09687257,-0.109339796,0.06542267,-0.048117448,0.10228856,0.1558145,-0.0780164,0.13610256,-0.035729,0.068550974,-0.13452588,0.06707229,-0.11477045,-0.09749674,0.1136743,0.13166866,0.03229251,-0.10613762,0.18020582
massepain,-0.19595878,-0.10566977,-0.03594211,0.15046737,-0.059754446,0.17572436,0.11417556,-0.11051489,0.07255338,-0.076801665,0.12407079,-0.114033975,0.06822316,-0.13826053,-0.18993837,0.19149035,0.17094651,0.13683017,-0.14785013,0.08431617
dindecuite,-0.13299927,-0.07909769,-0.18626982,0.1410574,-0.13589756,0.120818384,0.026520034,-0.038271695,0.06345439,-0.13435665,0.14168878,-0.10025854,0.08795816,-0.10856876,-0.11389114,0.06601965,0.21595836,0.088790566,-0.04154545,0.13541052
citrouille,-0.16094789,-0.19890518,-0.108665,0.12525825,-0.08061774,0.06521423,0.15054461,-0.08136241,0.1332497,-0.1355311,0.12745243,-0.11283481,0.1554624,-0.19159973,-0.08559122,0.092807636,0.09956877,0.12806022,-0.1885353,0.12261233
poulailler,-0.06845414,-0.063599944,-0.049210712,0.06615982,-0.09851457,0.12776308,0.08975421,-0.13785328,0.15030988,-0.041903067,0.15559664,-0.13365303,0.032415994,-0.040226985,-0.045779802,0.10488137,0.12775171,0.08444242,-0.12577891,0.1704883
beurrerance,-0.16611773,-0.18340948,-0.08569263,0.17826897,-0.23590219,0.18187946,0.1202898,-0.08402386,0.14795463,-0.112988465,0.16694939,-0.17815174,0.15640014,-0.08726835,-0.11602034,0.2101438,0.14478211,0.10072529,-0.13686568,0.15063927
orangeamère,-0.06855277,-0.14020102,-0.14985266,0.11098783,-0.13207096,0.11716911,0.0740149,-0.1027441,0.07114117,-0.08258898,0.113105685,-0.20348826,0.11595317,-0.07297279,-0.16231476,0.0799035,0.2057291,0.116683334,-0.17133671,0.16475189
paindeseigle,-0.06611344,-0.08686822,-0.11336267,0.0670102,-0.035412177,0.04985671,0.10969235,-0.12199182,0.08602337,-0.0664147,0.07189078,-0.0955922,0.10571784,-0.08646347,-0.10466561,0.09788482,0.050832268,0.13500747,-0.09568617,0.09294678
yuzu,-0.046380732,-0.040049303,-0.08427845,0.003833158,-0.09972162,0.11444382,0.026456123,-0.050081987,0.026172712,-0.09228705,0.084831506,-0.07087723,0.10510702,0.0050524436,-0.043608475,0.04396616,0.023145571,0.039468158,-0.03409868,0.13196422
pouletrôti,-0.17354152,-0.12937194,-0.07296275,0.1356866,-0.12019932,0.114970244,0.19436932,-0.12825793,0.07826097,-0.0938935,0.090505384,-0.091740265,0.13834251,-0.11806795,-0.10106036,0.08392724,0.14159575,0.14373478,-0.19492002,0.057912454
cookie,-0.08055708,-0.18006864,-0.11196552,0.09331904,-0.02582747,0.14213142,0.103751585,-0.07110999,0.1232112,-0.045077983,0.109131806,-0.09366157,0.1656931,-0.011272351,-0.1541835,0.11782755,0.0963075,0.10676184,-0.17824715,0.09653854
fromagedechèvre,-0.22049353,-0.048467137,-0.084499046,0.15990484,-0.21398532,0.18231706,0.13802293,-0.19343066,0.12002154,-0.19570461,0.17279309,-0.20568413,0.17205325,-0.06999818,-0.19721487,0.15861323,0.09800473,0.12789899,-0.15804978,0.14830773
asefétide,-0.10393928,-0.056262,-0.16138925,0.15713361,-0.12157269,0.13996632,0.085743256,-0.11884042,0.08846186,-0.072641,0.021425575,-0.091778435,0.14704178,-0.11462802,-0.049983658,0.12285831,0.12911958,0.09323583,-0.052355655,0.0946597
houblon,-0.19760561,-0.12094288,-0.14489937,0.13461499,-0.10556081,0.076007314,0.1544368,-0.10516898,0.12103371,-0.13199452,0.10198263,-0.1241711,0.13621163,-0.06797351,-0.14174029,0.08993469,0.13600154,0.10011889,-0.13313374,0.07609932
luzerne,-0.16020404,-0.16072792,-0.065686464,0.20308407,-0.19830477,0.15671393,0.15494134,-0.08201097,0.13371967,-0.14412859,0.12748288,-0.15802847,0.16719796,-0.13668714,-0.17657873,0.18048188,0.21602081,0.118855596,-0.21074036,0.21294531
châtaigne,-0.060940612,-0.086510465,-0.12737593,0.065324046,-0.035335172,0.09347297,0.04687109,-0.040215626,0.10839096,-0.008896787,0.0865518,-0.09225824,0.028359093,-0.03560137,-0.024937797,0.025309142,0.037365127,-0.034765285,-0.030214336,-0.01073412
origan,-0.14860933,-0.055285558,-0.18959925,0.11422515,-0.0885869,0.0721729,0.11655438,-0.008736385,0.14254701,-0.053855143,0.09953466,-0.120646015,0.05574333,-0.055395275,-0.12825587,0.017762799,0.11030137,0.17159244,-0.044974573,0.12542447
palmarosa,-0.12022798,0.0040794564,-0.11203526,0.1266939,-0.094368026,0.16658163,0.11228697,-0.00902205,0.070442595,-0.12624606,0.06775588,-0.03114475,0.05447632,-0.108074605,-0.0513725,0.12611216,0.051442735,0.10450473,-0.04650417,0.11353
hibiscus,-0.17651242,-0.007690396,-0.07379536,0.0877939,-0.16346054,0.05660046,0.082480416,-0.0772344,0.10107206,-0.08864984,0.14967458,-0.04974567,0.090139985,-0.06307757,-0.14029062,0.11892031,0.03327671,0.10583289,-0.01623134,0.037704766
noixdemacadamia,-0.154219,-0.09608688,-0.12594458,0.08095698,-0.11307612,0.08435749,0.121428266,-0.0752303,0.04806536,-0.1271745,0.04014963,-0.110412374,0.06522422,-0.1801616,-0.11474778,0.13114884,0.16367292,0.11333607,-0.08386767,0.059730593
coing,-0.10198663,0.028694302,-0.10745677,0.055373237,-0.010864946,0.05879522,0.08746173,-0.11061193,0.05401698,-0.09572376,0.02540287,-0.12658535,0.08185511,-0.11988212,-0.055224165,0.119267255,0.11280032,0.03397267,-0.090847194,0.09842937
parmesan,-0.09551607,-0.060297012,-0.07008032,0.15590945,-0.15646344,0.12943237,0.15445185,-0.11959793,0.046644904,-0.06970708,0.1410129,-0.07651939,0.05658311,-0.0589256,-0.11273141,0.05661825,0.075579055,0.15269282,-0.08693061,0.1425284
babeurre,-0.16306528,-0.117596164,-0.11526012,0.10874758,-0.045961652,0.103462085,0.1772605,-0.06337179,0.0787552,-0.148267,0.1837188,-0.09543123,0.10937808,-0.111938566,-0.08634608,0.08899164,0.09275409,0.11706786,-0.08132871,0.0920876
praline,-0.023422217,0.018986586,-0.04569326,-0.020900702,-0.08135879,0.078875355,-0.044576023,0.00878169,0.0579221,-0.0099821845,0.081537336,-0.060008477,0.0988438,0.046597242,-0.015732821,0.033188157,0.06713935,0.040748615,-0.028382009,0.057682406
produitpétrolier,-0.015579443,-0.06064824,0.0061770706,0.05267685,-0.10568583,0.0011805836,0.033517767,-0.09988071,0.0017841337,-0.07079006,0.043443765,-0.032480367,0.06435599,-0.0886013,-0.018894657,0.010185007,0.023163147,0.116212085,-0.0406942,0.10911614
fleurdesureau,-0.05731007,-0.04541182,-0.028188685,0.14078178,-0.14705598,0.080908634,0.033634353,-0.052117363,0.17081597,-0.074350506,0.110224694,-0.035306595,0.15948224,-0.1138995,-0.12582499,0.07543212,0.10275205,0.0855611,-0.090174764,0.05931576
saumon,-0.027136574,-0.07197594,-0.045371458,0.061763104,-0.106492564,0.06285349,0.11101819,-0.063631296,0.12237276,-0.12257658,-0.012494126,-0.14484937,0.0045456886,-0.05049035,0.02917387,0.063845806,0.13251957,0.004833958,0.024879372,0.016278263
thon,-0.03683974,-0.020769462,-0.1099714,0.080850065,-0.13140465,0.1420045,0.044613756,-0.13909662,0.09115086,-0.093176425,0.14414546,-0.08998788,0.09601107,-0.080708966,-0.03829345,0.029824145,0.07673899,0.10166521,-0.003144824,0.17305568
jaunedœuf,-0.13777283,-0.078790694,-0.13716471,0.13930565,-0.08476952,0.048460126,0.045635764,-0.1077945,0.056015596,-0.11534151,0.060435344,-0.10877119,0.08353742,-0.06769946,-0.0453588,0.097916454,0.15740126,0.14410378,-0.0409787,0.07160038
carambole,-0.07998036,-0.092964806,-0.15610723,0.059957545,-0.083157524,0.17036672,0.12179816,-0.09986295,0.116307355,-0.046965953,0.07072205,-0.15832171,0.11534507,-0.10116276,-0.11231319,0.12862158,0.06268227,0.020820813,-0.08240172,0.09646598
yaourt,0.013151032,-0.041128863,-0.062089134,0.067787685,-0.047162343,-0.01608401,0.06653756,-0.10456069,0.07397248,0.021846192,0.054383457,-0.09000982,0.07022479,-0.055502363,-0.05901146,0.09667919,0.09910765,-0.021382233,-0.08645863,0.060813192
câpres,-0.09437848,-0.10005835,-0.14010282,0.07954649,-0.059149094,0.116975084,0.16508761,-0.12172317,0.08831905,-0.056175828,0.091082126,-0.038929977,0.021495253,-0.07324987,-0.061048247,0.08651636,0.05350392,0.093289435,-0.14156802,0.050198548
urine,0.01176684,0.048117988,-0.07325105,-0.02501927,-0.012600999,0.07417186,0.032653105,0.066496246,0.05454277,-0.028652776,0.07385458,-0.07723676,0.018755237,-0.0065760575,-0.03310753,0.040981255,-0.040439155,0.016861642,-0.05428374,0.031112432
datte,-0.06505467,-0.07236114,-0.07516445,0.018792583,-0.06763711,0.09545137,0.15603086,-0.10503667,0.17055959,-0.04996664,0.07796069,-0.027735848,0.03138923,-0.10249721,-0.094232745,0.06307268,0.02749041,0.050654482,-0.040295567,0.11276427
chicorée,-0.009282723,-0.102317475,-0.15867901,0.014907325,-0.056821503,0.08959751,0.078384094,-0.097849675,0.040995847,-0.05207545,0.10182634,-0.06284382,0.099024996,-0.09147307,-0.0875709,0.088190086,0.053590793,0.048991825,-0.048026204,0.033748135
souci,-0.20584893,-0.10547997,-0.06349079,0.09227148,-0.15683687,0.1050553,0.039060514,-0.18453026,0.14190327,-0.058823686,0.14514689,-0.03686567,0.14831606,-0.13727881,-0.15443656,0.14001758,0.055547334,0.11592898,-0.05087113,0.037755374
grenade,-0.05630322,-0.034601185,-0.07613054,0.0907186,-0.08596082,0.055137195,0.071885385,-0.0022439174,0.07353175,-0.046831194,0.05377317,-0.053879112,0.09980332,-0.00968915,-0.15009868,0.105415925,-0.03735254,0.074815765,-0.0033589518,0.05644239
sésame,-0.10055253,-0.14195322,-0.1042333,0.058845125,-0.09040284,0.050991785,0.12968121,-0.15162036,0.15452151,-0.11805116,0.10305678,-0.13285461,0.121009424,-0.1390988,-0.13775864,0.13464676,0.042484008,0.117339104,-0.054621454,0.107843965
jonquille,-0.069428876,0.032695185,-0.11142195,0.13595456,-0.08399697,0.08207606,0.09352412,-0.041107614,0.013958101,-0.09864186,-0.011990913,-0.08979634,0.05953677,-0.08339191,-0.0805244,0.019247321,0.04031027,0.07070966,-0.02805239,0.06420181
hysope,-0.026160453,0.029389169,-0.023514241,-0.029751051,-0.041575108,0.10576369,-0.026575366,-0.033336572,0.060389694,-0.08055191,0.037004463,-0.05051276,0.048563533,-0.04754362,0.052612424,0.018623259,0.08955855,0.012921339,0.008827057,0.06777023
tanaisie,-0.0603472,-0.015352653,0.0056866016,0.034381643,0.009632576,0.048773237,-0.0011802576,-0.09915999,0.030825868,0.01505688,0.08549376,-0.012466587,-0.018080633,-0.03327616,-0.10928618,0.08313948,-0.009028612,0.09590095,-0.13389935,0.007308686
pâtisserie,-0.052862927,-0.066240035,-0.09178966,0.036177225,-0.061437484,0.06467191,0.093444586,-0.01007539,-0.012868261,-0.09831007,-0.019041572,-0.06533076,0.091406345,-0.08859882,-0.01213656,0.10755168,0.07288354,0.10752707,-0.03617817,0.06588289
pistache,-0.08637333,-0.052487515,-0.06723321,-0.023625612,-0.13931866,0.0069756983,0.11886161,-0.11933381,0.018739268,-0.04604923,0.013980591,-0.051130265,0.06306882,-0.051471513,-0.059524037,0.08001402,0.0989258,0.0725116,-0.067355074,0.028071791
jacquier,-0.04328529,-0.059899554,-0.07718615,0.08432528,-0.026977688,0.006610672,0.0560398,-0.09728654,0.0491641,-0.107456855,0.06389285,0.011439632,0.14564544,-0.11066855,-0.006458942,0.039727215,0.0605985,0.12981237,-0.012057338,0.022950929
insecteécrasé,-0.103166506,-0.06542021,-0.03078185,0.066279486,-0.12620524,0.06306115,0.039176084,-0.0339318,0.0286135,-0.048732154,0.05728706,-0.103851095,0.11039621,0.012922039,-0.008172245,0.031700145,0.120710626,0.03316445,-0.10841691,0.09222278
poivrevert,-0.04678851,-0.04142092,-0.04744201,0.02623756,-0.15377037,-0.0063973144,0.032688905,-0.03598936,0.11550076,0.02292864,0.0798715,-0.11160734,0.054110046,-0.063961096,-0.09313895,0.1070949,-0.005926637,0.10829078,-0.06432953,0.07572345
airelle,-0.10003796,-0.021611976,-0.10721287,0.042594664,-0.11659118,0.022357043,-0.008662454,-0.090786695,0.06618815,-0.073724076,0.055946495,-0.04992985,0.1235764,-0.017502455,-0.05676139,0.0736527,0.13730136,0.02491321,-0.13541768,0.013188111
tilleul,-0.09628783,-0.065530546,-0.05502335,0.042712394,-0.10058313,0.12757719,0.020133939,-0.080682926,0.040496398,-0.050890397,0.062259503,-0.10569624,0.06348748,-0.0028867275,-0.018359348,0.050721675,0.10319706,0.057158727,0.012614503,-0.0123026725
lingehumide,-0.07748426,-0.05366609,0.042584907,-0.006110754,-0.06669629,0.01021685,0.00652643,-0.0991683,-0.028021552,-0.04164061,0.036613762,-0.07081279,-0.065938555,-0.014862265,-0.08901985,0.027581438,0.07635018,0.008361755,0.016185371,0.02165484
huître,-0.005989228,-0.088149995,-0.14917505,0.051693216,-0.056564134,0.068896145,0.05356154,-0.034862798,0.0843444,-0.0188805,0.14602204,-0.08983421,-0.03332905,0.022422403,-0.0025701355,0.07975074,0.07627806,0.06854105,-0.079670906,0.014392121
foie,-0.08509526,-0.05505096,-0.08621974,0.15281364,-0.0761137,0.030180274,0.12492797,-0.14265396,0.071302295,-0.07692309,0.055531524,-0.09368442,0.048596613,-0.09303859,-0.018147236,0.044587493,0.15128121,0.062413085,-0.116548,0.12081367
mastic,-0.078972414,-0.048886593,0.0024080938,0.08802595,-0.015039647,0.005580073,0.08405465,-0.057160273,0.071481824,-0.07650824,0.069297865,-0.012966592,0.09741737,-0.06513469,-0.08436543,0.032290827,0.055030625,0.111393064,-0.074280106,0.0700206
putride,-0.096153125,-0.06207582,-0.1309977,0.03275511,-0.047232613,0.01422975,0.04252678,-0.06743888,0.03857391,-0.037498288,0.10887936,-0.13277246,0.084814526,0.0037621246,-0.024889775,0.040294945,0.06605948,0.03047163,-0.015329731,0.04149317
noixdepécan,-0.16578737,-0.04295254,-0.05577603,0.0594484,-0.041678324,0.08528015,0.061838754,-0.065577835,0.088315904,-0.06578915,0.017128278,-0.11827334,0.067349575,-0.031096373,-0.07856841,0.0060277665,0.12518089,0.09719272,-0.089731894,0.08121432
chêne,-0.036513947,-0.05947842,-0.018397618,0.053921614,-0.13958618,0.09412688,0.03743576,-0.006864356,0.08983786,-0.110297136,0.04686236,-0.07366597,0.09290239,-0.011305354,-0.07952182,0.072280295,0.11836313,0.09505387,-0.11554027,0.012022911
épinard,0.005814247,-0.019229783,0.05752865,0.091740996,0.015066182,0.018727627,-0.030508399,0.045268655,-0.061925042,0.08317373,0.011628117,-0.03592787,0.011868164,0.0065708756,0.04313233,-0.05936332,0.04011837,-0.004315352,0.06507171,-0.05476463
tequila,-0.087056264,-0.025375303,-0.12685049,0.010915752,-0.013938482,0.05483918,0.08463274,-0.06516679,0.047545716,-0.09924881,-0.01514692,-0.12019853,0.14365883,-0.073965706,-0.060044773,0.070294484,0.053017028,0.022428207,-0.04568982,0.051757466
bouillondeviande,-0.009436172,-0.095289625,-0.096248895,0.121159285,-0.11586985,0.10187184,0.08407986,-0.06855068,0.018868549,-0.108645424,0.028520398,-0.079208374,0.083211824,-0.091683604,-0.08638495,-0.0031618243,0.06426207,0.038379543,-0.048885748,0.11223811
vinaigre,-0.025663935,-0.041441105,0.022445561,-0.05007085,-0.010184773,0.017243508,-0.035497356,-0.078701265,-0.03656708,0.03387677,0.016331563,-0.012872733,0.06402939,-0.03959823,-0.013290881,0.03712073,0.008546494,0.019064948,-0.003162194,0.04576425
marrube,0.019127775,-0.04258617,-0.054284297,0.07545885,-0.06840546,0.085584834,0.067913264,-0.042443015,0.11695926,-0.06706217,-0.0026349393,-0.12313716,0.09957743,-0.03485547,-0.012577508,0.12359986,0.023971725,0.0697024,-0.0319968,-0.029863795
calamus,-0.10599964,0.093865685,-0.07868941,0.071024165,-0.0349029,0.11372785,0.04201056,-0.036633,0.03406473,-0.047739,0.0076664034,-0.019796185,0.05003296,-0.027853303,-0.07281156,0.086390525,-0.014506122,0.044084422,-0.12494223,0.067139305
fougère,-0.07202857,-0.056365587,-0.05039324,-0.020932807,-0.10491414,0.06254412,-0.0005143691,-0.00087971985,-0.011020871,-0.056188818,0.13495338,-0.11107425,0.03836271,-0.06927747,-0.01924063,-0.01886585,0.013255529,0.077828445,-0.003934283,-0.03202678
